6.920616915632255006e-01
-1.939458940501136153e-01
2.856926216602177493e-01
3.641178217910157611e-01
-3.859479538378225993e-01
5.413117752185427900e-01
1.802967294493535710e-01
7.799970501917720123e-01
-1.685845528903925916e-01
2.503350361057810614e-01
-2.450036064058683516e-01
-3.503185717388419551e-01
-5.257176837703431138e-02
2.785733121831705628e+00
-3.371856400297588152e-01
-2.072549466253071071e-01
-2.899936747588002239e-01
-5.247036192165354107e-01
2.553142269874473236e-01
4.902770343732205105e-01
-1.308655527575207922e-01
3.357557704413789701e-02
3.465717604910444338e-01
-1.207328014896149188e-01
-3.421073975680160584e-01
2.793624978149054638e-01
-3.580944759387694742e-01
1.925434990512632227e-01
1.903439262629611217e-01
2.322145569195509518e-01
5.098800030313893616e-01
-3.187777040600731637e-01
-3.684233810064780901e-01
7.636779941144484773e-01
3.301462623412051295e-02
5.524092517525733825e-01
-3.283855313399473008e-01
1.038318258124536486e+00
-5.626837033380031050e-01
-3.723825050473394405e-01
-8.434022107956953285e-01
-3.865032145334322822e-01
1.740635894843030052e+00
-1.884041096416631533e-01
1.403693521327608051e+00
-1.337130946046596769e+00
5.738668646500552084e-01
1.988958566547485984e-01
-4.452965786011397475e-01
-4.162244791945390876e-01
4.652309327365480307e-01
2.121792137894563390e-01
-3.752136023987307500e-01
-9.048659230718643365e-02
4.296313106708002372e-01
-4.616066220247369012e-01
7.650545189506797739e-01
-8.007095928950126451e-01
5.391844791393726188e-01
-1.767877229350215629e+00
-1.682495670776328334e-01
1.826309546184658128e+00
7.572598979502355165e-01
6.050308435682660857e-01
2.822512815508787520e-01
6.024824874192407087e-01
5.421145771239854749e-01
-9.945490606079266938e-01
-2.012236266153469288e-01
7.574131037352737073e-01
-6.211535069754556271e-02
6.146079393506700406e-01
9.820670884088608110e-01
2.488386319172800898e-01
3.642000893686979102e-01
-5.721550846306137084e-01
-1.108968941396906577e-01
-4.271708793009937333e-01
-7.327609534399266433e-01
6.810691289020489592e-01
-7.566076993134433770e-02
7.225991511208398714e-03
1.183529464325301928e-01
3.320483711072948901e-02
9.736684672031159504e-02
1.434916849050399124e-01
-2.177871008190350455e-01
-2.056157953393240312e-01
6.218768189543441571e-02
-3.206070883700242180e-01
1.143392577077052968e-01
-7.304437897375649635e-01
-5.749455708735493747e-02
-1.434207436539703950e+00
-1.155937908704878503e-01
1.574028319847950996e-01
5.375548684518961506e-01
1.724183216166978727e-01
-2.097674679588975577e-01
-1.094805164352364024e-01
-2.495747344440879534e-01
-4.833795462332485804e-01
1.833800775233433156e-01
3.139506468364122171e-01
1.566169154061534674e-01
1.340427091919089986e-01
5.473386318224288116e-01
3.189895198982766744e-01
2.614303834794476922e-01
3.500123924882633242e-01
-1.502374196813127845e-02
-6.892856187177466565e-02
2.106934720944445283e-01
4.334756014953973224e-01
-9.241862544230827758e-02
-1.220850894341813792e-01
1.322868828178290768e-01
-6.914199491325545566e-02
3.008121712925527214e-01
2.224833611441065506e-01
4.265094319264774170e-02
-1.932510728486755147e-01
1.057997830934743200e-01
-2.711587286843412103e-01
-1.808048319445521024e-01
7.861910061929307247e-02
1.069260893827181785e-01
1.559750083723297209e-01
-5.507436249911213944e-01
3.089084170700073240e-01
4.563669962508702313e-03
-9.111182323216666934e-02
1.577706308530468227e-01
2.298914193722601529e-01
-8.404432268198464007e-02
-2.372097713037897848e-01
-1.868059333416121071e-01
1.463818111640552144e-01
1.731652234236181198e-01
-5.083202205659972245e-02
-1.227073393075498731e-01
4.287132765487878389e-02
3.624856897456165683e-01
1.117920369583292328e-01
2.423998021455389951e-01
-1.990661583406912460e-01
2.121312730010480596e-01
1.393264948579251150e-01
-6.958933017485446904e-02
2.113484316404935504e-01
-1.028291715367882497e-01
2.543072415189236990e-01
4.095235443580106521e-02
-4.776930727755991646e-02
-2.034662404880950848e-01
-8.298223024251705215e-02
-1.759151100879811219e-02
-8.274989142924475682e-02
-1.903197174355611698e-01
-5.232905656333380374e-03
1.866515188712609130e-01
8.738454885059528804e-03
-2.382671431316288613e-01
-2.063775696363559786e-01
-7.449622008507156279e-02
-3.697162815211522124e-01
-1.187575271455137693e-01
-1.728303963579528868e-01
2.839963347269324201e-01
-2.334649395252481607e-01
2.015426158701268122e-02
1.165479738660021997e-01
1.886520591889320198e-01
-1.596127654125890916e-01
5.788794138262945421e-02
-2.822069598351105157e-01
7.410582179587048290e-02
1.778103341673353821e-01
4.013530581623322435e-01
-3.841247239321532447e-02
-2.244726525351248836e-01
8.666868277940061038e-02
-5.818203393567265014e-01
2.798264846008850434e-02
-2.963294550424944163e-01
5.378855743880760903e-02
1.911819842034352332e-02
-1.326460868977078766e-01
2.996604033227995290e-01
1.175792978656914206e-01
2.496598308491668194e-01
-2.184121105452068237e-02
-4.417325576105174401e-01
1.995037141342055065e-01
-1.977140775505083770e-01
-1.693355440474530460e-01
-2.707252269563671931e-01
-4.222140433011901672e-01
-8.332137342064635521e-02
1.273476609439264662e-01
1.120165776063874324e-01
-9.513502575002255046e-01
-3.836330218837362693e-01
-4.202607306798883391e-01
-4.294348551706154704e-01
2.241001513411028101e-01
-8.221342114892309094e-02
-1.844762529347003521e-01
-1.997913592591953613e-01
-2.975250679184539560e-01
1.875084206153126432e-01
-1.090923252375819441e-01
2.587773981587265792e-01
2.465076978395813467e-01
-2.677303785198940078e-01
2.802142558876055678e-01
-2.138602883384416453e-01
2.377250427767972907e-01
2.403592015489920963e-01
3.763500894816830256e-01
9.675408895161764517e-04
-1.875110883162585951e-01
-8.815698040288705295e-02
2.475001426156851064e-02
-8.269450137363816566e-02
-1.478755744564702324e-01
6.120064875453605502e-02
1.111827042666451715e-01
1.128176158749992671e-02
7.697110740774599710e-03
1.393653768002676707e-01
5.989738005478493360e-02
-4.265972429746485717e-01
1.252298987113002193e-01
4.191477864475040560e-01
7.460038168857162366e-02
9.123273706751858529e-04
-1.643375058110394527e-01
2.244874796380329218e-01
2.244028307952099510e-01
2.797405116832713534e-01
2.646473687764203109e-02
-6.163391379517486612e-01
-1.667806886879704409e-01
-5.271013307555776350e-01
-2.143764178287023980e-01
-4.859597228680220815e-02
-3.725043875670060872e-02
9.155783708803903395e-03
6.328492483954085979e-02
4.853074019128823802e-02
6.009717849567627890e-02
-4.512792181127325136e-02
3.614680065914285811e-01
-5.323266267064213908e-01
1.304105701507948523e-01
-3.900676729044466051e-01
-3.756002932566713248e-01
-1.732354667064962273e-01
-1.270534070823312878e-01
-2.729856434904640583e-01
-5.087628802239084758e-01
-1.995895140853665983e-01
-7.951656748131562258e-02
-4.295996195384946259e-01
-1.688108509973221261e-01
-2.521024745588023586e-01
-1.450352106842960898e-01
-1.995298934965520909e-01
-3.889831795638759027e-01
-2.012520478226153264e-01
-1.997215389741317793e-01
-1.484271340964689878e-01
-1.128759973945053230e-01
1.600642331259390094e-01
5.668242202247897321e-01
1.831435290920345738e-01
1.053738291927595189e-01
-1.246702697336316890e+00
5.026940747465363790e-01
8.155133899252543783e-02
-3.760254578576768258e-01
-1.204673817921026735e-01
7.902123803757360454e-02
1.869156479169892596e-02
-2.342222152669075630e-01
-7.313114990221056821e-01
-4.009900712323553051e-01
-1.491128117272385312e-01
3.886981806837579434e-01
-2.497630984267453780e-01
-8.005429863470463203e-02
-5.470524667253887172e-04
3.886918077286916073e-01
-2.365470805770225268e-02
3.978919506305695353e-01
6.755386153207527666e-01
1.932143807292366899e-01
-2.078863442590063171e-01
3.790313234028671596e-01
-2.091474992633270968e-01
1.510655196984692361e-01
3.608027607866468589e-01
1.370777266285589380e-01
-8.196358601720511033e-03
2.922288718940119767e-01
-2.294905235795295477e-03
-1.037324015845774855e-01
5.237076023030300398e-01
-1.734740635135676445e-01
-5.453017155188770448e-02
-1.249123672523620721e-01
3.572693878472225082e-01
-8.818842741997921786e-02
7.586079580440928394e-02
1.621059705220146141e-01
4.942001481755861070e-01
-1.128380793137437749e-01
-1.533109508739393008e-02
2.208972883877027144e-03
-2.270978549042528272e-01
1.511018793751873202e-01
-8.404817300130741631e-03
-1.377910448842022961e-01
3.542715794077757052e-01
-2.194482433718478454e-01
-3.254391422943540141e-02
-2.013312360581267502e-01
2.356736599273582256e-01
1.742993007680196382e-01
3.520403807623571635e-01
1.683945314584587849e-01
3.166517251741378658e-01
1.273922915875936035e-01
3.174410923418731489e-02
-2.601509915526836747e-01
-1.285480269353923288e-01
-1.814002205712504368e-01
5.236000989066531552e-01
-5.228397928899979341e-01
-2.640999380820274189e-01
2.257352935486806322e-01
-3.531645137802297274e-01
-2.857898549563310242e-01
-1.793757204569568497e-01
2.731797607432217070e-02
2.625905936140203734e-01
-1.160257524303301285e-01
-4.035651140648471857e-02
1.810269528454433452e-01
-3.704786558284600684e-02
2.992402082704276878e-01
6.171991403191754572e-02
-3.795952552786148460e-02
2.869823746788953689e-01
-1.933088573541255351e-01
-3.173556499195681058e-01
-5.525440634782444876e-02
3.214525028400888051e-01
-3.756064691874378414e-01
-1.758234694863200775e-01
6.225403641924443648e-02
1.282369008474423533e-01
-7.737577852003763024e-02
5.836144530129933755e-02
8.975520795133483387e-02
-9.739430930718981361e-02
-8.745178500031990099e-02
-3.081367271692824761e-01
1.221189626341936535e-01
1.784953282079348447e-01
3.366431778871185609e-01
9.676946747105175106e-02
1.731562262037658062e-01
7.739745246581622657e-04
-1.970512679156045943e-01
-4.570543973998991011e-02
-6.734774128414235117e-02
-4.024527012992028252e-02
-2.397547544876335868e-01
1.194924702554492485e-01
-8.272743926707175344e-02
4.143301434375623593e-02
-1.173092952595585770e-01
-4.391906954317229550e-01
1.353779644162720619e-01
-2.957953143891608461e-01
-8.283572384572672476e-02
2.032899844581340446e-02
6.740923256690355136e-02
9.591600395416377545e-02
1.158859336017773189e-01
3.819739015540941640e-01
-3.954672540060403391e-02
-1.243820968943883248e-01
2.380484134604026261e-02
3.420754059946917898e-03
2.021445775134533829e-01
2.135583991633816514e-01
8.563643045638091866e-02
-1.071300557538456821e-01
3.390243208183238988e-01
7.562656059867554903e-02
-4.401654928792192445e-02
-8.197043488410458989e-02
5.723394065404030506e-02
3.069861505265963353e-01
6.561261912255075823e-02
-1.127411152498061647e-01
1.979080698340724420e-01
-1.933775220125059646e-01
1.658998696636783121e-01
-4.353356934901601166e-02
-3.873704280389390631e-01
4.323775762176059433e-03
2.885649049958960433e-01
1.171646565927099148e-01
1.531090840798446095e-01
2.749577463925422308e-02
-2.978900121249086208e-01
-2.659318082711785713e-01
1.882538021224521713e-02
-7.109281723978050360e-02
-4.020456145187213670e-02
7.262180998180164937e-02
3.044518882334350529e-01
-1.643422156478622012e-02
-7.711106111508227168e-02
-8.165727446252166732e-01
1.748270230166114325e-02
3.009959254538735474e-01
-2.521494462023619182e-02
-1.374052395693944051e-01
-1.660433015540528912e-01
5.167766981909702184e-02
-2.287551356499261113e-01
3.196419262373296349e-02
-1.955457556648984851e-01
1.101829396750687445e-01
2.284850246260249629e-01
-9.297036105371873915e-02
-5.089477248621124827e-01
-2.971991208223509484e-01
-1.312570300986405647e-01
-3.179234527852361492e-01
3.684806731091321286e-01
2.166166298968001669e-01
1.892722536278493017e-01
1.809351116704511486e-01
-1.375819869481812417e-03
2.469397484971848356e-01
2.664653707654069392e-01
3.573226589679712739e-01
4.753422346794735492e-03
1.208734847795386869e-01
1.414166312197549791e-01
-2.058701781661105568e-01
3.410701587316032346e-01
1.203245468925987910e-01
7.508023743995941197e-03
2.186479546005169750e-01
-6.060131797224128924e-02
1.274544440212956598e-01
1.631499559097174257e-01
-7.753427818163351193e-02
7.587425172192747702e-01
2.914685851229579239e-01
8.933178837407743100e-02
-1.019391963128157830e-01
2.039731269727657059e-01
-6.961973843979424315e-03
-3.018999804952952545e-02
-6.772657838484415216e-02
-2.613751390052287404e-01
-1.121311839885521244e-01
-2.534033606696326490e-01
-1.989006377544444426e-01
2.833719402314931884e-02
3.194966110539107507e-02
-3.195322226701401425e-01
-9.640124188104476355e-02
1.342091740510715503e-01
-1.768889281719621398e-01
-9.364246454579033818e-02
4.910919832413306041e-02
2.721257423887115667e-01
1.084272201860006779e-01
5.488339764578297614e-02
-4.200492078875289748e-01
2.213244496306355780e-01
4.677999938368681415e-02
-1.218683017666045698e-01
2.376082313871731855e-01
-1.261990221493637654e-01
2.989378603300920090e-01
-1.688342363088931805e-02
-1.792826737523388614e-01
-1.978033383698681313e-01
1.255870950053172563e-01
2.475909079254050640e-02
1.422904703694596873e-02
-1.024146166713139905e-01
-3.797724052670665706e-01
3.205878492231924171e-02
-2.158716577804888070e-01
-1.072213505614848517e-01
-1.555260750142050397e-01
3.223681861024119133e-01
2.921387515507123736e-02
-1.416059338853780103e-01
1.430240842915220689e+00
-5.531754263950428019e-01
1.451318502111991759e-01
-2.153087091264312414e-01
-5.665901244550753946e-01
-8.275163545930761533e-01
-2.009043850904004558e-01
-1.309523945289042257e-01
3.542366578546798817e+00
2.737228797628404181e-02
-3.507230860214618495e-01
3.499397862976681428e-01
7.631044321259962127e-01
2.236686184739780536e+00
-2.630320646672077989e-01
1.323159519299110132e+00
1.175835150301722365e+00
8.137773863049947431e-01
6.771393481778037286e-03
-2.857224034455289607e-01
-1.522258388288909303e-02
1.238560021383105780e-01
4.651575038523950156e-01
-7.234676760146377950e-01
3.487742569566566475e-01
-5.429550747310946113e-01
-5.278518735234937614e-02
2.035659313170112561e-01
-3.455131871724614195e-02
1.083394104348460729e-01
1.061773234138514294e-01
4.276347454391236924e-02
-1.585712832284211504e-01
3.132572253989537869e-01
-1.660927363481884966e-01
-1.189550494764314015e-01
1.301757135030749135e-01
-2.911812946871228380e-01
-2.650639933553597949e-01
-3.977261543021777257e-01
1.186380139308133332e-02
1.765034940553886211e-01
1.299333795815721670e-01
-1.317290271464452607e-02
-3.155624702499451040e-01
1.746184752370847498e-02
-1.143795866536625877e-01
-2.200279873910393480e-01
-3.868569263720389451e-02
1.632308716596530263e-01
4.199412485890554603e-01
7.432319585411678586e-02
-2.099467579683367002e-01
-1.931884448711497851e-02
-3.679801451109401128e-02
1.402890535834821761e-01
1.471782470203904236e-01
-3.089945069551133239e-01
1.577680192617574306e-01
-3.652946047514092909e-01
-1.399318276480224048e-02
1.010043401574087923e-01
-1.038954200518164978e-01
-2.747980112437120245e-02
3.288215886021722545e-02
1.423400917719569725e-01
-1.493461297317930092e-01
1.257988888044047314e-02
-4.679335833006944556e-01
2.349038948136004945e-01
1.344242692616750279e-01
-2.692184740333932180e-01
-1.692596876646007553e-01
-7.362750243123336591e-02
5.399965256158654331e-02
-3.212947787787270304e-01
-2.393913708316265376e-01
5.207052748136949821e-02
4.232991191516620455e-02
2.482449504138251051e-01
-6.468737142560708475e-02
-1.054878715308763260e-01
2.391308318120969126e-02
1.348196862784989403e-01
3.569161213359702822e-01
1.094431355436402548e-01
4.216949310540938911e-01
6.086216816081720798e-02
1.820474827646208910e-02
-1.183888707759214037e-01
-6.109877119213669855e-02
-3.489160194754558492e-02
-5.963776194849100022e-03
9.919135502455772579e-02
-1.037153674060985464e-01
-1.530257521509030272e-01
-1.351387713415456715e-01
3.274333458144687049e-03
3.814722742884964490e-01
-4.638789175621663707e-01
1.751685903994037452e-01
-1.389885029131365246e-01
-2.044019187484955036e-01
-3.709063479227674986e-01
-2.564285577849340636e-01
1.899413569633485455e-01
5.675177813918638181e-01
-9.177680386515087857e-03
-2.266026246911956310e-01
1.077197572258030839e-01
2.324137932106947468e-01
1.760081951391261890e-01
-2.562661161743494675e-01
3.372051676637254081e-02
1.280443462380413955e-01
1.729927908534800163e-01
-2.058341291402214224e-01
-4.758984644841155465e-01
1.501906658432970720e-02
-2.597012273901431190e-01
-4.145233387403992054e-01
-8.954214652890110648e-02
-1.079846800817746560e-01
-1.702066522763383827e-01
1.916784080929728462e-01
1.325911524154062548e-01
6.490958538460722682e-02
1.917969608968464468e-01
-5.253337407887470611e-01
3.809539751913586514e-01
1.037684177088556148e-01
-1.614521385464333936e-01
3.583905064493617815e-02
1.914947299420078353e-01
-1.940331444617386381e-01
8.576361037447065294e-02
-4.129688972555455861e-01
-2.099790949368988413e-01
1.232864746052742266e-01
7.629696821831534470e-02
-2.096978728756901389e-01
-2.219381997865573775e-01
7.006702851489909900e-02
-8.293334632591040090e-02
-1.047857823582666326e-01
1.011403266056870587e-01
4.018812932707894192e-01
2.997354724508891066e-01
-9.341704392349228780e-02
1.210323901611616015e-01
2.354209977906810136e-01
3.991742630037624640e-01
2.723022799677988354e-02
1.313967987841046237e-01
3.187164377114753977e-01
1.401661149283940921e-01
-3.513695818264935822e-01
3.046138253878050151e-02
9.230086692614124511e-01
-5.096416925450192315e-01
-2.520299802123104546e-02
-2.820216791644933330e-01
4.062991328398229407e-01
-2.186613908707366327e-01
4.318296282877719799e-02
5.516567815458449653e-01
6.576981093806671952e-01
1.086013509442672886e-01
-3.525058395926852078e-02
-1.231932051540493567e-01
2.006268450511860812e-01
2.024292225687829572e-01
-4.800906085698300463e-01
-2.895343202250529324e-01
2.442599047635750364e-01
-4.240063571925102859e-01
6.167917340384466707e-01
-2.045477654014225544e-01
4.156085011476184921e-01
-9.446085098737563857e-02
1.316901622304816055e-01
-3.699318563863029236e-02
-3.336489489179844670e-01
-2.234649518657969292e-01
-5.602741536182030968e-01
-8.799590878454557896e-02
9.211153324606367876e-02
-1.718552987883360805e-02
2.934922434132273827e-01
9.062500086836483559e-01
2.386078156778307369e-01
1.924675651644341678e-01
3.243788573228338634e-02
1.210920459463942001e+00
6.230571585980829857e-02
1.728820880829444184e-01
-7.181794653853255106e-01
-2.028021512388029080e-01
1.787518625786158333e-01
1.220488638977400425e-01
4.386875941396537609e-02
-3.614129639659590526e-02
5.049308926874132020e-01
1.003108212467984511e-01
1.059437793394313147e-02
1.796514644214551593e-01
-2.245587520178924518e-02
4.005873216428920136e-01
-5.571725554111715134e-02
2.982257031611863507e-01
-1.037980728392343642e-02
-8.358453785641875577e-02
5.647654153809968103e-02
5.096128215966674868e-02
-1.015370179739159828e-01
1.109805695948172521e-01
-9.361685545704212519e-02
1.864531597309726507e-01
4.543444862762168607e-02
-2.000425118004795777e-01
-4.412077113661783123e-02
-1.019279637721613452e-01
2.314931968252792738e-01
-2.464123817602794086e-01
1.291354135790675484e-01
2.097311956149393586e-01
1.664093047058996452e-02
-1.186290226162163702e-01
2.395169609942812139e-01
-1.334422469625422547e-01
-1.932842062669310468e-01
1.935795003169524797e-01
2.233240020487078648e-01
-8.560601847928824004e-02
-9.918882566931219724e-02
-7.424281588422219913e-02
7.637053115689568239e-02
3.985607922532917458e-02
1.529862420255291011e-01
-2.867251883597049522e-01
-3.874304594225095322e-01
-6.522907889757907640e-02
-3.014123524001295351e-01
-1.797316398153664951e-01
-4.809752872656036793e-02
3.345438035056261805e-01
3.740497257913049656e-01
-1.212652997396438670e-01
-1.116168387030220810e+00
6.440378248794834670e-01
2.018595553843585688e-02
-3.604056160734209202e-01
2.050173614774106895e-02
3.894490462046231727e-01
4.137757377705869044e-01
1.353347379438593970e-02
-7.229460958855122854e-01
4.940119827493536647e-02
9.024447923983902609e-02
5.724988549436255819e-02
3.930628599945039381e-02
-3.825744606379168911e-01
-1.267542850943353394e-01
2.454049578689207478e-01
-1.086989196350698766e-01
1.828986533340976051e-01
2.682211249413370413e-01
4.132952591374609019e-01
-3.016052832232680725e-01
4.045187881113512240e-01
-2.751408889758801823e-01
-2.434163956193885203e-01
-1.393063319086597085e-01
-1.246801908657095281e-01
7.273151893994207751e-02
-2.524553342868473323e-03
1.831458143260992488e-01
2.126434867875610230e-02
5.488153586022967989e-01
-1.763487827583365697e-01
-6.321522556047387553e-02
-1.869019747342605120e-01
-1.273873575799137070e-01
1.012306206692988181e-01
-2.347700497268564654e-02
9.728388681772241753e-02
3.241235919341868277e-01
2.667282704251772163e-01
1.126397780248123703e-01
1.365249552638437835e-01
-1.838362563244621828e-01
-7.195609833887231521e-02
7.384216335736739495e-03
1.562769570411662867e-01
-2.812817893637994948e-01
-3.015662597837928671e-01
1.426283135610497688e-01
-1.599190011976248937e-01
-2.582966507427560954e-01
-3.972375150919481290e-02
-1.239406486093510978e-01
1.325586197899618623e-01
-8.324501704212916575e-02
-5.516886492947704890e-02
-1.608959401581433191e-01
-3.006262284778993960e-02
2.049109171897986470e-01
-6.176174900495351450e-02
1.841934138564568085e-02
-5.963005398397295403e-02
-1.355317721874007286e-01
2.379112453018297074e-02
-4.860479063365182317e-01
3.493321082505546071e-02
-3.868826539088631167e-01
-1.218250816980938761e-01
1.324078699730323744e-02
-3.170141942431488058e-01
-1.609390477625596561e-01
2.278680664218167840e-01
-4.941428205498182846e-02
-4.177285262051841364e-01
-2.952025525353622060e-01
-5.188855797121730284e-02
-3.098099012126828145e-01
1.434865462311127327e-01
2.623036477357412188e-01
4.958900608132026967e-03
5.474112499184774494e-02
-2.441860539958227438e-01
9.272661214211630476e-02
-3.421421038841785389e-01
-1.450123603616925716e-01
1.227183957491037036e-01
1.986071109497397069e-01
1.366844478287575562e-02
-2.067412055140271931e-02
1.343112864398572637e-01
-1.507349414213687289e-01
-2.031506693752533621e-01
8.937643906859747689e-02
-1.030556452803477463e-01
9.577237438418789717e-02
-6.151537926256171046e-02
-4.263868423149194675e-01
-3.377836288148876043e-01
-1.083279586120221294e-01
-2.897666324884667910e-01
8.383718199965395010e-03
-7.970093821642361409e-02
-2.858417975491830965e-01
-2.236691774029399282e-01
8.000993741020025196e-02
-1.734077077606606676e-01
-2.009996207571206894e-01
-1.143772212694475210e-01
-2.196360526897106480e-02
2.569403944525265882e-01
2.465642381491033319e-01
-1.669992393437198519e-01
-2.550264768010044453e-03
-1.082482190137357969e-01
-6.163177707327054111e-02
9.992579725018652104e-02
-1.963228464498836534e-01
-9.686248364870478356e-02
9.054973593355639117e-02
1.076073093304205919e-01
4.538631368847312331e-01
-1.018523186914127160e-01
-2.961397700827648194e-01
5.315203741827231876e-02
-3.043661152861020652e-02
-3.991865107952270036e-02
1.885866754421458916e-02
9.126086994967504140e-02
4.028758988721408141e-01
4.940586192899243945e-01
-2.916619908766058256e-01
-6.852411662378239676e-02
7.345364127290032741e-02
3.898291883305915473e-02
-1.142392315567766908e-01
-1.533282107895140578e-01
1.537334893428954630e-01
-2.652240873809114108e-01
-3.913686185469848755e-02
1.696529427922074083e-03
-5.815553517292749303e-02
-1.606095675589721827e-01
2.260617296182772934e-02
-1.727029768576228974e-01
-4.864505209480872172e-01
1.227421236659394510e-01
7.982701965479252482e-02
-4.580818162706147278e-01
5.592553077853157362e-01
9.699984688819933421e-03
3.549914317806988628e-01
-6.789774150437135614e-01
-1.322610783559597936e-01
4.303728257216561937e-01
-1.525961050801653285e-01
-6.154401957421582608e-02
-6.121150319662686107e-02
-3.739686173123681345e-01
3.846943265329209605e-01
1.267976764567293468e-01
-3.013551582595364042e-01
-1.748863263892312947e-01
2.053734141666646584e-01
-5.984930703166219806e-02
4.098394397420164481e-02
-2.249515071060479710e-01
-3.770627750375316056e-01
-2.898259508336751278e-01
-3.565868998324921435e-01
-3.183549241650836525e-01
1.847548511413329708e-01
-1.867820251733722792e-01
-2.467766750321279123e-01
-7.535823450731150841e-02
-2.173148939701393667e-01
-8.332995420132732756e-02
3.937042228676771588e-02
2.642762818433906369e-01
5.187208994509570625e-02
3.928730236815636961e-02
-9.071342463752871677e-01
1.737645860860459190e-01
5.002253788644636101e-01
-2.794737221092074564e-01
1.195496203728279583e-01
-3.233986348531011634e-01
2.662656385787973701e-01
-1.406322595459308378e-01
-4.572980876261618643e-01
-4.817985436685507383e-01
3.242469008663458885e-01
1.806603243925279656e-01
-3.372872917449974417e-01
-4.909497688563084668e-03
-4.596702501744166780e-02
2.403834935997817557e-01
-8.864283373931888810e-02
3.864531347112423743e-01
8.679116225870625589e-01
-8.682628974978609526e-02
-1.098326571498778187e-01
3.746597966709523386e-01
-2.035800121276093999e-01
1.177694811952091219e-01
-2.476808063988844566e-01
2.507121041522104576e-01
-1.564597991898403206e-01
1.041092181055939120e-01
-1.772601873122726934e-01
-7.709504315149388887e-02
-1.754022050532023091e-01
-2.607531165547578023e-01
-2.275503315759729861e-01
-3.343832482708807008e-02
-2.265978774021868425e-01
-6.690111566375546437e-02
-1.269365791582068581e-01
-1.184283957038658880e-01
-6.125132609440333414e-03
-2.717041503429853400e-01
1.244556723718187596e-01
-2.125590170624661601e-01
-1.001903223439473412e-01
-3.420837953579259488e-02
-2.724631397054610993e-01
2.435870925236067464e-01
-1.531611691171811951e-01
-3.078188277550379312e-02
9.594663546926775199e-02
-1.326731386688756280e-02
-1.997358970036203218e-01
1.952850463099998768e-01
-4.136120391725898737e-01
3.113321579611318460e-02
2.365976789311345641e-02
-1.851730934779664550e-01
2.474425269009490613e-01
-1.627312900158754405e-01
1.372838836302115173e-01
4.013246167900333394e-01
3.959565538083694713e-01
-2.868760090831695697e-01
9.537425938080125454e-02
2.772280646504435980e-02
1.268064038261103033e-01
-2.763888697106975934e-01
-2.089525839647191352e-01
-2.078368050626726860e-01
3.035028599088732126e-01
1.810093948291927879e-01
3.159765341923511661e-01
-1.115651406484625546e-01
-3.172161345629556650e-01
-3.339132987094191318e-02
-6.534371275159958636e-02
-1.508740797319290949e-01
-1.317140183742022963e-01
1.784209914633053812e-02
-3.546956247989972721e-02
-1.890769661548148683e-01
1.596999565391441778e-01
-8.062695241336821639e-02
2.651986413389072900e-02
7.342553299012728740e-02
-4.669552497093560489e-02
-5.976664219848903947e-02
-3.040152324960881947e-01
1.084382840905118300e-01
1.365793268404449923e-01
2.694052351744368190e-01
3.042873531466149806e-01
1.980060399446954555e-01
-4.241331161801131094e-02
1.671981569545187563e-02
5.765572725290989131e-02
-3.028773620263678912e-01
1.349566314778108678e-01
6.532056637638410101e-02
-2.695828366816222996e-02
-2.355402238051278740e-01
1.465976254668607537e-01
-2.354479833032050440e-01
-1.699723740130815730e-01
-2.930896090145393984e-01
-3.670174706948316906e-02
-3.662381876109038065e-02
1.980634715717995847e-02
-1.336674765902464146e-01
-6.199207634691759200e-02
3.528268111242220395e-01
-7.300392986421569419e-02
4.936722938975352665e-02
-1.507081591916172580e-01
1.904185903153360893e-01
9.026197548445109853e-02
4.802360260280046089e-02
-1.115038955165658291e-04
5.907036389321340675e-02
2.782429100898728760e-02
-8.975774407945900923e-02
-1.984180347401569289e-01
-2.882838522882146259e-01
-1.384826857252026699e-01
-2.853765076012717682e-03
1.703009685832237996e-01
8.370642967983612723e-03
-2.694502681127630694e-01
-3.023253239308386076e-01
-9.783928344079392825e-02
-8.569449006172183414e-02
2.933475041669040828e-01
-2.753484113608579698e-01
-1.546548470202774306e-01
-6.853715666896737294e-03
4.562513246076804752e-02
1.557955231994750944e-01
-2.530024013494202029e-01
-4.398812998883652042e-02
2.198627924266062517e-02
-2.932817384326611432e-01
-1.466083282929231402e-01
2.198226708978074373e-01
-2.378314963449241204e-01
-2.214818233734082153e-01
-6.531432936592221905e-01
-8.267418976885490545e-02
-1.221777786039277003e-01
-3.293967708198426991e-01
6.520360020647962551e-02
-6.246823037375617838e-02
-1.316932845021567544e-01
-2.610751437570122957e-01
1.484277375699508961e-01
3.321809192185181114e-01
-6.931491669478531126e-01
1.938053093473568744e-01
-2.007352996161723968e-01
-1.046183998394752540e-01
-1.151714401242973362e-01
-4.042469365327379105e-01
-1.031891038623964640e-01
-4.042898488051800965e-01
-1.457823259177290776e-01
1.415230882034866078e-01
-1.882223005810406552e-02
-3.562943740487042321e-01
-2.597331090292379630e-01
-8.409034132845791265e-02
-6.697729253138992589e-02
-5.846986213538549020e-03
-8.475456171398551564e-02
-2.202061332280189770e-02
-8.139482190055571942e-02
-4.703018762646061224e-01
-5.561051281547595149e-02
-2.680676316848535357e-01
3.103670862060469160e-01
1.181307755728659009e-01
-1.388767583944647555e-01
-1.297401516067191694e-02
1.926071179992296378e-01
-1.240885632354778861e-01
1.316160621419810994e-01
-1.023633812816331741e-04
-3.464777122436183965e-01
-3.465319978612365626e-01
6.825946947674342916e-03
-2.831830877565794657e-01
5.176611351923143811e-02
8.866229984834360367e-02
-1.554832816252463626e-02
-2.878922589732627046e-01
-1.534696971978581929e-03
-4.566385257420928212e-02
5.170321444897203050e-02
2.086881579381970331e-01
2.814585412070757520e-01
6.585803764658680615e-02
-8.224328542401047881e-02
-4.968966932745156467e-02
3.101672178859584128e-01
1.934335320840461225e-01
-8.825587362181835926e-02
2.169899178519869160e-02
1.999280884202420464e-03
-3.563148535793263932e-02
3.566281426256697751e-01
-5.828429899171087836e-02
-5.795135066774298460e-02
-1.124041189207243829e-01
2.247650886932243408e-01
-1.403963548211781820e-01
2.804685972117708717e-02
2.694823616381265829e-02
-6.026810353437429997e-03
-1.771156996395395478e-01
-2.009500327231321104e-01
1.763804232164477293e-01
1.903290141455882961e-02
-1.715103298006458998e-01
-7.195747315230398289e-02
1.450358833604140085e-01
1.227846239537847689e-01
-4.594851040147901466e-02
2.790943374747978378e-01
-4.405778313752837794e-01
1.061450212486518691e-01
-4.007570365298465109e-01
3.684937913554365285e-01
-2.402299615350199369e-02
-2.986972655133258714e-01
-1.436319797512453783e-02
-2.135813236790491121e-01
-2.791081272640981159e-01
-2.530474523318603230e-01
-1.119642008539337326e-02
-7.469169553179951827e-03
3.459730343716083678e-01
6.744785385203073969e-02
6.055723148407463063e-02
-7.273923848211707455e-01
3.545494135267986957e-01
7.539830273284212070e-02
-4.680971034444558754e-02
1.301444509036292774e-01
3.115883561379164356e-03
1.163011060676187071e-02
-1.573917451671702772e-01
-5.998911533100901305e-01
-9.158990381136711267e-02
2.616175711109589019e-01
5.873634493709015136e-02
-8.047681055138569683e-02
-4.550969014673943852e-02
1.673323170037955068e-02
-1.176610757982504141e-01
-2.243705643964748475e-01
8.192203939597726692e-02
4.667082582275156599e-01
3.675009106777500922e-01
-1.742785581893578351e-01
2.719652103530800780e-01
-1.673173263995033633e-01
-2.195495453548711173e-01
6.805269356511335632e-02
2.500634407558027239e-01
1.726277406128718106e-01
-9.970483990397734086e-02
-2.218433129940442505e-01
-3.258589500081771062e-02
-5.354758191234507692e-01
3.755876726313023828e-01
1.728187992701069042e-01
-1.033666985320078197e-01
-2.046107141230348592e-01
1.580530034299306441e-01
-6.236087042410645015e-02
1.473016895205063737e-01
1.034488263976089950e-01
3.245531069244736444e-02
-3.011475496528608423e-02
1.457243105669795147e-01
-5.128520409057451407e-02
-2.433909375966489541e-01
-3.399489080981459022e-02
-9.987231997884794821e-02
2.982585580863219427e-02
-1.619944345839222921e-01
2.332835287266479540e-01
-7.127519532334884722e-02
1.098581188102218803e-01
1.530237566247702463e-01
5.074714174496489788e-02
-1.088920512379524218e-02
6.592023246992576024e-02
2.411487374328698807e-01
-6.204009156493825450e-02
-2.202067522470297078e-01
6.804180085381572596e-02
2.354792792613357444e-01
-3.920042500425195975e-01
4.742558269709357122e-02
-5.347648627480602324e-01
-2.002399003793946530e-01
-2.950640531296135349e-01
-3.185051149712008617e-02
-1.373786453055323153e-01
-1.765249847331587518e-01
3.387717034757482121e-02
-6.840965795956728546e-02
-5.980138382340367820e-02
-1.407877587148690102e-01
1.001029804418853558e-01
1.625787408144693524e-01
-1.730827408311942373e-01
4.034403023548153305e-02
4.324926708755959526e-01
-8.411548000592639074e-02
-2.834493104368154270e-01
-3.355007823450906201e-01
7.234859483934662217e-02
3.999564422910877742e-02
-3.384106451479179101e-01
3.780332171228661942e-01
-7.960965118880074590e-03
5.227419402293262407e-02
-1.676821353885805388e-01
4.519462104767268396e-01
1.201577169017504221e-01
4.721395393496336836e-03
-1.017880715004753522e+00
5.652539057162118130e-01
2.541970062484845139e-01
-2.706162181978483128e-01
1.477322778290219296e-01
9.552538609625809210e-03
2.850416205058540764e-01
-3.695680363196536811e-01
-2.319367250919639190e-01
-2.193241822531347487e-02
-3.632865232004128253e-01
1.337900903708948708e-01
-9.865969628972208472e-02
-1.996562832987307523e-01
-2.658915585047483265e-01
9.042931741601052675e-02
-2.688017022358535901e-01
5.578817404046385597e-01
2.362174032771680587e-01
3.321320014501307760e-01
4.133898819896452137e-01
1.923763354936791625e-01
-5.413503073787317987e-02
1.696210335194057173e-01
2.729965103066416821e-01
-1.553619678286893568e-01
8.433789786424855661e-02
6.698406862960051833e-02
-1.849467280955424120e-01
-1.267062304888306734e-01
2.781881585504845100e-01
-4.567898065224862969e-01
-7.819116062708533765e-02
1.567792586023950552e-01
-2.086753422251087786e-02
-2.681299248714604233e-01
-1.296771186238793450e-01
-1.336111308065759430e-02
2.241010159702215010e-01
1.454944377242827214e-01
-1.195173042003358360e-01
-1.522852935358073589e-01
1.788299269690525051e-01
7.551994101324321917e-02
-3.188580678156446302e-01
1.858329141714660238e-01
1.227875682004757885e-01
5.632667424760161995e-02
4.985411951644177359e-02
-4.917391166912847555e-02
3.272513810423033267e-03
-3.023197238635933481e-01
-5.881514101401302819e-01
-6.761334432740089273e-01
-4.894016199099224251e-01
-3.003086062340094009e-01
5.693734828907257711e-03
-1.526967484250573714e-01
7.289318093028392120e-02
-7.576483557837009053e-02
3.118130448851956227e-01
7.419649144003173658e-02
2.245942307841189700e-01
-6.383144212875388468e-02
-2.762074926912738704e-01
-1.016201073715871761e+00
-2.737656781601081057e-01
-8.810006835631430944e-01
1.154058022898560854e+00
-1.615671822430784776e-01
-2.583501054002022568e-01
-1.151856090244458564e-01
-3.121498843339899909e-01
7.793487756340499763e-03
-4.279153906414231434e-01
8.783238932241015096e-02
-1.064534531524242433e-01
4.493675096367885646e-01
4.416455602288770765e-01
-9.361006698692145300e-02
-4.518691491810928468e-02
2.369175663792603970e-01
1.339344831540431047e-01
2.960172708957860624e-02
-6.512655172240303103e-02
8.650840400734167712e-01
-1.998451710137663928e-01
2.098359446848547527e-01
-1.775173875919134059e-01
-2.356213030336886116e-01
-1.760110421793464330e-01
3.206941409429251988e-01
4.793838075314162395e-01
1.706343487125767389e-01
3.153280941412372473e-01
2.995808944681949693e-01
-1.584246247883997760e-01
2.655974817905963348e-01
-8.993425017742465166e-02
-4.446098705350236963e-02
2.004832542987683708e-01
9.799564196311071063e-02
-8.134072573117025196e-03
-2.193388911616132031e-01
3.014260915623482306e-01
-1.911886398929500408e-01
2.949384055665018045e-01
-1.771957264116527930e-01
-5.213455310215912020e-01
1.984858517625202046e-01
-2.568286045403574969e-01
-1.134938925317984654e-01
4.096505276917241645e-01
-7.601756952092081701e-03
3.327955806153129470e-01
-2.985717361952200943e-01
-3.243556262213093122e-01
4.717889773294273170e-01
2.746278231877571918e-02
-1.186159496739107033e-01
-5.349597071599350162e-01
-5.922887691775804986e-02
-2.233659840730604362e-01
-2.586525717228848054e-01
3.460577463601590686e-01
6.216426482856134417e-01
-6.592926469894524466e-01
-1.688108658436966447e-01
-3.013361096997841937e-01
1.784994608553563608e-02
-3.741923279029629040e-02
-1.144465095926370801e-01
-2.898798363810009202e-02
-7.085948123130140219e-01
1.863334776364564405e-01
-1.456251137386634920e-01
-2.120373689614103441e-01
2.294501132256020759e-01
4.264056750172007942e-02
-2.937789270167018296e-01
-4.288276544963507408e-01
3.361904310681361197e-01
-1.494712973132043266e-01
-4.067545670227921684e-01
2.342483808672499168e-01
1.641640015716911219e-02
4.630554209913591013e-01
-6.156815879543080239e-03
-4.448501022417335471e-01
-2.448228763569192806e-02
-1.700909987780947763e-01
2.035109341230937618e-01
1.401127667246599429e-01
3.698185234662308002e-02
2.644581275776100027e-01
-5.326812631251587327e-01
2.204611450990265620e-01
8.385535306295037461e-02
-4.947815912180767439e-01
-1.484172977266554339e-01
9.085295412526044057e-02
-2.291271788612109575e-02
-3.144935562112895905e-02
-3.113387058310306821e-01
-5.466012436369590416e-02
5.039574193158262438e-02
8.525677994150884786e-02
1.369775606996871953e-01
-2.152799311555791406e-01
3.350856304571144667e-02
-1.135317451916620785e-01
2.548677022131916603e-01
9.573713733975709392e-03
7.902447244618952815e-02
-3.424113813788141197e-02
-3.813289844493670810e-01
7.061552673918648770e-02
4.170915491758478977e-01
-8.907707997618619089e-02
-5.957717608884723071e-02
-2.511817138683912140e-02
8.064277285964528003e-03
2.788407731733113029e-02
-1.782319449676294520e-01
-5.565756180932662778e-02
-1.575485157869777886e-01
1.275293212583593905e-01
-3.014687205953757165e-01
3.797794809023713469e-02
-1.068877888593509490e-01
1.463619998152987378e-01
-2.586762232274150697e-01
9.599136878919020330e-03
4.001997484205989386e-02
2.645238629699876998e-01
-1.457275526368440599e-01
1.705530931974157116e-01
-2.313050962582083592e-01
-1.268622542454367064e-01
-5.963529242046379242e-01
-1.959881266075909623e-01
-1.855934189543178570e-01
3.968332392095069022e-02
2.494228596951510724e-01
-2.583486466543384319e-01
-1.434565727721833495e-01
-1.135490646583008495e-01
2.968057476756283397e-01
3.310315546470017356e-01
4.603899667866763468e-02
2.315951782532198744e-01
-4.027651580461010239e-01
-2.925796194763406466e-01
1.991867794132423652e-02
-2.856641820706871115e-01
2.569508091823035079e-01
-6.197297348733629141e-01
-4.658794133353520439e-01
-5.390565915602960056e-02
-3.824423219332576673e-01
1.216414208777518158e-01
2.707211570914869192e-01
7.429877452363946311e-02
-3.754198616716212245e-01
2.418615034645818784e-01
-8.833536087072055842e-01
8.090083395435738733e-01
-1.356695128263399885e-01
-4.651138244657194998e-02
2.397921730457888700e-01
-1.052059066467367215e-01
3.647878081678130636e-03
2.632137424437582252e-01
-4.379680265663054572e-01
1.465321429437555500e-01
-8.036544532969891463e-02
-3.176046167529466557e-01
2.673845016354898796e-01
-1.582083669012060434e-01
4.186259817023744167e-01
-1.318340987917680229e-01
-6.267420361777782320e-03
4.941962965648542538e-01
-5.426710184270758797e-01
-2.071217478512698551e-01
1.491167578378017611e+00
-2.052664146942091705e-01
-4.210359967544222148e-01
-2.418403972312125338e-01
-9.087737380743037274e-01
-6.896047209594328153e-01
2.493966221610861567e-01
3.785219400787511596e-02
1.209566088508586407e-01
5.920262239743279836e-02
2.202490622267149201e-01
-5.522540038932617357e-01
-8.075455586385876794e-02
-3.655161300961466773e-03
5.339833215867213490e-01
2.587839228580690598e-01
2.538987893938453033e-01
-8.973095937253919296e-02
-6.472123071233896185e-01
7.943399073019007384e-01
-8.207236336662266929e-01
2.913144100570944639e-01
-3.470587231894178143e-02
-3.996651061296536134e-01
-3.767810930592218055e-01
-2.071270182496070533e-01
6.005842480190431640e-03
-3.122145561445773820e-01
1.987768758712122885e-01
-4.445977973288972040e-01
8.638296230208577509e-01
-2.877020444963075407e-01
-5.911408603025531949e-01
1.523286910128739680e-01
-1.117311775076225422e-01
-6.961700269356234372e-02
1.100707500407327732e-01
1.019374393718774051e-02
-7.835460813787036016e-02
-7.012393099057685764e-02
-3.001810566861141671e-01
-2.160463592608857508e-01
-1.320157571379726724e-01
2.333538514617172488e-01
1.989934968283414707e-01
-2.507235360729604193e-02
-1.303121663326997637e-01
-2.181015728443751189e-01
-2.334165258164865309e-01
-1.439651303899298074e-01
-1.756314239447291647e-01
-3.895115156143700852e-01
-4.209146730383741403e-02
2.347301988692204744e-01
2.492671243980756346e-01
-9.058073599521204722e-02
-1.606792576974547249e-01
-2.661158433186404659e-01
2.232170150816467080e-01
-1.727030943972680532e-01
3.923406539770976642e-02
-2.896799088775733888e-01
-5.177124910497377802e-02
1.980646558117093448e-01
-2.509684945806528455e-01
-2.328473418854689059e-01
3.427701371038071598e-01
-1.452659755200763625e-01
4.939757416193300832e-02
-4.233708654366834245e-02
1.963683802871850625e-01
-1.391804859050523868e-01
-1.489418459005707185e-01
2.751822965964410561e-01
1.261496422223697400e-01
3.277611085749959074e-01
1.559408545487727185e-02
-1.352628415246122720e-02
3.752879219382254106e-01
-7.400302596546280698e-02
4.057954050506724086e-01
1.584112246101284649e-01
-5.742040714811240676e-01
2.345873346928982195e-01
8.841580775451338137e-02
1.639246161037686556e-01
-2.645294310387793502e-01
7.559823093911557934e-02
9.783483349673807727e-02
-1.267813351358736129e-01
-1.188084739680172197e-01
3.855168263554097918e-01
8.975570544657313077e-02
-1.422637193687705526e-01
1.695557180858641433e-01
8.940754909041960519e-02
-3.165977233201202612e-01
-4.308404902044212226e-01
-5.943660998945645701e-01
5.672509306124826622e-01
-1.808003075473553489e-01
5.411253594001453893e-01
1.646717605559711861e-01
-2.336421198156235501e-01
-2.612043765746207558e-01
-5.388604858241776707e-01
2.649635099753541168e-01
-7.567353784169152942e-01
8.140236189271812250e-01
-1.820401968497915302e-01
9.156934816483865980e-01
-7.931663128768433602e-01
-5.614721320058813081e-01
5.834825411304968013e-01
6.229038483209281551e-02
-7.133230117568331759e-03
-3.598692268139770389e-01
-1.113432016726267626e-01
-7.712653747894060441e-02
4.773965160457984379e-03
2.297945772349511695e-01
-2.386400849779312383e-01
5.495439624216481578e-01
2.173844969528251903e-01
-1.292945784185672853e-01
5.133489608580400071e-02
-1.589348747936369377e-01
-1.801064339112833784e-02
-4.109219046652247409e-02
3.366919732662629339e-01
1.295450158543859365e-01
-7.008022075992821620e-02
-2.807750835542879297e-01
-8.166872141138600827e-02
-6.058856799805910631e-01
-3.073883817636634611e-02
-1.984659951788977639e-01
2.951711431449334233e-01
2.155672375190970935e-01
-7.002290577641449021e-01
1.009862778266455319e+00
5.656789705287763592e-01
-1.138265296562014119e-02
-2.634382941748628082e-01
-1.401194137510013982e-01
-9.172046356231970676e-02
-4.073699593092873217e-01
4.608145873771875012e-01
-5.013523694015567522e-02
3.835724130499191808e-01
4.781659060445742765e-02
2.948718493252909800e-01
2.806337830281268597e-01
2.203593349171688587e-01
2.369244643334879330e-01
1.232501467021796387e-01
3.397805888662395329e-02
4.305711430489983504e-02
2.403424602162811397e-01
-7.460396879704220829e-01
1.357237405429523536e+00
-7.901191525252384551e-01
-4.080536071204089732e-02
1.002712541208661129e-01
-1.934427304626656213e-02
1.035966289134902935e-01
-2.184960142379202552e-02
8.406650692715315898e-02
-1.501122672916974377e-01
-3.364322506018053160e-01
3.890603674443107729e-02
4.372690794570667505e-02
5.832962076982631805e-01
-3.895069495610885557e-01
3.112379157711483990e-01
-1.812527572368894946e-01
1.575974498977272265e-01
4.500568472061836772e-02
7.436866143668559304e-02
-1.654648501348304768e-01
4.813906733158823670e-01
-6.456274585138647160e-01
3.217271764509856968e-01
-9.110291853732035983e-02
3.337579009424925247e-01
3.830713968136708059e-01
2.148650918060677345e-02
3.714911175361078621e-01
-4.611755493437519338e-01
-2.141304244453322292e-01
-1.832046399432352979e-01
2.803160203337760614e-01
-1.162026280505034925e-01
-1.482497050026452268e-01
1.044618758808501663e-01
-6.047391577810965480e-01
-6.332974756537941563e-02
1.086359260526841564e-01
-3.518838397561498965e-01
9.982493910300918594e-02
-4.106755744049469525e-01
3.767747871585840902e-01
-2.443902406386622150e-01
2.817239561867469488e-01
-2.480599165194718181e-01
-3.129282790789515989e-01
2.855663742168115804e-02
-3.902836427284687298e-02
3.116054465044897359e-01
6.746238916653646972e-03
-2.582228460694453998e-01
-9.838376244546427618e-02
-2.961541917040881253e-02
4.342535825737103838e-02
2.490376590606179219e-01
9.430538038643898613e-02
2.579125321524836645e-01
2.596029992092470651e-01
-1.196011773699434677e-01
6.471490784777783611e-01
-1.814888374694926532e-01
6.887144549966114360e-01
-1.188478004106015562e-01
-3.898356270949916991e-01
2.950709724487587948e-01
-1.272955562752109138e-01
5.238870148522682679e-02
1.830722766909038679e-01
-1.915987125473445629e-01
-1.059412002643768808e-01
3.920644267709824660e-02
-2.669173154508710510e-01
-3.937284384812504978e-01
2.022202062513436260e-01
4.988811303671195074e-02
-4.504922760449063812e-01
-3.248658500529664761e-01
1.549800368494269054e-01
1.234259144409077663e-01
-5.757901170198856389e-02
1.800832210466414007e-01
9.872836096041354148e-02
2.540267176813908456e-01
-2.832019437047549326e-01
1.795345275470987545e-01
-2.697713905465737860e-01
-1.214815206980738721e-01
-4.396543464093499720e-01
-6.452983498671759077e-02
-2.561179633330484262e-01
1.481627864589767432e-02
4.636159831318365648e-02
-3.241638146440062873e-01
4.674801121381894076e-01
-2.728971031770161537e-01
-5.812033460547028074e-01
-2.111345273868711903e-01
1.217311549196943149e-01
5.211329676172736514e-02
-4.871159377331743534e-01
7.394628287087593455e-01
-7.298956174149395792e-01
1.899599308129415742e-01
1.893555948546692957e-01
4.542460193906294741e-02
1.802362699809529623e-01
-4.212797347047334551e-01
-1.689045795499647673e-01
8.372016236218344787e-01
3.553905872514735997e-01
2.276916266061424984e-02
3.776866173193552806e-02
-1.187244311469675268e-01
-1.880926198332070476e-01
-1.368664673443571733e-01
-1.649653621085816757e-01
-4.258033014696026575e-01
-5.702250714999918674e-02
-2.171222598197024012e-01
-1.137880718645123135e-01
1.688684361537939604e-01
-2.598931939024578530e-01
-6.364711439900491707e-02
-2.145904682994709267e-01
-2.011148494492394911e-01
1.457123266777853310e-01
5.827388235267310090e-01
1.307093905538858278e-02
3.577608751057791414e-01
-2.617962176708125144e-01
3.506203933656269478e-01
-1.683260304368446869e-01
-1.569629355798545511e-01
-4.270571264828345454e-02
9.327559941066346227e-02
2.743933376900684618e-01
2.465700941297537807e-01
-2.729240542621018117e-01
-4.206116225776586059e-01
5.164735405707778781e-01
-4.927743924945867660e-01
4.159542092664041402e-01
-4.374966112582446276e-01
2.196675300691452656e-02
-5.649374217043917103e-03
9.109325194849192397e-02
4.688312369342015340e-02
1.873341001846425824e-01
2.352155897249827710e-01
-1.831556402032839259e-01
-1.187135299449576936e-01
5.751571170265915717e-02
9.844355793738653049e-02
8.907918515474387913e-03
-4.055122614854171914e-01
-8.986758422911460265e-02
7.387996848155364490e-03
-9.069677518103677616e-02
-1.308949813315174460e-01
6.546262452653952568e-01
-2.836155350875197434e-01
-1.437970907079924414e-02
-5.207664719534959019e-01
-6.679041598747480490e-01
2.175168981686466940e-01
4.054643867144555602e-01
3.912229178873590230e-01
3.147008318261323989e-01
-2.404308947309931888e-01
2.564180940200337377e-01
-2.767781387550634631e-01
-5.954506528292367873e-02
3.638450126232551929e-01
-3.235314333717612678e-01
1.195049515009929814e-01
-2.886172950575395801e-01
1.775670229540107781e-01
1.087797820309854419e-01
-8.450958794926165252e-02
2.449641843643248218e-01
-4.245079447654182547e-01
1.289826201247320503e-01
-1.093965253396935733e-01
-2.464885390877565585e-01
4.318415561524742707e-01
-5.142521027892566626e-02
-1.938779180746668662e-01
-1.637003575332341976e-01
-7.646431376410942060e-02
-1.123601326265491196e-01
-1.610178689470072588e-01
-1.733800171154623038e-01
1.297144985076988666e-01
-5.764049228751627618e-02
-5.269996762731465542e-03
-2.848833725250058957e-01
-1.829858759458974637e-01
3.066795880913121830e-01
2.543220198465540594e-01
-4.669871686372321223e-02
-3.385052982008814326e-01
6.837633120485078209e-01
-8.033482189625939726e-03
-4.570532242671902085e-02
-9.359685473720130711e-02
-1.586480592642515730e-01
2.103926768302590011e-01
1.700416289949713278e-01
-1.084298292521150009e-01
-4.272770190457250185e-03
5.407536112021561481e-01
-6.863288261198371432e-01
-3.296853864106908949e-01
2.317794889503525246e-01
6.378083541345012930e-02
6.162464045085790099e-02
-2.113134534072578785e-01
-1.079797503511821660e-01
2.764125141663275817e-02
1.776506981020377629e-01
-3.740227601391395429e-01
2.265133735262156722e-01
3.525683343248078860e-02
1.678171518464308815e-02
3.187440752191808557e-02
-1.157765258071156121e-02
2.117384459441693512e-01
-8.657652707452719032e-02
9.753684605033841049e-02
4.034278565433622732e-01
2.825661716803653731e-02
5.870537067483009436e-02
-1.787545223046206333e-01
3.064751946884241088e-02
-3.230772729893273409e-02
3.239333981703645393e-01
-1.049755565618461645e-01
-4.660860260519626014e-02
-7.555031669618343659e-02
4.276741189859601944e-01
7.699233440241350090e-02
-8.232931707955427891e-02
2.223627167521217696e-01
-3.134640986288232956e-01
-2.352097987564616410e-01
3.446240600713408320e-01
-1.779645539516344632e-01
3.193492491841122827e-01
-2.825985497086712095e-01
8.395992908688276746e-02
-1.641653413530445305e-01
-2.720060181832640311e-01
2.485446383536987769e-01
3.061774259886159213e-02
3.227599370112175237e-01
1.133283603540382045e-01
-1.720477865956638319e-01
5.541275095190739686e-01
1.863688353826410959e-01
3.811779685971853349e-01
-6.678070463799014034e-01
3.839525458246821898e-01
3.425255394308822365e-02
8.192380533044794910e-02
-1.042941139100620473e-01
9.454154127754554882e-02
2.511436959449526302e-02
2.282702576516251192e-01
1.221890933577641364e-01
-7.358638981981779903e-02
-5.453520185504388135e-02
-4.745730401488210820e-02
3.828660751789728089e-01
-2.314563399676459673e-02
-1.998332165673531724e-01
-1.985050471261059490e-01
1.257908860612828028e-01
6.161210337861702246e-01
6.768508070758528783e-01
2.533492170375840624e-01
2.280287875043681967e-01
-7.221132114916906097e-01
-4.620978985215863921e-01
-2.715045517102405298e-02
6.627422020573654760e-02
-6.025171587634612358e-01
2.077805663419937665e-01
-6.775751867408080775e-02
-9.968576875242787239e-01
1.181083703325874062e-01
-4.888739727686998715e-01
-1.043782921340905112e+00
7.364888745663153991e-01
-6.409647564202732850e-01
4.114153351431785177e-01
5.741301470835322718e-01
-8.363434834471075718e-02
7.931252222197443524e-02
-2.037133984167417144e-01
-7.803595766869052264e-02
3.772854669532136329e-01
-4.929230771030060909e-01
-3.014144984659287291e-02
-3.381510203547028470e-01
1.973738178313418079e-01
-7.627945971194402541e-02
-4.151127097363215696e-02
-4.827788653345348457e-01
-9.226225201174721446e-01
-6.016927031711007956e-01
-4.023596672955655484e-01
-6.488430676208319925e-01
4.322994028649300713e-01
-5.697494528425419702e-01
8.670632476719010440e-02
-3.155008926749736653e-01
5.301720323175043159e-01
4.114270866821268524e-01
5.229960793101359195e-01
-2.485032268569485059e-01
2.154499038179828393e-02
6.326386727572776980e-01
-5.297494082624725209e-01
-6.049796515929872776e-02
-5.793014807316580056e-02
1.549065454544839571e-01
1.567441101521884206e-01
-6.499085857572217684e-01
-1.114119659913320293e+00
1.016995500169286526e+00
-5.994982758371301124e-01
5.210350759151912703e-01
-2.249480837085896801e-01
3.920936354087246056e-01
-2.192841231598267049e-01
-8.585149039405258475e-02
7.187850111443144785e-01
-2.837228707002295014e-01
3.601022800435914051e-01
-3.394784846993994520e-01
1.763381059365281001e-01
5.958434989725653885e-01
3.951003384552786296e-02
2.911916650047005062e-01
-1.961679753160960327e-01
-1.211610249550306995e-01
-1.316175366463645802e-01
-6.575234740576917369e-01
-8.923585797374726514e-02
-1.305422051212468681e-01
3.341783321019142217e-01
-2.593714311048692656e-01
-1.563892517231555146e-01
-6.103926410273786685e-01
-5.406765184757218456e-01
-8.330305070277348178e-02
-1.611978400139139622e-01
-3.297762196434130266e-01
-6.790237571200017364e-01
-6.954211294285459477e-01
5.587421415460710472e-01
-4.774195884866285766e-01
4.572069681027129406e-01
-4.601180382989606549e-02
4.438566033581660131e-01
-2.540225638792158527e-02
4.089778297140575503e-01
-3.145532535992447976e-01
-4.411722263759593893e-02
-4.236115154901119451e-01
-3.527912654050868180e-01
-1.867920843094968142e-01
-2.968182726125634940e-01
-3.323529778364015530e-01
3.718053046974154757e-02
-3.484195553138159096e-01
5.310592638954405587e-01
7.538570292532380257e-02
7.624262589040262106e-02
-3.876451483792832664e-01
1.067289171714369544e-01
-4.872855300587673050e-02
-1.255929859153153971e-01
4.087180655445325078e-02
3.324015841569494256e-01
2.147803107813174919e-02
-5.478293408457365204e-02
-6.374088361263708161e-03
3.241942465445558086e-01
5.040088753792354437e-02
4.109923697391636987e-01
2.738044193820262165e-02
-2.690342901995579905e-01
-4.217930533134868765e-01
4.470837383613383842e-02
-9.146701690010557509e-03
4.272376988628154293e-01
-6.221019993338973431e-02
-1.153835378463006628e-01
-7.008380673531822147e-02
1.872596395637543543e-01
-4.833613332442600052e-01
-1.661210443910374479e-01
-4.014076490238712713e-01
4.119891020798820414e-01
2.983816345707683282e-01
2.986685505048322295e-02
-6.107446399959614025e-01
-1.033505866716169647e-01
-2.518420600570603352e-01
4.485866337862217113e-01
2.228632567813075560e-01
1.433169652657403093e-01
1.789150625526274019e-01
-1.466507501933544122e-01
-1.349191295142794234e-01
4.437500439329993274e-01
-3.327978121914482168e-01
-2.528592404002527605e-01
1.942343460156406854e-01
-6.319743641835733339e-01
-2.576270443701673685e-01
-5.629340973116276903e-01
6.174434978701112686e-02
-1.169185925853240965e-01
-9.043131164303708919e-03
-9.733939389062941372e-02
3.862559876716660234e-01
4.482343972321655573e-02
2.100074643538613409e-02
4.761974842991741064e-02
8.964728326564631589e-01
4.514915963058309389e-02
1.194907197625016439e-02
-4.437320955329174810e-01
4.369771856023484946e-01
7.643082556921111381e-01
2.760226847305545794e-01
1.945404797725834578e-01
8.294201806365354701e-02
-2.054154162272900652e-01
-3.989729867912795297e-02
2.913400273515618158e-02
1.016709638102550328e-01
1.059889781350392135e-01
6.704956654220038583e-04
-4.419465150834677170e-01
1.989899227475850629e-01
-1.875898872376169924e-01
2.693422110108982179e-02
-9.684425538778633491e-02
8.706370240583066744e-01
-1.956116256161977429e-01
3.719972508021056612e-01
4.201635501289944230e-01
-1.033776614777182253e-02
6.484467353432538106e-02
-6.147687923186834907e-02
5.071030457690977045e-01
3.611085451199700924e-01
-7.641262546855674687e-02
7.509686382548209638e-01
6.781969308737757773e-02
1.304409681165904500e-01
-1.883330762464357766e-01
-1.858445276912695440e-02
7.133386878391609898e-01
2.278733251796335735e-01
1.394701277434367247e-02
7.071835172891119958e-01
1.244692871592904121e-02
8.818903301958433416e-02
-7.390489393791001282e-02
-2.130231861400876114e-01
3.526265836797393138e-01
-2.525373970154556891e-01
-2.738751618520924302e-01
-1.872796629992231343e-01
-4.380300159176063191e-01
1.611821295393048303e-01
1.267678813543828831e-01
-3.490374320003054587e-01
-1.002292980089488639e-01
-6.064465611062510586e-01
4.817652791661224398e-01
-1.201166176813162345e-01
4.929436465264883105e-02
9.795618726206074822e-02
2.998152477434407603e-01
2.715209165263869351e-01
3.136418850014606637e-03
1.687616370051232273e-01
-3.691004224496783337e-01
3.854401805675097825e-01
1.792041849074318960e-01
2.363466535599809473e-02
-2.760835612725738852e-01
5.867270805090476493e-01
-3.034058151125757496e-01
1.763601061437699791e+00
3.899403535224670869e-01
-1.953880393833946072e-01
-4.386944452220298274e-01
-3.738261382989243042e-01
1.944070194291222242e-01
2.423757846989270381e-01
-1.322748313811525023e+00
4.228380464195441446e-01
-2.669695925454265706e-01
-3.695858718506627241e-03
-6.693847159063912589e-01
1.753413048626330586e-02
5.027391868561020827e-02
3.224499496975415103e-02
-1.183573025621701552e-02
-3.770054933111474660e-01
-1.393202599770780592e-02
-1.204302723324255087e-01
