4.060155807120560678e-01
-6.742945906088626540e-01
-1.375141451632367895e+00
1.996544446645962756e+00
3.809096311259061896e+00
1.756834574069353616e+00
-5.095337291956807402e-01
-3.647765349402585233e-01
-4.155352933706814023e-01
4.354589766795426975e-01
-5.381118202017851626e-01
-5.537646044550159630e-01
1.339950046778148884e+00
7.645564065078890303e-01
-8.614751032632139705e-01
5.820470498870551346e-01
6.953435426964609256e-01
-3.701561501809045862e-01
-2.017119212578112261e-02
6.953602378210560486e-01
5.797134078232794169e-02
1.762306102355699067e-01
-4.732763237866987466e-02
-3.991325523843139433e-02
1.698776100880189030e-02
-3.028879074868722973e-02
2.893287935727183458e-01
-7.389214680808860181e-02
-6.443760547326232713e-02
-3.453530145209209867e-01
1.131683970742310280e-01
1.574644900820378404e-02
-2.446949637942800321e-02
1.618345666021789031e-01
2.511950686115892520e-02
2.497749634584412182e-01
4.796905922482809226e-01
1.334374908538848714e-01
6.244539022092661373e-02
-3.270337566139242536e-01
-1.279029607163736926e-01
8.906311253079628454e-01
1.104241879819719552e+00
-6.301366904037065675e-01
-1.802801869699552695e+00
-9.684025594417874361e-01
2.572755078958444130e-01
1.290055573209978601e-01
5.624173197624345033e-02
-2.118100090242949415e-02
4.727876264087093050e-01
-9.150823889155117186e-02
-4.203087616438324625e-01
-4.414637025181119001e-01
1.717794313746930923e-01
-8.075263164093252066e-02
3.152677769653866591e-01
-9.029836991639100807e-02
1.785822659275508872e-01
2.506360949307900876e-01
-8.068611822342409978e-02
-2.920164036605631397e-01
-3.267629603079350020e-01
4.365231365750531500e-01
-2.723780061468256478e-02
-7.604419279275413668e-02
-5.165886848958156641e-02
-7.416814993010686918e-02
-1.786599367093584523e-01
7.424129476839762543e-01
4.694221291737222801e-01
5.908599376342535958e-01
6.497579639288933451e-02
-6.886968928276187007e-01
-3.343052326144570208e-02
-8.367825222301953358e-01
6.833287025274900617e-02
3.292263861014789739e-01
9.069133910424974632e-01
-1.461399066446597561e-01
2.827180712418560504e-01
-3.624055352604064195e-01
9.133546851946700018e-02
1.336503476275671676e-01
6.928678258112583310e-02
-7.374716717430958024e-01
-3.619742254396773884e-01
-8.359664447739728263e-03
-1.003055632773479866e+00
-6.143821842804167987e-01
-3.320367529167896348e-01
5.631060142618978491e-03
5.423340792929887133e-02
-1.617391552660372989e-01
-1.555065602848650363e-01
-4.983947904631857440e-01
-8.917030522736678344e-02
-1.035792105953391662e+00
-2.391024852853989024e-01
3.829928118436581874e-01
-2.889832603502263675e-01
9.803756350628287856e-05
-4.630365428623547941e-02
-2.523036764625993800e-01
2.931039348587418103e-01
-1.527457828397637662e+00
-1.134605264072565262e-01
-1.503108179983678294e+00
-1.051614593988864144e+00
-5.546558103681484275e-02
-2.292242598611954341e-01
-2.564025948711000646e-01
-1.203071064690932612e-01
-4.424310499254014983e-01
5.619642439353878666e-02
-7.228034683816642048e-01
-2.657529560543351460e-02
-8.472265382884049956e-01
-6.225809468646337219e-01
-5.982873786307785213e-01
-1.399025528470618784e-01
8.815395686916080442e-02
1.525025920232090659e-01
-1.363808565383292648e-01
-2.973420940646684940e-01
5.017039968612378997e-01
-4.991831031697612220e-01
-5.092041199304204735e-01
-1.457949956117519930e-01
4.770433235855596199e-01
-1.370996700889026698e-01
-4.380629499077866029e-01
1.785754895016687938e-01
1.608975368759748420e-02
2.692532950699278449e-01
-1.362676349778629559e-01
-6.597094899573771598e-02
2.543683172470483367e-01
3.874715169378455393e-01
1.170382895275821067e-01
-6.916930511822443062e-02
-6.232637298875535192e-01
3.577025659888623532e-01
-4.972407069412707603e-01
7.847624122109539413e-02
-5.431074123617161964e-02
3.290224234554987859e-02
-5.701152553290217417e-01
-9.828766750740902669e-02
-5.592526234527329665e-01
-2.659477268126827498e-01
1.806974887360513482e-01
4.489267522928465648e-01
-2.800176168648627062e-01
1.781002927947296088e-01
-8.970425256537681302e-02
3.534931227643764440e-01
3.162744257123972225e-01
-4.049708668234855424e-01
-3.747317960224328393e-01
-3.874575770263894992e-01
-1.545574944060419675e-01
-1.370246862451323655e-01
7.470296056462293333e-01
2.003318473881778722e-02
2.588532539681867028e-01
1.347816910453964734e-01
-1.100191920909803667e+00
-8.555414652087821592e-01
-6.329356593215875737e-01
-2.632944654858836997e-01
-1.590489908471346414e-01
-1.000014525576135294e-01
1.464017496607454005e-01
-1.068145361556423721e-02
-3.679903135583946217e-01
2.600285742316415516e-01
3.213499141005127235e-02
5.993830200295208188e-01
3.108806486074723874e-01
-6.169617472289523619e-01
-2.265449070863912173e-01
-4.225543127554982070e-01
-1.879321106913227624e-01
4.314514995176072509e-01
-7.707296453336873743e-01
-2.785130676804145611e-01
-1.882238757811492136e-01
-6.392320049903988943e-01
4.320567367851494978e-01
-4.965814044543293559e-01
6.623079801692674518e-02
-3.545289050960677146e-01
1.684684937470199151e-01
-8.628915664983315137e-02
-5.187552544918632158e-01
-1.996237629446465101e-03
-3.368066734685523089e-01
-1.498874340916173664e-01
-9.586772190681709660e-02
-1.751011517745443558e-01
-8.534336690290698912e-02
1.418468616005640892e-01
-2.214431898118333075e-01
-3.069116628437773553e-01
-5.764002764620533847e-01
9.706042002238991773e-02
2.439061075545997381e-01
-3.732735317994482216e-01
-6.939300526372799149e-02
-3.854143750136621582e-01
-3.586903909011318059e-01
-4.128563241573420667e-02
2.303544648293235075e-01
-4.780612229898164450e-02
-2.438611040527251250e-01
-1.031905334496544396e-01
-3.421044066692794372e-01
1.760611687949372589e-02
1.232415384025212085e-01
-2.347393038100734353e-01
-1.241015934220000838e-01
-1.883015329588267894e-01
2.245393294590017352e-02
5.336131337925732465e-01
1.666392043063661121e-01
1.859079912388721459e-02
5.332558622306003970e-01
-2.237689407725036717e-01
1.841978362625034671e-01
-6.921730691646895695e-01
1.222586483979090088e-01
5.174180171949068624e-02
2.888676807906977451e-01
4.476365018141607588e-01
-4.489802854536889543e-01
3.788692944431714671e-01
-2.307091170909431749e-02
3.319494579634667542e-01
-1.721803486225994273e-01
-9.802129169968211431e-02
-2.467433553342189556e-02
1.007588360759569257e-01
6.330564017322444503e-02
6.093995856839606873e-01
1.385370043621835245e-01
3.719854990115403770e-01
-1.346053238572621491e-01
3.563526872176489557e-02
-5.051180564566377929e-02
2.319298989058021787e-01
3.514986950064463156e-01
-3.499571352995243245e-01
6.858119318986062585e-02
1.296315803219982576e-01
8.092539400294890273e-02
5.674999361216375160e-01
-6.386253365525404457e-02
4.699346510689039191e-01
2.317742185120582610e-01
5.663239357809249919e-01
-6.903969147406817386e-02
-5.495237334981850456e-03
-2.134035871317622457e-01
1.311708704818623783e-01
7.238654140774269941e-01
-2.367383056470628300e-01
4.821384789506599211e-01
4.490455684582596585e-01
2.837605741476288412e-01
-3.375732153347482112e-01
3.946316529899923653e-01
-2.132072722019753286e-01
-8.526871231791439687e-01
-6.938834123409676202e-01
-1.762254479606782276e+00
2.600416558655747057e-01
8.696998210738787760e-01
1.633007556787712033e+00
9.495718588786087322e-01
-7.123665814652160866e-02
