-1.671390329114301743e-01
-7.577776207461744962e-01
3.060466741101264265e-01
2.632483063900651135e-02
4.966582988316821379e-02
-3.208041718826007416e-01
5.368985465373613541e-01
4.060761021876043153e-01
-2.240430789225950625e-01
-1.426232418445330552e+00
-4.149757774350644191e-01
5.845323768711923051e-01
-3.632668106348141412e-01
2.517764059742481630e-01
1.112283523055504764e-01
7.637372432946262224e-01
6.461884768735918216e-01
1.543760279703164096e-01
1.220636541921166884e+00
1.641456931773095651e-01
6.619820782657914737e-02
-2.010155305716445906e-01
2.660924159621941287e-01
3.160711586567432341e-01
-4.774795528542837286e-01
-9.304625707470857987e-02
-7.190419421357931162e-03
-5.544067705107231028e-03
-4.840014751505194446e-01
4.016755171806163371e-02
7.176961438067629151e-02
2.986800856537666915e-01
-2.505352379720516831e-01
6.999743797297201808e-02
7.489022745264406478e-01
4.986559423785306144e-01
8.137297527863285307e-01
-1.320416446246778008e+00
6.627332906212127783e-01
1.957370117979582991e-01
1.026834623557011800e-01
4.246683945331397592e-02
-1.553503419564079557e-01
2.434800837819045549e-01
-2.250230609857053754e-01
-5.822611986755361208e-02
1.746495864463048220e-01
1.228603186657218072e-01
-5.242306240756715585e-01
1.282563479816562824e+00
7.201055068564715667e-02
1.061618778499854171e-01
6.816765323309723068e-02
8.699573926821621561e-02
-2.821405934786512248e-01
1.501076087566229622e-01
9.301446220481560112e-02
-3.791698692787581204e-01
1.850286459612842660e-01
-2.493988690429450872e-01
3.882056900256403154e-02
-2.841936677518546242e-02
2.562211605879439677e-02
-5.982346464631656258e-02
-7.247053134934877683e-02
7.788103936290852181e-02
1.615682598520226110e-01
1.281192325430354217e-01
9.858075790156203833e-02
1.461848802047344478e-02
-2.873654007857888715e-01
-2.624726303652230586e-01
5.251464337081431788e-01
-1.301157649927047084e-02
3.612591487464474060e-02
-3.218881122283363122e-02
-2.675377757957544955e-01
1.650820871136805812e-01
-1.745448851005701740e-01
3.110649794235701912e-02
4.981037440151509649e-02
1.162355261956832392e-01
-2.948788073765667983e-01
1.103696644612668504e-01
-1.559117461434269582e-02
8.576220065702987172e-02
4.827403173617047377e-02
4.443336546614075067e-01
7.828598165676327325e-02
2.101221534617211395e-01
-4.963645465766446385e-01
-2.086909187930974796e-01
-1.189366736266429803e-01
-1.731904289389052665e-01
-8.420367775360863838e-02
4.123737048659324028e-02
-2.193161756784106076e-01
-3.962149683755596119e-02
1.763235094771612999e-01
-4.771411354634013530e-02
8.414039110868971882e-02
5.952883409593413833e-03
-1.151751115928273395e-01
-1.302931708292270618e-01
-4.117545212517935427e-02
-3.079848985681765128e-01
2.465116487888737579e-02
1.140902042463383670e-01
-1.036990292418842052e-01
2.831618036781918257e-01
-9.087573301704463327e-03
-1.733398206311999312e-01
-1.335797551962228658e-01
2.278660965555647511e-01
3.100297822986980978e-01
2.325233159169394770e-01
-8.880947032884309311e-02
-2.600903457797408280e-01
-5.269205512388889234e-01
-3.750550426605733789e-01
-1.938538825618195405e-01
1.928356731446229377e-01
-3.591168836170206130e-02
-3.745456944648303810e-01
3.128439247273835655e-02
1.002527057574805341e-01
-3.598952064387248573e-01
6.846971860160437108e-03
-2.475195829144312409e-02
9.383674355399095057e-02
-4.428279239405490814e-02
1.629566952586161688e-01
2.533731255723177256e-01
-7.506320724590342074e-03
-2.401842725575329129e-01
6.114979061432217894e-02
9.218069723400802717e-02
4.758796626005253327e-01
-2.927068883582397210e-02
-2.007876127082906526e-01
-2.960124088802462139e-01
1.523949344708538066e-02
2.473437095680994235e-01
1.334362233115115592e-01
1.788618729999894019e-01
1.789325704945370354e-01
-9.531676737495663274e-04
4.797716570487355753e-02
4.208061713422251437e-01
-1.667837697278158338e-01
6.392707203747256817e-02
1.463435250851335412e-01
-5.184667054344679338e-01
7.272454868999138344e-02
-1.162869077234013164e-02
-3.824716527602486926e-01
1.137668435737088785e-01
1.765767538871377274e-01
-2.493162770882108581e-01
4.212072685438697506e-02
-2.691824889717798763e-01
2.579767460040929827e-01
1.830844258299822447e-01
2.285113525345997543e-01
2.893257062803996638e-01
-6.793414827667895728e-02
1.210423510444089551e-01
2.970401274684429938e-01
-3.100892186779220516e-01
9.295337238708142880e-02
-4.149657461131002478e-02
-6.574929172138335720e-02
3.893614155440792701e-01
-2.200731486088512712e-01
3.863133878998679105e-01
-3.571683104611107079e-02
-9.367810714172224162e-02
-6.221309245740559435e-01
-4.492765911069382390e-02
-1.415756557376335149e-02
1.784556354144194446e-01
3.971770935522583312e-01
-1.748169183487190970e-01
-4.050584504876577480e-02
1.262563196970782897e-01
1.867614159353952752e-01
-2.922190282852354937e-01
-5.110806701431744870e-01
-9.845762595397254680e-02
4.731163037418802814e-02
-2.590456826768955390e-01
4.628439694914144309e-01
-1.836202548931177847e-01
-2.483426388511269234e-01
4.090674259627419262e-01
1.971086092980040561e-01
3.026236792534623410e-01
-2.596307142219917569e-02
3.416956642891533225e-02
3.226950113468459169e-01
5.129285654310851428e-02
5.100347562406918334e-01
-1.388670410696723478e-01
-1.191154780252236395e-01
-3.234170704027977128e-01
-2.654021860075715389e-01
-4.452672030248812640e-01
1.466567811248114805e-01
-8.823790832228391862e-03
-5.839263456735157426e-02
3.181971232166291297e-01
2.370164787143947127e-01
-3.624642816034516213e-01
-1.592125529455475433e-02
-3.204701520672349480e-01
-1.160237744003232846e-01
-9.902746962392254548e-02
-1.685386167092029763e-01
-1.277994520085251329e-01
-3.755606659456808272e-01
1.058362933838053951e-03
1.143401369935863610e-01
1.931972382865535520e-01
2.340254964806700033e-01
3.862730661476337368e-01
-1.210310519963679610e-01
5.566960888975646116e-01
-1.788001077778180736e-01
3.348625718506276217e-01
-2.332121666243604785e-01
-2.530477656613980275e-01
3.193977663049739069e-01
-2.581322066045355079e-01
-4.975908944406062795e-02
-1.782569215291136822e-01
-3.254118649913768646e-01
8.521050818628905787e-02
1.391512919403923021e-01
1.183384699502131460e-01
2.448893498473673214e-01
-9.127109210285748453e-02
-2.691298535973072337e-01
-1.087367031447057930e-01
-3.410205743258443722e-01
1.441968424652908809e-01
7.526961163494518825e-01
3.969504649361412230e-01
5.254300731594574447e-01
1.996655288579484155e-01
2.443466896532534571e-01
-4.200190824884260654e-01
-1.029119241575052329e-01
2.675228579639924442e-01
1.954169235958601314e-01
-1.921222256837401554e-01
3.716838145318029363e-01
-4.374756795276913551e-02
2.111095372986159791e-01
1.044248466496649597e+00
-1.552372273897466570e-01
8.220663497984208312e-02
2.978139910494546072e-01
-1.377759197939405766e-02
-3.505324220240837313e-02
-5.016150188276532473e-01
2.661086964977755209e-01
-6.564276489192828745e-02
8.064915849574882944e-02
-6.980141187711182971e-01
-9.471001149179406053e-02
-1.860206765191263489e-01
4.157413927838946033e-02
-4.205660679878123892e-02
-2.618851526201382285e-01
-2.235244274893975203e-01
-3.746814458125453245e-02
1.153403906940523166e-01
1.380529123492435228e-01
8.911484042894220192e-02
7.120835439756148001e-03
-4.006706228119167879e-01
1.250001317391138123e-01
2.284972180511131989e-01
1.473412529312041752e-02
3.801576795080113119e-02
2.661474704278222747e-01
8.550180307468681351e-02
1.455878256271283810e-01
1.365850336556321543e-01
-1.795160587938093022e-01
3.923074346271986368e-01
-3.339639824929875878e-01
2.490044014223737612e-01
1.979469324529954943e-01
1.661645211252983645e-02
-1.822613964917707552e-01
3.394431623937915754e-01
-5.107320070342830087e-01
-7.140287983666891991e-01
-1.340591549017497441e-01
1.641773517633922652e-01
-2.874321100484662495e-01
-3.719894515703549981e-02
1.740715580616127023e-01
-2.117556697596513493e-01
-2.441738002076119518e-01
2.246511163447177661e-01
8.037373708594239274e-03
4.017220515634336020e-01
-2.027899741768946218e-01
-1.228677411506340078e-01
1.455427321750866476e-01
3.370247536383955689e-01
1.559632840628702444e-01
-4.611919064934669882e-02
6.554130781035182041e-02
9.757165020169132619e-02
2.737309491683611040e-01
1.008434000931679453e-01
-4.640977524136152832e-01
3.274314236239277837e-02
-4.066316311024311125e-01
-4.882805738262097073e-02
-1.274144991281487560e-01
7.631708478320557709e-02
-1.324719089789645199e-01
-2.902600443274325759e-01
-1.230182803238394490e-01
8.540575567073310781e-02
-3.901145396483363115e-02
-1.147862500150023807e-01
-1.978400693241570349e-02
-2.783016412391688954e-01
3.044731881819396913e-01
-6.873051258200195412e-02
1.753546537563103747e-01
-7.297337803482839558e-02
-3.186535766296948180e-02
-1.396708701551495624e-01
4.748398835344392471e-02
1.997303497187251087e-01
2.657144620685898961e-01
2.385812551273208126e-01
-4.050868204266116490e-01
2.615929452473026440e-01
2.657551465377185340e-01
-3.311491815815179041e-01
-6.845379993886717418e-02
-5.396952130155488470e-02
9.946983692290722878e-02
5.410463024296161549e-01
5.756349140773214801e-02
3.357669493422267837e-01
3.778767737889125455e-01
-1.736458177637174860e-01
4.916963433608784739e-01
1.473012904115544031e-01
-2.253796690219772927e-02
-3.359754228843321866e-01
-4.226666075225719577e-01
-5.375187079045861543e-02
-2.954642991171888555e-01
-9.939540136985167140e-02
9.510541579745376839e-02
-1.869443841720295207e-01
-5.135062558235129471e-01
-1.652336273756434826e-01
-4.631113865048294698e-01
1.748827321623628306e-01
-6.021424614216108577e-03
-2.475334142119591241e-01
-1.508018246031434147e-02
1.836000718432103662e-01
-2.047631114021003507e-01
2.369984895216860621e-01
2.480429038644236805e-01
1.515268228261890948e-01
7.808001606043821208e-02
-6.668931075355228888e-01
-4.514774562682580261e-02
3.233536229885477370e-02
-1.831184577855954621e-01
-2.491490745548563257e-01
-1.642663373772730862e-01
-7.776672331625779887e-03
-3.678918646022756311e-01
2.953969837126632081e-01
-4.913797941598423424e-01
-1.356944577097273473e-02
2.858002831555246648e-02
-1.779208079835221251e-02
-2.665627164370369395e-01
3.914917319007603091e-01
-1.493984125025194509e-01
7.816691176811729758e-02
3.282113929920191797e-01
1.454421965218713753e-01
-9.213563637645010018e-02
-3.466711710754263320e-01
-1.236815202541621111e-01
-5.240318006375382920e-01
-1.460956770330794630e-01
1.290723893787202037e-01
7.478235081925778405e-02
-6.001277279765991901e-01
-1.939449231359659936e-02
-2.548784949599473548e-01
1.157485069416016726e-01
2.961609750330378987e-01
-8.505599129675672776e-02
2.353375063265951764e-02
-9.040871096944516627e-02
-7.049807644730016198e-01
-6.008700532057743571e-01
-5.628023996779725480e-02
-4.719763652705426527e-01
2.967284125506472470e-01
-1.505161798825283004e-01
-2.485079195051704548e-01
3.595723060046236985e-01
-8.801301137852281242e-02
2.823223865419901557e-01
1.322571266242295596e-01
2.010023323775688708e-01
9.040642820651870193e-02
-2.120577699033374952e-01
-6.388950273364307764e-01
-1.775507071574552453e-01
-2.509051422115474161e-01
-2.792038971317096774e-01
-1.591320890325486626e-01
-2.342334723755525872e-01
-4.703384833419081978e-01
-1.500942729361471883e-01
-2.363918937963441214e-02
2.033421172246559216e-01
4.014580122422520270e-01
-4.701556167334153269e-01
-6.165315043458320377e-01
1.727640716797795295e-01
1.295372853082976117e-01
1.057317566023528999e-01
5.371133798806654314e-02
-1.232430382359783194e-01
2.582161658611639155e-01
1.235433317457153152e-01
2.389377164365977246e-01
-2.421153270914948030e-01
-1.745163060534840604e-01
1.987221703566812436e-01
3.439949676734510575e-01
-2.478747215634936538e-02
-3.487828067247505937e-01
-7.703891188401575107e-02
1.557355421588568489e-01
3.145763683379233511e-01
9.650107494026956279e-02
-7.485234961881090388e-02
7.183832853438264221e-02
-5.089854223029935398e-02
1.207376428290922593e-01
-2.393611617119828505e-01
-5.748982001190598712e-02
-3.031517448206910367e-02
-1.008568929317870261e-01
9.545922189353492349e-02
-5.895321513597048257e-01
-2.460726526320919025e-02
5.650486226981028121e-02
-1.161122202620551297e-01
8.371709179371668308e-03
-6.874142194459365030e-02
3.292795163527357238e-01
-2.815316908613143543e-01
6.147967694232327890e-02
1.653504241604833100e-02
-2.962885213245259469e-02
-2.997019951414487890e-02
6.910204945406238364e-02
-2.732046333494945745e-01
3.175513004337974787e-01
-1.031053567878715237e-02
2.014748819347511877e-01
2.691927798321903098e-01
3.609970720725234616e-01
1.138215213128019043e-01
-2.321574288360191418e-01
7.455798727650188307e-02
1.137186911605445327e-01
-5.427958881711671957e-01
-4.702514550096581480e-01
-4.917045742597956348e-01
2.748360347934136749e-01
-2.954629718887977208e-01
4.196875424091197626e-01
-2.405845576176228739e-01
7.221390163916710514e-02
6.911596980286388581e-02
2.747774059846622846e-02
1.389633301815297872e-01
7.692491640168779010e-02
-2.082128064565188022e-02
-5.574719281063662477e-03
9.749663086791235389e-02
-2.258459093457989078e-02
-3.246214973198908171e-01
2.215047017078357050e-01
-3.514634416208183010e-02
2.329087731205905232e-01
2.432011810684518160e-01
-3.016119184080097160e-01
-1.707098632639112989e-01
-1.900315606273354496e-01
-2.161348534590187831e-02
2.609664028570785055e-01
1.435280664123207185e-02
-1.789493137638316356e-01
3.099968845865504474e-01
-4.227294148906729498e-01
1.830930783508881166e-01
-2.904232633527848995e-01
6.512506100213524829e-02
-5.156069787649052855e-02
2.482525066612984166e-01
-1.373264292147737820e-01
4.915821278359268076e-01
-3.021915639072183038e-02
-7.312559292534867583e-02
-4.539364413571158052e-01
5.540542307815955747e-02
-1.463393824869224091e-01
-3.486464289968124741e-01
-6.288523384741203648e-01
2.441808105361690240e-01
-3.572108619641470861e-01
4.102406914354322226e-02
-1.622100052002077575e-01
7.073923473732689204e-02
3.806900340726340204e-01
1.865727648755734214e-02
2.174734357010255359e-01
2.435927091433671976e-01
2.292567459543474184e-01
-8.146082550348450468e-02
-5.330425900593573074e-02
1.993195418983590705e-01
-6.076725357671169947e-01
-1.260885659230036662e-02
2.086162678506812695e-01
2.222160125625900484e-01
3.018490315004289729e-02
9.247314904926559609e-02
5.603422403104375560e-01
4.194239323010791609e-01
-3.345698339798661158e-01
1.467155792250152690e-01
-7.050740679378458657e-03
-2.102014656420780059e-01
-1.583891247079489972e-01
2.358424016741201765e-02
-8.443135271085801252e-02
-1.276144824080558404e-01
4.541234326043847025e-01
3.326840825262375456e-01
4.243184621863670403e-01
-1.856778244483660023e-01
-1.526514598159729452e-01
-4.906593484126582638e-02
-1.907737396329174107e-01
1.678065226006251187e-01
-3.780333238670077756e-01
2.162053331757322616e-01
-3.344729365798841947e-01
-2.461181146815207277e-01
-2.813499516368249687e-01
-1.064540089789919597e-01
4.549330977663151171e-02
4.271751132540567153e-01
1.519615069483709613e-01
3.218960188796677335e-01
5.209602689319989960e-02
4.275176135228594271e-02
-1.807091198884728245e-01
4.096990144966556335e-01
9.433956041878199805e-02
-3.092706024272707244e-01
-4.731131534429587615e-02
2.641789854181145203e-02
2.916530886409449477e-02
4.016231085572805615e-01
3.608571471647189499e-01
-3.080845611011148732e-01
-1.809093880902175877e-01
-9.187020514767421653e-02
-3.940139585923174009e-02
-3.350859720159594102e-01
-7.074269223345430735e-02
1.014578997372014013e-01
3.339494959407213748e-01
-4.982433804339667649e-01
1.283516204946838768e-01
9.210783582544164461e-02
6.267656205898236577e-02
5.667362257443369147e-03
6.878321738742139424e-02
-3.718844225451215652e-02
-4.605928687749034911e-02
3.571750323502900226e-01
2.789106006753928058e-01
-1.417839685373606662e-01
5.613221971332595928e-01
2.147942790447653072e-01
-1.214727817969101370e-01
2.931792408744399725e-01
-3.226004225809386283e-01
7.179803546079285836e-02
3.296099466326085636e-01
7.061930339334421790e-03
-2.217898061920919525e-02
3.692088810015397016e-01
-2.136097674600208884e-01
5.959841141716537560e-02
2.834368768247882628e-02
1.469551206784687480e-01
2.829312989558749880e-01
-1.285968550166009805e-01
-5.511049390850005641e-03
-4.518978813732896782e-01
-3.772122206594180627e-02
-1.029541092473783975e-01
6.262082155268974271e-01
-1.043450539125892890e-01
-8.004004161895798830e-02
5.297897021283217711e-01
-3.260992791993221340e-01
3.492674288363530055e-02
-5.398473374555781135e-01
-5.728375567255559325e-02
4.823127309034708210e-01
-1.132498173144379922e-01
-6.791251394140304654e-02
-8.734801865328328807e-02
3.749866771075606731e-01
-6.800273258643577123e-02
-1.067427857358237316e-02
-1.132996578318750010e-02
-1.433006992255906331e-01
-2.387218901213800648e-01
3.067515929830604698e-02
-1.437450488347689348e-01
3.396245117047879541e-02
-6.195738341375096186e-02
2.050709383196537006e-01
2.387684221200659929e-01
-5.216937294859432805e-01
4.522834887576767660e-01
-2.844640309039301318e-01
5.403090936160889757e-02
4.691937061506479788e-03
-1.204790015757751902e-02
1.245608630043164300e-01
-1.912384369945263618e-01
9.701190123203216886e-02
-2.859416567052474600e-01
8.405896269251922348e-02
1.226295743069913680e-01
-1.719477628674161429e-01
9.472401099221053333e-02
8.581029028431390315e-02
-1.103317548149551075e-01
6.311160201436931405e-02
-3.070076174138978153e-01
2.011879507578308024e-01
-1.085216702696185642e-01
3.783233508417667701e-01
-2.449896965289623252e-01
2.931732817552840653e-01
-2.023786126410851427e-01
3.581961266973855001e-02
-5.489990545175510439e-01
-1.752482514038512240e-01
-4.814707289994258343e-01
2.014503334588384764e-01
2.392809357860166686e-01
-4.263914325432898722e-01
3.998801134150598707e-02
2.816275157422481468e-01
3.157636858939899538e-01
-4.084783160992935813e-01
-1.716818958547180474e-01
-2.444074516452064139e-01
-5.075923405960783286e-02
4.145812173438605253e-02
2.146829244706970341e-01
-5.934285284849919462e-01
3.015228994124748985e-01
-1.199831922801742889e-01
-3.711506142456378887e-01
1.771088981194249568e-01
-2.703413754505916144e-01
-2.611385265690955304e-01
-3.648914140607282391e-02
-8.506387337499682344e-02
1.440832932776288100e-01
2.920188117286260931e-01
8.987226915542975703e-02
-1.621944441970290252e-01
-1.250097517668403158e-01
-3.034245364990701410e-01
-5.583478703536929461e-02
-1.884452976371637015e-02
2.955559515481023716e-03
-3.741408934994421703e-02
2.533876362835439933e-01
-1.599770837657799594e-01
-1.654643752934094880e-01
2.392376007435938479e-01
-3.082353273350741940e-01
-2.795542919888971967e-01
1.886768240661915730e-01
-4.949624727707546135e-01
6.209390092495888774e-02
2.049947859159909624e-01
1.648722215880808195e-01
7.305961394436309986e-01
-1.654523706790734724e-02
1.170559706065333189e-01
-3.128310134423547412e-02
4.507163220050318109e-01
-2.058524648138075619e-01
2.614506611082319520e-01
3.658295947731866060e-01
-8.837858222279305898e-02
-2.198428110125966728e-01
4.072175206405399123e-02
-7.973781589198566944e-02
1.435726949275693276e-01
4.732486004170267657e-01
4.852868326485317851e-01
-3.806499097457795577e-01
-3.752693131051147990e-01
-4.051701307638269078e-01
-1.510895350802118620e-01
3.035873365823463232e-01
1.919780852086485912e-01
4.433585568899810481e-01
-4.631144422031292784e-02
2.883254523244346279e-01
2.149822582924322545e-01
2.355638324240540843e-02
-1.119721412006672162e-01
-1.572294804999879170e-01
-8.087264836806062895e-02
-4.328997323122052432e-01
3.850394487238904540e-01
2.494256312414428745e-01
-1.631375358833314082e-01
-3.577068296300485971e-03
4.527948235238245939e-02
-3.718714698452642020e-01
3.356914477127755786e-02
1.002632860443039287e-01
2.011662406760172661e-01
-1.470799146407791025e-01
-5.252816224440192555e-02
-1.644716710764037026e-01
-1.811300027530697576e-02
2.695316548523432609e-01
7.757983850395203107e-02
-4.773213626578592245e-02
-3.809304236731547166e-01
1.127257727780601321e-01
1.372826479647683393e-04
6.768750516531740757e-02
5.506691488977089738e-02
-4.277572286306661198e-01
1.354919082074972914e-01
-1.566338394368591014e-01
-5.467613396454227420e-02
-2.648435229697450044e-01
-1.083752013503958972e-01
-3.307433006813139675e-01
3.569669707692887939e-01
3.070470148008351274e-01
6.606601084540775215e-01
9.513228403297206703e-02
-3.294661622255327937e-02
2.445626252118471289e-01
1.170817976282948064e-01
7.549076830787278258e-02
-2.195395230035407097e-01
-5.044072475874922246e-01
5.475757222418793646e-02
1.889176555201096119e-01
-1.353634089239134052e-02
-1.694704906311146342e-01
2.477347921722156399e-01
-1.242296131968985418e-01
2.707686538266608212e-01
1.371279906174536767e-01
2.166303501696435208e-01
-1.299808295385831425e-01
1.839472275911332722e-01
3.467250334587566596e-01
-2.673799668683188302e-02
1.304967396160291171e-01
2.886159060626515838e-01
1.469466371702211893e-01
-1.755005969073245714e-03
2.089828488979014465e-01
-1.452583780550901343e-02
2.344315996796898088e-02
1.563997678650492495e-01
6.091622236731587814e-02
-1.603113640393689920e-02
-2.299540964755938388e-01
9.942994902599941454e-02
1.281170225053396006e-01
-5.674394052650015841e-01
8.854517581874785104e-02
2.474709019506726726e-01
-2.221326202052043355e-02
-5.792920094197880759e-02
-3.585097360713815351e-01
9.359156444001155706e-02
-4.658660541976120811e-02
-5.255891021720233286e-02
1.634211551176093791e-01
4.725134700300848700e-01
-3.984759478816520817e-01
4.445080437110443539e-02
5.303135179991395887e-02
1.045017906578741586e-02
-1.702301796425310099e-01
2.947226167260930674e-01
-1.886818117550191909e-01
-1.313274307006443709e-01
-2.115576823046373955e-01
2.212406912675776438e-01
1.746736697041741393e-01
4.602104329747827571e-01
-3.117322486866919845e-02
-1.856837637720509249e-01
1.904009204163843172e-01
4.864027674895476938e-01
2.800164224056916340e-01
-1.066245097981301099e-01
-1.318957252444483697e-01
1.760586105098523035e-02
-9.539117328559293396e-02
5.191222994104307542e-01
1.298739123584944088e-01
3.256769546674196936e-01
-4.861179225255040648e-01
2.262845657108782660e-01
-3.153567037185566191e-01
6.794842028197706219e-02
3.134076809865411484e-01
-1.609363880447134687e-01
2.507429097801712192e-01
1.605118229853148837e-01
2.769355712910874789e-01
-1.593019029242100648e-01
-5.131108120776162185e-01
-4.487333758124558147e-01
2.286052678507014251e-03
3.134230045649518681e-01
5.181026466459111302e-02
-1.112887349398322540e-01
-3.655091071435110500e-02
1.929320843795224727e-01
-2.824204464964514272e-01
4.231292027612562623e-01
-4.009515658271724514e-01
-2.962398126597924342e-01
7.694459934083439090e-02
6.568718958515440409e-02
2.700923238090109924e-01
-5.803825165216012216e-01
3.332131683309668552e-02
1.801138442595634770e-01
-2.405907416869182136e-01
1.560288045843446492e-01
8.004401058958822424e-02
1.128060149845280247e-01
-3.498167608566130765e-02
-1.528879966739927765e-01
-1.713813197922188225e-01
-5.130563289160320478e-02
6.526233090956591598e-02
-2.961965054534415609e-01
3.640090237654418082e-01
-5.163033050848183508e-02
-2.207538375616626136e-01
-1.212699133636407633e-01
-1.144029442011440106e-01
-2.032819843387910497e-01
1.060441053907899278e-01
1.789448801621850438e-01
2.595773145481424238e-01
4.339644592793547861e-01
-2.218185193316795922e-01
-1.575552655212561215e-01
-2.512622909967603402e-01
-4.451469627213777147e-01
-1.028400901726303496e-01
-4.570997937261857547e-01
3.409702979948242008e-01
2.099713730698894165e-01
-2.657155813908496644e-01
1.849734126996851677e-02
-1.281395779601163798e-01
1.378787930645449245e-01
1.541142406711452917e-01
-1.652786979321263228e-01
-1.892008273597712009e-01
4.061079779181211991e-01
5.542136557164552002e-01
2.427758453151264428e-01
-1.059385109537115399e-01
-1.418194354643151078e-01
2.997237115672586952e-02
-3.396895220532884525e-03
-2.725434871623063637e-01
1.328662823374419655e-01
-4.380016141205524405e-01
-6.937023817561605021e-01
-1.251289453943482399e-01
-3.025327008818423646e-01
-5.470815892973159844e-01
7.574970729697814986e-02
1.325128516513904287e-01
-3.234061913304606684e-01
-2.642493341310882538e-01
6.746279614255648593e-02
3.155896234961184099e-01
-5.396016929703614101e-02
-1.212040551383556097e-01
-3.907122984270861021e-01
1.310988738346009486e-01
-1.559405326685450455e-01
1.191416157669976036e-02
2.107442742566006111e-01
4.676703009372401021e-01
1.079676414072637536e-01
2.325186495975905265e-01
-1.078755398790218062e-01
-2.322290597768602860e-01
-1.650758439555165547e-01
1.048466985155317582e-01
-5.205412196518202639e-02
-4.726804308933994087e-02
7.159646716362202956e-02
-4.228939002052378715e-02
2.510696967405882107e-01
1.621024028432798206e-02
-1.555832519928070090e-01
-1.049990480782408003e-01
2.317048411725774332e-02
-1.147050032103270195e-01
-2.994322864870152534e-01
1.422846432418175822e-01
3.927684799218666978e-01
-2.414377560585312041e-02
-3.799854098152186804e-02
-4.527142393511448537e-01
1.780839362157176642e-01
-9.619620960636049434e-02
3.992434525694852354e-01
5.431371521892370824e-01
3.171361440115017666e-02
1.773570041327769409e-01
-9.227117731215546403e-02
2.064905198348316040e-01
3.330459743825092134e-01
6.946840251640867825e-02
2.399148212893560238e-03
-3.757094440500109434e-01
-8.806443871624872188e-02
1.650386701560564440e-01
-2.142630851077693965e-01
3.714846048622337804e-01
1.734602760346680385e-03
7.924558031061469318e-03
-4.202024637984535516e-01
1.466670828723478093e-01
1.476106995069401961e-01
-1.207806152827203827e-01
1.860683478662147894e-01
4.057999998883004000e-01
2.216532392509226734e-01
-1.618297798595332015e-01
-1.802767153745166162e-01
1.003804774732427324e-01
1.258430388670311040e-01
-4.485124073375262310e-01
2.624668198512156714e-01
-2.286269384648259295e-01
7.853502524390817419e-01
-2.123470448074069039e-02
4.250709351453701990e-02
-1.855375136331931518e-01
-3.423992790150839211e-02
-5.850042583003303709e-02
-4.237009271043711001e-02
6.495768490661323058e-02
-2.889713893972573611e-01
-2.383048168259792599e-01
1.927419419007713186e-01
1.053491003328119041e-01
2.271033630243535495e-01
2.244568355705046647e-01
1.600137845054062707e-03
-7.977938408441359597e-02
-2.237515596679183483e-01
-3.442472455879751481e-01
-1.430084181917677666e-01
1.072312952198575531e-01
4.475761644806030420e-02
-1.431201278462870263e-01
1.250216739851729014e-02
-9.261353699986389632e-02
2.161076444693222631e-01
-3.286736619300389406e-01
-3.269181484842907381e-01
-2.602554867407088635e-01
9.082112647364155855e-02
-1.288144874225823355e-01
6.693757100811957572e-03
-5.275262601708107235e-01
-7.592213025396303550e-02
2.919140796056524448e-02
-2.715168457771436894e-01
2.429587648965016167e-01
-1.184660608579060775e-01
-7.528703993689192520e-02
-1.527966161630457120e-01
3.826010700720320484e-02
-3.533815926327503187e-01
1.967218230393348311e-01
2.393139746255229239e-01
1.685491887152108237e-01
5.760639132875584600e-01
3.254276486593469797e-01
-2.980324007384351284e-02
3.238884191212093588e-01
1.243693109567358401e-01
3.151929060012848786e-03
1.101852717750350097e-01
-6.317359095542381120e-02
1.882779050584619251e-01
-6.247748136652357676e-02
-1.169822513482063897e-01
-3.663855330331166615e-01
-1.226999381462288569e-01
3.348113024686512063e-01
-2.463011788770576999e-02
2.435539821368368774e-01
-2.788975160951674970e-01
-4.186550529712537716e-01
-1.099574848790560028e-01
7.438886070861086552e-02
-3.357642322770552634e-01
4.383058427267055301e-01
-3.179254204012790103e-02
-1.932146791054592527e-02
-1.088444631032423893e-01
-8.691519455460085253e-02
-2.892710922362772830e-01
3.798086063443739668e-01
-9.839499041619004238e-02
1.358265674340458085e-01
-3.035476710878260917e-02
-5.948574575953865518e-01
-3.262609931036403177e-01
1.940882750701080905e-01
1.774570289578814575e-01
-3.625062508455280386e-02
1.954987289310458620e-01
1.393446665192291378e-01
-4.480045158082453516e-01
-9.583014953589870377e-02
-1.618171168256150594e-01
-3.545555859568494395e-01
-3.042644755341723517e-01
-1.877767567935722803e-01
2.815393153438346951e-01
4.673474727503312276e-01
2.828616788254691983e-01
7.715732451744442000e-02
1.282650420769760116e-02
1.432597169956577321e-01
2.272539670911948306e-01
9.303775779318047834e-02
3.853370017872605191e-02
1.534176511019602340e-01
-3.629680989353520904e-01
-9.816806341767098099e-02
-3.515996456392890268e-01
3.083081166674929707e-01
2.402398950446904546e-02
-5.752995771868105873e-02
-8.861174636227529822e-02
3.485877819412345757e-01
-3.937641220668749303e-02
1.583692168581328497e-01
-1.736447862544788709e-02
4.493152913537431514e-01
-1.674173869298331008e-01
8.754815098459592382e-02
1.365762972000735265e-01
-2.962175253664380281e-01
-6.352137027550915083e-02
1.968005826638837552e-01
1.332434741884155893e-01
3.581599813342052352e-01
-3.222183106962069887e-01
-2.998703633951247394e-01
4.657697151072199837e-01
-4.502052969451565689e-02
-2.294171243182086539e-01
-6.170196952922972766e-01
7.916761601778450619e-02
-2.262264192070504998e-01
4.503055796729867888e-01
2.461538318499971179e-01
-8.218194584579176232e-02
1.777912431937319071e-01
3.056198568785746805e-01
-4.313279231035471728e-02
-3.761089164671624907e-01
2.857931780842068448e-02
-3.426777071068519698e-01
4.474124364862172576e-01
2.953373576019917568e-01
-5.704499650420240264e-03
2.913135270642992491e-01
1.227906671767209079e-01
9.038412670339843191e-02
-6.340098795844176793e-01
-5.972651784992561580e-02
-4.587845384945338778e-01
-1.304084531613474707e-01
1.404435341898417344e-01
2.526599146472548532e-02
1.087884868316292553e-01
-7.349726269915658750e-02
-1.606466833950030426e-01
1.064600961080210684e-01
-5.144214015887012270e-02
3.145361006153944428e-01
3.504500383934651686e-01
-1.435002640048524403e-01
1.383940061556912793e-01
-2.503875471394517160e-01
8.258936275854858455e-02
2.252012291266158039e-01
3.638383363027921646e-01
1.611000499853846024e-01
-2.865306711392963668e-01
6.172169959891851687e-02
2.096782405513692993e-01
2.228870135849174428e-01
-3.340784924023166846e-01
3.957015271498848241e-01
-2.507896340508077304e-01
1.540477354653983430e-02
-2.279327025155626629e-01
8.673162538723831749e-02
2.893767771780779690e-03
9.995889371516505917e-03
-1.289422776626199807e-01
2.037958260444956982e-01
5.822023914168491078e-04
-2.158444034492990049e-01
2.139084283864023106e-01
-5.836617777265674656e-01
2.787532871655887257e-01
-2.655983404862473363e-02
-4.238111067463884996e-01
1.456450656200276514e-02
1.471945982811166953e-01
-5.448228386423670244e-01
-7.251612921001679424e-02
-5.210377571932021112e-01
-3.046401295599441283e-01
-4.163293464782144571e-01
-1.469145220581229427e-01
-3.239582191641214304e-01
-1.823520217556081069e-01
1.473839324410402413e-02
2.853856026695711368e-01
2.760576411462221658e-01
-5.149791494843128925e-01
-1.613584739487795572e-01
3.647754558941580533e-05
4.850293403821736571e-01
-2.112659785341850782e-01
-1.611596845956831114e-01
3.330557324452869672e-01
3.015742425196848431e-01
4.082879306709574080e-02
-2.968618494272305952e-01
-4.367013822812823576e-01
3.503388796499030677e-01
1.818158177855272450e-01
1.510974961032020003e-01
1.300551159329393358e-01
4.592072380004292437e-02
6.974739264715328069e-02
-4.646635629391642763e-01
2.147664834751106810e-01
-1.119241976021941865e-01
2.666941535194672364e-02
2.522859852803580605e-01
2.993064552947062307e-01
-3.636567643805350691e-01
-2.584340611573790469e-01
-2.521694209228959593e-01
-3.708024078440931293e-01
3.442966438914568661e-01
3.001280889566608212e-01
1.995428789290213945e-01
4.406154475344948862e-01
-4.203980479566181150e-01
2.166420989105521944e-01
1.791462965162887999e-01
-2.019821881374134764e-01
1.804773212010057082e-01
2.711193247576498266e-01
-2.628558900095660511e-01
5.359735060902989789e-02
-3.738767896198350038e-01
-1.149128040708305779e-02
-7.916271670594443588e-02
2.015427716698370286e-01
1.997017795213720526e-01
-7.122773285846286523e-03
5.608363662376989606e-02
1.811141818510682566e-01
-9.920994847799763372e-02
3.225101255521036214e-01
1.607498330804993658e-01
2.126559002977735091e-01
1.196744134476887683e-01
-1.869931646788296487e-01
-4.900972727864875977e-03
9.285153524861659846e-02
1.097598301497090117e-01
3.359998467190451060e-02
-8.927749987971525525e-02
-2.511436559012630854e-01
1.781847545894072182e-01
-9.384334417177121745e-02
8.735311495331091192e-02
-2.587210364056333756e-01
2.456365899366601269e-01
-3.365586215499791201e-01
2.431281393856794260e-01
2.230036070944458326e-01
-5.956955354516692003e-01
-2.820919878853172039e-02
3.989457230074650584e-01
3.236924930500248987e-01
-1.192655659030353033e-01
2.335744987790769056e-01
-2.243887378482999767e-02
-5.067119866832475034e-02
-3.298045358438680408e-01
7.474412854015549668e-02
-3.250003558917882729e-02
7.258959736649391037e-02
1.807979327324150953e-01
-5.032425941325500279e-02
-1.675047744107094061e-01
-2.064512020987818441e-01
-3.136734778218836506e-01
-4.157034978649934986e-01
-3.496454144552527121e-02
7.011622503563307018e-02
-1.344877742624110417e-01
-1.986772647989832885e-01
-3.443075504832963651e-01
3.911346540849884590e-02
-5.596903851069617852e-01
-1.069887927967965169e-01
-2.480275609832635342e-01
3.545411657589919718e-01
-1.386100049263641609e-01
-2.873340990894377445e-01
-1.682585321525297273e-01
4.683424444934286557e-02
-4.022641003268239146e-01
-3.630830419758638850e-01
-4.278024950078828104e-01
-1.281165497900835504e-01
1.302190014126651252e-01
-2.947326104064900698e-01
1.468167106936344724e-01
-5.062529805506744696e-01
-3.110929733929064800e-01
7.028583409681653238e-02
2.677931418135862801e-02
-1.406048526970310186e-01
-6.918385737865191676e-02
-5.852652933852638302e-03
-1.511578345018181613e-01
2.614275631929242616e-01
-1.195875208148273749e-01
1.953960899179943422e-01
-1.274262520321075773e-02
-4.550036318447375772e-02
3.396498324942152230e-02
6.652641299091294202e-02
1.486867865612785111e-01
-1.876302920093430582e-01
1.549028733872396812e-01
7.118839279842391343e-02
-7.123004149103565052e-02
-8.512102210688025916e-02
-6.214884116610949194e-01
1.044293724635752124e-01
3.410311485938278264e-01
-3.306689258880987081e-01
8.210334253727622489e-01
-4.716469003651346803e-01
-2.102008370283290628e-01
9.263389782834921538e-02
8.268181685771759659e-02
3.479195305358777079e-01
-1.641479794102068679e-01
-1.854960654509837936e-01
-4.302530157786933068e-02
-7.483945674876481269e-02
5.274656700173290247e-01
2.170102022203566072e-01
-7.188478414366508140e-01
-4.556142931433724841e-01
1.742899849603143370e-01
1.651493034433957063e-01
7.364538641673944175e-02
