-1.147608486986080534e+00
-4.403735501556283460e-01
3.835390944294662319e+00
-7.692605410677255673e-01
-1.659639079687374341e+00
1.969230762846026384e+00
-4.414090454086327386e-01
1.469383533690142019e-01
-6.968894302526875695e-01
-2.830241889288113641e-02
-7.839234309719580462e-01
-9.745353634280751187e-03
-3.314896583397534680e-01
-7.745566154622724299e-04
6.144988661146962849e-01
-8.703629123960882064e-01
3.862853765317606890e-03
-1.685732789316516600e+00
-7.346564515358365854e-01
3.549964946468919358e+00
2.034868276596700151e-02
-4.278866965745923290e-01
-1.708346146040953917e+00
-7.226767072018307481e-01
-2.805867772161520918e-02
-2.068876196274421098e+00
-1.055033832653870657e-01
-2.193500436919935959e-01
-9.266645277941022441e-01
1.693969237022265040e-01
-1.063910076042181435e-01
-4.746448897515916365e-01
-1.445394889273426076e+00
-1.553209345481862957e-01
3.971063960958874373e-01
-4.466496268004457315e-01
-1.692883747107408465e-01
2.616776206518515724e-01
3.972141131420051791e-02
-5.728926299476923001e-01
-7.717955802184552905e-01
-3.706337097111495615e-01
-2.055781347980241591e+00
6.453167347173895119e-02
-7.736902053207651564e-01
-2.792789348443907915e+00
-1.312895381385544291e-01
-3.127331161989617692e-01
-7.044097811515600549e-01
5.146950508654315470e-01
-6.351551845412971575e-01
-2.343592285514973506e-01
-1.814803337031663244e-01
2.962242771656716234e-01
2.695442581488562972e-01
-8.027608307299095580e-01
-8.233466666483760243e-02
-1.609784534917493848e-01
-3.991563687627449064e-01
-1.724463064696035941e+00
1.198618833656851790e-01
2.701183632125584433e-01
-4.486365253416151333e-01
-4.301100334921916131e-03
1.388604172844027651e-01
2.591610842559534111e-01
5.401191048578435350e-01
1.085524695973447695e-01
4.720724035992211742e-02
-3.723155803092360189e-02
1.417154073456026835e-02
-3.652022090442553215e-01
3.380007290346792037e-01
-5.373955241283739914e-01
-3.480261906791082271e-01
7.333462383604699708e-02
9.934409246870636034e-02
-2.422932385163747704e-01
1.144111956275494502e-01
1.604531639711801738e-01
1.579743215599225259e-01
4.704808456591427768e-01
6.417823328183487330e-01
-2.039122993502721359e-01
-4.577231953653083663e-01
1.448620357300697270e-01
-6.211919335146510734e-01
-4.464911968759976979e-01
-3.814684102827552992e-01
2.496203552086647681e-01
1.507898428185452389e-01
2.345138688652347383e-02
-2.116522612979644113e-01
-6.122996995306344281e-02
-1.763987735091676959e-02
4.518388073455601589e-02
4.183686157140141526e-02
1.189571812036433751e-01
-1.230102364280384886e-01
2.191964253861220999e-02
-4.568134659512778639e-01
-1.700781813885433147e+00
1.007330071358710555e+00
1.328522854964546418e-01
-1.597870951908909598e-01
-9.918676398635078995e-01
-4.679744043323786351e-01
9.174403609486650457e-02
-3.963000724127475061e-01
-1.111329033234481969e-02
-5.696534642801597270e-01
-1.450889127883714935e-01
-2.459344479435170410e-03
-1.617360084696674305e-01
-2.640226561917084491e-01
9.592902295529904810e-01
-1.157297950271232584e-01
-4.367047039322988211e-02
1.030739895365769127e-01
-1.583501480000234940e+00
3.021413245706641715e-01
4.804797700844604669e-01
-5.266527211036381440e-01
-2.883109863927167948e-01
-2.394024142427747803e-01
3.738069789283604560e-01
2.116119019224481645e-01
-1.350356217932521530e-01
-1.770117313303332454e-02
-7.877591600162794916e-02
-3.499895268024686423e-01
1.854130209597467938e-01
1.780738428122545687e-03
6.700641876784524387e-02
-5.726318567480275235e-01
-3.498261415475667491e-01
-2.423492017159599790e-02
-2.414000981115695665e-01
-1.642845692348635089e-02
4.374767734876852110e-01
-5.968333597093827825e-02
-1.315057340131903674e+00
-1.686356312223391996e+00
-1.097604821625228905e-01
-2.316755847239060639e-01
-1.672400399488022105e-02
-1.182965848567802403e-01
1.051906091943434624e-01
1.878760683530228848e+00
-4.085844567390723436e-01
2.511234261112609695e-02
2.569809494025224184e-01
4.329871849865808975e-01
-2.764320536441238207e-01
3.207397485372740498e-01
1.016194887701819205e+00
1.032324259929972565e-01
1.623042376689936284e-01
1.158046093501604590e+00
4.575635445887277220e-01
7.968496491600517151e-02
-2.338740880667938615e+00
1.754447216577706303e+00
-4.923552228319023893e-02
-1.553798981030528881e-01
-2.260308625425135609e-01
-5.766009765902397888e-01
-5.602358246303175138e-01
5.094968273543009074e-01
-3.047829478383599078e-01
-3.162815329651159635e-01
-6.542504585862156663e-01
4.939955615734739625e-01
-1.439853203025942552e-01
-4.020990927384630043e-01
6.024213470633910106e-01
-2.193992585304231635e-01
-2.960378830962029362e-02
4.349381358544550102e-01
-9.372828582350732907e-01
3.273414760644495214e-01
1.887256179436778702e-01
2.362435663957542786e-01
-2.966562878856393581e-01
1.828101455512366746e-01
1.037023480802210795e-01
-4.574549491386229599e-02
7.090331597684995657e-02
3.230109987292389961e-02
-7.182368704792023960e-03
-2.826062866647152672e-01
-1.551856156732284997e-01
-6.888781614269694209e-02
-5.199535543457659698e-02
2.219623212971536252e-01
-5.098990173252320179e-01
-2.164906609598966220e-02
-2.402902452884564111e-01
8.924376848300052956e-02
7.574997694053814401e-02
1.717604490594907413e-02
2.902070947331429340e-01
3.424776755434509323e-01
6.805769366100056228e-02
2.518886730235648241e-01
3.720899402489816904e-02
-4.110684055611688592e-01
-8.658825989427240688e-02
-1.969032360736440168e-01
5.783828631876901903e-03
-2.973640438523749707e-01
-3.400463372657929612e-02
1.821111991205489888e-01
1.076495079120512038e-01
1.574863698613612750e-01
-2.205831740292513443e-01
2.280610563919030220e-01
5.252031630103466409e-01
-2.354466506857284258e-01
1.447701693227955166e-01
-7.410466773484739034e-02
5.621072844820184100e-01
-2.140204370420659419e-01
1.371324691896362302e-01
3.390832671801057852e-01
8.746976988500279604e-02
1.059565300991917591e-01
1.197348090649969637e-01
5.039954656034986158e-01
4.583858227607109370e-01
-6.840028961373482985e-02
-3.103579866033626122e-01
-1.049646016807410515e-01
3.281845814234072845e-01
-3.215829629950661128e-01
-1.130726505467431475e-01
-1.494046268014012357e-01
1.480250453982672465e-01
5.703832594964279579e-02
-6.097238596985562475e-01
4.968097093054543029e-02
3.847590829396055345e-01
-2.296020244843819391e-01
2.058668911816330105e-01
-3.566819762344369260e-01
-6.768877633523659454e-02
-1.085342875042431821e-01
2.143559460464287969e-01
-6.182473528998105872e-01
2.372514941429048341e-01
8.281068826279244788e-02
-3.537377194340367986e-02
1.710045462722739606e-01
-8.239852694573056302e-02
1.173669375107923990e-02
-2.052708212770058271e-01
-2.150740277263461786e-01
-1.751510321845141105e-01
-3.089755396659932263e-01
1.766588168038439322e-01
-3.655711232135538252e-02
5.463267676438742226e-01
5.541987662780635260e-01
-1.304811315931057314e-01
-1.385501897025396834e-01
2.749300470080891928e-02
-2.208815055635348079e-01
2.225401698849423793e-01
-3.152576738928521416e-01
1.326570191882351646e-01
-1.435170337819659525e-01
1.090254837863294801e-01
8.015395117370448241e-02
9.156783124294105847e-02
-9.783574084276223937e-02
-4.975106274363566561e-02
-6.339243651132589474e-02
-1.376161886487044794e-01
-1.799082517807274462e-01
2.206857675493795745e-01
2.029050518344049092e-01
2.900072861097927404e-02
2.452749050397718122e-01
-3.103855884069870452e-01
-1.538597932567061510e-01
8.905144811498191164e-04
7.653658436743505933e-02
-3.408878442147734167e-01
-5.031715005234379534e-01
4.967505870125498157e-01
-1.631315841090566210e-01
-6.789856483261516584e-02
-6.414015298497384443e-02
2.050533871431601263e-01
-2.538747784385605652e-02
-1.134994970041521001e-01
3.737486656562035159e-01
-2.838942952557971244e-02
-6.315950580854348684e-02
4.078598415632350704e-01
-4.501515565678538833e-01
7.371840357289981271e-02
-4.143492807957812607e-01
3.830526714122942794e-02
1.566587504208648562e-01
4.421949255161950615e-02
4.535777628949422963e-02
-1.500010121864849277e-01
-4.467008126570181648e-01
3.589351707283646165e-01
5.275187608568135955e-01
-2.125972485757739727e-01
3.240331604440832569e-01
6.034271728097545529e-01
-4.413938257516169528e-01
-4.082524627319465416e-01
1.764277282911995703e-01
-1.090961142397958716e-02
-9.028754212125383871e-02
6.510197507934073480e-01
4.504241715743504404e-01
2.699781994427379872e-01
7.488826465627018703e-02
1.691625734180017548e-01
8.106656140674155242e-02
-7.141743307941543495e-02
-6.727749546789391077e-02
3.377459480310106010e-01
-9.031604119173688994e-02
-1.825031131413473173e-01
-2.352083673209177661e-01
7.568777257469956610e-02
-3.118669580860783941e-01
-1.652471933329219544e-01
1.165227683949744270e-01
8.690869084508419384e-02
-4.816010444286177028e-02
-1.040357505845324187e-01
-3.820870139908831287e-01
3.814634972036050065e-01
-2.465184899262074236e-01
-2.072024258070073455e-01
2.083259536814602575e-01
-2.938337610079286844e-01
-9.744786702907275167e-02
-6.416914439147049232e-02
4.545275187600260058e-01
4.394188730016336253e-01
-1.954666602134003811e-02
-2.644614375698512987e-01
-1.806598898891567939e-01
8.589411163255343540e-02
2.634797462848967320e-01
4.064486407949792490e-02
4.424393656637353595e-02
1.398305452651732173e-01
-1.789926847428640611e-01
1.223103698856813429e-02
-6.420451991177993367e-01
-6.396754204767693963e-01
9.319948015277193520e-02
-2.690430981676183997e-01
-1.183274009844878849e+00
1.402463968713974808e-02
-3.753045960146022542e-01
8.491268642689892010e-02
2.035270942163635785e-02
-3.002342076625066913e-01
1.144063371972604104e+00
-7.393868729360711378e-02
1.021534202398428209e-01
-1.087811450140116765e-01
4.745214808804573137e-01
2.106557944370568702e-01
-1.916664415474621241e-01
3.945870374389311985e-01
2.135154411308522182e-01
3.083961351166836229e-01
5.574769391129057450e-01
1.932858391835984638e-02
-5.264933543426658646e-02
7.536825263611993120e-02
5.044012819274622944e-02
2.280679433388499711e-01
-1.780443386120645344e-01
-1.570257335694735246e-01
-1.182312357208179926e-01
-2.913922213530272809e-01
1.830028727329907623e-01
2.651676591242865116e-02
1.220036008195637400e-01
2.477925086997965487e-01
-4.996451601533811321e-02
1.899308476808366508e-01
-7.316322121631036075e-03
3.294227097276739569e-01
5.230940637398917570e-02
-3.158936899330547915e-02
2.119887383742525833e-01
3.485985034594751286e-01
2.163463585841839121e-01
8.723579147361024688e-01
-4.131408468596918793e-01
1.481831445979439887e-01
-1.140783273382083712e-01
-1.872680496404157402e-01
-1.069605200548827406e-02
5.500720923588600306e-03
3.919505022315256659e-01
3.299603837428765063e-01
-4.345645280456533199e-01
-3.412181318814923037e-01
9.252774698746847604e-02
-4.411582536471848615e-01
-8.205403913388207293e-01
-1.666885822334712997e-01
-3.849533639677147484e-02
-3.334478510248197192e-01
3.221152048837769843e-01
-5.895126398569583426e-01
-7.878766673045663194e-02
1.188567178888268738e-01
-2.803103610041917104e-01
5.667434360162251772e-02
5.556260895838020103e-02
5.169408783009532549e-01
6.060931061020798788e-02
-9.778072081039002050e-02
-4.501318487074498775e-01
-3.113956495553899528e-01
-3.360202196016489479e-02
1.634968310642988254e-01
3.544690025681465628e-01
-3.049407704598055546e-01
-5.371290777148733653e-02
-1.215347292028575582e-01
-1.351285233743216851e-01
-1.042005324574847985e-01
-5.569484574605030325e-01
-5.374630103960066352e-01
-1.730876897899942257e-01
-1.279068237611093339e+00
-1.041581974286203582e+00
-1.450308293757537614e-01
-7.927840677625456189e-01
4.317382374952135615e-01
-2.501080468207861895e-01
-3.366295785571986054e-01
1.948555268481459324e+00
-1.148197846159229180e-01
-1.115479345250939003e-01
-3.634668960971532137e-01
7.493936168102118822e-01
2.482916157594204642e-01
-1.913497924619076973e-01
1.372415781772467147e+00
-4.718049964725229417e-01
-3.265816595608831419e-01
6.331323924008254167e-01
-1.200138382413311389e+00
-1.193636535157192730e-01
-6.065291549284983208e-02
-4.870935939827676364e-01
-1.819974174471911121e-01
7.741254964235154412e-02
-1.161908458230631380e+00
7.749377301091311399e-01
1.824656058347706722e-01
-1.447692458495275059e+00
-8.145147860539952989e-01
1.593022744630065990e-01
4.608751835097918970e-01
-1.306248957658970200e+00
-4.301839806756128093e-01
1.613131338014316851e+00
-4.555884510826938016e-01
-1.644949992289038987e-01
-2.928361075788566414e-01
-6.944214802489233618e-01
9.849171695108431546e-02
-3.694823575227569878e-01
1.120940734337805722e+00
-2.732327197964871668e-01
1.298185957269545332e-01
7.490115799176441103e-01
-9.905044286419119048e-01
-7.808884230625559586e-02
-2.807862106413755998e-01
-3.508488004892242329e-01
6.939309900803209974e-01
5.307088061165549098e-02
-1.773620193050971100e-03
1.146716696572339655e+00
1.313809738463551646e+00
1.991828326009955352e-01
1.340353952743818244e-01
4.468249742730784346e-01
1.022750272185547482e+00
-3.052459869326880626e-01
-1.411192584847910769e+00
1.897876580264545310e-01
