-7.915022124201900322e-01
3.549027871873232653e-01
-2.487920185774513404e-01
1.091776669434652236e+00
-1.402380501359274945e-01
1.216215368779935302e+00
1.075663765325287846e+00
1.767898449410525707e-01
-6.538650760748478952e-01
-6.284663708335871402e-01
-1.435419658307077184e-01
-3.275693196290799941e-02
-2.759620379521220968e-01
3.271378691316751963e-01
-2.210733967085302121e-01
5.605463901322073061e-01
-4.707671155249442685e-01
9.954560705748216609e-01
-3.737774352121554511e-01
-1.207358750347363729e+00
-9.176141734395991401e-02
4.906674082922090063e-01
-6.436257596204461029e-01
-7.416305060726045006e-01
5.253363038942326924e-01
4.651720761851760866e-01
5.257213833476770404e-01
2.494356060400399477e-01
-2.744284122638201429e-01
7.668227913622227554e-02
7.722589997094186920e-01
3.532359837201284880e-01
2.315500355722760473e-01
4.652590524909415715e-01
6.831717797032502704e-01
5.114964336911583809e-01
2.482488582308512992e-01
-7.837621460897313541e-02
-3.495490195487265250e-01
-1.501951215453440347e-01
-3.344894968995752449e-01
1.229291208676842745e-01
-1.587808810051566100e-01
-1.247274217474475755e+00
6.747991425713878444e-01
1.098609999607302434e+00
5.337047024933997408e-01
1.993932078606295566e-01
-7.189874222657798297e-01
2.725765475322941903e-02
1.232047060980244191e-01
3.960561668967708671e-01
-1.097171198456998953e+00
-1.134223379584170105e-01
-4.144255305706193160e-01
5.255275571192248238e-03
4.454599559306697820e-01
-3.311061952871253711e-01
2.521037672614941938e-01
-4.918214132060441321e-03
-8.964436997956225506e-01
-7.597331860028180839e-02
4.667974996799565957e-01
-8.885107623224886356e-03
-8.060883509018161863e-01
-8.277133030003759329e-01
1.560466673519605996e-01
-4.224314626971612530e-01
4.697368694640789710e-02
-7.084556906566266167e-03
1.936164077746118095e-01
8.398025692970634282e-01
3.451981943702265854e-01
7.577544894587817659e-01
2.888642524943469958e-01
3.205409281216892864e-02
-2.118954009866190480e-01
4.437064420126881625e-01
6.570220458763174898e-02
1.220162927543615855e-01
2.073005902982406889e-01
-2.057608981085339850e-01
2.166934888022773731e-01
-1.126516865595184491e+00
1.225269208951667022e-01
-2.243592258381255783e-02
-1.596475039837408350e-01
7.691578640109074660e-01
5.915777739850969913e-02
-3.829454955126785354e-01
2.431236506207647696e-01
1.739242541574492484e-01
1.061463499892517509e-01
-1.832144467219765094e-02
2.612895023611559453e-01
-4.308446711033922516e-01
3.911004558773067408e-01
-2.185901076055866699e-01
1.346530511745652192e-01
5.440858608604393076e-01
1.282458840510038722e-01
-1.005772611670997796e-01
-1.095578998640678453e-01
6.498319311326426762e-02
-8.553148658501330548e-02
-4.749026692852094111e-01
1.029533872083801121e-01
-3.608172768441650358e-01
-4.886191444499360381e-01
-5.163960358639941850e-01
3.993475436191529782e-01
-2.801974408620517276e-01
-7.493079413093683971e-03
-2.140833473730768821e-01
-2.454933992838091716e-01
3.072158031122302832e-02
1.542353954877658251e-01
3.083258234406351939e-01
2.626565913741557914e-02
1.941135192568578804e-01
-3.085722141086792020e-02
1.064128556520508861e-01
1.565856273225482986e-01
1.151309827247292000e-01
1.919805321388369790e-01
-1.671732789922713291e-01
-4.394815273054933913e-01
7.583394410297043114e-03
-3.094450508178351877e-01
-4.587317244476730171e-01
3.626776433477571504e-01
7.349162225312455554e-02
1.906589772098911117e-01
-1.243115401725253671e-01
-9.264218006684208154e-03
-2.706255124688681790e-01
4.951954999267479951e-02
-1.975849115678059986e-01
2.449479494977063188e-01
1.252133335595881879e-02
1.626328571114149246e-01
-1.371015344448995310e-01
-5.876578825574341192e-01
2.810334324540117706e-03
-1.459501517445245811e-01
2.390275395977888295e-01
-2.724889085304548764e-01
-5.801983680522949764e-03
5.978848322707452229e-02
-9.653450080046056814e-02
3.402502193013369758e-01
-2.201867353086056911e-01
-4.188797964214764358e-01
-1.228810391633948507e-01
3.064981300832040345e-01
1.057302563179647603e-01
8.806278250836621635e-02
6.688468984674576789e-02
-1.427030272230241439e-02
2.419987109232362155e-01
1.981119706846294903e-01
7.370150009741580077e-02
2.173083234453768858e-02
-5.596360291148689409e-02
-1.430375567480689503e-01
5.556516761016285638e-03
3.840767349058551300e-02
-1.607378338582202137e-01
-1.629893980488025529e-01
-9.545337373687645677e-02
-2.190258615165820155e-01
3.021369477645289292e-01
1.426329464853100804e-01
-3.367419673216989762e-02
-2.267638965385144478e-01
1.978527259347826750e-01
-7.715980071019749864e-02
5.289689513083021405e-02
1.212042534829525647e-01
2.595199323472650033e-01
1.364826807230024308e-01
8.816613093109171295e-02
-2.411034488822848959e-02
1.520546486842203615e-01
-3.928790940450908598e-01
-2.588085919296835291e-01
-9.378029675210720895e-02
1.547529442343655026e-01
-2.420808869259534826e-02
-3.028820861302261580e-01
3.694767685386443189e-03
1.880880727816459097e-01
-1.978747875064890971e-01
1.705925384071783901e-01
-1.923200799720569398e-01
-1.620423723159613028e-01
-1.609164289113780011e-01
-4.754445657303136424e-02
1.578070715429174820e-01
-2.387665733457168260e-01
7.806015775839066084e-02
7.318177206402244617e-02
-3.502161613530506146e-01
2.520931931126451850e-02
4.519474449038551889e-02
2.649518916054031670e-01
1.392069002070407402e-01
2.415313157274219247e-01
2.100801562933836686e-01
-7.571333225795041921e-02
-6.335051621311156567e-02
-2.011786721988915450e-01
2.347931615697325669e-01
-1.892586250677503468e-01
-2.761973108513874897e-01
-1.145825167855118315e-01
4.654663338486169089e-01
-1.005316836226006760e+00
-3.186748934653511195e-02
2.585078012036034489e-01
-6.479964681147375172e-02
-2.118325126438644623e-01
3.991232586877352939e-01
1.958728781395045748e-02
-1.077139120051438942e-01
3.228517590618630306e-01
4.775701215622288887e-01
1.998025567386076673e-01
-1.032170670467345702e-01
-4.552535406162709908e-01
2.182551086931739937e-01
2.936944048381226469e-01
1.352437395687811628e-01
2.259140035981969108e-01
5.231558045505034782e-01
-1.394591497982290360e-02
3.901662596733084798e-01
-1.691218008503396208e-01
2.290459865049707944e-01
-1.297622148434381950e-01
2.031344312436735369e-02
-2.732261675112734878e-01
9.905712895839761944e-02
4.513749558102130299e-01
2.642441244240737452e-01
5.156273692529722563e-02
1.942425976333493967e-02
4.750498111496012088e-01
2.351409142839951116e-01
2.729443397890101708e-01
2.589041391984597384e-03
1.207620480531599455e-01
-1.177163786841261828e-01
1.051548329746026522e-01
6.949803554095181080e-02
5.462023363054661212e-02
1.626228294496621651e-01
-1.319400915936336793e-01
-5.886097043598699508e-02
1.591363121018387131e-02
9.188991871037086728e-03
1.767629013364913348e-01
4.123959968366792683e-01
-1.709401014853067016e-02
1.399185552778248187e-01
-2.542738918359748190e-01
-2.185826500274067330e-01
-2.523514388127122698e-01
5.208057962341241381e-02
2.736529804162023960e-01
-2.087806430980311823e-01
-3.647237514031765326e-01
-5.416751574490928922e-01
-1.372897540633211122e-01
8.678776225081107076e-02
7.761258914497930206e-02
4.291708669439682489e-02
-5.674976483888853618e-02
8.796626366814011555e-02
9.897029760382716201e-01
-1.962982237854200007e-01
1.034861867459858781e-01
-1.114634906601454784e-01
3.948630661039420064e-01
-2.766347310912123381e-01
3.963140879826286267e-01
-1.344918615122045469e-01
3.060985866265083510e-01
-1.515569067934215697e-01
2.668816058623594278e-01
-5.643743815922216620e-03
6.455849256636481646e-03
9.598360172566520188e-01
1.382526822324550431e-01
4.308213537707618612e-01
-8.287601211923506517e-02
5.542426233932352675e-01
-3.388913835071619141e-01
-1.818158661394919939e-01
-2.775994394528996656e-01
-1.613319684628499173e-01
-1.484593694662238728e-01
-7.364467959525779553e-03
-1.040686385630321537e-01
2.637548516364598972e-01
-3.223178834461595255e-01
4.142065863042068696e-01
8.192411866434071155e-02
8.023797411312851013e-02
4.497091581895536483e-01
3.040847331650385343e-01
3.641651624594434422e-02
-1.095104650262257173e-01
1.377207217632672454e-01
-2.715843901726047172e-01
6.791876299038226983e-02
-4.218563329575980569e-01
2.922195715832872076e-01
1.629034466991449714e-02
-1.252086321517240919e-01
3.776589716948903358e-02
7.230394298458134306e-02
6.184075700745041981e-01
3.404503790197474511e-02
2.323999542196185653e-01
-1.568570216599520228e-01
2.287337996219060698e-01
-6.056378441765117304e-02
-4.301395645780956012e-02
-1.502989577220516515e-01
1.437066933937442221e-03
-3.655820053720638257e-02
2.060156936714217790e-01
-7.451472477811449391e-02
-7.848111481916089649e-02
-3.333812114877570121e-01
-1.832444208739041625e-01
-2.040785109685728516e-01
9.972858918631026526e-02
4.314700230811182452e-02
-2.311195864496059238e-01
1.524792967180445269e-01
-3.587614811371175189e-02
2.139561766336312565e-01
9.165061471377190794e-02
3.246395603110119581e-03
3.657737474567521185e-02
1.223663622415833291e-01
3.824701003121572934e-02
-3.637890198208038051e-01
-9.307100696112406701e-02
2.926364963661238702e-02
1.484727792516968570e-01
-2.158707734860447480e-01
1.824701618576970163e-01
1.579370397471885623e-01
-1.617965148742751269e-01
2.630283395837100871e-02
3.742038641063259730e-02
7.834648550500887543e-03
-2.809753997035341344e-02
3.082829500100037756e-01
4.739935614567245686e-02
3.746032019507318789e-01
3.290460361690850100e-01
-9.157666436503525669e-04
-9.364571842666438717e-02
-4.021128126201016229e-01
-3.596345222984884127e-01
-2.854116187983104513e-01
1.895342958376031173e-01
1.286112159775880948e-01
3.074583169339117905e-01
-2.424268846258877674e-01
2.472035823749780259e-01
-4.091250189812683201e-03
5.742428558808401751e-02
-1.353291101151705284e-02
-2.165263063921339382e-01
-1.186671139679117276e-01
1.833466177873627244e-03
-1.391978969341618744e-01
-3.283378245180063604e-01
1.297830066892447509e-01
-2.711257034943350686e-01
2.956645405936656479e-01
1.338793435332195914e-01
2.270830119956143978e-01
-1.152869005553060766e-01
-1.042890386780982864e-01
1.657316950567456759e-01
-2.006965405759532917e-01
-1.929045040907427858e-02
-1.442259280833804447e-01
1.998323366022402431e-02
2.036708761490481356e-01
6.844758186226762575e-02
-5.067705911013650061e-02
1.151296332952636281e-01
-4.620356453129367824e-02
-4.551389346451371193e-02
1.547070823377565824e-02
9.444774209898193496e-02
-9.287247350807775748e-02
-3.610567893901132641e-01
2.439615825665831239e-01
1.220658346777366982e-01
-9.739217648376495562e-02
-2.210591217104585296e-02
-9.797099179961243909e-03
2.906089224381535607e-01
-1.703217458581194332e-01
9.376367548184971756e-02
2.469549472438981597e-01
2.396859128058917709e-01
-1.789029999338866833e-02
4.513093180386085201e-01
1.043611257158117978e-01
2.310786341628976726e-01
-3.746872525612011673e-01
-1.001318983086718212e-01
8.599286339802011958e-02
-7.303653818878519388e-02
1.754587136958266624e-01
-3.534851157000836186e-01
-2.478918222265641957e-01
2.026075315283683564e-01
2.160966094960485029e-01
-2.444776945764399745e-01
4.657923462501278172e-02
7.264733605970777330e-02
-1.856739873032677707e-02
-1.131700353079346799e-01
-7.851880038206175694e-02
-1.722960958958778543e-01
-1.716092851813285358e-01
-3.017868437567584605e-01
3.816288634629912413e-01
-6.075888825496937595e-02
-1.991270521424195472e-01
1.055470460615762635e-01
1.112925467109964206e-01
-4.000096972988361615e-02
-3.128566926490907729e-01
1.563729347795975722e-01
-3.102011976921895120e-01
-5.489963327266237508e-02
1.508923166081785894e-01
-1.006287798466759947e-01
-3.190127454918096905e-01
-3.806408833450624640e-01
1.071115022471960249e-01
-6.376501473740896903e-03
2.034202573195957320e-01
-1.000853674266064114e-01
-6.321332726959758008e-02
2.246371587309405615e-01
2.986826468960320641e-02
1.377571638845459245e-01
2.122717758939685617e-01
-5.657181010098630281e-02
-7.961250868418114079e-02
-1.027502830293047092e-01
3.025673794655976967e-01
1.190961009228342915e-01
4.574812128258096133e-02
-6.610210500391434929e-02
3.143200506021526786e-01
-6.317886469925785772e-03
-6.666125857538138244e-02
-1.428680548151312624e-01
2.497875035595041593e-02
4.809268161942847203e-02
-3.736804221112162427e-02
6.543440002498174257e-02
-1.365704698294815944e-01
-8.410353055216984730e-02
-3.047533437392359046e-01
6.367627138088609307e-02
3.104240276977301427e-01
-1.176629710562036440e-01
-1.726886478352843424e-01
1.567335057530435671e-01
-1.990932248857818221e-01
-1.000876640127174727e-01
-9.616090335324509186e-02
-1.119213143459309515e-02
-4.111003267231019831e-01
-1.683225449930265682e-01
-4.790751387026409014e-01
-1.606085975600698296e-02
-2.718714481187528009e-01
3.851210973570086127e-01
-1.348281036318627613e-01
1.302617789415427656e-02
-6.789538384341375910e-02
-1.689211317452261607e-01
-1.000682271083209451e-01
2.722101567147351409e-01
-4.447163295486707829e-02
-3.877777224551656049e-02
-1.990184785033105239e-02
-2.681615797345641150e-01
2.535797390066690804e-01
-4.564483902173503693e-02
1.472642155465113123e-01
5.959509656315308268e-01
1.975704511729335557e-03
1.139840478908576149e-01
-4.786379736144175667e-01
-3.797142545668204527e-01
6.313237902284728198e-02
3.339478848081491036e-02
-1.450336803603874958e-01
2.893292627641704806e-01
8.568411290880312281e-02
-2.305374597776196632e-01
8.522105087496349707e-02
-1.319509018393004163e-01
-8.689333246107565356e-03
-9.628472609270559424e-02
3.560845223962612327e-02
-4.259423631186396580e-02
1.184525150978365526e-01
-1.005076254715371320e-01
-7.273806164357876983e-03
-3.357210378512180682e-02
4.194952392906290961e-01
-3.743075178584889806e-01
7.323489128265919801e-02
-1.490475103392992495e-01
-1.056424145203898185e-01
4.653675766591829771e-02
6.552275198691198677e-02
-4.419921608383618056e-02
-1.344795447753641959e-01
-1.820043293429467746e-01
8.653418375263607909e-02
1.894942147970137269e-01
-1.635539427642112020e-01
-1.118701159163550396e-01
-4.552622637396772781e-02
1.943524251639517919e-01
-1.133509763803719761e-01
-1.381228308776957965e-02
2.480909230744133831e-01
-1.056403628119087362e-01
-1.472023267170272098e-01
-4.856903049446865128e-01
-2.908568980214223942e-01
-2.191520444378947663e-01
-2.787050432545281620e-01
2.224065622934286723e-01
-2.433565575995818089e-02
-1.283200466706572729e-01
-2.036894243561734874e-02
2.096549625399871664e-01
1.979250518790877378e-01
-2.036639090430112167e-02
5.340525707303759445e-02
-2.918900531529396436e-01
-1.787798516120015779e-01
-1.602545788719778874e-01
-1.430331505554972849e-01
-3.263038421708166492e-01
1.763597341039059296e-01
9.734053490508129403e-02
3.416220598930425068e-01
-2.499499063351615438e-02
-5.748987920811265973e-02
2.287909858863241552e-01
6.982917093108990947e-02
-4.669250632341329088e-02
-1.060408563546167138e-01
-2.376811747581951753e-02
-3.036953173595043909e-01
2.325609514637788089e-01
-2.924735137688089237e-01
8.375782861296175025e-03
2.328415470272527654e-01
-6.439452968337662508e-02
2.092522064871177312e-01
3.036398418439684721e-01
3.462356319875387056e-01
-5.832362331155020035e-02
2.128081849258855185e-01
-2.282779614177345151e-01
4.414020113105232568e-01
1.032321142956454940e-01
-3.475878986261985437e-01
2.914001556990029052e-01
1.162137610654942060e-01
3.632729890898853120e-01
1.526035584478760421e-01
3.745308086603358899e-01
-1.858183088391587579e-01
4.059304372152245377e-01
-1.412453780120918878e-01
5.108142428191203566e-02
3.617958528247478545e-01
5.535099608054618731e-03
-4.046915696685823155e-02
7.476333759559408709e-02
1.055245016432322103e-01
1.175077429767161230e-01
-6.135601672972265663e-02
-2.898128873094504288e-01
9.565972055283199216e-02
9.522134048766002501e-02
-2.030895747799847384e-01
4.531285419991708530e-01
2.229922487372640316e-01
-6.862819012039370059e-02
-2.055328347768046737e-01
1.255851075226244729e-01
-2.799353462684518387e-02
-1.362113985146461703e-01
7.895152408170302838e-02
-2.612221820617440238e-01
-6.231155059512177852e-02
2.010942373728743238e-01
1.758599929288809094e-01
1.817103033895956510e-01
1.200742341135407898e-01
-3.428783808801659228e-01
3.197353251882795733e-01
-5.903630312749165165e-01
-9.464195135886718790e-02
-1.194501808562814377e-01
2.234248666908392189e-01
5.494824578831959683e-02
-2.753901911884025222e-01
7.836933863917815157e-02
2.667775019361621341e-02
4.103441274581253601e-02
6.723788284653602065e-02
-2.200176867019206506e-01
-1.444059143501020270e-01
-3.629862791199175293e-02
5.345399642006088553e-02
4.829931591360847598e-02
-7.783234973815131297e-02
1.331093767341346712e-01
-1.607913915069644206e-01
-1.048042753023944867e-01
2.018340751418404022e-01
7.308487865561300034e-02
1.884665698042870818e-01
-1.492175040857120494e-01
3.550260340179831053e-02
-5.252037628794239271e-02
-7.314433235153698989e-03
1.775179263111322792e-01
2.615098455076225389e-02
2.560580236787938779e-01
-1.600600618114456364e-01
3.170993674870732359e-01
1.928060856101707909e-01
6.258471818859276392e-02
3.158566236510093606e-01
1.122126606274101296e-01
1.268499123338631684e-01
3.596396480954379415e-02
2.099022833850892611e-01
-3.390189671734052113e-02
2.049050247232992727e-01
3.915995010396154663e-02
6.177727750750925395e-01
-1.602809918841457404e-01
-4.062968960849137057e-01
5.558849137980109711e-02
-9.518294445809405424e-02
6.051924519887137699e-02
-1.479352928330557662e-02
-2.125491784967427911e-01
-9.373890563977664223e-03
-4.729762386456279333e-02
-2.215369758731369487e-01
9.621475664083392609e-02
1.976647793352806770e-01
-8.139450113008065910e-04
-1.122928948764070900e-01
-4.258815133554701982e-01
7.737949282117397021e-02
-2.033738847303087627e-01
-7.729280189956966307e-02
-1.180571107324635549e-01
2.470103709526244029e-01
-1.335606908939502568e-01
-8.091879627749956616e-02
-8.663778857854190218e-02
2.036070873437605122e-01
7.564139646088126334e-02
1.241969441466824892e-01
6.045737231720715171e-02
2.625437548545047628e-01
-1.494820381060672498e-01
5.712248954249682376e-01
-3.016923938778104386e-01
-5.485981573340971140e-01
3.831389467018850997e-02
-2.296616903720117009e-01
-6.803067601246633178e-02
-8.401114920647344275e-02
3.780780231440019068e-01
-1.351553453195473986e-01
-3.241496286476131528e-01
2.025908240755761036e-01
-2.611852119506568592e-01
1.060231458494407808e-01
5.085250046720494153e-03
-3.209525263288431907e-01
1.726157660450520007e-02
-3.074903048450199072e-02
-4.319750953476125255e-01
1.899667908940144700e-01
5.363299017954006181e-02
3.014509771548107373e-03
-2.718368548886024305e-01
-4.244010527164394919e-02
2.374442804101647431e-01
-5.795696470850046633e-02
-2.084905625211648517e-01
-2.498924338749498875e-01
-1.445963841437265529e-01
-2.293728063241443349e-01
-1.668235955108501034e-01
-2.076425737810791150e-01
8.992041873213074687e-02
-3.544789156933626506e-01
7.945040922936058569e-02
2.934170144219932497e-01
2.095852974902940591e-01
1.762463345563774209e-01
4.096687877062295535e-01
4.155024612420955832e-02
1.557527984913623965e-02
1.544531409962549839e-01
2.496326551352690826e-01
-1.048760611443540491e-01
2.633060461700554526e-03
1.087950167382675942e-01
-1.782136531665893808e-01
2.489925429308273708e-01
1.024880676209174168e-01
1.697540101207157814e-01
7.837035102751106486e-01
7.568661831041320620e-02
-9.946475680085740956e-02
-4.305645501163566369e-01
-3.638479789658039670e-02
-1.775003965248922455e-02
-2.315290122729848354e-01
-8.266708245771138552e-02
3.401042184956510339e-01
-2.526376154520525441e-01
-2.395694790886700731e-01
-1.628608975806331294e-01
-8.602071122727941721e-02
5.383479074647039286e-02
2.858822492154708961e-01
2.992152978253687090e-01
3.881440564819808869e-02
3.475293406213534469e-02
-5.003202314273674789e-03
1.915278350224131898e-01
4.970807370830878508e-02
1.377691566672857304e-01
8.329249933166341102e-02
2.042973625224687659e-02
1.070571678217765305e-01
8.551872825591301519e-02
4.416102918022901669e-02
1.813241924716266773e-01
6.831331829963993574e-02
6.020371797697762761e-02
-4.841255159004286684e-02
-1.616467398859192106e-01
-9.184774915523041816e-02
1.331492616621656189e-01
-7.918758198288392003e-02
-3.536086321484827825e-03
-2.710769411205436463e-01
-7.996096351043936387e-03
-9.862419123244108021e-02
7.880757832154991482e-02
-1.124722274482291111e-02
-4.364276519238381030e-02
1.467421709582429901e-01
-2.596952507233215579e-01
2.633600655837012652e-02
2.542787661339048766e-01
-2.154679324362703541e-01
-2.789408362819456588e-01
3.575291149186639039e-01
-4.568704050111996318e-01
-8.504221013734561407e-02
-1.439182859268501868e-01
-2.740496548376949448e-01
3.654208986462391673e-01
2.718701501503127671e-02
2.060928392755127260e-04
2.049439824633160212e-01
1.119612525508378031e-01
-3.610691781553199697e-01
-1.436936863460958613e-01
-2.233982256182263926e-01
1.867393355038564073e-01
-1.834067034466145552e-01
7.077177550571123188e-02
-6.751626493147672159e-02
7.911819170091895226e-02
1.665875609750836969e-02
3.098088510478619884e-01
-5.584704788421385180e-02
7.115536182955911268e-03
-6.643600833127418122e-03
3.144629093703824596e-01
-6.149796855387884564e-02
-1.554543979499224127e-01
3.173478768536899253e-01
-4.608374650792695232e-02
7.488936012155000821e-02
6.096478982773422678e-02
1.494285947189844810e-01
4.390844953112934407e-02
1.650738331734886155e-01
5.379492346161366539e-03
6.153207761968113726e-02
-3.228441665423835427e-02
2.403587089043152797e-02
-3.949005412398914339e-01
-5.396432336507125394e-01
1.655507591143110524e-01
-1.726897051907244629e-01
1.420770553638676659e-01
-3.049729549399801121e-01
-7.535171274305038636e-02
-1.021431585621460914e-01
-9.729298734055741305e-02
-1.912769627132497874e-01
-6.128177976538614485e-02
-1.427512863766307837e-02
-4.535474282773497290e-01
1.050574742892050779e-02
1.305639803141366018e-01
2.293165404247380912e-01
-3.625947433984402779e-01
-1.367914192452192867e-01
-9.108264484692030205e-02
-3.408805563052605403e-01
-2.872404213985310650e-01
2.733726438037447082e-01
1.473908802736150492e-01
2.800508558783830759e-01
3.057878970883106881e-02
-5.220950277457500621e-02
9.110894103774865027e-02
-2.304467159131238715e-02
-1.288734907729712220e-01
-1.714464227450019154e-02
-1.988449193431723327e-01
-8.467448437543424744e-02
-3.831459432855443409e-02
1.664776768403394488e-02
4.248928100085649917e-02
4.460433279658974626e-01
-9.559343733320888048e-02
2.398178671736874434e-01
-1.711078703773729615e-01
1.902706376061542859e-01
2.825036262877799742e-01
1.230702046446622983e-01
-3.621665850479074411e-01
-6.436625831758814587e-02
-1.649600512099800020e-01
1.559884191770707917e-01
-5.417930231861568524e-01
-1.710313175896352733e-01
9.887498858209366193e-02
-3.873650565246853500e-02
-3.377142053639278080e-02
1.473447351576555875e-01
-1.496241666010896532e-01
-8.138996746853466302e-02
-6.324445473109191473e-02
-3.778446917652549669e-02
-1.869793325419213115e-01
-5.008227185671612625e-02
1.531210349794746503e-02
2.713624013243105537e-01
-1.835943775127800159e-01
5.367260417811541701e-02
4.711646178321163975e-02
4.465410365814533322e-01
1.413504377658259814e-01
5.181533827779494228e-01
-1.988845046583443132e-01
4.064803957226951758e-01
-5.431732141294034338e-02
-8.284304871076239585e-02
1.604582079037566306e-02
3.376840068252342369e-02
9.699805305418741919e-02
9.945064984874588121e-03
-6.917131231367307231e-02
1.842232091030425734e-01
1.606665861915609894e-01
3.113336448519644084e-01
8.273844279974831850e-02
-1.347964610932552709e-01
-8.763294819277589465e-02
2.234625393857715414e-01
1.174177031051446551e-01
-6.389992894975909943e-02
-1.513084849536834031e-01
-8.784510098419372193e-02
-5.344081545481787349e-02
-3.628960420602507786e-01
-2.352166305853331252e-01
1.836783795197014790e-01
-1.209183817094512253e-01
2.032482713215629788e-01
-2.580449178104951558e-01
-9.741255793283830344e-02
-4.929195481193419104e-01
5.588972600221660259e-02
-1.418878119718901543e-01
-5.419369518285056808e-02
-4.187731181947889486e-02
1.716887297957016834e-01
3.028203252576541216e-01
-2.908858956000650586e-01
-1.059373842833168655e-01
-9.124069404509984813e-03
3.003952044099488239e-01
1.322551881736062085e-01
-8.394337610293130247e-02
-2.486099390980579249e-01
-7.499639451747625030e-02
-1.104609055176383921e-02
-8.348956981274119338e-02
4.217820555157107409e-01
-1.444013753236021158e-01
1.524748128463732644e-01
4.607714330259465862e-02
1.865979407409068258e-01
-7.245983976468343794e-03
8.999907903287463623e-03
1.512714693145741363e-01
3.080549412537310627e-01
5.525801907174850321e-03
-4.559993262496574162e-02
-7.195205767902587701e-02
-9.793385229864989827e-02
-8.447542150900187730e-02
6.772642011474465373e-02
2.090748831955708820e-01
3.386054096989912776e-01
-4.203763332306846567e-02
4.354119307182920395e-01
1.552280548555252382e-01
-7.684476361649381082e-02
1.506576768098966297e-02
-2.582255357928338602e-01
2.515136569255001509e-01
1.737425561195128920e-01
-1.228298668831306374e-02
-2.324447629373200541e-01
-1.903088455619263708e-01
-3.488918931106297500e-02
5.596303650721649869e-02
-2.096263510369117122e-01
-3.417636043831561582e-02
-7.118825815989385242e-02
-1.887526766747799900e-01
-1.894983397520620949e-01
-1.339947692729777096e-01
8.823544475243823293e-02
2.091716605143238428e-01
1.101272312898117361e-01
-2.016714654892532710e-01
-2.665007521779844124e-01
1.419915459478868769e-01
-4.155227451501907199e-01
-1.614213420754577466e-01
-1.044788557210535873e-01
8.363263491105357023e-03
-1.629428765928376543e-01
-2.501901159901396277e-01
1.513744232066624174e-01
5.064189200459524864e-02
-1.217559575714460551e-01
8.644409858776640199e-02
5.043637233919114754e-02
5.473445884184417742e-02
5.608160051772020233e-02
-4.117135172669184606e-01
-1.669904180721847320e-01
3.929338234709112143e-01
1.506179619873836487e-02
1.658388247954793171e-01
4.544233718588094328e-01
6.675692409608256599e-03
-3.820055546876344743e-01
4.164384391896344684e-01
-2.098457196212713260e-01
-6.405418542456564439e-03
5.874629080920058810e-02
-7.051449439309857015e-01
1.776777002551468143e-01
4.163120181021826016e-02
3.079243505960829186e-01
2.810888254656866980e-01
3.058730410901046581e-01
1.607383476408409118e-01
3.986168713873873282e-01
-2.170707720762064252e-01
1.467310284849618861e-02
6.881070784903403625e-02
-6.711780866212056773e-02
7.809907342807562332e-03
-3.216180260557097159e-01
2.232201731570002123e-01
-1.342318578887554681e-01
-6.040807832891804952e-02
-4.980146781503006631e-02
3.314822942309473275e-01
-1.816095476788830154e-02
-4.527576919042486381e-02
1.962301209572419117e-02
-2.290680283526929650e-01
-2.762912327987993577e-01
9.717908588534046599e-02
5.803892836317976842e-04
-9.942059457073593176e-02
2.724920282971188615e-02
-1.939482723619852592e-02
-3.250985445294843346e-01
-9.382784376439201601e-02
-5.808244868615309864e-01
8.191245961817833487e-02
2.549065419062265456e-02
-1.151263817623274788e-01
-1.145862170396407323e-02
-3.029912885771754993e-01
-4.291241503032376392e-01
6.075677021318329901e-02
4.606329809605569370e-02
1.931741454334591490e-01
-7.810099117346305797e-02
1.409258001454742441e-02
-6.650034427275086646e-02
3.985102469136689862e-01
3.149535017934686487e-01
1.813051308777594017e-02
-4.473401088142452131e-02
9.953499650151811928e-02
-1.910663804441845859e-01
2.095523295030628230e-01
2.551341141912892296e-01
-1.041192740801504535e-01
-3.856731916431782592e-01
1.936285964526094638e-01
-3.474124644617398450e-01
2.072247100484195248e-01
-2.699295709874851568e-01
1.530893682503207259e-02
-7.607720174029145022e-02
6.848806038047955402e-02
-1.770898458808472797e-01
-1.406832385980374411e-01
3.821264636043890661e-01
2.833747905113070953e-01
-3.233727279689681544e-01
-5.267896616312519598e-01
-5.184703953991999237e-01
-3.511706016579169698e-01
-1.638387389358532120e-01
1.947875569594040568e-01
-2.500467461654958326e-02
3.195922133594164549e-01
-7.473832419571214969e-02
3.129379381901070678e-01
-2.261791482634681050e-01
-6.417491068504706242e-02
2.107875114960238994e-01
3.261925321843071601e-01
1.503785919532093542e-02
1.386508821017262416e-01
2.382936164834550952e-02
5.445737086322395559e-02
-1.166882720662404116e-01
2.539113138754797716e-01
-8.202380919814346305e-02
-5.950644571225790352e-02
-1.954517259209936630e-01
3.273751113349029351e-01
-8.980632229106501330e-02
-2.765342462631499923e-02
1.431559914996058391e-01
2.254431500281770320e-03
4.211867830932003454e-02
-4.200362730506562725e-01
6.759125651600210449e-02
-2.185728101680865232e-01
-1.951947093631768437e-01
1.609149410496031884e-01
-3.918547224748468449e-02
1.768855949621881418e-01
1.599901662909661987e-02
-1.457160871844598582e-01
-5.007757857992865824e-02
4.482365921347905013e-01
7.253457864178007586e-02
-3.590040077869176283e-02
2.747554345785634816e-02
2.230256125937924994e-01
1.848415660905863567e-01
7.589962417453474108e-01
1.444498138347927452e-01
4.076951289909469534e-01
-3.096018374923534822e-01
2.697898188701792765e-01
-1.141756857428965766e-01
1.581742507328455782e-01
-1.900793720414783172e-01
-1.499560089430102341e-02
8.806837242530524135e-02
2.133216475300851456e-01
-1.822109860299636064e-01
-6.200706038155216759e-02
4.046182704522452434e-01
1.433739736232510741e-02
2.425142102226972851e-01
-1.885538534598701077e-01
-1.765412279076118696e-01
-1.789625506465941096e-01
-2.451073950806358370e-01
4.349647405571992476e-01
4.058335238666274658e-02
1.277130849490379534e-03
2.182880440258278820e-01
1.458036771252935182e-01
-1.973043797274713074e-01
2.922686829639948303e-01
1.249983554829012244e-01
4.514891333062022449e-02
3.950515778660351751e-01
2.818284350708648023e-01
-8.343317385616641491e-02
-3.499208888735092504e-01
-1.301506782210258839e-01
1.825722950401314493e-01
-5.651525002760782179e-01
1.805914906855677349e-01
2.238531090214091190e-01
3.703187872932898750e-01
2.387971348307544317e-01
-2.039124403935612395e-01
-7.801646613251829454e-02
-5.919416069255517554e-02
2.406499413110585184e-01
2.879464225279625977e-01
-4.451452300510105875e-02
-3.767715700218440822e-01
3.539605015597470650e-01
3.928213284035245167e-02
-5.547335308932961270e-03
3.792599551185247830e-01
2.256148569178372809e-01
-2.617313528955838020e-01
2.885078554680394966e-02
-3.006533452161532297e-02
2.365737246863673371e-01
-1.446370998365660021e-01
2.988908696489422367e-01
-4.303727888295150877e-02
3.851704801679143447e-02
5.407195267117428233e-02
-1.106279829329072650e-01
2.210068780591312523e-02
4.260214300670303600e-02
1.786793962003845326e-01
-2.444839854882416841e-01
3.265482508116759885e-02
-3.646631950362496603e-03
3.739198694249182015e-03
9.869552876459093682e-02
-2.945660105260234918e-01
1.077331446961776462e-01
1.924383185596935386e-01
2.824332175563619152e-01
1.727417719410082042e-01
4.323154349966626397e-01
-7.161221658232530540e-02
1.939732058430412576e-01
-1.269626215040435269e-01
1.725993080473681718e-01
-6.836235944703633605e-02
-3.122653048982972357e-01
-1.177289624304773824e-01
1.556776194214420928e-01
2.314540663635575035e-01
3.122198476173704274e-01
6.504453943242390068e-02
3.055032000183914853e-01
-2.597454406290797824e-01
-1.581212469082519112e-01
1.230297659487600559e-01
1.496173106428735911e-02
-2.833093383710541535e-02
6.305937706264361231e-02
3.680376738968900718e-01
-3.996432526742369623e-02
-1.158435513973456732e-01
-9.848006469068137925e-02
1.708501509738111768e-01
-1.793093038107303749e-01
-2.273548300657167454e-01
3.276031281296897801e-01
2.204803868295993237e-03
-9.698304739051814838e-02
-4.173898117980208433e-02
2.138749085328388588e-01
-1.436676472141846898e-02
3.861000334264003131e-01
5.734458632356104896e-02
4.064800479441657566e-02
-2.224793355574554710e-01
-1.121766092684701038e-01
-2.523583759092906109e-01
-1.512424392764717129e-01
2.156579078389180698e-02
-1.255563445974290648e-01
8.855614788764230860e-02
-9.897525209266407054e-02
1.910427722390472816e-01
3.136507008962145515e-01
2.243384939476759151e-03
-2.089796549708656526e-01
-1.041960498902362309e-01
-6.818008590029912483e-03
3.803118159262244835e-01
2.311706413818536213e-02
4.964902531553627707e-02
2.166293477872766049e-01
4.025858045781260247e-02
1.576578789146132822e-02
1.383966697356865116e-01
4.518356353347266485e-02
2.196984931842758601e-02
7.913597315827186618e-02
-2.276360811524205663e-01
-4.961957423904830161e-02
1.529971686352182003e-01
3.558777519304491283e-03
1.353587822653907757e-01
2.335721231443937396e-01
-2.532384247216347140e-01
-1.766357313681100605e-01
3.304240777855906724e-02
-5.512283558569125441e-02
1.613293186976844928e-01
-1.506549657003561637e-01
-4.815556209273784416e-02
-3.506872009839735460e-01
3.060594795153088188e-01
-1.207841612233967327e-01
-2.469968711953728913e-01
2.755985446785811366e-01
2.241701754876265495e-01
-3.047923078106227202e-01
-9.824918385154295108e-02
-1.050475207339726658e-01
-1.527005783264951122e-01
-2.095620124873132789e-02
-1.998294138627461358e-01
3.555489468453696539e-02
5.497495298587249390e-01
1.057857387841168589e-01
-2.454075822815623142e-01
-8.741783560968070799e-02
2.537102556872864456e-01
-2.265352124274496171e-01
3.636841579174290295e-01
-2.699457827424326939e-01
3.451143701928934826e-01
-2.623787261392742098e-01
-1.965207886968884377e-01
-1.065717677919723050e-01
9.998733909824584695e-03
-1.122079302218502578e-01
-8.759836480519084256e-02
-1.135631668140691247e-01
1.915726239036558420e-01
-9.918589566645080735e-02
4.374174956048960949e-02
3.724890974338538885e-01
1.222789675989302827e-01
4.942084209738279582e-02
8.305742446276873081e-02
-1.497770813217090546e-01
2.537130633108909405e-01
1.815496694889798257e-01
-7.893254908641374190e-02
1.373903465940197188e-01
2.825823038400538390e-01
9.971914183462977921e-02
-2.797543001046402106e-02
-3.637019226095223323e-01
9.704411639877640050e-02
5.089036235840049827e-02
-6.333022681611452653e-02
-5.842791127128872664e-02
4.123276526429239808e-02
4.306846028584489228e-02
-1.947483947611630406e-01
4.566206402834051964e-02
-3.451216195314881774e-01
-2.369443582867133136e-01
-1.128151323862302130e-01
1.615173092029020818e-01
1.168413983562486963e-01
-4.411626851454992365e-02
-2.940867696796482522e-01
-2.603455109384815724e-01
5.273738226545345853e-01
-1.816057546484759200e-01
-6.167208328464157674e-01
2.097732795800566485e-01
1.615196805080600442e-02
7.148260695937400100e-02
3.524232558546363525e-01
7.142536721452415194e-02
8.464720754348475928e-02
3.527982320498332380e-01
1.595845767835379903e-01
-4.289147524334713246e-01
-7.243101310164442586e-01
-1.438228137172958276e-01
2.157440099929338051e-01
3.241229186092594583e-01
-2.884551307225227679e-01
-3.101929428635152863e-02
-1.349743704010530343e-01
-4.347909887396929074e-01
-8.785494491669001982e-02
-1.710311391063952802e-01
7.361448344239102104e-02
-6.667344194459307039e-02
-5.104418639327597262e-02
-1.753403917697744230e-01
-1.635257029676264462e-01
-1.231987523168688176e-01
-2.900924172836145676e-01
3.533725598747543967e-02
-4.036253747198481623e-01
7.300112233028242803e-02
4.503181459876939852e-02
8.920253057792465468e-02
-1.147528132007431534e-01
-1.242037066736456918e-01
-1.426937050552411212e-01
2.066189207355450252e-01
3.520918944729183320e-01
3.721887641946897834e-02
1.092852150820583096e-01
-2.196924461886632929e-01
1.085773232102856811e-01
-1.934626275373686199e-01
-6.239629832820539623e-02
-1.663408969257247350e-01
2.453887532349354195e-01
-3.389035169720500118e-01
-9.527780303492923430e-02
-2.578589939500522399e-01
-1.197159670511572654e-01
3.320763466804634301e-01
1.210923830195532874e-01
2.359868621875045244e-02
2.086106037184829731e-01
-2.301556130702159808e-01
-8.110408295870315254e-02
6.389700272197107456e-02
3.213956990047834306e-01
8.752615562473579913e-02
1.900539126082653740e-01
-2.206307417732947806e-01
1.891176626932506225e-02
2.968344632183615994e-01
3.403214239440121025e-01
-1.860768426234218620e-01
1.375718275616538699e-01
1.178508082171871585e-01
-1.030707192190776812e-02
9.165260514546666459e-02
8.479044004933515566e-02
2.203737500945100389e-03
-1.101530562579669525e-01
9.850856620365711080e-02
-3.572066045562627412e-01
7.011170919248921329e-02
-1.371432585669747073e-01
-3.175281428368730841e-01
1.274067709045500763e-01
7.204573825428926825e-02
-1.349592058937943984e-01
-2.922389424792617985e-01
1.714593689124760123e-01
-2.119204750594320397e-01
-3.352974633396836879e-01
4.382556294332460856e-01
-2.826099517809158024e-01
3.872469004819688310e-02
1.105067372039927331e-01
-3.814607304719807579e-01
-2.389390599943930771e-01
-5.758528866729714091e-01
-2.847626039566051870e-01
1.609652590525762206e-01
-6.366534221648231795e-02
2.779453260979551296e-02
-2.122901263931019633e-01
-1.211985571479196888e-01
-1.534826602480584556e-01
3.321814159468924887e-01
-4.537354468497760696e-01
-5.474145986913564466e-02
2.912042462833490664e-01
-1.297767216521018563e-01
-1.797645439710275905e-01
3.673554976716468523e-02
-1.873083886373433371e-01
1.457372746097491401e-01
1.745520533305592870e-01
-1.565670603345125367e-01
-2.168555762790017050e-01
-1.076497142683468661e-01
7.430012565772275979e-02
-5.984087367531445295e-03
1.553087756716682311e-01
2.090519265337940913e-02
-2.165591397494740222e-01
-1.460443593512088765e-02
1.680113689781392861e-01
2.202664731626355898e-01
-2.427366768257478991e-01
2.398066088321423595e-01
1.832335528622833221e-01
8.996119908557317912e-02
-1.300100171106349789e-01
2.680348797514691128e-01
-1.019203826013963532e-01
9.308161600713241862e-03
-8.134406604212082725e-02
9.838066592795884774e-03
1.722887796249258641e-01
3.668212064922817817e-01
-6.736865883645201669e-02
1.059324050126300709e-01
5.493608668795962879e-01
-1.774518248425304145e-01
3.310287826753853246e-01
7.336488041234837110e-02
2.275881019972083308e-01
2.506200213431768464e-01
-6.068284033143755973e-02
-3.475660371292240564e-02
-6.939825979322329641e-02
-1.587498606210146213e-01
2.705105383775529559e-01
2.685703153966991774e-01
-1.936734290332651001e-02
1.783036842080985562e-01
2.652379288423855064e-01
1.048284425403936543e-01
-2.476873024330283612e-01
-1.251659716814830792e-01
9.473428530789181068e-02
-3.558460801182398298e-02
3.776966321546158106e-02
-1.067813812334490464e-01
2.528123860246218602e-01
2.159297696617165918e-01
4.874258620471899617e-02
5.182300723551658272e-01
-3.626013557018175071e-01
1.313065709000000303e-01
-2.624877329105826385e-01
3.130438498527859936e-01
-7.681870189952940686e-01
-2.065759948572999383e-01
-4.778787397960256866e-01
7.867246484322498734e-02
1.967564680953326761e-01
-3.606142015580626192e-01
1.691452825556067352e-01
4.923971363772155496e-01
2.041824193119540498e-01
5.297345468742557795e-02
-1.592124220175648863e-02
7.879225863128418161e-02
-2.131151332203955751e-01
2.148959681321398751e-01
-8.234386504872655277e-02
-4.040636967673223029e-02
-1.057266437800974679e-01
6.439441701797042616e-02
4.349214307986812300e-01
-2.325155640758198583e-01
-1.302227531097238378e-01
5.905168803462157445e-02
-3.563053415308274352e-01
7.487756503581141643e-02
3.074790842745057651e-01
2.126159502956984360e-01
-1.414150175541084575e-01
2.567398520492127911e-01
-2.029772813691188560e-01
8.994373134713585724e-03
-3.773578009739437245e-01
3.005271751642777933e-01
1.094932758624483360e-01
-5.865024516322565190e-02
-9.907270583299689071e-02
1.178227163922230918e-02
-8.420643011653181076e-02
3.310527575604968464e-01
2.434376417724904151e-01
-1.755666892105903210e-01
5.451715357989531108e-02
5.138994173931060727e-01
1.154644303506827951e-01
-1.920321217823906801e-01
-7.786900577262508005e-02
7.662942629044051934e-02
5.402412650232584455e-03
-2.875949333505938288e-01
-2.914145077411592344e-01
1.809794892017126469e-02
-1.843414173840276227e-01
-1.562866624545413419e-01
6.306915094562504098e-01
5.650536566842808694e-01
3.845693458254460101e-02
-5.668469414398159545e-01
-1.490610281396086423e-01
-2.184965433127550316e-01
-5.854285981534913530e-01
-8.625531435907399236e-02
-2.150006980943637222e-02
-1.683802426725483636e-01
-7.272180676419386369e-01
-1.243473781612109974e-01
-4.918128663820013624e-03
1.193180719996836670e-01
9.614293233395367066e-02
-1.046765667037076741e-01
-3.372258927583715593e-01
4.457259505916442155e-01
2.402338413102909631e-01
-4.605046708719524873e-02
-3.104172142508754839e-01
-3.820829928971533618e-01
1.142887209733370324e-01
2.309306401455132329e-01
-1.782879578715188262e-01
-4.542468760729808097e-01
6.383895041020086480e-02
-1.216846777628284720e-01
1.929849346801919892e-04
1.562684549995254635e-01
2.328681021862561221e-02
-2.634892260105437534e-01
4.197098795171705921e-01
-1.822656325619256557e-01
4.119603938796339432e-02
-7.222313661912763139e-02
-2.435913086218075840e-01
3.557987512595878199e-01
-7.305286422762288789e-02
1.461236426519379149e-02
3.392711582466845788e-01
1.914886960593920329e-01
-1.559610566365189910e-01
2.188264762272939257e-01
-1.109863272160607900e-01
1.813991263543315025e-01
-8.729578849773239613e-02
-4.048975827990631826e-01
3.755922213777711516e-01
3.506277993842346619e-02
1.774466771694703238e-01
-3.274444170494162504e-02
1.383779307693136507e-01
-2.558572919907573309e-02
2.935042865773606069e-01
1.240427442473101584e-02
-8.524498824746068459e-02
-8.580298046343734497e-02
-4.705382746186241583e-02
1.860959649811701200e-01
-2.173491832703039195e-01
1.329408238459199310e-01
3.401524813395355173e-01
1.613788158132325457e-01
3.658242078233399364e-02
-1.995936545640447299e-02
-7.606140987878206028e-01
1.815119782401940773e-01
1.791223612592879599e-01
-1.550611513401457253e-01
-5.217501320433488576e-01
-7.865702736004583084e-02
1.983829622769902323e-01
2.683064741399424080e-01
-5.764858752930707847e-02
-4.516189125467771626e-01
-8.789308450385450999e-02
1.470697082455505733e-01
1.281720743048087585e-01
4.595099225031436529e-01
1.717683221409748162e-01
-1.461988370775892665e-01
-6.731409819351087398e-01
3.342244776314243215e-01
2.761572582389502095e-01
-5.313272151048812342e-01
-1.618964726702899759e-01
-4.100078918641902881e-02
1.945636885388211390e-01
-2.380289629805352469e-01
3.194924555833488777e-01
-7.642399821770223811e-02
-1.144835048315932663e-01
-1.406580279188297256e-01
3.610650385604811941e-02
-2.511228911042888146e-01
1.127052143892153802e-01
3.478945291409756835e-01
-4.010539248385532052e-02
-3.141818460418651093e-01
-2.333953651855351086e-01
5.950875130030131716e-02
-3.710598488663763850e-01
-3.779878492153154745e-01
4.850509931916468509e-01
3.908516120859543141e-01
2.451964046574864331e-01
-8.400503937195273607e-02
1.684670937117324907e-01
-3.821661935790117703e-01
-3.702226028524665535e-01
1.024256693375269478e-01
3.493733363696603922e-01
-4.177890773148049131e-02
2.237276920824775028e-01
9.412209488259723478e-02
-9.331161993726877490e-02
-3.479446054236019076e-02
4.638396180202448149e-01
1.653741429746144187e-01
2.656299951509744073e-01
-1.532565975814841053e-01
-4.051620781673637151e-01
7.584948562507863590e-02
-2.684241807453959794e-01
7.062698605472489399e-02
-2.261871406886726832e-01
-4.181094569391112514e-02
4.965172669384130266e-01
3.724206235045775248e-02
1.188577463503582704e-01
6.974907718568265635e-02
-1.800036025002089424e-01
6.835841107062982924e-02
6.852189151380444487e-02
-1.944103621972816387e-01
-2.878715077759508301e-02
4.956943057188955941e-03
-1.527634602721224533e-01
2.914188749353855412e-01
2.246454765818133303e-01
9.846556478876440643e-02
-1.236592199062832610e-02
-4.090673328363042538e-01
4.316226994754016055e-02
-1.589820283923698563e-01
-1.989490854283633148e-01
-2.083411263577717998e-01
-1.083267340119341005e-01
9.418122770453730974e-02
3.608066928350604080e-02
1.022290991247240544e-01
3.961577548716453956e-01
-3.254548273536958525e-01
-1.937731932782803257e-02
2.375659573345793862e-01
1.109122058918568243e-01
-4.008724625634365463e-02
-4.923202465506565373e-02
2.760356451343797812e-01
-6.767941499295324244e-03
-2.215272566637606910e-01
-2.854922808616242036e-02
1.542558555497681727e-01
2.558007355297515772e-01
-6.775189249009340442e-02
-5.222949775326096722e-01
1.666893195431639607e-01
1.090565858667088550e-01
-1.652969173970905981e-01
2.547394321380653803e-01
-1.357270157461895055e-01
-3.540462874834196527e-01
2.175371060899393139e-01
-2.206025973364346970e-01
3.240065353908600509e-01
-2.165954145376240703e-01
-5.252967262869231990e-02
1.396038373307427194e-01
-5.214404731545698723e-01
-4.265669560478510536e-02
2.239570479666859459e-02
1.013895482019386562e-01
-1.555665749459454739e-01
1.630677033157857669e-01
3.965988329877876417e-01
8.283803711108461698e-02
2.550322041460721390e-01
-3.067190339132491728e-01
-2.082938105817628560e-01
1.709871238266301163e-01
4.579878317681972816e-02
1.101240210756378596e-01
1.027991125947176065e-01
-4.775032946048192277e-03
-1.032932626025034537e-02
2.834833788335334309e-02
-2.654859698262287265e-03
7.626252927171960072e-02
1.110764133741462545e-01
1.942734887223228346e-01
-1.340569402585364001e-01
-2.426391778608825989e-01
-1.884926214926855026e-01
2.438018119842451370e-02
-9.084822283453920788e-02
-1.032383013606438471e+00
1.636111578751410223e-01
-9.743944217783219452e-02
1.103825011315960093e-02
-2.626920911853996010e-01
-6.269187898754437216e-02
-2.260977144058178290e-01
2.027567382409839192e-01
-1.822877465189029489e-01
-1.384599250170777951e-01
4.667189268030967619e-02
9.764249933744027776e-02
1.744481159880011123e-01
1.150414022458557811e-01
-5.519719914879303579e-03
-1.016733262424919793e-01
2.277422558722060619e-01
-2.330186156850518886e-01
-2.596089645397547940e-01
1.552444619127547054e-01
-5.387045059569073313e-01
3.546508666867219106e-01
4.701076554379550188e-01
6.648361189920523606e-02
-2.031128457834895651e-01
-4.191805704870089633e-01
-1.337541389896152455e-01
6.124905397805622403e-02
5.748928770789923232e-02
-2.553652229642783614e-02
-2.408523519210954145e-01
1.843136194620443591e-01
1.479578209230859587e-01
2.274265523506647790e-01
1.811750297653909048e-01
1.002239273263528206e-02
-3.278772926397228310e-02
9.496477254260542178e-02
6.773904302124551802e-02
-1.310809821783375795e-01
-1.162901283587718243e-01
2.078907971683988665e-01
-1.804920963565329606e-01
1.245400004421432366e-01
7.030112233853172410e-02
7.514062387545607236e-02
2.737677354880339951e-03
1.553499371542857270e-02
-1.224107223791902482e-01
9.089723796599270822e-02
-5.676289921001452521e-02
7.534582808770436124e-02
-3.150703727806282162e-01
-4.605930740932525497e-02
8.805405628247262029e-02
-1.789340160527249091e-01
-4.453394441293345024e-02
-5.511981236775186782e-02
-8.965775134593652329e-02
4.766167085968556899e-02
-9.969267451993015783e-01
1.137738532558190269e-01
8.597170548259422396e-02
-5.185703448310684943e-02
-1.308202473191563409e-01
-2.883179185975890402e-01
-3.352298978422435516e-01
4.592579456542717625e-02
-2.727763313631710318e-01
-5.153245672926543008e-02
-3.744455824620978035e-01
-1.410534501381033590e-01
6.025046683262103020e-01
-8.310691766865613284e-02
2.637311991176735093e-01
-1.101407968479254096e-01
-2.438076419918927262e-01
-3.486655667218147570e-01
1.863384925229134570e-01
-2.273555278876353281e-02
-4.420709189982217069e-01
-1.471291465597284187e-01
4.079323591731613963e-01
-1.175480553429055289e-02
1.503273097070716990e-01
-3.084968888771042472e-01
-1.111833293919259336e-01
3.086435441389579967e-02
-1.925072330211148874e-01
-3.830001645845148173e-03
-4.137174573072515682e-01
3.094654487269582130e-02
9.946164566771527327e-02
1.745793623179573706e-01
-9.301355429557661703e-02
-2.514498697356141732e-01
-2.658959161966679141e-01
-4.728549548683323445e-01
-6.437168391786340926e-02
-2.279398835145612923e-02
-1.181937209439144487e-01
1.742033548799513665e-01
2.316698123048901992e-01
1.358913280127822809e-02
1.478994811923467212e-01
-7.162375473746417087e-02
5.750639453934374562e-02
-1.188615629993103329e-02
4.273176664224158650e-01
1.308848626136153437e-01
-4.546556589648326208e-01
1.035561522291753023e-01
-6.278627416283236728e-01
-1.018610139398729991e-01
5.831249262288051025e-04
-1.472328771304260431e-01
-1.989916870738556998e-01
-4.960632755536830696e-01
-2.922373331609989244e-01
-4.901781774599607566e-02
-6.756907758317431956e-02
-1.060368663178965776e-01
5.061615045706578941e-01
-1.743618679558960882e-01
2.739188644181487775e-01
-1.026875621896567170e-01
1.459356902221143060e-01
-2.718322191306904445e-01
2.693208945854821956e-01
-3.050801998756498892e-02
-5.302918673455414567e-01
-2.292146310157694711e-01
2.776462204225365049e-01
-1.766440220221203727e-01
3.470671882051156176e-01
1.613916269328022901e-01
-2.864098014633215117e-01
1.850573815954980120e-02
-1.107664423172236186e-02
-1.117277215654619987e-01
-1.130972630032238690e+00
8.608858878458980346e-02
-2.514399472794817680e-02
-9.997707356873411499e-02
2.139810490308990676e-01
3.234699454470275209e-02
-8.939388894283892273e-02
-8.331460293864170752e-02
3.367511521333817481e-01
1.518930262919715168e-01
7.865076891209747678e-02
-1.059159526107790739e-01
1.869451381954285174e-01
-1.322754467836918801e-01
-2.717552257922744019e-01
2.007533495379353050e-01
3.389410524030301852e-01
-3.295564085773606822e-01
2.135528176809071976e-01
-2.089100602424837361e-01
3.918541460373625163e-01
-3.022556159869988490e-01
2.766185846344938470e-01
-5.559218762065663150e-02
2.872464069075134074e-01
1.481394305865408323e-01
-3.452493757735003999e-01
1.356757433727354412e-01
-2.268723058586578079e-01
-7.590713130758203198e-02
-4.354135310923658575e-01
1.472820774984837378e-01
-9.083480969431935448e-02
-1.419753404573112499e-01
2.189102392869737845e-01
-2.316753114938951141e-01
-6.336445615221225625e-02
-1.634744243538175934e-01
-1.060880799775294203e-01
4.648001918025524981e-01
-3.555041207567728456e-01
-2.497072110239876575e-01
-1.713904837214634824e-01
-2.626652092772379654e-01
-1.841431646365064012e-01
-2.804369463517049008e-02
-2.090958476082848960e-01
-7.870194932888920913e-01
8.290275842454551680e-02
1.310742396488407402e-01
-7.507245233340885393e-02
-6.987813531199330019e-02
4.279802940419759061e-01
5.258699201934688948e-03
1.298668058443129547e-01
1.795164606288529308e-01
2.627517326686559102e-02
3.796724999758918639e-01
1.807180602520432333e-01
-1.505256899701637452e-02
6.266077077941033524e-01
-5.267993531908054389e-02
2.413936150108156042e-01
-1.838542817252063755e-01
-3.431262261442307171e-01
2.036300659186122131e-01
5.899065170825175397e-02
-5.080523524402328350e-01
-4.953006428564806179e-05
-7.930424878123244758e-02
2.391105882639087410e-01
5.931879947880364101e-02
4.161908092320239227e-02
3.228487684460977225e-01
-6.229706531290641891e-01
-2.039033759302467386e-01
-1.090252228058648798e-01
2.099810900278907821e-01
-4.836472420682434020e-02
1.096557955994408862e-01
1.557001609013328181e-01
2.662214183469757689e-02
-2.113659543933634755e-01
3.012590390012333530e-01
1.725516505067960504e-01
3.121700642011245308e-01
1.306992769995355130e-01
5.815580302171199367e-01
2.340236365553579612e-01
3.551116281375608086e-01
1.972082815656321375e-01
-7.672776486763512871e-01
5.580866199186430565e-01
3.637968885976025080e-01
3.096988672104290519e-01
-5.017768465612404416e-01
2.924710539587375147e-01
-7.187016125411948009e-01
3.809137073353860981e-01
3.869249385873009262e-01
-3.510231939039579890e-02
-4.481551003796080956e-01
-2.055851382338664268e-01
-3.299470821577334956e-01
-5.639452380822106425e-01
-5.398602562330017118e-01
1.651023954955686823e-01
-6.821865785697504847e-02
1.125867047536670829e-01
-3.250268801655025741e-01
-2.786788261499526520e-01
-2.599566656142524024e-01
4.845385769908136520e-02
3.863644090857589197e-01
-2.650576543454369882e-01
-6.744036663040316182e-02
-2.811987202615013337e-01
-2.271585840957167368e-01
-4.340291387637965764e-02
3.864322596155923550e-01
2.485108630703245780e-01
5.324599320020965143e-01
1.128820823098665160e-01
-6.067066814678723219e-02
1.055474273832281498e-02
-9.496034995878532836e-02
3.811167522068346081e-01
1.639308448129753459e-01
-3.400832844117649550e-02
-8.306562452924440287e-02
-2.453947783303332963e-01
-2.611457437990713504e-01
1.863991692602428585e-01
-2.261568563111949759e-01
2.600278826674645161e-01
-3.796444469641194752e-01
1.391432978844979740e-01
5.655997661159145595e-01
-2.454952363121812864e-01
-2.386381793397753664e-02
-8.051007263195425478e-02
-1.132091696659470320e-01
-1.062077898157703926e-01
3.170801573494185788e-01
1.283990699433372462e-01
1.404697231359033627e-01
-1.589068445721386336e-01
6.296277462062105368e-02
1.156890122099104301e-01
3.657782614205821736e-01
4.253192499969559726e-01
2.587066323703671525e-02
2.980237938941833198e-01
1.042583202111760365e-01
1.184365152822782763e-01
8.665551459899954734e-02
4.574729282075928882e-01
4.836049883368385982e-02
2.275730353163376019e-01
-2.550633442422374220e-01
1.076485732268273182e-01
-3.086008642565689630e-01
4.399685712558784600e-01
-2.589087128712319053e-01
-5.012094373515314505e-01
4.663514378788726766e-01
2.639573655095069776e-02
2.043969968546716087e-01
4.175528037761912503e-01
-6.323735210880762070e-01
-3.659037178684909630e-01
-6.351724442558616401e-02
-2.483127023116105392e-01
1.221450887350565007e-01
5.667480920675803391e-02
3.097898837576890108e-01
4.799186337748344994e-02
2.124791787901447460e-01
-2.478856131825100950e-02
-2.649362429169072053e-01
-2.957932692114621509e-01
1.956760393849792390e-01
-5.896335499086417103e-02
3.447349900629211733e-02
7.037431294675834323e-03
-2.671300279811920086e-01
1.348494549036082513e-01
-3.332900671861371844e-02
3.279847230463009966e-01
-5.032599374473063492e-01
1.177934826629091492e-02
-2.096472966409316727e-02
-2.291783395836396175e-01
-4.755099562520842538e-02
2.716604164120357545e-01
3.661638199752407230e-01
-4.798735871430819672e-02
2.688358680653948340e-01
-3.090877466714155308e-01
4.887247828684228024e-01
-1.879763299245700292e-01
-4.963613429687617762e-01
-9.928133524841141477e-02
-1.369173207244287760e-01
4.550260077918117513e-02
2.777596306679276372e-01
3.194081057675973723e-01
-4.729215378367444822e-02
-1.418266881180475780e-01
2.621297450269332030e-01
9.036382443950316534e-02
-5.167026252191441182e-01
5.581705140857289027e-02
-4.062313974700442198e-01
-4.061596162900372176e-01
-5.331987147339607436e-01
2.351757496426728211e-01
-4.203803550193843108e-01
3.330896797701130008e-01
2.138795172122488208e-01
-2.455909099162853770e-01
-4.527027711839871627e-01
-2.564359051048849536e-01
-2.257875889677533610e-01
-2.609381222856183014e-01
-1.647121443893913018e-01
1.895145490602667682e-01
1.735912223927366660e-01
3.730283298538034642e-01
3.893232600133256782e-01
-1.653758248269653064e-02
-1.732235738231599764e-01
4.515993026385911602e-01
-7.527091283594108777e-03
5.260542408143273896e-01
2.654729313262045309e-01
-9.870360258216276383e-02
-4.596183437351725187e-02
-1.095777271927716873e-01
-2.904419197684443010e-01
-6.742486421111930361e-02
1.294966324423651137e-02
2.690445470114534790e-02
1.674750007985032207e-01
3.044016470674270614e-01
2.130048937102675399e-01
-2.230860735207044476e-01
2.607205497025185115e-01
1.939615800910140242e-01
2.141148944208453031e-01
-2.365380635157602607e-01
-5.954314302778951351e-02
2.612692004191417491e-02
4.316401997204750984e-02
1.114309898855283948e-01
4.889863823369788309e-01
-2.034947209712444083e-01
-4.878781460599151965e-02
4.824535529867186590e-01
7.840486618618640324e-02
3.504932609365505325e-01
3.571927906597903157e-01
-7.739078578888473892e-02
5.852329172025032972e-02
-6.294286679460737999e-02
-2.410290502227563011e-02
-2.848840116447290405e-01
2.083101134004979593e-01
3.420960218132595293e-02
1.684874383230262895e-01
-7.064717013714809368e-02
-4.060713480437188466e-02
2.946528782936029822e-01
8.939043727225169933e-01
-5.022817540719171081e-02
2.638461648658447234e-01
1.968815234557024785e-01
-7.015216440069378667e-02
-6.559722896345225596e-02
-1.066448798009455579e-01
8.011125161788492655e-01
1.558024153207576701e-01
-8.297145930116543722e-02
-1.241084418240934184e-01
1.101838145854283774e-01
-5.863654870395585555e-02
7.659034958510668734e-03
1.515634036902284154e-01
-9.348390450854518474e-02
-1.049157615730549886e-01
-2.209372455081140552e-01
9.089603507408069993e-02
1.216116330854524891e-01
-2.848882542394795547e-01
2.179902329759874913e-01
3.745260321753517835e-02
-6.089002023319934481e-02
3.695192826981532064e-01
-6.774154008752678383e-03
2.508723771986528517e-01
-5.339401775934817657e-02
-1.176294262668416551e-01
