6.382583127410603741e-01
5.954899904120279641e-02
-1.725276451807762623e-01
-6.738525392459541186e-01
3.372371680158801621e-01
3.593812259240108720e+00
2.640718180496665624e-01
7.050333769455719990e-01
-6.150423947708849592e-01
1.265327006564446466e-01
2.166496819999566004e+00
1.818292118824855974e+00
-5.751521532443732987e-01
1.022462376409392082e+00
-3.653205639541974858e-01
4.347362857781802425e-01
-2.715416021914771605e-01
9.393633977384979739e-02
-1.030629547146737046e+00
-1.065287980295692050e+00
2.470588274371651460e-01
-2.223878895076742412e-01
-1.349936655086885207e-01
3.334068979637287711e-02
-2.200702599171014129e-01
2.689683037240211266e-02
4.154912114689369301e-02
4.626299541403366272e-02
-1.247006511047345501e-01
-3.821720984821531109e-01
1.782606675557372664e-02
3.826891778214921991e-01
3.859649409991010305e-02
-2.786120668385667631e-01
2.228808069493957433e-01
8.066483472544093425e-02
2.195553844377826358e-01
-3.933901084455972419e-01
5.369043298644357587e-02
-3.393691979528101199e-01
-1.456094262734194955e-01
-1.547117835379005213e-01
-3.145049998520021428e-01
8.979823493615126662e-01
-7.371162202182283130e-01
-3.441675634526931038e+00
-1.407671411888486435e-01
-4.294943846258903464e-01
3.076231448590258100e-01
-5.911054838089688790e-01
-1.271787474111065519e+00
7.113010801909798175e-01
1.822699480946503303e-01
2.314386928276527811e-01
-2.513117228161073080e-01
-3.269550204869519638e-01
-5.510473574673360186e-01
-1.606543463165120977e-01
1.042646364994547659e+00
4.342826688508339972e-01
1.577838038040698526e-02
-4.155510834938499487e-01
-2.646322681254546089e-02
-5.008302638173263155e-01
-9.513306369541424390e-01
-1.782150279662241335e-02
-5.106868482881786742e-01
-8.146874575555501652e-01
7.369298478375242711e-02
-4.023751535546910008e-02
-1.694688929452668746e-01
-2.478884527958706008e-01
-7.176968152531626455e-02
-6.821506078163969145e-01
9.090766403021850739e-02
-1.674170964194428013e-01
-1.617840765250137536e-01
-3.481797577121872444e-03
-4.065835918418243544e-01
-4.612792209956551592e-01
-3.509473719972834305e-01
6.255583871423739482e-04
3.325937896756324119e-01
3.182202341894710407e-01
1.281454745663961337e-01
-2.028916566169626234e-01
2.800719734263227845e-01
2.455384507668622596e-01
-2.462443466067070486e-01
4.801302345421729623e-01
1.518622231305002679e-01
-5.091308612155744096e-02
9.390538178772389610e-03
-2.950969180841543915e-01
3.176604140944435661e-01
1.827390315306439694e-01
4.004116768408427229e-01
2.208144725994334034e-01
-4.151435595046053945e-02
-4.806394945344065472e-02
-8.147612386128945394e-02
5.989719220222409352e-02
3.318941484494397631e-02
1.586129155485557496e-01
1.793027470606962659e-01
4.366037575660959846e-01
2.439559234996151738e-01
-2.195991358633103963e-01
4.489520836160357797e-01
4.428309557934057526e-04
1.304158859838770168e-01
5.140606429472112382e-02
-3.347209312756403432e-01
8.558963265009515362e-03
-9.515226000447546406e-02
-1.629521647590810307e-01
-1.105203358577954015e-01
2.440513383331933267e-02
-4.257747553948093011e-01
9.458951533193644956e-02
6.880666656147745031e-02
-2.214459172215125504e-01
1.597859295849907990e-01
-5.319776981940719379e-02
-7.158040858259316908e-01
-3.612541789561092842e-01
2.105216498369908151e-01
8.332996984306149935e-02
-3.375454582024862149e-01
-1.263853938815670264e-01
-1.302305247844657947e-02
1.973285833139683254e-01
-9.774769673882489907e-02
-1.984928286920390195e-01
3.878048405153573519e-01
-1.162278089682664411e-01
-4.393317912680518855e-01
-3.607317683654990281e-01
5.261204996782392618e-01
1.547843181740455210e+00
1.267741438692196743e-01
-6.097266148713093026e-02
-5.412714372806685104e-01
2.838042769991767078e-01
1.462817397355431481e-01
6.216590327411078976e-01
-1.909252326201427985e-01
-8.680511989050875010e-02
-2.959283450429844309e-01
2.503637660242726271e-01
3.502621676095851178e-01
6.963379415461634636e-02
3.439364861628337322e-01
4.093774106151251146e-01
3.978455037254601256e-01
-3.915383814145299152e-02
1.831111134269503005e-02
-1.969855388232271687e-01
-6.606521571261341208e-01
-5.185726762928433153e-01
6.791337672809186210e-02
-1.043999737532501637e+00
-2.293808429973701324e-01
-1.160248964260989668e+00
-3.400890406616215333e+00
1.020601784005554569e+00
-1.021613117962361095e-01
-1.243329731734003518e+00
-1.287623145782663681e-01
-2.187274840597629166e-01
3.124901002827161767e-01
-3.298047372470158667e-01
4.058427770538625828e-02
2.212110719632074951e-01
1.410599897797528701e+00
-1.849454664035867224e-01
-2.369146646710109660e-01
1.833262918813549636e-01
3.273457729400477412e-01
-3.212503583626370673e+00
-1.125547903339634698e-02
-3.095546913885612872e-01
-2.935340826540688286e-01
-1.630707597263925460e-02
-2.271647343367488303e-01
2.473488209235781554e-01
-1.231983768393841022e-01
3.849318238059801917e-02
2.092673986815884180e-01
-1.723766330575291217e-01
-2.172971296986379863e-01
1.222985971068493299e-01
-2.223816117203509801e-01
-1.821632616437413588e-01
-1.481888416383047580e-01
1.736340342652788193e-01
9.682896056994204359e-02
-9.232077020813631019e-02
5.984789248678612505e-01
-1.343453189754301724e-01
1.842757937568675064e-01
-2.116309369354230363e-01
-1.580964316237347678e-01
-4.429349795736068907e-01
-3.862177140858311097e-01
2.454752287600064919e-02
-2.262269430989351515e-01
-5.779820455924622458e-03
-9.024345736967688547e-02
-3.208315533281109189e-01
2.283424379774046664e-01
3.129549074946904041e-01
-2.865259110142890919e-01
-1.543241104859267576e-01
3.004235781902686031e-01
-2.764667573369232745e-01
-5.487885688617669677e-01
1.475790978896431883e-02
-1.717245972563479217e-01
-6.953889211995304409e-01
1.240985244766421025e-02
-7.198044305512047991e-01
-2.174386483912561004e-03
-1.989615747714479702e-02
1.881255016879148922e-01
-5.050923354834876422e-01
4.048759622112468315e-01
-7.250002868651989063e-02
5.812760910226654615e-02
-1.276068950480262476e-01
-5.142782334084627233e-02
9.227182139144736450e-02
-2.022704831021821525e-01
-2.235864723376080887e-01
2.597943269381116083e-01
-1.445011086605813844e-01
-1.292275809512550937e-02
-2.693152870847809743e-01
1.591977542167663517e-01
4.478379224454193674e-01
-1.189299157877823643e-01
9.835085366024222397e-02
2.850841052424200189e-02
-4.675490728755685166e-01
3.275868381689849840e-01
2.556308945837268420e-01
5.802748100585468638e-01
-2.841827907722896396e-01
-8.839114827145642117e-01
-2.356424584203073991e-01
-4.122715528156213893e-01
-1.643027760576508678e-01
-1.242420488508518689e-01
-1.918697700636320669e-01
-4.542937787053665244e-01
5.545701910911043919e-02
3.253568829177773125e-01
-3.029807497122327924e-03
1.407196633132715702e-01
-3.440990790819642431e-02
1.896839296807825148e-01
-2.586373390966119623e-01
5.277852534685985135e-03
2.665244720165670933e-01
-1.295647737294956414e+00
4.289687969734874429e-01
-1.615445485307899220e-01
-1.632429629469925592e-01
3.577735242856450726e-01
-3.653309843357633868e-01
-4.104196949030482905e-02
-1.169994691798613984e-01
-1.924406406431900807e-01
2.057753337067245447e-01
-1.197606697549002952e+00
-4.024328081635600296e-01
-5.759348233116379223e-01
6.593759157451485609e-02
1.317793482857966547e-01
-1.273317227967654564e+00
8.308370358419354951e-02
-1.392137879140651069e-01
-7.642875883448070617e-02
9.587939281274850123e-02
-3.005207954100264645e-01
-2.589296633426645955e-01
4.050910510581681723e-01
5.426991226828212778e-01
-3.977698649195192671e-01
1.437883647624447203e-01
8.796345373725032724e-02
-1.295821150556093065e-02
-1.939192996193658536e-01
-7.146314006473207525e-02
2.624686968903388803e-02
-2.222209582673823763e-02
-1.027340638154925906e-01
-2.511004511727097932e-01
5.839103123982719926e-03
-5.117303496223064574e-01
-3.383776351087511847e-01
-3.474067392651792874e-01
5.383380591892908962e-01
-1.089052040934724574e-01
2.570778619766261874e-03
-5.433732636431021223e-01
2.254362202727722420e-01
-4.436031025793710225e-01
1.063110642459011851e-01
-1.023360125153650012e-02
3.269916269718843305e-01
2.039780784189031693e-01
1.891442859222823847e-01
8.974706715818497882e-02
-1.192621883785243697e-01
1.769286922951841534e-01
-6.303073899296878224e-01
-2.043463050631212086e-01
2.392415820584577191e-01
3.611358001393710215e-01
5.203599815254510430e-01
-7.926999526558783926e-02
-4.463807436220870728e-01
-5.847925375890195010e-01
-5.801592795402522595e-01
4.322120223540114603e-01
-3.350413601240490591e-01
-1.002594982169322663e-02
2.247771700616546242e-01
6.617260421263156112e-02
-2.473561722893217185e-01
-5.835596340074891142e-01
1.308798166054319922e-01
-1.119474723729239202e-01
2.605336139077240043e-01
2.250104455661675884e-01
-5.712252457280138362e-02
1.580528321512730539e-01
-7.958089707723023931e-01
-6.385897122070123277e-01
-4.874738370526427444e-01
7.652320351765344864e-01
-2.149718202776005893e-01
1.193857378512450523e-01
7.485558267959376844e-01
6.528841403476293159e-01
-3.339663268381970473e-01
-2.939559006514274042e-01
5.694553874136511207e-02
9.402592232437632924e-02
2.034953258984705318e-02
-1.660299990427598349e-01
2.788782710080530136e-01
-2.560523080244689331e-02
-7.947219931599666110e-01
-3.862667072783913802e-02
7.064704995187744141e-02
-1.578020977752039589e-01
-1.569001177162249738e-01
-2.104451362431169203e-01
-2.414780985766814547e-01
-1.986614674298574357e-01
-1.716421827329901173e-01
-4.214454173711893598e-02
1.662074523481713584e-01
-3.262200629832429644e-01
5.622574296753621859e-01
-4.258787705261848355e-01
-1.284323887116376080e-02
-1.010760588508036600e-01
-5.309618070601325457e-02
1.611735733756065880e-02
-2.217947924302225704e-01
-1.643633889198950204e-01
-5.485534889903184025e-02
2.294148914125923311e-01
3.528521010516921241e-01
-3.684140721074132263e-01
4.168495271880644504e-01
3.359157889490383964e-01
1.081118166499845795e-01
1.984050129877072965e-01
-6.436964309652492000e-01
-1.628878614907291328e-02
4.069147589611540883e-01
3.008308386515924290e-02
-3.072140995688632178e-02
-2.073200756286424917e-01
-1.061321582137512570e-01
5.260019250123419976e-01
3.835300173250550393e-01
-1.833272779532621466e-01
4.917744636424331017e-01
-9.097045201907637269e-02
1.258346568723724967e-01
2.898882387868076949e-01
5.276897372405128100e-02
-4.471107085301896933e-01
-3.145588199669539509e-01
-4.007612990679439990e-01
3.372584790779730585e-02
1.402134625915713584e-01
3.824722461011922925e-01
-2.769507920842584348e-01
1.815907655764069373e-02
-5.241150868328515733e-01
9.058042942748376625e-01
7.675177736816840568e-02
-3.816295595429455845e-01
6.479577208602466110e-02
-1.160596406760739802e-01
7.636940293372481738e-03
8.311409554758691920e-02
6.959005813122977335e-02
4.585266415508222615e-02
5.166993903621237144e-02
6.590388560123620898e-02
-2.125019434253918871e-01
1.593148369100418349e-01
2.284169420656243510e-01
1.035272209578378712e-02
5.253514006554126786e-02
-2.454458468161353213e-01
1.330309135495126305e-01
3.047343018258126257e-01
-1.145416540524804905e+00
8.537533319970602719e-02
-9.241982471851152917e-03
-2.392025676406892842e-01
-2.262233799189614092e-01
1.986761349400375798e-01
4.111661746434644438e-01
-1.470665707924898591e-01
1.032510521550443344e-01
9.369377487389193293e-01
-4.440546266703533640e-02
-3.675796431091846866e-02
-9.827027075003530454e-02
-5.079908064968939596e-02
9.434092328785057546e-01
-1.008816213847066184e-01
-4.247665216677470879e-01
-2.772294730891817216e-01
-1.710262803296519474e-01
-1.193844816794927266e-01
-2.572593633639423949e-01
2.658820090779098755e-01
1.575568869778046777e-01
-1.250205854045831864e-02
-1.870712814752220066e-01
-4.710612397858402606e-02
1.908543793434742675e-01
-4.822345694059461119e-01
3.088331623942819348e-01
3.141273692870614753e-01
2.508438891787546088e-01
-5.777661774861807542e-01
-1.478269190500745567e-01
6.061245402588704145e-01
8.570571482866546908e-01
2.111015426227959013e-01
2.236998184546728774e-01
-2.848759646344208862e-01
5.130973115722982092e-01
6.514294221583346589e-01
-1.166218950055303516e+00
-1.050501220388665669e+00
1.062657181658277272e+00
-1.971768135749054403e-03
-2.120901735672909849e-01
-9.014015020986251847e-02
-4.433031322735694335e-01
-2.058501934735657013e-02
-3.756833088662019093e-02
-1.014955279018036727e+00
-2.943172952918657326e-01
-8.345419761186335939e-02
5.298989086493873790e-01
-5.726263163993553507e-01
7.017646564029323963e-01
-3.456360694842541045e-03
-3.874595598577896816e-01
3.151583491296114370e-01
-4.588519463870535109e-01
-2.287815815690956267e+00
8.239554345436125304e-01
2.431012790879176766e-01
2.365026565992112487e-02
4.217702976784591662e-02
-8.049127197271056522e-01
-4.625101819227944167e-01
-8.515805606104837056e-01
-2.366180134845624061e-01
-7.425645025701466118e-01
-3.393475580474957454e+00
-1.143585510134325356e-01
-1.226226512174805938e+00
-1.889209275762546159e-01
2.257842634880818100e-01
1.023906557725813071e+00
-1.690769292339850516e+00
