1.165674638746856395e+00
-1.216338396225442375e+00
7.498015019349961729e-01
3.179520744419425671e-01
6.707470048842463228e-01
5.277786185221099435e-01
1.388190280415959155e+00
-2.838483159147871415e+00
5.689694032880011909e-02
1.473994001330015957e-01
-8.017601019650378857e-01
2.663154558733142330e-01
1.223022972469188369e-01
1.571916502690783757e+00
-9.702824616876161157e-01
-1.124976133146231572e+00
-2.594012924350085347e-01
2.139545103980754481e-01
-1.672446130602762704e+00
1.623920650846433889e+00
2.504232513333123911e-01
-3.905785278603004507e-01
-1.317887146326980785e+00
2.142757277311435615e-01
6.094538765513334289e-01
-2.721559238432181838e-01
1.539475467028604161e+00
-1.703149758978496742e+00
2.039543557883632285e+00
8.377000995719239285e-01
-3.806756933934751785e-01
6.688615282117464922e-01
-4.769415155771076775e-01
1.938752003273633617e+00
-5.900369889378366262e-01
-1.491917325298014685e+00
1.500250321534525977e+00
1.228469378009026336e+00
-4.641257473465625338e-01
1.112867688141976341e+00
-6.981085548385961292e-01
1.068054008106510633e+00
-1.869138472112217064e+00
1.539743791242559057e-01
1.982820460987319011e-01
-7.675790243221564113e-01
1.082457257505633708e+00
-2.616258588872876434e+00
3.425441308201290891e+00
8.705305539284379224e-01
-3.540519343870656144e-01
9.794807752048552141e-01
-1.132626056735656750e+00
4.781732181484572575e-01
6.561163115060656414e-01
-1.839738041999491869e-01
1.473541965542127796e+00
1.759035588015225526e+00
9.039421296759445612e-01
3.257523482497804435e-01
5.663423712345231481e-02
-2.222404476498480719e-01
4.301601890634897951e-01
-5.230657617970575074e-02
2.650345163760373102e-01
-4.689337398358237041e-01
-4.489015557852957250e-01
-4.443117741918258673e-02
-1.726466231019875008e-01
4.308275982469789156e-01
-2.332283986289828207e-02
-3.960777117079713472e-01
-4.014996430778312864e-02
-5.475854253428489443e-02
4.141939733372452387e-02
2.809528905466522342e-01
-1.107340154543347444e+00
1.321761539266695928e-01
7.797417191881621246e-02
-1.533471642010173774e-01
-1.610847068158844930e-01
4.734586271591832707e-02
2.658574591012644039e-01
-7.790374980816931749e-02
-1.165997129457079229e+00
-2.076776863172145327e-01
-3.398288053259342079e-02
3.837678205686749777e-01
-8.360248719262497463e-02
-4.462080625110749488e-02
-2.601855146196465143e-02
-3.137672495352653024e-02
-1.709504407782262148e-01
5.530874319225382862e-01
5.113063596496809637e-01
-8.288304155541682539e-01
2.756645442150578926e-02
-5.507415453788683246e-01
-1.705185766835416467e-03
-1.408289991303947886e-01
4.073976947719655239e-01
1.303497039504503824e-02
1.460273019920891757e+00
-4.796839160245099966e-04
4.385175322647345553e-01
7.589160302200276265e-03
-4.731727884455650540e-02
-2.970541681372276810e-01
-2.141732804506729371e-01
4.040579541072480962e-01
6.019860107478098438e-02
-7.115047729819794498e-01
1.578006387770190533e-01
-5.123020067048967841e-01
1.949606313964199755e-01
5.291193792690713771e-01
-1.257220650722653821e-01
-5.605027082497451157e-02
-5.273854680808580386e-02
7.543537850351150938e-03
-6.432753162227394794e-02
-1.188287091492752079e-01
4.430419130880899892e-01
4.534675816725112774e-01
1.557043363234411892e-01
1.279941385439700152e-01
-1.214525570614040234e-01
-7.140701182752924592e-02
-3.230407473276367125e-02
8.922250690869124035e-02
-2.964437783676937554e-02
-3.974098782851239256e-03
1.641346359337241823e-01
-2.914280893020247398e-01
2.266827264967548883e-01
-8.665410890441437031e-02
4.697946099425221456e-01
-8.221954048392136893e-02
-2.003955338192000835e-01
4.088151978800276809e-01
4.473074928487235508e-02
-4.091227422833552674e-01
-7.383683513895288320e-01
-1.174222547624467067e-01
3.629840651243884664e-01
2.587622326355802915e-01
3.291370260987540597e-01
-1.736140800743501272e-02
4.033305113380752233e-02
-8.828934554860798367e-02
-3.324605126385858922e-01
-5.029387147583955220e-02
-3.013991517359814742e-01
-9.483047768451317860e-02
-8.174849177070696304e-02
5.755231056909889675e-01
-4.730144972238012335e-01
4.038401935606634185e-01
-2.032589856695301844e-01
1.191096894843944876e-01
4.481657063282740716e-01
1.719795385175415872e-02
-8.067705811736142207e-02
-1.647679183005140713e-01
2.510973191997347143e-01
2.910710088703465370e-01
1.482427303291546372e-01
-2.299314230812590509e-01
-3.657285674557125832e-02
1.391816240112643266e-01
-5.468404675655880870e-02
-3.977736556990308925e-01
2.915866692236062652e-01
-5.023955579870159616e-02
-7.027550768361733036e-02
-2.042684349989964260e-02
-1.299052512213717536e-01
-6.924349391265523235e-02
2.268342360752723108e-01
2.716541940263500488e-01
3.029773444250704467e-02
-1.804725971822854214e-01
1.026862117772393335e+00
-2.523772805197860847e-01
-2.912144301989214729e-02
-1.716952918107925996e-01
6.724562621743891411e-01
-1.329731640460687370e-01
2.498491324529959062e-02
-3.781200692700067423e-01
-4.849193153716112592e-01
3.645394569301165649e-02
4.347756691088043926e-03
3.116028137845861523e-01
2.309811689520826702e-02
1.661159977235691088e-01
3.842884962658661419e-01
-6.598427156287288431e-02
-4.541332457300387704e-01
3.198668833198117234e-01
4.059189942264569417e-01
1.158845264861245172e-01
-2.394890478270271128e+00
-3.971083864012466824e-01
-2.798623859669217562e-01
2.082005804154650475e-01
-1.437015981538670439e-01
-2.418525276929061885e-01
-4.936282617993771604e-02
4.341999669446006682e-01
-3.888363781657941942e-01
-6.357692377668007488e-02
1.026742114896772445e-01
1.189773982670990549e+00
5.454228057724058026e-02
-5.173224220290630893e-01
-4.648115788698972128e-01
-1.037656184950491445e-01
2.512093286269874159e-01
1.941466079328395822e-01
-2.958454963661281689e-01
3.975427546204531384e-03
-9.629861547648880249e-01
2.119510766659617185e-01
-4.264205820150434034e-01
3.424374950789690897e-02
6.482611987325139769e-01
2.892264922452276177e-01
2.993678580179250925e-01
8.927062366629145984e-02
-1.124377536445382852e-01
-1.788529402720391293e-01
-9.580283760488726708e-02
-1.877483471107038379e-02
5.365246348518783875e-02
-5.537542327040460011e-01
6.033743765807951798e-01
-2.920062654208885888e-01
1.467670117295715171e-01
3.635150022630458388e-01
-2.280264880217036660e-01
-4.776238044268583116e-01
-2.752090009033218987e-01
2.091263482043276833e-01
1.843820063775130913e-01
-1.946299397282211241e-01
3.629902078669368648e-01
-5.217661334615385504e-01
-2.621570292319745366e-01
-3.471392891326582908e-01
1.052242161464689435e-01
8.890405819934722731e-02
-1.350158063569245892e-01
-5.928747616221417827e-02
-1.305654589215534678e-01
2.956418301503813684e-01
1.752316447266806798e-01
-1.789728443410009973e-01
2.186726343864241195e-01
5.482868959723435215e-02
1.606744173936547893e-01
-1.068799908169209417e-01
3.712146213692370245e-02
7.672515338910884664e-02
-7.971698308709636305e-02
-4.518976536817381068e-02
-1.738788344944424136e-01
6.550227942921421631e-02
-2.719394608863805463e-01
-1.032515537012827778e-01
-3.834477472304856360e-02
4.526604216778427614e-01
-2.062743581372166735e-01
1.718787112912300019e-01
-1.704202079846444395e-01
1.695250945409721710e-01
-7.814066872862908408e-02
-4.987475616156034942e-03
6.769773661903376316e-02
1.316004129476317785e-01
-2.002417525887184580e-01
-1.266507096441153377e-02
-1.147199877639282439e+00
-2.962952559246730989e-03
8.669493669750763520e-02
-2.009395115765795770e-01
4.939911399145310300e-01
1.372168899916568485e-01
-1.404146918740743766e-01
-3.826403144128262546e-01
-2.416921422215375370e-01
-1.892025117170803572e-02
2.537360246562384569e-01
1.494257988826098726e-01
4.394463623586959411e-01
-4.528795274478640276e-01
-1.128413517299634572e-01
-1.910190149600327070e-01
-2.292624217965549549e-01
-9.561140081583603678e-02
-2.372898415866913913e-01
-3.039914932807784576e-01
3.933836255813714100e-01
2.501396036865423667e-01
3.492193478201505163e-01
1.151344399684183784e-01
-1.383206240338027415e-01
4.297346966917621469e-02
-9.642955950327575243e-02
1.180867109408361981e-01
7.773316782450120921e-02
-4.649451031213501784e-01
2.551977690954440603e-01
-3.124854450966130237e-01
-2.941918192981489155e-01
-1.555223490605521508e-01
2.890512643587439534e-01
3.816980644150667623e-01
3.874754683782888898e-01
2.048959878566234405e-01
-1.448669636528650828e-01
8.481349542605841341e-02
3.161507101014873755e-01
-7.488442805047404449e-02
1.118256764739037568e+00
-1.853680939055545873e-01
5.117511871664530698e-01
-1.704934899506779511e-01
-2.948268549761827451e-02
1.802741492079486807e-01
7.879718939547969425e-02
-1.516424647284589922e-01
9.448736557983657136e-02
-3.846315751150608531e-01
5.336805618024158537e-01
2.580282084358079264e-01
6.126596375596420063e-02
-4.144318188813234105e-02
-3.153465193460063265e-01
9.524197221418347070e-02
5.511652601813747943e-01
3.088949045737952523e-02
6.516885310704617629e-01
5.309966451798854292e-01
-2.527999929395830514e-01
-6.106001316841741522e-02
-2.296474891102549265e-01
3.422140668505314065e-01
-5.303854740354774916e-02
2.622050265122705670e-01
-5.505184486359546159e-02
4.904808241424400972e-01
-1.962256670311639528e-01
-1.221858075044021941e-01
-1.618662651347719250e-01
4.180872707162220370e-01
5.533014827888540488e-01
-1.088810666507452202e-01
-1.342508130976380332e-01
-1.605800656180625119e-01
1.058201348019070093e-02
4.949202503769556394e-01
9.130168274060523892e-01
8.402602559100090795e-01
-5.166003931104402591e-01
2.567994811019210233e-01
-1.686772172419121196e-01
-1.936735435130484129e-01
-1.036765394213936750e-02
9.184310215642449426e-02
1.703424156125265265e-01
3.582774475483039844e-01
2.559793184621318544e-03
3.990779722835062771e-01
2.853187626782494601e-01
5.651389737218304177e-01
7.554619644973132875e-01
-1.177008874228761002e-03
2.974362505579284943e-01
4.267138512534127820e-02
-1.051571961608806921e-01
5.003614713230762900e-01
-7.247054467817252155e-01
-1.984868961645838148e-01
8.400849250809785951e-02
1.360015078348548664e-02
4.652149202957926721e-02
-3.313577091796542778e-02
4.349134744535142483e-01
9.793200662980432181e-02
-6.042274406616818250e-02
6.904484668654661261e-01
-1.920501031942190573e-01
9.104728806638420768e-02
-1.822107714674948697e-01
5.160004126866449825e-01
8.295530944288286301e-01
-1.440430971041608832e-01
-1.485469764969023776e-01
-2.964771509952623951e-01
-2.340041097251076840e-01
1.022358569040754395e-01
-1.503082205186816900e+00
3.087445644210907725e-01
3.581947258607642848e-01
-4.271546942851963125e-01
1.028902862471363783e-01
5.456280744545800865e-02
-2.955052123020455723e-01
-2.637370681848329457e-01
-1.473138216743815898e-01
2.851045310030401181e-01
-1.064562631174850171e-01
5.582122568183036648e-01
1.592338970937197951e-01
-4.218780767197605197e-01
3.016684707588458414e-01
-3.175889942334153004e-01
-2.542408781565629883e-01
8.591837732908248482e-01
-1.123325697912717219e-01
-6.512682279092311954e-02
1.186009457041481641e+00
4.995582774736702647e-01
1.355306974751955273e-01
5.241464325943380465e-02
-2.549414675374457318e-01
3.271912981547426269e-01
-4.063830683194604165e-01
3.115149927484252568e-01
9.949658600693764288e-02
5.581497519136561225e-01
-1.617777914956265717e-01
5.481095069623007632e-01
1.201534020903734096e-01
1.216740999753749053e+00
3.694999715640039928e-01
-1.199520402832760374e-01
5.101051401854679312e-01
-2.337277087736555625e-02
1.874241123638330231e-01
-3.263983165851726265e-02
-8.866057456823297489e-01
-2.007966273396720180e-01
-1.739637822946047963e-01
6.411147876449981853e-01
5.713479096664206835e-01
-3.114228452216211140e-01
-1.401296162986144511e-01
-2.107710808789464429e-01
-2.730199560635275802e-01
-1.218023973067912546e+00
3.245533056303064323e-01
-5.549188934701236864e-01
-6.599934460777523437e-02
-3.880184120995550656e-01
8.038528653451491035e-01
-1.226787729974341927e-02
-5.812383358637865927e-01
3.142828820507264087e-01
-8.599050598173928195e-02
1.971620795557647021e-01
-3.601739307937215084e+00
1.092212760814705308e-01
-1.036528772197574444e+00
-4.637476901266244789e-01
1.082345567064395109e+00
-2.079820751665251433e-01
7.673205560715723461e-02
2.587968076960143193e-01
-1.667974615277198203e-01
3.599250922559713572e-01
-6.350337258465892365e-01
4.033523198255504205e-01
5.382654453521882321e-01
1.193421116079386168e+00
-2.247434555324322458e-01
-3.819181857925114110e-01
2.153579413849864566e-01
8.557194367680075464e-01
7.630675931502375331e-01
6.449356768827271824e-02
-2.111260917314680352e+00
-7.857513478495327108e-01
-9.446659045195621163e-01
-5.276643254380386505e-01
4.535208555435130684e-01
2.663945346866102848e-01
-1.611710310202809108e-03
8.164011627510572300e-01
3.966059913744541393e-02
-4.937349857588341218e-01
-1.758619297830437689e-01
9.066290513886092750e-01
6.358327724658049407e-01
-1.656722285819461904e+00
-1.030908986043235664e+00
-7.095853443350599865e-02
-1.750032072537177352e-01
-9.541150760920753537e-01
-5.667538578134844601e-02
