-3.808843834808241513e-01
8.118345207549989562e-01
-7.918442097700292281e-01
-1.386672579898597935e+00
6.855267496741359601e+00
-3.365023201469049319e+00
2.060812061897450698e-01
-1.033691810652670240e+00
-9.646775416658148750e-01
-7.391878268188357692e-01
8.084516309573404058e-01
-1.341789795013375919e+00
1.005797829611894567e+00
-1.893183764966153593e+00
1.804342033358017905e-01
8.316060532366369440e-01
-1.548490724531044194e+00
8.910245704965560343e-01
-1.729204847049503335e-01
-7.769881792398291021e-01
4.136791906449051037e-01
-7.474140383898203455e-02
9.031493391243257396e-02
1.015967182585812423e-01
-4.334164206069003877e-01
3.129920413966061910e-01
1.774928554623502186e-01
-3.020127624566997238e-01
-3.167653506371371774e-01
2.710880527291679720e-01
-5.808048716020421456e-03
-2.480133800411372658e-01
-3.022873228278422642e-01
1.666353000246859895e-01
-8.492732566937638561e-02
-1.919007713565221429e-01
2.761203555841587609e-01
-1.210697625563803975e-01
1.844060724935951412e-01
2.026201763808382628e-01
-4.744375606183884320e-01
1.102815036365732748e+00
-2.824978892741175640e-01
-1.264216769730656664e-01
-2.916651005174041966e+00
3.648996082750036868e-02
3.273109951018292607e-01
4.645479947518200148e-01
-3.134796903202617946e-01
7.453733288897716747e-02
6.596627786294839701e-01
1.832146012585013362e-01
-1.510649598447469655e-01
-9.863078124420625661e-03
-4.439642202541129179e-01
-2.571155808255466968e-01
-1.010261920114985945e-01
6.319595384810161587e-02
6.015862638251385369e-02
-4.558228374228457530e-02
-1.969396634157367931e-01
-3.058660908451564797e-01
-4.484137987331299202e-02
-5.417647565622305539e-01
1.586474741780616038e-01
-5.354013687774985542e-01
-5.025638880426869237e-01
1.037190124657973556e+00
4.302758805651722973e-01
1.276028515637664951e-01
-3.684317597681372458e-01
-7.217943504525212717e-01
-2.140948415962856122e-01
-4.613260319149743438e-01
8.903006905718275910e-01
-1.065667763590861794e+00
-1.673415038494530105e+00
1.345478968885954307e+00
1.009801308327330061e+00
8.344573868634683755e-01
-4.834205811507764627e-01
1.347206899416983905e-01
1.759990873607268080e-01
-2.252460754545430321e-01
1.151609040980216131e-01
4.515280294872432015e-02
-6.151805116924673189e-02
5.517967570149071577e-01
5.866031165311450524e-01
-5.899677852424494578e-03
2.708729770697624883e-01
1.221750050176714786e-01
3.773181081227204858e-01
9.438668178675667375e-02
-9.063451221612667252e-01
1.817963207700277195e-01
1.068016101131666007e+00
-6.229922575905991744e-01
-2.411060941356196752e-01
-8.092155770154751959e-02
-6.295882925850071477e-01
-1.447748650380965341e+00
1.227094482939205422e+00
4.864241380366124412e-01
-7.753179620356565049e-01
1.243920625072284097e-01
6.808776993849706693e-01
-3.787502478248639948e-01
-1.504971312311710552e+00
-3.092797577931130082e-01
-3.419581087790703466e-01
3.509612945498081227e-01
-1.488129333126534670e-01
2.348466559123560393e-01
-4.196179026519485933e-01
2.391038053282786013e-01
8.747819389693674008e-01
4.238155983676795135e-01
-8.480943872188205501e-02
-5.063743522885135601e-02
-7.737644092930925921e-02
2.109741526149705171e-01
9.177565595380694774e-02
-1.605851969507155752e-01
4.813377455156642726e-01
-1.729994666636342771e-01
-7.293129143682955950e-01
5.368325993222177184e-01
-2.009201282708295531e-03
-2.549570816111741411e-01
1.098504500042680465e-01
-6.299914735509458685e-01
2.005517563271889958e-01
-3.345477844763788955e-01
-2.727788933664480539e-02
-4.761867416768383876e-01
8.857291579616573263e-02
2.353130690890563315e-01
5.204802734921804008e-01
-4.300844479623898153e-01
-1.439750322070836308e-01
-1.500321983354447608e-01
-3.299447084526689333e-01
3.290980099350144638e-03
-2.506072839454772661e-01
6.588980370021628452e-02
-2.214086362796341065e-02
-2.559746281652117844e-02
-7.533074936228609242e-02
5.919054574900574073e-01
1.159562625601589236e-01
4.240213353124791529e-01
-1.130106109574218337e-01
4.781859233112816659e-02
-5.076102015843567822e-02
8.998435248078967899e-04
1.504291014530458603e-01
-3.974249718435280965e-01
-8.335985856386161075e-01
2.266201226870524776e-02
3.646142341990835645e-01
5.703337059266037068e-01
1.642337017233522559e-02
-4.183222954631153900e-01
1.395594824572486126e-01
-2.006618741242121584e-01
3.152429503505638775e-01
-4.039491484725555304e-01
2.535086084577715254e-02
-7.788614492405010470e-02
2.339674420202874083e-01
1.837679845780272048e-01
1.689740426052028510e-01
9.952961965730393323e-02
-5.761225468137001204e-01
2.180745697537537220e-01
7.664078775553234690e-01
-4.305399359736857834e-01
-7.577227845707115161e-01
-3.055567726252878535e-01
2.862688110517380147e-01
3.907518667857667327e-01
2.652781308223763346e-01
5.237897239389531501e-02
-6.800178454819121310e-01
-3.125108840135612520e-01
4.883026306606831346e-01
-4.754611803947520615e-02
-6.494691359165218891e-01
-6.928827348707679301e-02
-2.013484999452095081e-01
-1.229574539618355722e+00
3.479239162434263899e-01
-3.119963534659108140e-01
2.097769695012636215e-01
-5.933296823527435260e-01
6.108442614863139886e-01
5.949850316040928844e-01
3.650111567025555170e-01
-2.978482947462672281e-01
7.260771099350737945e-02
1.925943311425485915e-01
8.506985596120773818e-02
4.995568082213842631e-01
2.386064078719863646e-01
-7.084928378463030418e-02
-7.853461425935649443e-01
5.360190434709413143e-01
-2.826207899874870755e-01
-2.533665084659993405e-01
3.362453085221518267e-04
7.298472083067365779e-02
9.400056852750079406e-01
-3.652345720012567520e-01
3.456230335878631710e-01
-3.664014551111973161e-01
7.011349773419263132e-01
-2.477664772062413423e-01
-2.654042231505002736e-01
1.338740481709573167e-02
-2.166680505181603766e-01
-9.030732964607181001e-01
1.503577899814282914e-01
-3.729438403878025665e-02
5.338210334829698173e-02
3.195493046580015761e-01
-3.215071260519628688e-02
1.498672972982887652e-01
1.350830949088830946e-01
5.977249503553480614e-02
-1.661263913008605153e-01
-7.220442143844438831e-01
-3.513464131611513386e-01
5.824753185963357088e-02
6.520054410527038602e-01
-4.274946241468755015e-01
-6.584038276110740773e-01
3.125692730948178011e-01
5.436780072779966444e-01
4.569091299085246138e-01
5.951699451021141146e-02
1.305586759027692334e-01
4.165427767071563231e-02
-1.222913891504478906e-01
-3.160125091103515027e-01
-4.407799752756418402e-03
-1.411375055288244806e-01
-1.371346129337519260e-01
1.972363212170894775e-01
-6.720538930953172049e-03
-1.900338290166011801e-01
-4.821071199507606098e-01
1.650812244972973131e-01
-8.684053933715193407e-01
-2.159355966114358261e-02
-2.021848871444736351e-01
2.376216097930365367e-01
3.447710121670442829e-02
3.787177697676826216e-01
-5.377757910542223518e-01
4.170824866624570082e-01
1.680463980444500960e+00
2.233106728616345016e-01
-1.352513848255101625e-01
3.069930549790161334e-01
4.807615882576752458e-02
-8.454337193921586113e-01
1.099623398689253233e-02
4.891666855185882734e-01
-6.473075566097473699e-01
5.571867626936830575e-01
1.728050733268161610e+00
-1.668776526289885431e-01
6.635865173921441373e-01
-4.729402901375917567e-01
-3.612903617324259020e-01
4.320941561955335963e-01
7.397263087258749703e-01
-1.839118854339715226e+00
1.714244620623506798e-01
4.133743008847391431e-01
