-2.160283819293489782e-01
-4.434806088504106847e-01
7.905293001077748349e-02
-2.447825338123406358e-01
-3.641621237296583380e-01
-2.803953735915195103e-02
2.456371099827200088e-01
1.464811934723624087e-01
-1.223449947028868667e+00
1.900890493116773883e-01
-3.780581502446409004e-01
2.520047392714525047e-01
3.602095425245981919e-01
1.580448043184100966e-03
-3.986528827728729740e-01
2.602659403596337406e-01
3.545362492028407142e-01
-4.062584631815591707e-01
1.602551562456100975e-01
6.772208936813790547e-01
-9.119874784097149745e-02
-7.436135477864096177e-02
1.250805285880171869e-01
2.621400761364552426e-02
2.825874480736717889e-02
-1.366015169897598081e-01
-4.399415183454097322e-02
-1.151555615305064478e-01
-5.639846053350534155e-02
1.705873037953806737e-01
-2.691456354929323141e-02
3.194048321618202929e-02
-1.390683970058426144e-01
-4.447746856525169185e-02
-1.548149297959062858e-02
7.309104657515801129e-02
-3.789234427336374278e-02
9.249769459184352394e-02
-5.460914481611808119e-02
6.896417119012461516e-02
-3.024526276785645396e-02
4.632051794176572090e-01
2.836897573112324711e-01
-1.159728172582334821e-01
1.349256989656269778e-01
-2.598982894020998025e-01
-3.682188395837979744e-01
1.227557483121632792e-01
3.836944873777576870e-01
-2.980159179429744953e-01
9.421316901696384638e-02
-1.734715612776255300e-01
-1.616927641710575736e-01
-1.693936718627444410e-02
3.723255248008330853e-01
3.658839897958839349e-01
-1.857571919552154227e-01
2.357092961188328450e-01
2.622516324174511415e-01
1.136044416620480002e-01
-3.020284987459781467e-01
1.201631635945290665e-03
3.518170887464937002e-01
3.365904593104060982e-01
7.170193699330081050e-02
-7.713311903238828648e-02
-1.887708668556178915e-01
-2.026542309581341739e-01
-3.274750500981917639e-02
7.577393841150795173e-02
7.279218031940784539e-02
6.513067421008819809e-03
-1.612321684278040512e-01
-9.774727611729810972e-02
3.028997045807811372e-01
3.166804358885816906e-01
-3.553852372704903728e-01
9.043645696153194968e-02
8.869975957652678766e-02
-3.623647827263140053e-01
2.285627205427488151e-01
-6.375460879327400632e-02
-2.768364022706469307e-01
4.818163004252133674e-02
2.243358820530403364e-01
3.414206928372279237e-01
-4.850394526371042125e-02
-7.371306695564479317e-02
-2.574997536081230498e-01
2.676784661905401985e-01
2.257952065504218175e-01
1.933982037846564139e-01
-4.105860568345184869e-01
2.870526102825124437e-01
6.950011964729736758e-02
-1.508157432810660337e-01
1.807896388824326364e-02
-1.122526071130434261e-01
-2.189831338566089747e-01
-4.398955822852981118e-02
5.197258337853729593e-01
1.353999107434902538e-01
3.541370476364511521e-01
-2.108743981434455239e-01
-2.623688589906484903e-01
-8.090651200541883192e-02
1.409840464534655724e-01
-3.465726180052823291e-01
-1.060958872012585791e-01
-1.446138818709452045e-01
3.446441900635122679e-01
1.789090441443498547e-01
3.538352106511946649e-01
3.062971204561314442e-01
2.831432461376485743e-01
-3.712813956408627658e-01
-8.310888912615600754e-02
3.144014277973588567e-01
1.092135400949690166e-01
5.209101693855308982e-03
-1.108123332389754218e-01
-2.918035967376268469e-01
-8.041071274401057067e-02
2.268305664256033416e-01
2.157387262254848725e-01
-7.511163192155417834e-02
-1.415702374053375880e-02
1.579199366093977097e-01
-3.345240119559365066e-01
-2.263187518478833316e-01
5.276893885183642219e-01
4.022832802844619193e-01
-2.287174543273319260e-01
-1.607332655135024491e-01
9.023975733937260324e-02
-4.325035667650800608e-02
2.960333107812437303e-01
-2.008129864754406857e-01
-3.785702035380123041e-03
2.496390966940486011e-01
5.525057663884276604e-02
-2.720197076904887212e-01
6.098776352044178450e-01
5.313474733885450996e-02
1.701866329672372391e-01
-4.506176628506049914e-02
1.315154964361004430e-01
-1.310420791618526759e-01
1.018325608495032203e-01
1.224404412857350716e-01
-2.328458181484981404e-01
-1.510929529992727227e-01
-6.266092316490379233e-01
1.948603930510572069e-01
-2.845617365320658454e-01
1.388515860287412862e-01
-7.635514671834632561e-02
1.703431951950000744e-01
-2.765027082920986645e-01
-2.531669315948835153e-01
-2.280281374423344110e-01
-3.173271602802992808e-01
-4.052187946113228745e-01
-1.192502129475507128e-01
-3.387149074895363238e-02
-5.769739972247245330e-02
-1.995385619078854089e-01
1.235815642477738896e-01
-3.440600520125366990e-02
-1.414213850450045662e-01
1.668133583180462232e-01
1.843984982011345475e-01
3.075323722879290123e-01
-1.137048862117750470e-01
6.651163907629466243e-02
8.414538343292272959e-02
8.658146113026189347e-03
1.914924518508507589e-01
1.580427006415949520e-01
1.081464533728676014e-01
-2.838327258513522189e-01
1.774592423434999400e-01
9.443363140415401979e-02
-8.047973406835789989e-02
2.179744455939061076e-01
-3.580239669846387307e-01
5.750744757188658296e-02
2.476053333735646900e-01
1.337484959089038361e-01
-8.380446202796883182e-02
-7.319678668213881745e-02
1.764038180886021157e-02
4.713057810095370170e-01
-1.408754041877295637e-01
-3.165600720548306102e-01
6.459671420036387779e-02
1.679102357901562648e-01
2.015344497382651756e-01
-2.010329298778180118e-01
-1.854758225759644830e-01
2.770719228194943318e-01
1.241221386658085402e-01
8.939018978518624425e-02
-1.867374210266897483e-01
-2.144378718274495832e-01
2.732026867423265615e-01
1.272394254795801427e-02
8.454686727669089019e-02
1.821103407647602923e-01
-2.512663698185945704e-01
-1.127716215131276817e-01
1.545756094079056842e-01
1.053244241768326594e-01
-8.647299890474015489e-04
-1.742621547115779101e-01
-4.918862319752984047e-02
-2.573643939368546185e-01
1.653206655261717575e-02
1.135971362707651200e-01
-9.180551048894666777e-02
-2.026854728911005321e-01
6.894851116235378718e-02
6.390602862860486066e-01
-2.331915718278655680e-01
-6.798167153724213319e-02
-2.880735664383924158e-02
3.289762037278510902e-03
8.385340250612578761e-02
-3.194272141323620251e-01
-5.347153824828058954e-02
7.828638273182474405e-01
-5.670343342423082023e-01
-6.286616583385475909e-01
3.208269394331465518e-01
4.644142067224865111e-01
-6.413605098890836631e-01
-6.858484370356743298e-02
4.671724901610013747e-01
-2.150000006485685289e-01
-7.251909528799704852e-02
2.626045783662741551e-01
-3.314519342597694873e-01
-2.874587512091433261e-01
1.179528630168885928e-01
3.036374483685911341e-01
-4.612938712740845965e-02
-3.563861914106079831e-02
6.059492842218639624e-02
1.486339773986514734e-01
-6.380450115241541320e-02
-2.465075633156594559e-01
-1.609457768177350034e-01
3.833654443689829550e-02
-2.331435984168837849e-01
3.149524605889944540e-01
7.244544367639252358e-02
-2.014267604786149080e-01
1.480886920838816838e-02
6.346890391657408204e-01
3.226166397066090180e-02
-4.590033404562965935e-01
2.356013753031425961e-01
9.390906067411929070e-02
-1.664642971772020419e-01
1.189284913997928628e-01
-1.273526070079777049e-02
1.364104875816442575e-01
-1.401537736250666744e-01
4.346263550629683031e-02
5.492675052462880209e-02
5.993837552526668500e-01
-1.724219262627178506e-01
-3.155218958679421176e-02
-1.223021670995395466e-01
3.099954807805012647e-01
1.286561121105409544e-01
-2.179664285018036995e-01
-1.722761202553140802e-01
-8.102727975166057472e-02
-3.136874734377319562e-01
1.299456326937233619e-01
-4.330898804397325108e-01
-3.188571484028009106e-02
3.406715235487763060e-02
1.272752628047653933e-01
2.542518106592736929e-02
1.356561790875115137e-01
-1.402426022680345608e-01
-2.989900478173864729e-01
-7.890843673051677054e-02
-1.324826534631700636e-01
-2.327307964531681317e-01
3.474677421282760248e-01
-2.124176205060818723e-01
-4.962492517072313869e-01
3.101121554906856037e-01
-3.144735100664569627e-01
8.493609046770297932e-02
-4.501884165182958863e-01
1.322505012497906529e-01
2.051428021242946986e-01
-4.380959289579243743e-01
8.026726292778578811e-03
5.265810855178544581e-02
-1.549347646883364182e-01
-6.794260991716545572e-02
-1.617722951200262216e-01
-1.149767085401788708e-01
-2.243156590971692177e-01
1.713359674141202438e-01
-2.781299023561617512e-01
-5.572760923025901758e-02
2.534432308596808459e-01
1.748277649885621177e-01
-2.473356899663390618e-01
6.344407376831005807e-02
2.052885932308619044e-01
4.075083065236777963e-02
4.790999448864930454e-01
1.349682198296894842e-01
-4.625535621109167633e-02
1.198159668102946329e-01
-1.999038888623749510e-01
-2.069983224819561540e-01
8.123728469245659889e-03
-8.619725236392621059e-02
-2.675365359281876576e-01
2.966216264514525691e-01
2.525598062524166132e-02
7.179764588714923623e-02
-1.077887919260615140e-02
1.439697988962411190e-01
-1.205136740904762388e-01
1.623128372708382561e-01
5.593593061235333647e-02
1.938388198951520869e-01
1.294898427558391907e-01
1.400596134890745303e-01
3.412762162691087564e-01
1.278458469664998653e-01
2.705611892598046020e-01
1.214671514588533396e-01
2.750012104642866606e-01
6.452172375631594348e-02
6.803986770929978944e-02
5.836215114459768899e-02
-7.417424157076719926e-02
-1.966895682148252222e-01
-1.463252275053560265e-02
8.780143625707532984e-02
4.483519602074676480e-01
-2.649017367133685852e-01
-3.702223003791865752e-01
1.279661471520354005e-02
3.493460751524325447e-01
2.760571588837537060e-01
1.669288551812756483e-01
1.325344966516051881e-01
-1.771198742504605239e-01
-2.047404662963426547e-01
-2.795610470576311447e-03
1.782226064937326715e-01
2.747229931456289798e-01
3.411871595977408189e-01
1.792487352899591047e-01
9.962566723129236135e-02
-1.828159106635235745e-02
-7.709452650249144778e-02
-4.309535978677422885e-01
1.449986450006529870e-01
-1.372161086871578339e-01
1.665206584165379033e-01
9.120066635952689404e-02
-2.029587761698132264e-01
5.382193486316155101e-02
-1.272775431466756368e-01
-1.822113665224859291e-01
7.020995097490781434e-02
2.169502192072116642e-01
3.697453911744715271e-01
2.682077046816340737e-01
-8.713328115115719086e-02
-3.414148021565918123e-01
1.546349986795004898e-02
-3.633361598996514008e-01
2.398945744545617209e-01
5.653869913908274869e-01
-5.358005291753470400e-01
2.394080979633795778e-02
9.962879075434303774e-03
-2.622067669320720107e-01
2.242136491480893057e-01
2.551979810580521923e-01
4.947953787282825810e-02
-6.773091204046749469e-02
-8.141789161908032091e-02
2.256499521116089035e-01
-4.873392130012175333e-02
-1.835324708940062888e-01
1.761829061812273112e-01
-8.046601817832781112e-03
-3.682491363273791563e-01
-1.846365415682450772e-01
-6.591756598520636112e-01
9.762388526966196689e-02
-2.410997038243643809e-01
-9.697234364079586333e-02
-2.208934225464128376e-01
-2.388334793588108573e-01
1.031725298424648191e-01
4.529089620783586789e-01
6.421642626326483638e-01
-5.635493200947793158e-01
1.866441466221519518e-01
-1.613084143484212751e-01
-4.457869659461008993e-01
-3.619028670146099413e-01
6.463857239305041691e-02
-1.582855297789370064e-01
2.684075372499715173e-01
1.135213329209634470e-01
2.600392162689004194e-01
-6.482130450454285375e-01
1.282659939688765016e-01
1.000383584390480141e-01
1.536350245371097267e-01
-1.547465493667768421e-01
1.244192485983761781e-01
-2.489280013182470774e-01
1.585687660822415468e-01
-2.900604684821774804e-01
2.388597168614331190e-01
-5.508346925686796736e-01
1.140458462963335473e-01
-2.761313222780378274e-01
2.689058090377985932e-01
-2.224982425769492789e-01
-3.389294065721079607e-01
-1.078524977650969219e-01
-1.530970466229940874e-01
6.038127941203830923e-02
6.257108624065906011e-02
6.980098468785328469e-02
4.729482722735418587e-01
-1.377593367654863232e-01
8.506694370744601053e-02
3.255666014608019770e-02
2.626295038912830893e-01
1.024397116633006446e-03
3.775780115695242523e-01
-1.081347374337549849e-01
-9.785466794242209110e-02
4.282543945473002434e-01
-4.413111245804288325e-03
-2.590787931763949281e-01
1.924481232540377618e-01
7.454332725402748605e-02
2.370649640839330441e-01
-2.002945350405936076e-01
4.197060413265174539e-01
2.233587629105430739e-01
2.244317720326679255e-01
3.671440625075765851e-01
-1.328762156862294541e-01
2.309198583523696183e-02
5.375051010406902696e-01
-5.639326710767968154e-02
5.750312567693187382e-02
-1.481965263107211384e-01
1.441423211458424392e-01
2.887638468057041607e-01
-2.583966435843901843e-01
-1.717081020553662130e-01
3.457191388798896980e-01
1.713955900268330501e-01
-1.342713926822471371e-01
-2.143655810442633702e-01
1.616949434637927896e-01
-9.198094321286398589e-02
4.681957515817002369e-01
1.505210294982050889e-01
-4.650488093345991891e-01
3.181779543153707146e-01
-5.566679173546339350e-03
1.080408980413860576e-01
-1.922473147978832619e-01
-5.942347870290356007e-03
1.262615978865439838e-02
-2.913464904323692650e-01
-1.139430415110332107e-01
4.512358864094830335e-01
2.468636983075751246e-01
-6.247936031631939197e-02
1.649411587316760913e-03
5.501752856547218948e-03
-3.258054275783547893e-01
-3.323103526586683176e-01
-2.800528074498640496e-01
-8.632763510156381270e-02
-1.950722635537037453e-01
-3.043047794672621986e-01
1.220913439761832642e-01
-5.927931154416888893e-01
3.039007215267438555e-01
2.422783133883978646e-01
-1.237837330611498837e-01
3.591672336326240389e-02
2.153625733671782339e-01
-1.703682904071529003e-01
1.306396576459454839e-01
2.192302682364394573e-01
-2.567778630144414986e-01
-1.452021807309594459e-01
7.243151335266627584e-03
2.184709879162411439e-01
2.572940094985758930e-01
4.290928416466734396e-01
-1.859735499372332512e-01
1.766690480465510915e-01
-3.970119071204176731e-01
-1.578227689965582548e-01
1.361300743943152647e-01
-2.673734377688580799e-01
7.033549894379546030e-01
4.459918544391025530e-01
-5.817031559220686709e-01
-1.372697056308553321e-01
-3.699251816277162042e-01
4.052214545244488264e-02
3.360653344151394717e-01
2.579232908913682842e-01
4.934006580404534659e-01
-1.464020057463298052e-01
-4.606647024409192270e-01
1.806779913392949077e-01
-3.014557988201773675e-01
4.144237110624637843e-02
-9.799894772925759820e-03
1.053204963246244102e-01
3.543900645308670772e-01
1.743537085740559101e-01
-5.365342520836034051e-02
-3.870298236372007317e-01
-3.583410809775362527e-01
2.100947221832102640e-01
7.831113222871040336e-02
-1.447124781092480883e-01
-2.923329974543230347e-02
9.571736842481917695e-02
-1.186340133453255979e-01
-3.621761998369077973e-01
-2.423101009913621595e-01
4.215455982637534293e-01
1.573328308878580994e-01
-1.759417775132933459e-01
-6.003246968578405257e-02
-6.393880265538658125e-02
-2.355538184789559564e-01
-3.277251391244954681e-01
-1.335615946705492885e-01
1.489605046572374525e-01
1.733516673746833270e-01
2.186944323594958994e-01
-2.244244626886173488e-01
6.608311283680948223e-02
1.163587085781902508e-01
-8.576382762946437033e-02
9.309879970871993982e-02
-1.492247994971225844e-01
2.166834492235836518e-01
9.173486307677246321e-02
-1.310832206019776902e-01
-8.959985867007390359e-02
9.391172790619360666e-02
-1.402719559370154412e-01
-1.346342082081647407e-01
2.272704893087472144e-01
-6.824978674009093971e-02
1.012751627110562852e-01
3.440433550989552280e-01
-2.371445119794163628e-02
-3.225904711582183171e-01
-9.777103342215630322e-02
-1.906830107902021676e-01
-3.227675184646300321e-01
-3.171676913375369722e-01
2.284566072962534652e-02
-4.118401395124442893e-02
-1.611347443953143610e-01
-1.288302614422170145e-01
2.432072506311800109e-01
-4.242888834877912574e-01
-1.745917880474072148e-01
-1.380725168284265003e-01
-3.985467348050477504e-02
-1.582853950030569182e-02
3.532565437570585609e-01
3.772008527093231312e-01
3.046107562515919520e-01
-2.673643891314243515e-01
1.687076115213994587e-01
4.831780057308924792e-01
2.981325860907058090e-01
1.571850714100230251e-01
-6.955168027531709318e-02
1.223327047535822526e-01
-2.514243041431105663e-01
-5.980887886040090612e-02
2.665602188917761128e-01
-2.516381478470020583e-01
-1.719219403472348473e-01
-6.448983590386755949e-02
1.453090771531106995e-01
-1.327976290514505109e-01
2.046311337807583397e-01
-1.033916803899847386e-01
1.059935787056832251e-01
-2.282068148828729492e-02
-2.534415602427939063e-01
-2.991726337885707854e-01
1.759751006260992512e-01
-2.615174275527263892e-01
-1.079518057432824474e-01
5.979546300099344153e-02
9.466184383304425409e-02
1.383947140435356216e-01
-1.681483181976687058e-01
2.077436390944043254e-01
8.649446203295184377e-02
5.050522507895897212e-02
2.572837153273800914e-01
-1.809220223800854510e-02
1.713793509326696496e-01
1.592309821937674119e-01
3.532122168228267189e-01
-9.173620771523852135e-02
-3.472617526856482395e-01
1.662699937161190300e-01
-8.209155079958210810e-02
-2.449937295669964987e-01
-4.578785544644435601e-02
1.357771126414473138e-02
-2.164271585705271062e-01
-1.277344006499067930e-01
-3.340651903859822580e-01
4.062018081309241024e-01
-4.303475051285274300e-02
-1.710163650982734953e-03
4.077270005041215284e-01
2.778372467375986310e-01
1.473626015961217450e-01
-8.639750859372834213e-02
-2.246544228549077205e-01
-2.204391974864194359e-01
-2.513575102141369366e-01
-3.088392034465434893e-02
-3.047387978228679462e-01
2.844525310928412987e-01
-9.979081327658801889e-03
4.250793980447400977e-01
1.851146754775121472e-01
-2.320212414295205472e-01
2.702161095610322583e-01
-1.619451330538793365e-01
-2.667988653383710496e-01
7.057562539623128683e-02
3.563850957240426442e-01
8.396645407971110343e-04
-9.664273229123696018e-02
-4.806718385041789943e-01
-1.766757267313661672e-01
-2.317342896003082853e-02
-1.863990516006286124e-01
1.175474827439860759e-01
4.878541908118060877e-01
6.767626106987827128e-02
-4.818650115052469131e-03
2.455338919317488489e-01
-1.970800795292670937e-01
4.447061207302291375e-02
2.192342407022689413e-02
2.548498989672338677e-01
-3.794019338733924940e-01
3.119769510715477145e-01
-7.140574623992427261e-01
-4.517021247855995680e-01
3.763371656613977434e-01
8.901948936896136866e-03
-2.054040293622741153e-01
1.188925527603475613e-01
9.171711812953989296e-02
1.025906343779973556e-01
7.559418130431902472e-02
-9.300468526431499017e-02
7.817988339256859431e-01
7.959475784845242152e-02
3.675988931513085034e-01
2.601899479357649425e-01
1.699439956472790225e-01
-1.203750078666077916e-01
-5.894641364848297177e-02
-3.911800912012856624e-01
5.536878750714686603e-01
-3.303288345112104230e-01
-7.190585679001987307e-02
1.979890819884295439e-01
-1.475406547031241633e-01
2.665924571121540132e-01
2.801441335715475489e-01
1.577716900030731451e-01
7.295047352839468813e-01
-7.730879794389079740e-02
-2.647072859016500468e-01
1.777248163025639816e-01
-2.815157814257224222e-01
-2.045747383573427725e-01
-1.090055716755969489e-01
-2.261433916099978014e-02
4.944589958163378984e-01
1.951588705423194792e-01
4.169061046184263652e-01
4.145159614047980723e-01
-6.030390842147467789e-02
-5.298289836194750579e-01
1.690564569212469823e-02
1.360780235347238132e-01
-2.261708011514591832e-01
9.667063189133766332e-02
3.930884945849258405e-01
6.566850081018127394e-02
2.915850567157869389e-01
8.980485871767836248e-02
-1.470176415046947904e-01
9.844869726107549623e-02
-3.107015782148206395e-01
-1.698895558843701303e-01
9.845152428346176654e-02
-7.685992786503201279e-02
-4.203647699935355586e-01
5.781025198241811214e-02
-5.258661174765160151e-01
-2.473337528010601249e-01
9.656411836915286540e-02
3.413271366331339096e-01
1.753555905765322165e-01
1.819145005989125097e-01
-1.986171033838806943e-01
-2.584602795870852288e-01
-5.077870650869281688e-01
-3.411854142842308396e-02
1.455166584340692737e-01
2.297461241221251393e-01
-1.920286667641241674e-01
-1.562412198901030197e-02
-3.151216013996799292e-01
-9.482269839352218399e-02
2.001546942600231915e-01
-2.408078295062389684e-01
1.123603602487624059e-01
-8.819246260691684935e-02
-1.756907249582627117e-01
2.176948892670856339e-01
-3.279307754676305531e-01
1.699165835387041468e-01
-1.590428244733969529e-02
-3.930663254564621401e-01
2.583805314214411217e-02
1.628593280455790382e-01
-1.424955913668248843e-02
2.783239069080480355e-01
4.772935571338748732e-03
2.514088011705866710e-01
-8.246242114705480686e-02
-4.380656650192553125e-01
5.214288141496034035e-01
8.145384802959731996e-02
-1.977113541206047542e-01
5.049672906148179319e-01
-2.650237130603218250e-02
2.163648671541901769e-01
-3.902185068917780886e-02
-4.696863523975937649e-01
2.896384786591684746e-01
-5.049746524960380123e-01
-1.095454915158609460e-01
-1.654334080451587974e-01
-2.000257386655667283e-02
-8.648198099944083561e-03
5.323539531130943442e-02
-8.021220283277041840e-02
6.136256804950925015e-02
-4.753154900394199744e-01
-1.618506093376410049e-01
3.755001133196987639e-02
-3.401681703613537167e-01
1.154240117681442634e-01
-7.315685263329788079e-02
1.799178365908993826e-01
-3.298069020659580297e-01
2.059408867233413973e-02
4.966045010802665194e-02
1.583272740001057943e-01
-3.695929850288520724e-01
-2.049271186456808891e-01
-5.219982862448318411e-02
-1.118486969135280562e-01
-5.014890943006744539e-01
-1.141954588070201448e-01
4.964836008573877968e-02
3.343267334541222824e-01
8.768184670717747015e-03
-1.319076900690888676e-01
1.707062800744716669e-01
2.424954549228998668e-01
-2.638092977468484146e-01
-1.770165585133060340e-02
-9.396246234152179008e-03
-2.565894217564972449e-02
-1.727107899372625766e-01
-9.166605491861372357e-02
1.465961757301433577e-01
-3.231707265035574372e-02
-2.181272631801098871e-01
4.365355469613791950e-01
-2.246654807295872247e-01
-3.461876220184588737e-01
9.145459362046697016e-02
-2.480758869581758397e-01
-7.368069725799826497e-02
-1.022391155535619101e-01
-3.428924370447448272e-02
1.172199702819492068e-01
2.583595021951499149e-01
-7.882369704227644436e-02
2.137047505792611102e-01
-1.730517418712528566e-01
1.822959195930964615e-01
-2.020645501673336286e-01
-1.854847481464745595e-01
-2.372224408171272614e-01
-7.281793739042355385e-02
-1.820661003372588960e-01
-1.260866315597533593e-01
-1.706471042790304593e-01
-1.723541974686652878e-01
3.169795629507945328e-02
-1.880356973407159779e-02
-2.568873260699018890e-01
-3.259920098274987632e-01
4.126266216875518755e-01
1.843968912337604904e-01
-8.995787279397550115e-03
1.792080055250487303e-01
-1.607366120802693477e-01
4.536591383857356830e-01
6.721677574115030029e-02
-4.662176517001430653e-01
-8.104118219708963955e-02
3.048222354526006553e-02
3.876829006190788407e-01
6.206063810264283997e-01
-6.587954916867069799e-02
1.036943039071767381e-01
-5.712190123161153821e-02
1.205232992162737632e-01
9.382184031483523090e-02
-2.288010962948504867e-01
-5.845244697239489196e-02
-3.758362400918826562e-01
-2.810667987223088859e-01
-7.278676506150091874e-02
2.214195557336698650e-01
-2.925708729502374816e-01
-1.502652296456433688e-02
6.662559415789681694e-01
-8.423444659407107460e-02
5.188705703937557950e-02
2.171528613995250268e-01
-1.414834629640359664e-01
-3.338646019434619167e-02
7.024995225638924756e-02
-1.807677358182395722e-01
-6.638717275594800682e-02
3.604175652976600568e-04
3.551618605328379363e-01
-1.524635305608816882e-01
8.187677673553514501e-02
-1.917366524490637658e-01
-1.364703290411280190e-01
-9.865667767369808161e-02
1.700205034913610247e-01
1.479404872465310827e-01
1.663902131218398042e-02
-1.013113785770168723e-01
1.369352173032107878e-01
-8.673235703536864849e-02
2.351441524340874278e-01
1.255477127557733663e-01
-6.778588681730830789e-02
-3.870091538679754778e-02
-2.650258821348745464e-01
2.811941611157771082e-01
1.752216414824612697e-02
1.923166414769407750e-01
-3.547379526342292477e-01
2.531085785337282984e-02
-9.458951301662539557e-02
-8.119441249080070477e-01
-2.222069519178445640e-01
-6.108862877925487211e-01
-1.106688265937760957e-01
6.561085085916850135e-01
-5.015626680271238237e-03
1.096282602208149826e-01
-5.094016797937507557e-03
8.692474971803473838e-02
-1.165979446154808696e-01
-2.709937576404374271e-01
-1.938374710630034470e-01
5.245880127281585259e-02
1.268758287829002129e-01
-9.317299446832363885e-02
-2.022882481563741397e-01
-3.061090052075128853e-01
5.401889046164174424e-01
-1.291032137223222243e-01
-1.399125678637977432e-02
-1.130604720970641991e-01
3.594645132863159565e-01
-2.537631609384166098e-01
3.561590522819017557e-01
1.321780573105833523e-01
-2.323164954389591100e-02
-9.186966516857128506e-02
1.976337473773757680e-01
-3.487701744116687985e-01
-3.002348285585540802e-02
-3.106394019294275166e-01
4.350305219823525499e-02
-8.571423629379712472e-02
-1.221757154866940503e-01
-1.291183093953837679e-01
-1.753413996252047372e-02
1.683573343232472874e-01
-3.018462657973802754e-01
-1.425646160511449267e-01
-8.138809669453107853e-02
5.262952298929521877e-01
1.025535732128903810e-01
3.788576216952279085e-01
-2.771156650034476421e-01
2.546507605559067966e-01
-3.963238469196703889e-02
-5.228416798058033860e-02
-3.580041712807328635e-01
5.215799373349612467e-02
2.810371488073653001e-01
5.921219080582778016e-01
2.473766362817866327e-01
-3.205770486083593662e-02
1.474507053241510546e-01
1.313612184674159411e-01
-1.360852060224293780e-01
-9.810618617771129507e-03
2.554109120875728278e-01
3.192863381853200400e-02
-7.235608931783334974e-01
2.007564783583918044e-01
-2.687844739297441388e-01
1.228002798131660328e-01
-1.534986924109148498e-01
-4.276471505256773664e-01
2.772216516421425192e-01
2.690975294497336551e-02
-1.798664010524273771e-01
8.295824467923124113e-02
-6.070063216586011334e-01
5.948623673624431341e-02
-2.104304949281674275e-01
3.176588449084366550e-01
-2.328270371023273277e-01
-2.574678983407480137e-01
3.213266639931763868e-01
-8.192091412641587869e-03
-4.265444396372459757e-01
7.262677556039098814e-02
4.645403447408518599e-02
-9.289189255027259506e-02
-3.597870048013247501e-01
-1.022822637350544600e-01
-4.569382312012737479e-01
-6.017558009405508113e-01
-2.837304593681455600e-01
-4.068747623773373845e-01
1.521303129260488385e-01
-1.189561771197398116e-01
-2.741548190123993534e-01
3.780803997934286537e-02
-4.408621902024385114e-02
6.143330350325652833e-02
1.490564367020853764e-01
-6.713305953114092617e-01
-2.093141366141625659e-01
-2.944443210243327669e-01
-6.011692144926686909e-01
-5.327290592745689835e-02
3.787457418855690316e-01
-3.219479328365119630e-01
2.656789141003081944e-01
4.320646785487240460e-01
1.902865202115192889e-01
-1.707932477130378601e-01
-7.984121168383490064e-02
5.041797112926027502e-01
-2.151366809930072566e-01
-9.977592348712056858e-02
-1.140732154575771762e-01
1.493852063931877701e-02
3.229382330090626030e-01
3.128751396749601676e-02
-4.584992943447725733e-02
2.322191875638759256e-02
-2.176863468198891594e-01
6.313262839057923181e-02
3.636417247428176402e-01
4.094439969536527446e-01
-3.783466017632762246e-01
3.624727068614914671e-01
8.635350717206538573e-02
1.683564419542454282e-01
-2.591530571798729143e-01
-6.285352801872293171e-02
1.105930473113973939e-01
1.465210699665974239e-02
3.318059973042176980e-02
4.740002079988191452e-01
8.860208903400909608e-02
1.470639992224180292e-01
-2.228392019312130656e-01
9.620823483639727447e-02
1.606498359779284513e-01
-4.614099527734651790e-02
2.699279504425342729e-02
-1.307107491390673837e-01
-3.286067520388141205e-01
2.133320097635164891e-01
4.801774266973581895e-01
5.743790196677169696e-02
-3.211905822355743539e-02
2.054869581269080647e-01
6.973602314028506388e-01
1.666344128827960125e-01
-5.172366444066546845e-03
-5.034623048674087276e-01
1.660720368131345798e-02
-1.383556877819946684e-01
2.022073107864223174e-01
1.439883815381302612e-01
-4.704089906480364569e-02
-7.505049507715186308e-02
-2.985973562979215012e-01
-4.752370735130763690e-01
1.271548634174962389e-01
-3.015769274510044506e-01
-1.467068347789637905e-01
1.034151064603428122e-01
-1.621730836735731651e-01
4.083672794040730386e-02
9.007560104387331290e-02
-1.754367919686737956e-02
-1.565109156532588364e-01
-1.774894760791565496e-01
-9.500077370982305813e-02
2.669771831093767367e-01
4.403355548367727246e-01
-3.358241451857466586e-01
-2.006907170407004337e-01
-4.654011687328192190e-03
2.762347530162135301e-01
-1.961770989157926026e-01
2.617817589317694149e-01
1.044447153869618727e-01
-3.502686040339315077e-01
-4.698511196552860453e-02
2.591906923052873790e-02
3.553524658343209519e-01
-1.561213342958143457e-01
-2.225648850505075049e-01
2.048856882957372227e-01
-3.079550523474716139e-01
1.880103432129460739e-01
-5.338652204273854895e-01
-4.149784388395829637e-01
-5.511358573758703278e-02
8.215573701380676080e-03
-2.433109348290363530e-02
-1.048453111483130529e-01
-1.833805749641038429e-01
2.478619568191134936e-01
1.699554900436260063e-01
8.686655128037937268e-02
-1.985750434415707033e-01
1.648198007078943983e-01
-3.638760012124356985e-02
-1.966011927622296485e-02
-2.323023390321810322e-01
-1.559468362057255253e-01
6.048862827532153208e-01
-2.922454487564547509e-01
-2.661782943230595055e-01
-2.054084364376220218e-01
-2.523369813589907418e-01
-3.284143716285634063e-01
2.347277189968686728e-01
6.162390828421442784e-02
1.683727311543596061e-01
-3.422641760413067114e-02
7.556813568021822358e-02
-3.136249421480119537e-02
1.283156746253911462e-01
2.015727539710416294e-01
-3.832349415636254752e-02
-3.899043949567499584e-02
-2.676490416525423854e-01
1.501861504847967210e-01
2.001366531139506522e-01
-1.138734930562787101e-01
-2.935731965372755381e-01
7.872164873221057513e-02
1.545007154451625564e-01
4.998952157250870498e-01
-4.828184129568199173e-03
-5.235785769286341318e-02
-3.343957914544586352e-01
-1.086070597328324394e-01
3.198142284183629891e-01
-7.196569135658834049e-02
-2.411776954622361635e-01
2.540767843560675088e-01
-7.099769767988835245e-02
-1.526948415403379111e-01
6.561967680535904512e-02
-1.511498541770883719e-01
-3.828210914422722211e-02
-5.789988696684036235e-02
-2.145853256121267039e-01
-4.579985289890556865e-01
-2.843881329139747449e-01
2.064964575994701623e-01
-1.665110184739108934e-01
-4.492428444962647677e-02
1.325105424311555646e-01
7.255548097466205104e-02
9.819147497998421958e-02
-2.256823015821297906e-02
-1.224652203108221316e-01
5.061988615417689630e-02
4.893250561398863052e-01
4.520079804292442133e-02
1.178617267040212024e-01
1.378389681468709660e-01
2.422347396554171833e-02
2.395319900882569852e-01
-1.395195446804964878e-01
-1.840272456484621788e-01
9.287053136012053678e-02
1.590926926983165790e-01
-2.521879412349269378e-01
-5.242096511031456990e-02
-1.930222082408726003e-01
2.321553224866895193e-01
4.182938205166122914e-01
-2.816898985662470434e-01
-1.716816145482227829e-01
1.241392117563571845e-01
1.400228254431311326e-01
-1.584017289650307275e-02
1.766808521725911074e-01
1.709853770878944079e-01
-2.655708616608087325e-01
-4.842150500596104634e-01
2.667188585178927873e-01
1.212300966234822613e-01
-1.890429037800730461e-01
4.291362174640980798e-01
3.217612557543625407e-01
-1.448400019204703904e-01
1.652476258012541277e-01
-7.810644053948634369e-02
4.456347144288724249e-01
2.622234783427674909e-01
-1.963424033700745253e-01
2.744875650447438087e-01
-4.802340270066076111e-01
4.771685724927360317e-02
-1.998211449652440297e-01
8.365286417746152503e-02
3.606834848891760092e-02
-1.772775161661533649e-01
1.080871562911457640e-01
2.152361919284322134e-01
-2.109706324823613921e-01
4.063879071467630943e-01
8.516115010256702922e-02
-4.675272022738902883e-02
1.802803847494563183e-01
-3.116519084647825233e-01
-3.332143135973262837e-01
1.355213386019610555e-01
-2.147043230445579987e-01
-1.482397666891441534e-01
1.280725724203490290e-01
2.445305217540433979e-02
8.333634914774802616e-02
3.649491729503628878e-01
-2.678248742153827577e-01
3.689535823618894650e-01
1.353393406065382387e-01
-2.147743934316983794e-01
6.044344606324462965e-02
5.356271766558777514e-02
5.416732465672021574e-02
1.312676293363624069e-01
-1.916921165370112368e-01
2.411618965785248259e-01
6.327075031737976196e-02
-1.302280893496928493e-01
-1.266821920932511281e-01
3.336781835870358814e-02
-2.054052594583084465e-02
-5.562352203454820274e-03
7.949027250399609557e-02
2.489055139363789693e-01
-8.953642448801731046e-02
-9.891865536775465428e-02
1.010520389178326817e-01
-5.503877480717906528e-02
3.201029100620566004e-01
-2.149056780749223072e-01
6.527227296187900762e-01
-1.246679417653345223e-01
2.578788408571068280e-01
-7.232531451882071027e-02
2.256758198301306029e-01
9.969919932352880321e-02
2.045065888509680907e-01
2.821761425959531250e-02
2.424557663113183770e-01
1.319773181570835403e-02
2.862255792894264905e-01
-1.101694299202691241e-01
2.297748447929291171e-01
-7.161273824172137425e-02
-1.877308640421816999e-01
8.864381900222717547e-02
3.030165504995360193e-01
2.938250053695847797e-01
-1.931171310680346864e-01
-5.798823257841011908e-02
-2.642058856604664538e-02
1.758849649429204409e-01
-3.401058674584597208e-01
1.471958329523570530e-01
-1.192483718947263821e-01
2.165814875449334834e-02
-3.757053269748467650e-01
-2.968377599656088495e-01
5.579982694886135297e-01
7.185809834196880963e-02
1.667028407912260757e-01
-1.042830450768506695e-01
-7.778286109505422319e-02
-6.589525948866764571e-02
2.996717137197413977e-02
-1.452339119375615217e-01
-1.765423926967363555e-01
-3.155166676092339695e-01
-1.464859933250433621e-01
1.271948698370133635e-01
3.612833989990971717e-01
6.378636463499495757e-02
-1.435063296978707492e-01
-3.869195190419883468e-01
-9.184501676154326055e-02
-1.165887856181023752e-01
2.013557254943492691e-01
1.629477642170664986e-01
2.989428437402846805e-01
1.670516985477618344e-01
-4.893452317159840970e-01
9.102209803063503191e-02
4.451336414602913849e-01
-2.081359637207973734e-01
-2.158104032961848662e-01
-6.863748727196007648e-02
-8.875634847062301158e-02
4.710974108852011150e-02
3.932385869950977275e-02
-9.664527671560856070e-02
-9.264047235895549182e-02
-1.859224730269627424e-01
3.357524181331717622e-02
1.755113369627294140e-01
4.294001290369394569e-02
1.772738549398475971e-01
3.431466683996897953e-03
-6.661517109364853417e-02
5.866370055019987789e-02
-2.164269235736891034e-02
-7.798460380684457682e-02
3.464571986344538307e-02
7.571104988863920637e-02
7.999114149814355590e-02
-4.937842714480977779e-02
-1.007480011756634215e-02
6.854290061061400763e-02
1.536136937145320645e-02
-2.670280160852459700e-02
-1.931688312876337146e-02
4.295719786345982005e-02
2.142856694979776710e-01
-3.257316075696578550e-01
-4.649722621980332260e-01
9.958912850379442183e-02
-3.092365273347925103e-01
-8.501475640317963933e-02
-2.752754206585815155e-01
7.180147306652260308e-01
-9.344080099350170199e-02
5.446220876147217504e-01
6.353888098019194741e-02
3.989774655743947296e-01
-1.053512235389920948e-01
2.143252523165960488e-01
-2.525372425864051973e-01
3.389349602218306168e-01
1.260600065437165462e-01
2.395653186806214474e-01
3.789696023713325923e-01
1.709154097724296384e-01
3.679732405478532142e-02
