-2.286323716386820415e+00
-6.213116122764121840e-01
4.324779039593754093e-01
4.844580316762276406e-01
7.462158575361882429e-01
9.649904988797299021e-02
3.183562481583471770e-01
-1.241828983622087712e+00
-1.897908451519972062e-01
6.278866907907730832e-01
3.752888223816080449e-01
-3.073897346986735890e-01
-2.294053364570607378e-01
-7.395669847738065572e-01
1.285166538747405385e-01
-4.386888569054237519e-01
-1.320361012366119691e-01
9.064251901654485355e-02
8.814999783139114697e-01
6.889322750091242398e-01
2.293792645663530749e-01
-1.012222514447148392e+00
-1.386285081624694993e+00
1.123695639255329448e+00
-3.014544619938219205e-01
-1.024526660737104855e+00
5.325118065887655128e-01
-9.293552477436223258e-01
-1.693783322425969518e+00
5.475424336716309126e-01
7.496810813440865084e-01
-7.486929716136210278e-01
-3.440230922736886576e-01
1.223982606831946596e+00
1.344223021537236828e+00
-3.671234693275536309e-01
7.456514764529518224e-01
-5.927197334831527664e-01
4.643112073431855391e-01
-4.226462564978343828e-01
2.628147870628008587e+00
2.969212502225194172e-01
-5.845617354400136495e-02
-1.305234664403036315e-01
1.795954716339927537e-01
-2.400449717145261008e-01
-1.085142198611952769e-01
6.502114465310961933e-01
4.820289173880952793e-01
2.841267818693542918e-02
-5.618440372799387017e-01
7.180998570471623932e-01
-2.126970480541514122e-02
7.981783281633525462e-01
-2.983531805029689399e-01
2.601809815382118973e-01
-5.732330153760556435e-01
-1.285425541689018923e-04
3.048975254238006638e-01
-4.214506164466034766e-01
1.315418368257404158e-01
5.797667826346555309e-01
-5.287220513219916818e-01
1.056864537632461049e-01
-6.197909035647755083e-01
7.026005399160152320e-01
5.267977895074336114e-01
-1.673237700493482027e-01
-1.333119014583316331e-01
-3.021037200825351099e-01
5.032961395731898602e-01
-5.079537395960599389e-01
3.230571394953835052e-01
-5.551123746430584698e-03
1.845132537743757462e-01
-4.817081406473951999e-01
-6.957728731679878598e-01
-9.278325965015597754e-02
-2.989380769772172486e-01
7.375579106456351397e-01
-2.459521833966225035e-01
-3.191884220884554368e-01
7.960954098754689789e-02
2.028572924984170245e-01
-3.454410063303427897e-02
3.412110279927518808e-01
-1.292900287502708745e-01
3.044416835336599680e-01
6.853055603798119400e-01
-3.996643730346075007e-01
2.717436232916811134e-01
-3.945351340883209157e-01
-2.758588256902810842e-01
9.780668836374604991e-02
-3.719190247774195601e-01
1.199561943463266916e-01
1.342335809994835670e-02
1.317962850635653327e-01
-2.138997402824013294e-01
9.291016446410640395e-01
9.867494726877627798e-02
-6.937504077374772038e-01
5.377960032233387588e-01
-8.376052142245181409e-02
1.365267942721131722e-01
-4.863274874165363637e-01
6.739600130359690161e-03
1.035092800616830150e-01
4.256578969304711940e-02
1.747658617632567579e-01
-5.055297430725832486e-01
-1.150529008153686195e-02
-5.251591653745930621e-01
5.281423326707685995e-01
-1.304328435664920127e-01
1.139796654605847309e-01
-1.226636031567562152e-01
5.585909483664430741e-01
1.260387033217296726e-01
4.962524583100317299e-01
-4.458000051387855378e-01
5.824012217048520901e-01
2.687902597765883805e-01
-4.468510031657204062e-01
2.661181068420215290e-01
3.801269424553269799e-02
3.553580742125797554e-02
1.894221118991681607e-01
-7.776986799951789431e-01
7.575803741844309158e-01
1.139060414864728477e-01
3.757563313182681330e-01
3.469951992607485658e-01
-4.160840116004277944e-01
9.449299328721220970e-02
-1.099847515376647655e-01
3.343155978061221889e-01
-5.629063240550484515e-02
7.496814613647365677e-01
-1.360156149969481643e+00
-8.104191701519666835e-02
-5.130395835477696842e-02
1.470233661959858065e-02
-3.342935710883001010e-01
-3.853836695260802470e-02
-5.242147193557993301e-01
-3.811102983465523564e-01
-4.712030184158798318e-02
-8.159258006978513389e-02
8.794081526633602541e-01
-5.181303821805858245e-01
2.071984012331368197e-01
-4.068397436452086957e-01
-5.159276994262192856e-02
2.642822891511207306e-01
1.039229358374197248e-01
-5.606715725585694615e-02
-2.793982160285115035e-01
-4.819290161247416493e-01
1.400010437917427464e-01
3.555445920228578194e-01
-2.087433872512058086e-01
4.313823321867251703e-01
-2.550952333449076348e-01
3.300060477888033250e-01
-4.749994003733875036e-01
-5.198619241799289359e-01
-5.376986675494785373e-03
4.849653025573733567e-01
-5.225899029409744601e-02
-2.131933280374994355e-01
1.432567430110333051e-01
-7.400252632804410480e-01
2.908974563424161497e-01
-1.406538983549264765e-01
1.895221433836812575e-01
-2.442712080425248344e-01
-3.768094001384102859e-02
-2.723511147926939713e-01
3.831147443206373571e-01
2.310462008654692589e-01
3.133733397557205147e-01
-5.351622203224181556e-02
-4.166480983316821207e-02
-6.630932110677326685e-01
1.795025618439472226e-01
3.068931174951213259e-01
-6.787329185053946057e-02
-2.957850489023953755e-01
3.029167405875685115e-01
-3.204187877244676214e-02
-2.097807817569958266e-01
-1.309587483840117805e-01
-3.871932604894808699e-02
8.578318148951612210e-02
-8.389690060956832285e-02
3.456697457619279379e-01
3.806480553006926781e-01
6.642532927269524656e-02
-3.624970966765607705e-01
2.492255518363711564e-01
-3.248110808775956371e-01
3.916311275938155756e-01
5.560154860410981836e-01
-4.633743342475239724e-02
4.646948006706693723e-01
-5.060967882373583471e-02
-6.307705778976974154e-02
-7.899552898529109413e-02
-7.595998903766149057e-01
3.330625210757839350e-01
-2.458829139694217181e-01
1.533721949916053706e-01
-8.472704979287846994e-02
3.765044938091163251e-01
-3.214270008034557091e-01
-1.423217149856600972e-01
3.646012194136182081e-03
-1.820667090100298036e-01
7.704086104787597478e-01
1.510262903883391288e-02
-8.096272442226740695e-01
3.725320050226649249e-01
2.743395790056159852e-03
3.602160745556454158e-01
-1.907118647732255201e-01
-5.194584754207023369e-01
3.197036023589055337e-02
4.699586677488320485e-01
-2.765311116026950566e-01
-3.107836826703359034e-01
-1.610862521089407307e-01
-8.044960297603799271e-01
3.718505910817344606e-01
2.381367578097974835e-01
-2.530628310486892074e-01
-2.690131159138930417e-01
-1.094661326427850412e-01
-3.557593313201371510e-01
1.001667361004057399e+00
-6.154610840818644513e-02
2.301880626734508495e-01
-7.085523197747257973e-02
-2.998530455417235396e-01
-1.844831234334325942e-01
-7.418078406627734434e-02
2.568804533874715079e-01
1.165843019912657930e-01
-1.639180602395427511e-01
4.659088982610945506e-01
-1.711320859286708240e-01
-2.955979451174070016e-01
3.530420078741933754e-01
-4.973531972605899631e-01
-3.660624720668956278e-01
2.464304799324577300e-01
1.472520852462182728e-01
-2.340748512326056366e-02
3.821293241193474133e-01
-9.354517166430844632e-01
1.086679794878619570e-01
1.634638413376812427e-01
-7.072246139584242516e-03
-3.741321373095472802e-02
3.983255640664245395e-02
1.427284068432791431e-01
2.451719845137977083e-01
8.267007493410674646e-02
-1.639528169344527664e-01
3.939114635485909122e-01
7.877399925471381681e-02
4.045139191418355429e-01
1.570537628821181420e-01
7.328082639489217308e-03
-6.186648528042511253e-02
4.173823678203866100e-02
-1.710188935876673366e-01
3.892131498693142677e-01
2.123550611840666347e-01
-5.619234139729968325e-01
1.051441860566490749e-01
-5.618746709389341731e-01
3.405518968379617761e-01
8.853312347497688251e-02
-1.148042949306401078e-01
-3.989331075025827067e-01
-2.346947943045367690e-01
-1.017711896807190625e-01
3.426765476660557641e-01
-3.722713423465097149e-01
-4.141542909036580178e-01
-2.189257849158778024e-01
-2.205166096974922607e-01
6.092716908240851659e-01
-3.361189675423464363e-01
4.292360665323401436e-01
-1.830876968760109524e-01
-1.157147408581278569e-01
-2.407519146839510182e-01
-3.532337047118094993e-03
4.556812621717661327e-01
-2.279582983774929017e-01
2.519881837785343248e-01
2.259434967187472221e-01
1.824696863895138854e-01
-8.254755246528144852e-02
4.278494657104437993e-01
6.922682283794365232e-02
-3.648631496107496153e-01
1.523747619878069726e-01
1.612234729728927451e-01
-8.113982384243380308e-02
-2.245225983634025479e-01
-1.630176438251251803e-01
-2.889174876086876287e-01
2.191035095705390068e-01
-1.070201114588919949e-01
-1.232660670263085873e-01
2.020641507477390422e-02
-9.148547232748635571e-02
-2.141865291574966690e-02
7.688448665427427553e-01
-4.034363909991266484e-01
3.225074338177120192e-01
-6.462618323951897781e-02
9.285660051085217193e-01
8.880740087690683904e-01
-1.963143368669084954e-01
-5.515280806816448278e-01
-2.637837760247844776e-01
4.294191721573318299e-01
-3.562222941409368127e-01
8.804424510226158684e-01
-2.548365317324238211e-01
9.373533947223115781e-02
-5.149018270230619754e-01
-2.033280015192297785e-01
-7.308359135649532268e-02
-1.835401975246046258e-01
-4.142370446441321907e-01
-4.176744328244625937e-01
5.682774499331026963e-01
3.271661682231730151e-01
-2.116411577444777259e-01
-1.637800284966505759e-01
8.458391397555482527e-01
4.590803135389075473e-01
2.575572935969275834e-01
-3.774071502120299182e-01
7.304445516497004576e-02
-6.552359751924052844e-02
2.645315556536836574e-02
1.648643653281736399e-01
-1.628976592798855316e-01
4.571753991124234001e-02
5.568455323331111123e-02
-8.681637124417791729e-02
8.494556587904390776e-02
4.655283695743397954e-01
-8.760506584601406299e-01
-4.921027456568098923e-01
1.495744495448901035e-01
-3.550369391339928266e-02
-8.378433998798799631e-02
1.256042592900054322e-01
-3.717210186356299517e-01
3.107076345563578590e-01
2.187327210491878948e-01
-3.587758797069238725e-01
4.214601637382500154e-01
-2.146674449335647383e-01
4.490435387701392778e-02
1.308334592567318988e-01
1.568044880499694649e-01
-2.431365557239077019e-02
4.002215190354920238e-01
-1.858448745625458920e-01
-1.224491700864660387e-01
1.020083847939298044e-01
4.620071816906703988e-02
7.572261065394657320e-02
2.467411587416387386e-01
-3.955000143075014796e-01
-8.979344797015338664e-02
1.813361084779412935e-01
5.168262288262703841e-01
2.886405632927226406e-01
2.087096603476449042e-01
4.701679529584590900e-01
-9.478825631362501614e-02
2.883689607807883859e-01
1.086098634344683372e-01
3.035321325967121342e-01
1.611603729836247889e-01
4.910865849695120189e-02
-2.420129814310573169e-02
2.748179237169669498e-01
8.314545866610834057e-02
1.958527079437401008e-01
-2.472383797823973772e-01
4.325214958589037040e-01
-4.185426326597980196e-01
2.596797537804672595e-01
1.581936511312889426e-01
-4.793655944484628839e-02
1.882136430714668185e-01
-1.813054964021823257e-01
-2.130755026059988344e-01
8.047153765963198646e-01
-2.834492272317062356e-01
1.853913521731613279e-01
-4.739469844555709854e-01
-1.809834252182741798e-01
3.453569483517167638e-01
-1.240074245177154311e-01
-3.617734000503897707e-01
1.314075879358339305e-01
4.033658218362796144e-01
-5.772787562716157755e-02
5.129458083462086204e-01
-3.864806080068132199e-01
3.924651341153313489e-01
2.166317408170977121e-01
-2.165628071921715803e-02
-1.289557531290357051e-01
2.518034465160832509e-05
-1.894427278794562075e-01
-1.997680166251410844e-02
-7.216662783041635221e-01
5.387738212469308507e-01
7.977588278009604961e-02
3.387470625277744785e-01
1.863294491441486178e-01
-3.929512771068300880e-01
4.972308501015266363e-02
1.856480003014766844e-01
-6.503346425864246771e-02
3.021215832369319315e-02
-2.738919457872963092e-01
-4.205794068007055464e-01
5.934918539522884839e-02
-4.141000563531271328e-01
4.120306851271294257e-01
-8.392288492630828323e-02
3.121979077308703054e-01
-5.021274356035329012e-01
-2.691176318645931986e-01
-2.802736436958991884e-01
5.382065621195973593e-02
3.749919207177959124e-01
-2.336157574749590793e-01
-5.580662304744474916e-02
-4.223853826770412323e-01
1.454391415329531756e-01
-3.102422847369639136e-01
1.668517707611778811e-02
8.756211136393118877e-03
3.076046547610026410e-02
-4.542868967249849566e-01
6.662622929427742813e-01
-4.133071984900510421e-01
-2.063975436167623523e-01
-1.088851458271280048e+00
8.076256542708409869e-02
-2.031020406621076024e-01
2.596312303624075946e-01
1.283071403423501067e-01
1.039916403595604055e-01
-8.695983122425029466e-01
-8.670253617124346057e-01
-8.972194642904107731e-02
-6.062024998746706750e-01
-2.064128664025890458e-01
1.724352578421080862e-01
-1.273672379060117599e-01
1.542629316222556835e-01
-6.987329142444363983e-01
-2.938104745603221588e-02
-8.167249703303687269e-01
-2.554476493226566849e-02
-1.748867773973634132e-01
2.710974154596906827e-01
1.332215247129096558e-01
1.376357602911297551e-01
-4.081293720056930474e-02
1.351646742723161543e-01
-9.619747259479027868e-02
2.393554952858798490e-01
-2.720751644641627442e-01
-1.965848423719659677e-01
-1.119269824497590021e-01
-1.914585365796742100e-01
-8.384417271584504450e-02
-7.898115189480796328e-02
-3.122517245117317417e-02
4.424708980597104602e-01
5.617220488843461812e-01
-1.260945846228434530e-01
4.130997352112173587e-03
4.448971843001861548e-01
-5.014767419816530403e-01
4.418746024089272306e-01
-2.379582598977278696e-01
9.522233673478106564e-01
-2.106645636105136943e-01
-6.919435499725300198e-02
3.664141571811601050e-01
-5.095821797186742691e-02
-6.114141461945235001e-01
-1.902354980728777900e-01
4.248418863842395310e-01
8.492651377291533799e-02
-3.792449436937365692e-01
1.999511549086627205e-01
6.661296631728036433e-01
-1.367921849049421289e-02
6.185579517928768700e-01
-1.925680244400472252e-01
7.341169105082377688e-02
-2.702726635099275687e-01
1.054176828879152678e-01
-2.314007663507869073e-01
-1.079463295834289654e-01
-1.267600049848781052e-01
8.673060852017189237e-01
-6.735743152553634872e-01
4.238038148946928763e-01
4.426266747102710619e-01
3.385337501712361030e-01
9.834377665084574616e-02
-1.925465266935747211e-01
2.459048701000141057e-01
-1.314711794437225523e-01
1.983205693036455275e-01
4.245924788987586185e-01
2.078819769953733354e-01
-6.884745841259398702e-02
1.114846745722683219e-01
2.034208027676604191e-01
-2.973849409166705593e-01
-2.317250610128354371e-01
-3.261754706241287022e-02
8.763614574169080462e-02
-3.700114360769812816e-01
2.276043788253249642e-02
7.565284140118341827e-02
-4.015594175291950507e-02
-2.953032048444118596e-01
-3.304899281843224901e-01
-4.039835288893979248e-01
-2.569404904119044694e-02
-4.502333391475274449e-01
1.157134140475724327e-01
-3.724507065794727678e-01
1.798788575219422703e-01
2.227691786600766166e-01
4.045304152371104883e-02
-1.958759331369703052e-02
-1.135764937718131695e-01
7.639090706647592988e-02
-6.152438218669820796e-02
-1.844247989343064387e-01
-3.057322716002982763e-02
3.482936328452556629e-01
5.351609173963252086e-01
-4.134924775512769379e-01
4.530961566850860156e-01
1.034032172663964209e-02
3.920820215621416138e-01
3.730939875637202530e-01
1.039148147637320441e-01
-6.234112648075985641e-01
5.937117227883199899e-02
3.337765817577731386e-01
-1.686515553474989826e-01
-7.798231441324751656e-02
-7.273924984968170582e-02
-2.161764552596555367e-02
1.049136014503730258e-01
4.153593840939772547e-02
-2.208873221965290679e-01
8.968999033596458670e-01
2.587953690409591223e-01
-9.013039134318913403e-02
3.730491015222874851e-01
-2.744687701391068102e-01
-2.483489367170389484e-01
-4.122813849248241347e-01
-1.214735908142103193e+00
-4.288402941272048685e-01
3.301838300131528792e-01
6.023625731595412258e-01
-3.084394880068782041e-01
5.247232921354067804e-03
3.322845249086993080e-01
-3.767714485531103996e-01
1.114577316168713778e-01
-3.820439955497262341e-01
-5.285628153802320872e-01
-4.263074201166939386e-02
-2.554735427863089742e-02
2.074920147071343257e-01
4.699512792099960756e-01
2.804382756833950219e-01
-2.696764320106846413e-01
2.874030227679061356e-01
-1.361748850753123907e-01
-1.858306711874527506e-01
-4.846148290729636599e-01
-5.250202252855977747e-01
4.532418159403429070e-01
-7.418336124069997706e-02
-3.491080074224606200e-01
-2.779323515679210654e-01
-2.009842971041666537e-01
-4.759076209502310917e-01
2.227307311885461660e-01
-1.764667140238573295e-01
-2.870517708074109553e-01
-1.669741906293704115e-01
-1.770000744749797295e-02
3.739556483574757451e-01
-1.364637622586681309e-01
1.150695636155004559e-01
-3.733411936326943015e-01
-3.904669180623317193e-02
5.340699145631037092e-01
1.257844393847665498e-01
1.864312809806367710e-01
-9.236706010204921713e-02
1.893310978405058076e-01
-9.341764873237112798e-02
7.914724720529837942e-02
-6.134429389549343747e-02
3.318406308056375265e-01
-2.874227503712993292e-01
8.247408382238177738e-02
-5.853657809106370402e-02
1.199831233293319720e-02
-1.619890576435944196e-01
-1.534721510015500390e-01
-1.456535976137900701e-01
1.471517941725595524e-01
-2.504757088126003950e-01
1.120606342612716355e-01
-1.283927433037964083e-01
-5.873146127647590475e-01
-1.118763181621807018e-01
-5.011709905879008914e-02
-3.796678597726375060e-01
-7.435715089008699819e-01
-2.755578504544660134e-01
-4.186724808647693252e-02
2.071920285095923686e-01
-5.270423513978541585e-01
8.178124198867140482e-01
-4.728913595254184421e-01
1.725762024098101144e-01
3.118884030389189599e-01
7.511539842340837492e-01
1.453254374040250652e-01
2.170290070737746282e-02
-6.706010964309160327e-01
1.131897485455963387e-01
-1.916971502985289622e-01
-4.676228982129414513e-01
3.128517649444513826e-01
2.966892335065708930e-01
5.246650814412593400e-01
5.077547742607605441e-01
1.706181197445078013e-01
-2.440658875793412855e-02
2.331990758505473049e-01
6.293498055288175852e-01
-2.155458341516123810e-01
9.768232730019708876e-02
-1.402243755100423539e-01
-1.961586761418940006e-01
-3.665937975529237614e-02
2.680250586517297570e-02
-1.340971605474312600e-01
1.136282585407113882e-01
3.792188775964561165e-01
-1.408257004337469531e-01
9.937062923562493821e-02
2.923673271587005074e-01
2.325133338481294720e-01
-3.004440629362482504e-02
-2.357851277934125134e-01
-3.853781251557474863e-01
1.036149715207010380e-01
4.867983650237864973e-02
-2.228649213918862115e-01
-4.674451885093469095e-01
-2.869587856274637416e-01
-1.677958390284473855e-01
-3.336139184633180599e-01
2.023402221848493998e-01
1.950839921241178387e-01
8.275348911010592390e-02
1.277369534556822006e-01
8.469355816955333183e-02
-6.934290443787137492e-02
6.574601771035317732e-01
-7.420225344845624016e-02
-3.640705420542770243e-01
1.901148772200082770e-01
3.662669659701080493e-01
1.988200896133852924e-01
3.082570058955426129e-01
-7.798316309316846717e-02
2.383244721695624013e-01
3.336081852511101342e-01
-8.115996335917516347e-02
1.226276607293512733e-01
1.064190268637312392e-01
-2.523111862410213346e-01
3.459966779185922880e-01
9.948788081274993755e-02
9.524765912155384873e-02
-2.751554098672888415e-02
3.261398217018014467e-01
2.835172930578821679e-02
2.257551801809744851e-01
-2.680020668985115817e-01
-1.246542925713640670e-01
2.883890693926597359e-01
1.965461847693910913e-01
-5.834962735672448719e-01
-7.009815485202262452e-04
2.774043248845299292e-01
2.818171329795856050e-01
1.855588912247914113e-01
-2.377727372596889488e-01
5.525376081850433829e-01
-6.420549316205690360e-01
3.629636600062948193e-01
-6.555194323272454104e-01
-3.186463665962204761e-01
-1.157601762065465500e-01
7.483941849891734277e-02
-3.810556615196079577e-01
-1.550830442353955674e-01
-3.330558664866861140e-01
-2.434066048363640877e-01
-1.389707737154269040e-01
-4.287293123743047829e-01
-3.743427195072025065e-02
-1.178387435462091293e-01
1.277688401707607890e-01
-1.630608338559100812e-01
-5.996304523068907155e-01
-1.340005395865001558e-02
2.136914404512760268e-02
-6.696180245108979134e-01
5.349749984126399571e-01
-2.713949420277020907e-01
1.774875514350524597e-01
1.695278469020655154e-01
4.903979515611170958e-01
-4.470341236739552304e-01
-1.425263892285209277e-01
-2.413484306759190387e-02
1.030271135444059960e-01
3.699174914539772319e-01
7.144291890304195480e-02
4.920305792364770142e-02
-2.440069359884201039e-01
-5.780749628474519675e-01
-3.894615731785094903e-01
1.373828906324658650e-01
-1.758477016704328433e-01
-2.302026126209606727e-01
-2.277449493280321036e-01
1.867909666722810877e-02
-7.198858546826658600e-01
-4.541272777462580096e-02
9.307407774643659815e-02
3.473830525111427647e-01
-4.012815354445985472e-01
3.939787559649270410e-01
-5.521578371012895170e-01
-1.912077454753917383e-01
2.165136411430823582e-01
1.136768772331201924e-02
2.116280106490762980e-01
-3.954544699492082427e-01
1.238427454302583504e-02
3.546812213386342783e-01
4.775682343047410461e-01
-4.017830391414350388e-01
-3.575711083118571221e-01
4.656139955021251775e-02
6.669658457533965690e-01
-2.184982246618218105e-01
1.199862396970345496e-01
-2.786777057831466009e-02
1.521189642989200230e-01
-4.609489062802993309e-02
-9.151556623530068824e-02
-2.428342587907209374e-02
4.478597269530950470e-03
9.058711942865574351e-02
-3.664530272584445303e-01
6.899335231224128506e-01
3.311462452896583031e-01
3.412538459149631609e-01
6.864566336014835124e-02
3.828846941091121892e-01
-3.478835684901762648e-01
-4.804237936276478660e-01
2.892098041259726360e-01
3.167670676002678487e-01
1.403383906493626543e-01
-3.152363582543463161e-01
7.028009095145969498e-01
-7.922218680781681344e-02
-2.053979060662268208e-01
1.516558552796082870e-01
6.449161537102182651e-01
-4.667603110945592326e-02
2.363404697171354873e-01
8.916078838691265940e-02
4.755691553126550897e-01
-7.952690462230191729e-03
1.683573982295613891e-01
4.905622871419679232e-01
1.036526611407342507e-01
-1.152558948738230671e-01
2.556133985670427239e-02
5.907032539584428088e-02
3.956445045890503998e-02
-7.339528114895210210e-03
1.168932044259217290e-01
-2.613420221935490173e-01
-1.650506999142783149e-01
3.081372444734428728e-03
-1.118136290676294969e-02
7.477425778163040992e-02
-8.506854760085924561e-02
-2.192372027481980234e-01
4.687526590477295585e-01
3.338456662080489523e-01
4.516826840557167655e-01
-2.387519474804063180e-01
-2.309845010135438137e-01
6.144384231029117460e-01
-2.625489775266247605e-01
-1.341428354644606247e-01
-5.942078130678426356e-02
-5.095803493612196533e-01
-9.726556118542203921e-02
4.213739150855544402e-01
-2.557395004195878174e-01
6.832475605258340190e-01
-6.198821036084544156e-01
1.992543049023309254e-01
1.327026171920965732e-02
-3.195162380816408271e-02
-3.789987514580841488e-01
-5.037502772620555680e-02
1.464743793567267471e-01
-3.916779781290394835e-01
-9.135889248265749440e-01
4.690039027616438871e-01
1.159182852351451215e-01
-1.307544838613706961e+00
-7.311793283151186984e-02
-3.081831004380824468e-01
-9.122686633492942399e-01
-5.940340707606666104e-01
-1.427455351961024188e-01
-2.568652140530716319e-02
-2.975382114361623254e-01
-9.248617106761316542e-01
6.334636209262639595e-01
-3.943781287355699883e-01
-2.855574722942803567e-01
-8.632323976428633860e-02
3.157258070106490067e-01
-3.104603198690980559e-01
5.281873475882017249e-02
1.649244886449520164e-01
6.227942195742343368e-02
-6.926725835750835447e-01
-7.124665518681340404e-02
-3.712613037259190896e-01
-1.445138005797887981e+00
1.782277459802395492e-01
1.530864602379330419e-01
1.241881509618026902e-01
2.051937920231357848e-01
-1.372979876400102217e-01
-4.405025330952545559e-01
-8.489024187429389245e-02
-3.315624464184954712e-01
-1.782667449282776262e-01
-6.002916794908187414e-01
1.030577602262445353e-01
2.750239460633918109e-01
-1.993962513442291418e-01
-1.842035828317593327e-01
-1.259059438497005419e-02
3.014888947120022977e-01
-1.140734849124553779e-01
3.665944706272651898e-01
-3.101986400171526381e-01
1.076726047920060214e-01
-2.326133822491055769e-01
7.465280850562178161e-02
-7.207237942611580128e-02
-1.105283069055432166e-01
2.429048997665499143e-01
2.706870776361476882e-01
-1.912567138710776216e-01
1.746041727724292336e-01
-2.478646322283242776e-01
3.042429971436002023e-01
1.142157390422132157e-01
-4.145014119515944007e-01
-1.034476555064024056e-01
-3.329658416715204905e-01
1.908417718579352995e-01
-1.869420417832243220e-02
-1.759830642425239816e-02
-2.924366970448046277e-01
-2.864046668710380425e-02
-5.417032729027054794e-01
-1.349245071203606650e-01
1.188117765722198349e-01
-9.539415930519787867e-01
7.316009974062825938e-02
3.212323173661835729e-01
-3.986031646926786465e-01
1.411105902619299024e-01
2.476582231137250956e-01
1.226901106534767638e-01
-4.051439316639755539e-01
-3.504357845958814277e-01
-2.411818235970713820e-01
-3.456547629061901966e-02
-2.110815328947805714e-01
-1.163264955699040565e-01
2.090714700440501062e-01
-9.677739011763927812e-02
1.500692873706562791e-01
2.292103228775019264e-01
2.722459272357765081e-01
3.754558838078189686e-01
1.856950404144784850e-01
3.261091193559426671e-01
7.816837154514670594e-02
-1.226837490527969698e-01
9.193937168977935059e-02
-2.098765383260230433e-01
3.151072113062118318e-01
-1.960742793606824186e-01
1.524753897439021788e-01
3.560331050623045113e-01
2.065473702773420461e-01
-9.048224483739015778e-01
-5.211673187242688021e-01
4.582736716833346047e-01
-1.037845027702929690e-01
-1.474400785207345133e-01
3.927400076467962298e-01
-3.111392257843126896e-01
3.202745257777550036e-01
-1.069647242643095436e-01
3.877837990680894388e-03
4.301547587527884686e-02
3.023771636275374708e-01
3.940821393851843268e-01
5.227013967099354563e-02
-4.732022788602797125e-01
1.147293110773433128e-01
-7.374219003926121285e-01
-1.253852160735360322e-01
4.737765190409992666e-02
3.527008611767085688e-01
1.034228408543721306e-01
1.516505157492157793e-02
-1.418427239136530182e-01
-7.658515201015152207e-02
-6.118062136691189423e-02
-2.985264073858572842e-01
-8.364552954456189182e-02
1.509754343661503795e-01
-4.353417838450247546e-01
-1.618545737855312666e-02
-7.012056800643620691e-02
-2.816316636597128165e-01
2.268595077879821120e-01
5.315408528562591550e-02
-1.668301045825069384e-01
-1.190908924703161370e-01
1.404689166279087520e-01
-7.266383519039277816e-01
-2.719581700628065923e-01
-2.978200409528907952e-02
1.670791078513471084e-01
-7.894981856913865226e-01
-6.315665372115074686e-03
-4.812047102382788211e-02
8.862474426615377099e-02
-2.560644518557469440e-01
8.895991875759537426e-02
2.660118461304417092e-01
-4.668365930473633019e-01
-1.130811253613522582e-01
4.136292341937009703e-02
-3.817585706092207487e-01
1.787030616216022383e-01
-1.738721594856615649e-01
5.436320086071978752e-02
-9.309625389594875650e-03
5.643607344571871520e-01
2.319404958728518151e-01
2.451377228911461731e-02
-7.565737159591169325e-01
-1.542357404801646126e-01
2.250048133630973279e-01
-7.658634296840632905e-02
3.133394129200033906e-01
1.242923708969807112e-01
4.299203386513802266e-02
1.316768016006483744e-01
3.933795922341173368e-01
-7.422934432564279317e-02
4.061420072420905691e-03
2.303037235897423263e-01
1.982823912618620343e-01
2.553392528392369187e-01
1.045427394103933122e-01
-3.611991874128054336e-01
-1.231465194289491222e-01
-8.997757944870955482e-01
1.242605380682922783e-01
5.092716022318454980e-03
3.548252879389107717e-01
2.562124484675722957e-01
2.901648149640258523e-01
-2.435492932851199624e-02
-1.949617848437444623e-01
4.945492062252485055e-01
-2.552294931994235627e-01
-4.338442929158972672e-02
5.755339386050947748e-02
-3.723684725016989661e-01
-3.370887430294656206e-01
1.713694862382551531e-01
-3.938579779856082319e-01
1.850307801443795419e-01
4.628252685084926488e-01
2.476836676757535882e-01
2.596570992744517969e-01
-7.739319728273710286e-01
-1.718704572419669369e-02
3.956265053046438829e-01
3.339426882746728831e-01
1.333529199521249209e-01
-1.475680628382406712e-01
-6.426697420522200499e-01
2.450525238941756168e-01
-1.672170036221848621e-01
2.282682161266737664e-03
2.173961068913174977e-01
2.701613380896312200e-01
-7.387947727404906018e-02
2.169491207032614721e-01
7.662057054614493934e-01
1.285228513140482254e-01
-2.095780660688722485e-01
2.980643479110959282e-01
5.605356684273866685e-01
-7.575305691180130030e-02
-6.455605446944562287e-01
2.853287777326001806e-01
1.057025296795633361e-02
-2.336039240744922640e-01
2.219279834127491358e-01
1.346724048870416579e-01
1.572898574808266614e-02
4.134751830363412317e-01
2.032439372695711843e-01
2.297323428475417373e-01
1.974147282907109113e-01
7.826854430153795672e-02
-2.402650299506313425e-02
-7.214462302582937137e-02
8.121734967302386421e-01
-9.727144238033712254e-02
-3.374226608379662928e-01
7.594684420129734770e-01
-8.551364841065732525e-02
2.940617106198796515e-02
-8.411560521353986797e-01
4.964226445015493261e-01
1.747566073368483353e-01
2.906101954578296787e-01
-2.435673768897592129e-01
2.134740362264316016e-01
5.055851473840456967e-01
2.302285034762721894e-01
1.960645864765637458e-01
2.902927989997456937e-01
4.801775206394324758e-01
6.226136363428625975e-01
3.113742531399995017e-01
2.467065486738196159e-02
-4.846368460683889851e-02
2.929788625801006408e-01
6.555982341450773410e-01
3.112398778207831618e-01
-2.203003340116516384e-01
5.046589015780063026e-01
-4.847625321651637953e-01
-6.218928391254847227e-02
-3.455498417127784716e-01
6.532228573325665755e-01
-1.544493097933342940e-01
5.199946524645637780e-02
-4.833836307459281334e-02
1.319403169789701569e-01
-2.579897771975185328e-01
-6.560873142621582721e-01
1.411407128641211650e-01
-3.177058056008523479e-02
2.328023191487424426e-01
-1.282356843619506526e-01
-4.229767496061378473e-01
3.178071829665282677e-01
1.695761689726507371e-01
-7.626347276769402002e-03
-2.917070964497653907e-01
-7.230639083369741482e-02
7.568722490695024840e-02
-2.610573726703668829e-01
-1.417995479413348692e-01
4.573325627245494740e-02
-1.473965035062015094e-01
-9.323590276612156447e-03
7.623070693847273926e-02
2.581132711807782587e-01
1.092631256333031174e-02
3.993603240932694365e-01
-2.624402239903663170e-01
9.040587596402659132e-02
-2.446342887612893979e-01
8.735744565395706096e-02
2.693414793645318994e-01
1.697488644919963041e-01
2.599493864186487313e-01
5.972608970028089326e-01
2.978450382483897041e-01
6.476148265948207527e-02
-1.627869606815845749e-01
3.036888476949514137e-01
1.501700981177821193e-01
4.133309167344068613e-01
1.228335354961215299e-02
2.121719585521610885e-01
-3.393276579072711518e-01
9.670936815938398212e-02
6.552668817179646554e-01
5.720403261559015018e-02
2.273119409392602153e-01
3.532886576387522792e-01
1.928055605308883202e-01
-1.239489223156227671e-01
-1.749062575630192518e-01
-4.664727565974129964e-01
-5.220675616417791431e-01
5.116759652728538610e-01
-3.253165513948821919e-02
-4.946481089692935651e-01
-6.172018613740865023e-01
-3.518827076221585637e-01
-3.414132244161816598e-01
1.316158562898669393e-01
-5.005660765977775206e-01
6.103152890590051588e-02
6.727206389812974141e-01
-2.507247686093523331e-01
7.594033218273391062e-02
9.882544272701165866e-02
5.093171498830184607e-01
1.695124722833399322e-01
1.321627588061225211e-01
3.259675156770140969e-01
-3.174467680284277504e-01
2.608409025335992060e-01
6.399141058609263133e-02
2.364158777593019789e-01
-5.225566298099019180e-01
5.015314859223264365e-01
-4.569944945316667395e-01
-2.175646447152160823e-01
1.151029687259780970e-01
6.125466232363645513e-01
7.003188520827610675e-02
-3.777381163413048859e-01
-2.461870516422378363e-01
1.216671777726915094e-01
9.156609338195333125e-02
1.094222816488170553e-02
-4.300148766520529575e-01
-1.877597749452243336e-01
-2.345961670332349092e-01
1.034677925685196093e-01
2.118857119651221255e-02
-6.909680313899431436e-02
-6.103655414973741672e-02
-3.773813315295901361e-01
6.126607521585784172e-03
-3.228891592451435533e-01
1.851574296599858005e-01
-2.061425520501111996e-01
1.683491459691694725e-01
-9.536191166141607667e-01
2.069860406611977455e-01
2.026907414136030483e-01
4.499727814620137489e-01
-2.153600701038544396e-01
4.998342810033372108e-01
1.596483333100773630e-02
1.550445647560335094e-01
4.119644561646287895e-01
2.627016792115711707e-01
6.153623044843980518e-03
-3.188513601431527400e-01
4.755624555687142097e-02
3.929487970753661741e-01
5.060967306940007404e-01
1.482291149027605559e-01
2.390635923108225813e-01
-2.874492902638010050e-01
-1.562088326334343247e-01
-2.351769696021466238e-01
6.184127757876433096e-01
-1.211854586528965799e-01
2.133942072418945901e-01
-1.516073838006790596e-02
2.187746983257495559e-01
8.019498988211551382e-02
3.348917702485152970e-01
-5.890137386216531823e-02
4.853629030400397615e-01
6.143702275397937285e-02
-3.637696422375651939e-01
5.407366550897342306e-01
3.468851214376235115e-01
-1.624504635732554603e-01
-5.662296133359649708e-02
1.835051689478291864e-02
-1.832480358117325736e-01
6.554528924912103593e-02
-5.348218031002150569e-02
3.103361461697423107e-01
-4.235696852744123830e-02
-7.522430924699623385e-03
-2.615608542241142365e-01
-3.805260141872501278e-01
1.184930223437459379e-01
-3.185262180028229362e-01
2.933541592450446545e-01
-1.592554613278051034e-01
2.228349325862380992e-01
-1.397854490007226225e-01
-2.782215609048923066e-01
5.208520218147055791e-01
2.073887826755519692e-01
-4.158804581780406462e-02
1.670393614658799430e-01
-9.062974240705959361e-02
-1.245526799460711098e-01
-2.436920782993353130e-01
-4.963222931272412430e-02
-2.745697810419525653e-01
-1.581358266470239415e-01
1.151691698741105496e-01
-4.409815560991617311e-01
-4.359193882561981925e-01
3.945877076008412754e-01
2.033012801024898508e-01
6.647999520535535778e-02
-2.929094381132102756e-02
5.070842090580612166e-02
-3.395702338024307321e-01
2.117782909733914032e-01
1.939693949036414566e-01
-3.676647553253256095e-01
1.990431925350047426e-01
-3.248512532069524616e-01
1.595195493528267783e-01
-3.103707291881532271e-01
4.650289997218141624e-01
-9.198620796304425584e-02
1.502253414693753911e-02
9.594351551057439531e-02
-1.889093659635802114e-01
-4.499781067379493016e-01
-1.109674263132272909e+00
-1.180896370949110763e-01
-4.618941880890571339e-01
-4.099620973525949091e-02
1.458540970740514753e-01
-2.563463134402205745e-01
6.136765594300712667e-01
6.837042906345729421e-01
-8.015476010540772966e-02
7.179952111513653312e-01
-2.815249980929148133e-01
-5.902216391141187207e-02
1.332527422415165919e-01
3.036354474655508784e-01
2.017714549512847066e-01
2.630699522582441996e-01
-4.305134028049241168e-01
2.724266206388427092e-01
1.690147290742066433e-01
-1.166227418042112829e-01
-2.111997578565674993e-01
-1.921312059121310090e-01
-6.466310473473211307e-01
-1.248598758498455225e-01
6.922935344871145036e-02
6.529175759170035009e-01
5.379883138120400421e-01
-5.524115703314860792e-02
-8.325928850314139318e-01
-2.089995028093259155e-01
-5.649823662356009968e-02
-2.121020685722512789e-01
1.911362710302439427e-01
-2.710167184701995913e-01
1.150637313164065839e-01
-2.454228084802959065e-02
6.048246476614028699e-01
1.049040842948582991e-01
9.938865356030758547e-02
-1.060560987659987381e-01
9.117970083684215354e-02
-1.440382823025843084e-01
-7.333973182776534760e-02
-3.978390414459755386e-01
1.023661374115698713e-01
-6.729217512233769405e-01
-1.685321958224877681e-01
1.613426209519280841e-01
1.655705945217606501e-01
1.645689952742277473e-01
-5.247445643586397604e-03
-2.884901242978729075e-01
3.363238066105211921e-02
-1.008501011820815835e-01
-1.290817197815494546e-02
5.123499688217260095e-01
-2.210528962162277011e-01
2.877755171453525232e-02
9.953488446316818283e-01
3.792829175926366592e-01
-2.725193503733615297e-02
4.586074645519010173e-02
-2.660497308700488506e-01
3.097682580538095309e-01
-3.556910895284615681e-01
-8.241674185389794571e-01
8.660225975690144518e-02
3.274123001298812063e-01
4.660634513576615290e-01
3.721334868813257479e-01
8.390583208039645302e-02
-1.471946253895216328e-01
-6.701050132670061110e-01
5.712163964161458968e-02
1.516080785602310077e-01
3.075240700360765689e-01
-3.523442845367149578e-01
-3.147199711595424221e-01
-6.233746762277267983e-01
-1.908886946451373856e-01
1.166260301880571448e-01
3.056369887502939364e-01
3.738026779769436370e-02
1.809092878872125554e-01
1.443564517634419175e-01
4.596784930314511408e-01
3.595309412210914712e-01
-1.299514671403308175e-01
-7.604656279792004758e-02
8.328128458652690747e-02
-6.608318388306469449e-02
2.535419573671270355e-01
2.926786367842305614e-01
-3.920284771996318529e-02
2.032966255869883554e-01
-1.186942984387985150e-01
8.033635981366249457e-02
6.537805811023862379e-01
-2.628387333016803107e-02
1.493783399398790901e-01
-2.394335409242400181e-01
2.295621996682250740e-02
1.153008147952127582e-01
3.563617821357749071e-01
-7.655493924446636900e-01
3.408523181438950500e-01
6.423613132689980076e-02
-2.469870175102489573e-01
-2.431837899513857992e-03
3.021177337471488422e-01
3.063651968845729212e-01
2.972339125079330180e-01
-2.913241334034905039e-01
4.024644403929155123e-01
7.419647832573100787e-02
4.581899490729438584e-01
-4.982083602106127107e-02
2.931938408203794144e-01
3.852282023730040361e-01
4.697135265727903075e-01
-6.738964613786329987e-03
6.814072001052262628e-02
-3.551846564784610361e-01
3.870864471527545314e-01
-1.682396799696445622e-01
1.339767439403584670e-01
-1.412965567812131673e-01
-7.051766266682621409e-02
1.105738240919615506e-01
1.819881094914554687e-01
1.235947759119465084e-01
5.902027712363746431e-02
-1.478786281273038183e-01
-1.231510762438913498e-01
-2.895829600594459485e-01
-2.934542805647449293e-01
-1.828904911082972762e-01
2.937504974881908204e-01
-3.149317114619946123e-01
2.641924169049681970e-01
1.759271404633273861e-01
5.001216846325483578e-01
3.055921684842768937e-01
1.743675125194850128e-01
-4.075146152502449048e-01
1.812732365328756368e-01
1.512506065070298999e-01
-3.994124518375751220e-01
3.129499798110762510e-01
2.542460416270099222e-01
1.146576533724368990e-01
1.345978951455575889e-01
-1.006986739959378346e-01
9.934351834822742477e-02
7.794999530592990056e-02
1.506779309597231498e-01
-5.719725720412177639e-02
2.877700594438429849e-01
1.434506287157187587e-01
6.038708508706218392e-02
-1.234866626452323229e-01
1.925816056584458980e-01
2.113568673525108577e-01
2.117564033338827922e-01
-6.225288584382147050e-01
2.671342990210791579e-01
1.964725566538909063e-01
-2.824565648865656198e-01
-1.748141640373816752e-01
5.110902433256003102e-02
7.140934430981067671e-02
-3.222925730648187326e-01
-6.805058622485699038e-02
2.642747526336148844e-01
-6.433754240102193545e-02
-1.943530619283780070e-01
-3.252516847012943413e-01
8.151716475508850868e-03
3.238734314962317118e-01
3.304836824074154356e-01
-2.048404212092531929e-01
1.741210236427453151e-01
1.781330358212248333e-01
1.436075275841617455e-02
-6.206596558191772306e-02
-5.894773774218488027e-01
-2.944405293891153019e-01
-1.533079342865962258e-01
2.768232236689128767e-01
1.832256626202587446e-01
2.731458502408707911e-01
-1.609489167499680851e-01
-2.038270608000833650e-01
8.172868357185314458e-02
8.965752969743482140e-03
1.317857108780767506e-01
-3.615656952812788816e-02
-4.254567184716680911e-02
2.038137173187810347e-01
1.178695336001614746e-01
1.360553279298660767e-01
1.289148586028967536e-01
2.761325607040113206e-01
1.132293581307205477e-01
-2.542627252951320475e-03
-4.132528724298966671e-01
-1.468020553867172527e-02
-1.071539781069365260e-01
4.532887728220048040e-01
3.447712995566358518e-02
3.991831980705620730e-02
1.198727121289397922e-02
1.438247167203074092e-02
2.231564930088404397e-01
3.872357245647933266e-01
1.668872786181193058e-01
9.413061828275426368e-02
-1.382340312989550069e-01
-2.450190721229812407e-01
-1.469089780131054568e-01
-1.150866195622003568e-01
2.474751613855426247e-01
8.686809610831115469e-01
4.627934954916929633e-01
-7.587718060440490353e-01
7.523180644609478440e-01
2.749847110053838667e-02
1.361089936153948680e-02
-3.122571600149816606e-01
2.545911073127032354e-01
-5.255091884639679495e-02
-2.613552232534810948e-01
1.770351374945171863e-01
5.804753402985780575e-01
2.540976209037837386e-01
-4.972950960473291326e-01
9.792055020944430421e-02
3.841587546715634072e-01
3.876218910145913521e-02
2.042273372916632856e-01
5.441784393741222470e-02
-3.568837218770645747e-02
1.701437301516011968e-01
3.451699773054360820e-01
-2.365733492060978493e-01
3.491738026878897783e-01
-1.248523798899612153e-01
-2.671593408983373788e-02
5.249084456230187490e-01
-2.078646294322531590e-02
1.153018002497088329e-01
-1.737367355821893833e-01
-3.277615305699170187e-03
1.265674917870750760e-01
-1.478091089908248335e-01
-1.911645531483370797e-01
-6.743933180318127940e-01
8.128889566732074023e-02
4.557039980881327779e-01
1.999583531704886286e-01
-2.404922519823479155e-01
2.809110057159894258e-02
1.747557194081274523e-01
-3.095256078562955496e-02
-1.102265197701438465e-01
-1.647169758238626325e-01
2.893753493996037082e-02
3.158430869818609765e-02
8.355470423441893058e-01
1.272659495068569069e-01
3.521007204925878931e-01
-2.377410279388784270e-02
-9.980756936312336347e-02
-1.238928099956284196e-01
-3.092803614472006690e-01
9.818405926452020149e-02
-2.023265988176211061e-01
-2.589063155685983331e-01
6.692156517155443962e-02
1.507187739120884329e-01
3.193179876604396727e-01
4.158807357223244794e-01
2.372700202471691722e-01
5.107131445528692026e-01
-6.486231699443103516e-01
-5.691649771185290640e-02
5.246690287453575907e-01
6.284983572333964486e-02
1.768897785577535076e-01
4.258531728160250829e-01
-2.755019897247520388e-01
-2.193553537855947033e-01
-2.706232783196550473e-01
4.171567451971734397e-01
1.952228838119411392e-01
1.417380272061096597e-02
-5.606901565441467505e-02
4.440802586384471340e-01
-2.988710492658883111e-01
-1.125294899473013865e-01
2.056616359748076328e-01
1.210888852600287974e-01
-1.019418430183721830e-01
-8.748205822051592639e-02
6.331295519049776610e-01
-6.032955529169941461e-02
-6.158036593734644154e-02
1.152595756320001497e-01
-7.403120078466467191e-02
-1.307467183740334271e-01
-4.422884018246696081e-01
2.353142508745731387e-01
-6.861037632461623390e-03
-3.494946292465438836e-02
1.714146921751792674e-01
-1.463616703694278764e-01
4.219910001636594243e-01
2.987491096286218895e-01
-6.846623177502264568e-02
3.299372081992666406e-01
-6.255870518047547402e-02
-1.192811321083489112e-01
6.122057661109020499e-02
1.102071904438386152e-01
-5.917874723540447052e-02
-3.590505937896014133e-01
-5.753473204550219045e-01
3.730699412965561845e-01
9.647031420577588667e-01
2.355432106710502738e-01
-3.931579056746192236e-01
1.309403700965696693e-01
-1.633995749508501683e-01
-6.945553156523309735e-02
-2.644411262119686357e-01
2.263460288234454554e-01
-1.467629898958778822e-01
1.474670700243563004e-01
-3.574541004429545032e-01
-1.410347867070579353e-01
2.749650378759940228e-01
-4.952737532147538646e-01
-3.821323903432763402e-02
-3.100158399794096242e-01
1.236808629880598254e+00
-1.905625085562023813e-01
-6.119983061071444103e-02
-4.647229042090232354e-01
-4.007085898092637155e-01
-9.638110131457807706e-01
-1.660950228866284878e-02
3.759697014722768738e-01
7.387840052144630798e-01
-1.216188791693196131e-01
3.771556710588189892e-02
1.710207597482291814e-02
4.430747017531537213e-01
-2.959496776702491214e-02
3.361509390111143691e-01
-1.962120428371099887e-02
2.051977440381948792e-01
1.146807224161143328e-02
-6.529262044600428472e-02
1.655394035352839022e-01
-2.419452010648604490e-01
5.187259524318335036e-01
-1.912452439863791265e-01
-4.099380488787142118e-01
4.830317682720022820e-01
-4.126152414506237265e-01
3.786567734619791237e-01
2.776293690381946844e-01
2.494720095754335010e-01
-8.723719135026003837e-03
4.209520411376560522e-01
-2.315155282258666292e-01
4.207997946532547329e-01
-2.571040799722643794e-02
-7.969535967146908206e-02
-1.739595445922664518e-01
-2.730737454378306395e-01
3.774532193433738358e-02
-3.146184650155758877e-01
-1.773724512065160130e-01
1.500081919392092511e-01
4.507596110694695457e-01
5.673592886715590755e-02
-1.241280722925981045e-01
4.577274559691554834e-01
4.611846374482921757e-02
-1.024617188721086425e-01
1.485628100267919194e-01
2.435268302715282995e-01
1.850705688987837605e-01
-5.217553039951858956e-02
-3.108904751974756464e-01
-9.505057607967122568e-02
-2.241098476794150529e-01
5.021412788230290858e-02
1.316175489145308408e-01
5.559189194962323999e-01
3.450670441093484087e-01
2.310099288402104323e-01
4.238836655902803452e-01
-2.734149569692554960e-01
-2.888679589317328933e-01
2.837622028898234006e-01
7.205768141502516544e-02
3.722224804857666297e-02
4.182963707063107051e-01
1.258001401784531459e-01
1.199239962971408169e-01
-2.799038690761366799e-01
2.777665352846200308e-01
2.243895949009913904e-01
-1.781854437902783417e-01
-1.028998183951181922e-01
1.412628297793174226e-01
1.418513088218398555e-01
5.598809502489119488e-02
1.398640858589292324e-01
1.668236187919970304e-01
-3.087951304280291409e-01
6.586554219872802207e-01
-9.355899533175160432e-02
-5.187646992978226512e-01
-3.172607875799591803e-01
2.324941692690278006e-01
1.441262353595162138e-01
-8.971560733681790412e-01
1.460296056009733993e-02
2.337251192222993545e-01
2.564099133654650434e-02
4.613520136743939348e-01
1.597089835019068274e-02
-6.743020254155272786e-02
-6.288365677043782076e-02
1.643243838246937205e-01
-6.358669361296669376e-01
-3.879379906108239018e-01
2.110842851465878911e-01
-2.821869434740335025e-01
-1.435279482810813134e-01
2.488281705047538928e-01
2.332044413770057237e-02
-2.372554758965198241e-01
1.534922929491189802e-01
-2.812777894665012823e-01
-1.976392932583387052e-01
-3.662155027191317247e-01
1.576756084798149604e-01
-2.016222831874335264e-01
-1.014972969082076071e-01
2.323470059806252153e-01
1.522606787164562381e-01
-1.070000988935375097e-01
-1.906747326520608771e-02
-1.069811902946292588e-02
-6.754000237397052020e-01
-3.415906037996582212e-01
2.139633418842848689e-01
-4.879917515854632626e-01
2.167053351178505616e-01
-3.798933213091893607e-02
-2.625595661180215590e-01
-1.240608885935735872e-01
-1.533880966012666769e-01
1.433112826385893879e-01
-7.469624939892800797e-02
9.801491395793325567e-02
1.387928177678489639e-01
-3.731057042896451792e-01
-6.592472852513109327e-02
-8.798528059684121438e-02
-3.093872467652798441e-01
-3.226024077285551961e-01
1.933736696258445409e-01
1.641765091272801291e-01
1.127143579666475270e-01
-2.985481288400363420e-01
-7.480660533497429654e-02
2.055054402237186939e-01
-3.163401218894163480e-01
-4.615589378869526804e-01
-3.198864036805007527e-01
3.522600563472136348e-02
5.792074005323946499e-03
1.889967210138111808e-01
-1.157126945380440308e-01
-1.152808062063334360e-01
2.429360140630897336e-01
-8.629218048925267615e-02
-3.407619053398329434e-02
-4.456507901150209006e-01
9.024663568403082370e-02
-2.564997792161725076e-01
-1.464560645543833417e-01
2.570770857157958847e-02
-3.271867016840728781e-01
-4.659528695912322216e-01
2.887158968393674918e-01
-4.192215714702466345e-01
1.695266394781042574e-01
-2.662085276810683410e-01
-9.181431419507576908e-02
4.948090964549199389e-01
-1.889448495609113987e-01
7.737825583523558204e-02
-3.896088457763959845e-01
2.852944481762690332e-01
-1.964361331621246043e-01
-2.761736808917077957e-01
1.703509097584936238e-01
-3.479425500090329026e-01
-2.394027888176861879e-02
-3.958226217442740169e-01
2.695005781937350187e-01
4.386957880066097437e-01
2.996700927896258082e-01
-1.305460170130068320e-02
-3.802970583357310197e-01
9.275750881993670427e-02
1.093159976061308519e-01
-1.625801321196024551e-01
3.668234614065249422e-01
2.376106739418794855e-01
-5.215078338064942087e-02
2.320509417566960220e-01
-7.280059353031216318e-01
2.028166098134185358e-01
3.393943451667990607e-01
-3.742052125905080961e-01
4.628390411705167184e-01
-4.310140220241578946e-01
-1.952641101610098351e-01
-2.379018776582499106e-01
2.038602189079944671e-01
9.567379270655008705e-01
6.490382614820267015e-02
-4.448905189084303990e-01
2.847181817977698093e-01
3.164882305499427950e-01
2.606865138623041256e-01
-5.014327733200987236e-01
-2.036535379353036079e-01
6.019428203966600138e-02
-7.333997944967709515e-01
7.841973207767269360e-02
-3.265779308465444619e-01
-4.485160859721526450e-01
5.493506498868065968e-01
-4.905070584307232306e-01
-2.050256297058015709e-01
-1.777296844965975953e-01
-1.492596655276505757e-01
-3.794243871894021486e-02
1.568930817009427936e-01
2.482617714124024655e-01
-3.674759870125449135e-02
7.722019307667300492e-01
-4.553989424244622719e-01
3.065539135405401794e-01
-2.459764707913924663e-03
9.773716668430235122e-02
-7.120721588786092793e-02
-1.067328742952117909e-01
-1.736373353206727976e-01
2.623546587323520307e-01
1.847811803780295414e-01
2.840772639022581258e-01
-4.548092636845639802e-01
3.713548223929735159e-01
-7.382906906787941592e-01
2.748573293191926559e-01
-5.943110826940060931e-02
-3.465064873570398718e-01
3.644264810672959154e-02
-5.355759093006431382e-01
2.418519509476456664e-01
-1.878905587776438790e-01
2.382508409406149386e-01
1.503544005729432476e-01
1.327853570839934993e-01
-5.877975382450764119e-01
3.133800765342761863e-01
7.186039997729292139e-01
5.732179938917198597e-02
6.909361176066862731e-01
-3.825231018348501655e-01
3.989601542524899291e-01
5.801947135674969530e-02
-5.561820172702740539e-01
5.691809136474371700e-01
-1.632644232192264344e-01
-2.604298359520716005e-02
2.927667058576655101e-02
-1.697447151705215596e-01
1.224135929701128667e-01
3.038112464742345753e-01
-5.376818502944040457e-02
-6.189147536032611752e-02
9.793831711039296950e-02
-3.403544323008454997e-01
1.667077013496606405e-02
-1.797946443981286724e-01
2.287940538508068389e-01
-4.587305076290960626e-01
4.175861394757290346e-01
3.842530050857778101e-01
-6.609537451818983667e-02
-1.236100414717772600e-01
-1.932567900285788176e-01
2.993207333583700058e-01
-3.116267229139033645e-01
1.543838791954951495e-01
-5.613209481319778732e-02
8.691312117207257437e-03
3.637583871047168627e-01
-1.161831582944487795e-01
9.938538457583930008e-02
-3.177355126938832264e-01
-8.864664533234206667e-02
-1.285783482972289726e-01
1.537066551003926362e-01
1.312660676546750782e-01
-4.012943194031819844e-02
2.224933007483335390e-01
-3.096359978745559238e-01
-8.411901250213538184e-02
-3.172374864685710283e-01
-6.912059865840879114e-02
4.506193619348065615e-01
1.314847118379431357e-01
5.060312202124123138e-01
-5.430141268738723076e-02
8.024820330707137239e-02
-1.277561200013191400e-01
-1.128264380021584135e-01
-3.554849750435123967e-01
-1.395728308225809289e-01
-3.571486434443774116e-01
1.917966658097337573e-01
4.963670099308282735e-01
1.837000754307265005e-01
4.074403750880030151e-01
-4.438291243784834861e-01
-1.876154042017242063e-01
-1.511877843542640543e-01
-4.705084756075913477e-01
-1.659143120462114873e-01
-7.203060682469940301e-02
6.901871541663975873e-02
-1.970779371170146010e-01
3.410665938262875674e-01
-2.667527595048133637e-01
2.295074816688821018e-01
-7.490836263216826829e-02
2.804645596795642959e-01
-4.252700543856171578e-01
-1.965798243979059723e-02
1.560205859570173714e-01
-6.763458390498339190e-01
3.593935338383418276e-01
4.619076748195113241e-02
2.564196558155318328e-01
3.685824668629458789e-01
2.418374177082384946e-01
5.676209391193228621e-02
-3.571273115512861862e-01
-3.788388784090391814e-01
-4.669840359599323198e-01
-1.445694997960790817e-01
4.172512069992900807e-01
3.112027543999944523e-01
-4.428798507048637978e-01
-2.772299562355188818e-01
-1.846081740005547367e-01
-1.346395647221239056e-01
-2.309297584919804136e-01
-1.340967582000050506e-01
2.308436360767123982e-02
-3.508829268828764225e-01
2.901908825279485571e-01
4.586705886644322772e-01
3.198453887359532510e-01
-2.380274898098441172e-01
2.143942458524818462e-01
3.847379744328531526e-02
-1.259976448439208696e-01
-1.677513711779932137e-01
3.251538289964168160e-01
4.765938928736123542e-02
-6.028590370044036029e-02
-1.382021084218781337e-01
-2.162126173353409730e-01
-2.272683123644050895e-01
-1.868482600305964303e-01
-9.695656369883415282e-02
2.243117939120425897e-01
6.469544831200459145e-02
1.216355698735791802e-01
1.911706207995312323e-01
-1.414636622302035684e-01
-1.509810044565370879e-01
-2.091850147261253567e-01
-8.602926970754799785e-03
-1.206384453356705924e-02
1.968005886287811923e-01
1.213978995309720338e-01
4.256743939942865262e-01
-3.507928447486294288e-01
-9.483073958403025194e-02
-2.318329878038562220e-01
1.180004182192666978e-02
3.732493635292667006e-02
-1.326830539951499854e-01
-1.055210782239850431e-01
1.746056689657027317e-01
-4.769668579732885272e-01
4.024214108606833928e-01
2.593100141574149475e-01
3.407097249751259160e-01
-8.011472092842453208e-02
-1.124392395239917353e-01
1.351450732387999287e-01
-2.062989452212339592e-01
9.747510689734570355e-02
2.865797243777808423e-01
-2.795667751639960286e-01
3.409821031681460890e-01
-2.326119007114967885e-01
-1.185566778612432703e-01
-5.314290400950125726e-01
-4.492636476255220668e-01
8.301309095059228272e-04
-8.699978958904026893e-02
1.537396157794413409e-01
-6.359006731990001215e-01
-2.696383854747127495e-01
-2.198669418307639678e-01
2.755241551649822984e-01
2.261648676093916122e-01
6.366158427150173105e-02
1.033370117467983934e-01
2.433147046467925567e-01
4.063799867397914212e-01
-4.744013087472582768e-01
2.572563365810639352e-02
-5.368397621931021435e-01
4.319884506200029062e-01
4.691725136867583856e-01
-2.461590767724338435e-01
4.360729251593646882e-01
5.857298690347607917e-02
1.231293679938504776e-01
1.186393173132843648e-01
-1.649481252405124720e-01
-1.838092359889128072e-02
7.615298867472002076e-02
-4.366049570713567696e-01
1.264036133115925553e-01
2.916774916849331212e-01
-8.277419582174416757e-02
-2.640218685770500118e-01
1.810638873842441293e-02
1.059570118586604937e-01
-3.189129840568652452e-01
4.691922047372177468e-02
-1.094463776599704369e-01
-2.250252564774291864e-01
-3.021274539472000933e-02
-3.177731829015391085e-01
-1.373803152604397837e-01
-9.148331792942508700e-02
4.208574764914264216e-02
2.561402302735760195e-01
2.092169373397288756e-01
4.416881150908824605e-03
-2.182299633836854991e-01
-9.629826220387442681e-02
1.735758640879900838e-01
-2.632351064235087246e-01
-1.237747449534337268e-01
-1.662703012321008547e-02
-4.196730883456153971e-01
4.182550413066665751e-01
-1.281923337737419233e-01
-9.342450209644970194e-02
1.877727793895967445e-01
-2.659087925474749037e-01
-5.244639606912127050e-02
-5.666869265684421064e-01
-1.224844895960548324e-01
1.826518653530265490e-01
9.582478234560659613e-02
1.931353124833902757e-01
-2.307793669809974357e-01
6.460334175460594186e-02
8.494085352813317280e-02
1.620720446136535153e-01
1.588419682033926153e-02
2.225365300624516096e-01
-4.391502989713725463e-02
-9.016974273997219180e-02
-1.573152357879010754e-01
-2.119069025948705498e-01
2.050810115786104726e-01
-4.521097539789626918e-01
2.965668903721203620e-01
4.050526968186716203e-01
1.895853995879871468e-01
8.429909729175050215e-02
2.640326971795243782e-01
-3.345784612691823368e-01
1.481914705527443143e-01
1.850832473289302782e-01
-1.533838247884299066e-01
-4.375394731187113861e-01
4.850271412071283095e-01
-9.335634136669422600e-02
1.345348410114339810e-01
1.491775360028349817e-01
3.248017127967117723e-01
-4.402241359322863756e-01
3.378523598887961943e-01
1.190740453328960752e-01
2.782589493246281215e-02
-3.163857520922522953e-02
-1.583812180495409450e-01
4.360070169678795238e-01
6.774418165913484446e-02
-4.087727952365149964e-01
4.363718168731161584e-01
-2.592765883019080286e-01
3.797448031871014096e-01
2.966413882268275487e-02
6.553819905129519563e-02
-2.046854941177680617e-02
1.441946824749943956e-01
-1.462113131132902477e-01
2.112148071008019545e-01
3.711972161962678318e-01
-1.310133053793940960e-01
-2.011214834460854639e-01
-1.196808091098041094e-01
2.897987798025834505e-01
-7.999051464586148796e-02
-6.022172675906664052e-01
-5.127290962676746000e-01
4.518172381816855099e-01
3.008567723700470431e-01
-4.717885031859778144e-01
-7.593086134717806635e-02
-2.241255483143551608e-01
-1.400009736826125506e-01
-2.152174687494075034e-01
-2.555886258761046470e-01
4.587592464866898090e-01
-2.473004298054513328e-01
-2.336422931313364426e-02
-4.540245108991420309e-01
-5.808346240742900957e-01
-2.286632430239050051e-01
-2.426880314107153838e-02
-4.638093358825700480e-02
1.059713843575836034e-01
-2.524820543295284159e-01
-1.216669215063471143e-01
-3.556338080230149190e-01
7.292634520014172617e-02
-2.047881163309373323e-02
8.226842869811884507e-02
-1.964260515924656780e-01
-5.691543999556950006e-02
-5.308879799481504985e-02
-5.338738476997334503e-01
2.949647936457025499e-01
5.137323923400176628e-01
3.014183455719209315e-01
1.446059474576391890e-01
4.280001325917701105e-02
2.265955712461109328e-01
3.072763857364891327e-01
-4.602227793030349012e-01
-1.448955579152934603e-01
-1.228113039267593465e-01
1.506279985513707675e-01
-2.139011715052373530e-01
2.307620860767721493e-01
-2.493316279697840587e-01
-2.535276572307202936e-01
1.189793329053171755e-01
-9.417787784238034268e-03
-4.625352937195519321e-01
-3.795126577283143825e-03
1.109026379268111678e-01
-3.731980478024464754e-01
4.121751869451568684e-01
9.175515836754062626e-02
-3.727309106405295447e-01
-2.530721213098801048e-01
-5.698986918904169752e-02
6.868532661115267501e-02
8.432046342766873204e-02
-1.271713108985087770e-01
9.150470705870322741e-02
7.333730130288945714e-02
2.128478009130126414e-01
-6.754221930770291926e-02
-6.921962140838941457e-02
2.654431890944490280e-01
-3.114238571999016214e-01
-1.020114311947132729e-01
2.049954117669196552e-01
1.338264076740121045e-01
7.384613727746176803e-02
-2.050879431233619821e-01
3.240192030406893742e-01
2.984677924963607398e-01
4.076494679196525639e-01
-8.160003037420375527e-02
-2.369860991870293421e-01
2.578926204631374342e-01
-3.704814194206466071e-01
-1.092803915828748779e-01
-2.864005529184914800e-01
3.914301837630514841e-02
-1.029511863529835453e-01
9.079838906054377157e-02
1.998290891557581717e-01
-1.389445391960539566e-01
4.394148314120856491e-01
-1.959857379308189429e-01
-3.804408230937797453e-01
-6.303214436503852547e-02
2.156972375028276268e-01
2.424436215659621918e-01
-5.907326502820812314e-02
-1.529135584239034971e-02
3.951453072151561718e-02
-2.538638929538001299e-01
-3.602881267239969043e-01
-1.340295240652817910e-01
-3.047927343082986185e-01
-1.117130878799069554e-01
1.237591327637796723e-01
-5.928625243634177977e-02
-1.649462541480660738e-01
-5.333101829394461257e-02
1.786044424114319740e-01
-1.612300672899078802e-01
1.324958043496316240e-01
6.224041051998040475e-01
-1.698038019823137901e-01
1.541691634180442083e-01
-1.530117967839816628e-01
1.138083285869512101e-01
-4.302751633955841926e-01
-5.337114476057843587e-02
2.055326185205305634e-01
4.541738178725540642e-02
7.996701430827274359e-01
2.386806883314334105e-01
3.743112167410737046e-01
-1.629043029283460675e-01
-9.059804909569216247e-02
2.320629221261004682e-01
-2.386013161944066652e-01
-2.278933713869263702e-02
3.968647652209294496e-01
9.447162631068156680e-02
4.526819621178607839e-02
3.790310011878747498e-01
3.752301836421894493e-02
2.195592687555918965e-01
1.627901891052947192e-01
-1.901475790701937230e-01
-2.451507331586474103e-01
1.709691089451113779e-03
1.568020018773664814e-01
7.776410191011082218e-02
-1.463390653920902951e-01
1.475861949393620920e-01
-2.167078064001728144e-01
6.395654670591830460e-01
3.654759606129548977e-01
-7.143442585078164930e-02
4.133084860300630936e-01
-9.136281031942804221e-02
1.791826209813485171e-02
-2.621062358286727068e-01
-1.977560383393155430e-01
3.967041136085173170e-01
9.034853756944666303e-02
4.483291723182274979e-01
1.817597850201390641e-01
9.614131277917424556e-02
2.100069511508976527e-01
-4.142479525689032327e-01
-2.226007058891234514e-01
1.083077130557342782e-01
-5.072987109263106253e-01
-3.018424616185308995e-01
-3.193375952834583142e-02
-1.988873098956972230e-01
2.243859176017631019e-01
7.036512966236738165e-02
-8.327799608505867535e-02
3.040708280585828760e-01
4.533467569462781149e-02
2.961733606487889636e-01
9.258028751218208563e-02
5.039031585263379492e-02
2.715754329482223395e-01
-1.116061751544711739e-01
-5.554492758994544754e-01
6.467439522045213829e-02
4.444593743734288616e-01
1.676371751678137345e-01
2.382943448835981304e-01
-8.980478671760409870e-02
2.588772965864107323e-01
5.155576707321140040e-01
-1.105297427461400250e-01
2.292595631513758558e-01
3.402041862792887783e-01
2.214352543319231537e-01
-2.162837732620901676e-01
4.002713595995274209e-01
-1.863462211494793519e-01
-3.158538165163825018e-01
-1.432901775109677034e-01
6.302892455126959947e-02
-1.299470824370301536e-01
-2.374094329013264060e-01
-2.598009185102854168e-01
1.721256064049050127e-01
1.358517404175402787e-01
5.890104504020306914e-02
7.085696472346163510e-01
2.243961785879957371e-01
-7.312307153226096368e-01
-3.343507492888915245e-01
-1.598042016081082164e-02
-1.989552341445574579e-01
5.880361361255271452e-02
-1.112057451226932531e-01
-1.747896820403110341e-01
2.134148567031016186e-01
-2.837107671581842183e-01
-2.092168932771673873e-01
3.528178892801893674e-01
8.185777834746939263e-02
4.899288514130541450e-01
8.264962218001911665e-02
-1.552106376878686633e-01
1.420616027001787574e-01
1.743854555337200907e-01
-2.254997012668443213e-01
1.912562727602179838e-02
-3.061214679011918793e-01
6.629806759842353792e-01
-1.667375752860593419e-01
1.795312409693665123e-01
-1.570198869524316865e-01
1.017893868142147051e-01
-6.195785560030679651e-02
-1.673339153002201818e-01
-1.672021321584843678e-01
2.606069683303300910e-01
2.379144977747915946e-01
-6.076022960119922822e-02
-1.121186334410069485e-01
-7.150733129211259143e-02
3.882338592794523646e-01
5.203058722794299262e-01
-3.039239080080854416e-01
2.405789005893456955e-01
4.437945028109859247e-01
6.888325058685482172e-02
-2.681375814262662582e-01
-6.824927035694708932e-01
3.374993120294622617e-01
-1.398441950291882396e-01
4.779692141317570808e-02
-4.474175390338463454e-01
-5.296779365691713787e-02
-9.165485686670772625e-02
4.899771912417870412e-02
2.392424296052622981e-02
-6.102896422311778618e-02
-2.544240606075542366e-01
-1.435643053931710822e-01
-4.657342841254115129e-01
-2.384781813313240906e-01
-3.773409749705106675e-01
3.222911429841940900e-01
1.287357333808500093e-01
-1.642982842111807285e-01
-1.679209095233378246e-01
-2.420751536758278810e-01
-4.661318297900269858e-01
2.613461957979015260e-01
3.788548606773518013e-01
-4.268736755400153182e-01
2.826498588541511148e-01
2.705833763455036123e-01
2.600367738989688982e-01
9.051080572624843612e-02
4.178011625992842509e-02
-1.945570495448205595e-01
-3.076853976746149466e-02
-4.040792101689822946e-01
1.425639454496666070e-01
8.005687890765679493e-02
-2.138862690312612058e-01
1.951445604252846910e-01
-1.609628694216668487e-01
6.710342701533794640e-02
1.365435004000015440e-01
-2.121747398401844509e-01
4.998195225464748259e-01
5.528813784782772300e-01
-1.390299335827319682e-01
6.832878113705206924e-02
4.474140738622822133e-01
2.658276372784759006e-02
-9.478587216843771535e-02
2.443149750992977820e-01
4.185755812174827839e-01
-2.688656627053973014e-01
3.732970015510202466e-01
-2.878949001356241877e-01
-3.423339254859499858e-01
-7.075953142801746920e-02
1.262113961577409627e-01
-3.783447089064835844e-01
-1.986324353713132471e-02
-5.733804567174473066e-01
1.488552712551962087e-01
-2.736534018666090251e-01
-2.255582057309267197e-01
4.039412598885754740e-02
-2.729066347256033087e-02
-4.783436492993323880e-02
2.570385618217150281e-01
3.447535144199269652e-01
-1.448083681881834166e-02
-1.984964144448322088e-01
3.850684906449063777e-02
4.104229851337112267e-01
5.512333599346271040e-02
3.035817555718327010e-01
3.529717049008433971e-01
3.546904702300840984e-01
-1.978381587646950435e-01
4.506552621897567945e-02
-1.540120038629664290e-01
5.976776825970676887e-02
-6.321521563769871843e-02
1.364285012177196554e-01
4.876831717779009923e-01
1.043837565676199522e-02
8.845183575335280324e-02
5.322725137624371161e-01
-7.445633034854101662e-02
-4.770060434685137463e-02
1.223032847251555311e-01
2.647621699619687186e-01
4.404776221803952813e-02
-3.197992724166241058e-02
1.156551822634187404e-01
-6.436088012527868552e-02
1.730557363128166493e-01
-4.430323134112379435e-02
6.966582563947551661e-03
-1.703675403788213133e-03
1.403618558382102033e-01
-3.143310196888743357e-01
6.815089772615858313e-03
4.214460996415887450e-01
1.834197770033817523e-02
2.603142425140672067e-01
1.657895302660281067e-01
-1.461951069451157548e-01
-1.908750178190978253e-01
-2.371505073185866397e-01
-1.013729808130064830e-01
-1.673413158350285646e-01
1.190947235202996501e-01
1.903536402833872487e-01
-4.341849260709638170e-01
-2.388518695898061983e-01
5.737844651716166727e-02
-1.812436223677782454e-01
9.870957322404866341e-02
-1.257126463118595494e-01
-1.435414843875335543e-02
-2.196230759871036220e-01
-1.597832685113122486e-01
-7.646191936425830726e-02
1.785014430485175330e-01
-5.405032386534506378e-02
-3.253859690205623822e-02
2.959535693487046117e-03
-1.832252786516458676e-01
2.502475583942578297e-01
-3.179654564539886596e-01
1.816867177136908262e-01
-2.353066699419011365e-01
4.819362159349817598e-01
-1.726016489241900542e-01
2.040080375867856788e-01
-1.237393719391857855e-01
-2.115235222482787780e-01
1.013867245962019742e-01
2.679275248750753735e-01
2.873122447903451171e-01
-4.223084137887749279e-01
9.250284817912143853e-02
2.317964471352517986e-01
-5.788730945148390372e-01
3.026019746440330570e-03
1.446532968260656749e-01
2.526854547909632154e-01
1.702540620454132680e-01
2.631950914412560863e-02
-2.589686024951072807e-01
-3.461594295054569725e-01
-1.771454885355503925e-02
4.674863154199854764e-01
1.595595198401477677e-01
3.925103264116764495e-02
-2.113701201001533247e-01
-9.878564872445408721e-03
-3.076200004826205037e-01
2.061242966241532693e-01
1.158906612241556305e-01
-1.538025107364438815e-01
-3.212145766647658135e-02
-8.369353176477585532e-02
-8.740902223201605370e-01
-1.278352417753697012e-01
6.857114886585594093e-03
2.154130983219608442e-01
-1.427904719698594449e-01
1.948957940581632353e-01
6.373424546480253028e-01
-3.312529561706967218e-01
2.912190776859568259e-02
-1.828607456104177909e-01
1.910819870298467449e-01
5.919849368452433092e-02
2.162856950677361501e-01
2.566661471297865260e-01
-7.396737761614587126e-02
4.193220628189870958e-01
2.174103238481572553e-01
7.797440499570235106e-02
-7.434303287448837949e-01
1.316553230840163125e-01
-5.065894947466267340e-01
-9.343393824523864299e-02
-1.977851160891062610e-01
-1.207508666654939777e-01
-3.213711113958009902e-01
1.533770151720516006e-01
2.411538081854507909e-01
-1.475628482622650395e-01
-8.701184761334029849e-02
-3.567098596283092005e-01
-1.277477587988473384e-01
-3.235950948941621053e-01
-1.594258855607398329e-01
-5.958118105633698064e-02
-4.235013106551229756e-01
8.513088726345707791e-02
4.206784538304197962e-02
3.190736992665293981e-01
2.824960851760126568e-01
3.867767565202699931e-01
7.455643439466860811e-02
-2.589451675075236936e-02
-3.281275015819501983e-01
-2.910293182782691113e-01
-7.280104951259152093e-03
-3.909448730029998487e-01
-4.682613007052224829e-01
-1.450800082595586349e-01
-3.625224460275598970e-01
-6.234315493432148608e-02
-4.769039923055628516e-01
-1.385782996125004829e-01
3.817229349646659720e-01
1.111104816451791155e-01
8.071508925569439996e-02
1.804653458207219341e-01
-3.524141539908405285e-01
4.944370734565064346e-02
-1.891420347059625529e-01
1.164586858990868806e-01
-8.363598274528231610e-03
3.696137743148874555e-01
-4.424867465848450476e-02
-1.218963501084863038e-01
1.392144983482310749e-01
-1.139714708720888925e-01
-1.791840641181147442e-01
4.861295314129482903e-01
-2.810641448912709062e-01
-5.291814614669606599e-04
-2.600024249698203449e-01
4.787918613828236192e-02
4.273722110015317210e-01
1.245434208247468526e-02
2.294176111560642939e-01
-4.115274627293982745e-01
-5.596479346469075411e-01
-1.884330015347158299e-02
-5.721759626432286472e-02
-2.465389683682739919e-01
-2.830523306765690417e-01
-2.961537943573902890e-02
3.589099606036350032e-02
-1.713738288979908819e-01
5.496050048335200666e-02
1.389468928461946584e-01
8.119781537272061089e-02
-2.385292517131480661e-01
6.593911004608016269e-02
1.273661339551089566e-01
2.525781501301389009e-01
2.229660720601881196e-01
2.153896614565109502e-02
1.240990486675787874e-01
-3.648723257533538211e-01
8.837860059517522321e-03
3.740537831614513808e-01
-1.005374722391588899e-01
-2.967689351283285260e-01
-2.823579466556059292e-01
3.710801975492596105e-02
-2.509680779943554985e-01
-3.534775038182127321e-02
1.590758653221439611e-01
1.090062633201851067e-01
1.349886935468210258e-01
3.639195808685450895e-01
-1.399324945030523404e-01
-1.028700300940237788e+00
-1.335931337721942003e-01
-3.076516991911741883e-01
-5.730396549426064468e-02
-3.687834371308908454e-01
1.269259746957662749e+00
-2.205481973226847137e-01
3.618586002394555967e-01
3.715653334684744791e-01
2.317971043277018417e-01
1.265306332764529751e-01
6.008689057668097772e-02
2.953297088230934508e-01
2.362107372701741648e-01
1.261564503775544112e-02
-1.718666468210401088e-01
-1.733889956493239182e-01
1.529658832685295566e-01
-1.904765872322873310e-01
5.074898536642534486e-02
-3.853544025541024709e-01
-2.604771425774226601e-01
1.602589829930280846e-02
-4.627597002595779108e-01
3.654622161015211312e-01
9.382863900432041049e-02
2.445797004791351037e-01
-3.045531216336303526e-01
-2.513272036984443569e-01
-4.312000584974964856e-02
7.553538483428737411e-03
-2.692736145502463430e-01
-1.868417659612741366e-01
2.871642669301870399e-01
-5.741125567694136539e-02
1.362229531304767483e-01
-9.913664154231592585e-02
-4.461891019430803684e-01
5.962715296039380886e-02
-6.355021480585722193e-02
-1.460791200906144671e-01
9.825032775501572890e-02
3.083592213455372821e-01
8.527520534738219915e-02
-5.048426227682749623e-01
-2.737400264190746335e-01
-1.192406603394947362e-01
2.460527559253547214e-01
1.427254587147813170e-01
1.206382912520898298e-01
2.498422415742965752e-01
1.876822453616000877e-02
4.453554896366868771e-02
-2.298957834762162256e-01
2.406903226133896498e-03
-1.076915070147723974e-01
-3.204127119886981956e-02
2.044796062030372341e-01
-2.405369499684308909e-01
-2.264702397871354300e-01
2.124295179272077116e-01
7.692438594843722943e-02
-1.463402112762644640e-02
1.675642077558486542e-01
-1.523409623808006097e-01
6.628591119563044531e-02
2.669363984007734891e-01
-6.922011253259298391e-02
3.642296682075197439e-02
-2.763498651208237678e-01
2.140569927041700501e-03
-1.319678730803377775e-01
3.617520113707225343e-02
-1.722629521848930423e-01
-1.881234873173021349e-01
4.582410283398202777e-03
-3.534253882186882967e-02
-2.695392787158323519e-02
-3.057547713288770730e-01
2.155827592559941552e-01
-8.686064254778439950e-03
-1.222912737537659861e-01
4.754855414915831191e-01
-1.497786491596906355e-01
-2.423216753243386534e-01
-2.061421489671597940e-01
-1.925077214523618699e-02
-2.053919477052928641e-02
-3.547974027446068601e-01
-8.487725736174511759e-02
3.709528338426146821e-01
-4.934186795221714994e-01
-1.847685501095144289e-01
4.073490350431419049e-02
-4.770240939606016362e-01
1.936591749654058281e-02
4.020078556431287697e-02
-2.724221684824674333e-02
-5.964516448566248297e-01
1.548911561491204403e-01
2.290385490118123160e-02
-9.497741373046338087e-02
-1.926925073637894004e-01
1.982983434351612007e-01
-2.791170671357249278e-01
-5.004853552738045552e-01
1.292193949191011021e-02
1.891380623045718981e-02
-8.847423560651698771e-03
-4.267985668050485737e-01
-8.593313892573120616e-02
-1.241042343726679598e-02
2.035800994277437576e-02
2.045213474354076466e-01
1.318530703068807319e-01
2.504747591575265386e-01
-2.265593606631741141e-01
-1.027019543240863808e-01
-9.847014215680077731e-02
4.414283510814603212e-02
2.405597718370330595e-01
-2.596459630063675528e-01
2.863906745113657948e-01
-6.625762852847609519e-02
-4.910027351907692017e-02
-3.481500354713374934e-01
4.493130381861783484e-01
-1.933477913346994259e-01
-1.025409628018646574e-01
-5.023213597538917635e-02
-1.251289594918959247e-01
-2.501066429652077927e-01
2.015983853602177911e-01
-2.733172126333744401e-01
-4.453543558279512982e-02
4.991383485237178563e-01
-2.726442202042269614e-01
9.293398180622394755e-02
-2.277770494284019620e-01
4.457441849283961255e-01
-1.066851268570647299e-01
-1.287155253842900138e-01
1.151282241059240711e-03
1.316505024675533597e-01
2.481653989697414353e-01
-5.993766393996186742e-02
2.658103846138920034e-01
3.316322559129332159e-01
3.203245802815453680e-01
-8.932857102137495287e-03
7.356220360121173973e-01
2.569698362236919054e-01
-1.902811087893933883e-01
-2.189132502804393976e-01
-4.885454148493365706e-02
-1.579098717730437196e-01
8.105568126229996395e-02
-7.365053156518226729e-02
-8.745216693369509131e-02
-7.517882643123525999e-02
-2.570931293422586972e-01
5.813781573473045944e-02
-1.024642397399764399e-01
5.976063169105561707e-02
-2.465821427895047852e-02
-6.481810271747910634e-02
-1.204783027354007219e-01
-1.171601893669381028e-01
-1.174497788140139859e-01
-5.067846352222149520e-01
1.063032660995640588e-01
-3.040298589903493998e-01
2.110618397624408893e-01
3.778045608795920635e-03
-2.962481956360032420e-01
-2.677341848447230624e-02
-1.857754380941756267e-02
3.421586493367715365e-01
2.871254695186932215e-01
2.350224162047079846e-01
-1.843256192842413765e-01
-5.442141259211222826e-01
1.550477320914897539e-01
2.389426831588490063e-01
-2.424407483515492456e-01
4.945770025088180311e-01
1.397207605271349184e-01
-7.682375579358330375e-02
4.046520103945838720e-01
1.376156366869928094e-01
3.295202429942308275e-01
-2.540885260606468576e-01
-6.441573427265592788e-02
2.691696362339227599e-01
1.655637565605356035e-02
-1.859557994870492947e-01
-6.316441976532255476e-02
9.393005868243577139e-02
-7.567744250293724495e-02
-3.485462338147204409e-01
3.298225083869600338e-01
-1.333750884953213145e-01
-1.269333047155876137e-01
-4.045415367055046341e-01
1.071378158735698666e-01
1.569858455938270489e-02
3.025211430389573852e-01
-2.188120325282221293e-02
-2.838927324956827536e-01
-2.754102203768782897e-01
8.642418653434918996e-02
9.109956575405493001e-03
4.151395618279614119e-01
-3.462620979933737630e-01
-1.776617026445230230e-01
-1.201531632333535382e-01
2.206378364683005411e-01
-1.571734970133573661e-01
-3.488031665050930763e-01
2.901964946317912575e-01
-8.526479466100456150e-02
5.273579701232759126e-02
1.080621170530599723e-01
5.081442104296770568e-01
-5.080700744824354631e-01
-2.778559894423756060e-01
-1.155229397504498878e-01
-2.167681085139349373e-01
1.992544056011683745e-02
9.988684864172908684e-02
4.029987605851159671e-02
2.244576408627125264e-01
3.122638408550131861e-01
1.261488726586425246e-01
7.642929398939520003e-02
1.790279918481787746e-01
-3.922515191541281476e-02
3.312857873726971492e-01
5.708657246390691498e-01
-3.252033093833773258e-01
1.239276876851473225e-01
-2.886393223152687315e-01
-5.644211062753219828e-03
3.245843938387809463e-02
-7.601942734684717928e-01
-2.611004188640294044e-01
1.247068470755852143e-01
4.267025219525097390e-02
1.337646824221817021e-01
-4.692772107778498958e-01
1.668124939006650764e-01
-1.907979023508313554e-01
-6.179436859339164367e-02
4.120563067135969981e-01
-3.533527923865301817e-02
3.336380853258614221e-01
6.532066137227976466e-02
-8.887011524216500979e-02
2.644957479205214401e-01
1.667840503129207619e-01
3.262370181408347225e-01
4.036727798407607204e-01
1.786679545804688019e-01
-6.810607847164297513e-02
-7.337063823249329042e-01
7.061758901686371326e-02
3.008967670025013419e-01
2.021706961688120308e-01
1.993674153213176592e-01
2.604647949507645222e-01
-2.252074899202491723e-02
-1.628772816257004555e-02
3.012312381987706719e-02
5.020227477498027946e-02
7.982432704204296681e-02
-1.395971006931800464e-02
-6.154670809284359945e-02
1.129109898980047710e-01
1.973871646682773817e-01
1.788448090875599875e-02
-5.724087663447815499e-01
-2.560161588319587733e-01
-1.140421496596316780e-01
6.555020445612136371e-02
6.162054881294219688e-02
3.120810559282443108e-01
-5.196728539491132781e-02
2.390880302158789605e-01
2.513769453018400712e-01
4.452289057032032121e-02
4.287212071436673905e-02
-3.016479094443911269e-01
2.287860463846207448e-01
3.240543443939642443e-01
9.084094502846164210e-02
3.592157703164599591e-01
-5.333383124088149352e-02
3.329544099959739351e-02
-1.501875417358926879e-01
3.313335857778612614e-01
9.949315811264834719e-02
-1.245901869809508677e-01
1.499010050292637168e-02
1.436098989292505512e-01
3.921237830088006304e-02
-7.474258567967626554e-01
-2.157052167433994305e-01
-3.632437372551405308e-01
-2.622281763174126312e-01
-5.382581550058925662e-02
-2.239319958732095273e-01
2.907590512944883687e-01
5.429030991962714714e-02
1.713054064583933167e-01
6.058948516414464774e-02
8.697346042119348530e-02
1.349385656948222656e-01
1.857427752225844775e-01
4.822089008513052444e-01
-2.302444505886079573e-01
1.091672252109550656e-01
-4.854273354536072782e-01
-3.050495013249212573e-01
-8.668301855885961194e-02
5.409630372123683251e-02
1.868978157460346456e-01
1.419247187356227069e-01
8.976131098312120637e-02
1.454094061979396002e-01
9.502420586721703477e-02
-2.514262407891598022e-02
1.266503597123801728e-01
-2.093378729483560963e-02
1.301385308301529209e-01
-5.657354199102404557e-03
-1.487480136518104235e-01
-2.111828610009792648e-02
-4.821700935300830826e-02
7.660920776433137458e-02
-2.683254118006127009e-01
1.017401068009616827e+00
-1.753694529392597623e-01
-7.788674411141772308e-03
-1.810822890126820035e-03
1.460991983521280624e-01
-5.597174389180136211e-01
-6.000011511520058488e-03
1.409895535644172526e-01
3.474450316501732638e-01
3.381020363924058247e-01
1.007582769258016236e-01
3.215111695163949124e-01
-2.156221055298487010e-01
-9.745017646803154354e-02
-4.432341201290383725e-02
-2.093449221872659138e-01
1.696887285993700948e-03
-4.424423234841220465e-01
-6.185187000373876254e-01
1.543172430336866852e-01
9.668124187685734894e-01
1.607622642583390882e-02
7.897205307126239915e-02
-1.162585982850328076e-01
1.106141335032184037e+00
-8.096020875934992755e-01
-1.922896966451953515e-01
-3.130460392299173056e-01
-6.337791256766492909e-01
-1.074694793346393229e-01
