-2.597958294573727289e-01
1.072261793299825960e+00
-4.043723446174863345e-01
-1.228482374286079093e+00
-6.362021962700860067e-01
-1.174935165725310870e+00
1.132543020480375029e+00
2.799082828076356222e+00
1.724714245126751921e-01
1.773985504175568773e+00
5.638293177157840397e-01
2.512515594911547634e+00
3.753928969460816889e-01
-8.605070688155741498e-02
8.172336641303751259e-02
6.466236823727529170e-01
1.218107506242117194e-01
5.050674870657029247e-01
-7.758054000600042022e-01
6.202935001348155453e-01
4.139869483374034043e-01
-4.493558418856137826e-01
-5.542338335241903113e-01
1.111527949363235290e+00
-8.163319210137000015e-01
-2.852063156350266304e-01
1.440602496761730633e-01
-5.917493983901649379e-01
5.273075507883601132e-01
3.391206590059550607e-01
-2.562211428230454224e-01
1.170872649461438764e+00
1.214107579702168760e+00
2.569485559682677112e-01
-3.524300289653189977e-01
6.340557004944159525e-01
2.964164434468269937e-01
6.694068871304545976e-01
6.161946713827300137e-02
-4.194579404401413414e-01
-8.892403546252118929e-01
-3.180981068929578659e-01
-3.365028709827730391e-01
1.395459670019372211e+00
7.020236379253278480e-01
-3.575075484634860357e-01
-1.663363304027368761e+00
-2.367691120701681751e+00
5.976999882019005256e-02
1.279157604701978146e-01
-3.058510702215391230e-01
2.461956671510487638e-01
-1.211915790305439916e-01
-9.461617072197207046e-01
1.271269646028307942e-01
2.840785583890134136e-01
4.890787259933225828e-01
-3.640218670712228599e-01
1.192522132706189536e-01
1.365141821734482119e-01
-3.006483521178689861e-02
-4.149287989886178418e-01
3.160055487685553000e-01
-1.209853396924162883e-01
4.278178238262900224e-01
-6.405284449141567249e-01
8.141486900327904452e-01
-2.530988522759877180e-01
8.135164837658734327e-02
-4.233905417416800390e-03
-3.880925576558971191e-01
-6.402093286514616288e-01
-4.854221287422558206e-01
-2.704808426824328871e-03
-6.908069635482414483e-01
5.452032380048043025e-01
-4.137799902565444943e-01
1.216908562144149580e-01
7.230508312343361665e-02
-4.114861340104662424e-01
1.020692620224626229e-01
1.321332921287222129e-01
4.645849297272547362e-03
-2.537884170634393532e-01
1.952421928357878367e-01
2.829281782018220337e-01
5.246071223754756874e-01
5.265240959103891644e-02
-6.786005374129864265e-01
-1.865542574429084333e-01
5.547393470152928163e-01
-1.056405469268332231e+00
1.676465040814375806e-01
-3.459387973880227451e-01
-7.327247960612148781e-02
2.969363593633117526e-01
3.922413818577167866e-01
9.603322125856303959e-01
2.709199917129001545e-01
-2.251204163770314792e-01
-1.895481593556019861e-01
-2.545516739843169951e-01
4.555785258672851584e-02
-7.274395841273620933e-01
4.506597308516441247e-01
-1.145089197195822556e-01
-1.550970289682397640e-02
-3.186937166077120076e-01
-2.482610649342883724e-01
-5.159378728857556551e-01
-9.634329262972307628e-02
-5.827585022301513540e-01
4.040416761924686129e-01
2.692996390766065895e-01
-2.865332927819890657e-02
-9.035010198635631817e-03
-3.301157169749351361e-01
1.012427669105940009e-01
-2.537064809422968636e-01
2.678225002122028853e-01
5.579947113878208978e-03
-1.205678446627415967e+00
-3.463250045387716303e-01
4.745786418701603560e-01
-8.962050757113749766e-01
7.983553595391726931e-01
1.224129321963029621e-01
2.861049924747872675e-01
-7.627797879337806508e-01
7.659203811474429857e-01
-4.762065125291159440e-02
-1.697802252473918250e+00
-2.394846147427782679e-01
2.711420496984723871e-01
-1.758471418021926747e+00
-3.090389806557096719e-01
-2.217660841708252450e-01
4.676778786265911037e-01
-4.771309707978755865e-01
1.377390856044642842e+00
-3.005825172115906274e-01
-1.299245019141300472e-01
-4.272686957181165979e-01
-3.415110127924822492e-01
3.155290270574473421e-02
2.248486331998478527e-01
1.985685973743998578e-01
3.830576518502567529e-01
-2.968591750161749671e-02
3.293590824413214491e-01
-1.933320670068038316e-01
-7.683729156004663885e-01
-9.004273266557270006e-01
-8.402711729549410258e-01
-9.533267250354434674e-01
6.470306683651896318e-01
4.612377666976603119e-01
4.669831343888811159e-02
3.416329558784066966e-01
-1.114068596677918049e-01
-2.769220923940651224e-01
-1.116649479097028275e+00
6.018045790832259323e-01
4.470715154913312284e-01
-6.804093523222226603e-01
2.427864766046360367e-01
-3.991242474525802386e-01
1.620076486441152375e-01
3.448120549617218478e-01
-3.402639465273201158e-01
1.626201548650939854e-01
-1.742058462566968169e+00
5.017129568119776950e-01
-2.111722871960586556e-01
-9.200651092799417841e-01
6.485532074960278504e-01
1.566032863219283033e+00
3.790869846265552123e-01
-8.175811565710132400e-02
1.580848998040907061e+00
-6.257280252760958339e-01
1.801675915018861596e-01
1.030866108468420222e-01
-3.168809847340182673e-01
3.229080532823989103e-01
-3.319531910580404976e-01
3.577254723058819197e-01
-2.286240012965732871e-01
6.162463496425232279e-01
3.044482625973018441e-01
-6.661991435974712328e-01
-1.213463061081299366e-01
3.983400332626787499e-01
-3.181515465801109110e-01
1.655393274679066162e-01
1.977480045589865287e-01
4.863019294945330473e-01
3.801612623509394856e-02
-4.749852112080214794e-02
-1.465133044575578081e-01
-2.871916451711448715e-01
4.594669504380011760e-01
-6.349612742207552674e-02
-1.457192326877361499e-01
6.433989420462073346e-03
-3.894861153263622783e-02
-4.566415512232051364e-04
1.879446196954661086e-01
-3.748327341319895867e-01
-2.792520174562332369e-01
-1.724474655693564451e-01
9.525326352740337565e-02
-4.150755209497206111e-01
-1.434716254246623524e-01
-2.709749059372718386e-02
3.241058410867249107e-01
-4.663363368196851017e-02
1.818953020835915313e-01
-4.076547642403930416e-01
2.638595981239555965e-01
-3.119361858408160049e-01
2.635752222884092943e-01
-1.413240514678325566e-01
-6.157451764320392984e-01
3.028072424265129681e-01
6.512396690359638536e-03
2.490602902691297499e-02
2.797763084242178011e-01
-4.202326306708825676e-01
-1.936711226839595845e-01
-6.362336818897711410e-01
9.396924526290456603e-01
-1.399872357053981053e+00
4.740523753441470631e-03
3.263968070263794097e-01
5.202600115526523350e-01
2.259412258787512617e-01
2.942723041704279341e-01
-5.736224117733313976e-01
1.119641874109218227e+00
-1.388958703616190171e-01
1.789325352585192097e-01
-3.607511534302416112e-01
4.779657497260817456e-01
-7.313496891287435409e-01
4.269267280950984067e-01
-5.407810997453302848e-01
2.941027200518677928e-02
-2.928239710232184434e-01
6.826885715586080705e-01
-3.744399580462791643e-01
3.554473335707937498e-02
-1.391572268578260274e-01
-1.839292284021492030e-01
-3.910227359599897645e-01
3.583485158715108976e-01
-3.439330606113564365e-02
4.821109333215352621e-01
3.492395694583449450e-01
-1.143050953734156411e-01
9.874133961422033590e-01
1.528422369069242892e+00
-2.395419052873531962e-01
-3.093741861827496997e+00
-4.970516536406960895e-01
5.318080431440519451e-01
-1.296029727921609087e+00
1.402361892411128075e-01
7.333675898267414395e-01
-1.594237125740105565e-01
3.955394857155123955e-01
6.894649508566695895e-01
-3.156235437464606886e+00
3.982122770367014786e-01
-8.926437795538814113e-01
8.657032570592094745e-01
8.915333304866913666e-01
1.068488565996273065e+00
-3.427521853941584595e+00
-1.505578297093017159e+00
1.827948498819748080e-01
