-1.614772036411573145e-02
-1.939794858761194341e-01
-1.821301847695811328e-03
8.416645714795787381e-01
3.113581928134627752e-01
2.805655665112316011e-01
1.041854119213398766e+00
2.405966500527328272e-02
4.586924362443921543e-01
-2.355924466494469238e-01
3.047560247337687822e-01
6.663634005729066612e-01
7.329674691573131659e-03
-2.114501049156655987e-01
1.898454540785057543e-01
5.391954325621960142e-02
-2.675484994432379693e-02
-2.510603251392818369e-01
-7.173702367304797263e-05
2.760372931696937204e-01
-2.583573722108007398e-01
-5.742637717510453710e-01
3.585258052108247773e-02
5.002253205952640613e-02
2.289902364174021265e-01
8.287781935951118450e-01
-2.480919814140072552e-02
7.102914393986594632e-01
1.053353321822709576e+00
-9.111081462479919679e-02
-3.437540931110327769e-01
-3.197917027272696999e-01
1.243058302723940439e-01
-2.454216879350019087e-01
-1.026518537804478326e-01
-1.578829007449877864e-01
5.266362364092829623e-02
1.372412850098169712e-01
5.751240822834449151e-01
-2.496242551206475369e-01
6.984042282915663424e-01
2.602695369501677458e-01
4.716358465691804919e-02
1.132694440086871701e+00
-3.324170883863850623e-01
-3.143222471565700893e-01
6.432654329174615215e-01
-2.721743210145991312e-02
-1.499720595758417992e-02
1.015453909140241251e+00
1.339558773119296387e+00
1.040069774490517823e-01
-3.395458710986093975e-01
5.537747342963293962e-01
3.469170979142008338e-01
1.251638979533595153e+00
-2.932530162797332765e-02
8.404055395768286751e-03
4.262256647054156744e-01
-1.864569179000298040e-03
8.363188215715331442e-01
4.207324787320482207e-01
5.655883145388859168e-01
-3.423678892888528669e-01
9.646428188963040995e-02
8.833486187133128276e-01
1.733451081864705590e-01
2.630853781511373612e-01
-2.513799407835938249e-01
-3.884436030970418452e-01
-3.233200698590559669e-02
3.872724700245093188e-01
-6.417470432889832432e-02
3.235417342914702621e-01
2.548311850165783099e-01
-6.871508927780374532e-02
3.020597149506806800e-01
4.185931251621466398e-01
8.585366040643294117e-02
-1.204303430611528003e-01
-3.735435374205222508e-02
-1.840876515244978529e-01
2.380466801165845650e-02
1.109025909310513147e-01
-2.917664672933342196e-01
3.560235897401060196e-02
5.049181142449388898e-02
2.263383076319122264e-02
2.309504860882177213e-01
2.075782352027762956e-01
-5.163741462496537760e-02
-3.220503315817837553e-01
-3.064034245622420105e-01
-1.971508888336424847e-02
2.692925937655306079e-01
1.389268757454428238e-01
-2.377654628757661648e-01
-2.155488736498064883e-01
-8.672306936409533706e-02
6.490780978852347949e-02
-1.214471682134205151e-02
-7.816740988240049315e-02
1.664537058014226578e-01
7.024832289540990093e-02
1.035309704497989203e-01
-1.496956327111973253e-02
-1.101838689762324247e-03
7.302020995540271960e-03
-9.795477186743502263e-02
1.614922979524051894e-01
-5.459855601335734943e-02
-3.589000265257246552e-02
2.003702646340508042e-01
-1.768905297638168062e-01
3.399672587443285932e-01
-1.063471760948554862e-01
3.294767554129407819e-03
1.421763908078887972e-02
-1.538241495555530552e-02
8.608566581451974897e-02
-9.546345414777930583e-02
-1.768437785645452787e-01
1.057166080254751811e-02
-7.579087841842144235e-02
-1.353291730082831733e-02
-7.767832613475250669e-02
-1.173549442520537694e-02
9.718200172557023286e-02
-1.285965053470258454e-02
7.886708541133047312e-02
-4.208657527958267752e-02
-2.454345514031914741e-02
4.335779010342660084e-02
9.607745834653884376e-02
-2.815063355398104636e-02
1.405933397773084237e-01
-4.199509818521646176e-02
-1.582700563965151741e-01
-2.020699273257540174e-01
-8.960528164784685445e-02
9.000605194465818859e-02
-4.427473181233550215e-02
-5.006899034575678087e-01
2.532127177558052833e-01
1.723818187069488805e-01
-1.211789879299134676e-01
1.287025488612140722e-01
-2.694170136630996693e-02
-2.012017180605115210e-02
-4.743495135053155815e-02
3.848971977730527433e-02
-1.714742613171905128e-01
-1.133913731133720376e-01
-1.672576449229311868e-01
1.098417397792104781e-02
1.412271580249437886e-01
1.841437064833210957e-01
-2.334879925876206640e-03
-9.464052204122422318e-02
-5.519188177562549952e-02
-1.766676240442675849e-02
9.654190261505685156e-02
-1.907047905001078500e-02
6.640418631655377671e-03
-8.673380641784671219e-02
9.742558842890211568e-02
-2.925899452121610289e-01
-1.894568500381497295e-02
-1.528413933392389068e-01
5.536158188411097886e-02
-7.080322411238677838e-02
-6.346268021959383665e-02
4.493327873248494433e-03
-4.646054850383826013e-02
-1.703313666138645266e-01
2.255529242360327508e-02
-9.850422678573840518e-02
4.653200841444020928e-03
-3.303252069906665450e-02
-6.415239725181046127e-02
-6.102855074472102875e-03
-3.468281289889005997e-02
1.037245118026592673e-02
-7.264093832009638207e-02
2.465767281731068988e-02
-6.896904431147435344e-02
6.418980606317362114e-02
-9.604132688355807024e-02
1.081590988362583911e-01
-5.882462650756992151e-02
6.357047834929689840e-03
1.091698910281148349e-01
2.212038404257212973e-02
-7.604236362093477752e-02
-6.222689833779161163e-03
1.298713872442178452e-01
1.000512316982185047e-02
-1.578453003493815454e-01
-4.943211690289479876e-02
2.690778948752058780e-02
-1.273130510850352670e-01
1.172845187210874995e-01
-7.884230465686628553e-02
2.835169650642116457e-01
-3.716484694827462687e-02
1.296827800282493448e-01
2.162007370013050659e-03
-1.290638810756156683e-02
-2.747070828527279490e-02
-3.906661118369681579e-02
-3.847241053847135772e-01
-1.033493510680198561e-02
3.035040852700314484e-02
-4.315297222725077986e-01
7.490141678217628052e-02
2.536652179345808555e-01
1.353257132929256701e-01
-1.863070446150130732e-02
7.751258459008819601e-02
-1.233247240327923488e-01
-2.201639912052527071e-01
3.044121285895652618e-02
-1.584128683462588533e-02
-3.745393150419855030e-03
-9.716689047569961046e-02
6.284154368486666309e-01
-2.057626983652379449e-01
5.882029131461305460e-02
3.755123044334993110e-02
-6.102389143992375913e-03
5.486228029685865509e-02
2.468350560167332369e-02
-2.290723605852942879e-02
2.753103408212407080e-02
-1.521988265714180888e-01
-8.588987294512816228e-03
-4.052288901988126274e-02
-1.249400295714462178e-01
7.067962719648013259e-02
-1.028178920976823840e-01
-1.345834282892258149e-01
5.656580682177780872e-02
1.146519383719530050e-01
-3.174061324364785275e-02
2.086700764596884361e-01
7.770965122893827570e-02
-1.009867932309264221e-01
7.358185588522270226e-02
-8.212642316055250580e-02
-5.760511393907740557e-02
-4.284238551388678401e-02
-2.712579596160379358e-01
1.310242140035022540e-01
1.356008615617366742e-01
9.763074364797894034e-02
-7.147453533340994425e-02
-9.082972794887274326e-02
1.843419788607834897e-01
-1.604142752801055172e-01
-1.791706411125947029e-01
-2.923932923678193227e-02
1.245586098958560289e-01
1.277491196339560885e-04
8.885666181295732990e-02
-1.203379711663185858e-01
8.458830562330592329e-03
-6.029613254970211250e-02
-1.773102167299435428e-01
-3.814956016974684061e-02
3.683980416012866410e-02
6.392726051705932555e-02
-1.811764858956842195e-02
-1.206077539144226329e-01
5.948699232913677581e-02
-4.906460009473771061e-02
-5.149764492217420719e-02
2.625535441103090672e-01
8.432712662401327386e-02
1.910761770578215946e-01
1.071868614523601021e-01
-5.010691758254599837e-02
-4.875068400498085153e-02
-1.488761564786816316e-01
3.713717121014539074e-02
-1.701211384464420065e-02
1.769851584492940777e-01
-2.519922010021466777e-02
-5.181902332589095883e-02
-8.877213805796706214e-02
1.303531291718205629e-02
-1.631480608999875681e-01
-9.225023256613068545e-02
2.682321368375562010e-02
1.104143748055273072e-02
1.208982575909433588e-01
6.301271280257911278e-02
-6.621787641037370220e-02
-1.663029584298625005e-02
9.582223150863550254e-02
-9.122046675391237702e-02
1.174449114603193928e-01
-1.933934482204659189e-01
1.095297595537950003e-01
4.705499350649419710e-02
-7.269815519050421004e-02
-7.739402432317250835e-02
5.085669006781352169e-02
-9.862293960110699031e-02
-1.477362730029800897e-01
1.917650702147880859e-01
-1.293006213831588980e-01
-6.399475064974932681e-02
-3.098360550340894040e-02
-1.631024464054702805e-01
1.310629812955941501e-03
-3.104695154316060995e-02
2.973872870644534913e-02
-4.509792851943659336e-02
1.039082648137992226e-01
-8.828628499535437490e-02
-8.795185024807897212e-02
6.999102063169658494e-02
1.792687087914677790e-01
7.643824953844763348e-02
-2.146616414842576759e-01
2.257638048752335924e-01
-1.239645423594204487e-01
-2.432217909577192791e-02
-6.524570977405358407e-02
-2.135522698370909411e-01
-1.708623891960509011e-01
-3.520520000637148567e-02
2.679429874395247019e-02
-1.520094720468938287e-01
1.932154674792259941e-01
1.640227074853205791e-01
-2.680849172413101722e-01
-1.066912473600697825e-01
1.038275487480442988e-01
-1.599162852629142928e-01
-1.748632828974626685e-01
-1.265028768229890521e-01
-1.034556445876184949e-01
1.486507777470761071e-01
-8.688486981523993458e-02
1.958199038850432991e-02
-1.184237303573512506e-01
-7.663909454526476872e-02
-1.369397754803804990e-01
-3.216253261099057820e-02
3.139853226015675708e-02
-5.150435841347843907e-02
-4.741717754229518578e-02
-2.283159550582759822e-01
1.364800997533039545e-02
-1.225084637003956423e-01
1.491856885440229763e-01
-9.195999251271756714e-02
8.558263064129112418e-02
7.420151470011505934e-02
-2.990863094267122158e-01
9.816839660569683101e-03
-2.322727871459161764e-01
4.627660981088524417e-02
9.236733352466736102e-02
1.594212214097907587e-01
-1.376234462877050369e-01
-2.339936868951372206e-01
-7.670165684425199470e-02
3.264661464815012126e-02
6.799992418585275311e-02
-4.353532018032077455e-02
-1.773040114793530686e-01
-2.341768396333900881e-01
-9.666405905178591940e-02
2.423215881401868856e-03
-2.509736481627309335e-01
-1.320322275469021020e-02
-4.220418298098775568e-04
-3.125140889684509538e-01
-1.048588705162974422e-01
1.045618529812541650e-02
1.851323304766273048e-01
-6.080095776522809886e-02
-2.789223191260590817e-01
1.570889400700342664e-01
8.648336477119467069e-02
1.001314381163958753e-02
3.149670778144282868e-01
1.097512803423118105e-01
5.656700751309539504e-02
-1.824074923739268383e-01
3.427815981711957449e-01
8.051380566399210514e-02
-5.761879962145681489e-02
1.903050191736068569e-02
7.816390455381942715e-02
-1.059682958681858606e-01
-2.505869624367387111e-02
2.229808596372874138e-02
-8.654382157935026909e-02
1.816130373733835512e-01
2.102954866270428103e-01
-1.810883961911554096e-01
-1.779579424051924430e-01
7.404998064847671813e-02
-1.240832779879619263e-01
-9.816351996750415781e-03
7.172304109612184786e-02
-3.418388121006975949e-02
-1.783705306775708876e-01
-5.859272984775532739e-02
-8.993053456745994309e-03
-2.140848002081863211e-03
-1.939150746787241253e-01
-1.886192296586535477e-01
-6.986411030582115322e-02
1.243871999679360546e-01
-9.390161457500884046e-02
-1.937163164807213789e-01
1.636526601671865755e-01
3.222822565395754707e-02
-7.150807247317625404e-02
1.438031293733459948e-01
8.002807991305312119e-02
8.069480062388672756e-03
1.438218144520225089e-02
-3.292951974465764715e-03
-7.760589232107487079e-02
3.099801238933789713e-02
-1.804958534486800908e-02
-2.224590440244872402e-01
5.171176953129066889e-02
-1.213497099150822878e-01
1.325297527656311147e-01
8.562763245517659993e-02
-6.273991975762917284e-02
8.235448363009918379e-03
-2.310116856317946943e-01
1.061320776453614778e-01
1.022211863587573905e-01
-1.146635358832519824e-01
4.276091852752744726e-02
-1.621424163251342920e-01
7.643388776940551917e-03
1.048255644959779770e-01
5.397193569079924286e-02
6.220594234808286133e-02
1.029590665197313154e-01
9.307346822875922632e-02
4.417995519223783529e-01
1.101453807231505683e-01
-7.891954945060751514e-02
4.541068159054385128e-02
1.092229320186194202e-01
7.186746506731851725e-02
6.888387969046014248e-02
9.698754257628471043e-02
-2.281522215778473417e-01
5.097504577406537785e-02
4.968630500746946954e-02
7.767258249989395479e-03
1.276387007087265435e-01
1.786184462940756112e-01
4.886760498485704513e-02
-2.045735703072465994e-01
3.202112839196434302e-01
-1.094774408609621441e-01
7.760917384465634838e-02
2.148028241761760770e-01
7.538603155377980591e-02
4.147889117763430694e-02
-4.350896061617886418e-02
1.568708771195186438e-02
3.737556568412165464e-02
8.697353562643946046e-02
-1.034930630294577242e-01
-1.672806625756904364e-01
1.128432451282714993e-01
2.593357894703704480e-02
-1.245898126610561901e-01
-4.940605478035444559e-02
-1.252822866399416202e-01
-5.267790228703341654e-02
-1.571507247081463388e-02
3.096930482610766311e-01
9.274732828653188543e-02
8.431594337738426703e-02
-1.238380989911527508e-01
-6.857947053043335350e-02
2.676353120812692832e-01
1.399574574197700316e-01
-1.668873583693821980e-02
2.159013952093100930e-01
5.738489006953691879e-02
5.772789305527339238e-02
3.765623050684724360e-02
8.803588183936661427e-02
1.841685546810356289e-01
-2.239321893282052445e-01
1.490094162029371450e-01
4.179329191330568571e-01
4.327814440904287352e-02
4.147459173540105071e-02
5.945029082907477003e-02
-9.311010118663833046e-02
1.012530365838339164e-01
7.968634772393090593e-02
1.727150503938693904e-01
-9.716572800664959042e-02
5.512395375385837487e-02
-1.433897052736666511e-01
1.999030202270082879e-01
-4.097520144286206228e-02
6.211892385502815195e-02
-1.471549301995584980e-01
-3.716607948898616176e-03
1.250768476657544426e-01
-1.720763596269956740e-03
1.505559965717166715e-01
3.282286585460132411e-01
1.247991355300625965e-01
-2.326811370023892846e-03
1.814087631243364862e-02
-1.199668928150994171e-02
7.422780192950124978e-02
9.157529587957255468e-02
-1.359380387234858378e-01
-1.156463723144234568e-01
2.865162525515331515e-02
1.196194335686879412e-01
-1.940258014637790407e-01
2.028071947837742084e-01
1.331867138068116574e-01
-2.191156893841701009e-02
1.377131682899977450e-01
-1.194317538610032391e-02
-1.635993515905301635e-02
8.964507393355558573e-02
5.668240183650354730e-02
-9.984227147474078121e-03
1.359314219940963298e-01
5.876763967722042903e-02
-8.824322298415203381e-02
2.493961092659891660e-02
9.094436058412147528e-03
-8.166303859532464057e-03
6.394329706261336899e-02
1.157112087858481880e-01
-1.378118822486805728e-01
-6.381827626831593214e-02
-2.070462629071438965e-01
-1.187528565440340717e-01
-2.836006909455379005e-02
-1.308470237742100258e-02
-2.420208367931488309e-03
1.264024276513531567e-02
4.478238763416807905e-02
-3.095731523190464393e-02
-6.599832562641309852e-02
-6.052163738653465463e-02
-4.576896189780716578e-02
2.704401713646375008e-02
2.082162650740103024e-02
8.997451324658395366e-02
2.214458942900385946e-02
2.179285305401985548e-02
4.683532717067030032e-02
-2.507637083442538529e-03
-1.207673931310826176e-01
1.681317696124374483e-01
2.713795928376379063e-01
-1.752180466383915225e-01
-2.004620084495358501e-01
-1.329630061180224476e-02
2.489764454887898881e-01
1.049444236819599696e-01
1.177571505807819413e-01
1.095282609419142711e-01
1.426637545334600299e-01
-2.657423367586787821e-02
-1.799669425437898929e-01
-9.450561877955931944e-02
1.198874558064667861e-01
4.973472547775291408e-02
2.275986405789547362e-01
-1.327959914253996065e-01
2.187110006208885793e-01
4.553032225845912717e-02
-8.768288394917821138e-02
-1.598049301145445730e-02
-1.207569363083227792e-01
-8.352251085781708939e-02
8.501372408234995903e-02
1.696041942202730635e-01
7.207068812397297852e-02
1.419475090870087608e-01
1.066448398125625398e-02
6.411818916479186496e-03
-4.891672296084838001e-01
-2.392978124682317020e-02
-1.259939283530369103e-01
9.278678045566572663e-02
-6.847914011846727156e-02
4.833777785406149358e-02
-2.697693034651558325e-02
3.273951037380021800e-01
-1.963407633851714518e-02
2.218189864707014944e-02
3.482154424323274933e-02
-2.821241234359138095e-01
-9.008445597015445061e-02
1.363774929949807257e-01
-1.749311863284219726e-01
-5.614657572144680225e-02
-4.925719831321557010e-03
1.987487791268491288e-01
-1.099119614320693827e-01
-3.492738883999903232e-02
2.949065352317860669e-02
-3.573785112073613740e-02
1.056166583337291298e-01
1.456707683360283223e-01
-1.382728106892688880e-01
-1.187767387077046793e-02
9.247121950697591297e-02
1.200551886037683896e-01
-1.718378887602806659e-01
7.695773040744262328e-02
1.480845394096715617e-01
-2.251987344460710250e-01
-1.437408221527938790e-01
9.441586189863419853e-02
1.933111913223133993e-03
-5.856283259931459317e-02
-3.131016122086512782e-02
-7.490411689714529531e-02
1.584940597771420656e-01
-7.551882917717635257e-02
-1.962238270791680575e-02
-2.944488842075754231e-02
-1.238856474553084591e-01
-1.260124148485488593e-01
-7.324163357637816785e-02
-1.224244176019372576e-01
-4.649487232199113473e-02
5.189644006753869367e-03
-8.847857988635386695e-02
-2.370536589311467504e-02
-8.090058037840097693e-02
2.320980847531244895e-01
7.261612879091512707e-02
-1.791088910721512495e-01
-1.680213841410962416e-01
3.774935396616082434e-02
-1.817737517893963928e-01
1.750859322653801065e-01
1.192863045546713185e-01
1.370165575452787082e-02
-8.030725259041903222e-03
7.777603145214716518e-01
1.881905362372280066e-01
1.729457519449988656e-01
-3.385125234474516132e-02
2.124295022262105981e-01
-6.318166903510948063e-02
-3.478623556989821064e-02
-1.167941005785667341e-01
-2.496541890854963447e-02
3.766585656376672531e-01
3.772426437913536934e-01
1.106872393752847961e-01
1.991278783169810884e-01
6.092782368799738030e-02
-6.755522153656458306e-02
-5.144754454018346523e-02
9.528329786239576882e-02
-2.083675514050433164e-01
1.795621024709652749e-02
2.141181095841221127e-01
-1.641852255555444062e-02
2.927885856560791256e-01
7.924687839455206440e-02
-1.674412892376655471e-01
-6.608674347712523156e-02
-1.413418937954065077e-02
-1.997901268687247156e-01
-1.192651711764203537e-01
7.996619850869619850e-02
-8.973469822237380156e-02
6.885255745613459710e-02
-4.558313983769281957e-02
-1.473381190037001409e-01
9.359906667892849141e-02
-8.111544461528633065e-02
1.043529559108409138e-01
3.202775464807436356e-02
1.102368214414848890e-01
3.757709506894235923e-03
3.383631918666905602e-01
-8.099331203575980964e-02
8.671960521683028111e-02
-7.299238352410711284e-02
1.618916729464500992e-01
-6.132798646552641009e-02
2.360563001618095624e-01
-1.854019547357231290e-01
1.880259512400201949e-01
-1.019737771869197729e-01
-9.341007334266156203e-02
1.813906015915035530e-01
4.500045470808942960e-02
2.148213989581415073e-01
-6.547370519626437291e-02
-3.422364958723906475e-02
1.572944210698684064e-01
1.026791972267918074e-01
6.374059000655510343e-02
3.695296564891106805e-01
6.748303533423838374e-02
4.729128195613836044e-02
1.343793724075653196e-03
1.901803532426128984e-01
2.701332744137812172e-02
-1.123275906018279674e-01
-8.182394475957402435e-02
1.503232093977593109e-01
1.401020472209719148e-01
-1.944491412688574283e-01
3.142891513492843680e-01
-3.170087924565230530e-02
1.287316162142183584e-01
-1.255184345620996289e-01
3.732052222275309555e-02
-1.112037776757709845e-01
1.680405495229029822e-01
1.576958313014483193e-01
-6.029992774921583143e-03
-1.491234691187522284e-02
1.156894508558035765e-02
-5.752088634041654241e-02
-9.750948564826271425e-02
6.646179443740114767e-02
1.034585824518701597e-01
-3.439876320223919648e-02
6.381259661201484079e-02
-2.182544396421617905e-01
-7.212620106619324623e-02
-4.381014314392458336e-02
-1.762342250564310348e-02
2.268506418665593941e-03
3.294657718096782872e-02
-1.928502032419668610e-01
-1.743099347489426021e-01
3.153252931163753187e-02
2.706778694571437271e-01
1.222508774219751154e-01
1.139818458745009561e-01
-1.370685238251651838e-01
-2.088336981608956977e-01
-2.324216139979000950e-01
-1.299126766047177528e-01
-3.958376648452760493e-02
3.219092564083259056e-02
1.922982158983986833e-01
-4.005877027803914081e-02
7.374310057477120872e-02
2.220088972954218642e-01
-1.413130997854000585e-02
-6.407885111071429107e-02
4.396206280095309865e-02
-1.121694050467774290e-01
8.964313556108621794e-02
-1.388802228075535113e-02
1.750665170580280872e-01
-7.381494766611583491e-02
1.104439549769433565e-01
-7.793940836223677004e-02
4.123009178646772077e-02
-2.395220002526648739e-01
-3.054041158158163002e-02
4.407765449104500410e-02
7.458871994894079871e-02
-1.052319143273762053e-01
1.019936050022755558e-01
2.376768346368141882e-01
-2.032854579742534584e-01
1.105589725033715165e-01
2.943987313123812809e-03
1.661353140485246488e-02
7.666533817253293193e-02
-1.576518088170052456e-01
1.865132782747514970e-02
-3.223344817542776047e-02
1.003648837216670753e-01
1.603956126784380209e-01
1.428018277903327360e-01
-9.530442405609393375e-02
1.050308627739893058e-01
1.563077074164774261e-01
4.243217723226928584e-01
2.071748861799222186e-01
4.268803063080435500e-02
1.427622590462885588e-01
1.538311741708442704e-01
9.268698471402932876e-03
-3.316312034067435410e-02
-7.423067986391142237e-02
1.810950295406796029e-01
7.827121570207651313e-02
2.545656821869936026e-01
-1.237153356207765509e-01
7.081851823064838625e-03
1.169103682111032050e-01
1.902522710056474275e-02
6.126279210767435895e-02
3.418085986372002005e-02
-1.946538948770125399e-01
-5.505661088035727901e-02
1.112666913912722794e-01
2.604841717223340680e-01
-1.353931018128829988e-01
-8.733467586280933836e-02
-5.567885117151302049e-02
1.874401187581246691e-03
2.679224578627332209e-01
1.367888197936098782e-01
2.615355299142191892e-01
-1.208160481010957764e-02
-1.232248234003322784e-01
-2.732879731469260720e-02
-9.861814053028235272e-02
3.292887078576220428e-02
1.963583633623894875e-01
7.083529646679839753e-02
-7.117481265445711747e-02
1.460015883211530918e-01
1.846948001698272279e-01
1.097328945120980698e-01
7.589618942633309662e-02
4.622837961694204606e-02
-9.145528353086770923e-02
-3.356530902603235833e-02
1.887429000803650669e-01
-5.920999119761375523e-02
1.829241959494768144e-01
4.902055309478357825e-02
-1.752336267137009351e-01
8.176473007623089040e-02
1.257474963753968666e-01
1.865842544186319951e-01
7.781379233515527127e-02
-1.639600047622948586e-01
1.861131583987827853e-01
2.021279380911172180e-02
6.496978948612329441e-02
-5.005387878258539536e-02
2.238662918609559543e-02
2.588208481574756914e-01
9.845247069483628599e-02
5.189846406640249293e-02
-8.983439367122000516e-03
6.998860171916444772e-02
1.687592865202223180e-01
6.734450259088081703e-02
1.534098130307567920e-01
-2.629586652510104011e-02
9.165409770274028645e-02
1.897558192437267871e-03
2.227677658712452768e-02
-1.384674183703175632e-01
-3.563399618701949129e-02
3.484240140082734555e-02
1.026365709447270014e-01
8.829347337745717395e-02
-1.310073405314995665e-01
-4.060201929667386217e-02
-1.787615963735423030e-01
2.451621952413753636e-01
-5.556936084443734464e-02
-6.320258000546134791e-02
8.629860603130543040e-02
6.879071614748147323e-02
-2.982437288955966728e-02
-2.381052527380896761e-02
1.296459867066037663e-01
-1.626070138751569416e-01
-2.273349732705977622e-01
8.897446108443704538e-02
-1.007758631023766699e-01
4.703762474620057366e-02
-1.015190863326958653e-01
6.895376332543901032e-02
6.565628944490388419e-02
1.554513081302763833e-01
8.854983709178756990e-02
-7.492201201284819090e-02
-1.860762168407079920e-01
4.275650862038881533e-02
9.339852885399420324e-02
-1.009924095437424035e-01
1.819618479727188876e-01
-6.576525909125000707e-03
-1.487768185964578882e-01
5.102733236467392464e-02
-8.486343949928180919e-02
3.802529510775734534e-02
1.742973374464440728e-01
9.621307243259399899e-02
-1.397110388066823694e-01
3.274625210167325662e-02
-1.746877688714737475e-01
2.193079349320333979e-02
1.765859327895596687e-01
1.295475572074204773e-01
1.627562674778709195e-01
-1.792737175037892872e-01
-5.449424504673176101e-02
-2.095246138548585019e-02
-7.244226470287672137e-02
-1.884883035248414995e-01
-4.984636625557554296e-02
-8.539767359164106633e-03
1.336801885671801970e-01
-1.086429495024101577e-01
-3.390667307174152212e-01
1.760339417900898262e-02
-4.681089460473009806e-02
3.504693520681108603e-03
-7.696430516010388523e-02
-2.516271698071663732e-01
-9.215674947237963155e-02
5.003925821668177287e-02
1.707984128023098402e-01
-8.286446082605351815e-02
-1.463772317038980197e-01
-1.385514099252357911e-01
-4.751228973828175439e-02
3.016190975124619089e-02
7.598398163704880859e-02
1.453062253927221437e-01
1.492510274395795755e-01
1.292171406056730198e-01
2.132630553987378830e-01
1.082043000449910142e-01
7.580798412376277273e-02
1.760567424897012401e-01
6.119718142029718921e-02
-7.979238980617398003e-02
1.491732446590556538e-01
-1.097632436862144983e-01
1.265381144957423336e-03
-9.608159171105121188e-02
9.213477770500824726e-02
6.932174624949612174e-02
-1.263559664771357338e-01
2.991365324761283140e-01
-1.054427548147133659e-01
8.540225671744240687e-02
6.041498849769879470e-02
-5.759571232332291041e-02
-5.666799933546831647e-02
6.585160716411991855e-02
2.492108341760595758e-01
2.526755647466267726e-02
-8.182633411774342669e-02
-4.433674369365666473e-02
1.116819800602160545e-01
4.373658230722252821e-02
1.195602420947276950e-01
-6.431689313136562669e-02
2.661125807844066590e-02
-1.169275631228386264e-01
-1.248406820668106904e-01
1.073396577320235613e-02
8.144430898340795921e-02
-2.245085781573295108e-02
1.314281984817801119e-01
-9.202336364129472257e-02
-6.815678054645075978e-02
1.801565877615182443e-01
-4.535775416522293962e-02
-2.276491760648056625e-02
-1.008142856690635338e-02
9.875004522519326144e-02
-1.014447838322486218e-03
1.103291274713884829e-01
-1.196660101930264175e-01
-4.358061882677393556e-02
-8.130152670181407804e-02
-1.615096336206796324e-01
1.327906019825532968e-01
2.256786740471980468e-01
-7.855409676119785856e-02
2.364411765131844145e-01
8.708412868929397976e-02
2.933865890146868105e-02
1.476303578385246285e-01
5.903764296984898019e-02
1.475129276735768769e-01
-8.025846210937487291e-02
-3.326378294205854097e-02
-1.430630587492518480e-01
8.109021753725062509e-02
-5.530215236713501015e-02
1.004604522241378667e-01
-1.067648277672206963e-01
4.880168645788707238e-02
-4.192693972265457147e-02
6.732010846823567596e-02
1.762028397382782718e-01
1.786410637106009558e-01
-7.082975651285518259e-02
-3.973028458431968751e-02
2.601219711337481311e-01
-3.942061823208669463e-02
6.879727074531366560e-02
-4.943059715739005211e-02
-6.830766634732791942e-02
2.511896492739646991e-01
-1.590398598156739229e-01
-9.127373700646219945e-02
7.543526652753396178e-02
-2.079013192318885095e-01
6.529609771116814954e-02
-1.083257910806393332e-01
5.263742579818152245e-02
-6.894506223493188091e-02
-6.853404896588795314e-02
6.207601060584134328e-02
8.354364632785800382e-02
-5.889049047000460835e-02
1.697114119615156791e-01
1.516886896960440920e-02
-1.697259700672207328e-01
1.172844475206342024e-01
-1.135162424224488674e-02
7.074640864608733662e-03
-9.046717068712509247e-02
1.857710922486258409e-01
4.839536167050578069e-02
7.000618653465066898e-02
1.233829067898110183e-03
1.369554969629515895e-01
2.273143651434136603e-01
2.376856923353047324e-01
-1.076152122952390849e-01
3.068545579668661982e-02
7.532856303459410652e-02
-4.366358070192288138e-02
2.345560473113890432e-02
4.480610878652699532e-03
2.114500294421835236e-01
1.760913818451858015e-01
-1.852560239351654647e-01
1.008876939716138038e-01
-8.434812181111944751e-02
3.799664964318034271e-02
-8.174070977966825871e-03
-1.122167348293575950e-01
2.697043761916468330e-01
4.503962261268924794e-02
-5.871003623681649020e-02
5.521167976318819282e-02
7.677852884856303795e-02
8.193923551487819479e-02
2.261386444290246212e-01
-1.931504255607069120e-01
2.467932521841679702e-02
1.854251424476304477e-01
-7.901935809590193704e-02
-1.380230639453099428e-01
1.965412528982551088e-01
-6.093786184719245103e-02
9.013654095789598586e-02
7.732776067351754268e-02
-1.597787703523823877e-01
1.587968684347769166e-01
-3.181755328606671041e-02
-4.944585686502148136e-02
5.715833629062870569e-02
4.858721081598212088e-02
1.920894960182190359e-01
-1.083028082674193510e-01
-2.279564592309842389e-02
-1.141398221374090999e-02
2.075642681080447360e-02
-1.439594378132238728e-01
3.989036731418095505e-02
4.237741989372399709e-02
-4.161201273405586154e-02
5.508807855364757783e-02
-2.061309172094440492e-02
-2.097192071033340544e-01
-1.057288799162136583e-01
2.496655084464683566e-02
4.457010071034939874e-02
5.451242232340575145e-02
-1.749564660198300314e-01
1.106636303696567764e-01
-2.770532648619508098e-01
-1.183624368883346295e-01
-9.352646753744058017e-02
1.296121129985781384e-01
-1.427911114742755339e-01
4.293903742333772533e-03
6.266148503931780189e-02
6.993200131797634722e-02
-2.593349733821194783e-02
8.618426671743126266e-02
5.170823319463194179e-02
1.148297123170461120e-01
4.478857055312438634e-02
-7.291676310905211011e-02
8.095808079179653283e-02
-1.193775638985256245e-02
1.742478588165940478e-01
-5.052720485984130150e-02
2.497951189295694388e-02
-1.994724428950348655e-02
5.915907750819495575e-02
8.436035363374957963e-02
6.627361565992129222e-02
5.242779212607019679e-02
-1.724430991051935091e-01
9.091784617864169527e-02
-1.348781378403741960e-01
1.008922451843050766e-02
-1.457545732600356962e-02
9.154239364889554809e-02
-1.029244047602800444e-01
2.839951576682689730e-02
3.965172511766376640e-02
9.534322872638517632e-02
-1.607113075810082115e-02
-3.461710150240466244e-01
7.707905725530812824e-02
1.067253844174884808e-01
5.038561893260923297e-02
1.593993572805177117e-01
-5.806524135815130383e-02
-3.160074725206060697e-02
7.937125418356857920e-02
1.622692313570822664e-02
1.097351914849913485e-01
1.428045828486347070e-02
2.046529502722494766e-03
7.090117976434499869e-02
4.242367803270569171e-02
-3.771494133880084337e-02
1.310197324947059150e-01
1.322964565276924798e-01
8.914144210303166782e-02
-1.211191770047900934e-01
4.066254634571223048e-02
-1.216320310891995382e-01
-7.917060201256093110e-02
2.215305077153983948e-01
-7.769718252501606193e-02
-1.202986700205893184e-01
-1.889980512266176138e-02
1.754747385755955069e-01
3.180670528818421022e-02
7.949508348063182017e-02
1.791622489108099792e-01
-1.971619750521510506e-01
-1.301340982749099040e-01
-7.887597881764527030e-02
1.094750911319856829e-01
-6.589666995743512050e-03
-9.508175541135854836e-02
-6.266252415449875823e-02
1.439619015872953545e-01
1.954780439000195491e-01
1.281039321263044428e-01
1.020089551695479990e-01
1.083646353775147286e-01
-2.049635695231691312e-01
-1.145409389463248467e-01
1.812986781931676394e-01
2.275199706488749331e-03
1.582783093841437783e-01
3.772193766356410349e-02
-6.602815376295313732e-02
2.404416876062604597e-02
-1.033428108683768082e-01
-4.041321120447705084e-02
2.324259885649257729e-01
2.546822607145634784e-02
-1.083825487520851671e-01
-9.073312218201112778e-02
-2.000646033496840948e-01
-3.377543797415976518e-02
-6.713700479802894860e-02
1.596365690141393900e-01
2.639124670789879182e-02
-1.546557115303566661e-02
4.152935083261490024e-02
-1.200552976493237528e-01
-3.111795838456073160e-02
-1.904318086098076845e-01
-1.566058976720209606e-01
1.215243015397093063e-01
-1.565096367436583785e-02
-7.782049946588422140e-02
2.597854604192489369e-01
-1.435205430784135816e-01
-1.538796863988887154e-01
5.984486068221600563e-02
-7.687825936383954617e-02
-2.387064731833252740e-01
-9.799227296068316329e-02
-5.772422444065977015e-02
-6.040452993218658334e-02
3.888062509917766113e-02
-3.170781465848671599e-01
2.499556000991331323e-02
-1.368676217463922207e-01
5.596674299294067401e-02
-1.703513938081449852e-01
2.537995021527053030e-01
-1.015979245377742340e-01
-8.440372555320406478e-02
7.454253492736555298e-02
9.264552607858446420e-02
-1.641630358532936845e-02
3.058563755478322932e-01
-3.130229829001908437e-02
-2.345098083877942552e-01
7.628404432516518174e-02
-1.746597404747823046e-01
1.396584064603192780e-02
1.175036226619319002e-01
8.949164925502171852e-02
8.859805665006019113e-03
-1.612178160199593813e-01
-1.272728511535176354e-01
-3.619428921984287756e-02
-9.210150133624997459e-02
-1.363177436090949601e-01
-2.106881110933886969e-01
-5.828492513264240532e-02
1.231643284202799532e-01
2.880511714304544515e-02
2.502490542586835107e-02
1.412682614602289999e-01
-3.205962366665565666e-01
3.785162778353487467e-02
-1.277806275559171534e-01
-1.327633281811139987e-01
6.771381641407733798e-02
2.124724744584121500e-02
-1.506273359444848248e-01
7.302100238495354279e-02
-9.223525594072168321e-02
2.073239319704644479e-01
2.201904792722462201e-01
5.427853647392816977e-02
-1.616448526953467302e-01
1.982861051079976289e-01
4.208797019202917267e-03
-1.392584556577139724e-03
-1.522058747267784062e-01
-1.677226697819718115e-01
-2.001592542795471441e-01
-2.268450291447406814e-02
9.835540938501852876e-03
-5.175821656521082531e-02
3.916142449622841276e-02
-1.732471743764163810e-02
-2.406561255812806333e-01
-1.177149832668836493e-01
-6.674683581005654009e-03
2.735089538514013374e-01
-2.519601635575543508e-01
-1.533149223049307674e-01
-2.829696171841880603e-01
2.586589599910754655e-01
1.462535084655977591e-02
-5.485386869144889127e-02
9.451860853358710901e-02
1.031860765141413665e-02
-4.851228245305306414e-02
-2.773548394204183309e-01
-1.567359161099392828e-01
7.033335464145892835e-02
1.091491576880332937e-01
-1.126633815070402223e-01
-1.202151941047978519e-02
-1.171349185170276336e-01
-7.950507560346871394e-02
7.011808641990684154e-02
-1.465191507976420227e-01
2.870490300619853857e-02
-1.457554923103410727e-01
-6.315042775001362962e-02
-2.867917191940173513e-02
4.438190137530704377e-02
5.594127751701365170e-02
3.703869619846695497e-03
-4.489299967527290297e-02
5.459393152922008274e-02
3.829088916959733774e-02
1.200954475551197775e-01
4.993665744420278801e-02
1.277512443344316559e-02
4.879364507878711926e-02
4.192985582951885837e-02
6.726612207403406818e-02
-9.588089784929805515e-02
-1.676344146602385954e-01
-9.148458561730124505e-02
-5.651539764470631805e-02
-1.671577943428050788e-03
-4.278011669957892948e-02
1.871803453221448088e-01
-1.226183706921779859e-01
9.246672617843537667e-02
-1.482312521193597347e-02
-8.704444614055488472e-02
6.318886832786631269e-02
-9.687635060195780648e-03
-8.006415157444522757e-02
3.478888731531791512e-02
-4.852664725845061422e-02
-6.723157932737686138e-02
1.084312526028190921e-01
4.398788656131657517e-03
6.889180139343381581e-02
-2.116932173489135260e-01
1.296889681133758451e-02
8.265381035595421866e-02
-8.795084778376219270e-02
-1.403341046864310139e-02
1.369166731087173294e-01
-1.072310034798352671e-02
1.057934519044378407e-01
-1.024806581637398156e-01
1.033742127721442444e-01
6.331418434911405269e-02
-3.637950064843323283e-02
8.136446426611371532e-03
-5.029197258388192621e-02
-1.754334382172819395e-01
-5.081339093057034989e-02
3.084943737516812959e-02
-6.321888548003992692e-02
-1.944817940106675636e-01
-8.954728611487396128e-02
-1.421516583372371134e-01
2.608561002413165367e-02
-9.104740481043600842e-02
-2.189247710812394429e-02
-4.515136684608168764e-04
-1.090630113752426855e-01
-3.250473303560885152e-01
-2.103695158577051638e-01
-1.086164510629039487e-01
3.894780220255446507e-04
-2.451026643524357451e-01
3.962034069757388588e-01
6.358403021589267845e-02
-1.116704575719459913e-01
-1.986366182987650206e-02
-2.580988928454986953e-01
1.691013900246338408e-01
-1.001675616459523216e-01
2.598293061109234747e-01
-5.501299834482220596e-02
-8.212070141039946869e-02
-7.514981315915503224e-02
1.807240315533580055e-01
-1.460329431799342430e-02
-1.292057668996366981e-01
5.590258533203505513e-03
-1.888288751654263187e-01
1.989738605644673641e-01
1.058814139576958607e-02
1.355640887646060964e-02
-7.395567747602969921e-02
1.066307049942126495e-01
8.856530604410318280e-03
9.828368888199148778e-02
-1.117521363342779683e-01
-2.215442550053111082e-01
-6.855351399316719774e-02
-1.020816685443500307e-02
9.636675217594951881e-02
9.554981449443097907e-02
-2.100982184962603069e-02
7.570474845538479290e-03
-7.921945000184910102e-02
-1.987114216540756817e-01
1.462493005093100096e-01
-8.424199891688144426e-02
-1.638798787454190942e-01
5.503359399477873032e-02
-1.616681545382528742e-02
8.775704735457200145e-02
3.876291250602605792e-02
-3.103628425213929981e-02
-5.299918844858165362e-02
1.268277605456638868e-01
1.140264042327335664e-01
2.902848440430086038e-03
8.180920880472437873e-02
-1.100144849188343724e-02
-3.556836667173696176e-02
-1.124401857915769826e-01
-5.348750334936839407e-02
-7.432287653644298331e-02
1.150981554827071041e-01
-1.745931340348409397e-02
-9.388806704025756678e-02
1.036682027325369626e-02
-1.624263720120120436e-01
7.690324881837376503e-02
-1.435796979881937552e-01
-2.501877068832224216e-02
5.192141376590284074e-02
-1.125978963825470802e-01
1.297105818122662457e-01
7.133784001390855445e-02
1.411549094828552786e-01
-9.404332478676194484e-02
-1.291228297742179065e-01
1.572047513015244202e-01
-1.283743047890021916e-01
-3.565245715049623898e-02
-1.650040425496911156e-01
9.729834190850890352e-02
1.579292012870162631e-01
-1.458185001047623483e-02
2.260976115713605739e-01
-8.537243886566105167e-02
2.215181733523118729e-02
-1.298704724973030744e-02
2.527783725969585116e-01
3.538932601857097682e-01
6.830034039962785963e-02
-1.598528589889386953e-01
-2.455112764161944405e-01
-1.336168677379363512e-01
2.915990968788857440e-01
6.026510939969182551e-02
1.255484289637736894e-01
-1.180044123730737554e-01
-1.643028723765214139e-01
3.579948818210017258e-02
-1.416723099208583303e-01
-1.513922588292230531e-01
8.592153842560384946e-02
1.348281301285746969e-01
1.222189260356571772e-01
1.145123216166190755e-01
1.647125708715391490e-01
-1.305347262686150367e-01
9.105564913801192373e-02
1.283971475528339432e-03
-2.054906673588950336e-02
-9.733601234263504487e-02
-2.052515372842966812e-01
-4.897680056140634591e-02
3.123578226896140952e-01
5.307615155109845009e-03
-3.311640512487439292e-01
3.728146803495738237e-02
7.437212498306972064e-02
-2.001240943515200099e-01
4.641787160594204598e-02
-8.774702127826086717e-02
6.895196967893303999e-05
-2.530401348381844731e-02
-5.447002275303142182e-02
7.413271445705266194e-02
-2.757575637722562423e-01
1.548298594931661887e-01
-6.890755475604946195e-03
-7.141906121752920888e-02
-1.142824975841938706e-01
-1.731691839340760986e-01
-2.540378082417630440e-02
-1.037447781386705292e-01
-4.330510552257590962e-02
-2.565396716926084952e-01
7.481950547862704914e-02
-2.562926320162628446e-01
-9.417126994609224810e-02
6.168023290489287741e-02
-1.056817350143044731e-01
-1.575649480607776987e-01
2.608500269092500420e-02
7.996864488748593042e-03
2.701882164328639480e-02
-1.588944641698610827e-01
-1.076149764372176798e-01
-1.478474019678646945e-01
-1.183791694679532241e-01
-1.962616891449939227e-02
7.009828068471748996e-02
1.094753707948212668e-01
-1.352400282153451991e-03
5.283120933081966036e-02
-2.937568754179269437e-01
-8.949288119782629336e-02
-6.906926156576405351e-02
-2.185976557063865067e-01
1.374355235533763764e-01
2.957223563759678667e-02
-1.464610782420732171e-01
-7.088716247295755168e-02
2.604504521717890819e-01
-6.651600047449496289e-02
6.037566355888552422e-02
-1.238189295479477647e-01
1.403953077908620950e-01
1.603483188534111092e-01
2.583523321592741742e-02
8.599492971119089904e-03
4.708342269697395749e-02
9.050199559225909074e-02
2.593744868623402700e-01
8.151456619171994211e-02
9.548698620962328687e-02
2.699313255668599545e-02
-3.003108340568743095e-01
6.941070519411779438e-02
1.413157812046361428e-01
6.010184191238501783e-02
8.223628345511359294e-02
9.986996582280278922e-02
-1.865508802010573675e-01
-1.180829632683605412e-01
7.844476055694796224e-02
1.529943643511538220e-01
-3.086435048790949209e-01
1.833446178177513541e-01
1.188941058491175817e-01
1.209395173657586559e-01
1.371891118403578136e-01
7.528423424044474246e-03
-2.124525912694569252e-01
-1.605127932287493328e-02
4.531836591016531746e-02
-3.247756961440646101e-02
-2.499483832372218634e-02
-2.134858783004889640e-02
-1.110955926445811870e-01
1.258212701251689158e-01
1.021208960961518392e-01
-2.293875392970204929e-01
-2.002322154954028210e-01
-4.019182854859210119e-02
2.124813858889322005e-01
-1.302834009936461035e-01
7.848805093419408685e-02
-2.690443635566735006e-02
-5.931944634085380141e-02
-7.507889129000835937e-02
-2.578899860978721773e-02
5.692639747138810574e-02
9.074526717924868979e-02
1.977609025520082331e-01
1.524401328788001775e-01
-9.108847384444095086e-02
6.534369209834564596e-02
-4.077172161060229824e-04
3.310500618592481237e-01
-2.320679439364414787e-02
-8.143319432296509952e-02
-1.515455966098456023e-02
5.296219071175858883e-02
1.176821694530891943e-01
-2.505721225679780062e-01
1.612914402414943049e-02
-2.051701242025620597e-01
-1.687321021322626957e-01
-1.766029856267997411e-01
9.542422309697348726e-02
2.525882704866794920e-02
5.431996608424432410e-02
-1.923248574762231322e-01
1.773116448401728107e-01
2.375594694751368419e-01
-2.211419417166380907e-01
3.028957851534613832e-01
8.562372797984751926e-02
-1.434750298920741962e-01
2.099136227218209305e-01
8.893719645568196053e-02
-3.888954903105948380e-02
5.228352377544768365e-02
4.440358013013254862e-02
-9.656971622889420903e-02
2.217330018306826744e-01
-1.764491408776569167e-02
-1.275275517145198489e-01
-4.410777557820444623e-03
3.238983800115800560e-01
-1.211613257434391785e-02
1.030049518031019296e-01
-5.581206505733965484e-02
-1.055693965064788270e-01
7.802354026086039118e-02
9.272794816540123886e-02
-5.360154846501240244e-02
-1.619211750150776090e-03
-1.252977803835842174e-01
3.166154758309817630e-01
9.445900679366869834e-02
-8.140544012093731824e-03
-1.288438994270576544e-02
1.727983319142600560e-01
1.476416272397937934e-01
5.363375299421346137e-02
4.151440921292127301e-02
6.743463432715166017e-02
-1.763238282636912790e-01
-4.827362628406910161e-02
9.265257438516092195e-03
-6.885669732964799783e-02
1.401516365711737711e-01
1.406008712654915060e-01
8.427139751287457403e-02
4.753364884336255813e-02
-1.732510496731702321e-01
-7.488187826947260983e-02
2.363896056760922126e-01
4.637679381641428289e-02
2.603764801077718127e-01
1.039257471880011691e-01
-1.281368038377690144e-01
-1.419263773135147899e-01
-1.078376611900925403e-02
-1.534651550654846652e-01
-4.100115593897832311e-02
-5.590796085399930143e-02
1.155743661684274087e-01
1.301547015096045645e-01
1.299444604118249816e-02
1.347771611503927602e-01
1.038088635452986130e-01
-1.484332535259325070e-01
1.674148152008844148e-01
-5.190849130904199443e-02
4.406964819588165411e-02
-1.556706926245545186e-01
4.627175761002123161e-02
4.111535233973377668e-02
1.942089824353494532e-01
-2.125699752494415173e-01
-1.931325184137550333e-01
6.042511137334195814e-02
1.425579623454830691e-01
-6.405160550681732179e-02
-4.809101048991312743e-02
1.551581297520652214e-01
9.919038643530962707e-02
1.272147033033170782e-01
-1.290459432908882820e-01
-1.039894162136089095e-01
-1.175602799840953921e-01
-9.003850326581488983e-02
-2.150073079043035573e-01
7.654281548234477539e-02
5.809836570427015165e-03
-2.695717787082525449e-02
1.277553223885016451e-02
5.205241416825207024e-02
-1.162817810785177625e-01
2.160668313554857389e-01
-2.135060018952736338e-01
4.548284649190300483e-02
5.927688374920249414e-02
-3.522973051959955165e-02
-1.479727504053642527e-02
8.053523750832980443e-02
-4.043431582792286066e-02
9.837066815489173277e-02
5.071687125276629071e-02
7.850633886939430151e-02
-2.942133595106079941e-02
1.670029344857078824e-01
-4.726308605780277748e-03
1.098032783166380810e-01
-1.303719434589445392e-01
6.917957368438101828e-02
6.992447266020766772e-02
-1.512158415098908137e-01
-1.268727926797002525e-01
1.169178459889808619e-01
1.432078165642468315e-01
-1.833515741493093321e-01
6.131984817269756083e-02
-8.426389234701393838e-02
9.150589324106600531e-02
-7.944207722445889575e-02
-2.208552771975102469e-01
-3.487458055988847810e-02
-6.970457654876996423e-02
-4.382448332599432617e-02
2.112642452407253665e-02
5.204961714382509708e-02
-1.013426131543540137e-01
-1.486208422158558085e-01
-7.315420612862473526e-02
-1.028899052818174759e-01
-1.369038058917979583e-01
1.083743061456360762e-01
-6.707110347871511613e-02
3.341771714936896814e-02
4.849902666133161511e-02
3.349088308385573393e-02
-7.031537983236726963e-02
1.882303174520037758e-01
-2.002678335365274884e-02
-8.947320006445361185e-02
8.101395575767583734e-02
1.704179744054037243e-02
5.594146605686836637e-02
-1.781998247904481858e-01
1.674305612561981793e-01
8.913416472687375747e-02
6.713437266701102746e-02
-1.490619853090816849e-01
3.471418956908730591e-01
2.389814220451791024e-02
-8.688762666711512261e-02
8.486316624770912087e-02
-2.312289531962063438e-01
-7.380885120627238283e-02
-1.212194040639286291e-01
-1.054162967169926662e-01
-1.367387370382343870e-01
1.188314143463653216e-01
2.904472219854572490e-01
-1.197442421105723437e-01
-1.955336321533736044e-01
7.404753121010032579e-02
3.858325777382101696e-02
1.883428778016988936e-01
-7.259803789530637486e-02
1.932485281399413390e-01
8.368065579693186734e-03
-1.204313471613126518e-01
-2.032292002751763874e-02
1.095495660643746871e-01
-1.372049317336768159e-02
1.397216021912177364e-01
1.724629058384725133e-01
1.969611554792885522e-02
-1.146406614851079864e-01
1.509586486770995474e-02
-7.142375664230973809e-02
-1.130740690148464844e-01
-6.020756806836021630e-02
1.956046814577088941e-02
-1.490248624597759197e-01
1.885590361843999530e-01
6.617203570537666911e-03
-2.641851181844868113e-01
-8.417176734713889552e-02
-4.936791152666314408e-02
7.374499621736363419e-02
-1.550069572227192605e-01
-1.168858882296747309e-01
1.707496398641868834e-02
-1.624763057091892782e-01
-1.028453690933882891e-01
-1.741809464660693252e-01
-1.625750170252071858e-01
1.523008956743145299e-02
-2.327993081780845019e-01
-2.380308014832651503e-02
1.215344204209787282e-01
6.861399975372353211e-04
-1.744358314422931600e-01
9.379369341444637742e-02
1.485906544890437941e-01
-1.246122487944552187e-01
-5.443443903145276513e-02
-4.619112940707174875e-02
-8.560984659448948875e-02
7.368650859019267030e-02
1.240874630981639026e-01
1.578484844098846096e-01
8.744024281155177158e-02
2.526137023408363547e-01
6.454943909637442245e-02
5.309410931789070726e-02
-6.558401801795055164e-02
1.363175444951172932e-02
8.163617842988966575e-03
1.190906763676717953e-02
-2.953384199633547064e-02
8.457821327754665164e-02
1.291281189268621843e-01
-1.775385917649029699e-01
2.716342679746612809e-01
5.460256311060835560e-02
-1.244497544213276144e-02
6.868926952634657468e-02
8.257136680726405442e-02
-6.569901819042008040e-02
-1.193223647623632977e-01
5.338580351661891682e-02
3.328543882588615860e-02
4.392454011082133625e-02
-3.421131209269544227e-02
5.341093381256309391e-02
1.356100153000160645e-02
6.307612841599853637e-02
-7.465132838620285038e-02
-5.614947124440022863e-02
1.912362528818347188e-02
2.949176937513437249e-02
1.089871587152870386e-01
-2.710999506441986312e-02
-1.062927800246678961e-02
-1.578546635221753092e-01
-3.777179556744265920e-02
-6.067739214596961500e-02
-5.534965001581731298e-02
-2.038222722839720946e-01
4.933469821754275526e-04
-1.012613253107969707e-01
-1.158035278031461918e-01
1.143881009549163608e-01
7.397583577891429785e-02
-1.076826106761662738e-01
4.868468780681230873e-02
-2.280909410304425844e-01
-3.850093777326399173e-03
-4.054744900605616875e-02
-6.877272960078849307e-02
-1.886984661786184070e-01
-1.512227118379191049e-01
1.866703998660509400e-01
-3.979617753026219035e-02
-8.673926564285586172e-02
2.448870698685419178e-01
4.218064350129797219e-03
3.029130197200489982e-02
6.644228310563927986e-02
8.756011427092922836e-03
6.038584877039308851e-02
5.911055174778661464e-02
4.624007425121764991e-02
1.097745496154222400e-01
1.276869978743827017e-01
1.390855064835669688e-02
2.219146354860102588e-01
-1.637010230668011490e-01
-3.091451091339370710e-02
6.886609569005582021e-02
-1.333578548146536202e-01
-1.258701655016059850e-01
1.785467443421874245e-01
-4.548539992367675588e-02
2.238728825468230821e-02
7.863308353644102300e-02
-2.411136724539363618e-01
-2.811325733054053505e-02
1.140265799270672592e-01
-9.324278231434096620e-02
-2.854947258531877474e-01
-9.374010810875309241e-02
-9.204904647987108279e-02
-1.051479110515157744e-02
-1.391743362963610564e-01
3.535436414194609300e-02
3.550485378565707562e-01
-1.055400125065503597e-01
-2.499668732253009298e-02
2.420843345199341079e-01
5.975452957740301149e-03
-4.445022009417245318e-02
-1.471221632561718895e-01
1.788675740627883870e-01
-6.144596863007919380e-02
1.684509177418588508e-02
-2.081425680377484988e-01
-2.050238061484685737e-01
1.339933385426252954e-01
3.399833397458520631e-03
-2.468671014013761322e-01
9.290570678404984351e-02
1.000404068718220851e-01
1.430256544593240808e-01
4.581960118356590700e-02
8.466477454630592925e-02
-1.096992635145395828e-01
8.075619548096127365e-02
2.261484818337246988e-02
-4.923750919821207744e-02
-1.188269298487782538e-02
-2.082948356969234749e-01
1.729143304595882891e-01
-1.427920313385327988e-01
1.266140942039837569e-01
-1.481610587776595322e-01
-4.680496763483086436e-02
-5.547739452330210236e-02
-5.466142867279987633e-03
-4.355718604250997245e-02
7.616885437303472228e-02
-5.431406283167355964e-02
-2.993468003198761912e-02
-5.605241901398997501e-02
6.616800287129083469e-02
1.130759031268863540e-01
-9.270234052075555786e-02
5.145066110695008244e-02
8.043186944266922378e-02
1.056365181770390904e-01
6.857992675258674231e-02
-3.987783401713758391e-02
6.637817866092077246e-02
1.348931748355673144e-01
-1.117849935388808974e-01
-6.335868597184744766e-02
-2.208626506531556621e-01
1.063891468322915868e-01
8.043393432881851268e-02
-3.090835672311669988e-02
-4.448915394911703153e-02
-6.535048359331435686e-02
-4.116041693536631046e-02
1.197786880222992401e-01
-4.379104231135057951e-02
-7.469676090411610236e-02
-3.804773027384903555e-02
-1.658356636113673399e-01
-7.805194704497485370e-02
-1.784350273796379144e-02
3.132343146054195060e-02
-7.694567202103831660e-02
4.031850943390208331e-02
1.822780673139819396e-01
-1.966133618172386799e-01
-1.829880200552532199e-01
-7.659894734922173543e-02
1.168528340115076863e-01
3.987741997748673987e-03
1.047385350715734770e-01
5.668116116670822435e-02
7.976952015479793490e-02
-3.118799682609496582e-02
-2.298540626090762526e-03
-9.814574760658663355e-02
-1.495594801396945561e-01
-1.466098036629014389e-01
-1.029826833211375942e-01
1.017559035672137985e-01
-4.386564129443931009e-02
1.363375021737424919e-01
-2.914157757505953916e-03
9.697927265811314215e-03
-9.365063175552854058e-02
6.730158723916343511e-02
-2.502184002623497605e-02
3.173787710007467538e-02
5.667300211355794093e-02
-2.189977816754648254e-01
7.758409843222936753e-02
-1.570903996959150117e-01
-1.822388599454904112e-01
-2.050887030950594436e-01
-1.687795723670153236e-02
-1.768419875848873876e-02
-1.916906808970341922e-02
-2.126608348751296562e-01
-9.788049830843782717e-02
9.943279964407387983e-02
-1.181359070524049329e-02
-3.421720485206290047e-02
-8.627597195076715242e-02
-9.761977679100768135e-02
1.787979552500816027e-01
1.863084762685804641e-01
-1.465996800907073960e-01
1.853745851206110296e-01
-1.068617916593849332e-01
6.122470311890845784e-02
1.357892512561578724e-01
1.459678427206671618e-02
1.061266289766217563e-01
-6.039091017005392831e-02
-4.643404672612749806e-02
-1.843330301594434117e-01
6.242423409870829776e-01
2.067213213588804388e-01
1.748083057388471473e-01
-2.686059455692230147e-01
2.010573916865953520e-02
-2.003737003467226385e-01
1.263402740875727848e-01
3.900822632978027948e-02
6.547108879283101979e-02
1.559393310609418493e-01
4.422543992061370166e-02
-1.340354524036584671e-01
-1.011865022518269736e-01
1.216643700034260450e-01
-1.326141623165594807e-01
-5.636042793566987258e-02
2.996055295747267477e-01
-2.896655936645495810e-01
8.892985296514057184e-03
2.190707446374850209e-01
-5.808108517737742976e-02
2.373255181627326182e-01
-1.553922614231175066e-02
-7.493875981170200484e-02
2.723178707069034109e-03
-2.373588866862314517e-01
-2.509491166922910368e-02
2.192698775083703686e-02
1.866305975483872615e-01
2.467540506579221082e-01
-3.323918052227134434e-02
-9.604172683236093799e-02
-3.238948544342682423e-01
7.289776207384549012e-02
7.447166702980885511e-02
2.254107812882416573e-01
-1.893695433414364221e-03
1.473112635754919748e-02
9.440405651401553855e-02
1.556084564778785484e-02
-1.396440773544972702e-02
1.368971335934357214e-01
3.878109507513625293e-02
1.742470360504118354e-01
-7.195628042863268237e-02
3.392772406409853558e-01
5.803812110199700613e-02
-1.156969441161239537e-01
1.528176020660523549e-01
-1.964468132784736309e-01
3.408582969630360449e-01
2.661412821294393272e-01
2.873804442312950444e-02
-7.252248425217697192e-02
2.072478586456684146e-01
1.439115824655184395e-01
2.965173721968463252e-02
-3.866336820184688994e-02
3.428364499007766630e-01
-2.312547059002430516e-01
1.108132174324596292e-01
-5.405793430065675836e-02
4.627259536390209566e-02
-1.873983123268437856e-01
-4.541731029875885339e-02
-6.413124556768994011e-02
-1.598615107285753789e-01
6.293214047724805804e-02
4.765696982434725060e-02
2.523788052091054390e-01
-1.810985986580907758e-01
-1.864099597613960019e-02
1.459314074196012834e-01
1.201559895552315738e-01
5.846558689960561217e-02
-1.165624450935739791e-03
-1.035471679664242833e-01
3.893545039134930219e-01
-1.017378248644810329e-01
-6.168917879970369465e-03
-2.652542711774168518e-02
-2.144536009833776166e-02
-7.171874270366161708e-02
1.012415766825589675e-01
6.560419390275314122e-02
1.975682758680445683e-02
7.792523415362695612e-03
-6.266457506088836393e-02
1.136555017007442464e-01
-1.120934080644032244e-01
-2.106491890187030952e-02
6.541083663054003683e-02
1.315477396843932612e-01
-1.892126933664017296e-01
3.706895571328566036e-02
-2.575518708885100178e-02
-1.296258229076716895e-01
-1.586788629076054113e-01
1.189076249221129727e-01
-5.493130099286602092e-02
-1.972386363389077579e-01
-2.232345357402919783e-01
2.678559544343160972e-02
8.939998808061767888e-02
-7.365289522521259458e-02
-3.651402613668542491e-02
-9.014742961189779746e-02
-1.286006554746406683e-01
-7.158038067116898051e-02
2.513363579860825592e-01
-1.131989310541891419e-01
-3.955984048943684411e-02
2.303705047376760490e-02
2.197447383322739256e-01
-1.574233395448820577e-03
1.432351913279382716e-01
1.152154147456002364e-01
-5.037541540232493009e-02
2.076768253892138927e-01
5.723067882678755519e-02
-1.352754658413635458e-01
3.055552368144206707e-02
-2.697384604819954013e-01
-9.908445858716304067e-02
-7.235051905267640693e-02
-8.134869649803086467e-02
-5.883589735071678012e-02
-7.739112633067210534e-02
-7.055746022637632286e-02
1.025528580072315454e-01
2.103402500285605353e-03
-5.719709814713597879e-02
7.855805917461123125e-03
1.092648438509734726e-01
-8.782165288124381408e-02
5.518223722042767815e-02
-2.227854218284791021e-01
-1.292499982129493852e-01
1.165093364262564067e-02
-1.258519506078819572e-01
7.357609009502329676e-03
2.745122381569022885e-01
-8.329438528651311735e-02
-1.658180674939435661e-01
1.256544697369396113e-01
-1.107178414749759691e-02
7.236586979922428331e-02
-9.955498086354524351e-03
1.077268318465761932e-01
7.677542190125269395e-02
-4.004086657516442438e-02
1.701384186018932432e-01
-1.788267678966152519e-01
1.173174413926262871e-01
-1.129875755280455446e-01
8.790677280151037998e-02
1.028714686171019743e-01
6.329103154477798421e-02
9.480973670510110807e-02
4.976549299171174195e-02
1.280682157281713418e-01
-1.243285661805596798e-01
-2.388393981783814290e-01
-8.960459897380555760e-02
2.626518230219234556e-02
8.345353836511491818e-02
-1.465153043675959388e-01
-5.213471946706735999e-02
2.439947680455895607e-01
1.063202366203740840e-01
-3.841616017337810829e-02
1.447701894404403167e-02
-7.657241363425957258e-03
1.372349386875069965e-01
8.888070929602077258e-03
1.064559878645362778e-01
3.707807652635391072e-03
-1.201938997022949512e-01
-3.354587256304802922e-02
9.984755329639050103e-02
-8.411762278750174737e-02
6.408792562093569567e-02
1.630708779282784848e-01
-1.136712514955458969e-02
9.340373487966703581e-02
6.209572720348547487e-02
8.960331718089736830e-02
5.308254192490866052e-02
-3.726838698232810138e-02
1.493748821408884611e-02
1.117974832775494032e-01
7.915839631040229307e-02
-5.829653875853749861e-02
-2.426151199821631986e-03
2.550239406341983650e-01
2.523780020282603842e-01
4.431981793815259474e-02
1.121551075675187997e-01
5.410235513054375417e-02
-6.811939244919931746e-02
-1.937572507599120974e-01
1.400823882533119846e-01
2.361958868137638626e-02
-1.745063353981393117e-01
1.086228171396095288e-01
-1.584024385985282335e-01
1.607425960113594747e-03
1.756474515046380167e-03
-5.379753073191493457e-02
1.461982451045094333e-01
3.052521262516179612e-01
-4.531894133960745474e-02
1.649986593381302658e-01
-1.940812639493062208e-01
-3.086949165100696391e-01
-1.622729043774964464e-01
7.404083526298411988e-02
-7.503233889693952663e-02
1.626899050861399243e-01
2.539828715690640726e-01
2.348257722225921829e-01
2.294957207312295910e-01
-6.506288870599026553e-02
5.024083637202164665e-02
-1.469016687244649733e-01
-2.680494683068513143e-02
5.639073625016424729e-02
-2.321754269926752379e-01
-9.711851770658448679e-02
8.442747222545303465e-02
3.218865990738224714e-02
1.907958237087840642e-03
8.698541604816711209e-03
-3.092497724074279308e-02
-1.134054605904478430e-01
-2.306100470246159606e-01
1.355923541945514565e-01
-9.249258062917654899e-02
2.315683574670217293e-01
1.936669373979522241e-02
-2.262708975573438086e-01
-6.046914907530331201e-02
1.589774877646901452e-01
-8.457004235579804186e-02
1.717665796883451612e-01
4.782031637221482723e-01
-5.830680683741709669e-02
-1.762690202444649190e-01
-6.030692877285855069e-02
-6.534570239150934434e-02
-8.534120054426535401e-03
1.086740480058160513e-01
-1.984434488697194576e-01
1.456159748741951976e-01
2.251921396641054160e-02
2.190334543452214233e-01
5.760071647928926425e-02
-5.612032850527508970e-02
1.279444240235384257e-02
-2.868190932970699492e-01
2.224344126338929362e-01
1.944436936619856338e-01
-5.923531473170733780e-02
-2.534825223326355736e-01
1.261655809425385466e-01
-1.820867294968900318e-01
1.396366836445205387e-02
8.467213508844892433e-02
8.832290442042778486e-04
2.122596379704899394e-01
2.103779456944754045e-01
-4.524382218973767994e-02
1.707872513436557715e-01
-2.196994607812705405e-02
1.691569854986108012e-02
-1.066410574192778599e-01
-5.782626529585106062e-02
7.313561728510552251e-02
-5.959838328837088056e-02
1.046170125729672419e-02
2.295938711485165928e-01
1.025661385061270997e-01
-1.012070133710456787e-01
1.192791493662126445e-01
-2.228309720906572478e-02
-1.313993061680356622e-01
-2.559615338567660658e-01
-2.430062280327483504e-01
-1.639706637247602405e-01
-8.322968943193352620e-02
8.344792985164319055e-02
4.345555316672552321e-02
7.205632761730502989e-02
-8.193090453269458173e-02
8.627197265518805891e-02
-1.010377457672430451e-01
9.268114505065354336e-02
-2.816747172852849743e-02
1.257044823172289993e-01
6.785099555305119760e-03
1.598152462842741262e-01
-2.691551252940634908e-01
1.581637435163212729e-02
-2.826576400149479196e-01
-1.727535424647423934e-01
-3.247364067854325437e-02
-4.912574499568770486e-02
-1.374563545704839684e-01
4.663821115328604938e-02
-7.521089609104797402e-02
5.133196775409657603e-02
-2.539609982275754518e-01
1.016815181393046358e-01
2.864737183115018127e-02
-6.483635986475673463e-02
-1.188508022518307838e-01
-4.323377711411598850e-02
-1.066802048321794372e-01
-6.587009227462846395e-02
1.594154965096197529e-01
9.141867827250106660e-02
-8.344987591022919732e-03
1.730451171278929445e-01
6.765076334509527445e-02
-3.365266162171029213e-03
-6.869861104496012560e-02
-1.043764452355163685e-01
-7.293866472008002366e-02
-9.226688933106472201e-02
-1.418173608070610325e-01
-5.518437332578324944e-02
-1.670450079894164330e-01
-6.344393278754947851e-02
3.498337705475421111e-02
-5.081961856105363801e-02
-2.865233319331419448e-01
-1.066901138537238308e-01
3.906836102574098857e-02
-4.326972530482443152e-02
6.977367197534803389e-02
1.234047701311873496e-01
4.596672130169138226e-02
-1.119396795774196818e-01
1.265384085596743188e-02
-1.568144044593456909e-01
-1.352748340428438778e-01
-6.407274006635732544e-02
9.943014745514579256e-02
1.220346080470190858e-01
-3.198839411223056151e-02
-7.879666200852566971e-02
9.960537526702434308e-02
1.867096674773567333e-01
1.979745024975104462e-01
-1.017648209422419986e-01
3.007749761036090930e-01
2.446443099033169255e-01
8.584325026921078849e-02
-2.371185845091660152e-02
-3.142259825868535389e-02
1.163513104574421114e-01
2.458802712938346069e-02
1.990374977168428983e-01
5.481831524262963107e-02
-2.112775045011946462e-01
-1.064388297097864679e-02
9.861919508787922450e-02
-1.271467162100692050e-01
-5.438503531097093474e-02
-1.326091628609455952e-01
-3.689969961316204305e-02
-1.455026928986276058e-01
-8.132679833963249449e-02
-1.782079989184293112e-01
5.231901250942740805e-02
6.562700585311963264e-02
1.022019987755588138e-03
-1.307557531080833502e-01
-1.693267046910507390e-01
-1.783121343719872298e-01
-3.521712085434219180e-02
-5.176458377222067225e-02
4.900182044374670060e-02
1.358130778728452448e-01
1.460730217806902598e-01
1.746210081398996139e-01
3.115909310627296702e-01
4.420266591345173995e-02
-2.050765040394649796e-01
2.428102233968278470e-02
1.459330550624437269e-04
1.180567070045119987e-01
3.383553907935372973e-02
-2.707020183911219152e-02
-1.796239757041730445e-01
-1.719954178896872243e-01
4.727619597496345721e-02
1.588137393040934542e-01
5.171346455439160966e-02
8.434471570517630690e-02
-1.377421097960637719e-01
-6.729130668340251031e-02
-1.215150948923222757e-01
-1.613665148737801203e-01
2.272807915872736007e-01
1.040191807034187774e-02
-2.514367464236758054e-01
6.739295224695317221e-02
-8.907607574000345196e-02
-1.860542528232264070e-01
1.178765036988710102e-01
3.399801171860522553e-02
3.884443092798064989e-02
1.677262705696201395e-01
-8.141563839812659964e-02
-2.056053114690745143e-02
8.337392098589477274e-02
-2.423055676151372184e-01
5.195792443512012998e-02
-2.198752405322382808e-01
-7.589741218184303806e-02
2.595345681076956512e-01
-5.994151198122429219e-02
-5.867055493934247856e-02
-9.948163041740534784e-02
-2.586503961682825800e-03
5.851716659309229990e-02
-1.160658021437697713e-03
5.240728436100567517e-02
-1.324033770380928787e-01
-2.077806566162402613e-01
2.978703699978380373e-02
-1.723751725439983673e-01
-1.138244223802951371e-01
-3.339688620655387706e-03
3.939561829671734544e-02
2.873033181701937448e-03
-1.081651986532853327e-01
2.892772194769831495e-01
-1.209684271569780034e-01
-3.101948775031547756e-01
-1.611247405042863790e-01
2.030313240593090984e-01
-8.322335781109338471e-02
1.274098209937024051e-01
1.455731906577178159e-01
-2.574781636177894129e-01
-1.654960012862531638e-02
-1.682611175373650500e-02
-5.750649107541402905e-02
-2.542669999286760740e-01
-1.000923460032032142e-01
-1.747565540651641741e-02
6.733130324294291091e-02
-2.399123825263587972e-01
-5.526218687971794219e-02
1.166462254855493569e-01
-4.344757192543420576e-02
-1.647525690922615749e-01
2.114782465722064575e-01
-2.722325553160157355e-02
-7.735805590032717241e-03
2.198617090511485392e-02
-4.947056911420297937e-02
-1.441676757723487062e-03
2.340435531328240713e-04
2.138399393655083247e-01
2.648635527904757980e-02
-8.255327226641311078e-02
1.115327603209619878e-01
-1.016322036065629986e-01
-2.367898856131486415e-02
-1.137570056595733070e-01
-1.046593157984324479e-01
-1.046756591116454888e-01
3.462604267548978487e-02
-3.676272543645056623e-01
-1.734788990983667512e-01
-1.900785977962557438e-01
-1.208232366870988644e-01
1.476357230180367908e-01
4.663351650630045975e-02
-1.096519793404829718e-01
-2.465695712538579498e-01
-9.124084693245587685e-02
-2.379693147667945319e-02
5.558822917156902577e-02
-1.076877116578346498e-02
8.358607745438775827e-02
-1.465583726076453430e-01
-7.203452210803373834e-02
-1.391481361091085889e-01
1.968477391897377471e-02
1.374503483701756679e-01
-2.453359198848788780e-01
-1.925596882475536786e-01
-1.166717102177391580e-01
-2.542708947682184584e-02
1.242239627916117140e-01
2.229806993997204279e-01
-2.146068149855430429e-01
-1.515877401921995882e-01
1.220016221196865147e-02
1.569510584420671373e-01
6.082428170393160138e-02
1.581189349677400158e-01
-7.709677776909279467e-02
7.110137219358131366e-02
-1.730717096613108019e-01
-1.127068616556664155e-01
1.087742135566252960e-01
-2.346398918584615204e-02
-5.108633329334479056e-02
5.227799212932399825e-02
-9.611203511292673585e-02
2.920004520348054231e-02
-1.308919519946770416e-01
-1.326664212560018652e-01
1.012489798426013804e-01
-7.209513235225588346e-02
-1.698077717924860799e-02
-1.135594058967923092e-01
1.777797857787451752e-01
-8.899341538006574903e-02
-2.120450816513231099e-02
2.020741163500089088e-01
-9.158755878216151558e-02
-4.082677621112866528e-02
-5.638292195848964433e-02
9.638999941686350603e-02
-2.244165021886014855e-01
1.004244939778630996e-01
-4.132141503661726500e-02
8.910826815434935710e-02
-1.368599545155310682e-01
4.061655184564787885e-02
7.811404819534367716e-02
-2.858433901619082326e-02
4.936982981595141456e-02
-7.465654657973030961e-02
1.339991879358282678e-01
2.664622451335589212e-02
-1.160417128047538521e-01
1.232978453035589034e-01
-7.451589048438464480e-02
7.416322925064043614e-02
7.878503299463091719e-03
-9.851185022405589686e-02
-7.195776884103272097e-02
8.663026362898612609e-02
6.406114267350990210e-02
1.235704320011359880e-01
1.823841544512847246e-01
-2.838206724827378735e-02
4.829949571331511315e-02
1.024534026256161516e-02
1.944092093851491065e-01
-5.176786858288906501e-02
-1.382358705689812062e-01
-6.351340981306681510e-02
2.006213784157647936e-02
-2.388902490414620411e-02
-1.436392139161611070e-01
-1.699007248266215520e-01
1.705846115397201268e-01
-1.124582684210710497e-02
-8.662757152212056944e-02
1.494516921658929631e-01
-1.034850523756589563e-01
1.778801913432545290e-01
-6.581570334566057279e-02
-2.544209397054698549e-02
6.160506986751282388e-02
-4.380877966312302779e-02
7.416041860308764111e-02
-2.516716368297603965e-02
1.702823092254677206e-01
7.492648330611995089e-02
-3.801745954919758756e-03
-1.086852839277235305e-01
1.649639539487413736e-02
1.056322926679220953e-01
5.469472386939668029e-02
3.663811279467348025e-03
2.885119718239503861e-02
-1.012396143155364775e-02
1.338025600383862396e-02
1.910834930954588562e-02
4.513196772029230697e-02
-8.649722807965375126e-02
-5.447753995300391033e-02
5.580885321337565597e-02
5.856214394760440173e-02
1.456766985132535996e-01
7.750896519587624489e-02
-5.864578182084498326e-02
-7.880863313955144278e-02
5.088798209296671593e-02
-4.231192422310784546e-02
4.462928201274140444e-02
-1.243522159468047755e-01
1.270986478474814829e-01
-3.824192901471482053e-02
1.142965542953478103e-01
-2.426720394698124797e-02
1.579983004091753962e-01
2.272361778489185441e-02
-4.770538381992863938e-03
-3.101246154488199180e-02
-4.817763898740474310e-02
-6.006437109449698497e-02
2.091365600373307210e-02
-3.736277619265168659e-02
-1.162822900828495015e-01
6.411639140603928033e-02
6.175314496223281019e-02
1.068109464277567158e-02
-1.734387952553980428e-01
1.663660635197184989e-01
-1.081536684917779739e-01
2.915653417612877954e-02
-9.098899856700805311e-02
1.139122065141469492e-01
-1.329848938424527810e-02
2.404763902330729897e-01
-4.377965957748244583e-03
1.415592675636082043e-01
6.383539533070739513e-02
-3.723901523029679844e-03
8.824154547237286761e-02
1.348716111079484303e-01
-1.776025279254040967e-01
-1.308713823961650813e-01
1.270817396248045683e-01
-2.429849830921856566e-02
6.075402732400806555e-02
1.922051067929954338e-01
-2.560891714537775754e-01
-2.056899032911934100e-01
-1.674608369409824327e-01
6.400361336335810575e-04
4.940092437982213092e-02
-1.074048096791633128e-01
4.529418225530337794e-02
1.967135114328232293e-01
-1.331496507114478534e-01
-9.269173648473545690e-02
-2.491342240698394550e-01
-8.824951634202439499e-02
-5.607369142423328234e-02
7.707465039328428857e-02
7.920275077531276076e-02
3.612578337342270407e-02
8.493572404423710420e-02
-1.445321725799377788e-01
-1.674495914688853004e-01
8.801806841000055226e-02
-6.336143059333849969e-02
-2.033899113480486590e-02
2.739114038289192088e-02
6.617850479887485426e-02
-1.690648657125198295e-01
-5.480282457394945045e-02
-1.492703467744216084e-01
6.488094123684975956e-02
-9.210468255563970807e-02
3.703484882968678671e-02
1.114219824703314987e-01
-3.492470348510819111e-02
8.825119913831463991e-02
1.195472521040460978e-01
8.032681948189229759e-02
-6.081800291169092709e-02
7.300742621451199177e-02
-4.217081917967239330e-02
4.376927006569110434e-02
-7.779238896343577958e-02
-8.407486817109952049e-02
-9.684356334114734011e-02
2.675527512394822172e-02
7.065409171457862070e-02
9.929077004016600982e-02
-1.719953586937086887e-01
-2.752626269038508516e-02
-1.532516602979601128e-01
2.525531075818776561e-01
2.819910768910051380e-02
5.892724865132394768e-02
-1.636376730755974007e-01
1.663877817294484307e-01
-8.722352825074535659e-03
3.888407259444427028e-02
-8.793170321653603905e-02
6.292686844481287789e-02
-2.507850820741452935e-02
2.078678987639597797e-01
7.616258252736886336e-02
-2.322200963564467757e-02
-5.852411050416835708e-02
-1.290202750464145287e-01
6.565942207235035688e-02
6.425571994478002091e-02
-1.619191424375686084e-01
-4.399680664404254093e-02
-2.357641221249049887e-02
2.947722557924833953e-01
8.240829144029521158e-02
7.807850987794585917e-02
1.967090983959344230e-01
1.208480550749226612e-01
-1.302379032552997140e-01
-1.930373331049734312e-02
6.412146062720427975e-02
9.129148511958147527e-02
1.528882160848747396e-01
-7.533586830432029667e-03
-3.240873702143972079e-01
4.760021381208515839e-02
3.749858312197199700e-02
-1.080217625425097389e-01
-5.727447657216427901e-02
-6.168944709679127780e-02
4.402660196842730672e-04
-1.039743996608506228e-02
6.753840161928707786e-02
2.270221162626780420e-01
-2.656864741317080392e-01
-2.426767656784298566e-01
1.073242002527944466e-01
-1.504937706515258218e-02
4.989083605209716776e-02
-9.486544287629063155e-02
-5.630565366535856923e-03
1.000067673085276443e-01
-5.640704959437935206e-02
-1.059805249225322654e-01
6.988372658952825755e-04
8.619839792542757784e-02
-1.070640994297788195e-01
-4.422399035908183146e-02
-3.697227879897730940e-01
-1.445412988698215571e-02
-6.029390473045221840e-03
-2.835685263545313362e-01
-6.694940811470928566e-03
-3.727133927176980444e-01
5.538249546212516920e-04
4.487088774563767479e-02
6.738083450140927577e-02
1.503442651805177686e-02
-1.804306073235963925e-01
-2.567207362240479518e-01
-8.807501230616052168e-02
8.584075256446939417e-02
-8.068586206708758257e-02
-1.310097301955226723e-01
-2.941059005269333060e-01
-2.850057947367402034e-01
-1.869948269352050829e-02
-5.325290129907633146e-02
-2.936235739450959170e-01
2.394468779823069049e-01
-1.926712526713773022e-01
8.201727070458460223e-02
6.533386247047234634e-03
1.142649935956479013e-01
-1.589302846261908889e-02
1.102292732243832646e-01
2.516115728202464874e-01
-1.311724650969941890e-02
2.428682299222021182e-02
-1.767680810574822625e-01
2.092939091654582862e-01
2.674152795573603303e-01
-1.643596173642610792e-01
-9.491579003359468247e-02
-6.710519984209828079e-03
-2.983556743160233407e-02
-3.577363116897713802e-01
-1.314967231846023432e-01
7.184188512782990754e-02
1.282778108739884015e-01
-7.011075141283291956e-02
-8.461019536896587090e-02
1.212669036586317001e-01
-8.958443541969138280e-02
-1.939275044630897962e-02
5.510548618165221624e-02
3.972050276626280796e-02
1.026094591282844387e-01
-2.056241341254493038e-01
-9.789933300629777291e-02
9.566748530968949282e-02
-1.861709667552132741e-01
-1.264068198297742252e-01
-1.779664913094654993e-02
2.860107026129322244e-02
6.219351774188531384e-02
-2.079999905704480942e-02
-6.402468775723339778e-02
-5.987942467985922501e-02
1.071785933981985878e-01
-2.149803168957598043e-01
2.158771655824257008e-02
-4.280271604411707564e-02
1.189962740825364906e-01
-3.745773882568494140e-02
-1.220778170457763601e-01
-3.691017681548004054e-02
-3.366582056000803295e-03
-1.656797632074754334e-01
-7.510193379038523909e-02
1.890341560867470350e-01
9.967516204529106028e-02
1.093171089000641999e-02
-1.012835120792617144e-01
-1.016306410617207057e-02
4.044943568948515533e-02
-1.951251195629478130e-01
-8.644672856637161673e-02
1.423495765436588456e-01
-1.983847081428559422e-02
1.295148916171001419e-01
3.462138511866299367e-02
3.913113886052071305e-02
-1.202209491988135565e-01
-2.084476292957697374e-02
7.981960268936547087e-02
2.247440202426534417e-01
-6.469245100915169133e-02
-1.621503895638216619e-01
-1.075153773770256005e-01
-6.071102863349540912e-02
-5.569313200909385697e-02
4.972549544601489319e-02
-1.311304433753355397e-02
-1.019016763932903760e-02
1.727904546318190793e-01
1.478174120985710216e-01
6.482339819629988342e-02
2.478231012829936741e-01
5.104466071827536838e-02
2.152856041337094239e-01
-1.264284641132371045e-01
7.626539936097959105e-02
-3.456563110521856386e-01
-1.474090827198735500e-02
6.908140781936401159e-03
1.595387046229232442e-01
1.130632136557787604e-01
2.607359522460473561e-02
-7.197798699858377891e-02
-1.211246739610806131e-02
-1.176746823934634867e-01
5.160017549319159680e-02
1.381406827257779801e-01
1.576933043711714888e-01
-1.318604328544776272e-01
-6.419780198071882438e-02
4.684431346087102738e-03
-4.450442229305730940e-02
-5.797275176686228493e-02
9.814955634252661709e-02
-7.454013032760382906e-02
-3.076904859410665646e-02
1.695551772842218141e-01
-3.584424635249018609e-02
9.022192926312759542e-02
-1.608532238438249440e-01
-1.940408440350787633e-01
-5.076315470608442487e-02
1.347004369178473604e-01
1.146047202768780277e-01
-4.783854799276985453e-03
7.890407437708182870e-02
9.263786534669199435e-02
-1.313201484345650483e-01
4.697861368257505443e-02
2.008361815221295921e-01
1.886588646869504643e-02
-1.493049749247805646e-01
8.433824286393674929e-02
6.254307630605493440e-02
-7.624324056267071763e-03
2.285702023141531619e-02
-6.987180401930680532e-03
-2.074204896554845273e-02
-2.026732305613831442e-01
3.134447200782061738e-02
5.919756489642633013e-02
1.574282024451949258e-02
2.444939513550090787e-02
2.682059026915952216e-01
1.625281483737703037e-01
2.189682969609751395e-01
5.810034411381230675e-04
4.331907515202305936e-02
7.760253395660672571e-02
-1.004792682712598861e-01
-1.618999105831025742e-01
-4.681398155989007111e-04
-2.206791922487059011e-03
2.033841633135686708e-02
-1.980620615325590084e-01
-7.833196954056245720e-02
2.024310895091852719e-02
-3.502680860512533134e-02
1.173458595153014095e-01
-4.356386323282985390e-02
-1.318726527233284873e-01
1.418535818584870933e-01
1.070970170639392316e-01
-1.148973911208923428e-02
-1.019309127770198949e-02
3.569921326185147153e-02
-9.957998823168254243e-02
1.949223998997877405e-01
-1.960329126561685675e-01
8.687013759284253900e-02
1.170656984223612807e-01
1.894737379728313534e-02
1.944978080412833044e-01
5.336214865870993196e-02
2.323639285014617029e-02
-5.858102936267992056e-02
1.397835889262139843e-02
1.704248373341316070e-01
-2.658867566496096457e-01
-2.417727159347260457e-01
1.193356635996174753e-01
1.071745175800249139e-01
-6.043865131352758185e-02
1.971463867733327241e-02
-1.221796493352898284e-02
-2.194709132313019118e-01
7.782799499479500782e-02
2.191991337124773662e-02
1.095219063833420547e-01
-1.801006244603338413e-01
1.166626317155442377e-01
1.050121400909273250e-01
9.771795381639893086e-02
-3.441013063037329928e-02
1.601131400537998961e-01
-2.169284013920008344e-02
-1.934721698610164867e-02
5.243561531310214630e-02
-7.217664726940171971e-02
-1.489009442479463929e-01
-1.259191834636406437e-01
-3.665218809263236927e-02
1.018582897588956176e-01
1.525920503987972243e-01
2.184259475449712995e-01
-6.309008039108829347e-02
1.291170558862416717e-01
-1.407358688143262593e-01
4.835865499358405623e-02
-1.084829640887311902e-01
8.096319958239150960e-02
2.613454749801779817e-02
-4.286002424522281605e-03
9.422879197674853546e-02
-7.709832544468023241e-02
1.163631155807441225e-01
6.470451206301801317e-02
1.128986864233697818e-01
1.439970984787392327e-01
2.352515273963764197e-01
-1.874034957315082184e-01
7.039401033804978947e-02
-5.163285103193454573e-02
-9.131132158732211540e-03
-3.528341057661744246e-02
-6.598064353496350953e-02
-7.153479421285209583e-02
7.426408046215143832e-02
1.961657606552593691e-01
1.813585693970288723e-03
4.915768928822721040e-02
-4.186195429472276686e-02
-6.165260764386808201e-02
8.765149899883722950e-02
-1.089339457252405802e-01
-1.794012976112026314e-01
-1.011452807420207822e-01
1.262343478350677617e-01
2.287178737997641320e-01
4.625700450863787921e-02
-2.909948253460462389e-02
3.926531670604277435e-02
-7.153267415683718655e-02
-1.421538161347172535e-01
7.783301322321881099e-02
4.669196090197393068e-02
5.710640672434767751e-02
-2.389034973723279474e-03
-1.005061353806087909e-01
8.464256961678134905e-02
-7.222978762460970092e-02
6.837033613574630686e-02
-1.476991576032464677e-02
-1.045943439944362618e-01
1.483253510894009218e-02
-4.557601405031883740e-02
7.816987967020665173e-02
2.268000960902108454e-02
-2.089646457875928842e-01
5.500012206466475817e-02
-1.345439768216421528e-01
1.157822064126374367e-01
3.588180465743938397e-02
3.479745896956039364e-02
-6.825854092717684174e-02
-1.458886705060823130e-01
-1.776372369866089374e-01
3.120845978578853236e-02
-2.854256006617032076e-02
6.276570116032960389e-02
-5.039818492552280288e-02
-5.923929658370592072e-02
-2.840356290618034629e-01
-4.291977678813198305e-02
1.317874333765458594e-01
6.167747374152921652e-02
-9.969618756135374682e-02
-1.755458903430344997e-01
2.133052987253418464e-01
-7.282969397870562266e-03
2.028176711770706131e-01
-1.315656404441136185e-01
3.486014739641033616e-02
3.193240466387799875e-02
-1.571242423988008369e-02
9.967490749055731014e-02
2.866167958492771978e-02
6.335148574178733720e-03
-3.350625190991721875e-02
1.310986959805386931e-01
-6.122231387252612816e-02
-2.008526535373667266e-01
-1.259844211926126611e-01
1.362284303645712111e-02
-2.056579834499563594e-02
7.563882265423310138e-03
-8.638853338213740851e-02
-2.082674288132413051e-02
-3.074868924118097646e-01
-5.965294879233926789e-02
-1.716695224333295577e-01
4.240575854135235079e-01
2.053104858447234171e-01
-1.716866253378488902e-02
-1.035835013995594356e-01
6.352634651958855017e-02
6.552319652133574424e-02
8.505924591815772207e-02
-7.196217633723760512e-03
-2.687667917629740222e-01
3.747659770382513744e-02
-6.572664876673305068e-02
2.994278170585238860e-02
1.463956212070509078e-01
5.114982281221733262e-02
-5.061700762905518847e-02
-2.994862654153575970e-02
2.714457205776509841e-01
6.964783390171915174e-03
-3.500225181716157957e-02
-9.025176101648066385e-02
-9.134304366812884268e-02
3.075241203348656471e-01
5.432774021499347378e-02
-1.319265313446587318e-01
1.676484164166010260e-01
5.442510557382462116e-02
3.181590470292416928e-01
2.177710504658917842e-02
-1.461258262051225443e-01
-3.319224220703045208e-02
-1.279074915642116894e-01
-1.820933647534585254e-01
1.153164393658241416e-01
1.621940596611695373e-01
2.065423819614699008e-01
9.956226091964454072e-02
-7.826204190101635622e-03
-6.601953378477316836e-02
1.865827182695779241e-01
1.898919479109774100e-01
2.227225466306910207e-01
3.079584270495206236e-02
9.616065019132864766e-02
1.887941208915326977e-02
5.745366857682256828e-02
1.223275086348420693e-01
3.873172447467070761e-02
-1.176963417253064498e-01
-7.675391154371680180e-02
1.480508956061341308e-01
4.103243119088813284e-02
-4.162146868684287598e-02
1.290923936417134044e-01
7.482375295628328205e-02
1.244226897405124876e-01
6.005622753632809674e-02
-1.244991935830016411e-01
8.813024499964028369e-02
1.505544451518577576e-01
1.155311352594384500e-01
8.650475422069276582e-03
6.087459685878465060e-02
1.305838511774411181e-01
1.902351215474746560e-01
-7.734070807270831960e-02
2.719847456770311256e-01
3.171884112291201152e-02
7.711767747401133966e-02
-8.603696988166505133e-02
1.951633908212429269e-01
2.053823921227714844e-01
1.548751633624343912e-02
-4.705816125240960823e-02
2.300972474077736876e-02
3.013235249497058649e-02
-1.537290326433078669e-01
1.072671134117536215e-02
1.868817166424557308e-01
-1.793517350617746670e-02
2.074555419599375394e-01
-5.020570618853868045e-02
1.683977232076752650e-02
-2.642180366805170211e-01
-5.681619794740500745e-02
-2.479795737860423024e-02
1.131627567444470212e-01
-2.596962436958679121e-01
-3.985374725501963922e-02
3.061342498846962856e-01
-2.677927265261634826e-01
-2.015606430644407698e-01
-1.574353037380078540e-03
9.998115368719982798e-02
8.605032269550193236e-03
7.213098137937387633e-02
1.932848560062051524e-01
-3.745431307760526130e-01
-1.192422683155511948e-01
-8.308458541411034570e-02
-2.471882633668631424e-01
3.035212301294720402e-02
5.639727280405179739e-03
-5.324666519110033205e-03
-8.624440540606097272e-02
-1.670526142343700393e-01
4.547510006543959565e-02
1.147264700681460414e-01
-3.141769240026884846e-01
-2.213134657762849122e-01
3.199499533587708555e-01
-1.373383048204807888e-01
-4.982879246743043139e-02
-1.481288874803096678e-01
-1.927378122679242189e-01
-1.787949080888721065e-01
-1.312745441503578858e-01
2.936994481854725628e-02
-8.143297473006629039e-02
8.596010472695649052e-02
2.179588487880983194e-02
-4.555690585708446205e-01
-1.229432659588415161e-01
-3.548319985208991945e-02
-4.277401166151930528e-02
-1.307624253770464651e-01
-1.162626120092327409e-01
-1.915014267847830465e-01
-1.298662747753934754e-01
9.894801312699537388e-02
2.542095967106895033e-02
-1.628647412668229599e-01
2.854399122922099408e-01
-1.457705991822453306e-01
-3.731347338412095982e-01
-1.266395693550422842e-02
-1.702521153748000060e-01
-2.187333054091113171e-01
1.937259052770357037e-02
-4.989649131493272688e-02
-2.699398663449533164e-01
1.512795714130202029e-01
1.578357559933058277e-02
1.439287548961910856e-01
-1.253135441510637160e-01
1.777129413750736520e-01
-4.473471717860492275e-02
-2.852599198947615086e-02
-9.862189544273244901e-02
-9.236113356349461012e-02
3.375421883431518194e-02
2.790760262344352816e-01
9.169138398058193640e-02
-1.907526149797988957e-01
1.670353141959015908e-01
-7.130695244898570262e-02
-5.759560091541845311e-02
2.905060371106908956e-01
1.248683540130386960e-01
-1.802966332419634610e-01
2.062587209384292852e-01
-1.012191093884513005e-01
1.013016366820940484e-01
1.118079740945572831e-01
-1.315394560141869007e-01
-1.828872587081842305e-01
1.333023970896910215e-01
4.725304862347431273e-02
-2.017499174350091129e-01
2.977007786201580908e-01
8.312696527084272036e-02
8.411152252409419272e-02
1.101760011759703728e-01
-1.902345292089916706e-01
3.131887300886370545e-02
2.218770743764124365e-02
-1.861636052049387216e-02
-8.558233581037570648e-02
-2.203038690317945733e-02
2.653745506824727318e-01
1.389457951325582252e-01
8.934411038933791349e-02
-8.319622677237731301e-02
7.698025675503401832e-02
7.152577162346079875e-02
1.435504252163758571e-02
-7.581762511791929893e-02
-1.849524000212454944e-01
-2.212966077122454495e-02
1.077425558744079664e-01
-1.296855244176622901e-01
4.186420672239323654e-02
3.211875467697468400e-02
1.106152365162213491e-01
-1.048049006216059675e-01
1.964151201639981192e-02
-6.533699744154172762e-02
-6.413272959290987341e-02
-6.723112992333159059e-03
1.117628000140458017e-01
-3.130157468425077971e-02
2.110835615665525855e-01
1.622456084632123430e-01
-2.028700943450921848e-02
-2.817506895768557076e-02
-1.294907576569075125e-01
-6.880317758383204529e-02
-1.132112860832792806e-01
9.569375175245198317e-02
6.009602905415804136e-02
9.400614770244773710e-02
4.303243851760161776e-01
-1.136225772497135786e-02
1.472109997773874135e-01
-1.826707839101507011e-02
-6.257807139042309563e-02
-1.081942419345017087e-01
5.376681605866920344e-02
8.972072127815378106e-02
2.395755392391808458e-01
-1.931192778328179316e-02
-1.172116693233110768e-01
1.697433539336112573e-01
4.310374177106971599e-02
-1.012287760233127054e-01
-2.787398197610159722e-01
-6.217309553646994946e-02
-4.424662372530498156e-02
-3.113538480224115057e-01
6.950722096046166310e-02
-3.454575730219859864e-01
-1.310103851145572873e-01
-8.268034761478425254e-02
2.864245126026757418e-02
-6.839073164681036543e-02
2.743740983903630304e-01
3.081842252911133340e-01
-4.186182018566997343e-01
-1.083706764655348737e-01
6.830113932351188077e-02
-3.701635639108610820e-01
1.699794344007624081e-01
-3.109243071152503757e-01
-2.377532561530321803e-02
4.757678444547131513e-01
2.979642806904839528e-02
-8.549025802972406995e-02
5.408825704929168948e-02
2.355236555912345875e-01
-2.850245257170191948e-01
1.521654321084880968e-01
9.341450841439757902e-02
-4.188468846891661435e-01
-1.039076520483709631e-01
-2.763844603374569497e-01
-2.844057544627119904e-01
-3.377545983019034637e-01
1.841414338724192412e-01
-1.373700334336344919e-01
6.833177481623325944e-02
-7.707505712769971429e-02
-5.661846145373533590e-01
-4.891818530267594278e-01
-1.377167908345224290e-01
-1.194066343771954808e-01
-6.113068065535488642e-03
2.314399293478665853e-01
-5.132081000931589809e-01
-2.007056416403111831e-01
1.523793474607069987e-01
1.172899060144564076e-01
-1.857068302630063561e-01
8.268898447108596894e-02
-2.292358662562552496e-01
-2.779473650559778908e-01
-1.203784875993285791e-01
-1.760003183631624057e-01
-2.924598167783912794e-01
5.168534755975881523e-03
7.097633466526841184e-02
-8.271824084716540570e-02
2.767602875198849066e-01
-6.203855791223254756e-02
1.438600800646603305e-02
-1.919598062627069987e-02
1.168323940536181160e-01
-7.284949825327581563e-02
1.541564962380906068e-01
1.370414773396212427e-01
-8.321432822641401661e-02
-4.919821711343171089e-02
-9.852973335334616611e-02
7.427481702657365292e-02
1.220389623491253267e-01
-1.358911192985686189e-01
3.349492656395329504e-02
2.813676415703206951e-02
-1.155250645413621602e-01
-1.347471546155327472e-02
1.130930609701012030e-01
-4.544879008640494156e-02
6.204929008133538981e-02
-2.155329737123223496e-02
1.513327043621282564e-01
2.545507925103811520e-01
1.464650005871682703e-01
-4.962240466585637194e-02
-9.479655993752386656e-02
-7.520609160090069301e-02
-1.686043461872516469e-01
1.200127973414755050e-01
7.295545367681387228e-02
3.736145971263157839e-02
1.424082752168495669e-01
-5.271536132620157494e-02
-1.510614158180622890e-01
8.519669352763523107e-02
-1.836630833956214293e-01
1.555881806412140250e-04
-1.267973964156597980e-02
-2.085863839479055459e-01
-2.513516476654878776e-02
3.759431849045804293e-03
1.380659582224262050e-01
1.124693888917739915e-01
-4.928208708879074779e-02
-2.998632303457127724e-01
2.454047088839605636e-02
1.614956471933623114e-02
1.672235312269756968e-01
7.058497290836401872e-02
-3.225189044621207951e-02
7.771590863050453768e-02
-1.441807637098844741e-01
6.178263986750939796e-02
3.983612882191101684e-02
-2.843842562510295324e-01
-5.779543023634891447e-02
-2.196467767935865456e-01
7.348958817385717324e-02
6.782540125129734795e-03
-9.981466154297144455e-02
-1.271032836702389313e-01
1.984111639926394721e-01
-5.178931472009874748e-02
-6.028787855690479619e-02
-4.459734660982995341e-02
-9.287152517159849574e-02
-1.070478419605422199e-01
-4.707678744975066221e-02
-4.803820582098208142e-02
-7.750863976139923950e-02
-2.376081002963561506e-01
1.785180225485532846e-01
1.831320671235046049e-01
-1.561996343261622400e-01
1.154231071374575146e-01
-8.013318233750327257e-02
4.940507101676414742e-02
1.387057094079628405e-01
-1.078734269023433889e-01
-9.694096045668305905e-02
-1.289381847512656963e-02
-2.462064688328312323e-01
2.451850868542957210e-02
4.635810139358294280e-02
1.004155014186614014e-01
9.143756578135435464e-02
-1.587135527788959832e-01
-2.512887016175046652e-03
-1.876508256793824880e-01
-2.199387367158573969e-01
-1.386623332521711716e-01
-4.363230009727965542e-02
1.268428749760505125e-01
2.008143198710603955e-02
-4.315700331737125361e-02
-2.613246388258125275e-01
-9.199699138944841814e-02
-1.505024104537281164e-03
-2.103179713284508978e-01
1.099032571470618946e-01
-1.602473622610373072e-02
-2.201287549116461295e-01
4.969810467878845589e-02
-1.204538751004758240e-01
1.395115269413410297e-01
-1.279533778564237168e-01
-1.205115578584921993e-01
-2.090908160040974295e-01
3.455963362546067563e-02
-1.257956732597930727e-01
-1.844532521435928163e-01
-1.228129890563056797e-01
-1.370194711555652867e-01
2.493777133389928624e-01
-1.784108672369215387e-01
8.283101034895165582e-02
-1.013735683048102437e-01
-9.961304106565510574e-02
-2.056975213792822110e-02
-1.522932347015379939e-01
-1.484459556000518599e-01
-1.848525596567903162e-01
2.054070856179154511e-02
-2.729968146845735411e-01
-1.812322642307705872e-02
2.990389052276594753e-02
-2.899487842003815596e-01
2.159984732484170611e-01
-1.880847535607699794e-01
6.895293450815086211e-02
-1.031124938653849715e-01
-6.563655061031521687e-02
-1.204573389953825929e-01
-3.071374167694327154e-02
1.126197200480777288e-01
4.702040110713494314e-02
1.388127434555572193e-01
1.068104272311151542e-01
-1.414703762484536276e-01
1.207166928475067319e-01
2.620727103438426631e-01
7.786437668029086434e-02
1.096062592675952074e-01
2.630522365009328387e-02
7.007067021901916548e-02
1.299487602350961335e-02
1.385215345379025575e-01
2.737635032214669195e-02
4.334061778803018766e-02
-1.303760009400249387e-01
-5.053402646394027781e-02
-1.460701118254305042e-01
-9.000871522474548914e-02
-1.879228742088118742e-01
-1.591332031544018533e-01
2.896085318946276313e-02
-9.028413897345005656e-02
-7.356382580930986848e-02
8.103135206742535790e-02
-6.054056560757899857e-02
-3.499980012349970110e-02
-1.321681155180358946e-01
-8.455367216497478022e-02
-1.002017673091360889e-01
-9.510410577036604307e-02
5.727104444998801225e-02
-6.319471378133922901e-02
1.114535094570655027e-01
1.136917257520820707e-01
1.722873440725671834e-01
-1.586135848837443296e-01
-1.089247258867219043e-01
-6.052551706423050376e-02
8.913158917975154416e-02
1.510532909699630610e-01
-3.365657674052498494e-01
6.532815256302962337e-02
1.343037493919713443e-01
2.047998658624355373e-01
-7.796614156857750721e-02
6.588613372134283219e-02
3.465465010742539015e-02
7.512484864059051914e-02
7.554121297711335892e-02
1.425539244858101129e-01
2.116525299612956670e-02
-1.756178119004166063e-03
-1.122173840229229863e-01
-1.426566542483863678e-02
8.975304693643612608e-02
1.640652853171432335e-01
-8.170625653111132647e-02
-2.264891469428786386e-01
-1.032506627360586654e-01
2.204187425784975285e-01
3.013018622845457101e-02
1.942077060241193809e-01
-2.493802475105737909e-02
2.645808865639377033e-02
5.336648406278388795e-02
-8.009563450873377621e-02
6.892685058339658583e-03
1.260989179064773702e-01
-3.128144208477684485e-02
9.860734845885790745e-02
6.378087661190741386e-02
-1.808759470167755345e-01
9.615916979613414739e-02
1.300219625829051595e-01
6.111546005388721059e-02
-6.405283940839791301e-02
-1.067981347104605822e-01
-5.313676480091346702e-03
9.848206087428321154e-02
-7.162803326772064494e-02
2.874540472808539276e-02
1.798679690304592904e-01
-4.194747508402924333e-03
1.521278878290949765e-01
1.282356313312190688e-01
3.262976928730208781e-02
-1.259510591688649817e-01
-9.709392578001888041e-02
-1.733434929546353309e-01
-1.202571991787209638e-01
-7.270647345894112878e-02
1.703883038206463196e-01
6.783026603213315742e-02
1.128743743718042120e-01
-1.196468073587369646e-01
-1.909056375833952379e-01
-1.664017877872614459e-01
-3.058510143982004492e-02
1.488093478743498788e-01
-2.245839725115912275e-02
1.321822904294037426e-01
-1.428427575139522565e-01
-8.292804991267814507e-02
-1.534356714256192127e-02
1.356704445775739065e-01
-2.017699026997947509e-02
-3.998846029903164317e-02
7.759484942411418174e-02
-2.273465168631393259e-03
7.253026410737269114e-02
9.725398700562075394e-02
-9.579291306882832535e-02
2.102738955706207336e-01
-1.463123135319823187e-01
1.991255003822686720e-02
1.011516383880704945e-01
1.888391839576787634e-01
-2.555834299798464410e-02
-3.322738360534328080e-03
3.108816342108057795e-01
1.114514828231980420e-01
1.152338595766479457e-01
-6.390242627119936680e-02
-3.316323129782838591e-04
-1.909200407529718091e-01
-1.239604291667818631e-01
3.828322992677521408e-02
-4.636301026672511039e-02
8.601745461963240802e-02
6.170696134536659411e-02
-1.230500991157790491e-01
4.759874530008920135e-02
-1.744190135988063772e-01
2.573400813204891613e-02
-1.076585681930350008e-01
3.850945276898460473e-02
-1.538633072744723385e-01
3.493723991792365563e-02
1.419696496061725009e-02
-8.719021340246009555e-02
2.134939334840340458e-02
-2.503431490926566472e-02
1.836816272564568975e-02
-2.811738822277836183e-02
-4.288826452723060872e-02
1.352478161757163511e-01
1.690922097441612537e-01
-2.914270642301400663e-02
-7.769545128063630457e-02
2.503794370255469914e-01
-5.656491362759198671e-02
1.105009785690035662e-01
6.981567360101607889e-02
2.068238549232528228e-02
-2.349120069283917034e-01
-1.050424657761805380e-01
2.039786404925719998e-01
7.017599662082245338e-02
-2.334723205946059865e-01
1.107839888864101813e-01
-6.919648877058051650e-02
4.176052970489776972e-02
1.641124682487347664e-01
-7.547696976508767863e-02
-7.997479226023961746e-03
9.951339718890314656e-02
-1.357375214587975554e-01
-3.521731436005507559e-02
-8.205994971651303649e-02
6.251025314473954153e-02
-2.128360193183611443e-02
-6.425675445511294659e-02
1.946489234520669409e-02
5.020933987923165143e-02
1.349392243805040692e-01
1.186638144442090925e-01
1.745125507330637024e-02
1.748473405807781378e-01
2.572574426559945948e-01
-7.630385982739819328e-02
-1.258562705019561911e-01
4.412337823389281960e-02
-9.921976458006429023e-02
2.358313616876484275e-01
9.177203259053284823e-02
8.143884955809961579e-02
-7.335743044862524931e-02
-1.899550193066703863e-01
-7.938044318800933918e-02
-1.319769971926650944e-02
-9.052290352681055530e-02
1.167135053864022942e-01
9.346336338724210713e-02
2.125168345973429129e-01
-1.785661307527200703e-01
1.220319763066951002e-01
-5.343011552935318653e-02
-5.015636335231050263e-02
8.513029745267683412e-02
5.554094050860489129e-02
-2.535624089839004225e-01
-2.271759213388569176e-01
-9.481794834342227585e-02
-2.822103320231295412e-02
9.472257228329240830e-02
-1.752643214009067668e-02
-6.991704393132790185e-02
-4.891073275880982590e-02
-1.621442480725128477e-02
1.523283722903044091e-01
3.417599090231009107e-02
-4.891028299062001247e-03
7.386107801911023785e-02
-2.001328564789920939e-01
-1.778604432302699212e-01
1.027568855936555614e-01
-6.797767236130417001e-02
-1.899586653791639212e-02
-1.508096650433532748e-01
-7.243329302035198675e-03
2.352195619685477634e-01
-1.522015906391393884e-02
-1.685784161721854968e-01
1.041109599898021459e-01
1.143887493891456997e-01
1.497244030992459229e-01
1.343765732079900063e-02
1.812838896338887784e-01
1.915133098715778026e-02
-2.052500087957581376e-01
-6.787287028410335377e-02
2.251191983534889945e-02
-5.333643716158555786e-02
4.559517241801542414e-02
5.992430591876615753e-02
-2.353009780679924876e-02
1.303067123807859218e-01
1.542312678873542231e-01
1.290868931591945823e-01
-3.755732030122361370e-02
-8.343078053248956238e-02
-1.495872712853357489e-01
-4.792498372892219777e-02
-2.975828013100777908e-02
1.171537013110342251e-02
1.118528173684733701e-01
1.874427988832363112e-01
-2.185529132976149480e-01
5.300723061983962647e-02
7.791786579942550084e-02
6.537303812344823217e-02
-2.801595267973396725e-02
-4.797439440135473770e-02
1.360132946719478930e-01
1.969504186941739010e-01
2.494547148461544184e-02
-9.386417081771425419e-02
7.559598019220692411e-02
-1.610316019958703548e-01
-8.339446364272057322e-02
1.131523169371703580e-01
7.274295653615826807e-02
-8.801029033428398041e-02
-1.592949663267059085e-02
-3.917073821941055578e-02
2.797468314057540914e-02
2.838691896070221765e-01
7.731197018315201508e-02
-3.755004978105114244e-02
5.859920899626523683e-02
8.084120622243061438e-02
-1.847810897431622149e-02
5.883386818992556583e-02
8.550330475989813273e-02
-7.040524560857787384e-02
-1.309967999261262180e-02
3.377829883919890308e-02
-2.890664422739988026e-01
-1.417663913344512361e-01
1.163997711518455214e-01
-1.377991812172624786e-01
-7.342532661712820874e-02
-2.084642929339834416e-01
-1.008169764746238983e-01
5.193215032366151895e-01
3.272045233490512017e-01
-3.168282152742391000e-02
-1.381832946573874066e-01
-8.133649131775666508e-03
-2.700618121695544382e-01
-6.541152192387446329e-02
-7.338481637081217812e-02
-1.452290130867263107e-01
4.181116135746758000e-01
-4.803694929645744433e-02
1.660144570410287956e-01
-8.800644406420718435e-02
-8.886558738652597378e-02
-1.840373712254858019e-01
-1.693482581890622552e-03
1.755708588607687026e-01
6.663840441667365222e-02
-8.605422439442871052e-02
-4.336259324350750372e-02
-2.251167033758731395e-01
1.018235922868930415e-01
5.412193071477648665e-02
-1.987606876187267002e-01
-1.385028963641158628e-01
1.571384048270083877e-01
-5.511627267314139073e-02
5.525851695269619335e-02
1.435101037888123487e-01
-8.467134482205461443e-02
-4.931859253313652242e-02
-2.854986007067879528e-01
-5.588308651807333965e-02
2.012003230745769145e-01
-2.082712858010086210e-01
3.374103818475962524e-01
1.283311045972139464e-01
-2.183542327901650260e-01
-1.596064786215642683e-01
3.030365653784697910e-01
2.258280641439218417e-01
-4.144388119475497789e-03
9.975996414695502412e-02
9.807962494977695567e-02
1.792060103229335122e-01
3.489853352748676363e-01
-3.465218594799290841e-02
2.251294659478458166e-02
-6.169387111237926297e-02
-1.248648194006788947e-01
1.539870225078256716e-01
-5.959493637579488245e-02
-4.383394315931830182e-02
-5.213047249808613892e-02
4.150703300544600349e-02
2.283819629130415529e-01
7.491407073743494571e-02
7.130031826260037169e-03
2.780620949143947085e-01
-3.138535633289407656e-02
3.419870997506358618e-02
-8.333709219359568612e-03
1.959452982431936219e-01
-8.215375835812226135e-02
2.569592372277536008e-01
7.405017619161715020e-04
-5.786294580573152907e-02
-2.717049955983867962e-02
-1.341578461392710017e-02
6.770050234143008827e-02
-1.333303413881291588e-01
-1.307016641689638659e-01
3.439588342056379248e-03
-5.391798969438314076e-02
5.194331219906248541e-03
-4.770549968090028597e-02
5.391764263546569569e-02
-4.925920918874837628e-02
-1.103381253560806047e-01
1.711194923564801282e-02
-9.491251909003108056e-02
1.077020373499411598e-01
1.318223502659839619e-01
6.756375984126518353e-02
-8.780933039724167499e-02
1.324117263358695618e-01
-5.747836337145685592e-02
-6.899807413831557379e-02
6.759332328043832216e-02
3.169289870178045726e-02
-1.635513661062492352e-01
3.042772352893230101e-02
2.136528632608933054e-01
7.972860621035347817e-02
9.253211487643876743e-02
-1.185674597550771293e-02
2.487097771959937212e-02
-1.009545793702223276e-01
-1.083139466736180168e-01
3.128143756962599442e-02
8.125608711840495713e-02
1.420203403608378146e-03
2.250362847576879988e-01
8.109950827942924824e-04
-2.879593839468706784e-02
7.502683384460333282e-02
-7.090591572506503570e-02
1.370368857417674779e-01
-2.245053105264418203e-01
2.378385711685266496e-02
-3.799680405902571001e-02
1.811595937209104640e-02
3.773276700031581721e-02
1.737734527453154154e-01
-1.023556125379005838e-01
-1.150574890453121002e-01
-6.518233511819025716e-02
-9.033980950297222645e-02
-4.028336203792023951e-02
2.587678545849899162e-02
-5.265511709496110276e-02
6.779765325778742968e-02
9.923024769001539958e-02
2.284127318023766728e-01
-6.698400262485308676e-02
7.683921896561232701e-02
9.913050131792709718e-02
1.456460448331737823e-01
1.661698401667296987e-02
4.073366674892107270e-02
-2.985799350435605799e-03
-2.170172145928467022e-01
-1.149242458371563524e-01
4.126475832948599959e-02
1.426994112012442140e-01
2.855000924882514224e-01
4.050145902431813438e-02
1.137687518539878123e-01
1.636422161520030005e-01
5.822825828538110565e-02
1.492660205893096281e-01
3.287840539422665076e-02
-1.473203162438555536e-01
-2.914452946827809834e-03
-7.140220657881748978e-02
-3.481088527070882316e-02
1.241608414849055923e-02
1.620886918079237626e-01
8.054350530329489055e-02
-1.334794769060991815e-01
-1.656083294030923636e-01
-5.922763213482773459e-02
-8.075575474711653434e-02
-1.918558993547715696e-01
9.642735248057003605e-02
-2.038241624029560606e-01
6.201822354658773767e-02
-7.925024515064030273e-02
2.425165608500120529e-01
-2.403572832941983650e-01
-2.821507775987818975e-02
-2.405389066929166861e-02
1.107227164189003993e-01
7.511388723206798013e-02
1.001772926766341248e-01
5.136913013067551104e-02
-2.679301470363755211e-01
-3.457269570067899034e-01
-2.344507043717930506e-01
5.074243691080728563e-02
1.589686554648610251e-01
6.788915955902709298e-02
-7.657801154555883560e-02
-8.945046416162963365e-02
9.756630561083301512e-02
1.612501877737869405e-01
1.069096628086278616e-01
-1.735985021291290009e-01
-1.304865413025822485e-01
6.848391956080387977e-02
-6.778679598749437485e-02
