1.870122687528231742e+00
8.868067983619000172e-01
-1.402574016691736425e+00
-8.104314796571095991e-01
-1.987162378994093315e+00
5.724057286373019915e-01
-1.467802667630958569e+00
6.168690604096408459e-01
-3.542620183523852440e-01
6.297379931604905889e-02
-4.714748712412230702e+00
-1.155375142560836510e+00
1.098058509559674961e-01
3.986202973433578545e-01
1.577474437790518325e+00
-6.814979650601316052e-01
1.504672111368494380e-01
-2.425534453575279414e+00
1.596550513173684127e+00
-9.578181511403841553e-01
8.031396085088381431e-01
1.165348025292196610e+00
1.512927201431252699e+00
3.145920808015074233e+00
2.740078830454175107e-01
-1.326442777366833692e+00
1.022241321522551205e-01
-6.670190925762210510e-01
-3.062081831445564450e-01
-1.421124623933681663e-01
-1.834093692107020779e+00
5.055249575922159400e-01
1.275641081015697731e+00
4.590358350563323309e-01
2.039105027313961926e+00
1.650158747925030811e+00
8.974944814708121221e-01
1.320832762972372842e+00
-3.220112563391340221e-01
-6.999915982306351703e-01
-4.646308613465153781e-01
-1.559984345274393336e-01
6.299304825519335127e-01
7.856524834109734901e-01
3.066101911550214165e-01
1.790368188764111523e-01
5.708518329213069231e-01
-4.516945210734613636e-01
8.918713132119736320e-02
4.867731615818663982e-01
2.675815231248823256e+00
6.157188655105272357e-01
1.996501303847672548e-01
-1.751369587923566964e-02
9.304011905510582714e-02
6.112286381363524201e-01
3.102181151758942046e-01
1.217719733461137155e+00
3.146522186114008579e-01
2.698934678318845037e-01
5.693471853481723022e-01
1.384596412048530178e-01
-5.659273348637351431e-01
-9.337791533396780363e-02
4.541096258743522185e-01
-4.110311166141498163e-01
-1.324280975301413144e-01
-1.239019279756930526e-02
-9.632800823152914971e-01
4.557848071970627135e-01
6.547212447604857655e-01
-5.355317832342249007e-01
-1.536618585261263492e+00
-7.715552265277791921e-01
6.253317111521422555e-01
-3.574619807377206748e-01
-2.605073982479030326e-01
-9.268186887839233168e-02
-8.995541412341549747e-02
1.856052609097921802e-01
1.964388080262424063e+00
-4.461861152203112080e-01
-2.434013303289298324e+00
-6.993370142040380433e-01
1.017732197429290331e+00
-3.428133567363321754e-01
-2.475965382589747354e-01
1.751363210448368124e-01
-1.234394380558285542e+00
2.548699504116404224e+00
1.404569450188065893e+00
-1.025949066811479682e+00
-1.387941127729134250e+00
-6.859701159316337060e-01
7.614188373720547354e-01
2.526493156357879077e-01
-1.057274570375613815e-02
-5.826524765443286125e-02
-1.143039397725374107e+00
3.597742215649548103e-01
1.208150976093481654e+00
-8.412261302207856006e-02
-1.723797304362698624e+00
-1.004166086698598859e+00
1.588469415954467889e+00
1.723985380827223746e-01
2.477164922992578996e-02
-3.055884364594207980e-01
-2.845817738300725486e-01
4.076257205186216148e-01
-4.731920083841073543e-01
-2.794916646039500088e-02
-1.137976460870698536e-01
6.711807057483830663e-01
-3.575978312536177706e-01
8.230291676655896449e-01
7.223451174599335722e-01
-3.628654818649334479e-01
-6.603149657298440500e-02
5.182912496991159967e-01
3.156486432492875971e-01
-5.081851394224873308e-02
-3.276107051424976269e-01
2.899872622435392677e-01
-4.226749901245062668e-01
-2.303807477581385210e-01
1.206563440350371802e-01
2.224580960872643565e-01
1.457510100663037822e-01
8.232644493685261633e-01
-8.437323345741727376e-01
-5.767406260828236153e-01
-4.332761180291780367e-01
-2.999771713938753082e-01
-9.041032816716749743e-01
9.559757525859461369e-01
1.574154652056128478e+00
8.864147531006964786e-02
-9.950734919802207978e-02
2.805661632423636087e-01
2.957560086519914200e-01
-9.975989023391985955e-02
-9.183348616825652566e-02
-9.067150959062965365e-02
1.388536401081220450e+00
3.257327975614716653e-01
1.355875556260862924e-01
-1.051010457437589363e+00
-4.155796780602232232e-01
1.287513807288473699e-01
1.252193529438830444e+00
-2.460416003643075000e-01
-1.238865707240729641e+00
-9.903700882916203208e-01
1.022738912267744826e+00
-1.830832608175762266e-01
-5.864422527361186077e-01
-6.080844690845043088e-01
-9.560035448750290321e-01
8.068668414423568747e-01
2.180822075465505883e+00
-5.457480952261570817e-01
-3.656372933480463328e+00
-9.378302110411773640e-01
-2.646607052136897842e-01
-1.039779790820509753e+00
9.017171949165827538e-01
-2.664626230127752765e-02
-1.617917403735894322e+00
2.716002097093691781e+00
-1.064489642474224507e-01
-3.458129149028279503e-01
1.868096627763226880e-01
4.940076932854721714e-01
-1.350956999393456703e-01
-6.602206744544562023e-01
-2.703457508051718139e-01
1.049540257007399169e-01
2.854794758062273452e-01
2.300419979606266874e-01
1.391439883424753499e-01
1.918752579268754033e-01
-1.201588148116268240e-01
1.010522156193732896e-01
-1.151422260524953778e+00
2.992595066713074625e-01
-2.976698631956228858e-02
-3.840402882954608299e-01
4.031483773665493486e-01
3.468349857713437512e-02
-5.078262750430377614e-02
6.271164442495694158e-02
1.112776727691658502e-01
-5.047418444877582039e-02
2.998572977312739529e-01
-1.349016881218376984e-01
5.424341916918177381e-02
3.171740564987159394e-01
-2.095521271499565241e-01
-1.354760483383728731e-01
6.354515971546548236e-01
-4.236395996513983575e-01
-1.726250778254835971e+00
-1.911518302136351599e-01
6.289473970272998482e-01
-6.627192231806308120e-01
-1.714257086698450505e-01
1.557316066928466913e-01
-5.031722066301393959e-01
-7.205771521571278926e-02
2.024922961474103777e-01
-3.615070173942027676e-01
-1.976992973441600299e-01
6.449523046009089100e-01
-9.960978997183492778e-01
-9.950470130498098587e-02
-8.091259868551832490e-02
-2.182854293853385419e-01
6.647500846306524103e-02
-1.262946760146863578e-01
7.033476087533642174e-01
2.781824974347112955e-01
-1.272650636506328148e+00
-5.896196697726717728e-01
3.096971366394297709e-01
-7.726829497907150568e-01
-1.898725888231144743e-01
-1.596324504590448667e-01
-2.143612524033360056e-01
2.439446417493636443e-01
1.006939797715829865e+00
1.563505872994760126e-01
-1.627659032533675942e+00
-2.825971005449562368e-01
2.906837749010410255e-01
-8.970135965966972158e-01
-3.897293693740948306e-02
-5.953521458045353543e-02
-5.129759027725551146e-01
1.618480285632813098e+00
-5.724346158351546476e-01
6.379561938993635883e-02
2.201705168260882084e-01
1.834282393965233626e-01
1.630481354581375109e-01
7.044573218355350275e-02
2.958127699148293752e-02
-1.327262120506494114e-01
1.757585645448475342e-01
-2.979916329729973556e-01
-1.112010781008894833e+00
-4.384777457592961003e-01
7.936665602165857702e-01
2.046542955775678130e-01
-1.225606843992026906e+00
9.866627599755830591e-01
6.727643706099382115e-01
3.756102764585268483e-01
2.391482857583752952e-01
-3.818115444143188042e-01
4.906609305694028533e-01
-7.230754189682442323e-01
-1.288643251583688309e+00
1.203117104813185428e-01
3.567048540947708180e-01
-9.433008693536050204e-01
-1.261149642716066444e+00
6.919899715173343235e-01
-5.653321709766591097e-01
-6.129780447832149787e-02
8.665986577140093183e-03
-6.263041403564933995e-01
4.934400559935386288e-01
4.992931465713801309e-01
2.675966253245235307e-02
-1.394979824459704476e+00
-4.698600256939590089e-03
8.513883629918505003e-01
1.301650916495727284e+00
3.875194967211354293e-04
-2.871664581272247996e-01
