2.135842462445169676e-01
7.035658348211117075e-02
-4.334944805062347362e-01
9.323271759054752028e-02
-5.477135006225736236e-01
4.195129894821079675e-01
6.066080288950426169e-01
1.991835905226807812e-01
-1.850973689238665509e-01
-2.498476003031308568e-01
4.861583417902008014e-02
-4.526492521145796671e-02
3.260505937769562212e-01
4.726757992587102830e-01
2.339556533776617486e-01
-5.782063880051236948e-01
-2.154458420086271531e-01
7.662811778908291960e-02
1.137371640259515898e-01
4.414325609899527603e-01
2.564393664808797269e-01
-6.107702549179488960e-01
8.643632135236392622e-02
5.737305670820137538e-01
-4.122592889598924448e-01
4.523958080374690938e-01
3.086604669978568194e-01
4.432278225654815579e-02
6.314354899139441868e-02
-6.617838970378371599e-02
-3.856198531589490885e-01
4.923778830639101434e-02
-2.082832770211185125e-01
-3.781351371860952049e-01
-2.059321423785187566e-01
2.245050546805385239e-01
-2.146682066900277297e-01
7.451377156480175346e-02
5.499088280380621391e-02
-2.990339446556553038e-01
-3.789789696506618705e-02
-3.440671127860791545e-01
-4.851948183160847278e-02
1.772671654643073191e-01
2.225135638531297033e-01
1.268421407757528707e-01
3.204387988955142291e-02
-1.082360563400177889e-01
8.600135444466038004e-02
1.571332460966404221e-02
-8.673446021434343470e-03
4.769372132352929505e-02
1.282453038622305141e-01
8.635602881727118263e-02
-6.307471413348490763e-02
-2.190674787646693933e-01
-9.298247027653896990e-02
1.647372862205355448e-01
-1.261105814357934840e-01
-3.504289345059994343e-01
7.189749692221214517e-02
9.952022968857984764e-02
-2.177988623029171733e-01
-4.051672188627306048e-02
1.930102872241159784e-01
6.483260709712757031e-02
2.068861773739407717e-01
-6.317734511215108983e-02
1.342546800495455772e-01
3.044866142771715523e-01
-2.979657500794832825e-03
-3.684202482649354821e-02
1.075680904757458783e-01
7.759408381510204955e-02
7.648504901298065761e-02
-1.029184044752324279e-01
3.722650309200748603e-02
-1.911934450491525883e-01
-1.396354191360135166e-01
-7.474176313947709926e-02
-6.231064829331928873e-02
1.948572199363668433e-01
1.757491376013195217e-01
1.732652652440092311e-01
1.171928347440990698e-01
-1.841940650626545106e-01
-1.941333252457869418e-01
-2.636569346792643209e-01
2.616180400258624195e-01
-2.155591734643240442e-02
-2.280657401913289972e-01
4.903597575795411341e-03
-1.644570155142139056e-01
-2.005914519981960298e-01
-6.495063893568797653e-01
2.620363882112666243e-01
1.016621293944079407e-01
-3.201174454405646824e-02
-8.241252539717761061e-02
-5.731165873277686007e-01
-1.526308381105460354e-01
9.809178586322320204e-02
-1.229805140412415787e-01
-2.934300695149976157e-01
3.676400802181940541e-01
-2.514498162842544460e-01
2.936191542191636181e-02
-1.862779004010957015e-02
3.608186695440947916e-02
-1.709019745237684573e-02
2.356993166599571088e-01
-7.241570486358747671e-02
1.258385112253174731e-01
3.188180216434463761e-03
8.077330329700883882e-02
4.562659921181515948e-02
-1.098741879816799716e-01
-7.667879870386155872e-02
8.060239589087411782e-02
6.942248631993775711e-03
1.063798221901989527e-01
1.480696711263514431e-01
5.099475781748892544e-02
-4.539696505498119067e-02
9.607277301252759028e-02
-3.309330493235138615e-01
-7.333498698557880391e-02
2.969933833159231762e-01
2.373485395699133360e-02
-1.043960554407989544e-01
1.225712345469790474e-03
-2.272941223767144248e-01
1.755021518018699822e-01
-8.975153444249676926e-02
-5.594471912127919888e-02
-6.436089203454083141e-02
4.103869451393082901e-01
-1.247913413402790689e-01
1.875268928111289146e-01
-2.962564425256434403e-02
-2.380236206255731402e-02
6.426928619674174281e-02
-3.536158617677457872e-01
-6.232002719407815216e-05
1.187773106094001420e-02
4.780043015783685956e-02
1.162092750604017295e-03
-4.287143275731453845e-02
-2.026775939254295833e-01
-1.170010743192369425e-02
-1.210219888310641728e-01
8.945360676180515516e-03
6.907284868641175302e-02
2.940277556583940910e-02
-8.385762185247931655e-02
5.677008752758536808e-02
-1.613095415386672782e-01
-6.030986426924910687e-02
-2.164873487793693152e-01
1.977143620579878067e-03
3.636065690774397119e-01
7.145978917725917534e-02
-1.610811095202352439e-01
-2.284015224841669939e-02
-1.196058271873751550e-01
-2.025200444488339246e-01
-3.039090967613434363e-02
1.439884761568292204e-01
-1.433871535730258523e-02
-4.402900204024241815e-02
3.897939113301872316e-02
3.141212006761754938e-01
6.105127769593536591e-02
3.314754358014950220e-01
-3.963975645685593324e-03
-6.961373415720448210e-02
-2.345887345577475080e-01
7.189873786240909281e-02
1.410310102427481671e-01
-3.029696926972898496e-01
4.064463678562955234e-02
9.445327710270669253e-02
-3.911076534301693997e-02
-4.391853896177190797e-01
3.786474806631303508e-02
1.298626095733306507e-01
-9.821379044404167369e-02
2.039034814976774593e-02
1.743883842788550853e-01
4.002994720992565369e-01
9.812250706426270397e-02
1.310525324612182296e-01
-8.149856745986962248e-02
2.606494493809392576e-01
-3.370103222549786920e-02
-1.923173540299777662e-01
-1.029527345060978483e-01
1.932811474712961552e-02
7.308251210266003550e-02
7.025037423257705915e-02
-1.229863435237065067e-01
1.991998195507907743e-01
-1.183710522545095151e-01
4.260521448042773329e-01
1.573460260322671056e-01
2.003267861245678627e-01
2.166498002248000987e-01
1.908215094889960106e-01
-2.362981025990449069e-01
1.894698959740047650e-01
-8.568778763728458758e-02
-1.079638316864591496e-01
-9.238923354703885982e-02
1.266174050675761831e-01
-9.948766936522053517e-02
-1.629903731708700343e-01
-1.502502530154276872e-01
-4.215143557868163832e-02
4.702477999902202749e-02
-2.054280406948835180e-01
3.798500314008335654e-01
-3.323858316188107315e-02
-1.308892550976126778e-01
-7.275681768083408496e-02
-1.708339494513237411e-01
6.450230101748397060e-02
1.026038873203279078e-01
5.783974702398934215e-02
-1.156232666351622446e-01
-6.481930663003625248e-02
-1.297184530624854171e-01
2.918968897252972594e-01
-2.141541018796045207e-02
-2.547037062709515132e-01
6.059412668526754052e-03
-7.854064331856057402e-02
1.090380593038613871e-01
-2.878412116981703961e-01
1.426752589751864586e-01
-1.502945663788435304e-01
-2.090285812943036003e-01
-1.787900271149331088e-01
-1.293365109411816760e-01
1.390989719037816381e-02
1.752482335941906999e-01
2.578194319021147596e-01
-9.733172972771626796e-02
-2.816111635442856143e-01
2.428118456274644399e-02
3.103974179567280389e-01
4.035894513394011618e-02
-1.081080613663213674e-01
-2.941517708980969092e-01
4.181891598669563725e-01
-4.537150072837448089e-02
1.733110204254325881e-01
1.104169931626297479e-01
-3.901089161841934105e-01
-7.841678539072916010e-02
-1.831566104333169354e-01
-6.130624898713207122e-02
-9.127818673578999564e-02
1.560983614823719008e-03
1.792505213310649492e-01
1.946518937331493393e-01
-2.337386892472460495e-02
-7.966853861215449084e-02
-2.458717420153756078e-02
-1.690084999408003261e-02
1.663578514569804276e-03
-6.331909162864064744e-02
-6.126585579758441272e-03
1.580196612988263027e-01
-3.763084967882824872e-01
-1.946356302106258193e-02
-1.331843229142404550e-01
-2.291962189529058169e-01
-9.148962114101187593e-02
2.834032618072056531e-01
-1.646872941745089192e-01
2.603059136733601800e-02
-5.130371814154087717e-01
1.888935989919027780e-01
-2.770031941133772966e-03
1.027911427753052109e-01
1.179704685471904824e-01
2.880417371091488488e-02
6.211369330254428583e-02
3.766917816631431409e-02
3.613914189296871249e-01
2.230232099973191717e-01
1.652972917283857257e-01
1.502018475114712814e-01
-1.235544553764067466e-01
-4.843739491362118732e-02
-1.464131428660755685e-01
-9.145083525054033269e-02
1.599620641497936646e-01
-9.842448698875720658e-02
2.346990663152944898e-02
1.226844843162555321e-01
2.719077739973508323e-01
1.906859853520327386e-01
-1.407870939427647954e-02
1.950502024766827824e-01
-1.769588276269787319e-03
1.598268461056339407e-01
-2.713979522292645592e-04
3.847038410941496789e-01
-4.549559430761644929e-01
6.372942724499397471e-02
2.881196485908794902e-02
5.546809774693335637e-02
8.399431526416355209e-02
-3.977813530766609595e-01
-3.431737535453510679e-01
3.175893621697002678e-02
-1.046926714974673184e-01
-1.619311774966028170e-02
-8.161795603653940190e-02
-1.978154826290814267e-02
1.810997663627569310e-01
-2.447444418734270599e-01
-4.202493450552859389e-01
-2.502422337423917398e-01
-1.137077194369631311e-01
-1.327409273649291233e-01
1.170594813036019977e-01
-1.179946826434216112e-01
8.974895553090043998e-02
3.571624428454928668e-01
-3.027645620833888801e-02
2.340151468221541020e-01
-2.180581529309184169e-02
-1.496405742641688796e-01
1.167137289433431251e-02
-3.391584490620090653e-02
-2.330732139751889864e-02
-1.934053888884006700e-01
-1.602234661564166107e-01
-1.495221800740475782e-01
-5.296283231312229889e-01
1.874490672505550182e-01
8.734410703325663772e-02
-9.965448366910435729e-02
1.931712349778824944e-01
1.239558609377915399e-01
2.057170009161534557e-02
-2.433850838617704626e-01
1.770740143817175205e-01
-1.295574786894168606e-01
-1.936300781543328908e-01
1.573906989364903114e-02
-1.573616870895003239e-02
1.287237472176437636e-01
-1.834172249574171631e-01
1.053792405166339291e-01
-5.879196622537562894e-02
1.862719063231951799e-01
1.045759489667288378e-01
2.194166914610596320e-01
-1.058527100201447080e-01
-1.523334772483926070e-01
1.138737498121776548e-01
-2.002688239277214399e-02
2.427322855538195379e-01
1.236703065045870326e-01
-3.588891725447391767e-01
-2.988108769471773188e-02
1.004210164099902797e-01
-2.163936202245671930e-02
2.156988665905704497e-02
-1.830779218956247734e-01
8.882585494583171426e-02
-1.532600764967564054e-02
2.735918625230378265e-02
-1.809010361587542193e-01
-3.435636579818657915e-02
-1.015879879313497242e-01
6.711837583460180667e-01
-2.337791023084310471e-01
-1.778452435120948527e-01
5.217132771203081276e-02
-6.542248249962311080e-02
-1.090113998633010228e-01
2.002656030866993564e-01
-1.272116616342806594e-01
-1.001531185733284951e-01
3.829901320790986274e-02
-9.375054608923613642e-02
3.400936738992629133e-02
6.689699638108050073e-02
-1.109239402950291551e-03
1.060392309112668241e-01
-3.075662231393500728e-02
1.545042491685109654e-01
-6.364305368275482988e-02
-6.829073290123713336e-02
-4.573175040636271588e-02
3.094891337138959142e-01
-6.216827244538469105e-02
4.451669390111809982e-02
-7.455784625389177966e-02
2.752678751004817848e-01
-4.490636153076986437e-02
2.104674460201361730e-01
-5.566503324453746238e-02
9.073138983845351058e-02
1.267234133300790266e-01
1.588105797606245428e-01
-1.751541257430620432e-02
-5.170994710050491605e-02
1.172805611902867917e-01
2.272202114096404102e-02
-8.450109260819643753e-02
-1.566794491340135209e-01
-2.427686897681160805e-01
5.029561229872414607e-02
-1.493538199898233332e-01
1.914142097369356810e-01
3.309613500392632468e-01
-5.013964966858402983e-02
-1.210999082972958468e-01
-8.879393582161199117e-02
3.633795306511852785e-01
-8.811669285172168964e-02
3.624569567826546601e-01
1.083446735661237337e-01
-1.296489318328546969e-01
1.828587901835616314e-01
-3.564637144765326893e-01
-2.408070019568326892e-01
1.206273803362595959e-01
8.580902355404024240e-02
2.383220374317184254e-01
-2.655599503495715275e-01
3.634867989876419125e-01
8.218429489368965501e-02
-1.823208687258842942e-01
3.582930086692215355e-02
2.201805823640619331e-02
-6.343953954455908151e-02
2.241643819802145998e-01
-1.537355161468486123e-02
1.196415758476947894e-01
-7.165900644061473646e-02
-3.258540478921683609e-02
-1.890958271795542545e-01
-4.187873829894548372e-01
3.469483440581214856e-02
-1.142045585392223311e-01
3.062201152809153060e-01
-2.741487034799194311e-01
-4.670752790802321086e-02
-6.624678966052255369e-02
-2.968496582762307143e-02
2.775853106233701628e-01
-1.356919233148029258e-01
-1.233914638898340604e-01
1.887211078152171290e-02
-5.276023687241396254e-02
-2.241652688040232308e-02
3.384903313658997881e-01
4.193578506545583146e-02
1.794507944681206779e-01
1.572841746184922007e-01
-1.067033326555450468e-01
3.014665244511773382e-03
-1.333725037610842580e-02
4.279105688905834870e-02
1.636827765924520062e-01
-8.544877350065627208e-02
2.573017690594496809e-01
-1.050957290278737855e-01
-9.275151648459305231e-02
-4.176972624549067648e-02
-1.089142721798881663e-01
1.957139870792783676e-01
1.813040775384187064e-01
-1.877402449377809854e-02
6.376291377325542242e-02
2.903614511038795643e-01
1.359950981257736502e-01
7.150538773921502611e-02
-1.168629952371985498e-01
-1.550256227431415501e-01
3.047889964085130909e-01
-6.491741451937994845e-02
1.029604556787087344e-01
-1.669477760768039165e-01
-2.007414180129880321e-01
1.658419723872536500e-01
6.646980809436159321e-02
-5.512436049153984080e-02
-2.153695507905483211e-02
-1.923974967008972581e-01
5.625764533213247626e-02
-1.618369026925493281e-01
-1.962852058867272653e-01
-8.052812338841097706e-02
1.860625155629847538e-01
-3.489531526873886347e-01
1.900930763019917369e-01
-2.462440168840405730e-01
7.426009269253742995e-02
2.821755562829942887e-01
-2.828124730864971514e-01
-9.975141669552087254e-02
7.936021100329812561e-02
-7.064724949727328729e-02
1.096069341321571043e-02
1.819601074963169141e-01
4.452265627181552915e-02
-5.572182573251014542e-02
1.321155552316743143e-01
-3.057619823521248725e-01
-5.253335250065142847e-02
2.274035563005665506e-01
1.179869740243450621e-01
-1.500271312336331764e-01
1.155871294943634636e-01
1.063401457342445927e-01
2.810459479549042294e-01
-1.430316783652286206e-01
-2.527623078763920061e-02
-9.315614005751969573e-02
1.559802023423722539e-01
-3.692078140863518931e-01
-1.882608382305822337e-01
1.347369746585260764e-01
-5.110419095819916657e-02
1.191105253806837572e-01
-2.565793172088849383e-01
-7.243746389850459766e-02
-2.217947765964949358e-01
2.165453590824890640e-01
1.212089971528662602e-01
-1.007937349065460841e-01
-6.019438604625174660e-01
7.528155104779855888e-02
1.965924210960253715e-01
1.616865088358943048e-01
8.576340332795881483e-02
-5.903545169429326167e-01
1.064069642907053276e-01
-2.832486273777254371e-01
2.022592916197807067e-01
4.446617019152795947e-02
-2.051609306478267558e-01
-9.382903249633902654e-01
1.050038055228059986e-01
-2.265066443434504695e-01
1.676223911081584084e-01
3.099091757175870265e-02
-1.917840935410245265e-02
2.578747514294960630e-01
-2.248937534331349811e-02
-1.296590574423735209e-01
4.793999619248060645e-02
1.645672415615227202e-01
-4.783112899468176804e-02
6.509676433302062637e-02
-9.667079118948336547e-02
1.995818127084756505e-02
1.395391709117559664e-01
1.397042479492031086e-01
-6.309021323342775545e-02
1.581864359945723275e-01
-1.457315634157089201e-01
-1.674686285996689894e-01
-1.135495021574245977e-01
-1.024628862261289519e-01
1.909922492101039371e-01
-9.915222727201392083e-02
3.750850292732989342e-03
1.920421365287307280e-01
-1.679668408702857385e-01
-1.067273742668322506e-01
-1.029295265818076094e-01
6.713075803677942544e-01
2.033258209840484443e-01
-1.177820542789494163e-01
-1.850214744919819951e-02
2.185059755425811101e-01
-1.055977595528210938e-01
2.023661792871384729e-02
4.619682125957186303e-01
-1.684098229806557379e-01
-5.646884781561933159e-02
6.414797432588349550e-03
-1.287001216886834998e-02
5.101469109958042120e-02
7.197776526358659610e-02
2.449508618276601268e-01
-4.280131691518884174e-01
5.976552920200536856e-02
8.987761430664088780e-02
-3.087329410431855492e-01
2.148664631307767303e-01
9.889400477722470884e-02
1.460064724500882427e-01
-2.818700067155832309e-02
3.931925360915524553e-02
-2.245247513954360882e-02
-6.429622425084660642e-02
1.217633937997607135e-01
-1.048045142113420702e-01
-1.949378284669573552e-02
-1.360740166954681751e-01
1.578151041114262410e-01
-4.323524009777777177e-01
1.688576868647373441e-01
-9.743956781658633104e-02
3.070234399625487165e-01
-1.332890745282694356e-01
1.772995589692322399e-03
8.003753690045371794e-02
-8.573954477900060100e-02
-2.875563815664637993e-02
7.851639870748688965e-02
-1.415427640958812627e-01
-1.182577790359235353e-01
2.595875673084366841e-01
-2.646044248680687674e-02
-8.947718939665995352e-02
-2.350570361501195735e-02
-7.039929230489137824e-02
-3.735096179750225370e-02
6.045470276635539486e-02
5.166444050708329794e-02
1.827713883191770319e-02
5.246655906301291722e-02
1.848132932622438898e-02
1.206250039046282557e-02
1.212697439233753754e-01
1.687225476390876167e-01
-1.012691550121174178e-01
-2.099345584414400445e-01
-2.948149351919484018e-01
-1.249608855127790075e-01
2.231261416638019579e-01
3.181508288094129777e-01
-2.343564206053663501e-01
-7.578066285456502849e-02
-6.216003121321556080e-02
-2.405968946331268343e-01
1.943635267776687783e-02
1.900421676322308351e-01
-9.525231951980593637e-02
-1.847495425536050950e-01
3.722057094511303094e-02
-3.140105218806397286e-02
-3.901773988038090973e-02
8.693362481466408720e-02
-4.667150368812500449e-02
3.489503746622422131e-01
-2.428018469759679956e-02
3.340132649435857970e-01
7.658899951274714124e-02
1.153443765759551952e-02
-1.123821948675573883e-02
-4.473667644090415646e-02
-2.232337811592503274e-01
-1.030547338512056710e-01
3.433620886684782270e-01
2.203967095541737586e-01
-3.735627164195640809e-02
1.222430674310704957e-01
-1.250821892893956566e-01
-5.551064913694998132e-02
-1.407036383625519804e-01
1.318766265539409177e-01
-3.617567082539565049e-01
1.623302762674309896e-01
2.109026466417093792e-01
8.783148178828259489e-02
4.801983748789298567e-02
2.883118625003633709e-02
-2.125694513665875585e-01
1.040239270681685285e-01
1.980163980037294436e-01
2.959329204237151068e-01
2.536425555518518477e-02
1.134013621988176623e-01
-3.150337976096038717e-01
1.465627109181951437e-01
-1.282934917699251332e-01
3.825139541351373351e-01
-1.346179959626882805e-01
2.264730707855031402e-02
-5.270678822389388007e-02
-1.102676082973165217e-01
1.021606308909762256e-01
-1.823362186569903454e-01
-5.091699376427449852e-02
1.339822759997911783e-01
2.185325507424848157e-01
5.150154246859779683e-02
1.691072138338605146e-01
-1.218623367344403019e-01
-2.028835218169253857e-02
-1.633401579825936867e-02
-2.751309228807804000e-02
-2.971087643240034049e-01
1.327152119968479926e-01
-1.334712534139178008e-01
5.228666592475769009e-02
-3.597932588296602618e-02
-4.695761569732852941e-02
-1.966057187121305339e-01
2.656222016125510121e-01
2.523161905683793740e-02
-4.868851342357037593e-02
-1.248404334280548839e-01
-1.439754164833402794e-01
-8.664001573875321216e-02
-2.323277788647007680e-01
-2.535094941532315960e-01
-2.568826289480445890e-01
5.327267556930599390e-01
8.354731956053164377e-03
7.843038799007086281e-02
1.555724283169878375e-01
3.680166266789933194e-01
4.305207305940301002e-03
-1.084165328765416825e-01
1.509882113272813936e-02
3.068760152486630921e-01
-1.576534593315198976e-02
8.004438653460818620e-02
-1.465586930610876804e-01
1.934644934707393030e-02
1.434050668278815388e-01
-2.457967028427715805e-01
-8.647447204166765905e-03
2.824030839969384962e-02
3.654111529375703160e-01
-3.755370582160327819e-01
2.784912466273222267e-02
1.300011872486283027e-01
2.532953374998342944e-01
-2.298104303179430291e-02
2.094928734015065463e-02
-1.871944943956116714e-01
4.279917163485802978e-01
7.702919096967171531e-02
-8.803989824503050121e-02
-5.418959622660383252e-02
3.730719617204829031e-01
-7.114316707592760469e-02
-5.515428276767372212e-02
-2.547383303341524963e-01
1.423074976261450852e-01
-1.425867765411058530e-01
-5.813760540869458704e-02
3.798463482795291224e-01
-3.173110911457356353e-01
-2.599649677458267319e-02
-1.732763269185303157e-01
3.425028138178384252e-01
2.199169379884581641e-03
-1.636227237267721124e-01
-5.402616532037220198e-02
1.873417062431111668e-01
-1.846355136520923534e-01
-5.220724096729851497e-04
5.279356117497083917e-02
-3.565805263702141042e-02
-3.983409246184946850e-01
1.397819800958358949e-01
3.523060351155010012e-02
1.062394448940096187e-01
2.018047103856161484e-01
4.022607769606224015e-01
-1.809935759283747836e-01
-1.404572391670630138e-01
-1.970093530965448536e-01
-3.181140459580144575e-01
2.580437308834869214e-01
1.300534737555841813e-01
5.682688623498686684e-03
4.067891201755229752e-02
1.728021408524831048e-01
1.996799728200611690e-01
1.711062375096511143e-02
1.702931134358537657e-01
1.038747783364930670e-03
4.762052908259811757e-02
3.178053238151833937e-01
1.772161319078876529e-01
-1.379244287325053220e-01
1.751584378201164194e-01
1.703822250462488364e-01
1.495526621423267088e-01
-3.031399417821448172e-02
-3.580325764662894983e-02
-1.808351869766050904e-02
-1.805098362260443984e-02
-5.040862088088200466e-01
-3.846729285440303459e-01
6.711738314940505178e-03
-4.223923926336696499e-02
-3.580847159013230696e-01
2.194329383899929972e-02
-1.146863536150948271e-01
1.962475493968241780e-01
-6.160755943866352141e-02
2.554646174247068302e-01
2.722669432047767138e-02
-1.323700716118063059e-01
1.327143830274253311e-01
5.778715943696667579e-02
-7.316168700975712869e-02
-2.393058199030147215e-01
-1.280538501798393902e-01
-1.437489250527285156e-02
1.391462037020159137e-01
3.437872428770564759e-01
2.627501931144823888e-01
-4.103956757887048945e-01
-8.776725602191026709e-02
-1.055433352977422079e-01
2.231914079092999978e-02
5.031165587163680813e-02
2.430942450998340443e-01
-8.456903595011776298e-02
-9.943630037991357806e-02
1.602602970643003111e-01
-1.091490184274897385e-01
-1.005966688305927337e-01
1.969528932466339533e-01
2.968784128592031335e-01
-1.093714560280465847e-01
-6.513148176049733673e-03
4.220709101606796160e-02
1.498961324507378044e-03
-2.536553209116156893e-01
9.698501322213928799e-02
-6.386680250701530503e-02
7.441387245143379903e-02
8.807562652659184366e-02
3.497291064932858684e-02
-9.459315823415107016e-02
1.782157190823825677e-01
-1.259130118864298931e-01
3.100756488119755794e-01
-8.217819542304628799e-02
1.252497935383801442e-01
-1.386567073327735385e-02
-3.671089395842921932e-02
-4.960219670698045452e-02
-1.554633784870566027e-01
-2.069103250911392688e-01
-5.711155720181971401e-02
-1.098852782284329560e-01
2.128336662202077664e-02
7.874082677441886224e-02
1.567332122062536637e-01
3.656814548050410507e-01
-5.899278557823764424e-02
-1.446016682918962737e-01
7.394779128290078496e-02
1.615408154541986552e-01
3.501690933191866500e-02
-4.385628130271501668e-02
3.607814410027197077e-03
4.598766933037604782e-02
-1.731823214142422518e-01
-4.528567831551748996e-02
8.931907387369619755e-02
6.871374946888844648e-02
1.451248289174563721e-01
-1.302673202987240375e-01
-6.962232607547244601e-02
3.680309018971674589e-02
1.490370284569459136e-01
4.118626681803617684e-01
3.539072462396831292e-02
1.166746755832023252e-01
-3.744488172847165730e-01
-7.601596538614019405e-02
2.251272159062668310e-01
2.206901312961196959e-01
-1.428684514236817082e-01
3.026614115716504960e-01
-1.033871167478852826e-01
2.619512049088400241e-02
-1.321508383911681461e-01
-1.169459330585737172e-01
2.792107577859666290e-02
-1.207689205985633396e-01
2.003897435904858360e-01
-2.900456328433621139e-02
-9.465382852492146282e-02
5.656143507127955189e-02
1.927694603336185808e-01
-3.057556333712311281e-01
-3.502231569473928663e-01
-2.654011273501110657e-01
1.610235131323127511e-01
-2.050192456382312484e-02
-2.372721571172442187e-02
-1.012279643303514304e-01
-1.591560733819575024e-01
-1.132434487341450226e-02
7.430321201747822069e-02
3.036516154741439669e-02
1.614680540058844038e-01
-1.421494193595180811e-01
-6.532659472702133374e-02
-1.033823183216351360e-01
-9.379504897877745384e-02
-2.636353883065046255e-01
1.578501739667370340e-01
4.967366927762484341e-02
5.365565302798454977e-02
-1.608756846736940360e-02
1.085460804812407448e-01
-1.880819982114518563e-01
2.587178846158035284e-01
5.740837367389819978e-02
2.962913418571108681e-01
-1.805445931554727768e-02
-1.872695953074687836e-01
-8.888903011177290425e-02
1.237321623806706267e-01
9.202877295827933957e-02
1.235591429401446117e-02
-6.268437421860025005e-02
-2.313865016607267733e-01
2.937621915316430687e-01
-2.166892247519561499e-01
-1.093707930550764096e-01
2.303574026333880895e-03
7.683565124886128361e-02
-5.268642996818281854e-02
1.860414218161150074e-02
1.798432011480842752e-01
-2.694783626460118264e-01
-4.671028427158568225e-02
-1.800938822508128534e-01
5.462241636677801770e-02
1.854001054065637644e-02
1.926175115290672812e-01
7.480666088227673483e-02
1.291493238798342193e-02
-5.277230944322047063e-02
-1.916057584112359768e-01
1.443494043827892037e-01
1.639386472343987156e-02
-2.044441581599539814e-01
1.083271275706350761e-01
-1.827955735091902068e-01
-1.241735600023994267e-02
-7.699891987128003844e-03
9.669686044760354704e-02
-2.687137250842545622e-01
1.691849508633803401e-01
6.009025109448203061e-02
1.805310229495707131e-01
2.395258128053604982e-02
7.225336861852532655e-03
-1.320457920067308333e-01
1.885862808216883790e-01
-1.147712160299811518e-01
9.100661348402935835e-02
1.010049731050110811e-01
1.060897823212298419e-01
1.717333494093533502e-02
-2.264518438421055935e-01
-3.693296259305953178e-02
-3.054123244517817359e-02
1.090998774905730662e-01
-1.848416858647782823e-01
-5.236485951301334506e-03
-6.506060647251100948e-02
-8.423156909219720045e-02
4.044370375794432287e-02
-1.007979211408276728e-03
-3.197584478646047779e-01
9.175171933102720112e-02
9.999487674856824548e-02
4.658397154314674465e-02
1.601457481134513361e-01
-4.065813458097872757e-01
1.481188020837516939e-01
1.510521820479290012e-01
3.579613061029213172e-01
-1.009131521952729982e-01
1.489931691052574780e-01
8.073816996790894596e-02
5.086148517710717409e-02
5.391074228396890433e-01
5.903413440860206390e-02
4.910537561009347546e-02
-5.526055246281558891e-02
4.482379235236113452e-02
6.793210951321904979e-03
-2.005269382541413348e-01
2.365863339558996539e-02
3.008671432935799972e-02
-3.915450311721931920e-01
4.149169680527700632e-01
1.595477028125444618e-01
2.367597110283141404e-01
4.771614364698031213e-02
8.479156779698759916e-02
5.026970728060676380e-02
-5.400244040766812720e-02
-2.941295122169256260e-01
1.291859150312886784e-01
-6.684496005527677809e-02
-1.420179372686724006e-01
1.143697821665093234e-01
4.566514530799788835e-02
3.674503815242045890e-02
1.142399962949539327e-01
2.536826812842945741e-02
-7.489615660500303918e-02
-3.234845606056417910e-01
9.135763343944650408e-03
4.711715065670010749e-02
-4.044629149976621263e-01
-2.020682593404661900e-02
3.438522433726114158e-02
-2.258411082965011973e-01
1.075851216057601284e-01
1.888542045092861110e-01
-4.339415020336404027e-01
5.554846552733040399e-01
-1.699188231151784259e-02
-9.305098096032117516e-02
-3.309585684530161331e-01
4.240968713356549347e-01
8.657517348377456734e-02
1.655101221833134295e-02
1.051557920975637606e-01
6.677136155808995055e-02
-3.484415036905327140e-02
-8.613196046617004054e-02
7.344815099853732598e-02
-1.145687495172236087e-01
3.305222992690322048e-01
7.916755847970745330e-02
9.979647373033763424e-02
4.398403405264420495e-03
4.221971253065146534e-01
-3.370386423022483317e-03
1.482834833617464598e-01
-7.274451158325384581e-02
1.039203429812409901e-01
-1.685200073178563518e-01
1.184122034194445561e-01
-8.233198599159176345e-02
1.159305881855270670e-01
9.466771927219168326e-02
2.983026655405925376e-01
-7.740175164085044690e-02
1.156405137304967051e-01
-1.418556027827269916e-01
-1.061105676046702195e-01
-3.545946058210865809e-02
-8.465150394899051411e-02
6.445357527013328980e-02
1.154614356670460723e-01
2.898231447734356606e-02
8.264729371474222042e-02
-2.726129833875090384e-03
-7.400047026370469572e-02
1.267675386651212766e-01
2.627945172572245316e-02
-1.839597765146285631e-03
-2.508031935113725908e-01
1.854004660155632034e-01
-2.054417919055568920e-01
-6.096770909379645165e-02
2.646670145741872315e-01
-5.373026434344491814e-02
-2.214306273810548453e-01
-1.750251934556053615e-02
-6.201177305884939539e-01
-1.010037828912782182e-01
-1.958717705395273123e-01
-6.406287234876760495e-02
-3.414447988294124956e-04
-9.708297901008476616e-02
-1.364251552101640175e-01
-7.397631368373150385e-02
9.913534432733848989e-02
2.312427795054859958e-01
1.802571414708238340e-01
-1.855888480978346716e-02
-2.574374029491439120e-01
4.303813662591950140e-02
-1.852668830438448377e-01
-3.309189970489321859e-03
-2.254363089370393369e-01
4.053117960812267773e-02
-8.671529185139954798e-02
-3.301891772125081087e-02
-1.118212285400668471e-01
8.346742944386006946e-02
2.028677660550911033e-01
-2.262119997067888466e-01
-2.353991792820607221e-01
-1.509743396496810719e-01
1.229827019935303689e-01
-2.315612688850298695e-01
-1.196178893950824718e-01
1.812680760438453026e-02
-2.552768901524100076e-01
2.456771753377513801e-01
1.936692880274141493e-01
-1.069926010801737631e-01
1.915755696956192994e-02
3.346445725797339010e-01
-1.555193008417930789e-01
-1.364474432191975783e-01
2.081236701546963219e-01
3.633417488081953084e-01
-2.329016649231163416e-01
7.423586186046048085e-02
-7.228062884100384944e-02
-3.846608667212868260e-02
-2.412049027632072740e-01
-1.278262254138348430e-01
-6.076594455287952917e-02
-1.995485766964587293e-01
2.323021419371338048e-01
-5.863157645242532412e-02
9.520711393350997365e-02
-7.561269220906213784e-02
2.043788512278627845e-01
2.551959618867782331e-01
1.814013729216966408e-02
-1.445387801205425260e-01
-4.725741488317664746e-02
1.042247200369734658e-02
1.972866648015697000e-01
2.332423714835750797e-02
1.530353495286847498e-01
-1.017221374377740156e-01
-3.649326242033578693e-01
5.429396402803943894e-02
-2.952285946908042580e-01
1.675953297248264917e-01
-2.249648337638230147e-02
5.060538026770924208e-02
-3.857957163722161662e-03
3.714238296724357569e-01
6.276612075283487246e-02
4.590752034160184430e-02
1.495450565711762270e-01
1.427090171806692266e-02
-1.396518096204449055e-01
6.202878162676786489e-02
-3.319965373580593404e-01
-9.377189074693960402e-02
1.491733951335829089e-01
1.371406073919150814e-01
2.144774173500499093e-01
-1.402387373906509860e-01
6.056689501837647475e-03
6.297004775014383715e-02
3.076751294938737114e-01
2.147261162947038393e-01
-1.083218152898601655e-01
-9.255136308970854375e-02
-8.003836672802050467e-02
-8.098684732479820292e-02
-2.005245118765130313e-02
5.396043378890786474e-02
-1.586492494216387161e-01
-1.341789727031774959e-01
1.686536637445713305e-01
1.500986129740986275e-01
-1.668627038681441965e-01
-2.895341927024074752e-03
1.470679331058113437e-01
5.688164944635970034e-03
1.654795716604153810e-01
6.659037514384071044e-02
9.375120986105403564e-02
-1.203678532956839603e-01
-3.028859229745309301e-01
6.846772294338324127e-02
3.218766091881086755e-02
1.711399853697558038e-01
-1.289093022249692411e-01
7.275459304623885237e-02
-1.757426248770345978e-01
5.481911385464465630e-02
-4.913721554043033735e-02
-3.536061305029057356e-01
-1.172056219726346354e-01
3.077422261205871035e-01
-9.200005342103927120e-02
2.348676319316930772e-02
-1.249917613967037738e-01
4.489022285338867962e-02
4.995596737324205922e-02
-2.269503021817071992e-03
1.635914228819059513e-01
-2.869003080231682379e-01
-1.926683779344740347e-02
3.155442425704584886e-01
3.851335232147422294e-02
-5.252285966316378590e-02
5.309623981505833673e-02
7.128547189453424138e-02
-9.782401662834614917e-03
8.506062064811509282e-02
-9.442523935549092251e-02
-1.763297795778504262e-01
-2.483421208515075029e-01
-7.975225924888247608e-02
-2.129969172346447004e-01
-1.915222284913965789e-02
5.706624390739038072e-02
-2.735612965810303443e-01
4.233821953256690640e-01
2.614863591489868799e-01
-2.809455029600008147e-02
3.105617393148910055e-01
-1.701287416172467815e-01
-1.662778557938414947e-01
6.637051230378909240e-03
-2.155937106038420814e-01
-6.864675484632536129e-02
1.912321319800611430e-01
-5.656468172342509620e-03
-9.598247149944114098e-02
8.714153542534221197e-02
-1.901023403491783059e-01
4.261908225132351319e-02
-6.728462313353843205e-02
6.675928173684295142e-02
-8.745168759681706816e-02
2.488494333297167072e-01
3.742165692076149242e-02
9.165231580989562088e-02
-1.248474932334009274e-01
5.913664309889760454e-03
-7.542536985083762857e-02
3.295907751550627984e-02
3.164769387428563729e-01
2.134806323674134920e-01
-1.795361502710286494e-01
-1.480667095628609431e-01
-1.769992838691648307e-01
-2.416122721724038580e-02
-4.447171155913647866e-01
-1.290672770080451559e-01
-2.790756610514297242e-01
2.910759976070441055e-02
-2.818920845342558559e-02
2.948217619203823137e-02
-2.914690832765525763e-01
1.044117146677427804e-02
3.770545879439773321e-03
-1.466473308962498723e-01
-1.401465056694915778e-01
6.523495688387245806e-02
1.334164130668699100e-01
-6.818419684076121312e-02
-5.286685087215428624e-02
5.699263568504386868e-02
-1.849718533238025042e-01
1.321059088538149018e-01
6.223913346864356350e-02
-2.691781388385725005e-01
3.307359550532277814e-01
8.141649429317464326e-02
-1.802471012027759278e-01
2.184175942516056873e-02
2.716425441805260244e-01
-2.785958224426343666e-01
1.051186851499658487e-01
2.144111038505142341e-01
3.481975733867322814e-02
1.593635121106536934e-01
-1.133314996433497229e-01
-9.173962151332523685e-02
6.494014641105654018e-02
-4.486392177604808795e-02
2.855528805869612108e-01
-1.364413213444810036e-01
-4.420678421400886515e-02
1.429272637493503133e-02
-2.462099062984408337e-01
1.177964289821000488e-01
-3.450330065786643696e-01
1.928974140018767380e-02
-1.638716890016389816e-01
-2.157636963762090965e-01
-6.158323000126110502e-02
1.106526758998766652e-01
-2.376492561938360892e-01
-1.353695595462330314e-01
3.023797629829540479e-01
-2.205615461625124729e-01
-1.751811619157555011e-01
1.095199261807322383e-01
-2.367125136189892898e-01
3.148620963419193619e-01
-1.830307589247592110e-03
4.240094390025182791e-02
-3.051465908505339164e-01
-6.199122690138645503e-02
-1.303868068700129168e-01
-1.001687816394724040e-01
-6.407663806503485597e-03
1.679904682575013020e-01
1.735482527718348322e-01
6.662618674182879674e-02
7.235219732261692627e-02
6.291844880702394949e-02
-6.230705087503327771e-02
7.969147389288519512e-02
5.952194327008369229e-02
2.151680636806642052e-02
-3.889433323417446076e-02
-1.598257262132160850e-01
-9.505143725172206237e-02
-5.416355700340145379e-02
1.870130854558429978e-02
-8.968425914256857034e-02
-1.366592124250398943e-01
-9.420423363430373287e-02
4.474204827210367386e-01
1.763046723899706555e-02
4.110520005604444832e-02
-1.594401598660513397e-01
1.396976067600878835e-01
-1.971354511214368221e-02
1.055755726684215051e-01
8.665429286895365638e-03
4.518184635755757156e-02
1.427160502530497310e-01
2.437196992912086038e-02
-1.117596753990391101e-01
4.763786351865215152e-02
1.802899894865195585e-01
2.222658502093072252e-01
-7.524792378783280722e-02
-4.045787770745516709e-02
2.850280557820437100e-01
-2.541165098108125187e-02
1.390619931197610015e-01
-1.350108806087710611e-01
-8.606601809547596849e-02
-7.681891581356625753e-02
1.293171345378686015e-03
-1.425101122263305320e-01
-2.791883580788104835e-01
6.202609121614147125e-02
6.765996931801571135e-02
-2.634115621898145410e-01
2.727430039317272348e-01
-1.944315105572650137e-01
2.473662320733793496e-01
3.468624443149722625e-01
-7.498902897770378870e-03
-2.432300916914882927e-01
-7.448630647464291044e-02
1.083623960248798410e-02
5.550687569385912706e-02
1.713142811707451807e-01
1.883278154237811031e-01
1.955034191136852673e-01
9.964509038077846992e-02
1.602704695025717122e-02
-1.004602804483174378e-01
-3.253868126012144507e-02
2.599952035995193311e-01
-1.180845262054385503e-01
1.992049360504439537e-01
-7.202090890253165512e-02
3.270464064153517231e-02
-2.571109852329375167e-01
-1.626742251105262327e-01
1.242432731929150047e-01
-1.931389864782911414e-01
-1.647959522731345383e-01
6.622380162995310585e-03
-3.516632520220339814e-02
1.590728543503459047e-01
2.384888868653520511e-01
-5.396066670234236744e-03
-9.991523074884590960e-02
-1.819914147708641128e-01
3.723234578107054160e-02
4.668413084822543024e-01
-2.131250750299169272e-01
4.979859416097027341e-02
-1.903215816924827553e-01
-1.295082251196787715e-01
-1.531332073179247355e-01
2.314229635368133808e-01
1.469069230574397700e-01
2.938484562466406325e-01
1.350098684397093851e-01
-5.890771994320699312e-01
1.089170961733820220e-01
1.706615097584696095e-01
3.735539764263636625e-02
-1.063045654270455415e-01
-5.342914609111296814e-02
1.060430813346940199e-01
-1.891179090198090440e-01
1.414904248169008005e-01
-1.055924419941886849e-01
-1.045293236712003804e-01
4.024379793011901296e-01
3.334923854844107360e-01
-1.379727820037197072e-01
1.695664287192168718e-01
-1.269555951408498917e-01
-2.674962960340128704e-01
-1.779333894240980873e-01
3.086764750175650593e-02
-1.958511459922558373e-01
3.105811531307001161e-01
-2.539411576581724131e-02
-1.102998039511712824e-01
-5.788066209402347589e-03
3.532539196685462457e-01
-4.162895550102901389e-03
-2.755688985774290556e-01
-1.130374078920450692e-01
-8.462237715590552323e-02
1.219728290906960111e-01
1.109242961182543424e-01
-1.255590932631848178e-01
-1.104711465256757869e-01
2.718873048368951051e-01
5.238385391121346268e-01
-1.857382560134383520e-01
3.836678847837211859e-02
2.636086811837785523e-02
2.555187340806208129e-01
2.144357053304645766e-01
-1.724189850399037924e-02
9.831683284492322150e-02
5.071455166196354725e-01
-2.205818664083266517e-02
1.752643846151597240e-01
1.726677989963393001e-01
-1.954541612317658994e-01
-1.625777724055266493e-01
5.405426699919357869e-01
-1.952718617709923998e-01
-1.378388251804159581e-01
-1.551895768069242176e-01
-3.270833275404864127e-01
9.991117404799652879e-02
1.660197065422336082e-01
-7.546220173374357243e-02
-1.571766219623810246e-01
2.179652651690010545e-01
3.896778555060925048e-02
-1.889193834066947297e-01
-3.611679894845426508e-01
-3.886754470545286666e-02
7.195079653155876664e-02
2.601352818197893435e-01
-5.207685488932561890e-01
3.442080715769646471e-02
-1.073948573794499817e-01
9.788684166923453112e-02
-5.772461269999243361e-02
7.982712670653248355e-02
-9.799982567372517162e-02
-1.563507434342564784e-01
9.812026436249261796e-02
-1.703445890655492512e-01
3.783825810754716246e-01
-1.398544001020224706e-02
4.154481956286305844e-02
-2.291503478557393725e-01
8.692605229665807676e-02
-3.559605347534235131e-02
-5.925009252254197223e-02
-2.076640372667517276e-01
1.178615571677084639e-01
-2.399331869085324920e-01
3.076936137902330226e-01
2.590484241308748103e-01
-5.381400095233699991e-03
-1.598401509207720284e-01
-1.533505615594151217e-01
4.298012745069063750e-02
1.831647834902567218e-01
-8.541187667943425654e-02
-3.560836274536142709e-01
-2.058717547046518270e-01
2.922533332650115515e-02
-4.172613250727522094e-01
2.635386383581633241e-01
2.061531737942894627e-01
-4.982458112358271740e-01
4.244589745634595457e-01
2.164781228624345147e-02
1.574572651222841957e-01
3.133005819145057158e-01
-1.329186954808004861e-01
3.914971413705857217e-01
-1.120660974157572376e-01
8.542824526792451578e-02
9.643890905862130547e-03
-1.415015924166764250e-01
2.565378040007786908e-01
2.572680837402691045e-01
-5.433485220138720706e-01
4.491501268517838485e-01
7.367318311709043777e-02
1.560513242439717230e-01
8.241445724562057595e-02
3.419381338256191616e-01
-4.464945959670917341e-01
-2.196369510297518091e-01
3.413962063398643942e-01
-9.105622273821891224e-03
-7.312415834658508862e-02
-2.498050803554445198e-01
3.043924570794558360e-01
2.924808849483192530e-01
-2.101074856185929929e-01
5.332365917068054850e-01
1.955533000238872943e-01
-2.426866821630383267e-02
-1.970270994266288545e-01
-9.583190359808992087e-02
3.181142468125307543e-01
-3.701674433589204338e-01
2.651795719580421137e-02
-3.013029141753877926e-01
-2.945552181806726511e-01
-2.702119230202768702e-02
7.958076608234049276e-02
-2.727293340461142343e-02
-2.706463551091413122e-01
-2.299221052975449209e-01
-4.565094299604646189e-01
2.267472484052409643e-01
1.986758463037146261e-01
3.317603646285179064e-02
-4.580096380854216664e-01
3.207399807734895303e-02
2.556631137271798693e-01
1.038108375225679919e-01
1.202447970217228046e-01
2.711860047271005825e-01
-2.749723766466279778e-02
1.796706514987713443e-01
1.039485428869206946e-01
-6.037356521885013302e-03
4.002479802928386454e-01
3.182587812087712131e-01
-1.543883316668479277e-01
-1.984162459810966117e-02
-1.497706754662785633e-01
1.290416013972409300e-02
8.978483687893617712e-03
-3.167399483842794350e-01
3.134319717610787870e-01
2.314445105246228374e-01
9.019761194771987178e-02
-2.333950138662940765e-01
-3.442891344098387985e-02
-4.720345969309707734e-01
2.377105661868464670e-01
1.490914838737357195e-01
1.371718936785389920e-01
8.874744098804188130e-02
7.593000513697643894e-02
2.460028042961430461e-02
-2.694458347383701380e-01
2.558000552815033468e-01
-4.654961231795338994e-02
1.242518470711074380e-01
2.692746477332302879e-01
3.577568260628125052e-01
-2.334526029296113414e-01
-5.105354927797293302e-02
1.795479169644310924e-01
2.145307895639660123e-01
-2.114138448925993174e-01
-2.566369142971323680e-01
2.949010845237148848e-01
1.047073300169120563e-02
2.313600347247924405e-01
8.584595198886310619e-03
-1.115409170270594136e-01
2.709781924888889360e-01
1.296719106964136850e-02
2.834081642453967209e-01
-2.163010771171605673e-01
-1.419295997577799950e-01
-3.611087258136051470e-01
-7.574201117976951669e-02
-2.070842900202451292e-02
-6.654045246298799510e-02
1.575983319403195804e-02
-3.685596211355691154e-01
-4.934553199750494334e-01
5.660593574226593233e-02
4.561926116158938616e-01
-1.203678673389562206e-02
-5.429862416867264896e-02
-4.352569158758518020e-01
4.867567361955603411e-02
2.643586509199852830e-01
-9.394767722033257884e-02
-1.395313949635944850e-01
1.082147115544412341e-01
-3.390882403410664936e-01
4.592564260438390666e-02
-2.292107717701225289e-01
3.295297562550461024e-01
6.051254351197420112e-02
-6.342150162862396356e-02
3.331956690456620018e-01
9.393395697635661956e-02
1.266443157403600028e-01
-2.399364483401389136e-01
-2.613234465542193519e-01
1.374725448281416962e-01
-2.163886891022191450e-01
2.066291142352147947e-01
-1.274980073886428089e-01
-9.900054697820846739e-02
-5.251726851347481018e-02
1.444330549786373465e-02
-2.361529582887418877e-01
1.002595637054153749e-01
-7.321865729249416033e-02
-1.789627005945301219e-01
-6.642906774931632563e-02
5.201352037613947432e-02
2.982759851323593114e-01
-1.135801394813480275e-01
1.170181142431801768e-02
-1.669788148755536050e-01
1.913727706660612454e-02
2.381523157703745730e-01
-1.317445074570098851e-01
4.509448554434574707e-01
2.562377897657167614e-01
-9.635678161214686344e-02
1.645497327310413704e-01
-2.207203237980905619e-01
-1.746545647885909269e-01
-1.384770680820289201e-01
-1.305976530686144277e-01
-2.995509391552829137e-01
-2.923418879877612633e-02
1.508291738112554348e-01
1.516582802071421432e-01
-5.283581169680018341e-02
-3.073668074092951730e-01
1.292153136103556255e-01
3.547187296490696973e-01
2.105302711740879296e-01
1.038472647474450866e-01
-1.628613210991753935e-01
-9.907519020373103946e-02
6.779742277345127133e-02
7.589572905597387342e-02
-5.415359116291363489e-02
3.315331256353182821e-01
-2.513494532796687886e-01
1.870868796478634688e-01
1.540996277326021624e-01
4.435021139408017177e-02
-5.244938434686492734e-02
2.488186309063283586e-01
-2.735422863013962091e-01
-3.112073394933935824e-02
2.865942447087768130e-01
-7.746765423317482357e-02
1.415547236883684390e-01
-9.889716995465508420e-03
-4.838074491187706327e-02
-2.646128606727068955e-01
-3.293810851695159192e-01
3.209840977904841741e-02
1.320855305814656877e-01
1.101597372224868455e-02
3.487174472349693910e-01
-3.270208532450720740e-01
1.003038183684788476e-01
-2.813784430643198609e-01
1.168258134621986827e-01
1.775440330851711657e-01
1.112291736173146861e-01
-1.604231775966300233e-01
-1.739784431009216703e-01
2.843422312821752840e-01
1.940386205021954469e-01
-8.716944367952531025e-02
1.700190221079384834e-01
8.801662613766496335e-02
7.159834339147444493e-02
4.544097209696991158e-01
9.098914258165553826e-02
-3.276241088585414574e-02
-8.733162553860183974e-02
-2.695856064644611139e-01
3.169944484114521899e-01
1.370166320349145428e-01
-1.478935950467473838e-03
-6.902548693725019113e-02
1.608889575755670653e-01
2.712304177107520073e-03
-2.078635677323170672e-01
1.572614430409674177e-02
2.070658568386696263e-01
-4.234263676263393811e-02
-1.849938016835186716e-01
-2.508853252552187274e-01
2.205601187502451155e-01
-1.979397850242030632e-01
2.512240368326095763e-01
2.641156928574661111e-01
4.219026442245937120e-02
-1.537336577695103679e-01
-2.189887563610797838e-01
-1.461819523001578747e-01
-5.135477167940331183e-02
7.163099059416760950e-02
-2.058889825103780991e-01
2.052839689562612271e-02
-3.381623422970195941e-02
2.602678190003127057e-01
2.404847747499947730e-01
-5.108676840451939483e-02
-1.667566456109808581e-01
-1.946889980809610177e-02
-5.229283731469656915e-02
-1.038482828998157081e-01
3.067564058731395149e-01
-2.756483587917584951e-03
1.429732845345383502e-02
1.361642254299761656e-01
-1.309690348119642023e-01
-2.572698113016268495e-01
4.926994755180399282e-02
1.143764550775471373e-01
1.099246052856730216e-01
-1.781040039848480749e-01
-7.591694345172239622e-02
-4.053943565882408423e-02
-3.937220097024034526e-01
4.958776998368070316e-02
-2.475385251953405447e-02
-9.905545134457677172e-04
-4.918102021107892963e-01
-3.997075298183498382e-01
9.198016249152531076e-02
-1.554305483464502122e-03
-5.809726694080273590e-03
-1.793693336906327651e-01
-1.145119152884313124e-01
-9.343592771597467039e-02
-2.144785032115358037e-02
-8.885019507064011168e-02
-1.003663725991364719e-02
1.094588561202529398e-02
-1.568610699591343680e-02
-1.351046039819245315e-01
3.709506376874501798e-01
6.025475487622732745e-02
1.145507250772274249e-01
-5.129432002395130363e-02
-3.928737108892883800e-02
-5.460940587593100803e-02
9.889723809809526298e-03
2.054951771042241304e-01
2.938992059465987960e-01
2.376354734842492655e-01
3.302758123057820683e-01
-3.895603157711953479e-02
1.742850436105881917e-01
-2.007447755718897928e-02
3.471039274746101078e-01
-3.475920956506999282e-01
2.756706243027003400e-01
-2.987537344416610896e-01
-1.826317744455396852e-01
-2.491693543686233359e-01
-2.992292889141222045e-01
-2.974083791903732177e-01
9.181107107689379099e-02
5.419313036268200851e-02
1.285235323269612873e-01
1.155398075739378916e-01
4.877868217651452204e-02
-7.711469808642956725e-02
5.154037860502562740e-01
-4.483705469869778137e-01
-3.085214083786727013e-01
-6.049083332554819337e-02
2.587774346499244205e-01
8.592850915743622392e-03
7.019094600057708411e-02
5.013949065599279664e-02
-3.463613978440616692e-01
1.613072136989563421e-01
4.145141364580005594e-01
-1.040241640629419317e-01
1.236254559409753415e-02
-1.648822871068647642e-03
1.216043523924758285e-01
-1.417121447655754485e-01
-5.311655390815104433e-03
-5.108942910828122297e-02
1.270940506631214606e-01
-2.559558337097262923e-02
6.787703496916555057e-01
4.388096503575733380e-03
-2.812135781400140200e-01
1.370520899106181800e-01
3.986424860123223834e-01
-2.519519954553480767e-01
-2.103996846953577193e-01
-6.268938944758588316e-02
-5.068235938473745344e-02
-7.398326594808542211e-02
-4.873419316478567326e-02
4.287875393829566617e-01
8.793119451054877411e-02
1.136461510617183396e-01
1.978538360148259512e-01
7.704163566448922473e-02
-9.531517159630986669e-02
6.635000461946619077e-02
-8.269260096312780473e-02
-1.683116513282897561e-02
-7.483935461399807143e-02
-7.962554381567620021e-02
-5.823431905623198401e-02
1.818325286925547846e-01
-2.644683428807114572e-02
2.543748965079767332e-01
-1.507136151871583118e-01
9.825815575912386080e-02
-9.688159050264270877e-02
1.289742555351218178e-01
-2.589344212191911909e-01
-1.073641958133402657e-01
1.769530737086363187e-02
2.314012399423902300e-01
1.696735474856415904e-02
7.409729530892132654e-02
-2.439924855260822839e-02
-9.900284710546075617e-02
-1.151272906221762482e-01
-8.755579421552249497e-02
-2.061133537133222060e-01
-3.059392978859181919e-02
-7.871866888065705324e-04
-1.396913152497088716e-02
1.508759267627788891e-01
-1.807992270414845726e-01
1.175297504298355583e-01
6.847672628134608697e-02
3.586080142092359924e-02
5.188141926993731189e-03
3.051664848017680565e-01
5.475327311558524090e-03
-2.318138194227208904e-01
-2.758222718690649805e-03
1.316810382072171604e-01
-2.780240011664892458e-02
-6.384175466468308691e-02
1.294168206935268350e-01
-2.236153818924450087e-01
1.404008125360158010e-01
-4.246659931113477837e-02
-1.104132331140383200e-01
-2.236750483664852185e-01
-2.797613458726555535e-01
3.410167814313345147e-01
-6.916467829156190683e-02
1.958035299624562575e-01
-1.761360774160416684e-02
-1.270339666628312880e-01
-1.091328572961880183e-01
-4.860852885581876809e-02
3.689314201704645829e-02
-2.306714784956811481e-01
2.944745602404109652e-01
-1.748022658288546916e-01
2.682067210223137987e-01
2.874308981929953877e-01
-6.210099967195453069e-02
2.660904839054683557e-01
2.164499403037335040e-02
1.240280843746480177e-01
1.831918361168172749e-01
1.296306609079807548e-01
1.001951272951855654e-01
2.318553842618039373e-01
-1.792988448870987128e-01
-1.431714037890292612e-01
-2.061068085707832009e-01
-1.481637380204898768e-01
1.770102985762551928e-01
-3.275116489851187529e-02
-7.484601527013393096e-02
-4.496033897241080157e-01
-9.548608131126874732e-02
2.317347620986552892e-01
-1.496485767404480936e-02
1.233528902219679924e-01
-7.946181055018509964e-02
5.111140850245381867e-02
5.877618010127563797e-02
1.557961782985921584e-01
-2.895960269489381705e-02
8.849908970395096997e-02
-5.929439760097260370e-02
3.378676481672297782e-02
3.371764897137973782e-01
6.332481404724343843e-02
-1.165085376018227675e-01
-1.841263792011433309e-01
5.385331161786503090e-02
2.429048784061552946e-01
-3.452633815825480179e-02
3.002921734891893513e-01
3.282141627396575889e-01
1.906163041921621615e-01
1.286680927449280198e-01
-2.130788267628211385e-01
2.034776257693342652e-02
-2.427686742063176195e-01
-2.313698054426093220e-01
-3.341696938487233592e-01
1.352621159861202571e-01
-5.180001441349524338e-02
2.411998601491197394e-02
1.966863848801507497e-01
1.567861115150932516e-01
2.208008168090169476e-01
1.855112373649719926e-01
1.931854949685622436e-01
2.926052476244586295e-02
-6.628295682733301164e-02
-3.543584602484192714e-02
-9.354663676499927472e-02
-1.000607050765891792e-01
7.642860866402836906e-02
-1.182774707525092034e-01
-3.890720693411940656e-02
5.589212793303891674e-02
5.279137257872714567e-02
9.956079393296081437e-02
1.736873908181552351e-01
-3.370402022158007493e-02
-5.340852114144573060e-02
-8.651030318007249531e-03
-1.003799457507740384e-02
2.231266455389346870e-03
8.133909922586264607e-02
-2.529007286730460269e-01
-9.510609228737652854e-02
-6.298888667719062216e-03
1.022684615695949595e-01
3.542137591279766462e-01
-2.353920854919723804e-01
-2.522273303633454367e-01
1.602415592143303369e-01
7.864405360296869429e-02
9.739055256742688849e-02
9.909270049279363113e-02
-3.738587177860041022e-01
-4.899912454873419504e-02
2.120850969652729179e-01
7.785557066841035379e-02
-4.210752782803280359e-01
-3.376976353099340744e-01
-1.062622572639935342e-02
3.549136909577719767e-01
-4.911363167083067638e-01
-2.343091459158309076e-01
-3.598833099672167357e-01
4.771381938222321595e-01
2.987848429299880815e-01
1.688371390167556219e-02
-1.506008715481038651e-01
-1.127476731117523084e-01
3.532429133300188928e-01
-1.649395778763670592e-02
-2.331200556179770234e-01
-4.366450098618555598e-01
1.474227226083682785e-01
1.226170884599810523e-01
-1.118231054910219235e-01
8.545591602003367246e-03
5.679872571460185815e-02
-5.740423683615716310e-01
-1.928682863175595896e-02
-1.488536319840564892e-01
-2.174592960755584725e-01
-2.884674061182515015e-01
1.459369772383881381e-01
5.687572052320659377e-02
2.492825246738197276e-01
8.445018650647242997e-02
3.691803932062569238e-02
3.547145754372868498e-01
2.158520297984669323e-01
8.422865665558974813e-02
-5.772566450180948161e-01
-1.783126826583312508e-01
1.181263190005023972e-01
-1.860953414071855050e-01
1.379840996852063906e-01
1.525085173022714680e-01
2.374777647833460625e-01
1.879079694784652477e-01
-3.534264537275800810e-01
-9.138242067792964884e-02
-1.487098566122130490e-02
1.812243040385032658e-02
2.358608920417045451e-01
7.249624390272760288e-02
-2.294376667416317406e-01
-3.657912439024185725e-02
-1.825793762178407609e-01
-3.500902109404818718e-01
-1.473172120195352375e-01
-1.884185081014469187e-01
1.426789347225696780e-01
-6.034833424869512353e-01
-2.920864308599392389e-01
-2.192332643956414473e-01
-2.108148742284338961e-01
-9.520634705788617869e-02
-1.242726638777301856e-01
1.644521475458495530e-01
-4.932721085788566856e-02
-3.022261508354047721e-01
1.030993444706709838e-02
2.521940682027096758e-01
-1.382604196132393437e-01
5.844250152974564405e-02
-1.384474279112025454e-02
-1.801997036873710101e-01
-3.949002940868434619e-02
-3.353480546004973528e-02
5.851134612001229751e-02
9.072858278389499265e-02
2.965608436593210606e-01
-2.188859025864394459e-01
1.053419686769742000e-02
2.834155472924154706e-02
3.235282519896564568e-01
4.109250969831984013e-01
-1.358511771871409590e-01
-3.486768122964471472e-01
-3.522774063870355299e-01
-4.811368249791384000e-01
7.760317381155890093e-01
-2.316883191301777334e-01
7.103922468370627019e-02
-2.180476161768919452e-01
-6.696851468072182456e-01
8.694357423497917070e-02
1.522718129328622660e-01
2.165980320667485470e-01
1.547460561660914669e-01
3.640990673436330094e-01
2.019486530793405954e-01
1.013948330002277382e-01
-3.121455081509980634e-01
-1.787033672899884518e-01
1.590871352887358869e-01
1.541944190990779950e-01
-3.902618789990593973e-01
2.971743217458018282e-01
3.241968949866791960e-01
2.700260141931443703e-01
4.748932456434130228e-02
-2.616590439735370643e-01
1.231224159950038560e-01
-3.534415900558313672e-01
-1.682577210663442902e-01
9.928780265228510926e-02
-6.137742129017376147e-02
6.592363170825331353e-02
-8.268769933018832452e-02
1.950461327854727533e-01
-4.416613862862567297e-02
7.317879143882592696e-02
-2.123337793495157777e-01
2.702976517893458941e-01
2.551202905903480755e-01
-3.498274999496254201e-01
-5.527164469933978225e-02
4.674633412448577115e-03
1.447133570181969031e-01
1.414019055714277051e-01
3.816846072821951374e-02
5.171943622141487659e-03
5.470495324316385632e-01
1.849942309355868120e-01
-1.560374723362407956e-01
-3.078735718257655796e-01
-7.361367293171559856e-02
-1.680259995920984628e-01
-3.127470450477165542e-01
1.623809789243406965e-01
2.110236343022910688e-01
7.521833760288354313e-03
-9.023570463635390004e-02
-1.440969865419265972e-01
-1.634945033337401044e-01
-2.216576348463517310e-01
-1.621939188355058514e-01
-9.136644441386304605e-02
-3.237414062148880750e-02
6.040539934991151494e-02
9.183212015390813249e-03
-1.732639655009180768e-01
9.779463927953918959e-03
-4.513076526464810945e-01
-7.611073612926338994e-02
-5.227638631407417746e-02
1.434514617911645251e-01
-5.361924813982965610e-02
-3.063446154451096581e-01
1.423667270086928505e-01
-1.247474234779309549e-01
5.341450077390423878e-01
4.479041589691666880e-01
-1.619273071645857820e-01
6.062842836981685579e-01
1.065159630861625337e-02
-3.944389355828408772e-01
6.810836845110835869e-01
2.612862742446031006e-01
-1.096299853121183027e-01
-4.872314417068314418e-02
1.397628445860132906e-01
4.423128945916297017e-01
-2.695282466731231952e-01
9.472194526680199900e-02
4.492947501023770995e-02
-2.540176449332461062e-02
7.818243932195315105e-02
-4.144979283221598698e-01
4.804832018360146589e-02
2.093700875629183611e-01
-6.195635101214040652e-02
-4.194519801521062741e-01
-2.404738844228269390e-01
7.574118407752644666e-02
-2.707982416473497800e-01
5.009787275074700091e-02
-2.168979798938279469e-01
-8.906416470046853162e-02
2.469432909080356287e-01
6.037954933075794645e-02
-3.459130980804514532e-01
1.730305780717479869e-01
-8.592426456132816470e-02
9.625963620884230021e-02
-2.468599559052340152e-03
8.621921326815047693e-02
-2.089546359389732322e-01
-2.277268727373085375e-02
-3.165654157913468797e-02
1.998952376085934290e-01
-9.814868273808605159e-03
7.815158890100840083e-02
-7.447686419013785711e-03
5.723829127247855725e-02
-1.740013417207549595e-01
-5.085300186668054723e-01
-3.150738265351523126e-01
7.901653707724558273e-02
8.033006295887233639e-02
-8.672887647183000204e-02
-7.878842998273018206e-02
2.730061968325864230e-02
-4.554314056046947917e-02
-3.162774520750461504e-01
-3.298871882954507867e-02
