9.160940341698413647e-01
1.834743003357213464e-01
-3.873424378284679448e-01
1.063359413304309532e-02
2.389515325461397943e-01
2.504736047677349475e-01
3.859518132678780300e-01
-1.805793271074261977e-02
2.123246924973059280e-01
7.962047437401151284e-02
7.913118551093931696e-01
-2.499418771543484297e-01
-2.256200483236420473e-01
4.469281403926900209e-01
-1.401607162253241390e-01
3.098524741556027973e-01
-3.235126585075958627e-01
-1.857975927246069969e-01
-7.757562513271919202e-02
2.248321794538877816e-01
1.265206602016994530e+00
4.067553804286554858e-02
-2.465763247282206361e-01
-2.085656191805783932e-01
2.575392902137184636e-01
6.973219405797810300e-01
-4.818465083374660202e-02
6.268577026758861415e-01
3.777333484216064963e-01
1.049665183548219582e-01
1.058996311350189345e-01
4.824070952647851462e-01
-6.112087629283207146e-01
-8.648326881276614531e-01
2.015092568129746020e-01
-1.655784028151766896e-01
-7.717841001829091330e-02
6.777764843891939117e-01
-3.561309363593206379e-01
-2.133677582353211422e-01
-1.791023008736803979e-01
-2.334260922049193835e-03
-9.607818757995711945e-02
-2.139472068983046260e-01
1.061461465879199595e-01
4.866759211397927998e-02
-8.599832497939424725e-02
1.402929176190077509e-01
-1.137049717946136407e-01
1.092643304327610004e-01
-2.319821394685581961e-01
1.950822425021338513e-01
9.573518406987478746e-02
-4.179010231889243032e-01
-1.998611385756101366e-01
1.828797290375515014e-02
9.014988327045765290e-03
4.498675026676798305e-01
1.748476345256931921e-02
1.907267502185592822e-01
3.652521467276884093e-01
-6.072452574153291982e-01
8.168782874537430239e-01
-5.823184438158128529e-02
-1.637372098677386534e-01
3.275344764786993768e-01
1.329033705653644981e-01
1.683115943127490577e-01
-2.218781837591005945e-01
6.441695746514620735e-01
1.874503210575071688e-01
2.589631318934269497e-02
8.056683384620862143e-02
4.097902032257182137e-02
-4.522720726917323630e-01
-3.692220985474621853e-01
-1.068656530032199153e-01
1.070911634467390343e-02
-3.924785415705224767e-01
5.923740835659532800e-02
-1.000981456511843420e-01
-2.054017499230055555e-02
-4.091399834351300974e-02
9.062434358304670423e-02
1.899183622439492569e-01
-1.068768225300378710e-01
1.793319388161430106e-01
1.500088355857806255e-01
1.023542442975452181e-02
-1.599970636192697970e-01
9.210892032501227789e-02
1.192308372408372730e-01
2.739339905496999267e-02
6.388745214917109644e-03
-2.313890794803546702e-01
-2.940184921886913050e-01
-3.018084449472278538e-02
1.393031201314689216e-01
-1.226016353013345828e-01
1.376088577277901626e-01
1.436516271621517682e-01
-3.207621490749437698e-01
-1.792921528408049914e-01
4.738772286172135417e-02
8.978381797867078518e-02
2.494019774960107017e-01
2.341398706198737079e-01
7.567422953114756601e-02
3.513138484786842985e-01
-6.681461183337493708e-04
-3.731695321488683326e-01
6.582380332890465369e-02
1.263315080194324092e-01
-3.216162610326309124e-01
3.122359442977359345e-01
-1.050386939449960144e-01
-5.926340617783499437e-02
1.976736242098093010e-01
-6.420461898419745420e-03
-2.989396608633421160e-01
5.056846615198331563e-01
-1.193657175395259062e-01
-4.527637439498081312e-02
-1.406503661102140035e-01
2.701260237019746380e-01
8.905524274865159184e-02
3.295175258019268361e-01
-7.914959195257288693e-02
-5.714628779330616082e-02
6.364836556875597129e-02
2.964489138055246831e-01
3.811157428615662979e-01
2.876502341572899080e-01
4.075831829513758553e-01
4.716208960141735074e-02
9.275090165686100674e-02
1.448076206945822508e-01
2.922682254983499095e-01
-2.503065402320799326e-01
-2.747496078799661068e-01
-2.201446496753140247e-01
1.826216308909250630e-01
-6.074635796287317091e-02
-1.589602416155753810e-03
-1.097298297719898619e-01
-1.634650964061254777e-02
-1.944611750960741348e-01
-6.093520369879563275e-02
-2.115887413287224350e-01
-5.906281879645795818e-02
1.661197173737792576e-01
1.167352027076425380e-01
2.082236249408006556e-01
2.178452342874327707e-02
-8.253547262496313541e-02
-2.003619512564861205e-01
1.888715276429866474e-01
6.356431900328040063e-01
2.811602104075179298e-01
-9.335334634406024235e-02
9.087986823836610717e-02
4.363574140904517146e-02
3.484055506721722012e-02
-2.965741533179088174e-01
-1.152606170523056972e-01
2.839022912945199373e-01
-2.600006814747802264e-01
1.587565790560607204e-01
-9.986334840180272066e-02
2.804847874972613564e-01
-2.090921326584100140e-02
9.319633682399018279e-03
-3.664663319735587677e-01
5.386677596720845784e-02
-2.346510582046741622e-01
-2.009302018971841353e-01
3.807230230413902183e-02
6.737606874592658168e-02
4.584676511133232990e-02
2.707860556941303898e-01
1.836319222977932444e-02
1.062729908560152703e-01
1.747813033185993958e-01
-4.588318518923938799e-02
-1.633869525211155416e-01
2.157739599295424859e-01
-1.452279444002576025e-01
2.829775453589448708e-01
-3.315769388122426498e-01
-1.276084427198009297e-01
1.026109118346454907e-01
1.209554829958555122e-01
2.343665213446105566e-01
1.025848086948207005e-01
-1.601566033837203695e-01
-8.992786001155665676e-02
5.066688466401801927e-01
-1.427402263115557235e-01
1.046139698352123726e-01
-4.300378025900055551e-02
-2.861989283120756622e-01
9.957993519432029039e-02
1.272310995641423581e-01
-2.982625761218034820e-03
-7.139450987256715231e-02
4.526956871286775264e-01
-2.920072791137483526e-01
1.712222324360092029e-01
1.456423661985802864e-01
4.859761026143757934e-01
-4.239443406730467601e-01
1.571623886222902888e-01
-2.878222565054900928e-01
2.622304338218372707e-02
-1.149685705977260101e-02
-1.125303139373521749e-01
1.908222194655827264e-01
-1.316722656100717814e-01
1.172372152151467534e-01
1.238181192395310971e-02
2.932151075755137226e-01
-9.857732863305646021e-02
2.414729405026345421e-01
-1.189398145261992279e-01
2.877176093911600063e-02
2.166495241753642054e-01
-6.257724146672632992e-02
-2.044221200957564710e-02
9.504967293811357465e-02
-4.501115435076589316e-02
-6.638830077717515488e-02
3.619502456585935862e-02
-2.795159590642666281e-01
-1.839462531405712531e-02
9.927699832120311096e-02
-2.318678503831007043e-01
1.451871328251305993e-01
-3.377809385228341399e-01
2.284099670631076218e-01
9.492061296290868477e-02
1.285981385165170798e-01
1.293922551335997817e-01
8.909600565759856483e-02
2.676189234251609705e-01
1.004220785532388416e-01
-2.935884635639116058e-01
1.905651339515026244e-01
1.128861472424992213e-01
3.794447693589054205e-01
2.726873847963497965e-01
1.264957466212008053e-01
-3.483780657797689445e-02
-3.344243541883749060e-01
-1.380725647361768782e-01
2.187306167311874050e-01
2.727528682948093808e-01
1.004597118379499249e-01
1.179452642618788460e-01
7.703012640517492571e-02
-9.044832333230852506e-02
-3.396317498356490883e-01
-4.423053365452483399e-01
6.090197382403291781e-01
-7.869716326596061517e-02
3.078568299772858549e-02
3.285821012980996159e-01
1.805897395153654716e-01
4.300360416724590129e-01
-4.047744687339077108e-01
-4.388842512774805693e-02
1.585027396259441890e-01
1.884150418158793694e-01
3.596561176828420026e-01
-5.721382292309894202e-02
-2.345343579373569340e-02
-2.227489359405850633e-01
-2.066446621743144030e-01
-7.577258606253977485e-03
3.938193680477814623e-02
4.764370228019754183e-01
6.743386413546173519e-02
5.344765623755505235e-01
2.213574010881212972e-01
3.528750556464079757e-01
-1.017541510617302539e-02
-8.912195447054162278e-02
-9.989132666982653008e-02
-8.770139697425312353e-02
3.552951545928432764e-01
3.405920428404113354e-01
-1.294883064319384269e-01
-3.159078018384653963e-01
-3.691504607843859587e-01
-3.691185435908866386e-01
-9.410357111727815638e-02
2.261452779358001930e-01
-1.431197981970996902e-01
6.318495950583220555e-01
-6.493509641809727118e-01
-4.061088148755380711e-01
-9.081286363071570944e-02
1.354562763414830229e-01
7.793449056669706290e-03
-1.037155465261076770e-01
2.366218919508541185e-01
1.908037091241468197e-01
1.403528516693212380e-01
-1.964734719115451556e-01
1.758900834385562217e-01
-1.420777790291856690e-01
-2.517802401711454197e-01
-7.932348416609059927e-02
3.898579208594549206e-01
4.269294542481847921e-01
2.864647875944349997e-01
2.253627665539206237e-01
3.063201160270411227e-01
-1.375771467132421225e-02
-4.352432869579488939e-01
2.553352692160805182e-01
2.058656459924959881e-01
-2.356682609585055432e-01
3.821691429568940118e-02
2.825801273914454459e-01
1.054972600844415187e-01
-2.908493401751344187e-01
3.561162946858941747e-01
6.138792363321160517e-02
-1.475235386350963185e-01
-3.016450365577657000e-01
2.432557482598191045e-02
5.527224322650045041e-01
2.046830115222664503e-01
5.358766809513804130e-01
-1.296407323119917396e-02
-2.332781827642735617e-01
5.425970470878702101e-02
1.835020760113301730e-01
2.272920157366907501e-01
-3.188332201890212853e-02
3.676328114640526890e-01
-1.216851504667590123e-01
-1.832867137762528853e-01
-1.434103082446477190e-02
-3.555099363593789419e-01
-4.411271450625227630e-01
9.818650870089845606e-02
-2.303358099735719478e-01
1.933688616721347675e-01
-3.446608895613011980e-01
5.421273635384719902e-02
-7.440490116598723336e-02
-1.246959585165152706e-01
-7.321293291355290833e-02
-4.428562501769688076e-02
3.401529945880505390e-01
-8.584946514773131310e-02
5.590622856209058744e-01
2.231138586238240185e-01
4.035688223896552462e-01
-2.009515938058415441e-01
4.626470308587353197e-01
1.293746743769284280e-01
8.658697903068714175e-02
-3.537739369557373892e-01
-9.218270356735425164e-02
4.767253369734359980e-01
-3.505963446964033975e-02
6.131471130365063679e-03
2.925841932612432417e-01
-2.959260826256983612e-01
-2.256715151557082411e-01
9.507839836397778688e-02
2.537171679596594842e-01
-3.394925300777787980e-01
2.024052939689132413e-01
-9.432619252913401753e-02
2.518383248461135704e-01
2.691131189753852571e-01
-1.724197254736378748e-01
-2.916649568126409523e-03
2.549871900160812777e-01
-1.034559942446257041e-01
-5.143989725080906350e-01
3.307656923110526698e-02
-1.194878094417999720e-02
-3.427861746524175218e-02
1.000212184654229730e-01
2.015073184684015861e-01
2.028817072655936249e-02
-3.294457830001309429e-01
-4.160048474298486815e-02
2.801196718420795873e-01
-2.185020029318945900e-01
1.794679777837262513e-01
-5.357956677389411754e-02
3.156374564212151290e-02
7.353797938861862671e-02
3.097348703413417125e-03
-1.229628050320216992e-01
-1.198803028339610471e-01
-2.941534281344371782e-01
-1.772198772353399121e-01
-2.264732941270001243e-01
3.983477565643876450e-01
-5.195116800386539307e-02
-1.853601899899817440e-01
-4.076228794650594428e-02
-2.192539080143918184e-01
-5.334839506728433073e-02
-3.941788457153838077e-01
-3.512105277286209359e-01
-6.199140836979178948e-01
-1.728490402562884443e-01
2.407678195935929466e-01
-3.400778796353309263e-01
-8.747877403206473501e-02
1.093979591133361351e-01
2.031438941869618264e-01
-2.243570479481426724e-02
-3.855380914767517903e-02
6.508664824551587541e-03
-1.588449587177818700e-01
-3.753577808026642981e-01
-1.720558415557217891e-01
-1.284842706904499032e-01
3.019317571664750233e-01
-1.174248190826793214e-01
4.046726107861106092e-01
1.510718149911498831e-01
2.512239347076013485e-01
-3.470734443639342248e-01
9.180166554955201952e-02
5.161013587291154309e-02
-6.339486339757458358e-03
1.300667433729756350e-01
-2.552730068792887774e-01
-1.407464334413917884e-01
6.953523274868551873e-02
-3.326907278190973649e-01
6.882285664563246586e-02
1.042121583835414894e-01
-3.486347001805765733e-01
-1.282515170101877211e-01
2.584364014877593707e-01
9.307495358357352477e-02
-1.249288332359682063e-01
6.608781939267047156e-02
1.526362453639819317e-01
-1.735681062436146282e-01
3.410722584496020393e-01
-3.671474749578929053e-01
-5.112407285404999002e-02
6.765296461943294537e-02
-1.748729968383541666e-01
-2.234815660978611285e-01
-8.843250703486812969e-02
2.647223708965066313e-01
3.430351661381797739e-03
1.566445979059941929e-01
-2.654018624543904581e-01
3.977831159940473094e-02
-1.401765966032831046e-01
3.340950685713078155e-02
1.004697002635919489e-01
-1.557073817560662883e-02
-1.869759127141777943e-01
7.565464240662402029e-02
-1.009335668569524488e-02
1.061566773282923148e-01
-7.887457354778365515e-02
-2.075361638062025171e-01
-1.905196599920684075e-01
3.840541253171735059e-02
1.696899051093254118e-01
-2.427384514832731099e-02
1.064629174886507932e-03
1.310832133849933190e-01
-1.746475654630516294e-01
-3.283960445326556538e-02
1.738000714443990458e-01
-7.274525364926225091e-02
-1.333240569520514063e-01
-5.226743844417351958e-01
-1.764683843192589863e-01
-2.039787720400552673e-01
3.213292313703020042e-01
-2.572985067113418012e-01
-2.274942118417573253e-02
1.108376197407055230e-01
9.394885092997851128e-02
-6.005305495933613291e-02
2.552886041331074718e-03
-5.360627375724100752e-01
1.778448889372079567e-01
-1.174917635372588337e-01
2.274863230990114282e-01
-1.846524850229161741e-01
-4.732324534870668842e-02
-3.901394633212734164e-01
-3.318559152841610294e-01
-1.550883661616977993e-01
1.831236567797220605e-01
2.345485360695974963e-01
2.281629628356135198e-01
3.397168199745985717e-01
7.491157579090254592e-02
4.700084159503793019e-02
-1.986663113147022208e-01
-1.764029146790782598e-01
1.556341993771173104e-01
2.038386752591303808e-01
-1.251561672770294398e-01
-6.356831065232322608e-02
5.554916140128559610e-01
5.181452610712530826e-02
-2.297688854121692770e-01
3.104456207358269326e-01
-3.287239835264339494e-01
1.128965711094154500e-01
-4.711034775403625391e-02
4.028363794693761157e-01
-4.892533712786752420e-01
5.654242465605201912e-02
2.423406409833911146e-01
3.863458508827497528e-01
1.448786116849734573e-01
-3.668861999271323393e-01
-1.986111628416423469e-01
2.476998877772128294e-01
2.959286692875877645e-01
1.651239180057859357e-01
-8.650288869508010459e-02
-1.069027038365751442e-01
1.582928642501672534e-01
-2.452449454651387528e-01
-1.962230286609426833e-01
8.292996134401106612e-02
1.619020656757340637e-01
3.387270354259316191e-02
2.875964191184433583e-01
3.738479157951009602e-01
1.285857944995383029e-01
-2.274639871777628108e-01
3.114436825647639573e-01
3.921497613765289603e-01
-7.683196986720592161e-03
7.243533820294753567e-02
2.511357045404768451e-01
-9.255915566267587657e-02
2.654713218580506684e-01
1.730707400883111369e-01
1.746609764062155845e-01
-8.532986324206742745e-02
3.465608292879383545e-01
1.497526374005930250e-01
1.359411766174211111e-01
3.592177125302091767e-01
8.429489731825962062e-02
5.135584477453690455e-02
-1.458697629818943853e-01
2.056496329440455906e-01
3.406272580450260268e-01
-1.392002739145926926e-01
-1.567067940223913769e-01
-4.186351756856845352e-01
-1.521466193058722549e-01
1.339460749421437780e-01
2.178829644796242138e-01
-1.965132430774739758e-01
8.702957706057176668e-02
2.787085350180599358e-02
-1.545945983402189153e-02
6.736782912038981330e-02
-3.133823420478962229e-01
-1.644509089772157595e-01
-1.182200980324480677e-01
3.301101349381281580e-02
-6.634191723596083445e-02
2.504450723521857713e-01
1.026835994255415191e-01
-5.080121377842933272e-02
-2.907477626731556075e-01
2.043183529811185006e-01
-1.279166502548946538e-01
-2.069753985330062274e-01
-2.898430934491066369e-01
-1.786263886290747893e-01
-1.367146227453227281e-01
2.048728070159078762e-01
6.486942375749840672e-02
1.351539608778515311e-01
1.034095891190410337e-02
-2.106120641546451178e-01
-2.388911962329754446e-01
-1.083395025978030057e-01
2.084530074007936440e-01
-1.926722655514486737e-01
2.187492198980819924e-01
4.604504002055684886e-01
3.635734180010103955e-01
-5.342152790864989065e-01
-3.010966485731819686e-01
-3.276183448249981867e-01
-1.967179243074881345e-01
-3.806846738731904378e-01
-7.955326781285297633e-02
2.663080485215488791e-01
-1.803806881460468803e-01
-1.832700363455071202e-01
3.062978824153670399e-01
-2.295812979369037388e-01
1.505766046892230703e-01
1.641973629655527345e-01
4.976999433139695506e-01
-4.813191094952633947e-02
-2.772987099990386062e-01
-2.175153583127360790e-01
4.946789417641808684e-01
8.150095933675712001e-02
-9.380351550459867238e-03
2.090206205129467865e-01
-2.251601094027534389e-01
9.595915611348482255e-02
-2.290839252287177608e-01
-3.178797485827480201e-02
1.318450466389752551e-01
-1.237144956409237662e-01
1.215865136818241737e-01
-1.256372838267868497e-01
-7.124874524854143444e-03
8.765526787531144337e-02
2.786207468515753960e-01
2.828842183649964426e-01
-9.693509845256234603e-02
2.069959294023223095e-01
1.640692223575414832e-01
-2.144407870295858276e-01
-1.072864399067640639e-01
2.990103136468054423e-02
-3.023744952909364070e-01
1.192159892199770588e-01
4.298899896798397680e-01
2.340152092095394432e-01
3.114536002030236506e-01
-3.090486555656540672e-03
-9.208077882618632970e-02
6.160443896545744202e-01
-1.050577553710911882e-01
-1.366747898040748532e-01
2.955837899230313037e-01
8.431563739558249615e-02
-1.152272984341931872e-01
-3.193108594307959847e-02
-2.930088846048850004e-01
-3.532982880395514336e-01
2.875188763235176914e-01
-8.581922818875584169e-02
-2.056720027902186887e-01
-1.038487584751546407e-02
-2.041764060223176525e-01
4.773550045190889241e-02
-9.572116171270940443e-02
-2.248837938709317141e-01
7.518700440458586653e-02
-4.097148865504542103e-02
3.994346051940805137e-02
-3.854617186437624410e-01
-2.135021152083124360e-02
-3.627383098863473099e-01
-7.356919682532958582e-01
-1.565420912291832719e-04
-1.931309308482894171e-01
1.059984432264667181e-01
1.259695246913956623e-01
-2.245114081331173461e-01
2.377878529358919135e-01
-1.250811955957031874e-01
-3.289137887585315279e-02
-1.792865957670463084e-01
2.346403615743581916e-01
4.485567029123620209e-02
-3.264856790381317486e-01
1.662498429858133842e-01
-1.409198929839197700e-01
-9.662618144472101545e-02
1.950258435097065313e-01
1.033144224708987813e-01
1.530294902043011496e-01
2.109646356608444184e-01
1.485714066472448025e-01
-2.621984856950922149e-02
1.326106503071226017e-01
3.490523576215915913e-01
2.436378105752195211e-01
-3.100451142273091265e-01
-9.161949708384777014e-02
3.586959903444958409e-01
5.187739938494517755e-01
1.996245739920839146e-01
-2.610403490039003849e-02
1.147089594352164281e-02
-3.752289377809545634e-01
-2.146319025142904291e-01
3.644118029363624944e-01
2.212462110719587149e-01
-2.579842827064175725e-02
4.143094945449684041e-01
-9.072755968801474169e-02
2.532988694437474119e-04
1.076876705974740972e-01
1.504622184660624473e-01
1.202799198514715867e-01
5.637678908092766047e-03
2.844621033599061266e-01
2.248920927513061996e-01
-2.188075783302519395e-01
6.749629261457069929e-02
4.077788393939614786e-01
-5.514015803678392474e-02
4.821423120262112727e-01
-1.305782665183980173e-01
-2.555198815420787750e-01
2.755454273897926798e-02
-8.470615922338449455e-02
-1.371610107982132731e-01
3.221140136791071362e-01
3.916231238454160324e-01
1.530928311420354793e-01
1.216826897520153911e-01
1.233584002802490254e-01
1.451973294351616983e-01
2.532014303168992342e-01
1.574500929896903989e-01
1.067784938219770163e-01
1.833158695110416112e-02
2.825251684513649039e-02
-3.692312094442538051e-01
-8.710235458269790587e-04
-3.876720095131152011e-01
2.201293146100596620e-01
2.493683857509826005e-02
6.502555973463995664e-02
-2.431588728354685536e-01
-2.370341517098246975e-01
2.677295425147016017e-01
1.189077313906547612e-01
4.466286794528944199e-06
-1.029788589800480353e-01
4.950970482156645536e-02
3.802037901147125587e-01
-5.906863202563002874e-02
7.542461899286420635e-02
5.659349957360735317e-01
4.229925738967336701e-01
-3.517779365158102411e-01
-1.774868691265308329e-01
-5.454344171304115196e-01
2.392559157637750081e-02
-1.786656223195330906e-01
1.006660187173394894e-01
-4.584500368064033937e-01
4.502527949948051389e-01
3.731132917616914457e-01
-2.608129444434441058e-01
1.836931481580249548e-01
-2.657532114573871729e-01
9.401205132190529334e-02
2.879506524476642682e-01
-7.161790450800524510e-02
-2.610768871331825003e-01
1.424824647234705470e-02
-3.337164487215946163e-01
-1.356348735473829337e-01
-1.001287083718209320e-01
-1.058052616812572011e-01
-8.217834413945891703e-03
9.458649586702415346e-02
1.357023699260357374e-01
2.470710795647866054e-01
-1.237589588978100889e-02
-2.823682564447843601e-02
6.051072988708883216e-01
1.551476035482256960e-02
1.009315969319735246e-01
1.236899157625738765e-01
-8.774186297530232881e-02
-1.975356921328750015e-01
-3.637446258299050217e-01
-5.795539316769952876e-02
-2.194101081904207759e-02
2.797323350742907389e-01
-3.141024411823062357e-01
-3.225040753737908883e-01
-2.679969512849157340e-02
-1.948774908486459456e-01
4.740495213830606680e-01
-3.548455722373138332e-01
2.996439144413936551e-01
-1.688440476278348090e-01
-3.159252923261301332e-02
-5.534459347964093556e-02
-7.169458789157379282e-03
2.755500331173316164e-01
-1.342740520201043397e-01
-1.719908236459772033e-01
3.584335778401967487e-02
-6.610642426402391081e-02
-3.372933017114492782e-01
4.978165106187631972e-01
1.900435420583808654e-01
-7.827205872934344657e-04
-6.659634390631892498e-02
-2.939377922675392441e-01
-6.616672181394046837e-02
9.194269268959499863e-02
-1.241854780230408073e-01
-1.260341613194825017e-01
-2.733471668786893738e-01
-1.384200357872830411e-01
-5.870077384439879864e-02
5.144557046983848636e-01
-1.309272756347348299e-01
-9.801037614958070868e-03
-2.988776358881017198e-02
3.986570377976882823e-02
-2.028726641485195936e-01
1.630469260123651454e-01
8.426247154746074886e-02
-1.565885469046893186e-01
1.931511697185049892e-01
-2.007801613771022925e-02
-1.605277434267150527e-01
1.387632291561226305e-01
3.625501302453831842e-01
5.399214242835743693e-01
1.917240404583402114e-01
3.001268511625783120e-01
-5.819672809905525324e-02
1.702090293757653472e-02
5.574165558997079550e-01
8.059486329733593635e-02
-2.624976839658501593e-01
2.735204155414748192e-02
-2.275304364642861607e-02
1.303926416944995448e-01
6.660152370532784749e-02
1.228652930426794160e-02
-2.249645603752812861e-01
-2.056288124758573477e-01
7.091988018137697358e-02
-5.702574472746595180e-02
-1.169067705430681670e-01
1.350142960692733429e-01
-4.728643200944861874e-02
-4.805943398420748913e-01
-2.324746661666719227e-01
-2.074193445309003847e-01
-1.283270324650584160e-01
-2.083056592569512144e-01
-1.173797135281749587e-01
1.056789484574865469e-02
-5.631084827738968013e-01
2.879065045718230340e-02
2.724569192954528485e-01
-3.323527207839450104e-01
2.566833339210098930e-01
9.781009133843730774e-02
-1.431502148635134530e-01
1.708072127597548007e-01
1.726410503320995049e-01
2.716428755248786464e-01
-5.118483471453802447e-02
3.963099652818981022e-01
1.333104453651858534e-01
3.509074580551326261e-01
-1.163925689501620897e-01
-3.659209419627686144e-02
-1.167629017731374036e-01
-2.089810480472820836e-02
-3.555786873878331172e-02
-9.661898501814664836e-03
8.018795520073254690e-02
7.871775535138214597e-02
-5.274990116053466377e-02
7.033221586259136814e-03
-1.048507875711202214e-01
-7.147010110793305948e-02
4.816530529005924599e-02
-8.564474274622883854e-02
-6.252129493753084966e-02
8.724031317604989677e-02
-1.919100496388348800e-02
1.676619614870850095e-02
-1.599877330745496928e-01
1.641180149825229861e-01
4.549228002308954022e-02
2.174356285512867304e-01
-1.749335289943725891e-01
9.737922719733006771e-02
4.039107197595900867e-01
-2.573149872787382497e-01
-1.835579534265280588e-01
3.146358987988200906e-01
-2.596352041072251815e-01
-1.317955618771379789e-01
1.071456562362621545e-01
-2.530714778037855273e-01
-1.620957648696547126e-01
7.639010098270603011e-02
-4.121075701029277422e-02
2.882165878266990111e-01
4.574294052833399182e-01
-1.039007508721195017e-01
-3.073153404183574522e-01
-4.832157604737456758e-02
-4.526755421113126121e-01
-4.057408752415488928e-01
2.934088821475737130e-01
3.465696115095685537e-01
-1.020677565797895175e-01
1.522448417740112636e-01
3.537482340201149600e-01
-1.787624965443919134e-01
1.872446618654930173e-01
-2.266805596609220708e-01
-4.521496553302947058e-02
-8.096971454388536549e-02
2.021826143283304011e-01
2.281508038529847515e-01
-1.816485466487073944e-02
2.765631343140597664e-01
-6.291996379151153229e-02
-5.926661787614229647e-03
3.628834855612999566e-01
7.058854769054632994e-02
-1.602448572085569678e-01
-2.713498350295860395e-01
9.405212446920253877e-02
3.178738641215591576e-01
5.458222484195804358e-02
-8.020046404869771162e-02
-4.003708402804925237e-01
-4.269062630253327439e-01
1.680052996290374301e-01
-1.809748480158436257e-01
-7.633632544177733348e-02
9.812778768305822907e-02
-5.598766440884103135e-01
1.722466536183270280e-01
5.635600506807496579e-01
1.780067122217124653e-01
-1.577148002975935492e-01
1.439031755723493844e-01
-1.937180770860997270e-01
1.983931934865878349e-02
-1.112695535559024701e-01
4.432755029299720873e-01
-1.320439756977413448e-01
1.172918512725650703e-01
-2.319462932435096755e-02
-1.409432505698143545e-01
-1.292682623899431005e-01
3.020283684841115202e-01
-1.798998026681623008e-01
-4.210708119710212527e-01
-2.511250329032981288e-01
4.397361548040972651e-02
8.523642008567902661e-02
-1.932803991351548026e-03
1.041275659528719533e-01
-2.698421600937038201e-01
-1.585422160439315942e-01
-2.028891698365802576e-01
-1.154708477301369385e-01
3.332736992312127500e-01
2.032926363344025877e-01
-2.438985025100932624e-01
-1.163108265189371909e-01
6.957146945964462481e-02
9.592096779363593062e-02
3.586886964891544682e-01
8.032777615278607897e-02
-2.784139950475956748e-01
8.280867743983148788e-02
-3.064037065708196672e-01
3.640164257050866325e-01
5.625336026173194393e-02
3.935060206910842573e-02
1.755020860360473056e-01
4.847585858743709564e-02
-2.122199674766841321e-02
3.965534392967789423e-01
-2.145815110952218885e-01
3.346929731756637660e-01
5.644117681213266513e-01
6.961508524020498800e-02
-5.330190114700228410e-02
5.251497092426344465e-02
-3.363324027850647657e-01
-1.588038473575426601e-01
-9.397491902353104221e-02
-8.798681045305171977e-02
1.395154871985829492e-01
-6.356908498213072189e-02
1.811855660142754620e-01
1.388461309118708686e-01
-1.044497598823524304e-01
4.683644963379600124e-01
-2.354500467119804152e-01
1.463914462155980756e-01
1.991880385578800872e-02
-1.475512758063963481e-01
-1.510724521848957058e-01
1.533272010861110868e-01
2.924492889753104730e-01
-3.814329828521949017e-01
-4.234170343612367500e-03
-1.433224841571441865e-01
1.236267084213812373e-01
3.064941068397548651e-01
-4.362642688233884236e-01
2.278654269027916568e-01
-1.139202645474323011e-01
-2.586620771152534082e-01
-6.127037635589918652e-02
-3.294565678849017409e-01
8.197692663647639794e-03
-4.108666954071893973e-01
-2.282491142139788931e-01
-5.817151305559769003e-01
8.165076034740488542e-02
-5.628063030889559129e-03
-1.420738382934860489e-01
1.488932272121284706e-01
6.062053934834405605e-02
1.135327382233077172e-02
-1.263516050586864226e-01
1.570691516847014801e-01
1.346406740338831030e-02
3.200936347434302776e-01
2.044110066076503807e-01
-1.851347363335831830e-01
3.998531372695036668e-01
-4.824507817486617389e-02
1.072051568053794535e-02
-6.475645489414788569e-01
3.560267648008781372e-01
2.796074478994219903e-01
9.807139368990377970e-02
-1.888555749405788631e-01
2.942062822770731834e-01
-2.587109252781084612e-01
2.798031328740932522e-01
5.342754282443024083e-02
-2.346057998652918003e-02
-1.030380893584007529e-01
-2.201992367057140354e-01
-3.096879640007271228e-01
-1.064154341944982818e-01
7.311010867295002214e-02
-1.269646201768115032e-02
-1.266029642789553156e-01
-2.207196834402998797e-01
-2.174298006885328274e-02
1.132370597908051307e-01
1.717577540964403127e-01
2.265118077812897923e-01
-4.592139866284572491e-02
-2.325444099296867240e-01
1.297556108096617868e-03
4.041632682254131526e-01
-1.467588723851329970e-02
5.237233238368709659e-02
-2.835686434727009431e-01
2.897671764602668398e-01
-8.963564192151224352e-02
-1.454007274437569830e-01
-5.157583754177914870e-02
4.879250258718498268e-02
-2.159774748831036484e-01
-3.012668489807177399e-02
2.564647707212790451e-01
-2.919259002279603887e-01
4.058958620614139812e-01
1.118912293453714485e-01
-4.029372170525608726e-02
-1.968682970460164661e-01
8.828718944771141164e-02
3.054878106933982540e-01
1.514458558565061688e-02
-2.094598447397467977e-01
2.919670786510664695e-01
-4.706439534345812498e-02
3.744961681627877459e-01
1.911632615148032080e-02
9.489292758753863077e-02
-7.419888331230473089e-02
9.395021774514808553e-04
-1.609305691665302018e-01
4.052801283102971941e-02
-1.088242346060459553e-01
3.545709181351709705e-02
2.491577988788269693e-01
3.002609665000711137e-01
-1.061855175491265429e-01
-2.679607330977263474e-02
-1.715092038334196656e-01
-3.400843857866444053e-01
7.131718983045812199e-02
-5.988891656127477425e-01
1.151256603261456048e-02
-1.022628023122130470e-01
4.117667667130706088e-01
-2.265308168567392866e-01
-1.430895089796158925e-01
-1.591575636794071158e-01
-8.621932566854925151e-01
5.250884437901450624e-02
-5.703040382200278563e-02
1.571349541136223826e-01
-5.880021808569688702e-01
1.721377181579025473e-01
-1.423367851717108057e-01
2.100192854844298573e-01
-4.459767179069413223e-01
1.972108300278797854e-01
3.379362975220274318e-02
-1.650122007228306265e-01
5.447017566904324148e-01
1.595616497790210697e-01
4.021141155777396836e-01
-2.288183083243327254e-01
-1.412379679874913585e-01
1.007218525333596348e-01
-3.135029795234370309e-01
1.366011323481865491e-01
-7.453476986285653694e-02
3.141807939990171050e-01
2.419970562003158007e-02
-1.385602751983281145e-01
1.588989168894361370e-01
1.139724165438647935e-01
-1.303600301826235985e-01
-1.611067457296788408e-01
-7.440712161305914306e-03
1.527507334632401126e-01
1.563430327998230895e-01
-8.264037819713186683e-02
1.797535982585865208e-02
-8.708646245121946794e-02
2.315721962359965913e-01
-9.359356576104972680e-02
2.537585338160545101e-01
2.816413769188646499e-01
-2.311220046044629994e-01
-3.005546553373919516e-01
-2.789349215324917752e-01
3.116991171862328880e-01
6.584316492170326496e-02
1.385839651717611920e-01
-1.277442361917749403e-01
1.377910528951237223e-01
4.400880250570357588e-02
4.628452499051838309e-02
5.341208925466134350e-02
-1.038745801301866611e-01
-1.449084831525375150e-01
3.598890607014579301e-01
-1.184118311026325782e-01
1.739582991392143174e-01
1.773514931623534352e-01
8.603813513317166983e-02
3.525734045601057465e-02
6.544564625587810935e-01
-4.662100978152419195e-01
-2.026597164341175372e-01
-9.929029101864905726e-02
3.784123483266184640e-01
1.541593248079989042e-01
7.334611435239288268e-02
-4.158814932396811548e-01
-8.751687664901186547e-02
1.207195086965696940e-01
-6.397170249668682196e-02
3.007991861755702004e-02
-3.158367190532926916e-01
4.474734664527661443e-01
3.134733149974225919e-01
2.028605788846283287e-01
-1.135057119890657377e-03
1.242344548215192912e-01
1.169227146720079047e-01
-4.721430688804953979e-01
2.866244609478468264e-01
-2.182493306553469348e-01
-1.228066302869718768e-01
-6.179579201172650249e-01
1.072154014838083529e-03
5.541571768096099221e-02
-1.099453560597292018e-01
-1.608965155882780829e-01
-1.379963525142370862e-01
-1.890132557712529138e-01
3.869050479630282702e-01
7.093692111718792603e-02
-3.008406520330929590e-01
4.404840841353883096e-01
4.268959764171658539e-02
-3.231247984569395881e-01
-4.012732848330100577e-01
2.856397407178501990e-01
-2.834451171108215428e-01
2.175462535676147002e-01
-1.960431677772192863e-02
2.385228145777961439e-01
-2.989301297826387621e-02
-1.500518647897120805e-01
5.670820251624242303e-02
-2.682885617725315752e-01
1.513476187217166757e-01
-8.780314645372895577e-02
-8.437407112409553434e-02
-2.885705005169301174e-01
-5.991218921316534413e-02
-9.696079520144094965e-02
-7.241999189703085538e-02
-2.080849349196948472e-01
1.835474346135131107e-01
2.917742753586859972e-01
3.053844115134831672e-01
2.691175392137254985e-01
-3.694241510488347480e-01
1.354213171692637482e-02
-3.803671414474698032e-01
2.043128481186365364e-01
-9.808626723719829354e-02
-6.164756154880816907e-02
-8.094924877373649297e-02
4.698504743254605653e-02
-1.105647114763661926e-01
1.010670228048626551e-01
2.305431138883248243e-01
-2.045658455535329934e-01
6.381301138286510355e-01
-1.072961059527801075e-01
-9.099387567965984414e-02
3.325860657964530565e-01
2.804914480390149345e-01
-2.112041843974332700e-01
2.321079954019197866e-02
1.739651382089526946e-03
-5.276268937675672177e-01
3.941737537551424225e-02
1.368657935689372718e-01
2.179435780331854255e-01
1.684848976493806827e-01
4.051964631912725184e-02
2.352758499184474383e-01
-5.540973329484530918e-01
8.279261806431231774e-02
1.061693693379728159e-01
-2.268982037701209042e-01
-1.430783842757537838e-01
5.453333950273853842e-02
7.717297969947930492e-01
1.560957836162220336e-01
-8.458803094513726861e-02
2.096907266549672411e-01
-9.595652938749184291e-02
-3.606477630626055975e-01
1.331178042232550041e-01
2.464026437528072863e-02
-1.186917665076406697e-01
4.808956390813334258e-01
-1.804757779107917792e-01
9.314715842130084911e-02
2.282823111170164954e-01
-9.358245031083588239e-02
-4.619142480080882726e-03
3.035598370875581403e-02
-1.924152183920055381e-01
1.858977135565907310e-02
-3.418836328249627021e-01
-4.610109282495249150e-02
-7.578101824888883176e-02
-1.238251552450147508e-01
4.122879594961793848e-02
2.706654569739132352e-03
-1.611812209350214908e-01
1.146591613314486002e-01
-1.343243428913337423e-01
-4.462281604978920457e-01
1.908391547134163230e-02
-1.226638796309478530e-01
-2.071422814110331079e-01
-1.830808160716278499e-01
2.368565382367739114e-02
-2.162838757119758260e-01
-2.078582691001309435e-01
-1.220432366501794791e-01
-2.010353179243578800e-02
-4.494605211689000485e-02
-2.271118970348194252e-02
9.232354347699574248e-02
-1.230199470415946211e-01
9.109066313715596941e-02
3.383004716205366413e-02
-1.386660884834790657e-02
-6.749457146816868758e-02
6.131612669471150912e-02
-2.465570821184801670e-02
-1.691836832825539816e-01
1.104309732942265199e-01
-1.740551484009842942e-01
1.801498492337892318e-02
7.958531116369424452e-02
1.925810025214859389e-02
-6.463698527322027376e-02
-9.953061241134668335e-02
3.511050643367945590e-01
-2.317579188059663009e-01
1.678597028393603030e-01
-3.761267979195140887e-01
2.321366041083524900e-01
-1.022691841122085887e-01
-2.366559877836157399e-01
3.756908945391564114e-02
8.709768600547378170e-02
2.319382049305626359e-01
-1.484734230797378485e-01
2.436818594358773279e-02
-1.075312629378031015e-01
1.950183617249081833e-02
9.689775297745967242e-02
-2.028042652899230969e-01
-1.679541616467345455e-01
1.835882373504740817e-01
-3.180103651302305101e-01
-1.617058917856414521e-02
-3.499254866878790393e-01
1.139993218897553673e-01
-7.106580588603821080e-02
-1.022106698235631696e-02
-2.348340653886150098e-01
-3.361194554420740555e-01
-2.119286203850842265e-01
1.090206852613771343e-01
8.141153535678434527e-02
1.009783743346472605e-02
3.172366273391877527e-03
7.966489189856174047e-02
-1.056360736606660883e-01
-5.543928979821264313e-01
2.222643292855377428e-01
7.063113993152279890e-02
-7.752477661934975561e-02
1.028395814004176567e-01
-3.527293612746647544e-01
1.392478650268546593e-02
-1.600439876886792789e-01
-3.590319583856523278e-01
5.878807331921748203e-01
1.103686509506076330e-01
-2.970456015067584055e-01
-1.946641204556789628e-01
-7.037136879812165569e-02
-1.703209136018590530e-01
-5.645278419026284605e-02
-1.046922300596962452e-01
6.537295808292734045e-02
2.785798401251605647e-02
-2.328158277961418776e-02
2.560525772333001049e-01
-4.504157002445881020e-01
-7.014918704530338778e-02
4.713705481472038605e-01
-1.876587370463186633e-01
3.410739450747853341e-01
2.107154906686016238e-01
1.658086224079998450e-01
4.640113503151332974e-01
5.852010598990720069e-01
7.718871767134437289e-02
1.442830356019682569e-01
1.907701207524828690e-01
-2.567369097400417632e-01
1.967912426166666395e-01
-4.058961267604462297e-01
-1.705486915390874159e-01
2.115126979972445642e-01
-1.681571458281534426e-01
-3.345299601584639793e-01
-6.445438582824458695e-01
-6.881441597154655532e-02
2.589140778297104317e-01
-2.722899997424601537e-01
3.546384200162105982e-02
-4.146678180267346914e-01
-4.773270494592211644e-01
2.708281940793043074e-01
-2.921832608846028009e-02
-1.101493454025788687e-01
2.453005190179582407e-01
-1.288896192502302918e-01
-1.396696183356947452e-01
1.934284269549310376e-01
-2.052359909384864345e-01
8.494522230927052664e-02
1.026606475877843289e-01
-3.609413585249640066e-01
-1.813354585248420081e-01
1.973821588288145468e-01
4.216505578881735855e-02
-1.685130458428467093e-01
-2.315043218266591429e-01
-3.170372585482372947e-03
-3.942154769333477415e-01
8.341365261705678547e-02
-3.405113911041685038e-01
-1.430508008301729361e-01
-2.249463628610517407e-01
4.621431760334270278e-01
-2.926364256549412457e-01
-2.806077619016348890e-01
-7.025229165326185576e-02
-2.455521330942376790e-01
-1.988665159766478674e-01
-2.195746770524413527e-01
1.070644246819719009e-01
-5.544637573130385411e-01
-4.132339731763259860e-01
-1.257638352877449989e-02
-1.870359127357853202e-01
2.955942910116488576e-01
1.093671596485919079e-01
3.450475952660314038e-01
8.997217352972217141e-02
1.719646692284234335e-01
-1.803907400411176865e-01
1.286801571475600092e-01
1.814773259067090361e-01
1.745531961952581090e-01
-1.892486012236526405e-01
-2.608624552491253801e-01
-2.977461258366275176e-01
2.937311345278582064e-01
-1.277562243699341960e-01
-2.014356761834561887e-02
2.736573440261872228e-02
2.255946534645086876e-01
2.184168475000748677e-01
2.094490104251903184e-01
-1.568197428940954485e-01
2.366653282926812207e-01
1.952543460667484354e-01
8.291669806056102543e-02
2.230640575078312038e-01
-1.410598285929278162e-01
1.505450415241888773e-01
1.097715024851833587e-01
-7.950954315047080445e-02
-3.535888232900268879e-01
-3.370320618581645888e-02
-4.082551270226892903e-01
1.286942410333387909e-01
-1.754030561134508059e-01
6.451623047408302503e-01
2.059190756162054131e-02
-1.097772326405463961e-01
-1.869159299880339062e-02
-1.213787129466590148e-01
-2.640085224755732707e-01
1.015703422135815909e-01
2.072071508201370482e-01
3.861035576717763984e-02
9.005525257814291085e-02
4.938632202705541679e-02
-2.173827950351148453e-01
2.952367721238685627e-01
-1.529038098675182256e-01
5.525870681715037147e-01
-2.037048716144045438e-02
5.082850291934499776e-01
1.390292204355665466e-02
1.592625995142971790e-02
-3.775222444332586025e-01
-1.796593067828435863e-01
-2.943196837213289674e-02
-6.925541150539274438e-02
7.414110258968946432e-02
2.054014177180059630e-01
-1.116774416243145190e-01
-3.082444590226137704e-01
-4.209635466284117333e-01
3.473421743542408069e-01
-2.931928167591479895e-01
-2.983289036771915592e-01
2.646091570661311954e-01
-5.249648621056687281e-01
-3.763919908975347783e-01
-1.383929234789101625e-01
7.533813143190294659e-02
8.151294057313465680e-02
-1.371225410511958676e-01
-5.400769384033450582e-02
-9.584666738908015349e-02
-1.839018814460047224e-02
6.075444278039825174e-02
1.016929441651252125e-01
-7.810135306637790154e-02
-1.413777255703332625e-01
5.275516028374323957e-02
2.092557958564939258e-01
1.070248662626956254e-01
-6.166396174546606712e-02
2.484991217317931711e-01
6.694826761923101666e-01
1.155528920418531919e-01
4.956469695370481765e-01
-1.778791897873014671e-01
-2.299784575007132181e-01
2.494519516786826430e-02
-3.484268898405898374e-02
5.028990631469010264e-01
2.669314713815125750e-01
1.008421178268126550e-01
-1.774475858051868457e-02
2.212632130056491064e-01
2.513004508512531876e-01
-1.011551721960786930e-02
-6.329107988167263776e-02
-1.299989909590398562e-01
-1.085534589966340169e-02
6.207018745698319462e-01
2.369869360610982745e-01
-3.462293846691956722e-01
-2.539747761059661935e-01
3.737469418755722805e-01
-3.695375989286273782e-02
-7.226280105675450538e-02
3.159599256754700991e-01
-1.390122340981667093e-01
1.176319372217261849e-01
8.984942963710043293e-03
7.388038064975503694e-03
-4.586669968979734807e-02
1.557286278939420954e-01
8.508473548267533881e-02
-3.067466548237458013e-01
2.225145322634465017e-01
-1.650655195980346990e-01
6.069715318312009222e-02
1.671400435080677149e-01
-1.253882214372056547e-01
4.394101960373579807e-01
-2.634874918946727984e-01
2.375854292969345471e-01
-6.025151712813741484e-02
-9.537619054682548725e-02
-3.378769570683949619e-02
3.856435722679874001e-02
2.573116389004849180e-01
-3.456196614912371290e-01
3.769814520913071787e-01
-3.112765720916594869e-01
-2.238999716580834520e-01
2.077550811357249949e-01
-5.086725059077450428e-01
2.562331861166387004e-01
-2.644876779234283659e-01
-1.030420870971129749e-01
-2.555755871703643267e-01
4.099851713215307281e-01
-2.555245688818309491e-01
-1.329680596074659105e-01
1.882176568627533519e-01
6.761699376469734735e-02
-1.344896913912565217e-01
1.332346332217639040e-01
8.685591174770045109e-02
-2.025027417881106462e-01
-3.557565027631581223e-01
-2.211585275658325689e-01
-8.769165046794441531e-02
1.473057177549696728e-01
2.902227117291352188e-01
-4.427693185245723528e-02
2.786641833896139064e-01
1.477865858960229484e-01
2.154615537911080958e-01
1.912377502024071099e-02
-1.240591176248668770e-01
-4.073490320967532857e-03
1.373734840734473217e-01
-1.626609850629296139e-01
1.807796746978219127e-01
6.344323469221944956e-02
-2.498593513803768762e-01
-3.696596295848026403e-01
1.169268514136252851e-01
-2.018328209992777955e-01
5.228667506788079455e-01
-1.614541849652616212e-01
2.497199010032403327e-02
-2.963014468921506550e-01
8.314376165957955422e-02
2.251507559837015449e-01
-6.108107299595152417e-01
2.374315669619565528e-01
1.747318236693146121e-01
-9.186716093079720646e-02
-2.325703851309284531e-01
-8.403588060380121072e-02
-6.022782308497117709e-01
3.523249752889608122e-02
7.190514976143097536e-02
1.340249013042416060e-01
-1.733684346089454376e-01
-3.193440886574787640e-01
7.130324232248232141e-02
-3.099914185223902052e-01
2.247891450281601367e-01
2.150102202381698191e-01
-1.439467522493739771e-01
1.318031742411712448e-01
-8.778789903250953583e-03
-6.591821701422551083e-02
1.047386899805888699e-01
4.847622545298960195e-01
-2.784146567815967144e-01
1.804451461179709115e-01
1.893905547096477460e-01
-2.259108068798109936e-01
-1.132626348644280578e-01
3.209688913583917669e-02
-1.451468478652624128e-01
-2.825658457658195011e-01
2.749066942065089281e-01
5.034850906137298271e-02
2.557140610827760008e-01
1.341103976963327338e-01
1.250841541560662740e-01
3.926631933958286448e-03
-4.349070917438710993e-01
-2.813628887551905197e-02
2.551460837277223503e-01
-1.488313956551391148e-01
3.049277992594399689e-01
1.453759743602218990e-01
4.607130124894208145e-01
-5.081633757518361216e-02
3.789022090742329846e-03
-6.296852151889857641e-02
1.991122188079011979e-01
-3.444758677387101953e-01
-1.884987445165112185e-02
1.587157731957812845e-01
1.023618889661765015e-02
1.285543655954157483e-01
2.977458705919348858e-02
-3.186806737176930970e-01
-3.450210616898859994e-01
-2.655005932510168809e-01
1.599617308789840209e-01
3.844530788453667802e-01
2.008301593430501797e-01
-4.026673465712670708e-01
1.038155387047838135e-01
3.515255085187302120e-02
-1.503454449592969422e-01
-5.652407825447079703e-02
4.072662618910196514e-02
1.217724560124944649e-01
9.283880011470637683e-01
-2.885622362025757615e-01
-4.726502044281446491e-01
-3.528259210303905102e-02
9.386009168082365406e-02
5.042205422346410781e-01
-2.332754916542661427e-01
2.881662666990241761e-01
2.725570462962210172e-01
-3.934878201455526137e-01
-2.648859335474082824e-02
-4.502514962936083887e-01
-7.811410474834919182e-02
2.375977396928423135e-01
-4.943804526868289528e-01
-1.973956187383163474e-02
-1.343903775255552435e-01
1.272002511335472985e-01
5.357616141396384125e-03
1.295360648488476651e-01
-3.469645658013672529e-01
1.791396825042744154e-02
3.677654859746941063e-01
2.075288835742240823e-01
3.091799869482146357e-01
-1.049653469479929629e-01
-3.316190519435549544e-01
-1.822888509350340802e-01
3.877921354730709536e-01
-4.878838246828517411e-01
-7.846150983525675138e-02
-2.066494867881508990e-01
-1.521942471330417213e-01
-1.536924533454567254e-01
-1.915917488904735344e-01
-1.060882194216656027e-01
1.633771906989528455e-02
-2.367578740290653405e-01
-5.109945284763570128e-02
2.293485284844433980e-01
2.365110714918546020e-01
-3.974383229241498228e-01
1.218981424696036764e-01
-1.320036576235686029e-02
7.202103374485577247e-02
-4.696587149133022582e-02
5.898462149720106601e-02
-1.217196965750589645e-02
-1.175070157168293938e-01
5.607152359350062176e-02
-6.940211108795646400e-02
-4.908628506281660642e-02
7.214745390822899229e-02
-8.632507364005514994e-02
5.601231978937702694e-02
1.414364390729207395e-02
1.465993981603639917e-01
1.029793210323408925e-01
-1.689167805355444238e-02
-1.131044257070192493e-03
8.726581647540980480e-02
5.787450619967726001e-02
7.254319802297022612e-02
-4.394448162084523685e-02
9.158153251161747777e-02
-4.154343446609932988e-02
9.604212596032472848e-02
-2.599356030998103417e-01
9.012336405398636840e-02
-1.389161152476512673e-01
-4.372985593567672025e-01
-1.662932069863943818e-01
2.536843511004577278e-01
-7.162237967939402150e-01
4.121023025574008791e-01
-1.771598393309130604e-01
-1.784845541173310859e-02
-4.555830981965789395e-01
5.985526126423945659e-02
6.256271458935290519e-02
3.960849042766068778e-02
6.631465137072422023e-01
-2.338623087877463314e-01
-7.694259753599184959e-02
-1.872173120729122564e-01
-6.456014283746570881e-02
4.394245211721047734e-02
-4.320121349630803159e-02
-3.494864888805401804e-01
4.838166207243252415e-02
1.051942967021605307e-01
-1.753171737263908569e-01
-1.508577723165765994e-01
-2.375071113511167953e-01
7.760835194159997064e-02
-1.830428042051456261e-01
-5.337961823441798037e-01
-1.226448621699416652e-01
1.878337088427253429e-02
1.237082355118640647e-01
-4.242823614048716330e-01
-6.021181781338932337e-01
5.321460704053374707e-02
6.153002147545529044e-02
-7.284124934352151359e-02
-2.252675702923151793e-02
-3.847574223045276132e-02
-7.034459791918946936e-02
-9.444210243405556926e-02
-5.374810227008289809e-01
3.272429805759407007e-01
4.892335381913934939e-02
1.666575057329501008e-01
-4.778179756609408635e-01
6.165132936216677351e-01
-2.477186589830153440e-01
-4.357748653049745707e-02
-5.688693820958841407e-02
-8.660087664505158878e-02
-3.936770282599967308e-01
1.135351282155775687e-01
-1.559427105350878751e-01
-3.994867315903946614e-01
-2.183395877287728770e-01
9.125438549968026281e-02
-2.174347968650890486e-02
2.736582002138551184e-01
-3.100989998146905235e-01
4.479320416375161956e-02
-2.089347964675605518e-01
-2.362286685132227726e-01
5.978931445169675951e-02
-2.041448851702593048e-01
5.425719104136726700e-02
-6.851328989344802889e-02
1.239294426020225715e-01
2.132079369025249305e-01
1.303546878170597501e-01
7.008332518456424076e-02
-1.766225101875377457e-01
1.071848848208834803e-01
2.082938421410061858e-01
9.791673129149454369e-02
-6.603803315707031107e-02
1.528164386006030349e-02
-3.579833289414040554e-01
1.886686061183066587e-01
2.504478086697768391e-01
6.258458755550888597e-02
1.423129541597668302e-01
1.618898868103215427e-01
-4.948366841984710440e-01
-3.331656708639851860e-01
-2.898245541940119852e-01
-1.017912953039231544e-01
-7.819938202612727873e-02
4.147568898314456520e-01
2.589315716253425270e-01
9.186643380650907909e-02
-3.460514287262504984e-01
-7.233321442484554054e-02
4.047842670810027771e-02
-7.187024727747100272e-02
-3.764096965013655205e-01
-3.787754434179773644e-01
1.768711852667153028e-01
-2.283487460899947530e-01
-6.402195909852463618e-02
2.966911436547434722e-01
1.704837910662193035e-01
-1.474359263897994932e-01
-3.026404448806271352e-01
3.954752479411025590e-01
3.054269214162461665e-01
1.338158019286754541e-01
1.505158831627029514e-01
-2.201917825336189849e-01
4.818815679183278688e-01
2.964978464020041060e-01
4.210458776084586296e-01
1.293718738699753956e-01
7.218300149343523375e-02
1.560861841838150632e-01
1.817723149388125736e-01
3.102560138421276426e-01
1.395412534350624623e-01
-3.393483283050576990e-03
-2.224648748290229683e-01
-3.200313144114332875e-01
-2.554841158391744221e-02
-1.953912103665896849e-01
-1.509486676975264896e-01
7.860283155769277885e-02
-2.585930970509371998e-02
2.056005297862286973e-01
3.353172799110417102e-01
-1.933779152866009210e-01
2.954133598004115568e-01
-2.510054346883116086e-02
3.167658973867565342e-01
2.890361336462842212e-01
2.694755831982060257e-01
-1.299605874864853405e-01
3.552594702948293909e-02
-3.025752780863611435e-01
3.311591325210139769e-01
4.371420318134142113e-01
6.959452509321314984e-02
1.289668219139540051e-01
-1.439923509208553554e-01
-4.882645356722943586e-02
-1.057459290983486268e-02
2.283131989740634638e-01
-4.066596027030255911e-01
-1.179888412847393125e-01
4.809267436796248185e-02
1.593947173947667939e-01
3.154341340159270701e-01
-2.376924430110538278e-01
-1.031193746506009340e-01
-4.960859036615593298e-02
-9.456916697285179529e-02
-5.308572927105128514e-01
9.256047713313139691e-02
-3.682878227059734333e-01
-6.199202507584415933e-01
-3.782598158554594664e-02
-2.453793447925513571e-01
-3.338639784900014618e-02
-2.100741204882548285e-01
-2.601878587109890395e-01
2.703279304290071711e-02
3.053533646522270661e-01
2.247664732027381679e-02
-4.708366737737821328e-01
4.126572934739794474e-01
2.802784923043200593e-01
1.846398489187853209e-01
-1.684274648014767728e-01
-1.236555398384983490e-01
-1.270548050625867065e-01
-2.818040979950050540e-01
3.238807348531403396e-01
-2.633379371068003683e-01
9.427236865726711101e-02
3.494349160840243829e-01
-2.605295068937941716e-01
2.877876065942216455e-01
8.403517494827954237e-02
3.422703725698915678e-01
-1.212018659395015518e-01
2.543389475918222398e-01
1.488289208356942672e-01
-2.437735854179192557e-02
-2.921140555670013739e-01
-1.267631375690869422e-01
-3.353453622711737858e-01
-1.398286847681755873e-01
-1.799029309351455330e-01
-1.109543433792788969e-01
-3.522398804180814080e-01
2.562551773167460190e-01
1.756135315514358031e-01
-1.058785136220067591e-01
-1.014766884365881361e-01
-6.002745379847711227e-02
2.756526479759682791e-01
2.090790476267159748e-01
2.412064723104367370e-01
2.823324723046870266e-02
-8.801054092316418220e-02
-8.819079781230474910e-03
-4.303822595000320744e-02
4.033501681196524080e-01
-7.330488971582149738e-02
-8.801848196509076683e-02
-4.369857575989044562e-01
4.228592200268488921e-01
2.109616799274715779e-02
1.867887456409211278e-01
9.401284314091336303e-02
-2.406153573873971441e-01
3.876443793489491030e-02
1.930555065459766198e-02
2.362091261714172885e-01
1.925847944012983315e-01
-5.189136660138154999e-01
1.549227969953227146e-01
5.008317358035004052e-02
-7.995442200966204616e-02
-6.053280697721212800e-01
-2.267150187597598288e-01
1.121089390868580150e-02
2.051405935597233610e-02
2.850338158524480803e-01
2.199957450132154768e-01
3.086638135289059351e-02
-1.298889377302622425e-02
2.983741839208501334e-01
1.359099635682953743e-02
1.297437212937951057e-01
2.352565697123743527e-01
2.567942511556719348e-02
2.207001603210735352e-01
-7.596063652471560235e-02
1.312236918300124233e-01
-3.274665965409115365e-02
-9.968937123278645562e-02
3.292474942002222571e-01
-2.919702550521726669e-01
-1.919355647821953115e-01
1.791917083930170684e-01
-7.083931505254872918e-02
-2.531369710907847570e-01
-1.263906300812767947e-01
-5.771918792095528938e-03
1.111881239412269330e-02
3.673572010237037277e-01
5.384616285874418290e-02
-1.007499449082253917e-01
-3.469842247296265336e-01
1.546491912124563495e-01
3.151874673358008305e-01
-1.483429820492062623e-01
-2.404520957934751790e-01
1.903057826202594061e-01
1.499812118310459297e-01
-3.798593307758872384e-01
-2.875473417721866390e-02
-1.625518083445740836e-01
2.680023960518514853e-02
-6.910369203170166341e-02
5.467793880037308263e-02
3.176834901508969189e-01
-5.171549169693070436e-01
1.434102826808632547e-01
-2.314854774441472696e-01
-5.570104847847539425e-02
-8.412535877748011925e-02
9.651035202396587853e-02
-4.140168265897691269e-01
1.558108959430243648e-02
2.767980532677419281e-01
-9.181839525734302246e-03
1.853767818153012059e-01
3.520336363403936408e-02
-5.111173046308146173e-01
-1.759160383988228049e-01
-1.362747988668858989e-01
-1.634696709201592657e-01
-6.038187282402891765e-02
-2.523077716533691506e-01
-2.338578590489349684e-01
3.721280528814522870e-01
1.828545467755937071e-01
6.506427652532666972e-01
1.522041613794986592e-01
-2.495193344419234238e-01
2.038891567661052229e-01
3.661164190283023867e-01
5.591366649825608992e-02
1.396235809330203803e-01
3.702114154186602613e-01
-2.772806929601193127e-01
3.274814147664107944e-01
7.431243940313276841e-01
1.727669360468256921e-01
1.346383727934341579e-01
-1.907159963268439951e-02
-6.654224615215756367e-02
-3.408736397684541397e-01
1.799317742892731775e-01
1.080944287049688951e-01
6.403285216513581179e-01
-1.114558751929038694e-01
9.463377821465059070e-02
1.493755039184001543e-01
-2.171486574953762350e-01
-2.806969398188197129e-01
-2.705782427488495623e-01
-1.938098262206068845e-01
2.380942876603205083e-01
2.133759455174799591e-01
6.762184188746181435e-02
1.954235587710491107e-01
-3.742037312183453812e-01
2.980786212426846798e-02
2.812511370791545562e-01
-3.855670298127100715e-02
2.422903921973844701e-02
8.523505124903270336e-02
1.546040872289846657e-01
-6.725924008317228642e-02
6.213813410717532876e-02
2.324386726167571582e-01
-1.654720195294434038e-01
-4.156034086980237574e-01
1.447037660561929506e-01
-3.423994942819328924e-01
1.540467623340454617e-01
1.441643939018766307e-01
1.355651321944223615e-02
3.791527473266775861e-01
8.020167170533570866e-02
2.265357902364531772e-01
7.585819145058157742e-02
1.731992909906192590e-01
-5.013415128008655991e-02
1.050986586233387116e-01
-5.697269096295198842e-01
1.183469718159083604e-02
1.694592024185545831e-01
8.937781054251109358e-02
3.058460632319091044e-01
2.998012272700602623e-02
-4.555968089533563373e-03
9.724487863086741374e-03
2.347468337667010241e-01
-1.622727535905147123e-01
2.344904889466746245e-01
-2.474232498707053772e-03
-9.833529310023515768e-02
1.093242793438733845e-01
2.394039121880969512e-01
4.686995443819320650e-01
-3.868802423478983482e-02
1.701476923985320577e-01
3.189730057529654994e-02
-1.209875025912265367e-01
-2.023340213379922273e-02
-3.704498040509449086e-01
-2.764841644970940093e-01
1.439930134085448676e-02
6.240976425162456098e-02
6.312525333397805971e-02
3.423952521376031483e-02
3.171713958489971730e-01
-1.872898480675414534e-01
-3.587327900590069063e-02
1.214297520485961047e-02
-2.102874534708941423e-01
-1.095245506902006449e-01
1.982524104482982497e-01
-1.209894587123515747e-01
-5.773426240326944014e-02
4.570776626443437962e-01
2.060338448473857942e-01
-4.555650453386215354e-02
-2.008373770435658429e-02
-3.655592435809751350e-01
4.148028602326276904e-01
3.130372909866200454e-02
5.613482452640097820e-02
3.655515302691899476e-02
-4.297679818260882745e-01
-1.827082322289073635e-01
-1.349699857293046312e-01
1.333507533329257033e-01
3.064125443390424142e-01
-8.369619547925705172e-02
-1.834666138747313713e-01
-5.939014248914201710e-01
2.625028809327307200e-01
-4.307650194436559166e-01
-6.435070043672001111e-03
2.929138126786399177e-01
-6.278839313633819905e-03
-5.515811616196151373e-02
-9.780923399821433301e-03
-1.191967680198705859e-01
-2.301904156867435811e-02
-2.065935128021901407e-02
1.884072256317068572e-03
8.039124273039072177e-02
-6.381138653426032641e-03
4.505787902745532654e-03
-6.281278632532290296e-02
-1.010678596090110737e-01
5.126171794955758886e-03
3.961913329978069241e-03
1.835703322225189921e-02
7.083135031908523171e-02
-6.437111156600944586e-03
-3.432460120919816893e-02
-4.232485373679618218e-02
1.196949084752692849e-01
2.924663075550910096e-01
5.423583746605724620e-01
-7.650601236605364397e-02
-2.404270320219696333e-01
-2.768967678795881699e-03
4.224597300855259530e-02
-3.632641227931142636e-01
-8.622197635980086150e-02
-3.023461588112164589e-01
3.178813680836496403e-01
-1.258705560580818117e-01
5.230125275332041246e-02
4.656136462959966499e-02
1.348016021002705067e-01
3.170988815214171863e-01
-1.261477835082041865e-01
4.881832599527860528e-01
-2.879344537984035446e-01
-2.162088322183941258e-01
-3.586924944614975352e-01
4.646430570819622824e-02
