-1.699157927074698982e-01
-5.669447262971734069e-01
7.627900232248397971e-01
1.369927943436483053e+00
2.122662773276096093e+00
9.785977647862188489e-01
-1.126844235926741211e+00
-3.408160709836413282e+00
-1.900745889133501343e-01
-3.181414230885606237e-02
8.156545744567788025e-01
5.666972102578230475e-01
-3.696817095754226790e-01
-2.804594933459245265e+00
-2.794589731141069233e+00
9.245829494973809570e-01
1.179475417379954649e+00
-8.669549498306165780e-02
-1.451741186650344240e+00
4.030490948826945252e-01
8.882718883487142891e-01
-4.467581704032332068e-02
1.768299849253440192e-01
1.203224373572636896e+00
-1.553662052458223697e-01
-1.672381565716843932e-01
-1.114781895833911046e-01
-5.331544789024637021e-01
-4.297396016039936595e-01
-2.113943428553558268e-01
4.602022837439332936e-01
-4.890670597878007952e-01
-2.686778145271616694e-02
1.107607421680859017e-01
-2.735439114505446301e-01
-3.026234333058555048e-01
6.195933299564859720e-01
1.438985899521073586e-01
-1.390666562907013348e-01
4.856181418338059719e-01
1.112091868273056283e+00
3.427615707878399753e-01
3.696443472013631604e-02
8.366684206983495686e-01
2.186286795285526663e-01
-2.641040437815636577e-02
3.046278166595182690e-01
2.277480182540176923e+00
2.338614349940505432e-01
4.920115541199717168e-01
-9.796361347598941949e-01
-5.125252234205763813e-01
1.369521760584484493e-01
6.818996619118246338e-02
-2.900766707112963361e-01
-2.895905730154858526e-01
-8.339192811092420721e-01
1.442871888271838543e+00
-1.763621985642636614e-01
8.877510528549955593e-01
1.923835161003545347e-01
2.798239271101162773e-01
2.018852801252478957e-01
-1.206276096463804043e-01
-4.045198839756881659e-01
5.520535282883632933e-01
-3.097032524384670318e-02
4.101227826590936321e-02
-7.672479194150846338e-01
2.089980558336469452e-01
1.374472364919450962e-01
5.597622815321998818e-02
4.347884747439197811e-02
-5.350014071959617243e-03
1.284781681748880522e-01
3.949973022346104506e-02
-6.857541512822912244e-01
-5.102875705257541375e-03
1.701658255064838754e-01
6.708887888713148673e-01
-2.453463123526171130e-01
-2.525172626487293126e-01
1.036776178114509506e+00
2.447498117577378840e-01
-1.888381814074539256e-01
8.064093237952612014e-01
-5.335998245111236438e-01
4.355473863881907381e-01
2.827476253422098185e-01
-2.050363191626557169e-01
-7.077224416943020402e-02
-8.600485407513918101e-01
-1.853899851253068276e-01
-1.245917968888814176e-01
8.590637525783692552e-03
-5.032465172212724491e-01
-5.891637040799278108e-02
-1.996578607299898112e-02
-4.567602333068700449e-01
2.449172021499017027e-01
-2.784676904383020027e-02
-4.570505088576844455e-01
1.768217444108820535e-01
-3.493584927928893025e-02
1.580171020245324243e-01
-5.181057808025878453e-01
3.559896261750289392e-01
1.294984325197529595e-01
2.118152668054536780e-01
1.575758674865326003e-01
-1.693478590117998839e-01
-2.618781954321788494e-02
-2.775026711309337979e-01
4.133659585769460798e-01
-8.541167121469936396e-02
3.787641565613649678e-03
-8.886354494376838553e-02
5.793084092440212718e-01
7.746460080149082661e-02
4.137085755063622805e-02
7.087939665240472475e-02
8.114277594541476901e-01
-1.122512104819682888e-01
-2.893469648490999413e-01
3.483088059526339153e-01
4.548584330733206338e-01
-4.761191851027529037e-02
-4.368234063125944200e-01
4.265890394958605780e-01
-4.920745323299521162e-02
3.121823163632285181e-01
2.366850282423618723e-01
-2.692589121357515380e-01
2.729463275946576381e-02
3.302548214678550642e-01
4.875119323488619205e-01
8.877051318172096694e-02
4.336105616519239647e-01
1.576727915792720813e-01
4.016461885304773993e-01
-7.519438726043586874e-02
9.814996516697868656e-02
-1.680512377419938197e+00
-4.853258293600228868e-01
1.964783447103888303e-01
-1.379410159340357822e+00
5.781885843493210775e-01
-5.658587365902872229e-02
3.666981149829812159e-01
6.310298291207908639e-01
2.879225438734026588e-01
9.428942960526667250e-01
-5.217940898954481765e-01
1.607223739911413374e-01
-3.439531691919393147e-02
9.508494916931997665e-01
-1.055688479214369896e-01
8.870981602647512454e-02
-9.467909508985773714e-02
1.468153195071139894e-01
3.092671932464508000e-01
1.371402209266703309e-01
3.415954786307021790e-02
-4.689575764129406965e-02
3.092781609584127067e-01
-7.959788156135432224e-01
-9.767672811626071372e-02
-8.593664800104287849e-02
9.381579438921713310e-01
-2.330175041779370404e-01
2.945644586410585061e-02
-2.226396487711881089e-01
-3.284777378119147495e-01
7.130438362500896021e-02
-3.877570894048711775e-02
-2.924760205776985034e-01
-2.562290800541247027e-01
-8.337476828983675370e-02
-1.956820949935294263e-01
-1.884292282314571909e-01
3.285246783336902565e-01
1.949930453542206565e-01
-2.052686353140866227e-01
-5.171603381981260822e-02
-7.133320415010845350e-01
2.072773509316995499e-01
3.287750725887432224e-01
-8.917233538069037346e-02
-3.223541200455006250e-01
1.346183034403135859e-01
-4.277155803353405172e-02
-1.477382585193611209e-01
-2.757513391777693945e-01
3.422328138191824826e-02
-7.053722090511731213e-02
6.115602373086239524e-02
3.428745003868387542e-01
4.273629168572015691e-01
4.830048691885615447e-02
-6.395287859726707380e-02
4.323335134664180734e-01
-3.147781849424575173e-01
1.323566371758085891e+00
6.043731101910415626e-01
-2.834213024052876784e-01
9.078256898071920267e-01
-4.606608916442354595e-01
8.006461262806612023e-02
-5.114758166030552999e-01
-5.192310317215856896e-01
-1.383587934549871945e-01
-8.579152862828639536e-01
1.721060392570923081e-01
-2.030444335727423499e-01
7.073615254247040962e-01
-8.433963313336977352e-01
-2.753472379155246230e-01
-1.149533621810898687e-01
-4.242066217431830211e-01
2.218624609304866435e-01
-9.069718888553265912e-02
-7.160976906085577687e-01
6.148143868305723236e-01
2.204345529715350527e-01
2.274430327535819085e-01
-1.662784689933037574e-01
-3.355277009164484570e-01
3.719315916032076563e-01
-3.631187197390996907e-02
-1.558787953986327246e-01
-1.884751308162274097e-01
-4.911198988757034534e-01
-3.041675914685004201e-01
6.447639668975475857e-02
3.285016922635753400e-01
-7.982656782959274278e-01
-3.518471946475987266e-01
-2.772190283975601854e-01
-3.126288402306010017e-01
-7.929050147119337533e-02
9.712567544811905040e-02
2.809065545074869163e-01
-5.794130258618802598e-01
-3.028080142923607054e-01
-1.141448074810465091e-01
6.380872081252482279e-03
3.652516204645261388e-01
-2.130667320930128006e-01
2.945531653079693779e-01
-1.491897688272760154e-02
5.670410152155867106e-02
-3.710587389083015025e-02
-3.017371881539942027e-02
-3.615445773073238112e-01
-5.048835018597997992e-01
7.781625616914774612e-01
1.454832818668483352e-01
2.125992027450334665e-01
3.574011401620149075e-01
-8.095202409901956775e-02
1.026026983086680139e-01
7.259987476841341103e-02
-4.914174076097743149e-01
-2.328310478705532260e-01
9.262028953270128040e-02
-6.110004743456205756e-02
3.830101250632289567e-01
1.005579905898306703e-01
6.956365260311220267e-02
4.315391234684295418e-01
1.812761486295259572e-01
8.234979512444553507e-01
8.453892733037811358e-02
2.182307423168547422e-01
-3.077600354973251684e-01
3.965302121140122371e-01
-1.386584678607774290e-01
5.297687436387020776e-01
1.583452447521701556e-01
-1.891334089184700529e-01
6.001450061287954413e-02
-4.999717468868330461e-01
1.850160814042856872e-01
3.356993077611793441e-01
-1.371398386485667698e-01
-4.511129665867127936e-01
5.401929807418976576e-02
6.741200995929688038e-04
3.851204438502717209e-01
-4.561802320211777451e-01
-1.517784185095039651e-01
-2.621935376710306520e-01
1.671825869131223496e-01
3.545356914929124748e-01
-5.345709830851050892e-01
3.078629220210743825e-02
-9.243275431718436796e-02
-2.391338876775820632e-01
-1.014145056450792282e-01
-5.680948445426938775e-01
5.480187153965320190e-01
-2.643209602285833681e-01
-3.206535872529469589e-01
1.068731727263914077e-01
1.480715550299902539e-01
-2.317934232097888791e-01
6.582522913511337226e-01
8.261999873654202187e-02
-1.292858219659780705e-01
1.079763846011790873e-01
3.619239585496071276e-01
2.196494570650290024e-01
-3.608052531069003699e-01
-2.346389081250358378e-03
-5.123361506069035176e-01
5.671200461681562555e-01
-1.428381080961749483e-01
6.303906261177892600e-02
-3.447434438418423702e-02
9.015825962221260537e-02
-9.482940465118853968e-02
2.305223515620047070e-01
9.419722205461612541e-01
2.682167346069609382e-01
3.102759152220566086e-02
1.426521573402061760e+00
6.475256363185501185e-02
-9.605863638633981016e-02
-1.496402348199302068e+00
1.951937694417559821e-01
-1.294835315320296276e-01
-2.399876534966929043e-01
6.425874958334357734e-01
-1.303377819834177220e-01
6.986623159985301534e-02
-1.924917656097510366e-01
-1.724115379265387382e-01
-3.092792138997028095e-01
-6.067982631772222274e-02
1.437931741181165679e-01
-3.575189908432818142e-01
2.056114293714569885e-01
1.751031505979834257e-01
-2.130459190403358460e-01
-1.850121841119042598e-01
1.108730228476198842e+00
3.944189372357199685e-01
3.346972071023776585e-01
-6.711145553861301849e-01
7.735705620506623352e-03
-2.054409535618241245e-01
2.014703471572906468e-01
1.044932468177436485e-01
-5.627448422459300353e-02
-3.985712939622378381e-01
2.966911019977307440e-01
-8.620122511557799794e-02
6.420012874103377121e-02
3.856395141683642280e-01
-2.056382767052872818e-01
-2.714206076236142517e-01
1.740101807948395141e-01
-1.169138237320750839e+00
-1.590501119628363325e-01
2.158636965937015262e-01
-8.681664726210416294e-01
7.906107363927041831e-01
1.254294968207840255e-01
7.073410583511165195e-02
1.230834204865326326e-01
2.301492657516456819e-01
6.372604221870228347e-01
-1.697583749827429878e-01
3.837219037412008538e-01
-3.886200223751610783e-01
1.157217159834601272e+00
-3.160947554830298989e-01
2.259413328250154396e-01
2.701411025492517770e-01
5.479424992771323444e-01
4.992358725894280314e-02
2.451533485386366562e-01
2.347894218045534498e-01
-2.383730842997753840e-01
1.554281638331330984e-01
5.881122799830765802e-01
-1.695192777300854881e-01
1.677941209711030224e-01
3.516857678940310539e-01
1.431958294871926718e-01
-1.763001339761583741e-01
-3.607178000347788238e-02
2.105994445269926685e-01
1.542547671633682504e-01
2.841678494651745934e-01
-1.151030525660426129e-01
2.565184012767301458e-01
3.937934390688049152e-02
8.164491269092219450e-02
-1.138168464985784278e-01
3.044221473304720704e-01
-3.040157860479257290e-01
1.300160250255028238e+00
2.318762274809301471e-01
-1.470219456703697747e-01
6.446045083107074802e-01
-5.309586257881766524e-01
-1.719233748217881830e-01
3.806549251963287084e-01
-1.574264840123699438e-01
-6.311864177634601836e-02
-1.116102054385391451e+00
-2.433061795228032710e-04
6.735344325842339275e-02
4.353938249234104996e-01
-9.775637117097155659e-01
1.323072532196306050e-01
1.923112762522029562e-01
-2.077835648421975101e-01
-2.517278530189490104e-01
-2.787284996801406289e-01
1.656325386900451280e-01
-3.825677485782908449e-01
-7.085941498354382528e-02
-1.590902052031697989e-01
2.044776230931100724e-01
-4.912180956440882068e-02
5.702400622113174694e-02
-7.426536519902130484e-01
3.291543931390514821e-01
2.764699844869331069e-01
8.298531202437554599e-01
5.888124657752755869e-02
-1.743615590936948290e-01
-4.758866485650539158e-01
7.827161397441884105e-01
-7.866199588010264546e-03
2.205317938408802303e-01
-2.722673403718573470e-01
2.633867140526591211e-01
-8.424443804866893482e-02
-1.228006087837685556e-01
7.408662790722526648e-01
-1.322533847758240386e-02
3.173013730391867071e-01
-3.651548408825388559e-01
-1.905532329086764842e-01
-3.581609705438317803e-01
2.192391102680369963e-01
4.058730521920930756e-01
-8.972336146466319828e-02
-5.957371446375644419e-01
-2.076421349251642012e-01
1.719232628516883035e-02
2.609047885928019173e-01
-4.012210514228293223e-01
5.211730014170957298e-02
-8.037733334255295348e-02
-4.824063823314514998e-01
1.459218923312352312e-01
7.437586439179479092e-02
3.513897320056467710e-01
2.238758945017934321e-01
3.729629689598477071e-01
-2.598183020464870374e-01
6.130362931443452540e-02
-1.574891734453396641e-01
-8.358368629888817125e-01
-4.584449408325032005e-01
-1.501567975304793912e-01
-3.721233044491303182e-02
-1.133546042662442854e+00
-2.862385024253669141e-01
1.599870364987745486e-01
3.113869162241280075e-01
7.179860107486617515e-01
-1.133664471925880102e-01
-3.554619097470905764e-01
2.889817261174081331e-01
1.572187957393032853e+00
-1.566958841282255488e-01
1.013015870923387740e-01
-3.193405377700708203e-01
-1.127904964975014468e-01
-1.657000555040301637e-01
-7.074707939652939703e-02
-3.598278700918404738e-01
2.415102878728739022e-01
-2.684270874115294303e-01
5.984411428330235760e-02
9.583795430611581623e-02
-6.627665267764501489e-02
-2.395708697463795611e-01
3.489708763606293174e-02
-2.384989899110030731e-01
5.068704241063968219e-01
5.488282640651044320e-01
-1.143934098672407945e-01
2.966988441413307975e-01
2.389113204170626170e-01
-5.226874146170473745e-01
-1.486858636220861063e-01
-3.571882713314666336e-01
8.006371624864169201e-01
-3.200905124949675051e-01
-1.926860409334948607e-02
9.970098899567321482e-02
-2.274211460973723786e-01
-1.761307813082661489e-01
7.327436331034313521e-02
1.399145998152532544e-01
-4.637037112650500836e-02
-3.613020196750465485e-01
2.111027961338715897e-01
2.104577384843247800e-01
1.739826914656590617e-01
2.528314989575314309e-01
1.536701250162907095e-01
3.246440835739199393e-01
-9.794097874322006680e-02
9.263927477931502286e-02
9.002956687352564602e-02
-3.606032683201162992e-01
-6.888136892144748336e-01
1.008882502518968494e+00
-7.130554600244591867e-01
3.646399964836880697e-02
4.777473447169686693e-01
-1.886140413851860043e-01
-1.423446057017906108e-01
-1.389032292459986551e-01
3.763172266155763723e-01
-5.114108491605811047e-01
1.575293149075202709e-02
2.584866426668836481e-01
2.784747618516776324e-01
-1.795264954788769740e-01
-2.017002584872606419e-01
-3.118587827674116908e-01
-3.911856578415960906e-01
-6.107111643493315367e-02
-2.367926487168081975e-02
-2.500490120067905830e-01
-5.648634606879885389e-01
-1.147408849992341204e-02
-1.782587609014568142e-01
3.171886679546685479e-03
2.517951329971749794e-02
-4.679767239403793133e-01
-3.682352130867083129e-01
-5.895246060290159837e-03
-2.737869764874126255e-01
6.265204715977548688e-02
1.094900399373834599e-01
1.180663642117745216e-01
3.092045210340588213e-01
1.933263021565402862e-01
-1.459368051126736510e-01
-1.451254297267032534e-01
-5.701070450014449759e-02
-3.078485056080813576e-01
-4.932085825355880110e-02
-2.353979805814754994e-02
2.527338351289304952e-01
4.424120346787614455e-01
-3.252805842522789037e-01
2.352700545279097499e-01
-2.030151224371826713e-01
3.399820678195993318e-01
4.539233873994015789e-01
1.580568560882622819e-01
-8.281102171143061019e-01
-3.514601726371811147e-02
-2.444882667941099819e-01
-2.283896366202065875e-01
-2.700759144118673460e-01
-1.771871329827318098e-02
-8.740956436007253638e-02
3.340427360801287993e-01
-6.293547630576418195e-02
-5.173992579289846683e-01
6.840955760345807102e-01
-4.967333537888538597e-01
-1.135833600236279217e+00
1.045062305637932676e+00
-9.545426326403193551e-01
-1.936450286331079657e-02
4.204757693015298559e-02
-8.526445828146983485e-01
-3.395406524667554105e-01
-1.946143603351198903e-01
8.364771703943935099e-01
-4.374463691051904690e-01
-2.631626717157308989e-02
1.302914540323581449e-01
-1.795833728640353344e-01
-6.592257427345554754e-02
-1.001190146489197852e-01
-7.342663059966066941e-01
-2.466861404736217789e-01
-7.433344899971335018e-02
-9.440222734130278986e-03
3.147713737717982574e-01
2.365482608693227629e-01
-1.776394317396233213e-01
9.618537313277163159e-02
2.142141612239980009e-01
4.107266539328324750e-02
-3.705488588837944214e-02
-3.508416254462107808e-01
1.746581861533180735e-01
-5.530767490147573545e-02
-2.164147292390589672e-01
-7.800901032033563665e-02
-1.663978862100992384e-01
-4.646402990649461939e-01
2.169572171234630809e-01
-1.489593631491794396e-03
-1.416652679741359222e-01
-2.392961556102493892e-01
2.377092027604602309e-01
1.422441197863565931e-01
1.010024841954359626e-01
3.417002142551445187e-01
-1.727573283378350533e-01
1.249115279061000922e-01
6.012686274719376556e-01
1.032008160061752694e-01
2.603969164449283502e-01
-2.404127101985050474e-01
5.146963363842836647e-02
-2.000836600197460936e-03
1.023007593576455571e-01
3.958435279067817336e-01
2.488712995686937490e-01
1.367671323059994892e-01
-1.898233519878196884e-01
1.966384283234862695e-01
-4.514926045068882177e-01
3.686832731272851049e-01
-2.468104538368914858e-01
2.947207433184053094e-01
-2.428671171344957136e-01
-5.909141531035645434e-01
3.769747228764230851e-01
-4.391811833590935632e-01
-1.054321079426369989e+00
-3.542439095580716679e-01
-4.266783322401587752e-01
-5.244067249763664229e-01
-6.159192349459693787e-03
-2.191875830751515708e-01
-1.237703535579298963e-01
-3.107408199744353117e-01
-2.597169625236345203e-01
6.754577703272476308e-01
-3.334739299768981757e-01
6.858085243075370818e-02
7.452478785725183963e-01
3.682800665967839171e-01
-4.257412313598990528e-02
7.649069286127826994e-02
1.788288736522334332e-01
5.039108519409057907e-01
-4.328781526378234767e-01
7.516830652117381661e-02
6.152737491661673941e-01
1.440462529773291755e-01
5.646695626005052704e-01
5.296259638248719259e-01
6.375631144278598450e-02
-2.829618179276672807e-01
2.603015740926499233e-01
4.248371972041986022e-01
-8.305801782465942196e-02
-4.009224953190707597e-01
2.982132537832947114e-02
-1.729194676709910061e-01
2.046882940849640564e-01
-3.356195424717079573e-02
-2.336271491363956787e-01
1.589856466138100943e-01
9.396315794793659582e-02
-2.382240256495969377e-01
4.850948854668527682e-02
1.581401745183406158e-03
2.438443462642421733e-01
1.081355623474887784e-01
-2.748621985323232986e-01
-2.678735697962855711e-01
1.212943631853309057e-01
7.281178861320915241e-02
-1.913300011317363714e-01
-4.500106566175463563e-01
-3.514862251852945985e-01
-2.465002879792672907e-01
-1.379852268235389479e-01
1.226168115222842081e-01
6.457832826903933121e-01
-1.382788035899475965e-01
4.362138770819229405e-02
-6.217048768168441375e-02
3.641062042446871483e-01
1.071769327544265904e+00
-2.622137045640655639e-01
-2.310692798381623336e-01
5.095503579732093558e-01
2.512290955332781572e-01
6.456287833439445789e-01
4.596459946139291874e-01
-3.449127141336658098e-01
1.866686558480896152e-01
4.777078872915371810e-01
1.514852925136734099e-02
1.145452074515148633e-01
-1.180320757543626836e-01
-4.017471151282041020e-01
3.798293027719300552e-01
-6.879131828996790099e-02
4.390850671279519224e-01
4.085045848582635059e-02
-1.016992417539024501e-01
-1.254974226234751578e-01
2.431638958567900952e-02
-3.041983071733654967e-02
-1.307549528701044683e-01
3.296470758661662614e-01
1.904920190726214768e-01
-1.208544789295140087e-01
2.442036891032523527e-01
3.823182535399822363e-02
2.979097325759497705e-01
1.691330567717540256e-01
-1.445543479458478442e-01
3.787424390775645522e-01
-3.369000567868014051e-01
1.710536001930118913e-02
-2.462556879079304817e-01
-3.156407555002338494e-01
9.442200449060161871e-02
-9.616905713677964193e-03
3.076507302558986398e-02
-1.313042026831708620e-01
-3.242282445065837182e-01
-2.516226500820951117e-01
-2.437896789522450147e-01
-1.625634862885410037e-01
2.917503607103381080e-01
-3.873051994418459376e-01
-4.418961012376949188e-02
-2.849567047411334930e-01
-4.658204306711876130e-01
7.197645766635593634e-02
1.465441915808988471e-01
-3.378986862728254881e-01
1.776126437058597463e-01
8.974009452460976477e-02
-2.729717000940597993e-01
-1.216058135615533664e-01
1.784043361630942570e-01
-3.892575802726799261e-01
-4.787727982871760601e-01
-1.966933147905448598e-01
-4.966033074481819055e-03
2.690273844185734342e-01
2.449947464033286337e-02
-1.110848081589089487e-01
-2.444694263803183498e-01
-3.976977816018902323e-01
-3.005922600988335525e-01
1.812394843020781743e-01
-1.650291425466795248e-01
-2.725336133926419269e-01
3.044083120556905289e-02
-1.570100857543057227e-01
-5.843877901197678248e-01
-1.138650980216906750e-01
2.637586625096615678e-01
2.337970590965029183e-01
-4.883055951386561788e-01
2.625762555784300067e-01
-3.164077381002634581e-01
5.821574580869087745e-01
5.153269035917967811e-01
-3.159207491828475711e-01
4.680449835960313054e-01
-2.126194038224827818e-02
-1.475245472540535341e-01
3.474447147196366159e-01
3.574312318897240326e-01
-5.920256846146568774e-01
-4.574421213911563644e-01
2.596104226380156477e-01
6.653165610484368386e-01
-1.396137073886918600e-01
-3.452549577799619573e-01
1.159074349076696236e-01
-1.032138045564116452e-01
-2.798106420056246935e-02
1.700611969040077276e-01
-2.804461028612196816e-01
3.590643962439279413e-01
-4.180435369953126590e-01
-1.049512868350142902e+00
6.477741237125582696e-01
-1.567355067706475702e-01
5.667879804772211344e-02
1.293095518424162149e-01
1.759668995825902915e-01
-3.085541273414411090e-01
-1.288141011751852416e-01
3.833871867074390982e-01
2.465200895710709453e-02
-1.272633449737602118e-01
-1.405398307262499813e-01
2.105390684537218060e-01
1.677828085157681282e-01
-5.620988030655595935e-01
4.641512972092093348e-01
1.535156083114742886e-02
4.491627327782522772e-02
-2.237446989394591568e-03
2.140374681193152329e-01
5.138716300304125850e-01
-1.950017570117745097e-02
2.884573078036187788e-01
3.245276765860781176e-01
-6.630449354970149867e-02
-2.420498438673692188e-01
6.876799382271471528e-02
1.165554366304403650e-01
1.710248954254007803e-01
-1.676122740405433520e-01
3.557752726586873027e-01
-4.670233167278868280e-01
-7.884326923410641882e-03
-1.952335938033155360e-01
1.771790236100462546e-01
-2.398868312454864940e-02
2.079279350773144686e-01
-1.757983701749682159e-01
3.333195764369802777e-02
1.209455814890095654e-01
1.802438567129018843e-01
-6.473491393407476702e-02
-2.951890054098962879e-01
4.200993637462380192e-01
-2.292508468482294393e-01
8.335662046191228552e-03
9.359440850480602037e-02
-5.722568068554441112e-01
8.961394577129543071e-02
2.198810832214520283e-01
6.540140867158369953e-02
4.053330186800945256e-01
-3.337673509466634325e-01
-1.166789874248116976e-01
3.168852125951404641e-01
-4.211444320398772811e-01
-6.276011921551587214e-02
1.383906498080846384e-02
-7.734616725145114502e-02
-1.709555333791794862e-01
-4.128134502771000913e-01
9.796651485677318472e-02
1.508951838989208150e-01
-4.815727652609709808e-01
7.345789221498576216e-02
-3.827232622450238431e-02
-2.822194260111657860e-01
-3.580211241501810027e-01
5.442177423539483472e-02
5.134545166650928555e-02
2.340381496957023300e-01
-6.049540768644737776e-01
2.832198795069151842e-01
6.957096892642028463e-02
6.790924073047951981e-02
5.523240908483384448e-01
-2.479173653876661498e-01
-2.782616148760051478e-01
2.666372114747563304e-01
-6.477826644152852031e-01
-6.947894606053888200e-01
-6.237248209343823017e-04
1.111652654845746158e-01
-3.367171947787213626e-01
-3.560397171885504863e-01
-7.300500334834894578e-02
1.102842903030725880e-01
-7.507418046284451696e-02
-1.794487113820496527e-01
-6.422815492147203598e-01
-1.186598907923439139e+00
-5.139071698512621966e-02
2.624476416591268180e-01
-2.062810236461628741e-02
-1.243268284420681082e-02
3.167957268575134488e-01
-6.615342603937339749e-01
-3.189526017578713235e-01
-5.630274725507644629e-01
7.552547788658471595e-02
2.199156481681507347e-01
-8.719809762542721221e-02
9.582642219356994617e-02
-4.526617986091384105e-01
6.277654951669155159e-02
-3.692253504480645654e-02
1.344403026716117222e-01
-2.349079360451234999e-01
-3.547732998659787751e-01
1.952985499013497328e-01
2.633328659769244018e-01
-2.248490926452395289e-01
1.170367135415433385e-01
-3.802779370166099460e-01
1.489756623480210929e-01
6.845193796938131570e-02
-1.964274218052514953e-01
1.898879224732446247e-01
1.297873676567879164e-01
4.318924181185980204e-01
8.494946975548299528e-02
-1.098824517495114667e-03
-2.448833910261017932e-01
2.187373585693813335e-02
-4.124700493837323845e-01
-3.416817585794951206e-01
-1.861652089883178984e-01
-6.753194068863074273e-01
3.688075370982787371e-01
3.241936607344619858e-01
-2.214969199092199081e-01
9.786131290115783476e-02
2.481420538429106870e-01
-8.702603324396535056e-02
-5.983045400178512718e-01
-4.892392874842136918e-01
-2.193772090984539291e-01
-2.030882076974573902e-01
-6.830352654774208832e-01
-2.295973612991877022e-01
1.937481955028417246e-01
-9.847838043285139786e-02
-1.960770559243634192e-01
2.301178675978567956e-01
2.814384403507335097e-01
1.992336455230398762e-01
1.951558093588955101e-01
1.532447424089445620e-01
2.373611174001079571e-01
-1.613319383921665851e-01
-9.543933575870847119e-02
-3.388220587828902897e-01
3.027741135004609618e-01
-1.961657991293306313e-01
1.728102962970562775e-02
2.322615431107764583e-01
4.569800117703534670e-01
-9.891180715258434120e-01
-8.980765304676532335e-01
-1.052018649071778389e-01
1.122229061058907379e-01
-1.365696866111885677e-01
5.949671517382285613e-01
-3.749761829788034184e-01
4.059950436709979238e-01
-8.270883334826948860e-03
1.526443934130036206e-01
9.807400514409561065e-01
-1.567138637793936140e-01
-2.036263073749954022e-02
7.866793767246732516e-02
-1.777340414325976337e-01
-2.210812841313120891e-01
-6.917439976193898721e-01
1.880658522135885691e-01
-1.451157143379221970e-01
7.565227512716251601e-01
6.880670298279296659e-01
1.135035459111352951e+00
3.341562487033591378e-01
-3.350159521213733060e-02
-2.529367285841214175e-01
-1.654779551421315387e-01
-6.876045197464986103e-02
-3.256153072364100232e-01
-7.955362430068944057e-01
-2.181339003844706137e-01
-4.218728372134640248e-01
-1.468189647664004949e-01
2.744865674350716045e-01
-1.493261489008466669e-01
-2.057116776594324903e-01
1.939270464974262587e-01
6.019323964681452255e-01
-7.948216588024041851e-01
-4.362516493055482725e-01
-3.894780931999735629e-01
2.040241473827056340e-01
-1.084983332382649213e+00
2.793603131807150253e-01
-2.091941798618510429e-01
2.717281448262373056e-01
5.216449346694795007e-03
6.003823846415934362e-02
4.736442839796444759e-01
-1.969907133996376958e-01
-3.333041353738028234e-01
2.106086103568830803e-01
-3.287196574421828998e-01
5.068068399704191845e-03
2.142497489757043405e-01
3.010247615052834280e-02
-1.732494182537233640e-01
1.778763129454671299e-01
2.119903955119950278e-01
-2.877269549952236605e-01
-3.130662774443515595e-01
-7.648226380941658409e-02
-1.285471349890597581e-01
-2.803761056600524437e-01
5.398108345533796093e-02
2.538730202361659805e-01
-2.003832531073171663e-01
6.118771256539556197e-02
1.861985595718063657e-01
-2.051963432651012498e-01
5.177421813033928483e-02
2.643100372541350440e-01
-1.528666471524709747e-01
-4.219142807993068317e-02
5.981499300435295929e-02
-2.682256992093648429e-01
1.017796016529562142e-01
-5.897498722673615301e-01
1.659492538303138087e-01
-6.668557348126649131e-01
7.704461438291647646e-01
9.283073039230360646e-02
-1.923064803883051677e-01
-1.367954425832481891e-01
-2.883454125336083473e-01
3.685701102184867906e-01
-2.929756952523491775e-01
-1.885349963569936393e-01
-4.412080702013361500e-02
-2.015549139065034301e-01
-2.195123320372758813e-01
5.541799935249226011e-02
-7.539643763591957759e-01
2.161670465444542888e-01
2.832905864325173662e-01
2.884301033848258311e-01
2.872516908013068582e-01
-5.403082450417860949e-01
1.276678990490771326e-01
2.366940017309129285e-01
4.146897690834134287e-01
1.953396682100773038e-02
-7.525103962814972958e-01
-7.677487981171752240e-01
-1.470614215046776307e-01
-1.639682331554666583e-01
1.636865345325764498e-01
2.582954002462948262e-01
5.430687805730540774e-01
2.926744731837949698e-01
3.159630381306613445e-01
6.788314796950990493e-01
-4.583058694091610152e-02
4.266766251445800601e-02
1.607929794399969026e-01
2.369489798648656553e-01
3.706006965036286183e-02
-3.694101587761776107e-01
3.802365538397076139e-01
-3.267797210298513666e-01
3.435901627258767244e-01
-1.138834266016663654e-01
-4.995632112594624585e-01
-2.340009024383331859e-01
1.017976653019340427e-01
-6.936956273617309043e-02
1.750136184485082125e-01
2.987416217038769140e-01
1.191038097978008165e-01
1.517049550228235198e-02
-2.193031117308823566e-02
6.909073813275102838e-01
5.928824526942742985e-03
-2.817237652947045534e-01
3.389789870217158052e-01
-2.241531430708245398e-01
2.545701692021088425e-01
-3.180692878586549588e-01
6.262211093956816521e-01
-3.248445474422582968e-02
7.520886265979459528e-01
-2.575256353299373302e-01
1.366239154983965864e-01
4.634410517774140148e-02
3.728809012555424074e-01
2.252829262687013889e-01
6.049166862517670884e-01
4.031844405040221901e-01
3.884357747154579266e-01
2.537851553346524569e-01
2.778446626687199328e-01
2.389886668916628085e-02
9.864018603916236902e-03
4.252658625098459377e-01
2.242014296006617780e-01
-8.385735672751006009e-03
1.046450439523036180e-01
-1.542072029524159671e-01
1.621976799188950269e-01
-8.581715372997342217e-02
-1.293082581153978117e-01
7.627988905872232217e-02
7.708781653867504691e-01
3.084616782463208556e-02
3.547918365576906430e-01
-3.380733145699949538e-01
-6.054506162476432918e-01
2.456221518712615737e-01
-4.193883371084564660e-01
-1.483545722316371718e-01
-2.786073010126294269e-01
-5.226227193626213907e-01
5.662086325309896306e-01
1.245889004518748455e-01
4.819172138806385175e-02
-3.546493217169492396e-01
8.016812403053361069e-02
7.787470182743246039e-02
-4.732316533396560554e-01
3.074768946367916270e-02
-5.805572097276079369e-01
-3.957150575645662638e-01
-7.537740457062402921e-01
-4.261268396796955016e-01
3.230415159336633146e-01
1.467463715743237973e-01
1.617847206134972737e-01
-3.492064692407362836e-01
4.271077010623098857e-01
-9.311963580483831326e-02
4.373125488725199128e-01
3.392683046444696093e-01
-2.838069372486314856e-01
2.734307613937497217e-01
3.534135060701904529e-01
2.386653710707953846e-01
-1.192925528860803858e-01
-8.510038566183994804e-03
2.786464118299216697e-01
8.845545786411435074e-02
6.490846804421936955e-01
-1.510636881192038150e-01
-1.215038449863341807e-01
-4.369893540876795268e-01
5.176642341856088625e-02
5.083788191652593991e-01
-1.914466379108936134e-01
1.793295981092602465e-01
3.185685840378823519e-01
2.690731340417060746e-01
3.846844696592684187e-02
-2.531076913673304674e-01
-6.740120853310270777e-01
-4.666777475186263402e-01
1.890193827218832334e-01
-2.093222873871134759e-01
-6.488553545472048878e-01
-4.236717625999062986e-01
-3.988628575968436452e-01
-2.474984927090187470e-01
5.179375960687526703e-02
-2.980807553381574770e-01
4.622563996391901298e-01
2.648682237560587294e-01
-1.342537480697265639e-01
8.120125451690843321e-02
-9.828342925689895725e-04
3.636402707437095816e-01
1.044093084655888654e-02
6.202070709142958049e-02
5.153430062945196788e-01
-1.394014117450318446e-01
4.415565108367090069e-02
5.156915242704079860e-02
-6.663798359745982426e-03
-4.233205204199309568e-01
4.975051418761047284e-01
-1.132569301982847138e-01
-1.748838978040412051e-01
1.455422316055308973e-01
1.505683806442424111e-01
2.772923897865176568e-01
-2.161029014964837083e-02
5.998767231535063749e-01
2.374617594312183194e-02
-1.034413383260259500e-01
3.007800337259328161e-02
-1.473189989240822062e-01
-3.949335061583856277e-01
-4.477673315392166620e-01
-3.852419492443124871e-01
-5.116606235942615655e-01
6.198507239237260880e-01
1.501082151300097423e-01
-3.131690515592857604e-01
-1.244499642179762305e-01
-1.041006711922517342e-01
2.919882945613289094e-01
-3.245555755647209217e-01
4.118369065759761721e-02
-1.040148559136426565e+00
2.047868557517846799e-01
2.137895541337790084e-01
-1.190893959465525731e-01
-4.705691912170771596e-02
4.608761419366202428e-01
2.631753977250368970e-01
-2.299889510505411308e-02
3.623665562546987129e-01
3.983802974856486268e-01
3.136595972854986925e-01
9.101914711604955355e-02
-4.251221046795102265e-01
2.749594436050973312e-01
3.937522098737606391e-01
4.040617307406618730e-01
-4.958369630995497837e-03
-1.580152537725758866e-01
1.218984870900000211e-01
-4.777175891235103944e-02
2.590652905318551191e-01
-1.851109955580404198e-01
-8.383600073123785579e-02
1.694653743773296209e-02
2.241361218588370507e-01
1.260178552638733518e-01
1.563379803201647433e-01
-4.085730467705624841e-02
4.166259100476079058e-01
5.660692898465635725e-02
-2.896508954756347731e-01
4.940862095996694237e-01
1.452598798049070383e-01
-2.157718101847868608e-01
-1.566587744960565576e-01
-1.276843845291576185e-01
-3.852497854209144812e-01
1.048248037336263205e-01
-1.327811446702640563e-01
2.941484974751773507e-01
5.946374442020858214e-02
4.811534159482361295e-02
-3.797970509566744868e-01
1.493310343100500218e-02
-1.388219494082005082e-02
-5.839757486567265232e-01
4.338441694925699310e-01
9.788267173519754616e-02
-1.236705671563697179e-01
-1.633756470040426123e-01
-3.907277408348929226e-01
-5.689527413040078307e-02
5.994251753403326832e-01
-1.111401645370192759e-01
-3.747100219038773834e-03
-6.936250028544037327e-02
-1.961020735555535910e-01
4.813897603707222722e-02
5.257106139600499495e-02
-3.008114382207665027e-01
-2.680705844130381044e-01
-1.586542131503028141e-01
-7.632225036296846898e-01
-6.541019416800851471e-02
4.071223383110714744e-01
3.112039461864661224e-02
-1.858302440227324881e-01
1.188742706456941689e-01
-8.704343650827790768e-03
-4.887580534832406953e-01
-1.828747041955509521e-03
-3.491441636502178314e-01
1.528875207752638243e-01
1.711450113746624258e-01
-3.831794996691437194e-01
3.056765599008003792e-02
-3.353514793630805180e-01
5.112929660162740531e-01
-3.759396546480368029e-01
-2.027739686647288611e-02
5.309133872997345155e-02
3.514333917305353938e-01
1.034778369341125437e+00
-3.467272862855851900e-01
1.761685483440551814e-01
-3.660615660612245303e-01
6.678684469737383722e-01
4.290499152833086166e-02
-9.635676083318537102e-03
1.894554482319365796e-01
-1.030786653191449395e-02
-2.449765164045136431e-02
2.963590531256808380e-01
1.190092115804398942e-01
-7.877771048232340423e-02
3.637969688996258721e-01
5.668809349629995165e-01
1.881411265061828583e-02
4.435969797550440297e-01
4.009204022952779778e-01
7.924346540791149529e-02
6.526041291865806171e-01
7.065127190594025497e-02
-2.676010868656653052e-01
-2.653736507182639648e-01
-6.003459449236530077e-01
1.832910657155160938e-01
-1.124483602616236505e-01
-6.509609884869549563e-03
4.186565617255087468e-01
1.308824588084154250e-01
-6.779616640071241263e-02
-1.697257614110032897e-01
-1.157122598021143589e-01
-2.540212658456162398e-01
5.006646906806968070e-03
-2.980650336606545103e-01
3.703944183287268682e-02
-1.761281696728964896e-01
5.916038826300924480e-01
-1.804580522835832201e-01
6.038458635022930787e-01
1.081139739482310097e-01
1.351617456368300607e-01
-4.451617971138345786e-01
-6.424929853364383936e-01
7.361522667416373587e-03
4.631486203829958681e-01
-1.176035707343701525e-01
-7.346988470902117152e-01
3.598880988827155014e-01
1.025526197536405393e+00
2.775000772712597485e-01
-5.324023739141628964e-01
-9.284054249845867801e-01
6.426664197227355269e-01
1.329873443796192323e-01
2.657068128414903918e-01
6.442467026650957607e-01
-6.608278646421630320e-01
1.551369500343249656e-02
3.679788117361026401e-01
-1.535690833409846523e-01
-3.119706575992611808e-01
-8.131400303188648926e-02
-2.499468606079102428e-01
3.491410045304459420e-01
8.534822159075730608e-02
-1.252899032036202676e-01
2.851807937721725916e-01
-2.412834013870920197e-02
6.341381636865186557e-03
3.687635202485804453e-01
1.309401964319996670e-01
-3.264140543568305186e-01
-4.904285816459694747e-01
1.003059980994672057e-01
2.678286700827383626e-01
-1.159121437034635847e-02
2.942615781247177043e-01
1.493109164137979838e-01
-1.146193307885703394e-01
5.413681435468158110e-02
2.417693166831007268e-01
1.346159420668846252e-01
1.263873755459945236e-01
-1.592652844210292254e-02
3.918257742337293292e-01
6.483310390555218315e-03
1.956063963632426184e-01
3.625700091100312467e-02
5.243377440375608378e-01
-1.465237309612916483e-01
-2.526261917937190349e-01
4.092007562386794639e-01
2.931035545120954100e-01
-2.764107759136306686e-01
6.582429104134000786e-02
1.569438392655043146e-01
-6.230959009398014947e-01
2.570557473443766949e-01
-3.049299050498919250e-01
3.761014442987473810e-02
-2.365701290530042578e-01
1.857544881357418506e-02
4.880051081927948009e-01
4.556412103527515134e-01
-6.215765596162411422e-01
3.222363002576594804e-01
2.167734028086175657e-01
-3.381447589415143007e-01
-3.125864894372567537e-01
7.148500779071103109e-03
3.518625862371224655e-01
5.652880406519573686e-01
-3.551581591089427170e-01
2.959735817624801757e-01
-6.380625030272213394e-02
4.216004009370817318e-01
2.876721591111439658e-01
9.154153149716538762e-02
2.048418045591454129e-01
3.264594631980798356e-01
-4.140753124033037108e-02
3.072067523027274816e-02
-4.283444036954465184e-01
4.169822272201014757e-01
-7.699344734377730481e-02
5.806827457329506448e-01
4.795875949612628947e-02
-2.207592465688786865e-01
7.647754760926889737e-03
3.560676437231847236e-01
2.819998177474383194e-01
4.252877801982758027e-02
-1.351691107868185637e-01
-2.692198838041629516e-01
-2.140688198503922779e-01
-4.143805933898540017e-01
-5.515291503795873365e-03
3.394293172731719932e-01
-1.559078554118405735e-01
3.362141855401514223e-01
6.375644502725176521e-02
3.071155975068988186e-01
-1.144010374088200999e-01
-6.517169851869596131e-02
-2.308229951368319377e-01
3.435271245644155869e-02
7.638224773171445325e-02
-4.054010432282833531e-01
5.772939448414950991e-01
-1.576779237965208469e-01
5.628712686142681859e-02
2.754082241687582089e-01
-5.009098512430851941e-02
6.536767625078110378e-02
-2.427590748386573571e-01
2.790983101391633081e-01
2.185879202612750136e-02
-6.336193843836640527e-02
1.710858620860158386e-01
2.466497106505738390e-01
8.606417734893245797e-02
1.906727570392035276e-01
3.760439289500548399e-01
4.272907239291457993e-01
-6.580842677495173376e-01
3.400773495378378586e-01
1.822898559301336097e-01
-2.971723732335427859e-01
-2.607519336896532147e-01
8.246187841615477965e-02
3.082189050785078543e-01
-2.432550565790386754e-01
-2.568010834483293314e-02
1.522151266625791644e-01
-2.090993088029241276e-01
-7.900638130152756386e-03
-4.611450668089495664e-01
-1.083329106080698490e-01
2.205921265278747167e-04
3.665593351654649473e-02
-3.976233756784212647e-01
7.452469003514465562e-02
2.893578725524955098e-01
-3.151597661283693230e-01
-1.687833598041308392e-01
-2.026649384020205169e-01
-1.662978368807266072e-01
-1.457841413237505879e-01
2.477052997610983964e-01
2.390352944207337071e-01
1.859777212016318071e-01
-2.323273686220088119e-01
-1.268085063703241477e-01
7.967461131685975306e-02
3.499973439726238034e-02
4.423314733805683296e-02
-5.723782211121680730e-02
-6.609849083656403612e-02
-1.699676031719150326e-01
-8.281015179492946798e-02
9.255399227860758998e-03
9.999667435069425903e-02
2.215644541134546286e-01
-3.481805933719256396e-02
-3.312878506886848904e-03
-9.800068958600796631e-02
1.344100780458741262e-01
-1.912116096247474251e-01
7.290438975538564292e-02
-1.001322912842819990e-01
5.344206487318108045e-02
1.139177021378517951e-02
5.957236911626181963e-02
4.924726659234869852e-01
4.120682914949933551e-01
1.743532035761297394e-01
3.738434222057707701e-01
-1.913482440478671623e-02
3.336888933118340936e-03
4.497426934691312606e-01
4.325727368217868185e-01
4.824893642792252857e-01
5.162717598008638165e-01
1.204016564071634710e+00
-6.504578813270003312e-01
9.828746348436963043e-01
-2.825566688714734043e-01
5.097365022157024361e-02
-2.199330817629097656e-01
4.796570504967938575e-01
1.550673939388708122e-01
6.423061044866287816e-02
4.638722488040034064e-01
6.594628729096113640e-01
2.215488129554901153e-01
-8.517340128793893239e-02
-2.053403410640827209e-01
9.782123342375285968e-02
-9.757256845489128971e-03
3.322961627500577442e-01
8.697775783041353584e-03
1.904180636163067472e-02
-6.531581173662380502e-02
2.939052330356848319e-01
-1.905832922462261658e-01
3.608242538555718748e-01
-1.816008741857612629e-01
-4.005658630568024320e-02
5.590667780011305821e-01
-7.584017001465206964e-02
1.125138460605463742e-01
-2.634885369035180336e-01
2.650119264656873308e-01
2.319511206414719695e-01
-2.047732426169661668e-01
-2.349717301308712480e-02
-6.674438794993948765e-01
8.963106831405459607e-02
3.752502629489281039e-01
4.909270241997238521e-02
-2.475528536433765636e-01
1.015267631061516351e-01
-7.915447614560795764e-02
-1.175298788640754266e-01
4.185282042905848904e-02
4.869882021127484167e-03
1.486241901440955859e-01
-1.475362108978585662e-01
3.213232683970891901e-01
-5.830965859073983237e-02
2.297976682349659738e-01
-1.929808555059273623e-01
-1.214234092624756206e-01
-1.110248188203472736e-01
-8.829991353084407080e-02
7.605057828955946730e-02
4.629311030685286793e-02
1.321564927411142121e-01
-2.574476620960332307e-02
1.024259690774684262e-01
2.968665146106733710e-01
4.100278929101677239e-01
2.115741932359000155e-01
3.924769526911901507e-01
-5.653419817863526431e-01
-5.735113168845184378e-02
5.830039904766564085e-01
-2.183252187495002966e-02
3.902115642278675134e-02
2.139460097686868845e-01
-1.656894999555847126e-01
5.473139778180453191e-02
-2.867647102643331447e-01
2.496599956728356995e-01
-7.493728061100929372e-02
-2.656529746723012425e-02
2.089389471484562055e-01
1.368449239948196505e-01
-4.857498850976674221e-01
-3.689865643251821203e-01
-5.442340496824425722e-03
2.235531576484042077e-02
1.502008179337457894e-01
1.502423190471288417e-01
2.593438064861682824e-01
-1.353217314337578914e-01
1.777931966156151289e-01
1.044803542630066001e-01
-5.790565957386607093e-02
2.772342647093885004e-01
-1.182632654851538678e-01
2.070400425888869675e-02
-3.062927383548337823e-01
1.074029933079848065e-01
1.096281912047410573e-01
-5.123237331731582689e-01
7.998785632407177104e-01
4.323127723756213792e-01
-3.701057615579643745e-01
2.592724799695508286e-01
-9.935091942518697872e-02
1.166127609022422490e-01
-2.250129658301596447e-01
8.804859050100577456e-02
-6.938771607238237993e-02
1.229518477167789448e-01
-5.267581712673945482e-01
3.405624339285674984e-01
3.221553931242839286e-01
3.766278960766871742e-01
-3.603985077502749323e-01
-3.520844423527992595e-02
-9.119476953668755048e-02
1.858521535060926599e-01
-1.825191496079940912e-01
2.222908675300878101e-01
1.277194870310466857e-01
4.150265277526149488e-01
4.564230052639746578e-03
-1.275016893168509635e-01
-1.637069582662623035e-02
-4.555036186052303093e-01
-2.538554045863577469e-01
-3.565003423127539040e-01
4.612599581581484087e-01
-5.213335731763554248e-01
1.619958778114801434e-01
-2.897982821168552658e-01
6.010368202185397690e-01
-2.821976441395352420e-01
-4.194082669201260397e-03
-9.275475551194137247e-03
-4.970268924369829200e-02
-1.168013587772245010e-01
1.493145336917550692e-01
-1.993093541737601393e-01
-1.200400046379543556e-03
8.472218916558683921e-02
-2.479192407081471858e-02
-1.334371621787621698e-01
1.567904851264115829e-01
1.271803050623628306e-01
1.712272130733309417e-01
4.019609253049129527e-01
-6.947775647113276776e-01
6.348312547848894427e-01
-1.244773011413716490e-01
-3.981424183962919972e-01
9.910115151245428577e-02
-5.949429547687744985e-02
6.697807607682521036e-01
1.383933242542207676e-01
-4.344114383231850382e-03
3.644320757448041292e-01
3.735419614631934615e-01
-3.151512678141945578e-01
6.039687362416044092e-01
1.614381295256279159e-01
3.625607324906649203e-03
-2.484198573725879267e-01
-2.681472579379863275e-01
-2.967697472790849222e-02
4.222986675187383188e-02
-1.663722975671947657e-01
-9.671814777788001471e-03
2.858792077950542687e-01
4.286689692965529180e-02
-3.488858964610642988e-02
7.495926736849011229e-01
6.287262788807317093e-02
-8.044419361868263008e-02
4.063186690820026481e-01
-1.744407950671774121e-01
-3.918059937198780512e-02
-2.448711543959798953e-01
-4.325083697878875921e-01
-8.452015559986723880e-02
-3.831883039699486848e-01
-2.616104877282280361e-01
2.386156938254206938e-01
7.465176152685224498e-01
6.551368992804837976e-01
3.068498310738440593e-01
4.158221543492801042e-01
-4.948985995398899607e-01
-6.495697114490714408e-02
1.623047960050047478e-01
1.760843101207069938e-01
-4.744055908164474533e-01
3.107662834458529422e-01
6.459648593995985510e-02
5.236090927815606477e-01
1.600415529896003636e-02
4.945539211010407943e-01
2.893138176050123467e-01
3.280725486159526416e-01
-1.903078851624257495e-01
5.419306548430431053e-02
-2.007726581505635266e-01
-2.298936850772529961e-01
-2.292612150469500731e-01
1.240635990369724773e-01
-6.091710153217793078e-01
6.033860399309927125e-01
8.745833321418161610e-02
4.789269616197189827e-01
1.331761077378182112e-01
1.417982558334801857e-01
2.158840496882841187e-01
5.362298379549038652e-01
2.159776226055008796e-01
-1.386985003858807464e-01
2.111280701279020632e-03
3.993062174079685112e-01
-4.123330015393713785e-03
-3.764780320322593243e-01
3.709802051456153049e-01
3.253621593231989517e-01
-2.527257826818627984e-01
-2.947766094206204501e-01
1.836753131495899583e-01
-3.445944193096386193e-02
-2.453788771974330929e-01
-6.025053132471051148e-02
1.650164693240692149e-01
-1.216379034436929213e-01
5.371025902912222177e-02
-2.185257490824929483e-01
-3.758177049849481532e-01
-4.374314336220039984e-02
1.811473828000640940e-01
-2.513642036349796882e-01
-5.338032866068373461e-02
-9.545949455627152080e-02
2.047970290351027733e-01
-8.984274431568577135e-02
1.523168876762438784e-01
-1.805843922728168072e-01
-1.891943179024337951e-01
-3.994069059668710064e-01
2.784992086076103490e-01
-5.263636312571587927e-01
1.534264254165602914e-01
-1.439420089537680747e-01
-3.072502857636001394e-01
3.637380547803554381e-02
-1.804682033812412822e-01
1.695014059225062875e-01
2.304075706297499526e-02
1.360627085985433304e-01
4.285675547754730363e-02
-4.676521302733201990e-01
2.007095961808953999e-01
-3.944263751132897622e-01
-2.602967978698721430e-01
-2.583158915617110862e-01
3.177077370166648262e-01
-1.668519650037872957e-03
-2.645152430525078979e-01
-2.303012227518550226e-01
7.808210190930922612e-02
6.895815961565943120e-02
-7.775388938686426943e-02
-2.804075208371059613e-01
-1.459998796551219558e-01
2.939488764610253060e-02
1.039343695023392106e-01
1.049409246289979974e-01
-4.215468474557154677e-02
-3.349466250608758577e-01
1.453469934817452625e-01
-9.760263742925275043e-02
-9.602804107195836783e-03
-6.289459968068018825e-03
-1.581238184391940971e-01
-2.450469875083552962e-01
-3.618929968517951568e-01
1.562435875965686172e-01
-1.734555387745939370e-01
-4.824021746558562196e-01
4.517462391636160590e-01
-4.710233832856191571e-01
1.398126067798513283e-01
-1.586578834524548232e-01
-1.690726330674832412e-01
4.961000844229220275e-01
-1.468366316643636704e-01
6.173984497852306325e-02
-1.471892463258664685e-01
9.611094042774261104e-02
-7.247192174043809443e-02
-2.907756666424693437e-01
1.050619933791579474e-01
-3.851461050484897286e-01
-7.252639325903011136e-02
-6.220442770574391433e-01
9.120322910107942285e-03
5.846846162850750650e-01
9.185590036453500362e-01
-1.317726067174534721e-01
3.489552966779677513e-03
-1.635203872252811164e-01
3.762787212055759833e-02
-5.098679830413699321e-01
3.632754229103650756e-01
4.081914701186974970e-01
-4.545016736264650276e-02
1.492944541326878538e-01
-5.963679564675432587e-01
-4.337470298303897076e-02
6.721717333341044043e-01
-3.871851457762600646e-01
6.123810919255338048e-01
-7.779959618747949168e-01
-2.970762056900300707e-01
-7.184270396485862298e-01
1.420145485632084426e-01
9.099398753938366946e-01
8.518141772005060064e-01
-4.424013090332686859e-01
4.447641056432832252e-01
-1.042957165382817908e-01
1.986928120049318847e-01
-8.971485568184153214e-01
-1.022001610063379001e-01
2.063024175673760785e-01
-8.264815698880386696e-01
1.032210891718006174e-01
-4.480575062162105437e-01
-5.371897604024576944e-01
6.988228376293438293e-01
-4.938105041817980045e-01
-3.413430315912390628e-02
-5.017480413415154050e-01
-2.670796031542277404e-01
-4.937744495727494076e-01
3.148603868857691168e-01
2.162416584396175956e-01
-2.200667842678523112e-01
6.438002850741895156e-01
-6.095062045070169798e-01
3.465794760724077439e-01
-1.175303794288850012e-01
4.939129782668604807e-01
-3.414963445754964910e-01
-2.047345604140565767e-01
-2.250033351984086494e-01
1.111681207104366076e-01
1.358919152760750815e-01
2.733487679231145773e-01
-5.446036941374452489e-01
3.297810521576265419e-01
-6.386312872621150438e-01
4.523576343336735972e-01
3.377058454134338472e-01
2.441712656764367384e-01
1.672489332354659408e-01
-5.993559528970331396e-01
6.350143975998112644e-02
-1.488833993735988737e-01
3.586860699675413766e-01
-2.098354174742345091e-02
2.720979549557913102e-01
-4.912764515131318177e-01
5.333726416546303861e-01
2.611799302964223912e-01
1.170998057906072823e-02
5.748456260092013048e-01
-2.532466629494979360e-01
9.320378180518118505e-02
3.597294915780475111e-01
-2.577016998768277833e-01
3.799230994606566103e-01
-1.944468959417059994e-01
-5.063437949708839980e-01
-6.455799163145353736e-01
-3.889520238440955513e-01
3.821770036957066186e-01
-7.904687926319432789e-02
-6.735557387390121720e-02
-3.054874521257980868e-01
2.654420926925623592e-01
-3.216250034072621333e-01
5.411994904084174163e-01
-2.816789009266569277e-01
-1.992332798407119299e-01
-3.498221717301984168e-01
2.612389661624025528e-01
4.202719069008592490e-01
-8.946027772038826764e-02
-2.090939687142163717e-01
9.679415579770819789e-02
1.074940823907330825e-02
-1.646421142163963791e-01
4.324034036490898014e-03
1.354593519488346207e-02
-2.874641547614188719e-02
4.451988877159807068e-01
-1.098705416737715407e-01
8.226651964211266488e-02
-1.453946116425846036e-01
-1.215316765944118305e-01
-1.965976714971731931e-01
-2.308532051836016397e-01
8.600196437310445030e-02
2.012448882630816505e-01
6.522966794039043725e-02
-2.271021274281478652e-01
-1.722440172046510176e-01
-2.130280530897972480e-01
-1.372393666079213259e-01
2.320848453735703254e-01
1.537653698154019533e-01
5.334065320498672103e-01
3.412981563669136298e-01
1.270600095734377433e-01
-2.311157235610852498e-02
-2.569425386335205119e-01
-1.597862471106251125e-01
-9.647833015462795730e-03
-4.860455802136463554e-01
1.499842023521063827e-01
4.656630998370270280e-01
8.655054355335740912e-02
3.701524919587856899e-01
-3.348875208695896166e-01
-9.557390052530125024e-02
-1.755208234400192635e-01
-4.725042166590487369e-01
3.696103897617149942e-02
-8.626161864362325016e-02
3.425759416931039442e-02
-7.107584265164793025e-02
4.272291919886698208e-01
-1.324501543812081905e-01
4.130225545885710114e-01
1.185960304868489412e-01
-9.107042589842617719e-02
-4.585697740486998075e-01
-3.892256146243631282e-02
-1.795260339166042385e-02
-5.325597113748341549e-01
9.008832849842501878e-02
-1.706831752465427232e-01
1.515903895040935645e-01
3.210801399994758221e-01
2.426366072140096197e-01
3.327852619349300212e-01
-4.124624021210974156e-01
-8.229365910728604627e-02
-2.760888381977654182e-01
-7.313907989973633672e-02
1.420003035730331153e-01
2.041738343090234165e-01
-2.647336725883918107e-01
-1.146814779544860496e-01
-8.339428668113368914e-02
-3.533816463153214293e-01
1.613050734549119347e-01
-2.307842308592019387e-01
-9.090680014055879665e-02
-2.258422158639482591e-01
1.757627288423077028e-01
4.064272085288357372e-01
2.348723131525116969e-01
-1.656042703926645099e-01
1.531460971841858421e-01
8.008436309149459531e-02
-1.308762711223796504e-01
-5.762333224501921258e-02
2.972241104654072541e-01
1.154887828206279006e-02
1.095553693975004905e-01
-4.643948788271350936e-01
-1.856539345354254744e-01
-6.357797184299868176e-02
-6.935422398182744530e-02
-2.075916700590373365e-01
7.339597603929717273e-01
-1.895564520469747716e-01
2.831865344016841757e-01
-2.088598967487728664e-02
-2.808212152825479979e-01
-8.017767215430326999e-02
-4.486301055643745483e-01
2.581135554553123934e-02
-6.596549547016494763e-02
7.118509823455804186e-02
2.540651356101809033e-01
1.844897698413028309e-01
-4.145578128113404093e-01
-6.387806096669326750e-02
1.504582169908616485e-02
-2.277257486884212423e-01
2.546810957802297382e-01
-1.795996149274966258e-01
-5.839637824602184057e-02
2.843932656548025517e-01
-8.638648906754554657e-01
3.520345967948435018e-01
3.394684492624398531e-01
7.514900287161230263e-02
1.494082192270787257e-01
-1.022420919377756005e-01
2.459395697777778389e-01
-1.101414565151750402e-01
1.123679834781268760e-01
1.666909916523282020e-01
-3.866132122951693728e-01
1.298069793088070800e-01
-1.869991659251291904e-01
-3.137145189622495001e-01
-4.416672467166972704e-01
5.791835905756372027e-02
-5.144165577249217719e-02
2.133372520831463767e-02
1.259128145611679572e-01
-6.824260272587657772e-01
1.171126898108064279e-01
-2.224570175741647227e-01
3.863578042366501153e-01
-3.324883700242396017e-02
5.205240215826194283e-02
-5.063350161004193106e-02
2.614174336046781733e-01
5.689400567098954475e-01
-4.449504075219932187e-01
1.042820262459860092e-01
-5.342826443089232491e-01
2.921761939718154344e-01
6.594673558306237693e-01
-2.783400294461218505e-01
5.896378817710349329e-01
-3.214599107015876644e-02
5.824032566617157874e-02
-1.262951954394777622e-02
-1.951362104943368259e-01
9.526176564117069812e-02
1.401286092473459088e-01
-4.107502221169656575e-01
1.136846022562523623e-01
2.513438561270778804e-01
-1.706178890541439411e-02
-1.361845223049004128e-01
1.063110573321787711e-01
1.594389901603855131e-01
-3.105950898213595823e-01
8.290386131789376223e-02
-2.331293720777007361e-01
-2.881934267051574627e-01
1.062031608330090277e-01
-3.465646342771048771e-01
-1.687160802658768388e-01
9.866448362178677212e-02
-1.013692698998183844e-01
4.161503360815588248e-01
1.459376100853045088e-01
1.827818338539687615e-01
-4.359069229121838029e-01
2.271329990820422362e-01
2.361884370033371094e-01
-3.208022843304221827e-01
4.716178789490140487e-03
-3.370794085479255076e-01
-2.414152149930919866e-01
6.924765438313121857e-01
-4.966341246070198751e-02
6.447809404463267224e-02
2.769758238516133453e-01
-9.059453469869963027e-02
1.377699853300538846e-01
-5.599757971534488066e-01
-2.749413355457446251e-01
6.569274293560586342e-01
8.515149766931502662e-02
2.118405007039379506e-01
-3.104087816552527079e-01
7.744692087347911091e-02
5.087519912304311331e-01
-1.232036976330830869e-01
-1.027579991478048682e-01
2.943267807901817079e-01
-2.464676795297771894e-01
1.438348060459092859e-01
-3.382437233277329480e-01
-8.302021834705582137e-02
7.896590984969860394e-02
-3.924325822570315370e-01
8.854069300675568299e-02
3.665089665510457562e-01
2.798826665456743412e-01
-7.746057878562556676e-03
3.770234595223675433e-01
-7.759824288075475307e-01
3.976813922953777447e-01
4.637766887324983323e-01
-3.181659578297520857e-02
-3.301525048367780490e-01
2.028211187934044202e-01
-4.278006900169425107e-03
4.066928364753225056e-02
1.070309038334606513e-02
3.834529383297364813e-01
-1.003115841793228158e-01
3.617318505650146121e-01
-5.136919290017391559e-02
1.494895301062471316e-01
2.980987437114315450e-02
-1.322455754619445978e-01
2.517920668038347576e-01
3.946134893486421408e-02
-2.468378445762755002e-01
2.061880806930850019e-01
1.871762785161828471e-03
1.564419636112722445e-01
7.338954296905710051e-02
-4.427853120298534673e-02
2.133614651855824350e-03
3.432259026474454577e-01
5.693613206518867258e-03
-1.042632730591077639e-01
-9.860627271510739519e-03
-1.876459367878302587e-01
-5.969130538618383497e-02
2.022950676775295970e-02
2.689719408108746102e-01
-4.170507953127302464e-02
2.202847069486501830e-01
-7.079484325299592040e-01
4.810819853265229651e-01
2.395479556980939159e-02
-2.267525468192459481e-01
9.296391323094024828e-02
-4.588027727940561240e-01
3.591174541072547632e-01
3.713182779006978240e-01
6.254749998486398583e-04
2.034476427706223556e-01
-2.038370894748776085e-01
-5.039016925747338282e-01
-5.930512159104810443e-01
-1.813775550919420887e-01
-4.992072859342122637e-01
3.523127164111241605e-01
-1.793690528446422183e-01
2.260902518797109906e-01
-7.112428866533948568e-02
-3.700598009904972896e-01
-4.547875262263903484e-01
3.631944553033074619e-01
-2.220852327225152772e-02
4.731147618225264861e-02
-4.963542127968122442e-01
3.849394869258303542e-01
-3.773479314644933025e-01
-2.035392884835724170e-01
3.579317721491222237e-02
5.161805175319551520e-01
1.024751096533956241e-01
2.714676364661284258e-01
2.778589940361185853e-02
5.367490499152375305e-01
2.890568450218236052e-01
-4.614822518940354112e-01
-1.260625340591104149e-01
-1.692849215979005117e-01
3.817887195011756551e-01
-2.843359344202256445e-01
3.355738337112653680e-01
-2.563502906633799983e-01
2.144395544324744218e-01
-3.172573395833347409e-02
3.675657083554750848e-01
-1.299137799884299838e-01
-1.351816942514030284e-01
1.172178694989521874e-01
-3.784598689514399594e-01
3.441069269336508585e-01
1.833372927014077086e-02
-4.884933995274872154e-01
-2.085676550401774632e-01
-3.840196858359035681e-01
2.274940895979191413e-01
1.043312632092441294e-01
-8.635499873929221304e-02
1.547708652817238462e-01
-9.991187225956833784e-02
3.562279365982369272e-01
5.011976386088829762e-03
1.731850104366504731e-02
-5.591730344757656762e-02
-9.800422893828594773e-02
-2.713383547861641376e-01
1.103440939133503579e-01
5.891550461071566325e-01
-2.199135290469295956e-01
-4.012205920910959928e-03
3.430328961163279233e-01
3.596635762299820183e-01
3.480317853874641543e-01
-1.721409071978025895e-01
2.696267713213655326e-01
-7.879790242610987261e-02
-3.093466854137323918e-01
-1.277064435038169077e-01
-3.104058312503296668e-01
7.879096382000874005e-03
-3.340941156344807150e-01
-3.396204936193929907e-02
1.437241713869721327e-01
6.521035325274509020e-01
-2.556543360933710707e-02
2.885988012873834038e-02
-2.509446569196248714e-02
-6.307296611503243611e-01
5.680961584702769462e-01
-1.295585655044598494e-01
-8.470553629041380206e-02
-1.351465176589681516e-01
1.649522067659054403e-01
-2.076409847286979360e-01
-3.994758343255104815e-01
-2.167181693658410679e-01
-2.762954475670276189e-01
-2.627568812584186730e-01
7.018903835354045606e-02
-2.417955868372740902e-01
-9.991622939719405072e-02
-6.851316557850523070e-02
7.714312361449074396e-02
-3.258566623039275689e-01
1.765567374373973042e-01
3.657276950122227976e-01
-4.263518246390840538e-01
3.756706959310222582e-01
-4.418181175121994597e-01
6.159817016252683991e-02
-3.393058912000010974e-01
3.724241265114223987e-02
2.876083058574902540e-01
6.274649716222789608e-03
7.613963689365320642e-01
6.570559115829142927e-02
2.839284884679577625e-01
-3.507592432557397055e-01
-2.086090275398236882e-01
1.346116409522038204e-01
-5.632203438013732022e-01
-4.406009001124362029e-02
2.394299825179858343e-01
4.934033147515661244e-01
-3.075634901474258442e-01
2.729116719265880509e-01
6.098078976190086237e-02
-5.755176504510927105e-01
4.435070436958500339e-01
-4.777494859123035953e-01
-1.280836226945522294e-01
8.367487749855913315e-02
3.710229723411815339e-01
1.413533600245848731e-01
-2.826708947907943248e-01
1.898304958346068716e-01
-2.244617864942993202e-01
6.226709092095175091e-01
3.775113157617199233e-01
-1.621565099458008030e-01
5.211616574180877315e-01
-4.097516513091633422e-02
-1.666661595064767021e-01
-3.710909509508253379e-01
-1.304948721049904725e-01
3.999778218611427794e-01
-2.679306678540480657e-01
6.697468767618427465e-01
2.589202659501805073e-02
1.050398583545437137e-01
1.195728024720943000e-01
-2.603861486443056483e-01
-1.964957531551368708e-01
1.761225331625435597e-01
-5.725538642330515460e-01
-6.598522568945859069e-03
5.821823729522177318e-03
-2.214173848013433754e-01
3.204528693942221840e-01
1.061465845225698368e-01
1.537881935875708150e-01
3.433061908356205838e-01
1.334507303226454833e-01
-3.355027159131300785e-01
4.884532935424079070e-01
1.036266542260137202e-01
1.329735744551283905e-01
3.146152183512139766e-01
-6.240078108231689180e-01
4.136350509660404184e-01
4.797222574426189268e-01
2.925850958637481458e-01
2.347941012734987287e-01
1.320099018199441532e-02
3.384829381668537085e-01
4.498128741320708279e-01
-1.755934407860872126e-01
2.685909762402073353e-01
3.632345703260760894e-01
2.410875660788341091e-01
-1.782821289224969519e-01
2.452080109381384321e-01
-2.425040463535230451e-01
-4.292401326534661110e-01
-1.147481633783298954e-01
8.160453305329461171e-02
-1.527300890308888326e-01
4.230133200362685975e-02
-2.227791775587316114e-01
1.250507811353214482e-01
5.874956094222313213e-02
8.424264327904948391e-02
5.314033512770706125e-01
9.136537214058873535e-02
-3.195422727093437110e-01
-2.838258654130542125e-01
1.878739783865859547e-01
-2.001689955637277474e-01
3.250795556825680777e-01
1.757464747649309933e-01
-3.617279839106021799e-02
8.353573929827802502e-02
-1.318472959873819850e-01
-4.974202434758275282e-01
5.075491319557215997e-01
2.512684658306003627e-01
5.147760773838246928e-01
2.821362713249172538e-01
8.036508931565987390e-02
2.446119352429067528e-01
-9.070598503645242727e-03
-1.204844624452728746e-01
-1.418836251363574386e-01
-2.882409930328434511e-01
6.778665481018896211e-01
-2.128137367719720452e-01
1.828728424825328547e-01
-1.980447887710437005e-01
6.728075727797561134e-02
7.076156783711383402e-02
-3.143398876597269798e-01
-2.446258869580063555e-01
2.727154725672766844e-01
3.497011445942899699e-01
-1.504531731977009346e-01
-6.626425549250739011e-02
8.853188440406686843e-02
5.400626158898846896e-02
9.119300660952912585e-01
-2.811066111620738051e-01
2.107961754181053582e-01
4.523749106536225639e-01
-5.924592238132195612e-03
-3.369576688370317652e-01
-5.304592506189680090e-02
1.025820434631019989e-01
1.710273122536695722e-02
-3.907670729922386316e-02
-2.557087786992356948e-01
9.617856389117614146e-02
-6.387144552777487827e-02
-1.666526131627405274e-02
1.276777673868510488e-01
1.110654557822729656e-02
-2.745616979790809764e-01
-1.274939748636690941e-03
-1.391748712263053134e-01
-3.481440593152109741e-01
-5.529999596609261325e-02
2.544318717798567109e-01
6.283607227300723463e-02
-2.986234867989183694e-01
-3.256147627886083473e-01
-2.218016541251455476e-01
-8.985339996294096077e-01
1.724687407166345665e-01
3.850605612855538262e-01
-3.034297889380404012e-01
2.063587510224229316e-01
1.728048418560261578e-03
3.596662542379261973e-01
-9.470950047157332408e-02
1.048560590607625215e-01
-5.970459997681276665e-01
1.742355522989648409e-01
-9.014824747790961545e-01
1.226838049581529533e-01
7.200368915104399248e-01
-8.955956708101491248e-01
1.441719308833657176e-01
-1.526120060322349592e-01
8.028209864864108147e-02
-1.607768677983088465e-02
-2.644513128116100509e-01
7.331503332405059359e-01
3.702985382727559949e-01
-1.659673783972514249e-01
1.322795888656323748e-01
3.491215340741291029e-01
1.810151002663536457e-01
-2.607539392185844740e-01
-4.558815878664106667e-03
3.940083912845115943e-01
1.426717367886700116e-01
2.100815883700881403e-01
-1.938234406853328595e-01
2.233867645803351218e-02
-4.264786806890047965e-01
3.471119358097468077e-01
-5.465009586225036964e-01
-1.086876754986315363e-01
-3.600195275605861389e-01
2.147475529531178359e-02
-2.237563406449207537e-01
-3.880748557965678636e-01
-1.971936373261737666e-02
1.041730123258057944e-01
-2.164328137873456348e-01
3.249914273530454811e-01
1.911799279144291430e-01
2.495754859852309521e-02
-2.875150379289606040e-01
6.220234550796492623e-02
-1.621510056479953943e-01
2.434167344184620385e-01
-2.284802647471483594e-01
2.179497184627142703e-01
4.041004239728432368e-01
-2.914890499416993297e-01
1.192831158206118375e-01
-5.236410808465530309e-02
1.472934400173401825e-01
3.392762267668791298e-01
2.172537857156255636e-01
3.042784167680306351e-01
4.993604613088210020e-01
-2.316149818357472190e-01
7.592295249360985210e-01
-1.047801015120641971e-01
-3.687354870387817701e-02
7.320134887598248041e-02
3.551381183618931847e-01
-1.020699973464225807e-01
7.655168635474611516e-02
1.871233058981129072e-01
4.911900995927459546e-01
-4.886496250938211772e-02
-1.588704975571722799e-01
-8.526877991991216321e-02
1.351977069456722358e-01
-2.571428386248228101e-02
-3.076068693941861332e-01
-1.130617739062553112e-01
4.372684245194988772e-01
9.968997700105966531e-02
1.509258711891900973e-01
1.704828302623595249e-01
-5.245261551398040789e-02
-2.377586116149906226e-01
-1.517745213861974862e-01
-2.056546981826365972e-01
-1.739840377266560212e-01
1.621311625220976937e-01
3.163854787441747196e-01
-4.793123111243957624e-01
-1.576212025729174238e-01
4.495335391449709617e-01
-2.923122669334154433e-01
2.760303222894376352e-01
-1.553107556719133531e-01
-4.318990620783817735e-02
5.297900155968063469e-03
2.353055803382878286e-01
2.918558105727350402e-02
1.307148816303214597e-02
1.156366357097584480e-01
-2.296848064479157514e-01
2.458604466385212739e-01
-2.195367852781900664e-01
2.278556192793829149e-01
-3.801669186431623770e-01
1.701640982468013430e-01
-4.632835030656113351e-01
5.946154009717400379e-01
-1.929908215683019401e-01
6.431831441894063639e-01
-4.478335116898458645e-01
-2.579348871359338768e-01
4.152571587842873030e-02
2.633981543812694559e-01
1.008018416855097216e-01
-4.900487887521166597e-01
-1.602148945325823359e-01
1.870744584368042307e-01
-4.311020744500856927e-01
-2.899753310214815416e-01
2.430264669589093374e-01
2.224195475548962353e-01
1.609429004493903304e-01
3.498870583495179709e-02
-3.330977934689088316e-01
-5.080968460272767828e-01
-4.185466635618307479e-02
4.379700389658922610e-01
1.468353582012676406e-01
-2.631061955579511724e-01
-3.757928718750688790e-02
1.028715466626301950e-01
-3.056926263486407502e-01
5.331493483890231005e-02
6.707046446172822141e-02
-4.794964980786698971e-01
-5.589436814688378830e-01
-1.273779700883231336e-01
-4.775401021305773486e-01
-4.890994280819326301e-01
2.424912008066033853e-01
-3.180264505076560444e-02
-2.170599839505316375e-01
1.415683810844309831e-01
6.053575789677428931e-01
-3.345274445693389165e-01
9.985730347636471993e-02
-4.845174867695952181e-01
2.167383420231590863e-01
-8.311475438896396284e-01
6.744940657649500793e-01
4.054977508277006204e-01
-2.641449569181565371e-01
3.141626923674670224e-01
5.126386848062536306e-01
1.359432306005148861e-01
-1.943371845985744362e-01
1.572517714338726447e-01
-8.492947046022041313e-01
2.799508330308816961e-02
-4.549109408720083958e-02
-1.116368050932485673e-01
-1.669666280725105312e-01
-3.787199497583084162e-01
-1.712114001910629291e-01
1.778567105705272378e-01
-1.836656024956123956e-01
3.282327024023851680e-01
-3.581014360547744024e-01
5.142192692941408537e-03
-3.985620993667501194e-02
-4.332511708128901629e-01
5.652232250613754838e-02
-1.397774923185257090e-01
7.214760284313358196e-02
1.414892863125875588e-01
2.215077310073687022e-01
3.821605146247974427e-01
1.982506947761258076e-01
-3.458044025621816175e-02
-3.488488979515296795e-01
-2.156443941793588781e-01
-2.438932617644138864e-02
-3.451674256364327120e-01
-4.525057981980422084e-01
1.145780439978257986e-01
-6.106728203988275316e-01
-2.187372832053587624e-01
-5.716027241650417645e-01
-7.409881430504366984e-02
1.926259342888073656e-01
1.548767742519555901e-01
9.883181270373379845e-02
2.008475029513458743e-01
-8.002665350466206529e-02
-3.576067380920445321e-02
-2.140482522823677625e-01
6.234907241287861168e-02
8.957742412277250321e-02
3.415424381297589851e-01
-8.480690619311648248e-02
-7.934514245364675256e-02
1.263835906218872540e-01
-1.449411780817473072e-01
-4.209976366922014157e-01
5.527300993775494664e-01
-2.377300652562277239e-01
-1.194618638866615234e-01
-3.060357225017892313e-01
8.623090183249136620e-02
4.046661143855004861e-01
2.884915339768114040e-02
2.160511041479932504e-01
-3.714889153085323970e-01
-4.485881967397014614e-01
5.841546161694417816e-02
3.328332267281707696e-02
-8.068058431777093420e-02
-9.510845602579519331e-02
6.809167415181338612e-02
-6.856181136545171084e-02
-3.519794792619735380e-01
5.184999574652231907e-02
1.635621551348810099e-01
-1.132451315758380567e-01
1.436329977168306349e-01
1.156327829460318951e-01
1.756339080855760515e-01
2.637072470214165132e-01
2.778852260836606747e-01
4.112358460618894540e-01
-1.013769155300866115e-01
-3.070553881155818621e-01
-2.301753636674473691e-01
3.028680718167944264e-01
-1.002089095758844917e-01
-1.896254563174015750e-01
-2.978289353192307698e-01
1.080304298419126896e-01
-1.441829206372150507e-01
-2.807382070350131296e-03
1.049871889474346814e-01
2.560433595119147032e-01
3.084965484730151641e-01
4.794264897600832714e-02
5.237767855653883142e-01
-1.226278805641135561e+00
-4.623747131212136430e-01
-5.611303226617825324e-01
-1.500317908923147758e-01
-2.964725907727975424e-02
1.028151147950994160e+00
-4.298214596551991895e-01
2.453100408848798986e-01
7.214533295565340731e-01
2.281505947793047995e-01
1.682078523183291041e-01
1.482530627012094426e-01
4.787586223056711221e-01
2.530699795236618921e-01
-5.437673816209249306e-02
-2.220442550639820656e-01
-1.652609635544022848e-01
2.147067726915422581e-01
-2.678808264953884133e-01
3.190968600651712950e-01
-2.811519304958645660e-01
-3.035448467065864353e-01
-5.113958669693743214e-03
-4.067392662581209573e-01
2.723845236386447932e-01
2.441409712605910332e-01
2.269099283626853369e-01
-3.918669338337892327e-01
-1.219888127270564449e-01
2.640627249565946286e-02
-2.001797404435946143e-02
-3.178326589828028848e-01
-3.250388348349278478e-01
1.780671656269331438e-01
4.017475821787538232e-02
1.937563377848219581e-01
-1.244619401774769984e-01
-4.849000408173018695e-01
7.948897950318939420e-02
-2.914303311475853198e-01
-2.308202683332974958e-01
6.048762258051559870e-02
1.934810911204510597e-01
2.626623578487841462e-02
-8.568638097272902598e-01
-1.255312079829699057e-01
-9.858694574714639558e-02
2.134554221349326264e-01
9.883549839606123322e-02
1.863088720566375978e-01
3.239050321476695804e-01
4.207435417638331898e-02
1.895373604548915569e-01
-1.609418179671515681e-01
-6.902953248156522281e-02
-1.950086066083367986e-01
6.712350564012565558e-03
2.859897937134152635e-01
-3.655357880314205055e-01
4.835416879298837234e-02
2.435812187306921062e-01
1.059981259920495245e-01
3.890437890564627747e-03
1.958629032079885479e-01
1.601485368015515831e-01
-5.895396860618479923e-02
2.522106696363707878e-01
-1.767153190709831456e-01
2.249479923564625533e-02
-8.426225763310106476e-02
4.062228375737695490e-02
-1.714818174219102653e-01
-6.940742595119614444e-02
-1.606578478245046515e-01
-1.746282440517920309e-01
-1.235791312935428238e-01
-3.339018642313155982e-02
-5.431075147025336142e-02
-3.182839094661299995e-01
5.991081231113291883e-02
3.960604090537278021e-01
3.848007330577678242e-02
5.493875534939847149e-01
-1.666586425538972849e-01
-2.179965668867537287e-01
-3.801759894088841962e-01
-1.139793298060848975e-02
3.435283498997723783e-02
-6.483268529076118281e-01
-6.681288516684275036e-02
3.317587815769290072e-01
-5.151757278579012223e-01
-1.670825859292791593e-01
2.592173290204779611e-03
-4.724505157943953981e-01
6.840808645588117298e-02
2.894231674758922495e-03
-4.779055783546602709e-02
-6.049906945846964534e-01
6.835526964594450250e-02
1.317118888339022242e-01
-8.902243837031657836e-02
-1.711605958016672036e-01
1.770592190484196748e-01
-3.037207427474491461e-01
-3.884515459708366980e-01
-2.497435758721154239e-02
-8.847227625521240924e-02
1.135082887066079203e-02
-3.042960452784015946e-01
3.672932170582427804e-03
1.542979025574757190e-01
-2.086875990031335573e-02
2.718871409109115955e-01
9.070009002834969469e-02
1.331043529626342869e-01
-2.189328796867437976e-01
-1.564500892850274882e-01
5.377467871329584537e-02
1.575351998136374498e-01
4.898436327939375001e-01
-2.144373154690815131e-02
4.771727668974996006e-01
-6.436953936350514605e-02
2.348047937998532231e-01
-3.052904834090964248e-01
4.733137285995019927e-01
-2.623473321460796925e-01
-4.554494199875918081e-01
2.981946606266930866e-01
2.142703802115474288e-01
1.838177726463275652e-01
6.049735662071573650e-01
2.438961527849787050e-02
-2.934556146981667224e-01
-1.268356343485500456e-02
-1.746120128889064316e-01
1.420412144031024948e-01
-8.100313124966688205e-01
1.028573450124428579e+00
1.364904826276343019e-01
1.324534182281779104e-01
1.451093778809787183e-01
1.460781394501957930e-01
1.088757352746504647e+00
-3.517142963821331958e-01
2.385275175211924170e-01
-3.297546265969505258e-02
-1.706698663788754067e-01
-2.603634858990305223e-01
5.585602851561292104e-01
3.176907295693164740e-02
-2.596392374633744726e-01
-3.873806178930742083e-01
7.504130295966664199e-02
2.049818116434421467e-01
-1.462518468281665679e-02
-1.090039876028189025e-01
3.038409548630746984e-02
-1.881542203490760290e-01
-6.377417714049682385e-01
-1.823484589195779881e-01
-3.109694990529538461e-01
3.059088553650208750e-02
-6.592712747675876228e-01
4.251740534376063363e-01
-1.160327775052707872e-01
-1.285783850216648261e-01
2.929063654471096290e-01
-5.223640450564415172e-01
8.767513361115340798e-02
-3.168877285032077884e-01
2.924622164067560703e-01
3.860904462300216583e-02
-2.962578227587167046e-01
-2.894174463070086495e-02
3.321935237836245308e-02
4.218275379222769517e-01
1.460098190244584204e-01
6.303864017365234940e-02
-3.086053951134973827e-01
-7.102987812399940148e-01
1.770175281420154892e-03
2.067915285886146037e-01
-1.540216523529419901e-01
5.381227405843933553e-01
6.714017153793314097e-02
-3.316261011789745083e-02
6.976195803392623018e-01
9.079557322099350569e-02
3.761170555065245780e-01
-2.905931598950971528e-01
-1.868433837429445410e-01
2.414100138078007773e-01
3.388326903759880659e-02
-1.669086289283592262e-01
-5.649491285846387767e-02
1.275499717551686028e-02
-1.014270366037876708e-01
-2.454610099582029137e-01
2.494589938828008502e-01
-5.833504274095945019e-02
-1.097098499122073495e-01
-4.324583726792137206e-01
-6.683429965719898946e-02
1.801963702268727027e-02
3.155099328020511962e-01
-9.873350359950785679e-03
-4.304272854777886348e-01
-1.657138409092775988e-01
1.988594667576350783e-01
1.997281028811518366e-01
6.896003144319285960e-01
-1.768670368295296169e-01
-3.617921799528822646e-01
-3.715057437028508325e-01
2.179658609426239346e-01
-1.296066165505824763e-01
-6.948722707614567451e-01
6.185347965816777593e-01
1.391394434904419664e-01
1.660164677326950444e-01
2.536703789276173460e-01
5.647954867954033675e-01
3.081083374570443012e-01
-5.316102904912665128e-01
-5.575708761417688675e-02
-3.632464491340138268e-01
-1.825121311230133714e-01
1.497956634796170361e-01
1.718285088188430121e-02
1.973425739798666811e-01
1.373730788116736823e-01
9.057401783933588524e-02
1.310158132672179510e-01
1.583817216780101234e-01
-1.016282910020877006e-01
2.544813820050702002e-01
6.267664136357052884e-01
-5.085138568770855017e-01
3.770092465142358407e-01
-1.930107217785936857e-01
2.725005053648996145e-02
-2.211955960405598970e-02
-8.475131487703770894e-01
-4.687429645281447343e-01
2.066452096901355007e-01
-1.056383448289113930e-01
1.183766378900899009e-02
-2.447329174101230687e-01
2.274492888389251510e-01
-1.323842462557526800e-01
-1.988525593782231593e-01
4.987563780053154150e-01
-4.975276119635762412e-02
1.604931408865923059e-01
4.385207562099990852e-02
-1.351458076406862330e-01
2.957074995665388006e-01
9.963439382287077317e-02
6.940964796837133521e-01
6.603056418934956096e-01
3.857178344969884876e-01
-9.025609842330765964e-02
-3.482665136331960509e-01
-4.916083069711461584e-01
3.450639385776911316e-01
1.733710315306058736e-01
-1.450821822254655113e-01
1.427167609948478966e-01
-5.567245444976260532e-02
-1.333802162335336605e-01
4.752022742998678745e-02
2.410678646367147779e-02
1.568057512636488460e-01
1.411343221268782921e-01
1.357952903647153750e-02
2.157439963728270127e-01
1.528374832088368225e-02
9.595602617938411849e-02
-8.322565245682620461e-01
-5.688138969413983892e-01
-4.035533453027360662e-01
-1.256708278080601385e-02
-2.748631404803676334e-02
7.174249971931273562e-01
-2.107533824596999894e-01
2.501710089730030950e-01
6.429496339062915622e-01
1.424877696405582039e-01
7.531268305318142287e-02
-1.770386278614768660e-01
2.132292863627523460e-01
3.710126243597629547e-01
4.060817160788481733e-02
2.600882464368892144e-01
-5.673948548924558424e-03
1.751615530197735138e-02
-4.248463602038389519e-02
2.884499820263005110e-01
1.846121021766646275e-01
2.081744998838933047e-02
1.926285289592564176e-01
1.548116014694014275e-01
1.788224439684749922e-01
-8.512125809747427274e-01
-1.696689102565502871e-01
-1.412907969334968872e-01
-5.105703107071011271e-01
-1.711251241223195677e-02
-1.959850571513218898e-01
2.599930089633565866e-01
4.083450153164146917e-02
1.383737106021896701e-01
7.428166393070509410e-02
5.650926500026314664e-02
8.617002904283009579e-02
1.714758338617785316e-01
3.454043444043995992e-01
-2.608633122757753608e-01
7.940107419681785572e-02
-3.910678048399377493e-01
-3.081638522027692062e-01
-1.237205789875383405e-01
-8.664280835745394316e-02
1.029255470363980990e-01
2.327636239420236841e-01
-5.099019377457326280e-02
1.086317258517752737e-01
-6.437579519774708214e-02
-1.169119453122132862e-01
1.489987427418287269e-01
9.143682763918271894e-02
1.368027710541019626e-01
-8.170589590193885754e-02
-2.198569633878169963e-02
-1.952214368904172520e-02
2.595935793593016905e-02
3.668287153191464034e-01
-1.542360321194352346e-01
-8.820607660129597960e-02
-6.730252170534890832e-02
2.087724378858299423e-01
7.198481240869376852e-02
-1.162810729606988114e-01
1.025757505179460960e-01
1.384633722555132784e-02
1.505810342210228137e-01
3.023471967949639683e-01
-3.408750605929337651e-01
-1.891361151399180707e-01
3.223198725530823650e-02
1.057682862155362447e+00
-2.796032675373904541e-01
-3.166715936269716147e-01
3.697500336851540226e-01
-3.984254011254634298e-01
-5.135778060833060543e-01
-2.089947277464857756e+00
2.046795936987036768e+00
2.247090626716973460e+00
6.300478239525920676e-01
1.258447303568399400e+00
6.488274060486851624e-01
2.376303790530231996e+00
-2.055633914282497532e+00
5.868228323788672318e-01
-4.798464446685621887e-01
-1.105036034478292573e+00
3.583658670429916426e-03
