2.122616088307129056e-01
-1.491087833945690944e-01
4.969567394816409300e-01
3.911346061923303141e-01
-3.391934761611242743e-01
2.646751759255048686e+00
2.677713323113289912e-01
-3.468856484309142396e-01
3.132723628899061197e-01
1.079481388135399150e-01
-1.085417679357863346e-02
-2.772976984089364216e-01
-2.412964764800824835e-01
-2.353493348065118784e-01
6.117760238883835910e-01
9.224003078848450610e-01
5.311502141290681545e-01
2.163480551968794408e-01
-5.906590376235317796e-01
-1.680400247058107532e-01
1.286739694475174389e-01
-4.249599134929187283e-01
-1.827547747847610149e-01
-1.189685986508917243e-01
-4.861131088401782763e-01
-2.685877145034866118e-02
-6.925760988595873469e-02
1.425679716200299318e-01
1.886549758097401108e-01
-4.857821337947512141e-01
-3.379432932387159139e-01
-2.197551106152136613e-01
4.346111258018152679e-01
5.153919576221117904e-02
2.099455305094878876e-01
2.043370689762250281e-01
-2.159196280122308020e-01
-1.959604467446729725e-01
-5.303379936717574905e-01
2.893835656907055992e-02
-5.334734682765952113e-02
2.512509342266296478e-03
-1.143079129344412581e-01
-3.372553715682887199e-01
2.187494924984117670e-02
-7.234993255536692480e-01
-8.373309140879256485e-02
7.605562311756648708e-02
4.171645523020989926e-02
1.074250926954292175e-02
-8.168352312088421330e-02
1.172189599513791822e-03
-1.032428451307523115e-01
-2.250791733252193588e-02
-1.076761755810987792e-01
8.862926897158514283e-02
-1.128344660149144946e-01
-2.653687778278446263e-01
-4.668855014985536650e-02
-6.677137678502845231e-02
3.002015008402167395e-01
4.320898856406611421e-01
-1.541224683020432987e-02
-3.474171339865175789e-02
1.086022137311261904e-01
-2.987244232885432060e-01
-2.926236955902353568e-02
-3.900158957961037398e-01
-1.009358594870183451e-01
6.598153337261736251e-02
2.185456072609981704e-01
-2.187141647632600827e-01
2.001949964867902332e-01
-1.382291394154487318e-01
7.576575804953489257e-02
-2.843533583291537603e-01
-2.920682913925805591e-01
-2.589260018465808777e-01
-2.212840038384755650e-03
-2.570845467788553385e-01
2.302077574950511796e-01
1.235396732912625861e-01
2.101981792433471885e-01
1.006605464842577069e-01
1.085261451236172181e-01
6.904088120163834330e-02
-2.245521206713329554e-01
9.758991191343535654e-02
1.718760976090964732e-03
-2.287659979408464619e-02
9.798760379027410261e-02
2.927737882231052358e-01
-1.958939264453626525e-02
3.040767939370344619e-01
2.940786803878966960e-01
2.347131194558595424e-01
2.739307398871278498e-01
-5.512768909214719182e-01
2.548468316482482843e-02
-6.206718990900394334e-02
-1.460664206987518920e-01
3.948175230247538692e-01
-6.262061390664253741e-03
1.884975052498188142e-01
-1.217009140845990850e-01
-1.659891929231177565e-01
1.225850930368780345e-01
-3.533009817822320153e-01
2.506638066548262378e-01
2.456758486566305022e-01
-1.735649573065125573e-01
-1.432076049526052330e-01
-1.464399623774982617e-01
-6.767627689322004703e-02
-7.459125208913665317e-02
-3.720578348496143828e-02
2.100168766511747651e-02
2.163579766737066534e-01
-2.761438903246158372e-01
-1.980499913936102918e-01
-5.339486318549074850e-02
7.130964146258035319e-01
-1.092266954085015923e-01
-1.591589883812203343e-01
2.014950664830597593e-02
1.945706101267824228e-01
-1.379217782830965688e-01
2.550846302630558893e-01
5.180299381516406676e-02
-3.896770861883324666e-01
-1.374148529614162562e-01
-2.199435138836917936e-01
3.747852241910618609e-01
-7.957776840890487535e-02
-8.177104892193362562e-02
-4.462021107314095847e-01
1.357508650381291926e-01
-1.692143812656529689e-01
5.110215132428398005e-02
1.755551959342680282e-02
-1.083179435212073688e-01
-2.721666551884865393e-01
4.921222165410457650e-01
-2.009598139503063763e-01
-2.271400494513031165e-01
-2.407107993964683612e-01
-2.783401041275799237e-01
-1.068645510054677394e-01
-1.416518893345312669e-01
4.369521729604167876e-02
8.224805433175697011e-02
1.068697080353726570e-01
9.480104420196450166e-02
1.465362208400593780e-01
-1.629501156260661221e-01
4.155073294800144812e-02
9.397140587690465396e-02
-1.549360362070379415e-01
4.889998148688418644e-01
6.136526656194438850e-03
-7.535185167989927324e-01
1.434979302593840655e+00
-2.513071676505712615e-02
3.631073195116443775e-01
8.498450160459453118e-02
7.633641151026351879e-02
-3.558150093132862735e-02
-3.389188003028495988e-01
4.740847867852050063e-02
2.245617579091113980e-01
4.769199714992521100e-02
-1.654654642901601802e-01
1.511235432785101029e-01
-7.465541002462449116e-01
6.847080125737058098e-02
5.353651446301619377e-01
-1.131004054231686540e-02
-9.648693412556950122e-01
2.322616991440235382e-02
6.287265895893300316e-01
-1.474550798732532919e-01
3.793152475327570827e-01
1.202134670616931550e-01
2.210161288401126800e-01
-3.002810429919646751e-01
4.361966907080599282e-02
4.806191906572863937e-02
1.409467076335794156e-01
2.668037123762250773e-01
2.136342653778974532e-01
1.322772434949613940e-01
2.740568842323558574e-01
-2.584409344266009878e-01
1.201523634592226858e-01
3.301839675209188307e-01
-9.853101487021156957e-02
-2.589330633747324167e-02
-3.757224362616604640e-01
-9.802184505566137462e-02
-5.030694787797024281e-02
-1.290269401245366099e-01
-7.842698427584526844e-02
-1.904023824951813493e-01
-2.089401208455570758e-01
2.258618335981890657e-01
-6.019125925704265495e-02
6.007393161009569327e-02
-6.467329688831861823e-02
-1.129853832719480804e-02
-3.097081069741544068e-01
-3.295551534534809646e-01
-1.249451072503342391e-01
-1.747510068790245896e-01
2.431138531076863785e-01
6.144641000034418710e-01
-2.496909123219093751e-01
6.322787091333509357e-02
-2.731093660067549639e-02
-3.909635812887130024e-01
1.131334417115223701e-01
-2.641774019352451097e-02
2.982508008879869998e-01
-1.551095300592613413e-01
1.193026983295422117e-01
2.500396584520657439e-02
-2.228943889972921921e-01
-9.194218347006125058e-02
-5.930165330925720596e-02
-1.423644089663312073e-01
-1.716489421707179941e-01
3.842556519407297477e-01
-1.912111967835077031e-02
1.554154995274880657e-01
-3.055195829535735097e-01
-3.006492344682824558e-01
1.824408146161222155e-01
1.629525738527360934e-01
2.744032322069111518e-01
-1.400823859013208827e-01
-1.986562231789508470e-01
3.035576581281612674e-01
2.121615692917806079e-02
-1.616426207556098948e-01
-3.741437798404756172e-03
-2.367358863039660810e-01
-8.924482943473895091e-02
5.372140847147725135e-02
5.391470727287967640e-02
-1.419324096074993380e-01
-3.883540762914538536e-01
-2.342228892141987318e-01
4.917716578774835035e-01
-2.722952025966557943e-01
-5.895999806505681368e-02
-1.007201254653622285e-01
-9.546380602706337759e-02
-2.448583300326936385e-01
2.413310818370555388e-01
1.666155521117180793e-01
-2.816579899839052881e-01
-1.450746259927674087e-01
-1.117121839973374553e-01
2.949996207212066818e-02
-7.492556847468770376e-02
3.489554029651922157e-02
-5.121034729935812491e-02
1.220612288191194189e-01
6.393152631963838761e-02
-1.988767037510180136e-01
1.161319545086171579e-02
1.436008053090135905e-01
-3.410532294348931903e-01
2.163019470694204083e-01
-1.550730443851426436e-02
7.253784217117889566e-02
2.201820895521129917e-01
1.803739295826896072e-01
2.082676736337262247e-01
2.033045518780141406e-02
1.747656594013390907e-01
2.314607933587439770e-01
-6.547456982800441139e-02
1.677639932558873115e-01
-3.865889651094207152e-02
-1.886131255308990187e-02
2.463395615805470326e-02
1.692659211971608568e-01
-1.147589474806381266e-01
7.444440670320577602e-02
2.047795107157451000e-01
-4.304172090671701256e-01
-9.406594541753877936e-02
-5.569622027012847976e-02
-1.475719165957653511e-01
2.306271830217967445e-01
1.172819492345296560e-01
-2.672065550272724813e-02
-1.614751722496986508e-01
1.361804897899048794e-01
-1.288788130107000884e-01
-3.539039372894353663e-01
2.108889018237547486e-01
-2.995412624034278770e-01
2.031922865364023667e-01
-9.669602176121414039e-02
1.948899772007055553e-01
-3.323012212603408400e-01
-1.890392563950543947e-01
8.089792250533488216e-02
-1.542043381914985078e-01
-2.462636277675568641e-02
1.180341237588524161e-01
-7.518028823522832083e-02
6.620499550512606302e-01
7.870029416679184819e-02
-2.097380066243372532e-01
-1.620572622824304199e-01
-1.168228329615719208e-01
4.294116623336893118e-02
-1.474179813353790891e-01
-2.414210885794214889e-01
-1.584605482332711313e-01
-1.324722723477086972e-01
-2.355773341938217913e-02
-1.250492123774836206e-01
-3.233652957480553924e-01
2.570876386213226047e-02
4.027468777457662852e-02
3.385617972846013957e-01
-1.316872342191503509e-01
-4.091382689429834962e-01
4.720378901662917182e-01
1.372172255658591355e-01
-1.450392066592386675e-01
1.841024755910481980e-01
-1.742239308889937111e-01
-1.400053106359961663e-01
-1.180678406946587405e-01
-7.366683573229848569e-02
1.234283080140041178e-01
-3.183673556140405037e-01
3.776748197929423179e-01
-3.833248178793084108e-03
1.108429033705839867e-01
4.093166093855146737e-01
8.855222635578820223e-02
1.359810864600127511e-01
5.529468714589682588e-01
2.129127060083610135e-01
2.089629973998641532e-01
2.149059365771441299e-01
-2.856476265489447108e-01
-2.278972709224451887e-01
-3.349094769155626095e-01
1.321616627597355653e-01
-1.751308176389951010e-01
3.060888579191433090e-01
-2.287745482670570929e-01
2.224044965923652195e-02
2.709944455877783542e-01
1.650764065385721402e-01
-1.444396769457365892e-01
2.376851936726238623e-01
-1.458196879472287988e-01
-2.876358177016179463e-01
-1.351107667940731338e-01
2.218800283319707356e-01
1.410343679885858563e-02
1.051681914199985579e-01
-5.406448793215753446e-01
-5.375590606515720429e-04
-1.388000687647636122e-01
-1.154678319449911339e-01
2.191721173141345791e-01
-8.375742740045731549e-02
-3.914555411192957579e-01
1.860575426273478050e-01
-5.929606302038051280e-02
4.352925079014878518e-02
3.216939721335640434e-02
-1.359977999549414340e-01
5.489346327764579314e-01
-2.282845706908743222e-01
2.376615672430441584e-01
3.720790290000596801e-01
-3.914753450652816436e-01
1.368557042734017959e-01
-2.883771138190086708e-02
9.242869783396345795e-02
9.051996212546675746e-02
1.841312557151791873e-01
1.645155386908254969e-01
-6.848240077660665281e-02
-4.101248946248802763e-01
-1.476408720470168412e-01
1.031083091653093448e-01
4.087471031113505404e-01
-1.022479427934797208e-01
-3.226705471042894124e-02
-1.440550695987091734e-01
-3.930477808456891986e-01
3.702919426875833642e-01
-1.624624412184374478e-01
-6.022078002993060813e-02
-6.360527493354982409e-02
-7.649101346307811411e-02
1.359037601207552237e-01
4.998461852916548376e-02
-1.813121117213673250e-01
-1.272161907507708689e-01
-3.694501835159075820e-01
-1.827420972572436908e-02
1.565692377278980751e-01
-8.257553897301982138e-02
-3.267772396601050788e-01
1.189122820031169175e-01
3.408314890704804423e-01
-1.391648121387424331e-01
-1.919379519925261124e-01
1.267301352966092309e-01
-2.984386060532320251e-01
-4.593413290132603577e-01
-2.494676841201392270e-01
5.491563138434599201e-02
-1.744251617285364486e-01
2.194859285593683540e-01
1.417255303173438064e-01
-1.640250077398962281e-01
-2.771362021909252668e-02
5.633318846770647703e-02
1.296571786810494509e-01
-2.172168027859181505e-01
-9.768452441218015980e-02
1.306936226704472764e-03
3.074646417360907963e-02
-1.275273515600519776e-02
2.155775312602668525e-01
1.322905647666493822e-01
2.097929426461748181e-01
3.617238665717038559e-01
3.550338691130801583e-01
2.054379632126474009e-02
-3.267907638536757253e-02
-1.438592255150981103e-01
-8.027806150136619634e-02
-7.395649124506675776e-01
-8.320195238167150953e-02
2.784651589244104275e-01
4.368400698591827502e-02
-2.961802700305478653e-01
8.114656884077275922e-02
-3.457215583976100404e-01
-2.287541646572610887e-01
-3.218281167377219365e-01
8.340997001119209928e-03
-2.446847969682546323e-02
-2.950531374889647784e-01
2.436228407728144030e-01
8.504915468510683418e-02
3.918543723302449211e-02
2.030098640831385359e-01
-1.982756222191567053e-01
-9.264173252652294077e-02
7.298165787854285491e-02
-1.588733906124115483e-02
-1.803095110637662965e-02
-4.657279113318769925e-02
-5.617206087334471187e-02
-1.777005895454032425e-01
3.871008357022644175e-02
2.622053152643019983e-02
8.365729661132845218e-02
-1.322013567954583857e-01
1.404820555663928092e-02
4.198935938795888417e-02
1.131790399394467378e-01
2.086214377223107042e-02
2.809501867078516985e-02
-3.929589013165395162e-02
2.241266995886312743e-02
6.877264816468572906e-02
-1.722930712696098265e-01
9.551143851522538031e-02
-1.769024718985101885e-01
8.992645316428451996e-02
1.988582379067533878e-01
-5.360521843491447558e-02
-2.782882041683679697e-01
1.241988855036270240e-01
-2.943013270148369664e-01
-1.271901284555656264e-01
1.387548027385035188e-01
-4.852973509251291839e-02
-2.581316896435966735e-01
-7.540639987480410311e-02
-1.153965901163889196e-01
5.238926979489635753e-04
-6.151438282980644656e-01
1.611374454502861875e-01
-4.779720119709041093e-01
-2.733916015615777892e-02
7.588507383731650791e-01
-3.774760953633634619e-01
6.150529375675392041e-01
6.244850984346546063e-01
-5.686196413467985156e-02
-9.993320677287383103e-02
3.754848318936361284e-01
4.873499284425625300e-01
1.719578338992737432e-01
-7.983317606039182224e-02
4.843302635864136785e-01
-5.746901002108397577e-02
5.758403707978992925e-01
-2.341370455941730044e-01
-1.429003051527375223e-01
1.645997225110937268e-01
-1.943896736875655729e-01
3.757715362327842534e-01
3.431709329377264361e-01
1.046307551661824764e-01
-2.260566818837939085e-02
5.414154011863180349e-01
-4.835017389237646936e-03
-2.389221362407203952e-01
1.909920467220674323e-01
3.835528636010919479e-02
1.359936506676792112e-01
-5.282117892708572127e-01
-3.837182310381284656e-01
3.014615257784307167e-01
1.921874376806486928e-01
-1.680118609808753105e-01
2.131054835255934143e-01
1.815332914529486641e-01
2.183703223377579314e-02
6.162496041696045868e-02
4.202395676454420137e-01
5.360066427016730445e-02
8.856704116371939828e-02
2.964727600179406508e-02
1.944312563824619200e-01
3.164630131280525560e-02
4.154686166391888813e-01
3.591035863598360245e-01
1.949552294805578234e-01
-2.486654091626603058e-01
-5.820281139977215995e-02
2.799505769491482110e-01
-2.419389103210228473e-02
-1.666756154164529546e-01
2.524840212980583587e-01
1.735298544170893464e-01
3.950761849141726234e-01
-3.138020192499852978e-01
-9.108959617366267636e-02
-1.072482222972966914e-01
1.361591476960063996e-02
9.676564770590227738e-02
-3.029380791102663228e-01
-3.018380285131797569e-01
1.544102581196893365e-01
-3.818027001811095111e-01
3.935660456234552629e-01
1.949778262452137034e-01
-1.877947035916027185e-01
2.109506590999857822e-01
-3.586465720365131227e-02
5.884231063734031431e-02
-1.047586809430319094e-01
1.829827107946405684e-01
4.693083401255591924e-02
1.098085271244221284e-01
3.507308407798140956e-03
7.513232688776329271e-02
2.067216451398422028e-01
1.840981828112835950e-01
1.143973407644974152e-03
-1.841419577774804917e-01
1.874850053608781431e-02
-6.098130425071424110e-01
1.172009786309899521e-01
2.489547264315525310e-01
-3.120100529954037971e-01
-3.099933863565587089e-01
-3.643894827474900705e-02
-7.744527656780821057e-02
-2.929227211963351674e-01
1.861979350269119537e-01
-1.584156490082506974e-01
-3.111503820641928209e-01
4.632119160759248788e-02
1.375287561590793628e-01
3.614833417388977899e-01
1.520554658853048580e-01
3.418314632194988795e-02
-3.371212497766285648e-02
9.478220712904072975e-02
3.905813721942998779e-02
-2.902572431304342726e-01
1.113891413083691467e-01
-5.270685276969245825e-01
2.572398505999162199e-01
1.252414068677361880e-01
1.440091792423376649e-01
3.132037749556700335e-01
1.520316216889052163e-01
-2.854919405227596685e-01
2.358698969450188643e-01
7.243469185697629098e-02
-2.963644244279822204e-01
3.325922171481744960e-01
1.155260235056005530e-01
-2.158674941386579949e-01
5.977776995878033572e-01
4.356852227937068472e-02
1.620840894795213261e-01
-8.315386594873004633e-02
-7.172782434262334368e-03
3.273731653596653191e-01
-1.295232027655104576e-02
1.134464063065073886e-01
-1.591167738002613186e-01
2.419465095826560663e-01
-4.075495346418534504e-01
1.411869061152812022e-01
1.684511650663736149e-01
-4.827919683288596497e-02
1.720189331591955029e-01
-4.580028125323374472e-02
-1.692417893221679626e-01
6.699577759031974389e-02
-7.480417808847533712e-02
-3.229681094286492721e-02
4.374336637385402293e-02
2.598040854160400537e-01
2.195687069542135161e-01
1.067092974247510311e-02
-3.098210499727153677e-01
-4.450268376055302455e-02
2.093680277298591019e-01
-1.063935397719925624e-01
1.446436699286414718e-01
-2.893294152065588598e-01
3.616831223170990373e-01
1.010218104587668753e-01
-2.284637205281235539e-01
1.932155486127951349e-01
3.091975423465644912e-01
3.457518418424150308e-01
-4.024675830337144378e-01
3.296077746541410947e-01
1.290054503897378746e-01
3.549922852627058756e-01
-2.851365162485303695e-01
9.930489868516156893e-02
-1.149772615660471509e-01
-9.416708802305913395e-02
3.056900077404788862e-01
1.971915509333715261e-02
-1.544428660403613096e-01
1.372933158152617739e-01
-2.202350970447329859e-01
2.762492097250395240e-01
-2.141732552447152549e-01
-1.572013539677739047e-01
-2.714901266966894267e-01
3.735780827039207885e-01
2.052788292549247162e-01
-8.683467472442139845e-02
-1.390478807592018251e-01
-1.544304453877545225e-01
-8.749890934000213727e-02
2.183438297497378999e-01
6.668676873180648564e-03
-3.046507384937711116e-01
3.072352962399673149e-01
1.701760978206713279e-02
-1.176374420414414007e-01
-6.146728105834775580e-02
2.970475012573994822e-01
-6.470005538333985229e-02
3.097861781106798218e-01
9.745186702195003658e-02
1.862246763700646790e-01
-1.944727501416917415e-01
-1.113451943374514502e-01
-3.578794726606024379e-01
-3.060204259370213637e-03
-1.267906986932935687e-01
-1.992274711846565849e-01
-1.321005816385489341e-02
4.622485353588452472e-01
4.261460144304404785e-02
-1.154917614151374228e-01
1.089667145307293139e-01
-2.682459531522534690e-01
2.357178205615788613e-01
1.924940892594091402e-01
-5.886025690610185296e-02
-2.972004469017218153e-01
1.283465000684768098e-01
-4.331715144483936908e-01
1.300871203322004066e-01
-5.013678978481032056e-01
2.089362577749670769e-01
-1.728850586629123581e-02
2.477275329929492786e-01
-1.640023219608378047e-01
-7.401427274586465377e-02
1.516127151913608251e-01
-2.879554895317663621e-01
-2.146084901645042148e-02
2.156543347817100609e-01
3.302622764088973817e-01
5.374893082951135437e-01
2.467499713608304612e-01
-3.776171327792360866e-01
-2.654598226635253022e-01
-2.868485549409403590e-01
2.769523052498950588e-01
1.230852289386461101e-01
-9.729262192410978449e-02
-2.211452273880950281e-01
9.590038647814273787e-02
-1.249149847433719297e-02
3.483238999849561091e-01
1.004873705340498663e-01
2.507473228984996583e-01
-1.314010902497446745e-02
2.519426752710856587e-01
2.020014492492087921e-01
3.018855269990275980e-01
1.212990482256426708e-02
1.836006671585083128e-02
-4.627015630465174389e-01
1.546076508403996241e-01
9.749073296149615708e-02
1.141099184584416643e-01
6.014459268918651708e-02
-9.193776489143531960e-02
1.887258421743075523e-02
-5.799471738011255928e-01
-2.655131008938725889e-01
2.933281741611667298e-02
3.640524910798547675e-01
7.067918210342750973e-02
-3.873081244236237231e-01
6.163057783081388880e-02
1.831749288331014150e-02
-1.589355265880804391e-01
1.407542840913852400e-01
-1.351521205302812223e-01
3.949092346540929860e-02
-4.268177885759974477e-01
-4.591896138785585002e-01
2.425850193459591908e-01
-5.555168897463831357e-01
8.732426656710911075e-03
1.595681363583849599e-01
-4.416552454697612040e-01
-3.820985236770378379e-01
2.966254437682231959e-01
1.244554865074850303e-01
-1.439832454614640433e-01
6.133537093909916527e-01
7.411738200823048258e-04
-3.038284503355715427e-01
2.439056479545479231e-02
2.860191290892079019e-01
-2.480147314983613405e-01
-3.071882251551667498e-01
1.803815202582998156e-01
1.877267264664892951e-02
-1.572876341011651968e-01
9.563447874121505654e-02
9.194398234772228895e-02
-8.665235266372957323e-02
8.892194132417656494e-02
-3.533976172500324364e-01
-1.056933017346782869e-02
1.556334467472481886e-01
2.185842985311009859e-02
-2.200148061151613599e-01
-4.327093846756693146e-03
1.946246389975911650e-01
3.468763987646215630e-01
4.331062227483083865e-02
-2.833370479016223409e-01
-3.171535392401972353e-01
-2.824817569562068087e-01
-7.891093670044645181e-02
-9.934605628135716182e-02
1.038799176070113878e-01
-2.472596329499502504e-02
2.266280617980631074e-01
1.686887593461807670e-03
-1.001512989917218016e-01
-6.659546485665457372e-02
-2.956720136268334853e-01
-2.439415820409800706e-01
-4.823570564268531147e-02
1.536958391388606182e-01
1.883697201170924374e-01
-1.426511764591775755e-01
3.030133785372048361e-01
-7.219420110511544364e-02
-2.189470111653942508e-01
-4.431682345834041248e-02
-2.931442072746553440e-01
2.178739723197356259e-01
-2.365878854229038764e-01
2.146566426008073014e-01
8.060788385264279488e-02
5.007019038874875594e-02
1.544926185913957639e-01
-2.957042107748995563e-01
-3.453065599300858546e-01
2.457934682383809133e-01
-9.185670997669689863e-03
-3.012823273082405606e-01
-2.688769426842660959e-01
-4.912805200603725941e-02
-1.632638229509155992e-01
-2.825657017441229879e-01
3.080639138541945224e-02
2.793216491828128811e-01
-3.263170591660493614e-01
1.417927488786785706e-01
-6.674640857102170921e-02
2.652580626055514243e-02
7.222072617951753870e-02
-1.084028766963482798e-01
-2.822778458613678931e-01
2.882902608253010840e-02
1.610425816274433375e-01
3.693304552991321099e-01
-2.213689224312301307e-01
-2.664939987043629666e-01
1.310838107706216726e-01
-7.561853538128049390e-02
1.863577573514160479e-01
6.512081114213402744e-02
-6.336177432693433642e-02
1.601721567367191679e-01
2.939338494658882972e-01
2.050346561905229126e-01
1.069948150942439391e-01
-6.139895060726963637e-03
-2.851497994319077134e-01
1.663435901717170706e-01
-3.154235472931431472e-01
-8.871356550145136077e-02
-4.859772264731064828e-01
-2.087392896149265209e-01
1.942939571518633723e-01
-2.631638877781945496e-01
-1.530436214872567813e-01
-1.889821768839932137e-01
-3.913494292648108108e-01
-3.807297485800403836e-01
2.036572932709239392e-01
1.015072936465000325e-01
-3.469936802506481954e-01
2.313967978334236786e-01
-2.827379527985199870e-01
-3.329597267752400502e-01
2.745805590689764375e-01
1.317980550128868555e-01
1.594610481749006159e-01
4.395517246248740184e-01
2.533522549500018539e-01
-9.785689929915021568e-02
2.387221562216849668e-01
5.484168855114017471e-02
-1.926392664511866193e-01
-2.895147796398155893e-01
-2.789702694821310502e-01
1.675402003459460221e-01
-2.169459081773775222e-02
2.719856090976470464e-02
8.343688563955288864e-03
-3.284458505570081455e-02
2.267108190265195444e-01
-6.458488380514550153e-02
-8.561462691517349177e-02
-1.809157846224059840e-01
-2.042819811903346661e-01
-1.136147524495022682e-01
-5.097561943878144153e-02
-1.177047321916360051e-01
-6.910343283527207135e-03
-3.496863863831247560e-02
2.250933398478228639e-02
2.102702650916133190e-02
-1.532860948945665713e-01
7.340742992053718441e-02
-1.018605761804835391e-01
-1.312458010017532595e-01
-2.710758606512480018e-01
4.969237760369796253e-01
3.809040209671752386e-01
-2.344741211682602466e-01
-1.852172242994180040e-01
-2.386534673699238496e-01
-5.652491965792117573e-02
-3.099308092205951271e-01
4.225655840654062023e-02
-9.624896176530409186e-02
2.867240646546847030e-02
-9.641734780043926048e-03
2.974265356240631264e-01
-2.568343234177549173e-01
3.159523920188653801e-01
2.439356911870834976e-01
2.046236989445927579e-01
1.300308973515351685e-01
-1.657154155330530232e-01
7.158016070234816952e-02
-1.077670774870902182e-01
2.432299584213524768e-01
2.521318893476479084e-01
1.113615603827131095e-01
2.540975743943037490e-01
1.687131998525991106e-01
5.345545955123292003e-01
2.343169584734090261e-01
-2.716626817210743283e-01
-8.198912376560127391e-02
3.276031690708933741e-01
-3.626996607181474652e-01
6.236568056371967206e-01
2.231528941809834687e-01
1.677820883944700636e-01
3.811600518439972607e-02
4.476569187375309955e-01
-9.640954548798032209e-02
9.330600635491828609e-02
-1.961027075006773479e-01
1.111812749226148561e-01
-4.057663437319157795e-01
8.781958657810215452e-03
6.302973832746080335e-03
-2.736753895140163206e-01
-6.591262744670173257e-03
-9.403935630578123817e-02
-4.004902396434619760e-01
3.485986565234321100e-02
-1.383558244711829699e-01
3.691460320410269169e-01
-1.122915585784142467e-01
7.531725907998196301e-02
-2.420394466375436204e-01
-9.065985594727876684e-02
6.125095595471935321e-03
-1.320217626336810390e-01
2.252331318902409119e-01
2.400443186143022545e-01
2.643644309695903361e-01
1.199824108443568876e-01
8.241008216884623816e-02
7.235117592232639394e-01
1.371509932095496820e-01
-3.454962981332511569e-03
-2.511936889027593378e-01
5.165024812114946684e-01
-1.069196136700124727e-01
3.028673133547761243e-01
2.131542728660994479e-01
-4.008518262158799333e-02
2.608290723599954175e-01
6.482965482276143998e-01
2.081465584273373692e-01
1.968743161835512234e-01
-1.204048436786010617e-01
-6.692817765915355377e-01
-1.536481188510639140e-01
4.115422861713864677e-02
-2.081058401502652866e-01
-2.372010783831642045e-01
-3.099510031772192420e-01
9.705064454106021588e-02
1.031276005078695518e-01
-1.013736113671028644e-02
9.132479454740125013e-02
3.037373457651153519e-01
4.674271090598330902e-02
1.322905195579545390e-01
5.833983975762727647e-01
-1.224561928146031264e-02
1.183036012493748207e-01
2.614568094366276907e-01
3.660720225581802212e-01
-5.190715508723755395e-02
1.124508093128328418e-01
1.570087923393999607e-01
-1.658644030339599951e-01
9.362166166928032052e-02
4.127078312208158628e-02
2.857023287647200704e-01
1.210375743071055998e-01
-2.237454489818613557e-01
8.269511279911533064e-02
9.002128740011892949e-02
-2.088329284803942809e-01
-4.396811223226291393e-02
4.297376090362749895e-02
-8.214574490330646406e-02
-3.370824476850726170e-01
-1.789062751465049228e-01
-2.533525201056460729e-01
-2.104081563485862838e-01
-2.828336921032524875e-01
-1.939402306556295419e-01
1.831230077908056197e-01
2.306251381784919507e-01
1.912744895314059945e-01
1.534604633236171523e-01
1.591536717828771416e-02
-2.420299591919866100e-01
8.714499316161487819e-02
-1.541420769878674435e-01
-4.323130664895061814e-01
2.910737509435805670e-01
-1.413127460062767737e-01
-6.495100613377072230e-02
1.721466242699576654e-01
-1.499851298483012296e-01
-3.884000847611186469e-01
-1.310626325294330860e-02
1.964726528518238313e-01
-9.489908914853863175e-02
-9.575849516712155174e-02
-9.279790748317853430e-03
2.157465206638711219e-01
1.920994783733987465e-01
-1.958625828323111353e-03
-3.983056390308710448e-02
-1.560857766540691971e-01
2.322332587727492237e-01
5.990170474374219983e-02
-2.347701758870359423e-01
8.578237923081830085e-02
4.667185899914469971e-01
3.136119946534524777e-02
-3.750893979405434814e-02
2.189634874993026670e-01
3.350016091952391917e-01
-4.702248222861239030e-02
-6.202703553615272064e-03
-6.436559890143671303e-02
-1.098740738877878459e-01
5.295433954988436331e-02
-2.196318302881827556e-01
-1.882618768004108156e-01
1.843258207276111116e-01
3.468004027228877018e-01
6.726062018550621469e-02
1.364327548849233844e-02
-3.197643330465161360e-01
1.943514001835534022e-01
1.830802070892423028e-01
8.765562885918014302e-02
2.544243198866619760e-01
-1.788422953789734482e-01
3.379984237647620793e-01
1.533877291565628742e-01
3.886950832097165603e-02
2.205652525214938375e-01
-2.528521231371202993e-01
4.265579712740682344e-02
-1.291018747424421964e-01
-5.171747193733520209e-01
1.570411625457560911e-01
6.498169828664241976e-01
-1.517106038199766138e-01
1.824190919337451144e-02
1.115798419835751232e-01
-1.267003097888583230e-01
-2.421582926840305516e-01
-7.028902464894502822e-02
-8.256328813322723337e-02
-1.744593456381809682e-01
4.151199823712479753e-01
9.036340553251918928e-02
1.838926149652792275e-01
5.318555419049773164e-02
-4.863820210962117169e-02
-2.655623475037604542e-01
7.294128394908025448e-02
1.260852965688182836e-01
1.724916030008536924e-02
3.739288843156590159e-01
-2.934182228929251290e-01
3.885526128585650024e-02
-7.776153572355382071e-02
-2.265483681346840694e-01
-6.181323888072037115e-02
1.495412185024855012e-01
-6.766859331870227201e-02
-3.959321095232258558e-02
2.693337831676508864e-01
1.736308251241260731e-02
3.556931559055113989e-02
3.193657207433377998e-01
-3.316593155265024073e-01
4.047178970368703887e-01
3.924994019687988445e-01
2.695901308964465115e-01
3.735736438684213456e-01
2.418296245138664979e-01
-1.177451522572028064e-01
-2.094877867422558215e-01
3.013183273833867568e-02
-2.348462591047661974e-01
-1.579205825765210569e-01
-1.949218075388790827e-01
-6.844816536566225573e-02
2.005733961135507809e-02
-1.420684750768236859e-01
9.752907736325416767e-04
4.519877273341352808e-01
-5.907460356427669534e-01
-1.881731935802299083e-01
1.202781068310092294e-02
6.955963613031900250e-01
-8.394630185402946615e-03
-2.051488060630717591e-01
2.714936416216744419e-01
-4.073475819502653250e-02
-4.713932598044418554e-01
5.472830124290974790e-02
-2.109791076440228064e-01
2.995522246220784848e-02
1.720266325529264950e-01
3.765745310028945081e-02
-3.048488479369764609e-02
1.404655558004863081e-01
-1.823207565661821503e-02
-2.753615680794581078e-01
-5.755675279087681812e-02
1.840634547039138660e-02
4.263839722784707603e-02
-2.443958741081341257e-01
1.872147575051143209e-01
-2.182364765951696761e-01
1.580400303581046273e-01
5.065904378856327106e-02
-2.060574829028343491e-01
-2.605233303799023292e-02
-1.768866136847327131e-01
4.598733760029221629e-01
-1.685934827833382998e-01
3.221857142491139636e-01
1.380082995397954870e-01
2.856899760339413896e-02
9.938014661204262745e-02
7.489526904777012994e-01
-8.065066411219758147e-02
-7.443638140260481866e-03
1.799439677196576215e-01
2.221798931409933037e-02
-2.777873290420226349e-01
3.078296895150666734e-01
-1.193221052002663429e-01
5.983673483178869601e-01
-3.145264894223893104e-01
8.017285208019682419e-02
-1.380700077677689264e-01
-3.478044227213175632e-01
-1.516439165543944367e-01
3.314320285123261711e-01
2.153794733172638975e-01
1.895491581722090479e-01
7.739583130871000027e-02
9.673099639220599302e-03
7.874937006706915488e-02
1.047830317023613622e-01
-6.735880759795250805e-01
-2.418627113668165782e-02
2.153393822895637855e-01
3.513348835034928175e-02
-2.266588010737087266e-01
-2.959534248863237085e-02
5.020348589067792355e-01
-2.275610748512741366e-01
-6.007632799661497686e-02
2.581695241555986287e-01
1.949874582249792321e-01
-5.598470454804579249e-02
-4.024186684935587843e-02
-1.611711185329660345e-01
-7.297236427613738863e-02
4.305028674330129146e-01
-3.663779605592256128e-01
1.210321183018288616e-01
-2.875962230158787825e-01
2.932060094054482757e-01
3.252309450216882558e-01
1.667524569340483875e-01
1.928376916239077365e-01
4.345650930029712478e-03
-2.617889658874522629e-01
-9.937665891676682184e-02
-5.131108809318959962e-02
-1.169030744782827286e-01
1.332621781407766215e-01
3.629794713111757914e-02
4.734616965993681398e-03
-4.264238809611697878e-02
-3.105434274415278528e-01
-1.392004323557695378e-01
-2.071870552532736331e-01
2.673082791756906662e-01
2.157797339496663747e-01
8.529802650763226857e-02
2.448649698004607411e-01
1.794817637920912146e-01
1.935152961369840940e-01
2.652704119401734784e-01
-1.183743710409310562e-01
-2.690005494035052624e-01
1.125080073397548980e-01
-1.834219128167287882e-01
2.097180027446466088e-01
-1.612447858428995018e-01
-3.827886556761823100e-01
3.148658489972143149e-01
-4.075444973714027475e-01
-4.803229741648586959e-01
-3.728710270307380448e-01
2.169371982214483852e-02
-1.512829982748138125e-01
7.074872383721803049e-02
-6.160252866830624383e-03
2.792320150815056912e-01
-1.300029754257636672e-01
-4.822294993206948099e-01
6.859172512901200169e-02
-2.119075385684750235e-01
6.330619851221200856e-01
-1.156366591276359046e-01
3.136835124800595453e-01
-4.226350743798226173e-01
-3.345023994904171988e-02
-4.508318030656981168e-02
2.161634120655827468e-02
-2.580138580544454330e-01
1.557315021723997550e-01
6.491438832232332423e-01
2.855937336429431039e-01
5.277431551680527022e-01
-1.727244705000284541e-01
-1.874783745367653021e-01
-2.250440727448936307e-01
5.324505088223720900e-02
4.898922201439297464e-01
-6.890518766212329338e-02
-1.796637606990985070e-01
2.608844273330371832e-01
-8.932336674431982926e-02
2.322249498218888486e-01
1.388403748754094003e-01
2.479521282091190215e-01
5.396869782376049196e-01
4.347598558598544938e-01
2.761292025926449512e-01
-1.055803118447372901e-01
2.435787894844650414e-01
-9.974242384215070700e-02
9.095742999283795704e-02
-9.989441723448078125e-02
-6.398160933768558267e-02
-1.902276052331514644e-01
1.749706608642976613e-01
4.656583732485665428e-02
-1.553893231420579168e-01
-1.312634095753877628e-01
2.054121642214639110e-01
1.766042265398789016e-02
-1.977694214892491142e-01
-5.964735353314468830e-02
-2.317374041276277219e-01
2.585888803275969150e-01
-1.694614802171998391e-01
5.985482879753446506e-01
-2.412394467406539789e-01
2.231321731755176729e-01
6.385012005140959512e-02
1.374201087590143366e-01
-3.159367167733233978e-02
2.947349542985084336e-01
-4.467342134437241041e-01
8.049577945723877803e-02
-1.070781064827080048e-01
3.650891410880868077e-02
2.907848442315584259e-01
1.633937116138164947e-01
-2.174139072323616195e-01
8.110882455876227207e-03
6.246079287769968312e-03
9.059334831649722142e-02
1.217875621124932251e-01
-3.665131261412123420e-01
-1.017226879400817269e-01
-2.433015668992852265e-02
-3.749318638584189095e-02
-3.066152947159871481e-02
-1.551613787812894905e-02
-2.239698641607794916e-01
3.948766279640889693e-02
1.169775724617180823e-01
1.609758955999179841e-01
3.724492818256822796e-02
-1.757286137952740815e-02
-1.130369168328898694e-01
-6.697175054222338775e-02
-6.861988265581550617e-02
1.321691619774948041e-02
-1.596990665967139289e-01
3.589006600667450919e-01
1.249170857580931548e-01
-3.854954955485211110e-02
1.983961772099675572e-02
-1.807770967167888765e-01
2.002879763833156079e-01
-2.649617049043022088e-01
3.592891846044454773e-01
1.657604386599671742e-01
-3.117512478177578150e-01
-4.650338612467410093e-01
-1.240659915007846087e-01
-1.751015889717305873e-01
4.654178395518705595e-03
-1.152487440293430560e-01
9.823028176108694609e-02
-7.064895252326245691e-03
1.776447955503684117e-01
-9.890318827570648841e-02
1.892869314911837728e-02
1.727192026194311891e-01
-4.906852593939102780e-01
5.919141779325163416e-02
-7.782625699935168118e-02
-2.644988609017347517e-02
3.136645430857024769e-02
-3.584655686616844417e-01
-3.557361175249480478e-01
-3.602270046664465819e-02
4.068720621320501274e-02
2.278655195805442124e-01
-1.250043530170768524e-01
-3.117184345252488886e-01
1.771019435892218219e-02
-2.610083886299100486e-01
2.477641984746122295e-01
2.287165327737830378e-01
-2.638272010727815697e-01
-5.924330261194497155e-02
1.283921888029690150e-01
-1.311953591853838308e-01
-1.458905180788732936e-01
-8.838329733364796645e-03
-1.604508020106119592e-01
-2.825024948646120970e-02
2.868045681929344282e-01
5.081467764554090105e-02
-1.071979272068002975e-01
-6.206739420331778279e-01
-1.161425848221253262e-02
-3.172926082234655554e-01
1.376616130067058463e-01
1.030290341004438531e-01
6.195084864464921875e-02
-9.855699476624599220e-02
-4.549851635717090670e-02
5.924982748977031255e-02
1.173128056812379055e-01
7.211037849977238769e-03
2.700610932466712133e-01
-9.547399574079554196e-02
-2.232677220041072996e-01
1.344061679562695011e-01
1.956178882321167947e-02
-1.278387369817644836e-01
1.963476607581252087e-01
-1.347831966147446658e-01
1.334176203544206740e-01
5.194472982763046476e-01
1.615736694757673453e-01
1.503522522613949808e-01
-3.597996296088503982e-03
-5.913477779205934814e-02
-8.026604011280375622e-03
1.542662572795080178e-01
-3.395266314839561206e-01
4.147296617257013179e-02
-1.319014952845326549e-01
-6.176760529967489921e-01
-3.253547333089844562e-01
-1.492082776730132565e-01
-2.011821839845791549e-01
-2.999252771201118550e-01
2.810325864981057936e-02
1.101491130806060703e-02
-4.387099636685015680e-02
-2.281834196490823696e-01
2.339928606257428712e-01
1.448225481190237862e-01
-2.313035407079737926e-01
2.688027526799035005e-01
3.064606513318531844e-01
-2.713599646568877755e-01
-1.079045133504964726e-01
-2.242728276138682697e-01
-1.544813557230997614e-01
3.657144963142262839e-02
2.092145204448024876e-01
-1.178976066832080893e-01
8.117656983871927856e-02
-1.669668967976821808e-02
-4.058497097783619334e-01
3.992963617389289066e-01
-6.716601853402856537e-02
-3.279863367200348823e-02
5.550081700176323629e-01
-3.512801264475203661e-02
2.558737883421334236e-01
-2.105653456426414757e-02
-1.171027001396824363e-01
6.890466906075387588e-01
9.907332054357337325e-02
-2.669289257886579003e-01
-3.113016238398235158e-01
-1.442863373205266302e-02
-1.316499254050509937e-01
5.980184190522898069e-01
-1.117790895328023421e-01
7.961375559208005992e-02
-2.543042545327838799e-01
-2.774925680829726238e-02
2.481093533954294439e-01
9.744108627143811818e-02
1.036030871915918361e-01
3.034896152335304076e-01
6.412544647761489469e-02
1.309147745527267370e-01
6.914301156758106970e-02
-2.375781020526551435e-01
1.077139547091952171e-01
-3.702441078873565661e-01
-1.436634901426306066e-01
-2.454857272770880339e-01
-2.260377760876792208e-01
-4.374105119099984673e-01
3.330867463233291303e-01
2.408199364460629766e-01
8.351700829706981688e-02
-5.434978252213151784e-02
8.949200173835351879e-02
2.676201470181624464e-01
1.489191532713188548e-01
-7.173274195108921003e-02
4.485230208473076768e-02
-6.587732008247580359e-03
3.099355061299781111e-01
-3.578663729293473095e-01
8.501426972708835128e-02
-5.197164294988038113e-02
1.301488191862572308e-01
2.577416848729628951e-01
1.604991555184538676e-01
-3.300900036334992321e-02
-4.340835096785621017e-02
5.570720159855110931e-02
8.084105635512246757e-02
-1.840542449613122022e-01
3.131944997768681266e-02
-4.960859348480543655e-03
2.425601862037880113e-02
2.062975878602466007e-01
-2.222356476777014866e-01
1.708558321011124370e-01
-3.502642629046637257e-01
1.422841139665409205e-01
2.567423201440819369e-01
1.602047082271525758e-01
-4.597235352337254999e-01
6.523190975413301063e-02
-1.429031001691694752e-02
-2.221001794641997221e-02
-3.178257504726228477e-01
5.323212265390325076e-02
-6.254324378964641606e-02
-4.654360111874986106e-02
2.013324032398469132e-01
-3.491065013375348192e-02
5.166323983242406825e-01
-2.940104139018956397e-01
8.973526291995123291e-03
1.480146094644035071e-01
-1.875439390675321116e-01
-4.516087418155378952e-02
-2.434270801085883507e-01
1.856598106473862919e-01
7.535221458489123336e-02
-2.028464980518635274e-01
6.380052767933360736e-01
1.010816211725804603e-01
-1.311513649265800274e-01
-1.678633491558328139e-01
-3.120802339575032280e-01
-2.852805804765280451e-01
-9.727073981743647457e-02
-1.010918276442155372e-01
1.442935562607758349e-01
4.464436651130575251e-02
-7.846274998747239382e-02
1.644297067710003557e-01
1.140605322443363073e-01
-1.332724532157912034e-01
2.317551237623017846e-01
-3.326958688751671667e-02
7.231475316808065601e-02
-1.956643791441665392e-01
-1.130191299329964295e-02
1.050650966115623391e-01
-1.304559185951206512e-01
-2.777288422317110150e-01
2.152149140841165542e-02
-2.635285762243581853e-02
2.115126027628256855e-01
2.401953964290443611e-01
-1.061678986544935671e-01
-6.971289376467107446e-02
-2.624157204184982342e-02
-2.995472197118452251e-01
2.917638484543783051e-01
3.121089570202366104e-01
7.478358235708176815e-02
1.539486497233905071e-01
-1.302267561331604540e-01
7.343462251837455934e-01
5.736337326623800470e-01
-1.443851441002608378e-02
2.222368557620475749e-01
-2.681953500294159687e-02
1.159828394358369263e-01
-9.717672577729824512e-02
4.149982220762023222e-02
-4.206530406129914412e-02
-4.355444610152799378e-01
-2.187141445406440288e-02
5.070164812083425426e-02
-9.191133746186212414e-03
2.559291457408293113e-01
6.831525763749722868e-01
-6.181592278421819964e-02
1.688360619735430057e-01
1.061589587487647424e-01
4.597395492527456828e-01
-6.871202652081540019e-02
3.572152590853517884e-01
-2.319497114664875737e-01
-3.596675916696135539e-02
-2.323942593038314484e-03
6.145467368499605287e-01
-8.307509457236562922e-02
-9.151585789925227588e-02
1.975670176949677684e-02
8.337678073497740983e-02
3.394364932787722333e-01
1.392148074788469858e-01
-1.763749029999896190e-01
2.338986530759593063e-02
3.972298992889976565e-01
-8.092928033098811813e-02
2.420277584281795881e-03
2.123834258605583614e-01
-2.263978301739444088e-01
3.386203303873658865e-01
-5.100375413347952441e-02
-1.161446920796701393e-01
1.891264670210307808e-01
-1.786335789778747685e-01
-3.536814212626323561e-01
-2.014131594986939833e-01
-2.463845433609932190e-01
1.156861891443815293e-02
-1.893862391196594053e-01
2.209613893174952881e-01
-2.647516806236223652e-01
2.974242749749521075e-01
-1.139782954021620609e-01
2.283004546510993341e-02
1.819527733397745817e-01
7.046902887408103278e-02
-4.877106351807691115e-02
1.587716317961285206e-01
-2.519639187271457970e-01
1.826294829612172543e-01
5.045434494040967194e-02
3.094181082429769275e-03
1.329160140602421158e-01
-8.727206263646737844e-04
7.436853390625379756e-01
2.066773890347445575e-01
-3.977746746159633306e-01
-2.265422256558470293e-01
-2.952676100936582615e-02
-2.345280791342689575e-02
-6.554487724373067592e-02
1.571598067449185843e-01
2.042574074513827942e-01
7.219831310802816982e-02
-3.336749244008982429e-01
3.849899276452421748e-02
3.775393739713674424e-01
1.366173888260728032e-02
6.176013803370505482e-04
3.253457778207174411e-01
2.477168045041800437e-01
2.105134262971136011e-02
-4.229008390181954735e-01
-4.407112684225458765e-02
2.879698849357289689e-02
8.979376318942343393e-02
5.189003428266453742e-03
1.762544617553608167e-02
-1.645592884660144750e-01
-2.362900201015275814e-01
2.628115080189900588e-01
-3.839516024993260279e-01
2.850606372213442263e-01
-1.133161563113922743e-02
-5.922707814499696827e-02
2.083357481001529565e-01
7.664836253653095621e-02
-1.348333516996826076e-01
2.497512073207245817e-02
9.578417982243363216e-02
3.071551901075761926e-01
-2.672394131825834296e-01
2.409074098428799215e-01
-4.893521869357499166e-02
1.109025649537922209e-01
3.947449174178783715e-01
3.938196239148929467e-01
-1.118562544722183222e-01
2.255485005075751614e-01
-2.664319150822841986e-01
3.438293423817422867e-01
-1.691827581899999766e-01
-5.595707617832107461e-01
3.334329120483490172e-01
2.434404092259288832e-01
5.177115015257025693e-02
-6.406379434281790630e-02
-4.942917186317441480e-01
-3.753516655982926942e-01
3.700355101498499777e-01
2.591325768645164618e-01
1.100142676147971149e-01
9.578210537399005353e-02
1.200615719879400689e-01
-1.564617773485875440e-01
-8.784378373828677367e-02
-4.073353497169193149e-01
-1.923238222915285567e-01
-6.234401404698994287e-02
3.171759376876961967e-01
2.660483154699930797e-01
1.318196569184167388e-01
-1.001419064414893340e-01
2.835808084169382237e-01
-2.041261916952643030e-01
-2.230799018815890836e-02
-2.936754804100470406e-01
-4.442587455481701586e-02
-1.727175139104754620e-01
3.599969312970071611e-01
-1.954663413573163866e-01
-1.208142405953010617e-01
-1.260612666234386670e-01
2.721562077064580004e-02
1.716822444603257614e-01
-1.552076741527954329e-01
-1.111898949051730173e-01
2.286874656619577225e-03
-2.236177274268210530e-02
-4.995531958941810124e-01
2.144716248849463380e-01
-1.821748231071363966e-01
-2.412125352734685035e-01
2.382774412345952386e-01
-3.733534735813596184e-01
-2.466545333842640186e-01
-6.759306073723769792e-02
-7.305423688789755565e-02
-5.129635791127815786e-02
3.526622795618673534e-01
-1.975237834768383410e-02
-3.000287276029118821e-01
1.619391183627295061e-01
2.545151317102518074e-01
-5.595705299683127742e-02
-8.341325779029745702e-02
-1.013916556247132367e-01
2.083592617172911610e-01
-1.006188369561439033e-01
-2.353003859369297013e-01
-8.447572655434724964e-02
-3.873542758758406063e-02
1.503400574728969707e-01
-1.707713329519359655e-02
1.550856012825868324e-01
1.384205268797048805e-01
3.750429332082585998e-02
-5.224288114911883329e-02
-8.005201300812278542e-02
-8.334721275727359491e-02
-1.019467911331845833e-01
1.459049166697883038e-01
-1.814955507189572066e-03
-1.670278142396394716e-01
-3.143906587475521486e-02
3.867332180183926521e-02
-1.830991462257677838e-01
-1.503561856532779351e-01
1.152936908270074529e-01
-1.103070713678627329e-01
-7.765842272501244370e-02
-3.888773054045133876e-02
-1.648824864059220963e-01
-1.554188453781580881e-01
8.422312121919880989e-02
-1.224673145806207120e-01
3.556863445524785852e-03
1.549820424656551399e-01
3.001188959018377851e-03
7.030145719131064563e-01
1.046216007422625105e-01
-2.441206479127765727e-01
6.601279101817220107e-02
-1.519021820462101435e-01
-3.771595437293953079e-01
1.493569245930235490e-01
-3.708495050104885227e-01
2.401772613851712451e-02
8.411062045390062247e-02
1.517296406308628887e-01
4.644862042559957938e-01
1.481858334275340527e-02
-1.198756552138049714e-01
-8.120566865698425341e-03
-6.303627082777854551e-02
-1.273648394457864985e-01
-3.021248423672779904e-01
-3.539550404562729069e-01
-1.247492388109011363e-01
-5.872439679398850920e-01
3.334385930142000909e-01
-9.845545811895903277e-02
-1.646403167049315386e-01
-1.573903461345766974e-01
1.372609157547638736e-01
-2.833540304919365815e-01
-1.004157055007078164e-01
2.224684530961141757e-02
-1.460248483635277483e-01
-1.568496031178721536e-02
2.777783306301216948e-01
2.820389086135298706e-01
4.266257068028967425e-01
9.360776715204496834e-02
-4.649521188242383141e-01
-3.938550231623738282e-03
6.693067865696385177e-02
-2.699251669180742219e-01
-3.367817597270468810e-01
-5.269605500655119568e-02
-3.431076179545074489e-01
-3.107563382981424205e-01
1.816785052668529465e-01
3.182565404959888933e-01
-5.462232730553301385e-01
-4.381148376405788469e-02
-1.898027073947306242e-01
3.009713780300656005e-02
-1.595510463031525328e-01
-6.172359059262127329e-02
2.696323773648829358e-01
-7.882557133887947709e-02
-4.859239259379351528e-01
4.937625716596370090e-02
-3.245579702517693010e-01
-2.468780064415344588e-01
-6.434008682353083153e-02
9.132588703670571975e-03
2.381822239579811651e-01
4.657477678611650629e-01
1.753044470669832544e-01
1.579338053213453618e-03
-1.658975845417977879e-01
1.021148659947385545e-01
8.937426420101289570e-02
1.400368917843418555e-02
-4.686664813319711964e-01
2.160564258989122743e-01
-1.853021263378570593e-01
3.244020952684805170e-01
1.367538904340637462e-01
-4.099468726806737018e-01
-1.568433607393644735e-01
3.952298486525887555e-02
-7.322259685800829032e-02
-1.615497974339991649e-01
3.553017696234433975e-01
5.832100361647270942e-02
5.487641192461182454e-02
1.288852519609878615e-02
-2.588677842848111643e-01
-1.522103435783292262e-02
2.464473299148129959e-01
6.644876101117097589e-02
-1.003452880034095412e-02
4.823981854237403832e-02
-1.646296290274744667e-01
-9.855082322983567400e-02
1.342354370836753019e-01
-2.551272093786622897e-01
-1.372310995650969367e-01
-1.776777948115266029e-02
1.890115283258138046e-01
4.567735564803490633e-01
-1.280233760971781487e-02
-1.713892842226511226e-01
-2.285008892977223871e-01
2.055640241659968392e-01
-4.875442761176137368e-02
6.938474750796877477e-02
-5.869275031889194250e-02
2.987491799647275514e-01
1.724907718258972267e-01
-4.687574910009780216e-01
-4.042466813426894706e-02
2.250023542237335472e-01
1.196216431143748427e-01
-2.411259344783443503e-01
2.587324257780186931e-01
2.406472670352262713e-02
-4.472458572885260608e-01
-1.097213365227299627e-02
-2.037878083814906038e-01
4.704804020575948376e-01
-1.756837627515808742e-01
4.299449344273739149e-01
-2.190478694269414328e-01
2.199908548269079167e-01
2.922244701456962468e-01
-5.160324528064418326e-01
4.818198277117650974e-02
-2.370004180817408546e-01
6.780883009958606211e-02
2.576314249524838673e-01
-1.311928650736364221e-01
1.553686969874389090e-01
-2.813568226548158746e-01
-2.484493916710214523e-01
-9.783218619204973876e-02
-2.456887301561704595e-01
-4.128666882414859240e-01
4.653282879519956561e-01
2.032396635885913849e-01
-1.445028626924967918e-01
-3.016997779424062665e-01
1.061056334622590969e-01
-1.244356366838284683e-01
-4.722854569063392183e-01
-9.626903076858402131e-02
4.636817359778658276e-02
4.853867371733304459e-02
-1.405788207412581037e-01
1.373726154817008216e-01
1.952785757674701805e-01
-7.774665175001450879e-02
6.259573097986927959e-01
2.230325132822318923e-01
3.626041208550336292e-01
1.847425223230673708e-01
-7.211808039614420185e-02
3.989316506785148819e-01
-3.816481661723805097e-01
-7.438221419077989394e-02
1.942738507538703530e-01
-7.875073247082949035e-02
-8.894176155126354288e-02
1.005961968600454538e-02
3.057320480302343491e-01
2.837335157391596696e-01
1.831127594486602062e-01
3.841561930646449352e-01
-2.883650875018270998e-01
-1.362495459589402047e-01
2.615931831280302600e-01
-5.773531221494366816e-01
-3.901967212429877097e-02
-2.650479060935534426e-01
2.044294641704299045e-02
-1.928310024542074716e-02
9.476166772015982842e-02
-5.565076567922703360e-02
-3.429071981887217291e-01
9.034952559430332875e-02
4.345719195629386133e-01
-3.204823052375545545e-01
1.464454891027544906e-02
-1.551629527056510747e-03
-7.845385530667596530e-02
3.017762707341046791e-01
-1.332028067589679787e-01
-1.134694519226338294e-01
-2.298477085945717716e-03
3.561504574681819135e-01
-2.110654390634683075e-01
-2.835758483408477582e-01
3.093523996668554044e-01
-2.106000098072527693e-01
-1.098440726567168624e-01
-2.555950289058113722e-01
9.774375545114387387e-02
-9.832637802857430165e-02
-1.390235340822892629e-01
1.584015395883648508e-02
-4.009492423608363998e-01
3.031769380185009855e-01
-2.890507743310907207e-01
-2.947819286496931035e-01
-2.978427693052503877e-01
-5.170294303673532259e-03
-9.160542402672307294e-02
-4.991025376109596567e-02
-4.297935725132038254e-01
-2.412803506541041226e-02
6.809664357329681117e-01
-6.140209429241428873e-01
-2.959947878288543555e-01
1.477028748405982694e-01
-1.903360432453607420e-01
3.173040531161014366e-01
1.145137268623233791e-02
-2.176864651634513870e-01
-1.845410031433075138e-01
-1.267745007277399361e-01
4.928137893378146950e-02
-1.337494178415675819e-02
-1.325828077837807872e-01
-3.039260429210058345e-01
4.836208652536316127e-02
2.101932434497588986e-01
4.593561049197839030e-01
-2.275934895529725943e-01
-2.041557639051027329e-01
4.986880183660504229e-01
5.512360213889848648e-01
7.610202701924276281e-02
6.412734240954244547e-02
-1.895412512502829827e-01
-3.488815543815581011e-01
-5.795109114388076466e-02
-2.161889611066147507e-02
-1.122867346898898944e-01
-2.621593422173659760e-01
-4.043991661402543403e-01
-7.344427960736250871e-02
2.007167514330263913e-01
1.211296539776784142e-01
-4.189969988687814451e-01
1.828304545531532765e-01
2.642043055155710030e-01
6.689161926327699334e-03
3.437813632122116436e-01
2.855285691680349847e-01
7.945437021704325475e-02
1.131580130415844460e-01
4.089089254740529977e-01
9.157905136117761025e-02
4.136555925851865267e-01
2.269250868619830663e-02
4.651469291073305756e-01
-2.166558954978617304e-03
4.189726622978504622e-01
4.315051224073571806e-02
2.338714297789760144e-01
1.587141849620024858e-01
2.254174493370348364e-01
6.443489804394895992e-02
5.644893192222514428e-02
1.033917326773793471e-01
-6.147771390788183549e-02
5.646729558987899356e-02
5.388858794962249343e-02
3.043665154543092610e-01
-8.470529902235068853e-02
5.925746142886998552e-02
-2.758610239379754581e-01
1.295748250839991456e-01
-1.206632521214044546e-01
-3.866028852845538460e-02
9.566283207260372137e-03
-1.136080491324890501e-01
-3.561977684567646518e-01
-8.500524308776596927e-02
-1.745009265481397287e-01
5.611540906425526581e-02
1.208399574386661013e-01
9.911127981521671015e-02
-9.821085098738641106e-02
1.841576407339144406e-01
3.425411272088421666e-01
6.570456973504365528e-02
4.959155431068668421e-03
4.211693735914919801e-01
-3.766712979306821585e-01
1.504922142053121553e-02
4.736704257157418885e-02
-1.745711371498983866e-01
-1.061232971175231909e-01
1.425476021255713543e-01
3.228325032855180465e-01
-3.199231568469711462e-01
9.296872026571455228e-02
-2.674366266878078768e-01
1.951298543158359322e-01
-7.382690060112555297e-02
1.297289872893248597e-01
-3.173404650121732229e-01
2.895482661268855007e-01
2.794530324799148202e-01
9.536792052994030877e-02
3.108382745853627283e-01
-1.380274688608218170e-01
6.794085195173329983e-02
9.506139809207056479e-02
1.735920021134398639e-01
-1.341756608634687431e-01
-1.771315161969978444e-02
2.304469544548631288e-01
-4.389019308405125441e-01
-3.589320624604863119e-01
-2.142863313788792579e-02
1.082875158733725279e-01
-3.730658830679416949e-01
5.695971958822027698e-02
-1.244502105236587192e-01
-1.044143412987175307e-01
4.652072767192809433e-02
2.695673396345148187e-02
1.443853466038379496e-01
-6.957901844694043547e-02
3.531382148279352817e-01
-2.962943413795132708e-02
1.351487542349112392e-01
1.534984780311519359e-01
3.613223491406939991e-01
4.913357242539904690e-01
-2.058261699527144384e-01
-2.521090852246289926e-01
2.323757885823403979e-01
8.700588017466923119e-02
2.049214006819052580e-01
4.221266952814505674e-02
1.486790067440996177e-01
-5.195069366605867822e-01
1.157390109882695806e-01
-1.013177273045776511e-01
-4.817235464157006430e-01
8.941369144602152874e-02
3.474166662726597687e-01
1.804759132416683398e-01
-2.609423953381382472e-02
1.605972186570960303e-01
1.384600985121139383e-01
2.173553022488742548e-01
-7.365911357284221639e-02
2.052667381805995950e-01
-5.584503015522009894e-01
-3.833896125118398945e-01
2.969314943278167918e-01
-2.458333540614305868e-01
2.253592761621015239e-01
-8.547499499982524895e-02
5.735831108004716544e-02
2.928424935563874176e-01
2.373929668842707508e-01
1.153880810568683017e-02
-1.693736264164464322e-01
-1.815668827237261820e-02
-3.754721332320807292e-01
4.327944410982554335e-01
8.181300370740211825e-02
-7.324099003481958359e-02
1.710567202595778338e-02
2.200721167937065015e-01
-4.567274491892431981e-02
-2.178461043937347519e-01
-1.369968786127873928e-01
-2.601898953018792066e-02
5.590381730951509559e-02
-1.817892390158691862e-01
3.509004287163675628e-01
-1.602122295754278558e-01
-7.828831513460274283e-02
-4.038567824949204077e-01
1.838146063649159501e-01
-1.786298512320294921e-02
3.987139654923028687e-01
-1.123009793414972979e-01
-1.238307222994601275e-01
1.716817401141318422e-02
-3.377302702814022894e-01
-1.330037953550100571e-01
1.131008573856953359e-01
-1.871863966845188076e-01
-9.275272016834465449e-02
6.364078116742039049e-01
1.305870732260408229e-01
1.302291677008475534e-01
-5.103831404018415591e-02
-1.140653593000877514e-01
-8.336424701076283750e-02
6.423004840165395801e-02
2.004608918158162501e-01
2.797423588483498036e-01
3.091652211140737128e-02
1.073339904000399497e-01
-7.115225419805552842e-02
8.482404618955377562e-02
-7.974877634334541499e-02
9.832400234186433607e-02
-5.972999174740323269e-02
-1.188481300274396718e-01
-1.430961417948308639e-02
8.795693272430522847e-02
-7.632109157922674358e-02
-4.602782984982323189e-02
-1.215520346885754499e-01
1.936865919037910819e-02
-3.810652732308712765e-02
-2.889251844467210506e-01
5.012774843269787034e-02
-1.448896008755033542e-02
-4.711563619354022792e-02
-1.093565707652562752e-01
-5.110461938438343177e-02
1.252930058764531950e-04
8.423217027971258153e-02
-3.548067450995717742e-02
-1.387360329728337394e-01
-4.563984018389496272e-02
-1.265699247322541465e-01
2.174996799892775778e-01
2.861486005474402905e-01
9.461058738023778170e-02
9.248849683323982773e-02
1.049071153840234749e-01
1.252968366069468764e-01
3.307882613937139227e-01
1.888478380596521344e-01
-1.584931202580848186e-01
-2.734182655236546688e-01
4.327964859604293418e-02
-9.553967533908692966e-02
-8.495163408640399316e-02
4.005997453206444625e-02
-4.951136125843701996e-01
-2.436651004092099948e-01
3.470673755593218779e-01
-5.890307715854112280e-02
1.314935284452218855e-01
6.294181671523399468e-02
