-2.461243668313938038e+00
-1.130898186653418014e+00
-1.427733583886603153e-01
6.599045692173047817e-01
-5.833211939694876058e+00
-1.048173801051277110e+00
9.573681382241440163e-01
1.025525955433438385e-01
-3.410948075453745232e-01
1.700396523739568178e+00
1.098514848053943727e+00
-3.122227928218292842e-02
-1.056458276530137796e+00
4.748896004678719307e-01
-5.119408610109045243e-01
-1.152011519506359605e+00
2.259542135249047526e-02
4.776407445211278135e-01
-1.238711167764320775e+00
7.812376493781512110e-01
-2.703866468509075541e-02
1.578357919280591881e-01
-7.122879645337128196e-02
1.318260352473313857e-01
1.452913402486210454e-02
1.030610742458510642e-01
-2.613079717645794275e-01
-1.193807319169818831e-01
3.995960367804181068e-01
-1.075172578960055803e-01
-3.363186843496569073e-02
-7.700584054050656213e-02
2.029252760549105361e-01
1.015241631767116320e-01
1.540420134209008474e-01
3.079055145409723138e-01
9.590170902282425802e-02
3.145632085619570750e-02
-7.679085995870431336e-02
-2.602081755202796387e-01
8.496095006171568986e-01
-3.842528826073875470e-01
-8.565455148952427766e-01
4.475448822080456690e-01
2.617978751149956818e+00
3.709980489434436257e-01
1.370308077576274153e+00
1.200380024433328918e+00
-4.100861293607832581e-01
1.739921203902823343e-01
1.168904282263357297e+00
-1.925381058238591903e-01
1.826865099113277741e-02
1.676018316750028936e-01
7.861774777311157925e-01
-1.961836023386372696e-01
5.072693123542091342e-01
1.267233456520875934e-01
1.847872969659364040e-01
-5.308112540833682669e-01
1.554512565798625623e+00
7.295844055788230920e-01
-1.343513469654945003e-01
-6.572242276560558150e-01
9.621876874224431775e-02
-1.184379938628262519e+00
-1.185543229392352682e+00
-9.740413308764046540e-01
-7.706989000102827669e-02
-1.490865638651663050e-01
3.201367430680615023e-01
-2.164454155020734683e-01
3.681472346625864756e-01
-3.094291034124193596e-01
-6.222251871544709489e-01
-5.931832574410372816e-01
-5.147599582138249197e-01
-4.214501602803540081e-02
2.973936631889374516e-01
-6.252488784293060986e-01
-3.197024070830837283e-01
-1.549022665439812318e-01
1.919952251966847157e-01
1.521001869190648170e+00
-7.091295961602332998e-01
-1.642404777584952846e+00
-1.290045259251657361e+00
2.266909873524277641e-01
6.334003534403257474e-01
-4.946669793202202459e-01
6.632953886864050019e-02
3.007396250480456890e-01
-3.730642793014490866e-01
-6.465723828029518172e-02
-4.976897801743005584e-02
3.330313064360785891e-01
-3.005661699038015278e-01
-1.810210444390191187e-01
-7.610613359251258703e-02
2.307506562582923026e-01
2.898057807218119120e+00
-6.338232140724973096e-01
-7.656507037730121423e-01
4.313716403856056314e-02
-2.749034930079200745e+00
-2.653925318906625863e-01
-2.045870306067819389e+00
-2.801457386882388878e-01
2.169776237952379727e+00
7.840311431890955030e-01
8.982987261977654070e-01
3.738642533525065592e-01
-3.385510148943093878e-01
-5.564579188584040104e-01
-9.646366862243994922e-02
-6.143597359995621732e-01
-2.281288878144204224e-01
6.247405893599029814e-02
3.516799001182324691e-02
-4.092740946173268335e-01
-2.318801187801190211e-01
-5.221680839556392534e-02
-6.900687248540178231e-01
3.218344919062540166e-01
-9.909992357471902186e-03
3.097421925771907669e-01
-5.396450306062988700e-01
-2.195911145674163123e-01
1.662217426022566391e-01
2.477729857827100091e-01
2.457770850819375741e-01
7.926768461812222499e-02
-4.752410360008565982e-01
1.093752851896557382e-01
6.988043849795195772e-01
1.593666162690271851e-02
2.945783129976633184e-03
-2.596271469206912208e-01
3.348469965033914475e-01
3.092870925792681192e-01
1.677529449080484014e-01
1.127377658771412938e-01
1.293590999520888574e-01
2.801304465134625277e-01
-4.780263869695599264e-03
-1.971282124452513607e-01
1.977770970935906203e-02
1.507549066854090847e-01
1.261192865015138553e-01
4.238822674919279221e-01
5.474101150750888545e-01
-2.275142087117279777e-01
1.208775974705465911e-01
-1.100933898608631889e+00
-2.635882879487294050e-01
-7.399644675572762675e-02
-3.727409160899465834e-01
-3.653621402355815562e-01
1.700467849616776883e+00
-1.182131568246398562e-01
5.766530629310316902e-01
-3.311042735136515008e-02
-9.635905119214727144e-01
4.469047090231450525e-01
-1.345273889182129201e+00
-8.268410392078945348e-01
-1.953119485252324372e+00
-6.413247319785918554e-01
1.537981552293401943e+00
-1.584744690480135221e+00
-4.442467645104967722e-01
-3.375185716413935111e-02
-3.325284252289512632e-01
3.341092200461253433e-03
1.401186613372675804e-01
3.602346122155752894e-01
-1.748811340708710527e-01
-2.372584771070253840e-01
5.007486838180856825e-01
2.259023515282711919e-02
5.805022006954809743e-01
9.945785249445265874e-02
4.106657979408703807e-01
-1.145517937031768768e-01
1.943311911780015722e-01
-4.184030431613809387e-01
-3.285526194323781235e-01
1.524242910916906273e-02
2.349269690294200075e-01
3.184323386548827961e-01
3.784970658106366348e-01
7.485040302448445204e-02
-1.642991502976555995e-01
-7.291676256350573260e-01
-2.069039468768206144e-02
-2.383874409495437552e-01
-4.970982243023718272e-01
-2.330967599109233790e-01
4.588213980215147259e-02
-3.976282755620456633e-01
-1.444654321798742203e+00
-3.904949827727672296e-01
3.233106848024968061e-01
1.797927342793657624e-01
-1.875823411920378714e-01
-9.956220990216120559e-02
1.388420659583638195e-01
-1.111621165376575626e-01
-4.076181295552168127e-01
6.118200774126770769e-01
7.739670930541484584e-01
-1.918526040507488595e-01
9.810425930147792517e-02
-3.200716519732088594e-01
-3.839448902873340286e-01
-4.013353843388031139e-01
-5.080760536560045004e-01
1.502482086759086566e-01
-2.237590284500495241e-01
-3.054488736059634002e-01
5.795242937247109261e-01
-1.474232354417649438e-01
-1.134606851835953667e-01
7.528317151031734822e-01
-2.013187002810720438e-01
-1.008047178297492463e+00
-2.291322234693521642e-01
3.809478816421767444e-01
5.620661585057444842e-01
-8.655408218774293116e-01
2.741735946496819398e-01
6.813875026872332971e-03
2.814320116232368885e-01
-1.264836104045607146e-01
-8.284334666800684255e-02
-4.075370955857098298e-01
5.556394333798326396e-02
-1.020055449193111030e-01
-5.668882243176586594e-02
4.884232862863626679e-01
2.063322105590723321e-01
3.964675687616258104e-01
1.679544054747936777e-01
2.258827513606433690e-01
-3.420687414992600317e-01
-4.498792558038429146e-01
-7.392807974271822236e-01
2.348240686133355182e-01
4.077800280170293390e-01
-9.687719841514353947e-01
-5.632188350976787827e-01
-1.873737252766277117e-01
5.234078910191590495e-02
-2.940186591508183733e-01
-1.510903542729252480e-01
-3.649332825638752498e-01
4.772060212775580679e-02
-2.177655180294019721e-01
-4.802160183899024659e-01
-1.568156196366423671e-01
6.373858420153651894e-01
8.885381687871382050e-01
-2.069287021105991053e-01
1.062707463665285290e-01
-9.002840610683491285e-01
4.362794792938714389e-02
-1.397781896666558499e+00
-1.083319509348363407e+00
-6.353467271329491517e-01
1.536891117589282318e+00
3.027350592086833769e-01
-1.065948264660155909e+00
-7.842399406194638933e-01
7.377384921196916689e-01
-1.602344876461234247e+00
-5.809066259743968924e-02
2.376214546189024113e-01
9.942712366030822535e-01
-1.344219405416201274e-01
-9.582052442227529943e-01
2.719186133604212796e-01
