9.062312452339946200e-03
-1.098903381970655208e-01
-7.841322559817334725e-02
2.658097037999068712e-01
1.152172084460163642e-01
8.447832278428425018e-03
1.285584647302767392e-01
2.408872107419059994e-01
-3.223020276254008609e-02
1.022571643287792792e-01
3.862902124660681086e-02
-1.410980682543988285e-01
5.304220425718861875e-01
-1.564689520864583905e-01
-8.466010610122833013e-02
-1.780960751307993084e-01
5.666743692853696279e-01
6.388234719306079556e-02
2.679867591622492329e-01
-5.661111842407933609e-02
6.451094799775300426e-02
-1.722301213930901298e-01
8.790171724595791103e-02
2.161776023100705768e-01
-3.835451497717746322e-02
1.158783091511201430e-01
-1.155545928134379396e-01
4.591757042726065108e-01
2.269489746088113324e-01
-1.740041682913553156e-01
-3.045852686648615748e-01
5.881723299234743046e-02
7.848366193570478072e-03
-1.778243315252690804e-01
1.080951022033983661e-01
3.866607327027071078e-02
6.372826314891014143e-02
1.849714255153463160e-02
-1.770018390985358403e-01
-2.070847951419894639e-01
9.038671089113964330e-02
1.548362811769377345e-01
-2.834974973864560766e-01
-7.324502101910602969e-02
-9.567889056707219730e-02
-8.329936709009044815e-02
-2.462225681141019529e-01
-2.814807927951918920e-01
8.648911384313505077e-03
3.482388132266212716e-02
-1.434152631527454980e-01
2.487485609113907203e-01
2.419138299407135595e-01
-7.953790077680410187e-02
-1.106024721282093948e-01
-5.961821185717869342e-02
-1.742310780015914329e-01
-1.975193744911759031e-01
-1.441578363815748665e-01
-1.184598819887848764e-01
-2.203038741072433360e-01
-3.345299190529571476e-01
3.776546323273791694e-01
3.013585135818230287e-01
-2.752721569707411095e-02
-1.232773392049861250e-01
-1.443574076944309226e-01
1.385588945563226426e-01
-6.641714489966431267e-02
-1.163083364080073623e-01
-1.046756244359235560e-01
3.863727213323547155e-02
2.984292848116598673e-01
8.212026630649978121e-02
-1.569267592356624746e-02
-5.567535946510557623e-03
4.398768680773277109e-03
-2.017973532884398125e-01
-3.612691441492195676e-01
-9.041068442420897855e-02
1.711240962527273701e-01
-7.823893680486390667e-02
2.874676160300760341e-01
-6.082317717322489881e-02
2.261640875168033915e-01
-7.545022019547267811e-02
2.053790671919857591e-01
-3.853519519870216015e-01
6.792600407772242388e-02
-6.983535646438190914e-02
1.059335448587825912e-01
-5.763053114804394909e-03
5.001232882394436585e-02
-1.070412602315297529e-01
-3.329832634769023803e-01
1.691189251758196122e-01
8.626126465638724039e-02
-1.653599000187124524e-01
3.884732769533696950e-02
-5.545912097510108385e-02
-7.869910210517512550e-02
-2.588483360646580689e-01
7.960525298383498705e-02
1.470978727285308651e-01
2.409867957417320683e-01
1.523186570395953787e-01
1.883058243663418285e-01
4.581544917220737312e-01
6.003852768266535606e-02
-8.578300999551645434e-02
-9.846658611691498642e-02
-4.429986108429818104e-01
2.661288136439067253e-01
-1.431386821602912036e-02
1.949860663680160477e-01
-1.057882444942847416e-01
2.261684097434699461e-02
-1.887820871101626163e-01
4.610636458150665223e-02
-1.872742404701313035e-01
2.816045566623683882e-01
-1.291736027274510978e-01
-6.179030040758354443e-03
1.930827863864112426e-01
5.571511129560090259e-02
1.293344013350363197e-01
-3.192609185505413394e-01
1.583789101624531181e-01
-2.737230833216819370e-01
7.485815373298214219e-03
-2.644899389693543545e-01
9.253481016825464145e-02
-5.251715835196765075e-02
-1.857276754382636841e-01
2.383329257672980872e-01
-2.232687811028251368e-01
-1.596061697851715311e-01
-2.001883063464302837e-01
-2.741090021343870475e-01
-3.736356308120237779e-01
3.654842994539559964e-01
8.183552105191710391e-02
1.770109261759904573e-01
2.712376730345166798e-01
-3.074945721035521884e-01
1.215026378145912800e-01
-1.420476407670268233e-02
-2.719287365018111316e-02
2.956504340624606098e-01
4.237787702908302756e-01
-3.643509106566997224e-02
-6.323153606101374058e-02
-1.118875175580463233e-01
-1.125228954458134117e-01
-2.608426863016758968e-01
-1.852837107887386481e-01
-5.328285366509825927e-02
-2.219672896833136885e-02
3.088921614108026611e-02
2.653324833435805608e-01
-2.972471092493526260e-03
-3.905605311125322221e-02
3.538065884595116561e-02
1.670176493310627369e-02
3.592276363662949556e-02
1.428026901640246961e-02
-4.658190176310677416e-02
-1.068238586884704827e-01
-9.194263138022876203e-02
4.834549752433135381e-03
-5.444271345713485449e-02
-1.042140584206541643e-03
-2.527267270491179718e-01
4.462470604863474216e-02
-9.803829034197673875e-02
7.972666136292923256e-02
-6.537575578326972059e-02
-1.841075455369268338e-02
-1.670158920700105451e-02
-1.741362631557856824e-02
5.556241264174810457e-02
-2.622326935330908729e-02
1.114421538388000489e-02
-3.695757607953271268e-02
3.753797738933861705e-02
-1.012764584934459783e-01
8.366820242538908214e-02
7.905906546184511552e-02
6.033037791219547988e-03
2.440243131263008722e-02
1.093600572405771382e-01
-7.639441412988695612e-02
1.239039012473947543e-01
-1.628513891356223042e-03
3.556808516277011004e-03
-2.152454032560554079e-02
6.558346146964105783e-02
1.304061750017727547e-02
5.662731638310779247e-02
8.468215822702039597e-03
-7.413013993074459018e-03
-6.483879287358176868e-02
1.321952747905238458e-02
3.436550001148725580e-02
1.813194642687065983e-02
-1.249793276209613252e-02
1.628131700910629212e-02
8.812418391948112495e-02
4.603251001518382513e-02
2.951266996044278612e-02
-8.693339182650948460e-02
-1.744665836676254911e-01
-6.505472674807905031e-02
3.137907043136155955e-02
8.442884779141404672e-02
4.780959623725691138e-02
-4.330869991641562999e-02
-5.877326226359136374e-02
6.283115617596583824e-02
-5.517976927906542012e-02
8.525980707212749143e-02
1.100664021270527371e-01
3.624720613491229371e-02
-9.484054374084775751e-02
3.922343676037919058e-02
3.306537537142646005e-02
-3.635255509038327199e-02
4.689609861003418700e-02
1.249414879914506615e-01
1.021101787013455053e-01
-4.514652320372881944e-02
8.388942691726207490e-02
-1.047926104873231068e-01
2.767767332618741721e-02
-9.866356403689498233e-02
2.407233892997569236e-02
5.406195064803290262e-02
9.958279496871303219e-03
5.450867730771918190e-02
5.613167651337945020e-04
-1.268796953327797072e-01
-6.010818720177520808e-02
-9.374922807725478979e-02
-5.035767308031780659e-02
1.877976103140341704e-02
-1.857478359975546500e-01
8.638381884245951992e-02
4.556098841187231074e-02
1.120767631363932954e-02
1.110545721364909755e-02
-5.575376014964427210e-03
1.293817982602323835e-01
4.179063615918592739e-02
7.544510034241096175e-02
1.364136250918184801e-01
-5.536098072594370506e-02
2.614237814624992967e-02
1.030029303161285742e-01
1.929289042472056848e-01
1.919901373014045939e-02
-9.083026152061908498e-02
4.516096065646231332e-03
1.891022814248077555e-01
-6.669580285674350795e-02
-7.416587650551170752e-02
1.255190610971514131e-01
7.044246959575582723e-02
1.138007573020625024e-01
-9.079909483757245270e-02
3.958482338370630099e-02
-4.209042707120373705e-02
-1.901298333492623116e-01
-1.848770575024070301e-02
-7.742163368780231002e-03
7.589703498723501807e-02
2.815246786752300667e-01
-2.262343376323309313e-02
6.479508951183610144e-02
-4.631353623203018216e-02
-1.682641685521870101e-01
1.985145560198296188e-01
-1.117167297927573050e-01
-3.428900565605353945e-01
-1.588228387812605502e-01
1.298673027467315833e-01
-2.094540730428943454e-01
3.940881296573047615e-03
-3.864727348603764351e-02
8.840340646023132909e-02
2.404134748791263154e-02
1.355350011782143760e-01
3.525531226308237925e-02
-9.470679625556542580e-02
3.888607062126197417e-02
-7.173039208368488240e-02
-1.474121613585118173e-01
-9.189792450435552151e-02
-6.369910770320938442e-02
5.222571756941225829e-02
2.130456399723517497e-03
-2.973786716075268663e-02
-2.036886963966342834e-01
2.552028502969451093e-02
-2.670099434672074667e-01
8.996152372154880839e-02
-4.003263493758141972e-02
-1.100616540974652391e-01
3.867750073562355867e-02
9.219001646931523908e-02
-1.659328939978206921e-02
1.493174782177507376e-01
3.778035709732839587e-02
-1.206842167521777753e-01
-5.620959319255875580e-02
3.164205137611965091e-01
-2.399148467640004334e-01
1.325188073683338519e-01
2.465148782245239062e-02
6.296800553090324548e-02
-3.114090667217456199e-02
7.289470123642545485e-02
7.277687907410823609e-02
7.440845401138111714e-02
-4.196854637426419149e-02
2.193070545235379365e-01
7.526020091284649563e-03
1.939291472858227783e-01
3.123251661325868525e-02
4.671105766388823632e-02
7.747043360822254698e-02
-8.452380200793509213e-02
-2.205323351810712373e-01
-6.227495274913196627e-02
-6.828911763090862730e-02
2.107997470113156038e-02
2.300186564352067198e-01
-1.117565423328447660e-01
-1.308426198146102892e-01
-7.273791619679943754e-02
7.412354500288168002e-02
-2.185692038217322553e-01
2.387038272218851287e-01
-1.894264603272386438e-01
-8.286147032057084028e-02
-7.913480632768016276e-02
9.689933233360649434e-02
-1.852429708433448174e-01
-6.050872897080595419e-02
-1.217528688480780663e-01
-6.032365843828255830e-02
2.040924128635806523e-01
-1.351896035658519957e-01
5.650390374147423039e-02
5.901727777291016636e-02
-1.616974419271199614e-01
-1.788615342411589704e-01
1.532305639661159791e-01
-6.027502009583330517e-02
-6.035771049439080799e-02
1.325542149398402370e-01
2.323159231363955690e-01
2.314773717395807867e-02
-5.778443023251025185e-02
-1.819016444548534062e-01
-5.457727695811286084e-03
1.903886994963145118e-01
-2.111129084328697281e-01
-1.584095703960800294e-01
3.901925922967430099e-02
4.409838492783312025e-02
4.072664881376635709e-02
1.915216982187886441e-01
-1.811630580261641421e-01
-3.037937707142863639e-02
-2.131747211837091427e-01
1.049340897154605323e-01
1.148610547270132176e-01
-8.056625945570393410e-02
-1.012883273120111782e-01
9.252302984427904220e-02
2.131235047044819086e-01
3.441796614301409485e-02
-4.115633339627003395e-02
-8.207107995290771618e-03
7.582433091467796760e-02
-4.471610443664025131e-02
1.904900614426252858e-01
1.215619564529429528e-02
5.740401796093327902e-02
1.881394189387753952e-03
5.956192922814717433e-02
3.613051748825351489e-02
7.284953354900911004e-02
-6.601835839143334328e-02
1.412196086131590859e-02
1.661929498768645042e-01
-4.352761346128481562e-02
1.363123956486513577e-01
1.460041528157370871e-01
-7.856109324623840318e-02
-1.326380017940752797e-02
-8.715910866732033691e-02
1.239484356109064461e-01
-2.312070029561756254e-04
1.416860956756651191e-01
-1.067048210801585101e-01
-1.306875716406927790e-01
-7.623161408353705537e-02
-2.454888680430928130e-02
-5.109642495941643658e-02
-9.834594287048249728e-02
1.282011132612308202e-02
1.200736509252260109e-01
-7.429724127925292632e-02
2.164803102733410256e-01
1.373996195669969500e-01
-1.326107980525468022e-01
-6.479737237233809677e-02
-7.247208694402644535e-02
-1.286295387864549631e-04
8.118779147808707561e-03
-6.312202446999512495e-02
7.612781368405430182e-02
-1.363069131226364583e-01
-1.596959799033622132e-02
8.493668598397322023e-02
-1.727459422630871766e-01
-1.347743993820849639e-01
-2.159430489158818134e-01
4.119679297458414546e-02
-5.440774612853430114e-02
-5.762228908116669157e-02
-1.605504744575138865e-01
-1.519292864990290093e-01
-1.769005192022826412e-01
6.373506176602762585e-02
1.669269726752208860e-01
2.169275253987083818e-02
-1.498246115294406267e-01
4.983504303286721837e-02
-1.401927576926058350e-01
1.230388946709338460e-01
-5.450036736874743631e-03
1.011534370553969497e-01
1.343866198948827084e-01
-2.450141461013981836e-01
5.443931421667189130e-02
4.771622196201591448e-02
-6.235335676880559425e-02
-1.289218524562665558e-01
-3.979038458729188162e-03
-4.428946599730501643e-02
3.626002427897448421e-02
-2.847329763612197265e-02
-9.211903803128516921e-02
5.759376797260923331e-02
-7.318052344362102613e-02
-1.589471550227168350e-01
-2.506589115660217693e-01
1.259203957389050943e-01
-2.101766276209106679e-02
1.297528772077465864e-01
6.205913339576932253e-02
3.435622551470602359e-01
1.193624724814651254e-02
1.136734977644947471e-02
-1.236667366527452600e-01
5.779107585237748361e-03
5.041848169090053927e-02
1.549604786062100115e-01
-1.134159524537736025e-01
1.354355001569803874e-01
6.456106468922674646e-02
1.522753306479011082e-01
-7.724940200776402033e-02
7.950070934230207831e-02
-2.811097315765492474e-02
1.015884300217443359e-01
2.483148461584756550e-01
1.163836602954286398e-01
-5.247802688430084489e-02
-4.458679996876956802e-05
2.731483484970664496e-02
-3.319723262852893736e-02
-9.469980589949560101e-02
-2.203128635470210372e-01
2.949669847152837712e-03
-3.015725822211512419e-01
4.184125527413265488e-02
2.288702210484294397e-01
-1.102337575761985211e-01
7.373269977554937349e-02
-5.210814297794028743e-02
8.613325356463596982e-02
-1.921046368693469786e-01
-1.306413135812972137e-01
-4.268049738600477455e-02
-5.734487148739452617e-02
-2.477797310266752484e-01
-1.383599532665923393e-01
-1.305622403308711321e-01
1.569290541262680916e-01
-1.570276119171326590e-01
-1.356817653531407902e-02
5.578016361255075384e-02
1.612421291672452295e-01
1.217732955344274226e-01
8.184348520175216413e-02
9.221223272956401151e-02
6.698246371193712634e-02
-2.738631342446751910e-02
-7.983773590182119406e-02
-8.887221350825368071e-02
1.486267500971561947e-02
-3.058789016657739875e-04
3.588043503438071574e-03
-1.217782525028501470e-02
1.194943771122078668e-01
1.540734654676910453e-01
-5.848079241713776549e-02
-9.705757642216324144e-02
-6.377551739854554758e-02
1.792958626986930759e-01
-6.789489809591880976e-02
6.621734619482150253e-02
-5.880391538250359651e-02
-1.980947040911098245e-01
-1.006592094851755936e-01
1.330762341963585005e-01
9.386790140495147872e-02
-2.118654264785680419e-01
-1.074214141130281908e-01
1.048820511569374253e-01
-5.514550740014577401e-03
2.520526930618786077e-01
-4.640266355627377035e-03
-3.680321420589804937e-02
-1.873533207730075992e-02
3.747330765708995481e-01
5.222033085826747328e-02
2.092597322743065466e-02
1.270267348288166842e-01
2.273032632581580004e-01
-5.812793402140770810e-02
3.598227155292512136e-01
-1.279124127355650287e-01
-9.428597913812435116e-02
1.045558793705991391e-01
8.172851193694197214e-02
-6.447620918337493290e-02
-1.375913717513264634e-01
3.562954372198670616e-02
-8.756496454200288215e-02
-2.085203732429462831e-01
-9.908203595390799312e-02
3.073049693641567021e-02
-3.026518222282316081e-02
9.799872957256584166e-03
-3.404323755175890642e-02
-1.379203070359038552e-01
1.342723528380573017e-01
-4.751649633413352475e-02
-9.811901108929318993e-02
-3.833905579081516024e-02
1.631737143300433235e-01
-2.077265876200153905e-01
-5.494426594751071480e-02
4.302009597527912260e-02
2.000059822313829672e-01
4.156478881939669467e-02
-2.979048432412371716e-01
-1.808051461315331732e-01
-1.220612705536816694e-01
-1.875285260322520353e-01
-1.383511482535685899e-01
1.057860062277763379e-02
8.863124745413654415e-02
-1.059710692912214230e-01
-1.823804874954159522e-02
-1.554671691125062150e-01
-1.903917503578117787e-01
4.844702957623465284e-02
3.372393601601818974e-02
-5.719875378078258937e-02
2.492018354139163838e-01
5.625323550923642252e-02
1.755944128392901704e-01
2.307964290308733013e-01
-8.235415906039397771e-02
2.427916480099964469e-01
1.839188588821409343e-01
2.354678086663718195e-02
-2.391901779706009923e-02
1.478046222258262987e-01
-1.009288352229623514e-01
-9.823310740795154761e-02
1.688747144637400832e-01
-7.139947318112646601e-02
-3.939129417037123132e-02
8.440965443591177952e-02
-1.767374054131654604e-01
4.021550433322404472e-02
6.704722193159329269e-02
1.774954821957905882e-01
2.895335190086598814e-02
2.046082843265280560e-01
-2.445598232649869030e-02
-1.451040846126191441e-01
-3.942977717880710720e-02
-1.280129611489637387e-01
-8.234058622514483367e-03
-1.072803742342774286e-01
-7.904209151795309196e-02
-7.765950938949695015e-02
-2.005881889818981745e-01
1.070474573317813788e-01
-2.689211058149167111e-02
4.782462884540038955e-02
-1.129791036901756085e-01
1.492763808403978487e-01
7.809962616174487456e-03
1.335949491027514646e-01
1.746720452014792202e-01
8.926821674574510201e-02
-1.423473927068932832e-01
5.324833339714823977e-02
-2.780677155403381631e-02
-1.873559862509664442e-01
1.383653856588921427e-01
3.063306824859921007e-01
5.846575930394574960e-02
-3.286712078509829854e-02
-7.483530799178030046e-02
-1.257359939589902317e-02
-1.518708403727269396e-01
-1.418266581375338120e-01
6.868491192313114224e-02
7.320905488443615883e-02
9.270700620827859728e-02
6.072179493005074036e-02
-9.650205475116200096e-03
-1.115570777546087133e-01
-2.405364025700880773e-02
7.550198573281455272e-02
-4.131142341882386437e-02
-2.604199549702149522e-02
7.627832870627606655e-03
-1.507012290968704205e-01
-2.197810023761986864e-02
1.226340922842113629e-01
-3.267958972107841420e-02
-1.102686274259814941e-01
-1.793203870296175215e-02
1.741397693975370031e-01
2.768971842373829997e-02
-1.458190005330406436e-01
9.597640408112259602e-02
7.256505347827758856e-02
3.215256065479200204e-02
-6.214889734930110349e-02
7.457403378922163213e-03
-2.469745016546496807e-01
-1.374763878864444788e-01
3.448369973154778723e-02
-1.022167710695261328e-01
-3.130876792018077309e-02
-2.835337738436400842e-02
-6.511776111762343500e-02
8.600844380108805393e-03
8.705798394259178785e-02
-1.119612443738466911e-01
-3.204604207976597535e-02
8.409659510765667145e-02
-1.916170261955255916e-01
-1.141913488847775410e-01
-1.409918320175691797e-01
1.811341540273276804e-02
1.271772716746369658e-01
-1.089418250340609268e-01
-1.480862000610884133e-01
-1.110229270668278007e-01
-1.384414791514939069e-01
1.606814653778766977e-01
-7.555348115222033922e-02
6.997360790102124563e-03
-2.023812102583859643e-03
-1.973308388539398717e-01
1.929975113465225711e-01
-7.236414312803653159e-02
-5.073656674517888765e-02
-5.636108314921644408e-02
-1.601165357487275565e-01
7.920079513070606148e-02
2.228135757999198385e-01
1.353131641432194776e-01
8.216165324603190434e-02
-2.932277343107036680e-02
9.207694846991928625e-03
3.226451100897886198e-02
-8.809385966056203221e-02
-1.841305248496906133e-01
1.294655551623142831e-01
2.642784281828021720e-01
1.363516287213136779e-01
-2.054323379884920656e-02
-6.146831212124325566e-02
-6.129481287402809009e-02
5.981157066758669566e-02
-2.799041638734874882e-01
8.236946668056159548e-02
-1.245975503964280584e-01
-1.549156761960857609e-01
-1.367481315872691172e-01
4.202041195175687527e-02
-4.800154487969517103e-02
1.570793803346418605e-01
-7.203934962293254141e-02
-1.931451119999910981e-01
2.576956954097547881e-01
-6.210714604549624762e-02
-1.200696027797753043e-02
-5.598911710931119348e-03
-1.602254811330093009e-01
-1.934861826980887461e-02
-2.475065469007222407e-01
-1.523848186128289317e-01
-6.809126762288487955e-03
-2.025958316996500641e-01
-2.093976777136889386e-02
2.223300750790271341e-01
-1.979975431220709348e-01
2.064881109570922395e-03
-3.621519431429306990e-02
6.061766927835755825e-02
5.754471313135793922e-03
4.588043555102493121e-02
5.852439976125713844e-02
-9.578272757476327670e-02
-8.041384223921470287e-02
1.374904093678464348e-02
-7.668002378352022606e-03
-5.935442430547504394e-02
-3.030819336415049858e-02
-1.055381718473254182e-01
1.219912668495986979e-01
-5.483878462410433918e-02
-1.659924238730580703e-01
-1.488799602295132196e-01
3.546324602252971803e-02
-1.116775902026428263e-01
-3.212270983654763601e-02
8.025310267570154310e-02
-2.311077319848608980e-01
4.892364692471055237e-02
-2.318680310319100601e-01
8.389366405165618601e-02
7.027338398463682523e-02
-7.696493701954609801e-02
1.787205182277530266e-02
-4.976274808332022126e-02
-7.457865580413680640e-02
-3.074509910679010249e-02
6.236726160072345038e-02
-2.200465937048613763e-02
-5.235809351259648053e-02
2.112117040014710803e-02
1.160946751993771758e-01
1.542697181300463349e-01
5.733614007374111116e-02
-1.658629409277332656e-01
5.573590570814294237e-02
-1.808245575025904661e-01
1.075739317835710251e-01
1.279162872378800941e-01
-8.893205230418239904e-02
1.934958492729315638e-01
5.727876106177549886e-02
2.054292076968601832e-01
4.706671605759935734e-02
-2.709390853191516110e-02
-1.698685641069330454e-01
9.240669745338134233e-02
1.654626448177518860e-01
-1.365087150198645953e-02
-3.473171418145045569e-02
1.081720158675979898e-01
7.278691878835051587e-02
-1.372687918539728102e-01
2.045788133761943517e-01
1.472395985477457647e-01
9.817591346600378077e-02
-2.610558852074473281e-03
-6.754266457063792806e-02
7.883558342894270154e-02
-7.704542660893741457e-02
-4.962432449579862181e-02
1.268236056949071655e-01
8.572201325991583853e-02
2.542071254258718715e-01
9.252025288022969196e-02
-5.767346309606802279e-02
-3.318726911840636645e-02
2.283469380016128758e-01
-1.614560675617369989e-01
8.448374198485021636e-02
9.754437301118973336e-02
-7.540273000711847362e-02
-8.628497230392591019e-03
1.038844681109972745e-01
-1.048992167139036480e-01
-7.812245481409872683e-02
-4.173491593547840051e-02
9.502307159037108597e-02
-6.806695408144351755e-02
-3.859588782211474667e-02
5.165931207137312159e-02
-2.171178275296048732e-01
-3.519274938115898171e-02
2.194909897502308471e-01
1.878226707188695443e-01
-1.476906531878329487e-01
-2.119858934011223470e-03
-5.236481173540379064e-02
8.904686247124908582e-02
-2.456001578138490848e-01
-1.248601593888455305e-02
2.678562671937342182e-02
1.961884064097521307e-01
4.197856488723347018e-02
-6.557691129277042064e-02
1.862454770447331542e-01
-1.763089936154925708e-01
8.933411879673468226e-02
1.033088479851048958e-01
1.611396999014216291e-01
-7.802677006902661305e-02
2.319255819495394388e-01
8.659269714225510672e-02
2.535714280861177047e-02
-8.778622454099246908e-02
-6.209196997970892890e-02
-4.037907365230562762e-02
9.139858698307777585e-02
-4.388970423415004818e-02
8.863461209618592185e-02
-9.347018305929584436e-02
1.573612831691790781e-01
3.791619453736473633e-02
-2.064934000790330515e-01
2.849186435460700564e-02
1.134786528456706994e-01
8.855118745976527095e-02
-1.628183064261971014e-01
-5.494488701162877388e-03
-2.401496885232670686e-01
1.931377639239581501e-02
-9.282916051433652560e-02
1.569894197278290989e-03
-2.866488100620716017e-01
6.318941471054551062e-02
-2.155432749578870266e-01
1.167224762215233053e-01
9.353774036965610550e-02
9.793159118713649913e-02
4.698854359748589997e-03
1.513712751670565591e-02
1.374788029177094195e-01
-2.417921085664626393e-02
-1.126568862775790547e-01
4.728592146144323244e-02
-3.870186679411297820e-02
3.103599144807257446e-02
5.720693321310231505e-02
-1.121078153051997955e-01
-7.881976180329247628e-02
2.337009122871413352e-02
-1.319645349286713842e-01
-4.296990034704766676e-02
-6.365754242491672432e-02
-7.782490603340022628e-02
-2.864778247851432202e-01
-1.623479596526533272e-02
1.095396116835527373e-01
-1.549673671537089292e-01
7.338697942257370321e-02
9.484427844932449836e-02
1.893713367568461425e-01
2.088745594440418948e-02
2.496714703865314175e-02
8.632235718303049588e-02
-1.211365570224988003e-01
-8.479755225200369395e-02
-5.302709701485549404e-02
3.517961003201265646e-02
1.867297179492807546e-01
-1.041344825302027988e-01
-6.804881538155785337e-02
-5.630941531784761783e-02
1.212425808482822803e-01
2.596841926607555973e-01
-5.210910588519914594e-02
1.181116937417013915e-02
2.114142778944170728e-02
5.051041245792684681e-02
-1.194205192029140217e-01
-1.578539653698970424e-01
-1.851147233134297840e-02
2.482567004783908793e-02
-1.119676426133946884e-01
-2.445717719554506633e-02
8.306870187674945949e-02
-9.358051800949891696e-02
-8.506617902798092878e-02
8.994875259628420591e-03
-9.742396786333103187e-02
-2.301244396789566271e-01
-4.468665195968966192e-02
1.753861831778567304e-01
-8.277473962129641705e-02
-7.757193410760589158e-02
-4.951117890524309867e-02
4.286156082384815630e-02
4.944277540630195519e-03
-6.265927183148616020e-02
1.606674562928072647e-01
-1.286422055644584617e-01
4.894214162847854849e-02
4.029428324953297086e-02
-1.625803000753836269e-01
-2.473792658847668441e-02
-1.138506662628516360e-02
-8.625686929637249589e-03
1.432596014968633424e-01
-1.159212505272211868e-01
3.694421182166504614e-01
-1.235929152188606772e-01
1.051910345592131785e-01
-1.454575360936344319e-01
4.449806033147196693e-02
-5.230799813338538745e-02
-9.017776088721023153e-02
-1.750812015188860649e-01
-5.250479047678190819e-02
-1.875191329744566315e-01
7.536237318045306555e-02
9.430136685273238228e-02
3.307406050858680696e-02
3.420885488529518126e-02
-5.048528695545764777e-02
-1.023342727854634204e-01
5.184039309771373838e-02
8.123465911120346383e-02
-7.787887396198257817e-02
-3.417253407973000479e-02
-6.996102268775919453e-02
-7.803767041688869366e-02
5.728105535624915950e-02
1.731538733240665373e-01
-4.048041546437580566e-03
-4.970200076081122964e-02
2.378004282169128292e-01
2.268765579239646335e-01
1.093659683502008900e-01
-1.612910680967874766e-01
1.576743196794470059e-01
6.174895864974024040e-02
2.846350829452962486e-02
-4.247784314828519266e-03
8.961572162021856983e-03
-4.067777739177064894e-02
6.681511691067115732e-02
4.643791204657648011e-03
1.685292568904842025e-02
-8.597379957656148264e-02
3.206248034759982130e-02
-4.744324962805731259e-03
-1.700245075831239433e-02
1.171885549675370231e-01
9.438626197549193630e-02
1.006434175421039717e-01
2.813802830009722866e-01
-5.809967330206370489e-02
1.755086223684727137e-02
8.948952675362253917e-02
-7.525260995134525977e-04
-5.833766440102091527e-02
2.108932293316113371e-01
-9.392613145558820209e-02
1.579731585372942393e-01
1.808247225812967540e-01
-1.127109994079723843e-01
1.090111300556633606e-01
-7.164872574944308736e-02
1.869952851144442707e-01
-2.314674669364726878e-01
-1.339096957176257319e-01
1.395484998066481019e-01
-2.165604469029966134e-03
-2.979752090110171850e-02
9.003211435847201238e-02
7.524421941399127289e-02
7.371374325144046391e-02
2.879183020091731493e-02
-6.165852352360278593e-02
6.762923299827895696e-02
-1.385666513443745140e-01
1.758970924015640924e-01
9.415605290608079769e-02
-6.462573506248363298e-02
-5.535204344465963211e-02
-2.463002660863118642e-01
2.540035905772450656e-02
-6.089159453534196548e-02
4.951486374344507557e-02
1.858345865381605677e-01
-3.534386981873987449e-02
-1.701111441869025132e-01
-1.057633910703223851e-01
1.641332400866395147e-01
-6.336153445277042939e-02
1.744219248526654165e-01
-6.187999347939013121e-03
7.887874975519656995e-02
1.720648478815565985e-01
-2.645442124996810196e-01
-1.278016105320305407e-01
-8.549156316860280491e-02
1.204568176350774220e-02
2.838749978054794579e-02
1.125537920685500265e-01
-1.891399371428830745e-01
3.077992042928498137e-02
5.180736371639976107e-02
-9.424529539559442504e-02
4.444664826776091593e-02
-1.708032389321341160e-01
4.207168176070875173e-04
1.087231674698745931e-01
-5.109958112166086003e-02
-1.054453113792883784e-02
-1.155972648837367139e-01
1.845390284345641285e-01
-6.230902395668101723e-02
9.702861627492061214e-02
6.691242042644564292e-02
4.344339038854211354e-02
7.640550860019727775e-02
-2.453382442968275734e-02
-3.165895919191538677e-02
1.937702479078344531e-02
8.109052858523461971e-02
7.036228411762296409e-02
5.274281718850847706e-02
1.058968816914175742e-01
-8.481858125539203097e-02
6.544470064330094872e-02
2.005858914665568371e-01
-4.557140991589411771e-02
7.887835913479442074e-02
-1.357932320575429563e-01
-3.188674302968919766e-02
1.692151851515845684e-01
-1.489172138907851883e-01
-2.611967652291138919e-01
-1.151916626635139107e-01
1.322410208949978128e-01
-7.592534762821977201e-02
-1.359291939075405187e-01
-1.541104942830746373e-02
1.436380745112844359e-01
-6.833346230528394849e-02
2.255683824476085175e-01
-7.223136928990195327e-02
-7.078049787290612016e-02
6.148897365447193036e-02
1.040634380116256669e-01
2.338930143883369631e-02
1.845172991173019139e-01
-1.316612338252829417e-01
-4.249279360843891823e-02
5.776549698397226429e-02
-1.270196891522763598e-02
-1.687043471386033902e-02
-4.649577624415222876e-02
5.046076147879136747e-02
1.152322320469419820e-01
-7.288193743409715486e-02
9.112502270727965148e-02
7.012742054899126498e-02
-2.415678588109054174e-03
-3.598842902706919644e-02
8.670538809422177751e-02
-1.474887977636865632e-01
-3.250873236600736876e-02
2.044038341156396155e-01
-2.575159862535590302e-02
1.013385915314769965e-02
-1.645004115478150564e-01
5.440188703370728296e-03
1.099307543940083315e-01
-8.851247066646356076e-02
-2.828582399776140201e-03
-6.453229930219647748e-02
-1.963402306424850974e-01
-1.849432783795724733e-01
8.347237777233196265e-02
-8.373466279129276879e-02
4.230996396561632206e-02
-7.702796865254395164e-02
-2.402020987150826348e-01
7.739116039736494701e-02
3.535520022734730400e-02
2.682145038410558430e-02
9.197166628411328204e-02
1.163379276901407022e-01
9.056329662902565247e-02
7.078666308856736145e-02
1.120020633783270075e-01
3.439125324776920456e-02
1.309282241730565788e-01
1.292702601780130675e-02
2.470589881515464492e-01
5.876096949729991276e-02
-9.132448850739645005e-03
8.156348304335343802e-02
-6.199994037151295573e-02
1.296807033894210592e-01
-7.681368839467757337e-02
1.550005821600385081e-01
-1.985332266078466690e-01
-8.381280045739765427e-02
-1.037380457123604632e-01
-7.681206331332415815e-02
5.421946466043259943e-02
-2.646175761529073189e-01
8.950256336055235906e-02
1.180767774406564635e-01
-1.885449571523818146e-01
8.970212362245827409e-02
-1.541426256404037076e-01
2.544473489824488621e-01
2.899282857932791724e-01
9.725380132677136080e-02
-7.170286459820390812e-02
4.748492021187865342e-02
-3.654846868800672860e-02
4.826589911661508664e-02
7.605068919704630059e-02
8.360737054097237830e-02
3.216257249582931688e-01
2.216137555182344510e-01
-1.023649832411989424e-02
-4.057267447519891101e-02
-1.015333522940096989e-01
-2.074240014856498782e-01
1.606759183210742514e-01
3.765411343471308098e-02
1.334210269741510357e-01
2.996398705118557410e-02
1.900518258961603757e-01
7.166866782482977927e-02
2.186395730212155886e-01
-9.768561395164927774e-02
-7.397500715545729522e-02
1.697956276602833325e-01
1.304961539250744096e-01
1.275776167320300525e-01
2.932625944242375597e-03
6.744363781194193108e-02
5.073003919844010917e-02
-7.652651987239771081e-02
1.025869988083420031e-01
-1.901074652017353261e-01
9.433825004298014268e-04
8.113252810979491858e-02
-1.203342890681273758e-01
1.954568914857472695e-02
-1.110208129166957158e-01
3.914108704098481079e-02
-1.456454881552388947e-01
-1.119370637527357035e-03
1.269758870927107097e-01
-1.509748785972237495e-01
1.902352365568079837e-02
-1.097268214520728813e-02
8.495847828999548990e-02
-4.011428280288837321e-03
-2.205675224080849428e-01
-6.369243637417409953e-02
1.213606404896561825e-01
7.915817656047760553e-02
6.651612814425544862e-02
-7.682528253371198601e-02
-1.939849825737847144e-01
1.113164268798620127e-01
-5.202566556464874314e-02
8.641092992851187593e-02
3.144837530146563521e-03
1.386796992749226957e-02
-2.200105797961055681e-02
1.331472645904627494e-01
-3.983677008250566948e-02
-7.821855696569912642e-02
-7.981096365408769933e-02
2.444890527723488083e-02
2.227173957576563113e-01
-7.613029301944414240e-02
-1.390028955937776820e-03
1.123669447036653168e-01
2.181077477077202759e-02
-6.743540393165410596e-02
8.248762587767277318e-03
-1.419347119155681403e-01
6.741974195756822441e-02
-6.996458191714463419e-03
9.807961834765374642e-02
-1.893770941723781076e-01
2.549414523160669840e-02
-8.734414686560636187e-02
-4.291373843289615631e-02
1.101233111270119303e-01
4.171455523609930022e-02
3.876717052499423222e-03
8.953935805797756664e-02
7.464152565258755367e-02
-1.378497769787668525e-01
-1.510937112102490182e-02
2.971834910710029545e-02
1.326628793827466235e-01
1.113742629518776200e-01
-3.948129638872154012e-02
-2.422702483731508510e-02
-9.161965283761273893e-02
-7.875787266094358419e-02
-1.470342779622380719e-02
1.404384539378392971e-01
5.827116166434871680e-02
4.781490062029810501e-02
-4.767710554876866333e-03
-2.804203115923608811e-02
5.278033240100341722e-02
-7.035675849431625994e-02
-1.056288856356440986e-01
1.950260527327256632e-01
-1.844887858423328586e-01
-1.723983067652901935e-01
1.634159221181433752e-01
1.121264261325725653e-01
2.661795477736709353e-02
9.375303725334875604e-02
7.307836216663221585e-02
-2.842656878752230012e-02
-2.367381398633123801e-01
1.386254844214672988e-01
1.205266724188384098e-01
-4.736975113142904981e-02
-2.060917947837224151e-01
-1.760360045889874589e-02
8.098269101736808862e-02
3.078894217074256562e-02
-4.731909835351344462e-02
4.966193438833899814e-04
1.586221882736213451e-01
5.668061110803828545e-02
8.792080257980047775e-02
1.526377675181352367e-01
-2.195533620968996916e-02
1.665432409668041458e-01
2.230258374516504716e-01
-7.882026393050725610e-02
-3.926413739263043268e-02
1.636003867785984500e-01
1.344801733257389442e-01
-2.185900310252149870e-01
2.954501407350191775e-02
-9.834980129038703445e-02
-6.108386624331157283e-02
-8.510219839193919333e-02
-6.896498320778948754e-02
-5.029098838101473540e-02
1.853637355005842424e-01
-1.794644031628447323e-01
-3.251790573352970198e-03
1.674887315614735084e-01
-1.653596188333359418e-01
-1.832745144937738269e-01
1.816095306904970674e-01
-1.123943262679334976e-01
2.112764933549616808e-01
-1.721284122437140574e-01
2.009230962182572133e-01
-5.647517532059016972e-03
-1.058517559597452057e-01
1.913579975714612968e-01
1.893896440304088657e-01
-4.907084229564079303e-02
8.540377000107480252e-04
6.948320175710794022e-03
-1.191896898778963508e-02
-1.128841167370855519e-01
1.518416031795534471e-01
-1.060088341030192699e-01
-4.868291940201136675e-02
-1.326691205020789355e-01
6.335276025308671233e-02
-6.143229647605241706e-02
1.731277312462514428e-01
7.699923869552226241e-02
2.168392328523554777e-02
-1.971134532490974589e-01
5.978403603163463809e-02
1.101282328642374381e-01
-1.037126731769055232e-01
-1.454594307157553168e-01
2.161770169557461208e-01
2.132053058596462131e-02
6.140112126911448018e-03
-8.353874048497260396e-02
-2.074068392763383020e-02
-1.473123088412830670e-02
-1.126024306410352144e-01
2.001481273509233549e-01
8.705754156125029147e-03
-1.316677259470179218e-01
-6.785129443161347362e-02
8.104669377040657485e-02
-7.090560811116608866e-03
1.419617480831499579e-01
1.088764670655637951e-01
2.638259435584132048e-02
9.136075078551844642e-02
3.781565994075738579e-03
-8.852531782254906279e-02
-2.355394708401564730e-01
-1.389133560869065288e-02
-9.814087470484501863e-02
5.394282761241378510e-02
9.317035318902770757e-02
1.773360932646871335e-01
1.100162525859411239e-01
2.436445278778978998e-02
-2.139716899861259305e-02
-8.012991352199100303e-02
-1.879693441158080958e-01
4.269916492916242534e-02
1.588406934726515063e-01
-1.630390535418140691e-02
5.221145362041302055e-04
-5.991689071111497983e-02
-8.626980078304977151e-02
-1.970715815301141427e-01
-1.990581388043806757e-02
1.050832848245269319e-02
2.721872073659742930e-01
-3.299040188478069568e-02
-9.556821678936512632e-02
-2.394468184468741788e-03
3.657710955866042002e-02
-2.312918798782602481e-01
9.649587720244968969e-02
3.847247912079461429e-02
-1.274808010763492649e-01
-6.326469062672293586e-02
-6.397152777563476500e-02
6.391748166069478876e-02
-1.324652752501351456e-02
7.751688945809545594e-02
7.739035781037718886e-02
3.863261585738664849e-01
-5.451321808350194364e-02
1.285462211633425500e-01
1.472425722755544841e-01
1.248428511076197199e-02
-1.318324533092799511e-01
8.396540009235990698e-02
-9.785012679763707699e-02
1.487660025717872474e-02
1.464961780748905429e-01
1.039065878700028145e-01
-2.446438021054399628e-02
2.651451483381757068e-01
2.306576468996032400e-03
-2.458951949196403197e-01
-1.726763385242473525e-01
-3.846609614325512405e-01
-1.667345162011050486e-01
-3.039433115678043945e-02
-8.643739188689031350e-02
7.549039076352016819e-02
1.788139458220701014e-02
-1.364870495779273683e-02
-6.024413316675202718e-02
4.811511925591529376e-02
9.424904098355865734e-02
7.328785794046797919e-02
3.083800791194778353e-03
9.342166945327423644e-02
2.716893033639888877e-01
-7.322142889496887838e-03
7.675031813366664513e-02
5.977897637491859373e-02
1.068628812059433386e-01
4.651117152116659298e-02
-5.048140145337976642e-02
-1.806416876413429740e-01
-6.889523411321065577e-03
2.809428319814902611e-02
4.984350019331093562e-02
-2.554363428832425245e-02
-2.317880401881526331e-01
6.164487008752791986e-02
1.717131185856115017e-01
-1.804079928165137625e-01
7.560808017214314114e-02
-1.337212951398138450e-01
-4.990528429686501288e-02
4.057828487170261206e-02
2.068599136848203457e-01
4.938389220585220202e-02
-2.739083755280090696e-02
1.201607427968923308e-01
-1.901939507007678609e-01
1.856423593955133788e-01
3.228540668162366289e-01
2.956700064077612505e-05
-1.159949393051438460e-01
-1.908899372306379905e-01
-8.523933253094946941e-03
1.468793401573250668e-01
2.674056525069151147e-01
-1.044773224455797650e-01
-6.014335019892562417e-03
1.003804693909708945e-01
-1.898150636732130747e-02
-2.333246178517244807e-01
-7.472750543609343529e-03
-2.935319342930096109e-01
-4.204645481202590879e-02
-1.891145875487415182e-02
2.180873131405937013e-02
-1.376530390008656179e-01
2.160724791063320382e-01
1.148304368912783299e-02
3.666125187305668137e-02
-1.905956934074377884e-01
-5.815840269976948335e-02
-9.335335791438607866e-02
1.569305246731107426e-02
2.132110525687532995e-02
-8.189851946079494682e-02
-2.628080344629125931e-02
-1.087082799821618151e-01
-1.499478442853141580e-01
2.416825989569805766e-01
-8.381917398514571182e-02
-6.246249943989574949e-02
5.557669007992186577e-02
2.135672363294809639e-01
6.079262947156212175e-03
-1.534341654976239255e-01
-9.909416733665231403e-02
9.593667588006475622e-02
-7.253063335312412430e-02
1.489054359003243733e-01
5.883958320960411964e-02
-1.946405711921464499e-01
-7.353729010172238567e-02
-3.610824396353911475e-02
3.486483661985420035e-01
-9.744670274346335648e-02
-5.408857543163159143e-02
1.511737320568921905e-01
-2.353495603304319728e-01
2.404850978836919548e-02
-6.751987101005911540e-02
3.311670845305892535e-02
2.749479857034363428e-02
-7.972668867847654273e-02
-6.616606386020154607e-02
-1.421103595263542851e-01
-9.113589839318859964e-02
3.121914999084360667e-02
-9.173035025334678322e-03
-1.379165852247977719e-01
6.195568607880077433e-02
2.132929226230207698e-01
2.079727484226884249e-01
1.169990306012441555e-01
3.469091822340487907e-02
-1.563798023182570440e-01
-2.043656559082636728e-02
-1.190441055684417632e-01
6.082762774894406171e-02
-4.590365814906698788e-02
2.006072695900766589e-01
1.216035969526781391e-01
-2.990525942566145748e-02
-3.035856108903202399e-02
2.011053887609632815e-02
9.239063134438126046e-02
2.713800873057935908e-02
-6.958715900980166902e-02
1.434396227390623557e-01
3.244752434174909550e-01
1.006330376788893283e-01
-2.487054596258443315e-02
-5.400275932435956092e-03
-5.264153849371781130e-02
1.362195441818767339e-01
-2.130100582946669874e-01
-1.616722689928281331e-01
1.174701361914082254e-01
-2.222563413576227886e-01
6.370881252594925992e-02
-2.636210732271737980e-02
8.233755748862736645e-02
5.898616603416058368e-02
3.869863246991947503e-02
-1.122918227495819802e-03
1.184703560982411225e-01
4.490573656006054126e-02
1.637746680148698952e-01
-7.839290975990288735e-02
-2.277782603223558675e-02
-2.997662610362349447e-02
-3.284879610728141247e-02
-6.746429150924705687e-02
-3.062395614825406953e-02
-3.535785343951908244e-02
3.836042726949275700e-02
3.642072608331587465e-04
3.677929131048823796e-02
8.876605337241698368e-02
9.841569735282959530e-02
4.059474018802804174e-02
-4.986220733635027269e-03
1.901962199519535365e-02
9.576255681235767980e-02
-1.579727327441927398e-01
-3.803100753764871583e-02
1.940601802486069116e-01
-1.011994503641552023e-01
7.733792380098480912e-02
-6.773744794631149369e-02
-6.551394614052535870e-02
-6.514012922831464991e-02
3.385542963515696981e-03
-4.108415318314396353e-02
2.469889155358259147e-01
-4.290190974239083133e-02
-2.753362022948390164e-01
1.135689994795238272e-01
-2.067660545071761322e-02
-1.800608737056048625e-01
-9.434717498043257433e-02
-2.160429268192877103e-02
-9.362352549987176809e-02
-2.059074177425768704e-01
-2.612130686440891809e-03
2.423607497851334447e-01
1.083233990784709388e-01
-9.099081477700242393e-02
5.086630104954552312e-02
-6.702853199373733084e-02
2.726453738842120333e-02
-2.359532476987716634e-02
-2.247815424659527217e-02
-4.519545143613561133e-02
6.673567470500926802e-02
2.490932734824084782e-01
6.099052597469879072e-02
1.758099732661200579e-02
8.429763689520648751e-02
-7.502321973761065521e-02
1.472532065899064824e-01
2.250494387023055098e-01
3.501550046683064854e-02
3.763474230981277147e-02
1.634800595616396068e-01
-5.952097139600846798e-02
1.505343736707841218e-02
3.140450944811361972e-02
-1.670186220096162300e-01
9.668978595919327720e-03
-5.969602172687868413e-02
1.229608138342634799e-01
-1.875492591670816639e-02
-1.042049548764068384e-01
4.201782618934060513e-04
-9.466140959199693949e-02
-1.039754762290670959e-01
-2.112993553271517166e-01
5.631907814361308134e-02
1.079035683599784828e-01
-1.158736108122360858e-01
2.719420858812587327e-01
8.847778037838617549e-02
-9.352182864705185783e-02
5.658365899371524572e-03
1.622208816726196032e-02
-6.478416509850505600e-02
1.778220108039662573e-01
-1.165674367927014426e-01
-1.663258230062366061e-01
1.310674829688758258e-01
-7.714083827670591142e-02
-1.239774512483684810e-01
-1.508877219445173834e-01
7.797337795590572607e-02
-3.854527913502030223e-02
1.129623318912469088e-01
-8.778490448237075833e-03
-5.970095791570563526e-02
2.500632567901607192e-02
-9.970256516111997147e-02
1.015028762514225136e-02
-4.437221899761604194e-01
4.817203609687063792e-02
1.191327308594813394e-01
-3.933333705052851487e-02
1.169215269138934449e-01
7.604133864550954858e-02
-6.154171811575396243e-03
-4.293914996513904098e-02
-2.288716742903052215e-01
-6.599136173749871326e-02
-2.555307756563514679e-02
4.742164587136087073e-02
-8.096154943464654863e-02
8.179295267077234255e-02
-3.652136221234096591e-02
1.761063782021352886e-01
6.925851241255728298e-03
-2.117417810321742602e-02
-1.035272011179894092e-01
-9.423973055894346862e-02
-1.116912780013154805e-01
9.725966985534963138e-02
-3.459850368865328247e-04
6.726256781653198666e-03
4.757166005505109041e-02
-1.851656821949698439e-01
1.490648752924782494e-01
-1.635535115869839184e-01
7.857073783131594824e-02
1.751828286479003016e-01
-2.611929508984847659e-02
4.166037514181235996e-02
-8.983555353511941954e-02
1.234593869887966461e-01
4.878500657686495046e-02
-2.660796997329375468e-01
-6.585385315109857501e-03
-6.868060101990279553e-02
2.657069010019816324e-01
9.350143946578649834e-02
-5.268936718690850340e-02
7.508160077338821292e-02
6.023074841812588176e-02
1.460968444605421357e-01
-8.734736375257062813e-02
1.662714602519875517e-01
-6.995126200768028712e-02
6.070461400387335699e-02
-2.725900069247355270e-02
1.162854924562318065e-01
-3.601617087490697339e-02
1.428967995168947125e-01
-2.948619302217844740e-01
1.139546921396529799e-01
8.781911293664491913e-02
1.560356154083631375e-01
-1.110918796188221924e-01
-4.187734850731320013e-02
1.315982256689534335e-01
-4.661694501185299072e-03
-5.537281000990370433e-02
6.205066192884099718e-03
-9.482659788085121000e-02
-7.331464193144843211e-02
-1.272408863857368566e-01
-1.214240096860229740e-01
5.718810816065170166e-02
-9.211337290162270944e-03
-7.880686495046715020e-03
-2.167594011639723262e-01
1.588117578386450957e-01
5.427291497199012577e-02
-4.835394217376150217e-02
-9.563076543902808424e-02
1.007952948189462655e-01
-3.111950970259027074e-02
-1.668370820083556749e-01
5.280042562113433646e-02
-4.067467220672797701e-02
-7.079767742803601271e-02
-3.071520374571745648e-02
6.859071845454238481e-02
7.030082347667468423e-02
-6.708762066918085021e-02
-6.747174013514743718e-02
1.117669343415998578e-01
-2.807336898435759398e-01
-5.071306001438949385e-02
-1.419174389259394466e-02
1.355317304304023140e-01
-8.246771945085643041e-02
1.416446191943338262e-01
-5.103342306875135320e-02
-2.050120668042287042e-01
-7.744904226207688369e-03
-1.494689406785132402e-02
1.594022226460498626e-01
-1.929870683248065821e-01
-1.148756350347518163e-01
1.773406103406864887e-01
1.745266830410880168e-02
2.844062526654482226e-01
-6.993175749646382555e-02
8.366768083555496671e-02
9.442967759697265540e-02
-1.217616610764370166e-01
2.544140412103554350e-02
-7.179266681427014241e-02
1.156723201402480757e-02
3.897065098746772122e-02
-1.327511263036902089e-01
-2.622231219288901835e-02
1.228600886356691346e-01
-5.571997932147159521e-02
-3.492662566110069089e-02
1.989841131591820744e-01
1.362771304566320896e-01
-5.018311048199749352e-02
3.778901644272120164e-02
1.642785902449035995e-01
1.385770016152156614e-01
2.229549213989922840e-01
2.019368323059556602e-01
-2.732347621306540145e-02
-1.527508915264301492e-02
2.087632157667088650e-01
2.247405239916675998e-02
-1.109480461547937558e-01
6.781395814947606404e-02
-4.297719060050740614e-02
4.294222468531794928e-02
-9.867074738532313760e-02
1.663177008560836334e-01
-4.497359910229219854e-02
-4.051376991117764531e-02
-8.045861783940113851e-03
-1.219942535609738199e-01
4.610370785549584849e-02
5.168444717186072151e-02
4.878976189983461748e-02
7.553256999057077203e-02
1.389263095684988569e-01
2.727390647498632026e-01
1.155489838834788535e-01
3.923638682205927292e-02
3.830989850441145206e-02
2.655594017928759043e-01
-1.302553104961939878e-01
-4.419311816062805598e-02
1.618656136418140934e-01
2.340306926556552300e-02
5.514528661960293315e-02
-1.851172029151511300e-01
1.148474260976588696e-01
7.882536619970388625e-02
8.783056467894134745e-02
-3.961985444886680779e-02
-4.621258674089074453e-02
-1.627762126738939788e-02
1.234251655627576633e-01
4.332440638878598364e-03
1.860340320052995544e-01
2.094025737258595476e-01
3.159924815458638875e-02
1.885419041759580083e-01
-5.820727314110080153e-02
-6.069032092967076297e-02
5.275554023915406815e-02
-1.873036241781839487e-02
8.585433036069692325e-02
-1.090456522209075525e-02
-9.539361739264486106e-02
-2.497035402368959212e-02
-9.163177343056554125e-02
-6.732486604520178386e-02
-1.484344323025303392e-01
3.348090338376171760e-01
-3.042918969692708434e-02
-1.493859199524977810e-01
-6.790846811166012520e-03
1.476515247275309896e-02
2.721368289224276177e-02
-9.463323398792451713e-02
9.995179090448642889e-02
-3.033642873771863480e-02
-7.890747617413493287e-02
-2.967233140327631136e-02
3.977967700286654668e-02
-8.264783727917085487e-02
7.308395205868038758e-02
-2.308857963965667004e-01
2.068239899122004122e-01
-2.680865567762195922e-02
-1.006602289768777359e-01
-2.693133175182369984e-02
-1.072419870884051413e-01
1.700602597451967082e-02
-7.776899103271006641e-02
2.044659401535901533e-01
2.861680557143682635e-01
5.477102683528887322e-02
1.433684985542716360e-02
-1.154027280484198059e-01
-5.522038971678523006e-02
5.154572821311953837e-03
-4.923264593222655139e-02
-2.076567514549978455e-01
-2.534431248148514282e-01
-9.083562301320791121e-02
1.041011387464296362e-01
-6.226506643944431513e-02
2.084982009321524332e-01
5.505088099810987595e-03
1.903066978417533306e-01
-2.948702334549755388e-01
4.219770616568187943e-02
8.338576704745933807e-03
-1.202406602317345613e-01
1.341053069066603376e-01
2.130452916528323762e-02
3.382106336037531136e-02
1.955061279209901470e-01
-1.007770870261042451e-01
-2.342535764346863614e-01
3.502426338675525969e-02
9.546224702695654818e-02
1.235919322437938478e-01
3.033901580500255046e-01
4.137595460694952765e-01
1.219354575757102543e-01
-1.460036784641531304e-01
3.423082264490987653e-02
-3.856955285364321168e-02
-7.617883193874330772e-02
-1.351773138740036684e-01
1.190387534794841613e-02
6.557734613970021831e-02
-2.995026185690290443e-01
8.422382450418351013e-03
-4.285358634693989949e-02
1.552614102327563306e-01
-2.542756020618163748e-01
2.932856565079166797e-02
6.797106014916677597e-02
-1.162169127446457950e-01
-3.029144587609806649e-01
-8.606560648074898512e-02
4.856165024007536371e-03
-3.444566216954179482e-04
-4.604399418132236466e-02
-1.545851958471206877e-01
-2.001586091386609381e-02
5.963243832584479154e-02
-7.507916301627090561e-02
8.719189315491776560e-02
-1.155869635938236301e-01
1.074094919368222822e-01
-1.071968179856633459e-02
-5.552460469893719369e-04
2.058216737352337039e-02
-5.596238714212582732e-02
2.350847672443255251e-02
-3.973959841038949420e-02
-8.672760747764830802e-02
7.723937813461646817e-02
-4.816402996093168028e-03
5.937928760698708841e-02
-4.836162113030541276e-02
-2.086683654655757947e-01
3.214648968313728317e-03
5.528729635618769706e-02
2.093106245171422186e-01
-1.789725141183798607e-01
-5.296181004553823790e-02
8.403154224485361035e-02
-9.942709011120334783e-02
3.454846242195970529e-02
-5.424093251610670463e-02
1.859067198787651143e-01
-6.819295183424427254e-02
-1.232658421315350056e-01
-3.523395230765630909e-02
-5.455498613774013850e-03
-1.297832619407389698e-01
1.087055503452583199e-01
1.432535736850044372e-01
3.003559439629952532e-01
1.035073471655642979e-01
-1.545827197824155008e-01
-1.986187676585725315e-01
1.360340005446746825e-01
-8.606501007881768930e-03
-1.791112443365174278e-01
1.951946137163425299e-01
-7.119408308519722950e-02
2.583902249735809953e-01
-9.465099452579477102e-02
1.682262567883107685e-01
4.733332203414317152e-02
4.109799289330778177e-02
1.086590484924735839e-01
-1.888506966858207181e-01
-7.898301109618170376e-03
2.906624128206272001e-02
1.179607642248963056e-01
-5.342837926631169992e-02
1.704215091160168893e-02
4.837952327480133513e-02
1.027022187094777522e-01
-2.332469633544045906e-02
2.422863255785361394e-02
-1.514719771118961944e-01
9.125539652446740257e-02
1.092685792090557356e-01
-8.523763754958470218e-02
-1.628862889172144612e-01
7.077825044671633148e-02
1.943828243287154534e-01
-3.591644506535050796e-02
2.609810547246576573e-01
-1.013586196971889009e-01
1.292700571142781953e-02
-3.798909071085331685e-02
1.167542190220648285e-01
-1.085293381746703922e-01
2.840869965998911451e-02
-1.340593334060864424e-03
-2.117609661434331422e-02
-8.301411454826476688e-02
1.334580494746021029e-01
-8.751970063782374756e-03
9.468995516407549551e-02
-1.039538564470959825e-01
-2.602281067664639902e-02
4.273348558877174824e-02
-2.486515793450205791e-02
-1.151379438614383022e-01
-2.338449392723987164e-01
1.303542541692628842e-01
1.031259966858482924e-01
1.309575489973187068e-01
3.442953410170184608e-02
-1.890688129335133250e-01
-5.103273179983857516e-02
-1.348298725203260218e-01
2.195594727362187304e-01
-2.867541019853757089e-01
-1.771737284817641866e-01
-3.849641645964047010e-02
1.095020467383360030e-03
7.054429961539289418e-02
-8.078701262532173022e-02
-1.337989750898008479e-01
1.330161432742933414e-01
-1.242069047713567978e-02
1.428580276095247070e-01
-1.367088408542417866e-01
4.381616757603151724e-03
2.680916205821322340e-02
-1.720513191371392803e-01
-8.970772482054666097e-02
6.533762730799827501e-02
-3.951938157538006924e-02
1.147107791900286028e-01
-5.826097350477821984e-02
-1.078602899873123966e-02
1.007935616917788879e-01
-4.895047040998876803e-02
-6.609962997145528950e-03
6.753723536495601087e-02
-1.692204870353525015e-01
1.547328911274421966e-02
6.810669388915069518e-03
-1.700945541059657173e-01
3.424576200697949935e-02
-2.109086220684509155e-02
1.004996542678697480e-01
1.359451010656394510e-01
-4.306995433761302838e-02
1.907503947054484950e-01
1.095237518510387559e-01
7.309274444058287690e-02
8.210993537626682520e-03
-1.734208737478583895e-01
-1.098432972588477413e-01
4.200168697736519907e-02
-1.278699254956706943e-01
1.275311614469877564e-02
-8.677751876415030000e-03
-1.458010633675573264e-01
-7.523939274142631140e-02
-7.379866952149948846e-03
-6.825212420376365607e-02
-3.239013920441915356e-02
1.583162747113499857e-01
1.369681992544498350e-01
7.258665210928332001e-02
1.812127970909827718e-02
-2.787760955903387239e-02
1.167822884512648290e-01
-1.098158225804338750e-01
-1.731735965772447927e-01
-1.262637060743864725e-01
-2.673108823041508986e-01
2.683640868786578704e-01
-1.658012431412233758e-05
-1.739931129940652105e-02
-6.677056756266704085e-02
-3.550610859092023786e-02
3.804707725004560087e-02
-9.736023599281518059e-02
5.241845201044279673e-02
-1.209479989987426694e-02
1.275624785432569464e-01
8.698006200720292264e-03
6.412224624745066666e-03
-2.833906080837574337e-01
-1.558501963461290940e-01
-1.439583171610199670e-02
-1.958594209785549933e-01
1.229719577877157882e-01
5.171895425424026527e-02
1.231474219082307198e-01
-2.611738477735130182e-02
1.524909441976959323e-01
1.860722119493533611e-01
-2.627466130196811633e-01
-5.055884202168383496e-02
-1.968704166102477338e-01
-6.965214305956095309e-02
-4.982163385972603227e-03
2.968827884249048976e-01
1.101019432539187687e-01
5.786360557284898898e-02
7.183636072187485344e-02
1.007591071753234646e-01
-1.417035263165568881e-01
1.705898681614769624e-02
8.849668948828791348e-02
-1.590327305611967737e-02
-6.418406401440136799e-02
3.255761777327862805e-04
5.084540429830033265e-02
6.681677841187110001e-02
-1.085380398903395133e-01
2.982758712112236477e-02
2.417059836041050847e-02
-6.716425987763112448e-02
2.690225612366697189e-02
-1.764143970242575132e-01
4.084270219718706685e-02
-2.137372110327146468e-01
2.541791146994397052e-02
7.960998009900872169e-03
5.453439768741312477e-02
1.270006504312855278e-01
5.666861497901835854e-02
1.384001891100391235e-01
1.663212919665511130e-02
-1.164253246247675885e-02
2.897987356064090844e-04
2.627951536201646454e-01
-7.048563919985349757e-02
-1.556450136662220762e-01
8.832899784432575452e-02
1.456996690748441903e-01
-3.819219138817123160e-02
3.302069821107667114e-02
2.495302850004521567e-01
1.563275148143408039e-02
1.515393733083258976e-01
-9.055446704842559646e-02
-1.299948950834183825e-01
5.188043433147088157e-02
9.734489222598785574e-02
8.243319450552889782e-02
1.520796349281086646e-01
-2.252621624720126392e-01
-5.327381137424489627e-02
-8.272794051123945336e-02
1.498240755322323946e-02
6.293302578950295267e-02
-1.579435257851820595e-01
8.113424909702849882e-04
-3.484163157657701321e-02
-4.970485842819010597e-02
-1.319325534094182573e-01
-1.014490558575715518e-01
-1.800414702492690033e-01
2.761337860973802488e-02
-5.559629209464011373e-02
-7.610099505841778911e-02
-9.654742437442910552e-02
-1.508203046641702627e-01
-1.298549399493364453e-01
-1.249765838250912198e-01
1.440599495740797209e-01
-2.025843750228416631e-02
-1.147189104099804041e-01
8.275820532305502852e-02
7.746050536732417002e-02
1.840809011947482643e-01
-1.533570410719158339e-01
-2.267490719027078216e-01
1.936274631862512363e-01
-2.021682315762526605e-01
-9.209307156185272958e-02
-2.472892239915809587e-02
-2.017203880900566015e-01
-1.016686930386843518e-01
-6.847652151311536817e-02
1.116430089300429196e-01
-5.206691944222475998e-02
9.370456079242421576e-02
-6.064704661090226934e-02
-1.961587829816940909e-01
-4.413313543159688712e-02
5.202577334578681323e-02
7.543940506321135386e-02
-7.240466602261159956e-02
1.406463884542761833e-01
-9.489199986310624391e-02
-8.979877952925707785e-02
1.364255523981340035e-01
1.532819917790944619e-01
3.194982230644197174e-02
-9.073782008555927522e-03
-2.622351362975985228e-02
1.925995189083847328e-02
-9.548709301284526163e-02
2.493827179809172401e-01
3.002324546260912164e-01
1.182882068849435281e-01
-1.757652288342942404e-01
1.038634324958997851e-01
-2.006899834445737343e-02
-9.799455015808247391e-03
-9.422733788024356683e-02
2.069145667137530994e-02
-9.891000555474992184e-02
6.488191077804172924e-02
-2.884379825743271439e-02
6.486869425819585463e-03
-1.566895872961742431e-01
9.171606718420054205e-02
5.649085232071919538e-02
3.036679330524996168e-01
1.223626316038915890e-01
-3.951520695570247266e-02
-4.916141927327523364e-02
1.829171061309954049e-01
5.969216736315990229e-02
-1.263226412460326797e-01
1.398940299497250794e-01
-5.367189596523305045e-02
-8.052907264098377316e-02
2.862639593882874891e-03
8.266128748388955338e-02
1.634507718145039590e-02
-2.475212131673756866e-01
2.617572117895164419e-01
-7.620111097048883064e-02
8.438226835316205154e-02
-2.565784307201137565e-02
9.706919086603318925e-02
-5.676951770469350345e-02
1.891681291915050600e-03
1.385676961813047392e-01
-1.083353801182887488e-01
-1.277876936973351973e-01
-9.453532273627285321e-02
-8.475551406417471123e-02
-1.286492186596861591e-02
-3.623208819459175153e-04
-2.753396280041194855e-01
-9.514751961640313671e-02
-3.083317222500657831e-02
9.012695019820762821e-02
4.032433206375962004e-02
5.356511117828894469e-02
-4.970736919866913447e-03
1.553412465773932327e-01
1.154259936429180983e-01
3.111858592988605565e-01
1.105867626465264070e-01
5.828249600271910580e-02
6.802444244800517903e-02
-1.188027548654391474e-01
-1.246065211618801322e-01
-9.928716233030172172e-03
5.908264438454259582e-02
-1.065751820234044911e-01
1.808081706898986840e-02
1.679369660309275036e-01
2.923107970829325400e-02
-3.510950913323026418e-02
3.761561208338148193e-02
-7.853239370860400081e-02
2.924117349916099950e-01
-8.325080480717346465e-03
-1.297282214895608965e-01
7.757859262169160275e-02
4.894587707560316137e-02
-1.348648062439324891e-01
1.399435173923220810e-01
-2.393985110375783029e-02
1.049575731317469174e-01
-8.004165938191240559e-02
1.439106246288849623e-02
-2.729056047624941854e-03
-2.519487770794482384e-01
1.320164187828488656e-01
-6.708894213798129169e-02
-5.972976438321304926e-02
-2.836328150844076301e-01
-4.755914307400252450e-02
2.046042763148942997e-02
2.820073641231397518e-02
-1.180276912051090865e-01
-1.034428372885862618e-01
-2.219023729689461114e-02
1.592963063664957699e-02
2.675042277602537183e-02
-3.390290535649911202e-02
7.860018327130328941e-02
6.175379092607042458e-02
1.276971939362885888e-01
-1.230114418320250869e-01
2.030564147330466418e-01
-9.635800005514189026e-02
-8.852461299710404075e-02
3.889660575450040042e-02
-7.016832833341056508e-02
1.673673591754988865e-01
-1.578433113287178446e-01
2.456972087106089678e-02
-5.407017084301878052e-02
-8.089101951735679086e-02
-3.912456566166565980e-02
4.828016635040012494e-02
4.450439207750295917e-02
6.119403257433074506e-02
-1.091221905482443570e-02
8.757176532289798199e-02
1.090753516203150225e-01
-2.089756188511292245e-02
7.511244681086808039e-02
-1.543531882184350206e-03
1.029570696999626833e-01
3.238593048028522853e-02
7.502233431692717502e-02
-6.527436847815167031e-02
-6.586759518947171710e-02
5.389491700357912363e-02
-2.538616010445332149e-03
2.920064868197819880e-02
3.546465838457203701e-02
-4.422804882896508999e-02
-1.033188798389299279e-01
2.822737068980354369e-01
-9.050044159304397595e-02
-4.576782267896598033e-02
-2.225018032740846627e-02
-9.193033699159457520e-03
1.097583348085396093e-01
1.766698272634684153e-01
1.467371568444128249e-01
-1.246755797862332711e-02
-1.389136103358935004e-01
-9.755604557945653232e-02
1.137225919806276186e-01
-6.274252478810819766e-02
-1.889880810569342234e-02
5.373346506781322141e-02
1.306248115369538500e-04
-1.662651353227354578e-01
-4.338737435468397949e-03
-7.182319439050800780e-02
3.285705741535199439e-03
2.082799499210380989e-01
1.638303883250621651e-01
6.024910841269366310e-03
-1.990547143795086682e-01
-4.208001591509011319e-02
5.999491297182524274e-02
1.411587611985951340e-01
8.450873158463824419e-02
1.197734373777696940e-02
-1.341493404101288811e-01
5.290647404491738599e-03
-1.833760866902318931e-02
-7.845291476737978331e-02
4.255658782469955159e-02
2.155786271201756699e-02
-8.637574064928411899e-02
-1.094765878445228963e-01
1.075089505538666251e-01
-7.797741952989988012e-02
-1.295192004463175950e-01
5.543389550775408917e-03
-8.868982350006975046e-02
-2.874314485551309872e-03
-1.901920799729281963e-01
-7.498328267018519126e-04
1.685103699856657089e-01
-5.693570625701345998e-03
1.279509766240988222e-01
-1.311635919801194261e-01
1.728794856077990605e-01
4.057939809425936684e-02
-2.538135653420290905e-01
1.266628696697001330e-02
-1.965871804172457035e-02
2.204895179618024115e-01
1.397351702590629852e-01
6.007143414592576447e-02
-4.531039841018506841e-04
1.494099127143820593e-01
-2.047554718552342112e-01
-1.047707061751676216e-01
3.737263323060644599e-02
4.511815252298854301e-02
-1.118726270796587957e-01
1.823558771609290127e-02
6.941748016795347420e-02
-2.057215511885657488e-01
-1.486129080561489346e-02
1.912680427426613483e-01
6.278182351812144901e-02
4.918788410793685506e-02
-1.191383505902550571e-01
7.008803944152053322e-02
-5.639955061125041108e-02
8.037713852451257301e-02
2.003568506721146447e-01
5.121725101635402760e-02
-1.791828293134654082e-01
1.394241013316999123e-01
5.797565452634494826e-02
4.462321222337400917e-02
-5.364459304740315515e-02
-6.299495104169174076e-02
-1.705321004350206227e-01
1.779836309478940309e-02
-1.052559012724108845e-01
3.973494389300920304e-02
1.165640023520840146e-01
1.338672992003456935e-02
1.745648108838413759e-01
-9.891291241867215811e-02
-1.014669438766932358e-01
-4.347318659296940668e-02
-5.378732452589689295e-02
-1.693866420266291195e-01
-8.626133329246681025e-02
1.128839512363657149e-01
1.797571916651555801e-01
-7.564763444154899708e-02
-9.020926320940590368e-03
-2.238103808252033811e-01
3.743352367789683499e-01
-8.831049566379942095e-02
-6.784208449461913773e-03
-1.496595566422103674e-01
7.778964316841691096e-02
-1.908153718227497964e-01
2.722914928179414121e-02
8.160341066446541447e-02
-3.545078146124869267e-01
-1.086822213920731472e-01
-1.822813570226855806e-01
1.272059518734678860e-02
-8.710782846664467949e-02
4.101040410614843756e-02
-6.658647467796836861e-02
1.265846449302099157e-02
-1.079262988633865744e-01
1.989711792873925800e-02
1.776519250827364449e-01
2.217336112549987970e-01
-4.480710413034746237e-02
1.251670594234203550e-02
1.013439720662491321e-02
-5.842078930759959238e-02
1.483510221218797831e-01
-2.247194402368606070e-01
-1.012710977609586199e-01
3.523079165354400799e-02
1.182810427983174428e-01
5.325944659421627536e-02
-4.511254256734466284e-02
-8.721108009169582787e-02
-1.281716680478722781e-01
5.554459380515689576e-02
-7.973494005431440435e-02
-2.619823177059258379e-01
-3.338575348095663975e-02
9.123221049295331120e-02
1.688143748645793418e-01
3.343295836098776619e-02
5.534777031378163709e-02
9.513664916316366335e-03
-1.365065109391163656e-01
1.330515661153360875e-02
5.300632989711603904e-02
1.074205669808999536e-01
7.756303480304981100e-04
-4.207566746816077119e-02
1.047964782102403930e-01
2.138610342884574023e-01
-5.777862503321407051e-02
-4.176280439637155423e-02
1.806293476695577105e-01
-5.686596363379450153e-02
8.383603669177515372e-02
-9.162570442097445200e-02
1.261708747256855951e-04
1.744091120829923403e-01
-1.338919972782535994e-01
-9.441961777802626576e-03
-8.256743665349858263e-02
-1.110150373191155088e-02
1.824354742377650579e-02
3.916164645741715411e-02
-1.000184505563480597e-01
9.373639828704211086e-02
-7.412592187050608128e-02
-1.830431588040502128e-02
-1.390061226197064903e-01
-1.063993855026559993e-01
1.384744715053263381e-02
1.121766063949929809e-01
-7.819350125606466806e-02
-1.223192804879180522e-02
-2.405099878014241646e-02
6.379011432253332489e-03
-6.318657802233448167e-03
-9.583808738398427729e-02
-1.720009013813160736e-01
-2.711090402058230486e-02
1.585143286721869826e-01
2.376174822388059382e-01
1.759212440657625942e-01
-7.772693673043407081e-02
3.007906853823120313e-02
1.039032892899622029e-01
2.177749427231335244e-01
-6.425415459181868516e-02
-3.199084880898550587e-02
2.552742666236407776e-01
-1.601009367935331273e-01
-8.048335065496353691e-02
8.906421080262719170e-02
1.268886137033896355e-01
2.207263680791788640e-01
1.054249247231475034e-02
-1.475202092029298806e-01
2.038067947405018329e-02
-3.262028000816318690e-02
1.458932267743556499e-01
1.282810499928355857e-02
-6.142220960664162427e-02
9.370277245642143205e-02
-1.569120109605969815e-01
9.230298415294750647e-02
1.125998397972923226e-01
2.956607367732390704e-02
5.302720942945329113e-02
-1.200741226903267178e-01
4.115337373591700793e-02
1.519499726062247535e-01
1.265838643726523507e-02
-2.617079904282724676e-02
-2.700327177774699411e-02
-2.181408071469111698e-01
-4.716620352914983882e-02
-2.750551346241528888e-02
-5.154625184909700231e-02
-1.839263550538414171e-01
2.104158889637613994e-02
2.357046673766408779e-02
-5.076303282414781209e-02
4.841734458055996920e-02
2.182965707659520124e-02
1.090503815733642745e-01
-1.284111833857103924e-01
7.040368253616863248e-02
-2.922185687120092967e-01
9.089884002869220991e-02
5.737431818512823273e-02
9.362206659859383107e-02
1.159456810742109795e-01
1.916385261207641244e-02
1.294806404812218377e-02
5.232505144049508922e-02
3.310981803126891027e-02
2.215531219903814353e-01
-1.110522471836219854e-01
-4.953579615689591986e-02
1.129664610213951814e-01
3.459491911253508608e-04
2.522890521558276977e-02
-6.383572590241345067e-03
-4.200599446243193785e-02
1.674052132909592261e-01
2.110961385550023384e-01
1.262577947758991848e-01
-4.249224299471535821e-02
1.238316338959015023e-01
-2.609489995287124775e-01
-3.110535466097529289e-01
-3.980246008373219263e-02
-5.404769967296359223e-02
-2.271867177055119369e-01
1.485144205330664047e-01
-7.743367970529568822e-02
2.885773197734665951e-02
-1.312560392613758009e-01
6.331539109734253545e-02
3.519365657711430728e-01
-7.335641089946517979e-02
2.112135367806204644e-02
-2.760943842326185060e-01
-1.045994576890018762e-01
-2.931624493892985295e-01
-1.425872650413154974e-01
8.169799402787653042e-02
-6.551098725063073114e-02
-2.436661593031034800e-01
-1.265538375981715424e-01
7.300277433222799629e-03
-7.178996398621627362e-02
-2.952640227710016108e-01
-2.390491754816790465e-02
6.594435971970170896e-02
-1.315446972496368272e-01
5.736038197022872570e-02
-3.701356934360775647e-02
-2.206273925486275031e-02
1.682767345961381014e-02
1.049542577369902002e-01
1.639811871392284348e-01
-1.545507752574027116e-01
-1.048355009625556306e-01
9.930558901542138606e-02
3.937722918976289260e-02
-1.283303427565077592e-01
3.171892906948871327e-02
-2.159355930416830271e-01
-4.802822731416971774e-02
2.528677411409167020e-01
-9.846332318594648580e-02
-6.734110950407133644e-02
-3.111396894843864933e-02
1.645743510964847722e-01
1.837725078694507738e-04
-1.514996917009025189e-02
1.858666852573158694e-03
9.758099153198918074e-02
1.884865104452858320e-02
-5.704761823924153763e-02
6.371619472690392971e-02
6.291373031240567182e-02
1.920948151441652929e-01
-2.279211569595441522e-01
1.502877337153714354e-01
4.600527272552741576e-02
1.122807611200110078e-01
-7.523742117158674358e-02
3.018423186917238432e-01
3.969050602588096444e-02
1.387153076856100170e-03
7.932123164567692064e-02
2.963063235734656950e-02
9.661575380368825350e-02
8.196155447909114766e-02
-2.666062868305798736e-02
-6.562194972199118445e-03
-8.502965665868955636e-02
2.261518995873857962e-01
-1.004644654696564970e-01
1.477414328096145479e-01
-1.973171535368246216e-02
4.983589701431837687e-02
-9.439183980201602472e-03
-3.661879904690674981e-02
-3.876045967519176072e-02
4.637124134248978534e-03
1.525077232047716835e-01
1.096681215856576963e-01
-1.497485475785587453e-02
1.123885125610769448e-01
1.293248662518663161e-01
4.024248980743077436e-02
7.947088940330777895e-02
-6.409274868231196187e-02
7.947031120625676348e-02
8.118878388561975856e-02
-1.764005845979042114e-02
1.497959596339477027e-02
1.063241392040166489e-01
-1.452368845342996428e-01
-4.821724357661712895e-02
3.106933309618537323e-02
3.142885903107956597e-02
5.774712632300946225e-02
1.823776429519925052e-02
-3.999046037211493460e-03
1.974409174773532893e-01
-1.681917583679810591e-01
-5.280727593113987428e-02
-1.275142091701020886e-01
1.441407315107320897e-01
1.721522638671485195e-01
1.239862718784794371e-01
9.701250670850827817e-02
6.372744327288984434e-02
1.372882809320439823e-01
4.352938603906160442e-02
-1.490888724282416478e-01
-7.614796692340382311e-02
-1.039576852835180122e-02
1.712229195213381960e-01
4.703337458467344440e-02
8.485403143263847703e-02
7.472067054761685756e-02
-1.295473448598578707e-02
-6.386686947329915653e-02
1.231830114236798787e-03
1.927025012560849015e-01
2.978378973170429100e-01
-1.234161590362464755e-01
2.286250696298082474e-01
-2.083928334208284827e-02
-4.089468509437804017e-02
-7.232479311121151055e-02
7.766041755776650901e-02
-8.673677962252213103e-02
-1.214544499422358925e-01
-5.211650943973603761e-02
-1.322424107468002930e-01
-1.044914169495106751e-02
1.016045116730089903e-01
1.606486483336322033e-02
5.156309941792360657e-02
1.730191355548324483e-01
-3.974554643413855115e-02
4.123701060295728062e-03
1.570519794843860395e-01
4.454251397297184778e-02
-2.724527953297264243e-02
-6.237061830059593276e-02
-8.038958666524451124e-02
-6.675956402921941722e-03
3.802330117046774649e-03
-4.473945773800130747e-03
-2.121025509469504633e-01
9.986708850856627906e-02
9.206599784723687452e-02
1.376835379518948632e-01
6.728793621087671151e-02
-7.644567404276673972e-02
8.694361343183411653e-03
-3.570237340712166529e-02
-3.587809581236968692e-01
1.624573989639536697e-01
-2.066506941320258028e-01
3.959224783681891680e-02
-6.672945695864439253e-02
-2.032863194475467011e-02
-1.960995887769979573e-01
6.421620489827865874e-02
2.961159594915627538e-02
8.057535441191424758e-03
-1.193391049312977209e-01
1.260620344408299731e-01
5.356182335408950852e-05
2.080583912598113483e-01
-2.993677024619891772e-03
9.091427594363200859e-02
9.911971597302600412e-02
1.731141181430661535e-01
1.471817226584448135e-01
2.064582823925312227e-01
-6.398535359109305820e-02
-2.487857806768823676e-01
-8.329198143910107599e-02
1.180662376538870878e-01
7.285462272870529832e-02
-2.173202645616412187e-02
9.413972803299562554e-04
-1.297238101122542564e-01
1.475364096345788481e-02
-1.683215507909162009e-02
5.335866705243456909e-02
-3.332693247711888962e-02
-8.490787652769732352e-02
1.438558521278218705e-02
2.938008179290749547e-02
2.401102997343759760e-02
-8.818915168277674521e-02
1.017071827685836344e-01
8.530999648662423995e-02
-2.865301145225939566e-03
-1.695039037913139424e-01
-1.479154499915769083e-01
6.022292326075132096e-02
-2.949572177347863783e-02
2.486094292729203875e-02
-5.386312944206023134e-02
9.851003087927164004e-02
-8.099812005479516130e-02
1.571416865204863095e-02
-3.160684749902202550e-02
5.345208767260728466e-02
9.669390860973467450e-02
8.940760863000389580e-02
-1.340607056802222419e-01
-5.949604452578787644e-03
-4.047353733145322985e-02
1.865954443431048215e-01
-5.052707847355191600e-02
-3.056443349077165444e-02
2.903677176165159746e-01
1.823836054331407774e-01
2.060505459039207315e-02
-8.705124744701638051e-02
1.900190665952727204e-02
-6.803921792182390793e-02
-9.101186344019719654e-02
-5.765532427839584195e-02
2.040797578434030632e-02
1.290686369427258839e-01
-8.172066801081196569e-03
3.099535043352682172e-03
9.230277446009331477e-02
-1.114107772337264157e-01
-2.651446649330805871e-01
1.245721983232912500e-01
-1.346274654540213500e-01
6.921749898388764033e-02
-6.969383610482034197e-02
2.629713317182125198e-01
-9.363806067607319261e-02
8.620606870847315195e-02
8.601861310659765850e-03
-5.118540485627241787e-02
-3.419322899593151693e-02
1.287723053264596407e-01
-1.769135532517436549e-01
-1.579185820408622598e-01
-3.116124559699380223e-02
-3.703940241371319469e-02
4.047375732754886213e-02
1.741845422027044066e-01
8.789142718750259098e-02
4.692638177639602004e-02
-7.046199362047309012e-02
1.040625898981674402e-01
-4.473938964948166730e-02
7.678212918439472623e-02
1.378639248448571830e-01
2.794366829055173682e-02
4.677843961792238492e-02
6.909837968585745560e-02
-4.458627731373233233e-02
-6.826717928448002015e-02
8.510315250077220284e-02
8.916782409544923849e-02
-1.307497686703266819e-02
-5.330195099654496532e-02
8.005811413167672475e-02
1.680890630682898429e-02
1.596906180019906640e-01
-7.358483213977376480e-02
1.652460106680155374e-02
-2.348791409693497256e-02
8.760586260672813307e-04
7.108277397888394800e-02
2.632129770662309035e-02
7.143206914229252580e-02
2.036885250258580471e-01
7.511808518986459737e-02
-4.318302707826129211e-02
-8.195456880520364529e-02
6.332111406155235822e-02
1.354534311216952225e-01
1.030002178047477179e-01
2.511944064906401763e-02
1.158863450911318954e-01
-6.493791582844929411e-02
1.750270593054470691e-01
1.188202681631094632e-01
3.969522174116872359e-01
-5.888128429504914385e-02
-4.556437627163908294e-02
1.097443098355505194e-02
2.403642209657835815e-02
5.256135159818849101e-02
6.136288416460622397e-02
3.484851370017795769e-01
-3.449879010709456205e-03
-1.616744430897897877e-01
2.139915814875903086e-02
-9.617932105408621979e-02
-2.830596095258824246e-02
-1.310086699460563386e-01
7.603707364316901474e-02
-9.676064358729573323e-02
-1.261920865385304513e-01
2.687532539138872897e-02
-5.546335988661797722e-02
-2.158946849316879524e-01
-4.657670372763108441e-02
-1.040029227091838759e-01
1.049782639679404384e-01
-1.197306790369307844e-01
1.071004746212060044e-01
3.527555039423291988e-02
3.080883339156901407e-02
3.115685809804959530e-02
-1.108509130596317949e-01
-4.936275427093576862e-02
-5.516127696857147517e-02
1.224067638677577702e-01
2.729949249276182599e-02
-1.114201144350822487e-01
1.812833817069946507e-01
3.307096658290618885e-02
7.341294056339006668e-02
-1.213503083558504225e-01
1.257163486171736788e-01
-1.346334778980106187e-02
-8.317072600068779742e-02
1.108086240390948780e-02
-8.377666170453823558e-02
-1.058808594219846771e-01
5.136256418593727890e-02
-8.089517254967946991e-02
1.433795540562277648e-01
1.144394407202083963e-01
3.615997782658934151e-02
-4.555443990040225488e-02
1.013892980435897317e-01
2.609799505127822702e-02
-4.872618464012782626e-03
-9.836691799180626028e-02
-1.174848896237814244e-01
-6.623539293587760168e-02
-6.383742069254642881e-02
-6.653415891260014425e-02
-1.903623229564138097e-01
2.204119794216838346e-02
-1.932109554226945150e-02
-3.099235487200451347e-02
-1.368156902990707857e-01
-7.432628423313779320e-02
1.648104507977661004e-01
9.457387894260725625e-02
3.321413696886585821e-03
-7.765356243673027237e-02
7.691840419373992266e-02
1.118444468295843597e-01
1.451449973316695508e-01
2.236098713799371807e-01
1.798113845332096616e-01
-4.239799632337149654e-02
-1.599334476812853956e-03
-2.191968740878012800e-02
-7.598539522744243713e-02
8.075403431090713569e-03
-6.072887255831140724e-02
-1.138626411185628823e-01
-1.436636942744776713e-01
1.241709424361708419e-01
1.145150414282345291e-01
2.169300109306913221e-02
3.826695404053204880e-02
-3.195786780845805836e-02
-4.036213395127741244e-02
-3.280125128020449643e-01
-1.554816630002860411e-01
2.053203125211150448e-02
-9.794752832294915945e-02
9.062303865763478294e-02
1.688878656886516096e-03
-1.549883317794346071e-01
-3.679402111696732092e-02
-8.034898069741835958e-02
3.808322042657720508e-02
1.052719977883578018e-01
-1.470517333227461809e-01
1.858638078133920679e-01
-1.140748934036976830e-01
5.185875781070121981e-02
3.171135597774068365e-02
4.791955509171337557e-02
4.911299949484233818e-02
9.982202134744258548e-02
-1.367465684716234232e-02
2.450384930752633750e-01
9.189103909069205878e-03
-1.414162012286696024e-01
1.149341690193899923e-01
-5.236146040201247048e-02
-8.213304234609314011e-03
9.472009233852009269e-02
-1.170735552354978531e-01
2.675718844702703603e-01
1.004635372493659778e-01
1.676370664925982135e-01
3.494276158439742902e-02
1.050265801597010697e-02
1.135150308346049575e-01
-3.184535281396701223e-02
3.117858789181114296e-02
-7.082423006722213081e-03
-9.889297711115786760e-02
-1.080108242006709920e-02
-1.036890311530116043e-01
5.675409068693266362e-02
-2.978886145285183917e-01
-4.324961294471733192e-02
9.321969934322212048e-02
-1.064553760724909620e-01
6.654638447961447323e-02
-1.707076375962086334e-01
-1.373449768999354115e-01
-8.952765955267000253e-02
1.936703591877771136e-01
-2.313244391632261407e-02
-6.630618818157854588e-02
-2.907775423713044802e-02
-8.118022355175184834e-02
2.052390884070683444e-02
2.218185265034705589e-01
1.109211165305173524e-01
2.818857981185269798e-02
4.710497168270526280e-02
9.702221087991364651e-03
-7.026846150075999158e-03
-5.426201133509560293e-02
9.941746726132939804e-02
-1.403306674873122384e-01
-2.773452111950872045e-01
-1.795658977173736071e-01
-5.553562343648594385e-02
-1.312825064155514476e-01
-6.390333641285948774e-02
6.153779440281795937e-02
-2.156110571936631012e-02
8.132093874299824166e-02
3.607136542092479609e-02
-2.831677497298563592e-02
7.535306917572051622e-02
-3.816791525237794164e-02
9.264000391975568682e-02
-1.956288879829805039e-01
7.049141343132014903e-02
-6.276352318500366505e-03
4.829052939836311897e-02
-7.385860932662628719e-02
9.753810334275822558e-02
-9.612783285781266451e-02
1.618523800915812050e-01
2.922268684997585825e-02
1.218973068576330310e-01
3.944544851227084481e-02
1.622886011594982525e-01
1.116409359616269137e-01
2.719221031173182576e-02
1.411406915016011343e-02
3.909042245956307476e-02
-5.811509715523265063e-02
-3.349549248702496373e-02
-2.141022688105573835e-01
-1.118302151600870514e-01
2.424045163031169625e-01
1.299121794873973057e-01
-5.761166017868309813e-02
5.163890291063269466e-02
-6.744825691796992040e-02
-1.122270907337100110e-02
9.328528265277644116e-02
-5.279325523990527347e-02
7.959015779195369178e-02
1.739492063642140984e-02
1.008660919033699255e-01
-2.348848744068919858e-01
-8.327562876416111370e-02
3.054115605740316888e-03
-7.457842527757327367e-02
7.433693383007750066e-02
5.607451306241317129e-02
6.364773254952200976e-02
-2.050173172611244321e-02
1.334207813947682619e-01
-1.036417139383581827e-02
1.844840526128763702e-01
6.665316947878532905e-02
-5.718677783160027589e-02
-1.516966701102851443e-02
-2.317947957388867206e-02
-5.873876027295754643e-02
-3.831838396596417770e-03
6.358411855243374655e-02
1.276093523122548423e-01
1.773371694214372768e-02
1.855088915040175868e-01
2.088672176128809899e-01
-9.276232902657434443e-02
-6.057336532653839062e-02
4.524721820193726429e-02
-1.028588967657005637e-01
1.775455302835659416e-02
-1.781243147807246019e-01
-5.680861129320696756e-02
3.229492530406513628e-02
2.333915211579137006e-01
-4.769745937562245436e-02
1.462026919307810313e-01
-2.622434415172471972e-02
-3.967442881148536965e-02
-6.688069561485138204e-02
1.283756662924180440e-02
-1.765450926282992605e-01
-1.440333380383005679e-01
-1.559598339359814512e-01
-9.044204566905124365e-02
-2.115324777190820127e-01
1.267493459578635517e-01
-6.093954108778627116e-02
3.031242393862603954e-03
3.053304674841691990e-01
-3.389256136764606797e-02
-1.707356564757425976e-01
3.815365412160228592e-02
4.930915777272965733e-02
-1.216146143403586538e-01
-2.056778422662389749e-01
-1.299037987697790851e-02
1.859521170766300843e-02
1.104060256468747253e-01
1.054796171979274638e-01
2.061415057076877444e-01
3.266618216349216619e-02
-3.599423941277180711e-02
-5.216118592176897245e-02
2.435617723575148053e-01
-4.807581104257630314e-03
-1.235061720758032222e-01
1.143616976069524033e-01
6.427276472430726306e-02
-2.591579202554336048e-01
-6.914696742157018516e-02
-9.171399703304340331e-03
2.261938241739763072e-02
-1.002820317976269859e-01
-1.325195974578357860e-01
1.509506121959144909e-01
-1.397773085359075296e-01
-7.622005797589903597e-02
9.897905545371663005e-02
1.447734161774549555e-01
-5.242937001416823894e-02
1.972558844240508702e-02
2.170961094821228232e-01
-9.570371964710000512e-03
-1.115197489338164843e-01
-2.357718257689406932e-02
-3.668463940213511493e-02
-7.450441577194860665e-02
1.501388014648392596e-02
-1.573385193722365849e-01
-4.426510872768103094e-02
3.737420736345024863e-02
-9.603681860033681794e-02
1.544698316333148989e-02
-5.177333588431047573e-02
-1.799796074824834280e-01
-1.987613375563016677e-02
1.061448131235815107e-01
1.052973497092184463e-01
5.220107430183700686e-02
-1.945800000746841507e-01
7.861213968909554206e-02
1.245087717939696997e-01
-1.391626880326892468e-01
2.482273088060556535e-02
-6.490132955674747517e-02
-2.726861408348948274e-02
1.847918813679424177e-01
7.471261813658419682e-02
-3.575881299686160114e-02
-1.964590419840501756e-01
-9.317386835974673931e-02
1.561309539502707677e-01
2.479009640116742186e-01
2.046709533558175031e-01
1.019809986788323408e-01
-1.650762081317546509e-02
-1.075176451829108482e-01
-1.014386030039928360e-01
8.056215681570236264e-02
-8.567008021245449412e-02
-1.166868160564057538e-01
1.592776474651477203e-01
2.297083063716653245e-02
3.369149953436973571e-02
1.962485394200466082e-01
-5.545275620149003187e-02
-6.554729029685893438e-02
-2.156858241782921154e-02
-8.463909671173271143e-02
8.871143307615493578e-02
-1.176667267821431828e-01
-4.885514272178228395e-02
-2.084198643604077139e-01
2.360028705209240435e-02
-4.115334805340914621e-03
-1.911831484363654687e-01
9.594656241920168638e-02
-4.112541368189336771e-02
-9.769888687107089464e-02
2.331177504013743074e-01
-2.770191945917470644e-01
1.135889457184681567e-01
9.414926497743486555e-02
2.295241425058757584e-02
-1.230614952684153940e-01
-2.329844204635464835e-02
-7.709405804368964221e-02
1.185878567318754961e-01
-4.129302707844816067e-02
6.772517830933051652e-02
-1.476603808399092749e-02
-1.295717587994661135e-01
-1.214310486314103960e-01
9.290105658631064856e-02
-1.160714052342612518e-01
6.635088595213778362e-02
-1.743031494318988614e-02
8.869514685709720125e-02
-1.085821401927084956e-01
1.202465858204663368e-01
3.156038527237357560e-01
-1.093267566399211826e-01
2.023580222234642179e-01
3.145471710005657423e-02
8.204777998529549921e-02
1.019730069176202035e-02
4.846748335112767425e-02
7.785692484398824831e-02
9.178926333225616296e-02
-1.584539801188415697e-01
-8.504972782940057804e-03
-2.960823016506860528e-01
-4.697883748501877066e-02
1.915493752142082284e-01
-1.017280489726079956e-01
9.035093425051105021e-02
1.284187358659249177e-02
1.689593686555170005e-01
6.890536201294109910e-03
-1.527109520492498929e-01
7.653372869071341233e-02
2.040444827799565986e-02
-8.490755827860607674e-02
1.881242024147522507e-02
2.049615404658401696e-02
-1.969735633296253174e-01
1.477189104936098007e-01
-3.071864559368303604e-02
1.543921655443506180e-01
1.931408616315088422e-01
-1.314557711597359180e-01
-3.244409600416682526e-02
1.298468451870617713e-01
-2.173266380534252806e-02
1.120156788053921493e-01
2.678396256476897434e-03
-2.420774563165584148e-02
-1.373930068413468097e-01
5.685075201376368903e-02
-7.502520587470055957e-02
-5.958240265894436394e-02
-6.277285738414999094e-02
8.146098368432806713e-02
4.459591159585002407e-02
-2.555451654810157389e-02
-2.753939991023436340e-01
-3.149134561483331318e-02
-2.321015486903671154e-01
1.358484055084710311e-02
-1.644927176981362260e-01
1.021276061370622601e-01
1.347486475738528255e-01
9.366458617018645627e-02
-5.880397647155707896e-02
-8.801029499562967873e-02
4.365769395291543842e-02
-2.207993911359756589e-01
2.453111980265075195e-02
-8.575730771343191561e-02
-1.097057025825188131e-01
-8.156812215355188633e-02
1.087442258374714255e-01
-8.774788185593400403e-02
8.795633884973752883e-03
-6.922459004832798302e-02
9.442357374306929729e-02
-3.528561435770719013e-02
1.139571825454316345e-01
-3.471887212755826041e-02
6.436382006394529565e-02
-2.629713587469151292e-02
-1.295261726071945396e-01
1.149762640481387238e-01
-8.909142247729526232e-02
8.724512207607885983e-02
5.043501285617566637e-02
-5.518270572296926461e-03
1.425878769554986248e-04
-1.688998137402271393e-01
-1.611687030661911046e-01
-6.788862946222631867e-02
-5.778429597022890357e-02
-1.198118060325632506e-01
5.155350912610868336e-02
5.005538723394566125e-02
3.358035557099131596e-02
-3.899091857504102809e-02
9.053640837756604665e-02
-1.241448588712815854e-01
6.643224327802989271e-02
3.956200317656655835e-02
3.621770507220471724e-02
1.835171217641174413e-01
8.172069027810842379e-02
7.425303397642849922e-04
-1.712757057745671330e-01
3.435809638949256783e-02
-1.427887459601067666e-01
3.286387631635155626e-02
1.826264889134901759e-01
-6.757439699962523860e-02
-1.121077433775933760e-02
1.339434788960878198e-01
9.737647355438944219e-02
3.853792066008926431e-02
-2.401541450469150130e-01
-2.115425758754380103e-01
-1.824392151358527336e-01
-8.435077738120330682e-02
9.807296735450772573e-02
-1.433026885393595962e-01
-7.478621643774106820e-02
-6.083084495915055262e-02
1.232117956507820383e-01
-1.517612043632897145e-01
-3.358605898116620025e-01
-2.073322403910297096e-01
-3.629656091323443801e-02
-1.127436625602356440e-01
-1.255560643103982577e-02
2.335065101181863223e-01
-3.392992249847295166e-02
-8.787052276894305458e-02
1.105725419785291569e-01
2.309623481482574736e-01
1.284449994536687734e-01
-5.620430916388931275e-02
1.218860504849247212e-01
8.826423149020316827e-02
8.667727887349122029e-02
6.360986652565385480e-02
2.278790716534666028e-01
-1.452032974127120124e-01
1.508890081114147852e-01
6.233810068435186036e-02
4.204028284277145505e-02
-5.831016500043868095e-02
-5.407432065691274853e-02
-1.757097548072439896e-01
-2.041036452990083461e-01
-2.014388903274258458e-01
-1.404878865999026338e-01
-3.301127976468611058e-02
1.131085378899209792e-01
-2.546843163820494346e-02
8.419778702916685953e-02
7.617510698108567735e-02
1.173978219391448585e-01
2.878164210300203363e-02
-8.458685374109381483e-02
-8.893487482179708581e-02
-5.685524266169186131e-02
1.924961851810394198e-01
-1.600049250757747121e-01
8.459445713989469443e-03
-1.070880743370730692e-01
-4.825634242121905337e-02
1.316447748870635814e-01
1.164427960538112206e-01
1.875183872127395568e-01
-1.411417534335317747e-01
-6.348093945518609726e-02
1.094842944138767205e-01
7.491943633156000759e-02
2.643955073697636451e-02
1.555707037956815808e-01
2.256845050056451862e-01
-4.666607075702270541e-03
-1.060875104627665658e-03
-1.031655914451435896e-01
2.197691405085227256e-01
-1.255506842016129443e-01
6.386420162501323106e-02
2.823298431368556280e-02
-3.634607511428079862e-02
1.529455803851906825e-01
2.266684689730520327e-02
2.915773590177591842e-02
-9.123409685186341378e-02
3.634807008190740069e-02
-5.893235395058961379e-02
1.283558001724132702e-01
9.766772266138640246e-02
-1.515509954962206314e-02
-7.520279354427250595e-02
1.614699926592172707e-01
1.868033036122040969e-01
1.477361327657613355e-01
1.006440951111963050e-01
7.415598807594463160e-02
8.691559165117331009e-02
2.335549461954563866e-01
-9.452958550237668123e-02
-7.083519249184911347e-03
-8.444787925179655583e-03
4.535845313991469785e-02
-1.060155829345189871e-01
6.613848049292204989e-02
-5.041748551681762142e-02
8.219119822193959868e-02
1.432321301972067640e-01
1.412926001019178535e-01
9.628366860533353611e-02
3.468177465541398552e-02
9.601489102329338610e-02
-1.109583904872806642e-01
-1.921706187256040088e-01
6.533807129679003629e-03
-9.494416273575966014e-02
7.905181124957726124e-02
2.326473788469966553e-01
8.628751110958874510e-03
-1.491587433500980997e-01
-1.149400893651796596e-01
4.148125972269889328e-02
1.211948098025968090e-01
9.126549185998845959e-02
-7.660475899939257760e-02
2.501601530918405591e-02
2.947344928760567070e-02
-2.183458341348800957e-01
-6.693299729507873330e-02
-1.139953905110080261e-02
-2.253547833621395366e-02
-1.044599516200544337e-01
-1.231594528052207538e-01
-1.369266636683903748e-01
-1.116088627904921887e-01
1.857105362109954805e-01
2.177429016482833046e-01
-1.468157693751409310e-01
-1.206284744970974182e-01
7.322711772571276201e-02
5.627820898623192569e-02
-1.465758980231813419e-02
1.355920078650210171e-02
-1.132629106829203119e-01
-3.524956371915360237e-02
4.195812236113222876e-02
5.363291316423002449e-03
6.698182509261700612e-02
-2.492103440276853890e-02
2.356906048949518676e-02
7.418252245415421497e-02
-4.966664647822084666e-02
2.621355173883642854e-03
-1.093135877399273592e-01
1.202283877031253279e-01
1.844526411396117116e-01
3.640075264731114368e-02
1.684877214582751123e-02
1.188368405810709960e-01
1.217964126904991090e-01
-2.881296876343059643e-01
-3.506777220825183644e-02
1.155649394505196825e-01
9.305312843795154887e-02
8.410820964858928273e-02
1.605757907421382635e-01
1.602764119707926482e-01
7.546987655653250582e-02
-9.619141187428148498e-02
7.686413737349531705e-02
-8.868894403366550661e-02
-1.590533211626360133e-01
-3.380942337127575137e-02
1.087627976350051262e-01
3.357977949854241140e-01
-1.142138118087285548e-01
-7.146520376742775127e-02
4.622982854184579798e-02
2.764030427485059116e-01
-1.297509849512363533e-01
2.486171321776125820e-01
-1.541808188038708838e-01
-1.752569612660287782e-02
-6.985541275433634900e-02
-5.370888622884205897e-04
2.018381624599095009e-02
9.877005580641408378e-02
-5.795290296795239937e-02
-1.017771483411110817e-01
1.979259704181121349e-01
8.672786409429028565e-02
-4.684330579771731984e-05
-1.876033706029474890e-01
6.577189280933389004e-02
-9.084192879072372495e-02
2.796099689363732571e-02
-1.169259443393274034e-01
-3.028572693679668082e-02
-9.975050367775654958e-02
-4.325786028159601948e-02
-8.774317984887526622e-02
-1.829328407376863141e-01
-1.937214561704563298e-01
-9.322593844135231012e-03
-1.082165048416492206e-02
-4.260928423082017275e-02
-1.690515513164669303e-01
1.800100959424830172e-01
6.364207837233618048e-02
-5.996375883571936766e-02
1.977954391550182933e-01
7.105340197733980845e-02
1.455087320539737994e-01
1.012076027733769118e-01
5.250451197148289090e-02
3.680895121969444961e-03
1.824524505009948172e-01
9.262113438388057396e-02
-6.186378077390073532e-02
3.283490549787260876e-02
-2.341763973743133942e-01
2.627754265284779067e-01
1.248167584885128828e-01
-1.128553090209149512e-01
-2.251642033210648347e-02
-7.998847374670681187e-02
-1.214968507474965959e-01
-1.514961495445464879e-01
-2.084807579007049057e-03
-2.451268161457936801e-02
-1.552166837565676638e-01
-1.228183567717751057e-01
-1.173916158420901662e-01
1.675397333590028237e-01
9.229890101702639682e-02
-1.510784348646344033e-01
2.314660709634767666e-01
5.090514366199101054e-02
-6.949703594996728406e-02
7.593455445674318627e-02
3.196738470874490451e-02
-1.323386165354355770e-01
6.398897976214681926e-02
-2.453244413651593792e-02
2.017485174283244476e-01
-2.739950121303407621e-02
-2.134322872533661319e-01
-2.056377547270671347e-02
-9.566126155585288893e-02
-1.685750852116722634e-03
7.026051440811791060e-02
1.071775226474920018e-01
4.022889907739757992e-02
-4.559431763292930845e-02
2.225287048376924370e-01
7.414206262979117223e-02
-4.806284507895719482e-02
-3.444350292138306791e-02
2.821476786655106594e-01
1.120045437180760550e-01
1.698087967809366883e-01
9.224200181266484222e-02
-1.516737144022015961e-02
2.594004094408169231e-03
2.959110247816821859e-01
-2.321752999140558049e-01
-1.276942869184203785e-02
-3.507060256534572790e-02
-2.170853197556211686e-02
3.317509780518514972e-01
6.446341669160224330e-02
8.394232340326400477e-02
-1.585158902420613358e-01
-1.241062627723090867e-01
-1.354649322682532388e-02
-4.208927677891462042e-03
-9.857386940723783519e-02
-2.964884288875207358e-02
-1.805447674368013469e-02
1.678803193537911354e-01
1.273412416846610440e-01
-1.433360819397343500e-01
-2.258563625731963703e-02
9.637110734065619522e-02
8.997694832098035445e-02
-1.486918234147798779e-01
6.627251905419676015e-02
-8.961314585895873222e-03
-3.529203144257295893e-02
1.662880123221564463e-02
-7.877920069113147905e-02
3.383703202886305470e-03
1.467838086940707332e-01
-3.354567540708540407e-02
1.153679526838666120e-01
9.205716292344143237e-02
-8.165458021657351698e-03
-4.771760549699014670e-02
-1.149166066630478295e-02
-5.646426351421283268e-02
2.698027489942973478e-01
5.953119802484136552e-02
1.184879652241606213e-01
1.266186272126892769e-02
7.494900118968935918e-03
1.498615324765886492e-01
-7.125898722700087229e-02
-7.542863352972786761e-02
1.775832364398235719e-01
-1.095563471303236114e-01
-2.109071100603696347e-01
-3.885804359990484985e-02
-7.512523815593362408e-02
3.569618873131516490e-02
-7.639793995660677794e-02
-6.939675728243706321e-02
-1.800211858591048708e-01
-8.433542666003521204e-02
1.632411700972754565e-01
-2.532358009645715308e-02
2.458968786622972233e-02
-1.523017393779376415e-02
-1.971744008372035631e-02
-1.836783030356600298e-03
1.819563214362474035e-01
1.012643173079202652e-01
5.209883627369277237e-02
2.886837314684262065e-02
-1.291265742274196326e-01
2.447757491076004224e-02
1.496997232267807676e-01
-1.916613247086590768e-02
-1.090008479923836315e-01
-1.594563951860172024e-01
-1.512540801273653222e-02
-7.617247720628515795e-02
6.716145855102116646e-02
-3.192308033691308722e-02
2.165751475314054431e-01
1.227513905685595347e-01
1.152104580056156069e-01
2.599568317271379048e-01
-3.442466500188103712e-02
-2.440895893123426474e-01
-1.044825107997598285e-01
-3.622569008697490434e-02
-9.884161707778722772e-02
1.013356226197975052e-01
-1.237425901518103138e-01
2.398343929678674880e-01
1.975180572310162586e-01
-4.492594353293313109e-02
1.774341900650427961e-02
2.472405135801289747e-02
1.405856446513453241e-02
-2.641195908691571989e-02
2.069438360070526561e-01
-3.196041261332119299e-02
1.205681849302620984e-01
-7.639619999789355742e-02
2.026826068353899390e-01
2.323968032262463748e-02
-1.111508362625209245e-01
7.334061722216748958e-02
8.669549998781278521e-02
-3.370771748237734455e-02
-7.748238524261484572e-02
-8.856898674729374310e-02
-6.422108938125706268e-02
3.595558093798947169e-02
5.422519594457906461e-02
1.822007739700798046e-01
3.233362882480933509e-02
2.328501516245925357e-02
-7.137822513665163793e-02
3.090099671416969909e-02
1.704325271356567084e-01
9.023511442653724124e-02
-4.325958895154276979e-02
-1.265746484850671649e-01
1.969085455092992043e-02
-1.845283510564766360e-01
-5.698059901938816452e-02
5.883298409843196186e-02
9.469730137482455790e-02
-1.607688679386161390e-01
1.504073708840082957e-01
-2.564684688876833069e-02
-4.220517953531831290e-02
4.657582391566159746e-02
-5.965067184385619559e-02
-2.271573889969587950e-02
-7.627626173481523442e-02
1.992440792874834443e-01
-1.525247990686395827e-01
8.935941912791349473e-02
8.617007895224737535e-03
-2.445734984953324975e-01
2.039447611545659178e-01
1.604773917085490775e-01
2.514338783170511071e-02
1.163745625215960033e-01
7.309999196629604623e-02
7.556625492876979655e-02
4.694063461545405075e-02
2.651555535915270934e-01
-5.759985573130534803e-02
-2.753426512973174145e-02
-5.724763169546467911e-02
1.245296348954758880e-01
8.668438104803272148e-02
1.577473586709940701e-01
-8.709928383449702660e-02
-8.316137698310377413e-02
5.784526509020460755e-02
-1.029683845927029384e-01
-1.374156124580187543e-01
2.881134429268955230e-02
-5.895477691880307569e-02
-8.671820069475998094e-02
2.541204925754135535e-02
7.731498168460622378e-02
2.071433122216602201e-04
-3.684431573649681740e-03
-1.215319482260585338e-01
-1.036148983038530230e-01
1.802268032621364424e-01
-8.805032775397099443e-02
-1.977599213408931522e-01
-5.743401398318043194e-02
1.502129781917912743e-01
6.736677086291666117e-02
-2.669271727759697094e-02
-1.567773839342617159e-01
-3.767313135359245252e-02
-2.868787520493123674e-02
6.587548554822060531e-02
-1.884085204583593395e-02
1.049414093106597473e-01
1.190955435364243337e-01
-1.023586084268453683e-01
-4.453588895318633112e-02
1.306546845352062232e-02
1.395049571022828061e-01
-9.272610383852065985e-02
4.302564962842875262e-02
-1.280915146265959315e-01
7.617407887406533323e-03
-3.356417346901473253e-02
-2.158948433270109490e-01
4.075465819726242778e-02
-4.430746225602338884e-02
-4.500908218671394873e-03
7.495486981293363049e-02
-8.434730904089514369e-02
-1.069525397040241160e-01
2.241278208889865564e-01
-1.135151321318531997e-01
1.442303909859411065e-02
5.578192016319064028e-02
3.696453597972582106e-02
-9.235906038778997698e-03
-1.277519987125614875e-01
-2.558717408119305370e-01
-7.983218090127643107e-02
1.471431426179430346e-01
-1.593215780893981193e-01
-1.090677110797010213e-01
-1.742543564882552062e-02
1.628911911083569253e-01
-8.820944866957132480e-02
2.793203578903753065e-02
-4.601232051253656939e-03
-9.223350904673037823e-03
4.105738423683382918e-03
-6.975431384779934296e-02
-2.688574053777166295e-01
6.238371332369802708e-02
-9.696928209717864400e-02
-2.734205017046039896e-02
1.820005880530832232e-01
-2.106142716487787933e-02
-6.411480726594755153e-02
1.813880577105182398e-02
-1.388616913203143122e-01
-9.436181271905585977e-02
7.327501529656686718e-02
-9.327693937393791157e-02
9.684806334006365591e-02
6.737092054285008513e-02
-1.474021152644589827e-01
5.494147329914328415e-02
-1.720718476703884392e-01
1.357147975186178412e-01
1.379115575429745999e-01
-1.493389662710128962e-01
-8.925281965480046098e-02
5.873244700172282340e-02
-1.337912018394256559e-02
1.569358455470810376e-01
-1.571774301897485571e-01
4.596662939318559710e-02
-9.140671732433189312e-02
1.311335520355479123e-01
-6.533201881090643093e-02
1.697946529806349525e-01
-1.069445438911617863e-01
8.763009926295961538e-02
-1.417925527743220948e-01
-1.129453597233311957e-01
4.671263113781110726e-02
2.095237605657229024e-03
6.463208907870218733e-02
3.664856979141952603e-02
-8.012393007721022031e-02
-4.961091201805235135e-02
-1.008291381263159842e-01
-1.468161589718840476e-01
1.267179067996439812e-01
7.234431751130079857e-02
-1.167648704508048169e-01
1.508302853929872067e-01
5.773608726255182594e-02
1.254116221414101617e-01
3.528394047092182628e-01
-2.628610792493891180e-01
-4.401153427512670413e-02
-1.440069523712820543e-01
4.319126809028283470e-02
2.310778696737368285e-02
-5.262355159920057562e-02
2.461732238139381981e-02
-5.785667011773930335e-02
6.225158316879742665e-02
-1.156309252536301818e-01
-2.751327382194838217e-02
-4.755363487569150976e-02
1.497422092519859298e-02
1.808468975281875557e-01
-1.023137484494450328e-01
-1.199431522971406566e-01
7.675412442559412241e-02
1.382959007817180508e-01
5.561729586690437183e-02
2.148939647054705013e-02
-1.646109449717619300e-01
-6.642416743625172149e-02
9.880827361182403790e-02
5.362226246514785466e-02
1.325006159425258512e-01
-1.589879576000546857e-02
1.616197294961212519e-02
-1.079557103426348891e-01
-1.067539329322127056e-01
2.104306428153026876e-01
-1.107107210839244626e-01
-2.926200915578042738e-01
-9.388386627749822910e-02
-4.181105888884934646e-02
-8.154572582475005937e-02
4.059421590943746577e-02
9.630550990442732218e-02
3.315037502747381765e-02
3.113817348564048779e-02
-5.393610068169937127e-02
3.900807978496338008e-02
-2.979260086737650637e-02
3.263292398115298643e-02
-1.957847339619320573e-02
6.875949853826672509e-02
8.805437307292490745e-02
-1.504168165928911616e-01
-3.304971533852320981e-02
-1.013511946117883616e-01
-3.693499742172307032e-02
8.357875013169463463e-02
2.777300231799706975e-01
2.730225841421361072e-02
-2.899698285423041311e-01
-1.234261766760973156e-01
-1.320539080683650612e-01
-1.250410419131995354e-01
-4.776858720485832599e-02
1.932321022501760910e-02
4.971942340034193886e-02
-1.836830266706668546e-01
9.290832979598112606e-02
4.155005426021859266e-02
-1.894809042547666855e-01
1.364932869367200263e-01
1.362035265573356690e-01
2.692451835544278915e-01
4.964345687920716094e-02
1.013553573032237309e-02
1.576887588901043635e-02
6.796425328940269850e-02
1.172169821983973098e-01
2.537167029472637836e-01
-3.875142081232183650e-02
1.104581538170185638e-02
-1.538376537394567645e-01
1.184345163935793810e-01
-1.409000606615284368e-01
-9.393650591701922792e-02
-2.735651369015028572e-03
-2.130474641803612457e-01
-1.386261441346659518e-01
2.424029795966553547e-01
1.144935509468486545e-02
-1.316734569697003421e-02
-1.167249647064476648e-01
8.537201613547887313e-02
9.944594777753749948e-02
-1.248833412186908798e-01
-6.663065705870427347e-02
-7.467381042181686635e-02
4.688806892075323557e-02
1.278162182733596219e-01
-3.903375069459527613e-02
1.044188487964685524e-01
-1.340207203104528955e-01
-1.846012107311842954e-01
1.144991849614426099e-01
-4.034323682609242123e-02
-4.245019075246307672e-02
1.861829394245014258e-01
-2.131265264987598773e-01
-2.504394740738692393e-01
-6.422625229533276969e-02
-1.560414296950929924e-01
-1.003356236138008006e-01
-4.904716592588485857e-02
4.002890896958738454e-02
1.816369374295190020e-01
1.113497507760913968e-01
-4.226572322791653270e-03
-1.506338419160252462e-01
-1.355120544534262061e-01
-2.212235149574355297e-01
1.120798378186626393e-01
1.703092907756657559e-01
-9.707184723376094393e-02
-7.715061573907555648e-02
2.345188702174195450e-01
6.666897478488398310e-02
7.506214349819081977e-02
2.335826899350963368e-02
1.873157705325583233e-01
-5.951910035058211902e-03
1.499760596844145477e-01
6.126728648837535124e-02
-1.130534163177099836e-02
-1.880932331377720701e-01
-4.074560110358759618e-02
-3.634653683193642820e-02
-1.030630635985260585e-01
-1.281399518114093375e-02
1.168172549230025725e-01
8.776981079659394724e-02
-3.657632825501160034e-02
-8.880076530636216159e-02
-3.757805387781405770e-02
-1.489217060545733606e-01
3.790532170892438879e-01
1.043044503040026355e-01
-6.196790128912225276e-02
-1.447465874152721321e-01
