-1.701802989295040092e-01
1.295403826312357953e-01
-2.199369203756817159e-01
1.909580678331777304e-01
2.216837228000108906e-01
3.668903356144072592e-01
-2.889559481269253771e-01
1.449028955518436024e-01
-6.000429058236661506e-01
-1.716320752613443856e-01
-3.670625623483289024e-01
-3.065614657421660352e-02
-1.906759576504170051e-01
-3.807216476709817110e-01
1.550188132234520677e-01
1.788770116439936941e-01
3.258146327721779811e-01
-1.585900638213441904e-01
4.727519724517314503e-01
-1.374143067690149211e-01
2.387173667561006685e-01
-5.261688204951483344e-02
1.384112780612559157e-01
1.861145126322607535e-01
8.225638702102645861e-02
7.733534172111150573e-01
-4.674436549778386851e-01
1.630879409577143668e-01
3.585632906301251532e-01
-1.908114863029158337e-01
-1.510976707984043321e-01
1.464617787670416116e-01
-2.224132120700151594e-01
-5.770769586634375697e-02
-2.990012727075183618e-01
-2.644916655481268641e-01
4.617485523564954231e-01
2.998997724044309421e-01
3.113446522165041856e-03
-8.362198177402138666e-02
-2.080668424431277030e-01
-4.409919160080985612e-02
-3.420192298519535330e-03
3.092898630218625378e-02
5.546888529419977121e-02
-5.992951199482517144e-02
-5.236040359597952942e-02
1.072402810065553325e-01
-6.955164663579344042e-02
-1.291706895342051853e-01
9.151283319383769765e-02
3.455126602988488338e-02
1.113458845865602544e-02
2.257101972432114523e-01
-1.091881119765839014e-01
2.445781805803310949e-01
-8.114775974087802546e-02
-3.003185702593962406e-02
-8.453053906656608774e-02
1.604700510111188028e-01
1.850003086961302112e-01
2.685981778957927668e-01
9.320131893776666121e-02
7.601140344709253482e-02
-6.054411545305920378e-02
7.610095244564001743e-03
-1.192746047996543282e-02
-3.068313276501167045e-02
6.038857074146049275e-02
-1.787614994326615914e-01
-4.341689771699309280e-02
5.211114104590955018e-03
1.141454639832637646e-01
-1.167190229656947520e-01
1.741429870309349481e-01
2.428086105895836677e-02
2.079827704969500549e-02
5.773608584739636090e-02
2.625854355314545252e-01
-1.054328419281821555e-01
-5.012661772368746244e-02
-1.222925242801283924e-01
1.096908733050182549e-01
1.152980920314714344e-02
2.903316950358511214e-02
-2.267548141823438335e-01
-1.551775334967590014e-01
-2.048954072483481215e-01
2.368585454953193448e-01
7.557585992530242713e-02
7.675791745660506815e-02
-4.497793802520360512e-02
1.450386930523634710e-01
4.483512846343771785e-01
-6.340715052058076839e-02
-1.611020095070452574e-01
-2.192775736826939603e-01
1.084747029675972863e-01
-8.904571635542556096e-02
-7.507052866969486649e-02
4.600659007958267724e-03
1.129035261607271162e-01
8.098398342565973559e-03
2.328399016375725522e-02
-1.747242210619503189e-01
-1.295033813241073528e-01
2.831185264445846839e-01
-4.997427921253608796e-01
-3.830202713402284798e-01
2.502909126908180459e-01
2.615759664070846369e-02
-2.185917650803826107e-01
2.026331929948100574e-01
8.639803587010073949e-02
1.587594148935765337e-01
1.285738181158537774e-01
-2.177827226116444415e-01
-5.947038829143734551e-02
2.743994394388479252e-01
1.154182814920013539e-01
-1.224431124771252627e-01
-7.076849232753987251e-02
-2.320596076076665848e-01
1.791910334418007622e-01
-4.147667243732657688e-02
1.673979638219046107e-01
9.608881699036966872e-02
2.506488339127022069e-01
-1.462682558152827716e-01
-2.279974149406745199e-01
-7.913778255592097965e-02
7.041271910502472364e-02
1.271023136300436854e-02
1.954117704846626558e-01
-5.531815086202565568e-02
-1.306265549986161956e-01
-2.365762938012778982e-01
4.085108767232303872e-01
-1.103573113168374899e-02
2.643349511959561249e-01
-1.888382565079261277e-01
2.538551217864249421e-01
2.446995490223445374e-04
-8.833632828429018036e-02
-1.590566048356981121e-02
-5.035380768619818204e-02
2.249527130873123226e-02
-7.278249345947855609e-02
5.827854706005981128e-02
5.468625093444888507e-02
2.239201094388012792e-01
-6.535560988955177453e-02
-1.266662157269357880e-01
3.613621729288830076e-01
-1.676935191737655706e-01
2.420411903762144032e-02
-1.813876689991175961e-01
4.929789716478806816e-01
-2.077127596994828573e-01
1.454587081509168822e-01
-8.328939587256152521e-02
1.262376104053256620e-01
1.512273663993064510e-01
-3.714495613967949694e-02
3.744204984558606453e-02
1.136295983008137195e-01
6.935640431176247345e-02
-1.853860230668878950e-01
1.532025166745619102e-02
4.908094234611592999e-02
-1.222823628108174188e-01
-2.368941681492959805e-01
1.908765504293518378e-01
-1.625411648559959010e-01
6.412111442711782017e-01
-9.746003461295153769e-02
-2.043026301486802754e-01
-4.477405803676107882e-02
4.642869066667867362e-01
1.764930925985279953e-01
2.214115179819984847e-01
3.158237884555471775e-02
1.820353300491362458e-01
1.239719106117619513e-01
-4.925869859812899085e-03
-1.148147937969250659e-01
-2.728736579454442701e-01
6.736103233565164661e-02
-1.646470154807280414e-02
-3.451024820230951806e-01
-1.295233526325629270e-01
2.110454592945159580e-01
2.742542220195820502e-01
-8.055808778866650754e-02
8.418672624740515531e-02
-1.110145428229215303e-01
-1.970291556359531626e-01
-2.406158819520277659e-01
1.227757727271167471e-01
2.779050717064721412e-02
8.751994396700385481e-02
-5.561462115889525409e-02
-3.266237957447659102e-01
-6.558946405256781131e-02
-2.723195132085498918e-02
5.111301318101370283e-02
-6.968270987502596381e-02
2.582897310596951948e-02
-4.776452472832724838e-02
9.129646971000676681e-02
-1.950950632122689654e-01
-8.608395342803604189e-02
2.018283004882166776e-02
-1.971773771284200116e-01
1.657231150418690679e-01
3.140662778714692904e-01
-7.994210396460527113e-02
2.733115342915938203e-02
-9.604142362028250668e-03
9.836048539743465213e-02
-1.254626736233025452e-01
2.215205564219843368e-02
-1.710501991118910381e-01
-2.718545055776788733e-01
1.706047692849616271e-01
1.219651872048000268e-01
1.183591391824978384e-01
-4.526951823089118698e-01
1.236228309671291992e-01
-3.143751936671369540e-01
2.350663564898128055e-01
6.712363977611143784e-02
1.045422673124892510e-01
3.098691787741732484e-01
3.899355634922294644e-01
2.489763112938738476e-01
-5.402384589396845571e-02
2.357006791573067472e-01
-1.231185674313569761e-01
1.084307315594858628e-01
-1.220378749420922837e-01
-2.068787562709580030e-01
1.399399498218935611e-01
1.087092699377163393e-02
2.562902116401672425e-01
2.256560061760748415e-01
-2.816075605296670947e-02
-1.384288528726440037e-01
7.276383832161620324e-02
1.617423375757164883e-01
1.445509119579924950e-01
-2.738284144950403065e-01
-2.202903616672316212e-01
5.952060253187505673e-02
-4.591238259422100038e-02
1.895405254332584166e-01
1.827073350299507348e-01
7.157189513384810964e-02
2.078453934357516741e-01
-3.066241358801895592e-02
3.573906299037071105e-02
-4.521711216658907961e-02
2.107344769998459599e-01
3.673407311451133972e-01
1.857591926198458032e-01
1.402130332377266864e-01
-1.595395150289634911e-01
2.336724852942772823e-01
7.958057035341227492e-02
-1.316765678084043656e-01
2.713117758306570759e-01
8.979963677510181819e-02
-2.414255990401398544e-01
-2.561026225427412428e-01
-9.241931175298982726e-02
1.952780612005976246e-01
-2.079788181511118828e-01
-2.437885605763470132e-01
-1.716733520615215114e-01
-1.090982629855909852e-01
3.153751759933179637e-04
-2.675890663336245590e-01
-2.029581753663330657e-01
1.296198257588105918e-01
-1.398569652199459570e-02
9.977188670534668791e-02
5.898826126452023227e-02
5.815175531140612253e-02
-2.521277298873803585e-01
-1.350295045360764001e-01
7.534383985507131509e-02
6.327786424114642885e-03
3.934129782996209634e-01
-1.253631485043137928e-01
-5.878436639707142891e-02
-1.273509140484457292e-01
-2.366745238148849073e-01
-1.163244810204142748e-02
-1.870305289888941347e-01
3.952331695215145491e-01
-1.261438719826071808e-01
8.494304883276934670e-02
1.534954628858124503e-01
-1.318729934859269870e-01
6.217614751539308343e-02
-1.195561897423670361e-01
1.125720566982514603e-01
-9.976865184227801109e-02
2.080652575836578755e-01
2.413183178000973261e-01
1.280165595049133354e-01
8.622028221696308170e-02
1.869105046263795922e-01
9.651219540081291265e-03
-1.127684794653607825e-01
1.164557165794251059e-01
-2.344334492171472606e-01
2.982984497617817699e-01
-2.865996904602547551e-02
1.088509157112559633e-01
-3.122254018131966763e-02
-5.015666931471132045e-02
-1.223590343082783943e-01
-2.887685894973240908e-01
2.942453238181928082e-02
-2.293233739494911216e-01
-4.579891890435048435e-02
2.769716054159022944e-02
9.268288132723616346e-02
-1.617397771677567264e-01
-5.400403265153826127e-02
6.972248919932963473e-02
-1.963236423500607231e-01
4.026228472474401715e-02
2.077524683753216583e-01
-3.321284595732090783e-02
-1.941700182235890915e-01
-5.879097943811103372e-02
4.090337791245401283e-02
-1.315639138036095446e-01
-7.811516751023128355e-03
-4.011262383165683509e-01
4.513497042982639318e-02
-1.853392495824817132e-01
-9.675978425141064376e-02
2.287075308997485110e-05
2.204278147447256281e-02
3.795116454787698934e-02
6.790921755873103802e-03
-1.102536611923128629e-01
-7.726189359051194305e-02
-1.310994951652016405e-01
4.390512082157212864e-02
8.851171084425747682e-02
-1.826193455392788878e-01
5.940907073413666944e-02
-4.976263452290097949e-02
7.476092408624872288e-02
1.953720761604549327e-02
1.687776056707112615e-01
-1.876783200549125008e-01
2.101015958901985559e-01
3.840629057615365105e-01
6.063428479311794295e-02
-2.351876890039025086e-02
-7.587975541384565925e-02
-5.386184362111323676e-02
3.013292178527263721e-01
1.013167089306223484e-01
-2.354960635521452794e-01
2.379985984284661849e-01
1.277557193812788872e-01
2.764519865576675617e-01
-3.806615087715911616e-02
-6.338206742122171056e-02
-1.917013887736853939e-01
-4.101556362729404936e-01
-1.440699943595353250e-01
7.650677229644495259e-02
-5.093718927940181843e-03
5.457726477473455462e-02
-1.049223732266427785e-03
6.756123777911182682e-02
9.141130390279061935e-02
-2.380344211356730591e-02
1.791687857774707958e-03
-3.540445276674783481e-03
5.751104745654265354e-02
-1.016922961235798006e-01
-2.503232913604592769e-01
-4.721128248130870148e-02
2.478763435194402398e-01
2.199722004906581319e-01
2.768999612638341490e-01
4.728783389983454849e-02
2.069578942200371845e-03
9.830215664136446319e-02
1.421771006326247866e-01
-7.436041879431380675e-02
-9.098761459496400306e-02
-1.200922078014168976e-01
1.770114155943394371e-02
1.856843802383939535e-01
-2.686257391286252585e-02
-4.124526485799953623e-02
-1.021613545679793122e-01
7.609236818031563099e-02
-3.971432714735168568e-01
2.412953710770202043e-01
1.839268854052683311e-01
1.175926565716272354e-01
-5.898779147351188717e-02
1.614550285429860177e-01
-1.212462021052118921e-01
1.326775524447448840e-01
-1.597632352134428224e-01
-2.426856093979326209e-02
9.935379242920870657e-02
-4.496227801456491660e-03
-3.903444394302580528e-02
3.554284181316326105e-03
2.148444110495414117e-01
-2.040197302816936231e-01
-2.819225024201324828e-02
4.908758310970572081e-02
-3.750776037665912166e-01
8.889045506190582091e-02
2.680575240232689338e-01
1.564658088957908144e-01
-4.898613936222524501e-01
3.417473368120436950e-02
1.994361952810709548e-01
3.160782439366779384e-01
-1.501234947774331141e-01
-1.002179687710693379e-01
-6.259720478070872340e-02
-1.197110283750385806e-01
-1.511600923186423306e-01
-3.204519196705102324e-02
-6.448340744877104069e-02
2.938623197926579778e-01
2.786232730415178285e-02
-4.889243864850478793e-02
2.241912851074821245e-01
9.360030712303510358e-02
2.704400701885296132e-01
2.164150853814947872e-01
-1.828121448731841459e-01
-2.562976757909805892e-02
-1.547775494423649922e-01
1.994972763962132023e-01
8.207257121229464755e-03
-2.005940404745706340e-01
-2.374625322128599281e-01
-2.429669097294528957e-01
2.435664025573840985e-01
-2.296830634210716426e-01
-9.603950912753814184e-02
-2.206443217949184132e-01
-1.475248634189265939e-01
-1.555470084581149770e-01
3.892513978365415989e-02
4.698865809420111478e-02
1.591483385214146340e-01
1.788151028408345999e-01
2.372283763013491031e-01
-5.016887465916959610e-02
2.674448540745190117e-01
-1.345499689819060207e-01
1.110119107889372125e-01
-2.468890187881382647e-01
1.158656464739330760e-01
-2.492723427642244000e-02
3.967950549287591611e-01
3.428395116057842557e-02
-1.369546566301779733e-01
-2.492926033708225131e-01
1.733027096433505942e-01
-1.878144322931054322e-01
1.148037317395443485e-01
-2.032509574971475344e-02
-1.366492392621858065e-01
-1.618488072808249578e-01
1.538723267613869294e-01
-4.122078959193700709e-01
5.805585331533632404e-02
5.482429243102790450e-02
-7.695255855370303211e-02
1.647398752017532331e-01
-5.617865489148842623e-02
1.852729694719631439e-03
1.354887877343979585e-01
6.475210243050452674e-02
7.792706244842861896e-02
-1.909188238312543862e-01
-1.654633281366133801e-01
-6.550330351952059205e-02
1.130588067726720075e-01
-2.739350541741834150e-02
-1.664389625829741093e-01
3.522856369443302382e-01
2.458670527978920051e-01
-1.076345188773555062e-01
-1.048055927715576818e-01
-2.330271600478447391e-01
-3.151559942341336518e-01
-1.763249333903469176e-02
7.946904052987026346e-02
3.846843176840255424e-02
-2.058943421786295080e-01
2.752049464765223274e-01
1.989967170469537916e-01
1.453549385485619627e-01
5.370845465233708982e-01
5.111213230928962452e-03
1.398119883147634357e-01
-6.286295431697966341e-02
-3.842578630541135243e-02
-8.013194458381520113e-02
1.986685524949701256e-02
1.233277383309044212e-01
2.963268827210743805e-01
5.738898069256546941e-02
-4.372695232112654845e-02
1.135039485055125419e-01
-8.988981186522591871e-02
-9.586600688248173019e-02
-4.815273710210441621e-02
1.990347496194894428e-01
-5.688927982721701110e-02
7.479043311252327186e-02
3.683243706356304492e-01
6.111375124675817033e-03
-2.900185624468985118e-02
-1.739255906807676555e-01
-2.921792926763693288e-01
1.985846090360607052e-01
1.843209127682556014e-01
1.076738333098196804e-01
3.437607924164028939e-01
6.902383041854028012e-02
1.118494221526634275e-01
6.754008448414738431e-04
9.956994235321788012e-02
3.111115149550571779e-01
-3.239543934180054707e-01
-2.766020693969661881e-01
3.272408416721913071e-01
1.286631924595459386e-01
-1.758344979233804062e-01
-1.713315493476419704e-01
-7.467909583408685083e-03
-1.294536170939472597e-01
1.174933984713002512e-03
-1.775061421242988824e-01
2.901605552692269052e-01
-3.833078544441859137e-02
-5.138866443850959032e-02
7.178500509928943674e-02
-1.025142422088371787e-02
3.459253626203867005e-01
-3.176588567969260146e-02
-9.269809811700635560e-02
-1.218667783007667399e-01
-1.606220554968802172e-01
-1.648703070586794023e-02
-1.194341612198450142e-01
-9.494723999223492195e-02
2.957460303179360386e-02
1.090178954206950934e-01
2.636266733771479645e-02
-1.027352690835864613e-01
-6.576255361357623286e-02
4.657357735734007909e-02
-7.120236452475457722e-02
-2.463897788374514175e-01
1.568311409079458096e-01
4.551906623841013855e-01
-6.065532042184929029e-02
1.053246423635348927e-01
-1.140095689899065373e-01
-9.450235523652771030e-02
-3.121476768797632473e-01
1.677758138762324158e-01
3.423184875372098368e-02
1.856105630301900233e-01
3.075881139965614113e-03
-5.233631309872024615e-03
1.516436572185343723e-01
-3.998095464078747774e-02
-1.935237945312757168e-01
-2.917214118834721495e-02
7.993571950006142859e-03
-1.973262715381178256e-01
-1.513885514396069998e-01
-3.691114896974156956e-02
-2.366987088052258104e-01
2.057459252467202793e-01
2.286917079952527354e-01
-2.824782515416498357e-02
1.267881792971055910e-01
-2.038102040181589414e-01
-1.638678524990863639e-01
-4.695143695025249392e-02
-2.204679253193372046e-01
-1.034509364457574382e-01
-2.882387798448512450e-01
1.695923010445900964e-02
1.617862439429285371e-01
5.879195202221731281e-02
-8.397072128634119892e-02
1.760828486092297085e-01
-1.497890712796678403e-01
-5.868095214819210592e-02
-9.263475550164386452e-02
8.457294683831656501e-02
2.416904380127343210e-01
-1.249348864046120194e-01
-4.647503428054869205e-03
-2.607498857796325398e-01
8.222677618274411293e-02
1.648010519032158394e-01
2.787159032289659999e-01
1.610419921322392978e-01
1.724608378411780774e-01
3.507728309259710436e-02
-1.086324960113501242e-01
1.536380734820757821e-01
-8.481561588168236299e-02
2.671749197353818772e-01
4.947400178551453198e-02
1.911959974473270429e-01
3.701620428347237035e-01
3.227621718609963719e-01
1.729893842624906086e-01
6.523393508945130037e-02
-4.235810608178072582e-03
1.593259444425526583e-01
2.292524748937347090e-01
1.860706773900954944e-02
1.048900857943811660e-01
6.649758023793549133e-02
-1.341976697088807513e-01
-3.151139066844674819e-01
-2.178801312043791294e-01
1.560150573079555764e-02
1.016754712116565290e-02
-4.636306193610142401e-01
-1.136235176406968569e-02
2.385548140154467311e-01
-5.715094439994587716e-02
7.289665603334687105e-02
-1.692487259336652450e-01
-5.814148211802411259e-02
8.910672355984165446e-03
2.618174380374741483e-01
-7.095492418367994880e-02
1.597711231032757362e-01
3.794667453030180215e-02
-3.829111942221098686e-02
2.092587299618091645e-01
-3.241062523700843356e-01
-1.300779722607007249e-01
-1.766423569734827115e-01
-2.234350717890788707e-01
2.615586605248479760e-02
6.682351089354177098e-02
-6.243540342493307527e-02
5.364491266502499633e-02
3.186508502454230563e-01
-1.907879464007539161e-01
-3.144512970220206260e-01
-2.952980629831848947e-01
9.392735757345277436e-02
-5.128322647026650749e-02
-5.232990840650567771e-02
1.399998343544298363e-01
-2.171622120148240243e-01
-1.996634396229964026e-01
-3.270961636523124494e-02
-1.833033468954192446e-01
-1.160515239478960951e-02
-1.090592031051499933e-01
9.715912496203486792e-02
-1.604689997359320663e-01
9.280757802903012027e-03
-1.283082062965006653e-01
6.497558790435659093e-02
7.008170206206554287e-02
4.645073717697145721e-02
-2.469370086089368310e-01
6.288481221783290276e-02
1.546773090658821459e-01
-3.342884382864994702e-02
-3.225230371483973069e-01
-4.760180779898306319e-02
-5.564326319140441846e-02
1.681297102147019662e-01
1.374795204592440812e-01
-6.722124587693181774e-02
-1.571135578638074015e-01
3.082440178727025581e-01
2.098924165442752482e-02
-3.635868250757671311e-02
1.263564180751460542e-01
1.460314033765100217e-01
-1.569627141970437179e-01
-4.643202903241095336e-04
1.425549306179254953e-02
3.906686727249275917e-03
3.679191995089337586e-01
-3.360337153415061673e-01
-2.694632356467235174e-02
-4.327499510077786882e-02
1.161347966355100042e-01
-1.211919269036482172e-01
-2.460779269525897039e-01
6.183110622030953997e-03
2.232223452694029886e-01
1.246302165750799718e-01
1.564828739839339011e-01
-9.942434484907730630e-02
-3.788389940928335586e-02
4.758373169170294209e-02
1.128592395627426581e-01
-2.826936779211888240e-01
-2.039765878961398993e-01
4.039834518569394017e-01
2.289421614940459482e-01
1.273679087178689051e-01
4.541539663239161917e-01
-1.984321741812378748e-01
8.176594513908886502e-03
-2.220127919838753017e-01
-2.614393533020641924e-01
-9.543486117521304823e-02
2.564216985894876566e-01
1.969992694437654179e-02
-2.840652344660532860e-02
7.070753670660030743e-02
1.858023999678037053e-01
1.740757023424399086e-01
-2.152617115002009376e-02
1.452250728516863987e-01
1.470403917723973712e-02
1.652789529680950553e-01
7.335600380237433660e-02
5.373658648183806535e-02
-9.392768922776675855e-02
3.467759032692340759e-01
1.127774544235047999e-01
2.285628102983045806e-01
-1.206653792639423711e-01
7.822805124131933241e-02
1.032491275516736889e-01
1.152443144079588894e-01
2.380374797765847927e-01
8.818434889674298116e-02
1.332741939107959933e-02
3.760369141987303376e-02
-5.407233904659326101e-02
-1.117695702883742120e-01
-1.127129780793964392e-01
6.134194148612261838e-02
-4.683265819276569847e-02
-5.357807640473075117e-02
-1.009137831490616692e-02
1.722288559389812679e-01
1.874745825371043340e-01
8.169134872223021704e-02
-1.829252301903101785e-01
3.034157127193554127e-01
-8.890477281949846211e-02
1.028020181862100563e-01
-3.935028018298370595e-02
2.701345271516825478e-02
1.166400201292322331e-01
1.316343186195667314e-01
1.362543421826090118e-01
3.044162155571479220e-02
8.167679502739838560e-02
1.022809380001716284e-01
-1.130009073153523946e-01
2.456943337245132974e-01
-3.265868816857774859e-01
-3.949354537875589266e-02
-3.457293785954110299e-01
-1.237875520080935487e-01
7.636093398216887984e-02
1.515909604702831426e-01
-2.600706661990518365e-01
-1.788763712588611332e-01
-1.546122280150027117e-01
1.296038137294045489e-01
1.367943244675222103e-01
1.283189937042993334e-01
2.815226443542453300e-03
5.035564524252710006e-02
7.340758273295756864e-02
-1.653624045435231893e-01
-7.174517255939286131e-02
2.733012185713277753e-01
5.195013392239172800e-02
-1.430409653029815209e-01
6.549328805236957762e-02
-3.581356504377605082e-02
3.089245724291856954e-01
3.142909782491838666e-02
3.119269957166256324e-01
-6.156664424314774176e-02
3.768481667153222164e-02
1.099177792680794130e-01
2.633841959195043492e-01
-6.253165556618710264e-02
1.472047807826879495e-01
1.861092145912825527e-02
-1.645929045068543484e-01
3.744431833323380587e-02
-4.454288757806335042e-02
3.543695672754135911e-02
-2.183985992329380565e-01
-2.792776028352864440e-02
-1.792011097382346652e-01
1.381926713901236170e-01
-7.825618832006447922e-02
2.303961693051370108e-01
1.713516076319949732e-01
-3.177019032455590808e-01
1.698317435339502246e-01
-1.250273706300572274e-01
-2.335593261657066197e-02
-3.870871446009274686e-01
1.847585822733069094e-01
-5.043302975163301005e-02
-5.033067385777823671e-02
8.780754225166489957e-02
7.415599816076785811e-02
-5.917988282007164563e-02
-1.783758724013013441e-01
-1.496528496624509597e-01
-1.046854908545003238e-01
7.118511654645068298e-02
1.480064183465050198e-01
-1.083034411488922183e-01
-1.193622404584127467e-01
-3.650476771038275725e-01
-2.476621734811113029e-02
1.623264848775758662e-01
9.849473102655584289e-02
8.605094033242395579e-02
1.999408799777245282e-01
2.659929961289534406e-01
-9.741254806956248236e-02
-1.086536412861938555e-01
-6.132414607678080692e-02
1.301952290720477801e-01
-1.773164736133893693e-01
8.380482856683442450e-02
-8.584222090771939651e-02
-1.339645392667753454e-01
-1.476354405289532490e-01
3.347357073465296456e-02
1.394650889561836193e-01
-3.677417861109236186e-02
-3.273230824713736775e-02
-2.608872130413368295e-01
-9.565104557631642912e-02
7.675728938917530941e-02
-7.473244671437835607e-02
-7.730866815227811772e-02
-3.777976094026182924e-02
5.525026126444465557e-02
-9.594217149249853471e-02
3.525319050246333297e-01
1.003456750876078607e-01
2.506951318742890455e-01
-4.341736536489129161e-01
-1.689971193339306343e-01
-3.192833956622853075e-01
7.093154529913583972e-02
4.636434836683975269e-02
-3.200628305129565865e-01
-5.098628067630397442e-01
3.213524390378247331e-01
2.231760902855177420e-01
5.953973208138109430e-02
-8.614350247484334200e-02
-1.929386898058558786e-01
-3.050970382809127246e-01
-4.152871927463651358e-02
-3.963418904979962298e-01
-1.735743814401824459e-01
-2.897655475869192476e-01
2.716187566876863135e-01
-1.350266872358148740e-01
2.133291773893355170e-01
1.727594655501543675e-01
-1.799205560435185591e-01
-1.136628608421092618e-01
1.799426184308220156e-01
2.153286015675036358e-01
6.204194260795890120e-02
3.428964885133269913e-01
-5.943180513269435798e-03
-1.777035922557403391e-01
9.181268624233217268e-02
2.478754112466425297e-01
1.257559684832566804e-02
-5.020092178122479744e-03
-4.753573932532089708e-01
-4.113918307120379564e-02
1.084014635587171177e-01
1.909842384223173484e-01
-1.858680188596841323e-02
-1.727459882738251185e-01
7.359572997946904789e-03
-4.261441791259231171e-01
1.259293588205486480e-01
-9.997554731831811980e-02
4.458408920958546046e-02
2.065412564865462819e-01
1.052804524197213376e-01
-2.004979193027774664e-01
-6.030151383888396333e-02
1.243054551566291285e-02
2.271971995642217690e-02
-9.604182210322052826e-02
1.505128852892972102e-01
1.602170063012882117e-01
-8.661840882788258977e-02
8.204144683509459468e-02
-4.274501819426852756e-03
-6.832490711139428685e-02
1.172886287075214640e-01
8.400930793624318549e-02
-1.191332677328715284e-01
1.215012414358465076e-01
2.007736563971659199e-02
-2.381100679823284355e-02
-1.661631185267089528e-01
7.019021704038033715e-02
-3.160765102817235661e-01
-7.405210180509801121e-02
8.280681736268377668e-03
1.165606920535152691e-01
4.418158837418877105e-02
4.807161112785370838e-01
-8.310957179848403598e-02
2.675160167334890149e-01
-3.831034825840404778e-01
1.067437904766802559e-01
-1.822912106951259104e-02
-1.442357243878117645e-01
-9.620416405511278413e-02
-4.691057531540057668e-02
1.566553523979437590e-01
1.727129209507771365e-02
-1.423404843661538188e-01
-9.969864820713038311e-02
-4.766082266498253978e-02
7.580974846821973744e-04
-3.805140879406337384e-01
-3.372233792432803856e-01
-1.247442917125841655e-01
1.324875924426390517e-01
1.813871310631502698e-01
6.857575673477163403e-02
3.816944526032813034e-02
7.969031938886454725e-02
-1.202330312141551977e-01
-2.102776539849886828e-01
-5.392552332957203376e-01
1.744113052898867144e-01
-8.963102830127303577e-02
3.150472442025339936e-02
7.949096848609815691e-02
-1.207859628184827644e-01
2.815506178041078944e-01
-7.453542659151034255e-02
1.943855557152478208e-01
-3.131703889638778326e-01
5.098681733245729458e-02
-1.068699226036617933e-01
-7.155888706813511024e-02
-2.217725128232154452e-01
-2.808779561508959466e-01
-5.059749982149165659e-02
-7.704133229366433300e-02
-1.218836507843225891e-01
1.614563984428836196e-01
-1.720691416748465763e-01
1.604659319222737635e-01
-1.756004681644706134e-01
6.635073926575917047e-02
5.445762471458737847e-02
4.901036553852093913e-01
4.491795454072675109e-02
9.436345093109378777e-04
1.689637966464843100e-01
-1.018856967860089918e-01
5.132205183826542977e-02
1.001844468271180094e-01
1.516215738362539089e-01
1.146473382789515577e-01
-6.614142278289211752e-02
1.169693368686872820e-01
-1.900948568634214519e-01
1.697455126829162941e-02
-3.916340840635063741e-02
1.282700347849787259e-01
3.854134270445299104e-01
2.940628332173205184e-01
-1.584102737780118675e-01
-7.296038868692460155e-02
6.793033842198289377e-04
6.372209326177173672e-02
-1.644279729652295408e-01
4.536418198694261439e-02
4.948177520228374399e-02
-1.538128677717966464e-01
3.828855700807456963e-02
-7.391743869651087873e-02
1.601485433553464233e-01
-1.780725485437473776e-01
1.083977890185987836e-01
-4.894721932730221325e-02
2.519337086067244824e-01
-1.149010362486823644e-01
1.475999256644935642e-01
1.950206130131189874e-01
-1.939075073737767108e-01
3.921975496006725459e-01
-1.820155896435389220e-01
-2.834944419180517317e-01
1.495217813315644906e-01
1.618845857942944055e-01
-2.573490160259787052e-01
2.596194026051512269e-02
-3.361365863882926353e-01
1.443942864998378796e-02
2.105773967240533728e-01
8.743434683917408745e-02
2.707738377801267582e-01
-2.134294957390381331e-01
1.901469115067382920e-01
1.290381143598665903e-01
-3.465898436543705941e-02
2.034558801747002321e-02
2.272949218908012492e-01
1.852559735291722520e-01
5.540157571942164183e-02
2.471114541639152923e-02
-1.631360069022409764e-01
1.253730852367911930e-01
-3.901521522756767196e-02
1.222848910861042693e-01
-1.431292829443304715e-01
6.634208499843706475e-02
1.481450048884658810e-01
1.225740659873807842e-01
2.682379505519707497e-01
7.474424750256187654e-05
3.121750110549940602e-02
-5.262206223319817328e-02
-2.369946473814538157e-01
-3.780368297939063482e-01
-2.528633762740577218e-02
8.801169905775110824e-02
-1.101001024722688820e-01
3.611495724436078469e-02
-1.625461011328523386e-01
-1.113010259023342746e-02
-1.208389084269247821e-02
-1.292819488359351066e-01
-6.381563492922037728e-02
-1.820251917755202065e-01
-2.424888782627899753e-01
-1.874962821358872600e-01
-5.220644971806369383e-02
3.076356386049165503e-01
3.968702364294255519e-02
2.307299909317113984e-01
-8.469050708720747556e-02
-7.627554934987934576e-02
1.259698889121076693e-01
6.849113444561104498e-03
-2.143067807673842140e-01
2.324845055839685759e-01
-1.628273317056999903e-01
-1.215317127106802508e-01
-4.490918028125678307e-01
2.958471601648943183e-01
-1.571851698066424607e-01
-1.253722966965178098e-01
-1.112705101661365242e-01
-8.319073436002621946e-02
-2.952597610778347481e-01
2.064431632947093254e-01
-2.634404659496693973e-02
9.099167418834272492e-02
2.226824383796654205e-01
2.131815457696968064e-01
-3.319568736661698272e-01
1.304019838008553533e-01
3.344285715033702006e-02
3.786629409598073898e-02
6.756631193257560397e-02
-6.979680541342139777e-02
-1.105151428393758711e-01
-1.406566567918972610e-01
1.892791219434247774e-02
1.982675805847610162e-01
-1.642824504219691784e-01
6.573204593885250899e-03
1.305977584634755440e-01
-2.400941616684067192e-01
9.077735502084643970e-02
-5.400353101714776283e-02
1.544402863524444169e-01
1.258843365634801370e-01
8.373370783005259360e-03
-1.868868007701083023e-01
1.826865420007017446e-02
-2.011275693372713835e-01
-2.040089993096469434e-01
8.329286090355310368e-02
-1.421611375932788079e-01
8.542499682482859735e-02
2.509647303302641741e-01
-1.662842208032376257e-01
1.987443269363501075e-01
8.561719601466233343e-02
-5.317184624022022743e-02
2.611704687654238521e-02
-2.192678448497719368e-01
2.257581985639365019e-01
-2.200582240086304819e-01
-1.077361364774214736e-01
2.835906170697015671e-01
1.794294099824713384e-01
-6.883027112545225812e-02
2.356315673232459718e-01
2.212176492866695932e-01
2.972265303641195566e-01
2.462522853605385587e-01
1.527668638605670370e-01
-2.577473088898141751e-01
-3.664967618144540640e-01
-3.283016295245732574e-01
-2.005530141991325732e-01
3.858171476013125961e-02
1.818515406939035239e-01
1.209849091393813414e-01
-1.245746656955819126e-01
-1.563404941890051423e-03
-1.836233231679464117e-01
-8.013995927528615171e-02
1.318804941179411994e-01
-2.086615042304708900e-01
5.550187210582342018e-02
2.126176827799894642e-01
-4.424628741184801622e-02
3.221865298529127397e-01
1.360417384280279696e-01
-3.785698278836181242e-03
1.816004280613925104e-01
-1.048205424338806563e-01
-2.669943791305955383e-01
1.521353821254894656e-01
-1.794131304980426944e-01
1.304036592567139607e-01
1.140209743590461650e-01
4.441199857156507003e-01
2.979642904465705233e-01
1.982897529619068733e-01
7.385413103095754550e-02
3.515374891150978981e-02
6.680900527876602879e-02
1.171008840019147346e-01
-1.793878192601732480e-01
-2.681588117872102939e-01
3.229755510967427523e-01
-1.505356637137336695e-01
-3.407135709779229166e-02
-7.489878806918318782e-03
1.092002107121043258e-01
1.652884657662419543e-01
-4.051565471848318778e-02
-3.680728211870996740e-03
1.621437165365788302e-01
-1.077928092463766724e-01
2.047437741082255569e-01
-1.680134577145560026e-01
-2.027887864685611885e-01
5.913310271736425816e-02
-6.046154585297044970e-02
-8.119669948805460780e-02
2.792086973791806787e-02
-1.295997128344781313e-01
2.001536525665047455e-03
7.763691184747487095e-02
-1.987282589965296553e-01
1.184678221701720019e-01
-1.402218200867449971e-01
-5.970645931016974051e-02
1.463868736328305942e-01
-6.006451440048919677e-02
-1.490610276898541586e-01
-1.288921582250081022e-01
3.123080910966708479e-01
-4.008435266368360339e-01
-4.225489187862465079e-01
-7.143430933109470859e-02
3.360821881283793666e-01
1.478698208361829691e-01
4.520449691671251657e-01
-1.799942014783831590e-01
3.999089022103837210e-01
-2.497207035309796375e-01
-1.516345622260890369e-01
1.403542956835692745e-01
1.852230601700503854e-02
5.058157558619963412e-01
-8.997701888546125182e-02
-1.350145988583062173e-01
-9.261097351033963088e-02
1.334197843313461862e-01
-9.216582841856318237e-03
1.189098634562333612e-01
2.957281653774483932e-01
1.677324926085441148e-01
-3.990334553920964478e-01
-1.713502694852327146e-01
-3.013460590730079325e-01
-1.839899898092748065e-01
-9.064875245042326724e-02
1.790334614721498380e-02
-1.274655139505056767e-01
-1.826014827013157649e-01
-2.324683752270918086e-02
8.246958995655491453e-02
1.236539908598116994e-01
2.235854111707944458e-01
2.039403114939887796e-01
-1.937291304050914320e-02
1.755365314556548706e-01
2.380755143230871285e-02
3.581216980539576877e-02
3.039706644319669845e-02
2.103407844261541426e-01
4.439027514607767066e-02
-5.351781603095889100e-02
1.311296754896822125e-01
8.574543213129724728e-02
1.370463513555425505e-01
-1.042290912275956882e-01
1.677814553577361700e-01
1.420715747669443370e-02
-1.893707130573909353e-02
6.424612603045376513e-02
1.476761339843901677e-01
2.058345713694313961e-01
-1.262083093799905853e-01
1.156029899521991422e-01
-5.609204189421089781e-01
9.827939022677842362e-02
3.485062562777220818e-01
-4.782984401799901183e-03
-1.492765588465291560e-01
2.983028213584035249e-02
-6.298017897507655893e-02
1.603068650265585260e-01
-8.507473732044897041e-02
-3.467320179598024771e-02
2.712891220415439980e-02
1.224302698181306548e-01
-1.557961715611277768e-02
-2.025585114712769585e-01
-2.292588312711152654e-01
1.272904508225282949e-01
-9.752335009524847054e-02
-3.012964966719903007e-02
-2.582277596722379331e-01
1.461595249529664125e-04
-6.186835804592116794e-02
1.372343385123357129e-01
-2.080959853298929296e-01
9.369272084014110269e-02
1.790021956775469381e-01
1.217152665470003226e-01
2.938929751732557993e-01
-1.177094169834334292e-01
1.845810443403075318e-01
-5.687477479336375957e-03
1.380905158720378660e-02
-3.621633938596563462e-02
2.155869815481061824e-01
4.379076374905012115e-01
-2.579073870639700394e-01
8.164147633335308574e-02
-2.707627463903496123e-04
-1.351323199896700133e-01
-1.333119294295348756e-01
-1.967175453113033656e-01
8.365234566244596215e-02
1.666315159654337408e-01
-1.075877493589061790e-01
2.655717042050708132e-01
-6.291281648568801399e-02
-5.406226517345769783e-02
7.620893199761709369e-02
2.270837971595351112e-01
1.630185970789935490e-01
1.246158625945118503e-01
1.695230015497296572e-01
1.649042384700240560e-01
-1.653155397910971713e-01
-2.270062917014893048e-03
9.184106375442699366e-02
-2.321946028311552140e-02
9.528252843349223344e-02
1.745744829057370440e-01
2.515849381848369037e-01
2.275797615532885176e-01
-9.032366584566550727e-02
1.409220455106975460e-02
1.956419194647707471e-01
-6.945889970748389541e-02
-7.667254839208520467e-02
-1.204005652667103771e-01
8.072268445349802674e-03
3.753206171260222712e-01
1.384924852754493632e-02
1.981257697410329990e-02
-1.584326109045423592e-01
-1.501035252764887085e-01
-2.444884507483195413e-01
-5.844402949911872008e-02
-1.490674116729533670e-02
9.022395597803292699e-02
1.519182916275258199e-01
5.946865497376168513e-02
2.415589629344653535e-04
3.046010418083191368e-02
2.538950066190674357e-03
1.424876298731097279e-01
1.638324948810606502e-02
3.344195540149989820e-02
-6.409286579703278586e-02
-1.986745916384996813e-01
8.266859669190468329e-02
-7.985462937918048898e-02
-6.931432632039860597e-02
3.471248684516164973e-01
-5.515157054180541002e-02
-7.282471652639948001e-01
-2.391321285261440166e-01
3.170265563240933782e-01
-9.425482703718934818e-02
-1.808342795389429325e-01
1.784517340976520539e-01
9.657211462413479997e-02
2.675918711700363550e-01
-1.799712630186516837e-01
-1.066816283513580682e-01
-1.093787275818768889e-01
-1.479439421477095618e-01
-2.052474739282584837e-01
6.785601037544422565e-02
-3.106524193610220586e-01
1.148750245095449679e-01
1.569168635649497434e-01
2.060156367325087501e-01
4.136157775519212487e-01
-2.466591619138287506e-01
-7.158195968295847159e-03
2.054694830156778562e-01
-1.642230429536540304e-01
-1.776550301511838070e-01
-7.766165819050144248e-02
-4.066640702401985719e-01
-3.260396899749178901e-01
-1.504575631221004850e-01
-2.150597378653778743e-02
-2.887263852847550827e-01
-2.295988719785294410e-02
-1.120303388803658290e-01
-1.398610254266185182e-01
1.943226750759645405e-01
1.714316951032380798e-01
1.975917674298091065e-01
1.206503285303181516e-02
3.672545325989610282e-02
7.803665963162065289e-02
-3.245130901639895482e-01
4.521814319887949157e-02
-1.308281077365122391e-01
-1.778361908751380505e-01
-2.027672902643906372e-01
-1.811934348265102634e-01
-3.303553721788231590e-01
1.736085375351612003e-01
-6.207590004315017770e-03
2.845134658382391171e-02
-7.351974774801103320e-03
-4.961724217964490896e-02
4.281819966779228104e-02
2.089088716415669622e-01
-1.321236572527925424e-01
2.666911581302632839e-01
4.967036304325438134e-02
1.122849599235074547e-01
1.864278843005224562e-01
2.225471355341662461e-01
-2.220159902294390475e-01
-4.337125778190938363e-01
-3.718773760650932736e-02
-3.183873046133595813e-02
-9.388123691897709566e-02
1.629809026832805818e-01
6.161080775077262817e-02
-1.209346964705303590e-01
4.311320551686945168e-01
2.226143722865432384e-01
-3.542549040443459529e-01
1.594643230286046376e-01
9.119445284737011381e-02
2.494516340078321015e-01
2.876892341642762196e-01
7.744649156650916522e-02
2.100418279638114338e-01
-7.125865271593988248e-02
3.191663503699063709e-01
3.675338169836683266e-01
2.726324468582043692e-01
-1.690966256476029994e-01
1.592645056358678868e-01
-1.349762836903836867e-02
-2.694446681145842501e-02
3.094707650295894230e-01
1.761107858153735661e-01
6.243026839169660280e-02
-3.600450693115851419e-01
1.885677351413856673e-01
-1.880079353838161604e-01
-1.839965537181111055e-01
3.583945082026495088e-01
-2.580139681936685081e-01
8.617823829339797681e-02
-1.357166107958156787e-01
-1.954614378334260105e-01
1.086896891854177011e-01
1.878374213927644365e-01
1.499074396213551930e-01
3.148431467314928844e-01
2.081346631899103350e-01
3.484260947256358487e-01
-4.184627754990012938e-01
-2.508478952617018143e-01
1.554845563554219101e-01
2.351982063872413986e-01
-3.710279017471160845e-01
-1.088153340137036490e-01
-5.835924642608734947e-02
2.030352488788383231e-02
2.957665016495218957e-01
-6.044194508813422601e-02
6.931410346357633201e-02
3.106775005469666201e-02
2.470865153312822721e-02
-1.553610061509496376e-01
9.449252790476261876e-02
3.757664721140444586e-01
1.218869226126199773e-01
-3.682226311567834282e-02
-2.056250673709409671e-01
4.066171968673382153e-02
-1.694792389576044722e-01
-9.473522659208166719e-02
7.203095640883627748e-02
8.939443486807600869e-02
-1.997105046900511938e-01
-2.746714769183180183e-03
2.839780518657070152e-01
-1.688585031712013240e-01
6.988991879884089153e-02
5.780903652597908088e-02
-1.441685629273206370e-01
-5.582081791721735242e-02
1.153809966510953994e-01
-1.328652028449357932e-03
1.663988677935915594e-01
1.795648343430650273e-02
4.226925892937026530e-02
-1.447882978290242761e-01
-3.090210745641129228e-02
6.738848500826759291e-02
-2.603671255526097128e-01
-2.225214742295222592e-01
-9.126684201763013427e-02
1.053891673528124656e-01
5.830434060179454786e-02
2.404169343776248469e-01
-5.456169256249134014e-02
-3.250274980236010913e-01
-3.774607774862079879e-01
7.072362231076122219e-02
4.559515180019624858e-01
-1.799996130712410991e-01
-1.197938565607867267e-01
-3.204154144010332161e-01
-1.456562661325816466e-01
-3.070768906882478944e-01
-9.555232883518954834e-02
-2.201577782813483528e-02
4.428395370911830664e-02
2.809866015891379076e-01
-4.526268879788569038e-02
2.068938630128465406e-01
1.474152603535268391e-01
-3.100910060928995238e-01
9.484409356685133408e-02
7.103906869672062252e-02
7.509924842990969851e-02
-5.542277801366097406e-02
-3.729350892559653990e-03
8.977959023481885126e-02
5.328219978202375362e-02
2.487961141961340938e-01
-7.641427337873868408e-02
1.862939718295551494e-01
-1.449483717658270332e-01
9.637882104252001869e-02
1.328572632442617529e-01
2.659099297430608799e-01
-4.887387857191261009e-02
-6.018707194507645110e-03
1.629856570685170036e-01
-2.436810475052471892e-01
3.705601349894015878e-02
2.942313854574585830e-01
5.850313027363331780e-02
1.076311595895986101e-01
-2.566783006217221094e-02
4.685373142462373464e-01
-6.045177325398347346e-02
-1.933984205825763358e-01
-4.957393860581511130e-02
2.436400114679652951e-01
3.510158467588855857e-02
1.224013427525018349e-01
-1.402507913179237009e-01
-2.345741313217138968e-01
-7.358439338747424507e-02
-1.181499767975900950e-01
-9.097458629132405827e-02
-6.944087075665543451e-02
-1.082962779540889986e-02
-6.900440652106762385e-02
-2.054446519080158351e-01
-1.141267827633126175e-01
-3.732328165244659657e-02
-2.159933314349884170e-01
-6.216569991283854568e-02
2.058252460775868847e-02
-1.446817981632322614e-01
6.017228660597766232e-02
4.778465951045696158e-02
6.728942239807965409e-02
-7.660861041377685365e-02
9.180742778062031539e-02
5.197257366791573074e-03
2.903912673586275806e-01
3.565296504351032625e-01
-2.464624494527196119e-01
-8.380521925594894839e-01
-3.850089240600350626e-01
1.728167798196199312e-01
1.307863383842933491e-01
-1.730835880004937821e-01
-2.410317524746384554e-02
-3.286834721638880463e-01
4.061939248735307317e-01
3.110421796234330571e-01
-3.371768133493746600e-01
-1.672613434220365097e-02
3.126726241746992097e-01
-2.277907434593330338e-01
1.263416091363498694e-01
-1.414350150675576234e-01
-2.509363845741148791e-01
2.906638340072793467e-02
2.399279518298180480e-01
2.596096881930838873e-01
-2.291667948943165167e-01
-2.841145111367895382e-01
-1.271153266265265258e-01
-1.533294639344128518e-01
2.377613308580476537e-01
2.712858932505973764e-01
-3.339523426039471832e-01
1.415038155429029498e-01
2.449026537105176982e-02
6.929233243370209105e-04
-2.333611273316400503e-01
-1.348209829988838981e-01
-2.245772840336653434e-02
-4.202136695582276982e-01
-1.928799864523936258e-01
4.556538887590781406e-01
1.506423232023703929e-01
-1.841192659838796764e-01
6.294795806812056305e-02
8.916853869927415799e-02
-1.428721072900364930e-01
-4.952928645495260213e-02
-1.272123321268145701e-01
-6.660378273970943286e-02
-2.112530785824170143e-01
3.135545935725392863e-01
3.396819095491519780e-02
8.820102046655819983e-02
9.114129780637503231e-02
1.068738967162756459e-01
5.928421430771790845e-02
2.813433160806064759e-01
4.767719741474180789e-02
-4.550064829953436030e-02
7.982543240105718918e-02
1.793335875706891513e-01
-1.213322943655357894e-01
-4.095850193657176175e-01
-2.902253220581147986e-01
3.166120159060931138e-01
1.275849423132550120e-01
-1.818798894568859070e-01
1.007874873192878551e-01
-2.349753056280783070e-02
-7.316721798094444340e-02
5.768872342886539883e-03
7.360092888215072349e-02
3.337961936263442175e-01
-1.512742740337208180e-01
-2.947238158199916302e-01
-1.116753764093206952e-01
4.740321431219009923e-02
1.695477289665502929e-01
-1.520210947774513766e-01
-4.218995574829641215e-02
3.496079307202332176e-01
-3.327392701234256345e-01
-2.594552169274211284e-01
-2.887752558787746171e-01
-1.009159534024368365e-01
-5.473497266867223543e-02
2.215365601622658887e-01
-2.360488549524301927e-02
1.100202552118539900e-01
-4.072879806313946943e-02
-1.374720970984865120e-01
3.174506264646779208e-01
-9.772300275493446542e-02
8.097664227677933702e-02
-6.704745162963425542e-02
2.027796811264899815e-02
1.227266860080993005e-01
1.023724709670655597e-01
-2.075413001894655871e-02
7.552677458902447294e-02
7.541941033409618744e-02
5.650323429083332905e-02
-4.055799618540582158e-02
-2.727355086384761762e-01
4.332862494881668525e-01
2.127356204682095617e-02
2.064596297145582793e-01
1.053516181347934483e-01
6.204724826212573013e-02
-2.512016664225188989e-01
-8.036513583300021468e-02
3.965565460993148439e-01
-1.546030409665393075e-02
-3.153029032075289062e-01
8.582882424975696312e-02
1.663984843223847154e-01
-1.271291461312133442e-01
-4.152175092162940784e-02
1.417821457895556692e-01
1.388273781266362028e-01
-8.052161998431249523e-02
-1.798905740547939447e-01
-4.293741184128214983e-02
2.477935808656075156e-01
1.933081231824861079e-01
3.369332576400620449e-01
5.333321653909793569e-02
-3.061442644808259547e-02
-9.850759239833406511e-02
5.817542570897206444e-02
-1.612009748016331734e-01
-6.117123804783327484e-02
-1.438425053808589649e-01
2.892494619913641984e-01
-4.092216627380273336e-02
1.769270848430293808e-01
-1.146866037140766986e-01
3.708072048772808049e-01
-7.198090674907822728e-02
-3.509402413060980774e-01
-4.648622279388005263e-02
1.245113102574112313e-01
-2.161430571116837451e-01
1.009758437945902920e-01
-4.270679985851963956e-01
-1.722059425255518476e-03
-3.158083176635293476e-01
8.805804386387830127e-03
1.339160859093767829e-02
-4.371754077980434527e-02
1.560998560658828915e-01
6.470046865010146975e-02
-1.022800844910258522e-01
-2.350126210963972284e-01
9.879776013720385774e-02
-3.521849541205662043e-02
-4.576893997476547682e-01
8.352489300619921064e-02
-4.681497657106438171e-01
-2.100203200478860666e-01
-5.770385985159937059e-02
-3.892243519603867663e-02
-9.263313457156782671e-02
6.301637198584732202e-02
9.997356416470540297e-02
-3.206696163215503881e-01
-4.220249824402066280e-02
-7.944348139461647582e-05
1.700757002195961987e-01
-1.838814463304480618e-01
2.010638332758896488e-02
1.066327043820183007e-01
2.073227523316406584e-01
6.822079779469991667e-02
-9.833163073752829164e-02
-2.973882331129056311e-01
3.588426605286778037e-01
2.755500747958903457e-02
-1.129196744189004675e-01
-3.745509206165894001e-01
2.502712702190469929e-01
2.648719112150689781e-01
-1.378790216110858113e-01
7.569360778223803432e-02
-2.229456016153977260e-01
-2.899518724759066468e-01
-1.999949156652513771e-01
-2.710521156943986321e-01
-2.429509901883764728e-02
6.833270968299874626e-02
-1.123421522030001729e-01
-1.259030558065577787e-01
7.959681993645391362e-02
-8.835980323200226527e-02
3.200459790025944051e-01
4.515301743148208979e-02
1.894708310622900127e-01
-8.316228355485633106e-02
1.058265187133154315e-03
2.331417810718092454e-01
2.996763170968583245e-02
6.934345012996730173e-02
-2.429618882122092927e-01
-4.346065554334997694e-02
-1.296951750571545547e-01
-1.617808695820468828e-03
-1.873872672968716624e-01
1.782018066874490048e-01
1.362967767878355274e-01
5.351497834866555253e-02
1.409793639626694406e-01
-2.405198771887518128e-01
-1.770660742479464589e-01
-1.012359471092185298e-01
-9.481909537585407610e-02
-3.487443524022637142e-03
-1.053379717414457996e-02
-4.501322520389345640e-03
-2.335594731476066943e-01
1.770343630252714517e-01
1.256429767264351516e-01
2.070040681463617901e-02
-3.794344949962817903e-01
-1.664643726366852317e-01
3.561423807825420673e-01
-3.164766885578332301e-02
2.655328332472370878e-01
-3.868543491907025511e-02
6.107894577729435781e-01
9.943154950018383287e-02
-9.627859515689718428e-02
7.913735273605855547e-02
-1.488454757921871263e-01
-3.921522320315903309e-01
2.596302041711871511e-01
1.264623721390864819e-01
-5.616493656049863226e-02
1.847232706393514556e-01
1.133849543595340376e-01
-2.186792530496139697e-01
-2.157468248891890594e-01
-4.328241882916598893e-02
3.577128298721738986e-01
-1.533320936662372902e-01
-9.171486779205173523e-02
2.887866740110456854e-01
5.038825665528414571e-02
-9.665397294281273533e-02
3.168553988903258234e-02
-6.970696525301663116e-02
6.337662132689349248e-02
6.849531390882605819e-02
-4.951921347938668672e-01
-5.595244423792059552e-01
-1.328383120069958623e-01
2.337836918345242987e-01
5.697923283740143063e-02
1.879931199227657113e-01
9.413613309628855730e-02
-8.095461350496007194e-03
-2.283335076532937435e-01
4.946706050110137864e-01
3.653708174847858925e-01
-1.541735839270789166e-01
3.085811072016971246e-01
-1.920572762307370396e-01
2.479822024079929021e-01
1.909558044660299714e-01
2.158577383134136773e-01
1.379936586269209231e-01
-9.918220730257101478e-03
-9.472390783968105687e-02
-9.148469796981049951e-03
-2.723801251021528147e-01
1.311826620847211522e-01
3.408726975288174643e-02
1.820802664081829503e-01
-8.716369512939765862e-02
1.143796642022605337e-01
-4.437095655137001660e-01
-4.284662115006415695e-02
-1.535488025729317141e-01
-7.641353730929421884e-02
-1.099233502442473615e-01
1.499310683758627305e-01
-1.951568439279629252e-01
-2.384915171759788288e-01
7.584253911092235512e-02
-1.799173706576903120e-01
-1.361640361398403221e-01
1.849183386160760389e-01
-5.995791762617549980e-02
-2.005827826585593054e-01
1.144341927507981464e-02
-3.006479853325238483e-01
-2.310375491186069385e-01
2.205450504260501599e-01
-2.916368054521818465e-01
-3.150954114540904238e-01
2.523381754347686079e-01
1.128060240715869078e-01
-1.471245753462532835e-01
-9.519054358129504234e-02
2.198670919677711381e-03
-8.836598626541600221e-02
-9.275376257895069643e-02
-3.744393972051092145e-01
-1.590714117962728769e-01
4.623378020471135413e-02
1.824290290085924249e-01
-1.503841056985355251e-01
2.687917720740297042e-02
2.430959614130609181e-01
-4.752906281503681274e-02
1.498237664845803174e-01
-2.916018573231111272e-02
1.012511065122742165e-01
-2.420580187863811961e-01
-3.047624839820630704e-01
-1.102300848309747394e-01
-7.685928533839415933e-02
-6.394362783631231395e-02
-5.801197793044615691e-02
-7.744318197296225399e-03
-3.016576470703774202e-02
-1.060145995527984053e-01
-1.163683385704053774e-01
1.915048159586816429e-02
-3.000150081777067795e-02
-6.835978841903343761e-02
1.196909922055612446e-01
6.825878288253767190e-02
-1.543935900887872525e-01
-1.954654518766277271e-01
9.283220367311043053e-02
2.672116645073011054e-01
-8.406029611422831394e-02
-1.454105963662461476e-01
-2.969763137600560099e-01
8.174628656007694449e-02
2.564288829910815193e-01
-3.224040195200793546e-01
6.384943325896759447e-02
3.971373969242206203e-01
1.406718942291883545e-01
-3.112189501549745413e-02
-1.270557731920614886e-01
1.008021086887757184e-01
-8.975998321848965844e-02
-5.573676306536300834e-02
-3.631319116593587082e-01
-1.948751396670743985e-01
1.909801525024159841e-01
2.360049844356416349e-01
-2.056972499748175864e-01
-8.146545377024470846e-02
-8.298835437242257917e-02
-1.668225623491057519e-01
-1.256330214390101452e-01
2.158218320794596246e-01
-3.069236142177014792e-01
1.060448704285714694e-01
3.621488067887823625e-02
-8.008398230089566749e-02
-8.021152082634122604e-02
3.386864761468499352e-01
1.503592915305720368e-01
-8.087751244839395948e-02
-2.738264932546766173e-01
1.255541707275062979e-01
3.607793440288709075e-02
2.260280638474174153e-01
1.695659908904077751e-01
-3.898431572161582537e-01
6.122261307645769646e-02
2.148546179654490795e-01
-3.766488322344846429e-01
2.991456267626860233e-01
2.510551490345112047e-01
1.112741873300889667e-01
-9.851311634340331747e-02
1.150813655488795995e-01
3.343400833354284729e-02
1.402479587417042595e-01
-1.265795479042886307e-01
-2.115084083723021147e-01
-1.860493600425037475e-01
3.232039495652104522e-02
-8.544016948562735414e-02
-1.098883223851819524e-01
-4.008702442224107432e-02
3.072596975039006487e-02
-1.915810327138710301e-01
4.797102802070732364e-02
8.662177940990972713e-02
-1.178673381778553853e-01
8.941026151468706162e-02
-1.002722550755408559e-01
1.166302328472795802e-01
2.250236845236019273e-02
4.547539269213696222e-02
6.003899146643587592e-02
1.787623482659471963e-01
-1.000303820993699716e-01
3.248906208925303463e-01
-9.932093603559521977e-02
1.935157623799537985e-01
1.487798190139556775e-01
2.206098370419330157e-01
4.678653280908642298e-01
3.895238052311709720e-01
-2.981223669560612577e-01
4.180940269472895876e-01
-1.219779640619791661e-01
6.582024219524329478e-02
-8.377665540560563784e-02
-3.586045233677465083e-01
5.977263052785147801e-01
-1.712507696418445469e-01
4.087641637562904329e-01
-5.255780335313899876e-01
-2.174776246019841930e-01
2.866048684836690064e-01
2.740020636710669422e-01
1.284355318417606806e-01
3.787203692130269306e-01
-2.127433143644779090e-01
-5.204317428190070177e-02
2.399999878864222669e-01
8.538849073503378129e-02
3.896512277140488228e-02
5.343180479117359133e-02
8.880312119018801340e-03
3.131867100034621543e-01
-1.048752903456999508e-01
3.979447842798296553e-01
2.468287815522944295e-01
-3.040541179074475187e-01
-2.542565001070432040e-01
3.549658873514581203e-01
8.913984663193996738e-02
3.244783409852757816e-01
-3.268889703154889137e-01
-2.247245408064059702e-01
-1.918721375827904807e-01
3.168846764539612337e-01
1.275518703128876996e-01
1.468897913890518103e-01
-8.672966203668049101e-02
-1.880961304660454247e-01
-3.993939730545376099e-02
-6.772734973271339609e-02
-2.162616784849729495e-02
-5.078430764077118686e-01
1.628381726945478947e-01
2.533591446008864878e-02
-4.316775367087781756e-01
-1.668072622177975695e-01
-3.277225509739881693e-01
2.715011163463670885e-01
1.948143500764599745e-01
2.828236457253430758e-01
2.018509681437947734e-01
-9.912819530438859994e-02
-1.889010698959855961e-01
2.067947039484874239e-01
5.046047954971805832e-02
-5.565160648581169572e-02
4.067913098409371708e-02
3.919718197393219361e-01
-4.515305856911109306e-01
6.514302286549998600e-02
-1.811003739097125087e-01
6.623129665219884554e-02
-1.355633872565792652e-01
4.226681483109315796e-01
-1.522178059445437881e-01
-5.210208701094526385e-02
-2.666952729219424501e-01
9.255466865666818477e-02
3.698993709483622827e-01
2.261574442427396470e-01
1.109842537845808913e-01
2.078996039206663371e-01
-2.825286567514403990e-01
-2.970130563526864886e-01
3.590192752807038618e-02
-2.012163469950857264e-01
-3.203335030302132402e-01
2.827204665559365782e-01
-1.601541809454822274e-01
-1.564722814464021283e-01
-2.223104689267129674e-01
4.973875173175711095e-02
-1.524539519983075624e-02
7.636219042220754316e-02
-1.141466086106404099e-01
-9.681691105397823016e-02
-6.344339804796796101e-02
-1.650001066539545924e-01
-1.175528838023648937e-01
1.570316616470981141e-01
-3.702730721507384998e-02
-4.095596874743053228e-01
-2.738675242175880320e-01
3.901541213792122931e-02
5.518575980242671625e-02
-1.889635387886754170e-01
2.635207653708447895e-01
-4.647301124570799025e-02
2.417989336544602574e-01
2.013699458288991107e-01
-6.108391707999050180e-01
1.265854709085428575e-01
4.029984720263282694e-01
-2.788621637251298413e-01
-3.520505344389959212e-01
-1.925852759088444999e-01
2.399114313310703184e-01
7.602525211192395771e-02
4.237266327077807149e-02
-8.439456863576516588e-01
-2.560640960727096904e-01
1.871819462738555373e-01
7.141553715935600177e-02
-3.621320672890595560e-01
-3.297964430759677684e-02
8.591056302041195913e-02
-4.445090518686974912e-01
-1.996200876050987453e-03
-1.668045584156597760e-01
3.938721028805593910e-02
3.833589022371827054e-02
4.347796956152198411e-01
1.473643898912073424e-03
-3.072393745793404185e-01
1.210945285046876319e-01
-3.024300078351765952e-01
3.735671301688142654e-01
-6.158651190418924087e-02
9.508922302594115250e-02
1.986847052398809377e-01
-3.447030291887838716e-01
-3.274147590587346279e-01
1.861818934528390312e-01
2.322030315028672173e-02
6.166842787060648930e-03
3.644178711000147786e-01
3.834267897767228844e-02
-2.233424931337036623e-01
2.305499029872064842e-01
2.073498031292797250e-01
4.936741680402968735e-02
1.989284737473923370e-01
1.708580483798173844e-01
4.002152522416903974e-02
-1.334880937662458189e-02
3.061626937367482870e-02
1.622104595792263904e-01
-1.358977859572381985e-01
4.522397933653854452e-01
1.197466832162158712e-01
-2.223528960257524327e-03
3.417839112506830257e-01
-3.232186446318762174e-01
1.441152412466955302e-01
-4.010569909896197216e-01
1.028522173086824226e-01
1.027788772842374992e-01
1.321788510834475405e-01
-3.850729227291537632e-02
3.494392212004932691e-02
2.101815364493297283e-02
-3.698813569727161799e-01
1.185407891476113473e-01
3.024002377333332436e-01
-1.164821211777115478e-01
7.737520385588805838e-02
-3.464233048303808626e-01
1.023805695279828842e-01
3.222027539777067018e-01
1.114980896632242202e-01
-1.467387467950044821e-01
-8.039031871919054273e-02
1.289562666487534086e-02
-2.447707541880403403e-01
1.217737718305645636e-03
1.557767767202060671e-01
1.940491129615400934e-01
-3.373533698014938298e-02
8.015350982742314168e-02
-2.268892732646899668e-01
3.652043938650021415e-01
-2.802338459821835381e-01
3.815457433417730471e-01
-1.064027001050655771e-02
1.036777747943639499e-02
-1.849476918791917446e-02
-3.476112199048509988e-01
-2.246444224487169072e-01
-1.505115010898009642e-01
-2.484508250946514119e-01
1.049546089394003678e-01
4.291720019509768363e-02
-2.242644405852311021e-02
-1.736267437847605621e-01
3.147115753715387654e-01
2.019507050108250157e-01
-2.748147791190133638e-02
-9.817946207214700571e-02
1.719127352705795697e-01
-5.957625761122382624e-01
-9.895207406250108306e-01
-1.520674065908969308e-01
7.810501814465291293e-02
-8.702033684977374950e-01
-2.533284892849383407e-01
-1.905190050590185591e-01
3.302374114387117698e-01
-9.809865907997150636e-03
2.085105558826385319e-01
1.154997616613142042e-01
