-9.395852182446946810e-02
1.638009576441218640e-01
-5.233385677875340702e-02
-1.952529359047762599e-03
-3.852709294124848083e-01
-1.828470100747896510e-01
-3.804872236728379931e-01
-9.633142014752896221e-02
5.820609675286605306e-02
-4.734327906693916975e-03
-7.368291030361562299e-02
-1.880412830257943702e-01
4.989489202926471190e-02
2.788371847999666087e-01
-1.233191368312149261e-01
4.787764519365712845e-02
-7.603676088171502923e-02
-2.476443685210960033e-01
3.393898506231180501e-01
1.262085249859627445e-01
-7.396407173941234314e-02
9.149806685112747695e-02
1.738378267676128075e-01
-6.574463766077938420e-02
-2.006662464063073692e-01
2.120445807754178513e-01
3.076803935503751863e-01
-3.324961175669451929e-01
1.821845665225062527e-01
1.952637141430891010e-01
9.332476021757864226e-02
1.129263427935814634e-01
-1.217706453639145342e-01
-8.873603602950842772e-02
2.484319247252474716e-01
-2.916715956205345184e-01
-3.022915822020319498e-01
-2.396544296673049634e-01
-3.150932802329818871e-01
8.633016605493903928e-02
2.206784755111064200e-01
2.578799650004485744e-01
-2.325019680301467721e-03
-1.507180531075482111e-01
-3.502593751491388241e-02
-3.390127743009622996e-02
1.471699458268092287e-01
1.272802167254583061e-01
2.321117892631126278e-01
1.691913049337003261e-01
8.572716716461943609e-02
3.389802746830868768e-02
3.911079171624112782e-01
6.495760971665516526e-02
3.906189326009486262e-02
-1.171038179566745024e-01
-2.061581544074406538e-02
4.666163317132677318e-02
-4.728003080064254737e-01
-1.385935672823931097e-01
4.372587280410798055e-02
9.463427136520259023e-04
-1.343215394821802300e-01
-3.288810554343010815e-03
1.079614979138890790e-01
-1.511953494486901195e-01
1.269473585718973452e-01
3.810354220902935352e-02
-3.079498153009267991e-01
-1.749410811968316048e-01
-2.669746757682358029e-01
2.134580408959451669e-01
2.552216683932063135e-01
9.319255843168276765e-02
-4.882288961092355606e-02
1.660252800544618351e-02
1.768291686822971373e-02
-6.576355579599757473e-02
-2.349111422223059964e-01
-1.616359082519137624e-01
1.744286514013582423e-01
1.307746811537786324e-01
2.392850436245033130e-01
-2.068014938603253416e-01
-2.502891853293583851e-02
-1.429383331069817020e-01
-1.245691036479267683e-01
3.275506674978982957e-01
-2.371725586060349500e-01
-4.001488428734129021e-02
9.724352353718082598e-02
8.203269194103408879e-02
4.897101550388036767e-02
-1.762590751686304857e-01
2.798074008707515659e-01
-1.290711071175523750e-01
-5.683260997596567728e-03
-6.839225448512500916e-02
-4.224405360877671323e-02
1.977116433262051179e-02
4.227826882033096645e-01
-1.454748865547167147e-01
-1.243933506355246743e-01
1.479879197731625851e-01
1.134907805651216434e-01
-1.291129351497026512e-01
6.661044420919672027e-02
-7.336094623265244918e-02
-7.985769658016840522e-02
7.857805693750170850e-02
2.350086487428388327e-01
8.518918645138799650e-02
-1.038824682715150938e-01
-1.932778077095683930e-02
1.427576519603970806e-01
1.567021582657142087e-01
-1.742474012799748451e-01
1.828891149130002641e-02
-1.562598503339395761e-01
1.096900367058120523e-01
1.514851642681522455e-02
2.502517378676622287e-03
-2.206544226696830532e-03
-2.639129908314306883e-02
5.000828080278856003e-02
7.116931842758644766e-02
2.713378075428529157e-01
1.682070298844443729e-02
-8.287477756157352049e-02
-4.079399611337205384e-02
-1.548141115700985004e-02
4.810800247682402858e-02
-4.763752711887537378e-02
9.124091727366563653e-02
-2.250406075558262012e-02
-6.246889314903319307e-02
6.200374976283400293e-03
9.080024083840029792e-02
-2.195606014435554088e-02
-1.252850698216924352e-01
-6.924669442847419809e-03
1.163203499080877751e-01
-8.004898127843210198e-02
-6.642256657872928904e-03
7.663299812120744070e-02
-2.916335221612705378e-02
-1.308916580484677933e-02
3.256048704005982258e-02
3.280142637589860896e-03
-2.146002169412117647e-02
-1.814872727976123840e-02
2.431412833346090208e-02
8.329836849396303478e-03
9.532675766849040000e-02
-1.410638068369830522e-01
-8.377860810529123847e-02
1.705837390144594456e-01
1.216907629270610747e-01
5.509740279598300539e-02
-3.467393564545939721e-02
-2.998493458951509427e-02
-7.838076553486775233e-02
-2.447809209957531318e-02
3.965963982453042658e-02
5.280509275078005410e-02
-6.927489363993759829e-03
1.137032212813448295e-01
-6.700869510602937458e-03
-7.899210276329693414e-02
-2.461470570707170041e-02
-1.748359474345469265e-03
-8.763656209491381410e-02
-8.636755832344795991e-02
-5.920547568015751411e-02
-5.940975698507403729e-02
-5.002736601172462494e-02
-9.362520478087064946e-02
-1.108934561028903504e-01
2.137089848120074867e-02
1.113497746232491523e-02
-4.583032083527237115e-03
2.316458164168141987e-02
9.837101485633641118e-02
6.380187224064971796e-02
1.611878613655834749e-02
-7.188305821955520702e-02
6.063724277339271884e-02
5.783156345421053973e-02
1.726007653028860042e-03
-1.072425413544047801e-01
1.347282470529483633e-01
-1.355090665909771709e-02
-2.622210192784928118e-02
-1.883012619866711590e-01
-2.058987850623497373e-01
-3.934778981909047013e-02
1.496252407563961606e-01
8.009152292233973069e-02
1.310321603712419070e-01
1.368079534191024293e-01
-3.692408109486091088e-03
-7.469452655429939525e-02
-6.236371188921822906e-02
-1.883086948201168620e-01
-6.828077960315820372e-02
1.376053809292725472e-01
-8.098480587559445110e-02
1.001406140407825190e-01
1.018718175951505503e-02
1.122785402960397583e-01
2.395394237656973957e-02
-3.384618048470861562e-01
4.786511321731788671e-02
2.547307761167326434e-02
-3.486446355248663809e-02
9.097939566353333007e-02
2.340550661289655665e-01
1.256960998839730947e-01
-1.252055940618436447e-01
-1.584122814412088076e-01
-1.078370675704061338e-01
1.310080012313721842e-02
1.115844903726653792e-01
4.703076613101141168e-02
1.083728918252494173e-03
1.157730988059778865e-01
1.480436430350842991e-01
-4.637647566174493002e-02
1.795315349285150075e-01
1.322547755593869723e-01
5.825402027508183589e-02
-2.401821084855378791e-02
1.412889104506993843e-01
8.191554767752422250e-02
-1.041505298616858810e-01
9.550232464427085843e-02
7.402213189904469082e-02
8.891744191287491439e-02
2.753687269304174734e-01
7.038306252251490258e-02
-1.783576824561120336e-02
-1.071825246939048515e-01
1.385674148811023854e-01
-6.209344104052118285e-02
1.280593969937031118e-01
1.570603455483561561e-01
-1.370771316409974405e-01
2.708337177421536561e-03
8.145058878690054904e-02
1.117587470233379933e-02
2.940499570224694675e-04
-2.739617001130368323e-01
2.751519478301903132e-02
-7.036576682321701859e-02
3.947588114198784248e-02
4.178247334316900763e-02
9.677196036682710056e-02
-4.601753173803852480e-03
-1.726859045317050700e-01
-1.588324721376630777e-01
6.031259290469120904e-02
1.895889713293934936e-02
4.782712001436292132e-02
-3.994971096083159423e-02
-1.031042352744726970e-01
-1.916034422625915723e-01
-1.437475690819007591e-03
1.550841551739849944e-01
8.100339983957419165e-02
1.372989288594364254e-01
-1.649356591939924177e-01
-1.449872762371712531e-01
2.597490839111521801e-02
2.078426177284833642e-01
-2.071165005119787184e-01
7.777196945287480345e-02
2.267929967343839948e-01
-1.323534590222002170e-02
-1.430608253495276594e-01
-1.282707265158320731e-01
-2.207198668343559045e-01
-3.018759641869318555e-01
4.084150170311228595e-02
1.385215210083056425e-01
3.088492807563111842e-01
1.496405428734986498e-01
-1.274098575571634695e-01
-7.873505120275911540e-02
1.068168492534561503e-01
-4.317346286860881954e-02
1.695215096726446213e-01
3.203078457916624933e-01
2.154653704107849232e-01
1.478051220516072017e-01
4.983366244797371100e-03
-3.197838259997622390e-01
4.872065373783399100e-02
-1.194941547612552585e-02
-6.051738194235449508e-02
-4.266181999933377385e-03
-5.321629832701037927e-02
4.600865069359608844e-02
2.017447864005449676e-01
8.398923107979673619e-02
-5.580611543513484124e-02
1.983443747235501542e-01
-1.991647063269394793e-02
-1.349949725599627615e-01
4.565347696921703835e-02
-7.222319157739230666e-02
2.153091067867775599e-01
9.306871276879584778e-03
1.454071271438926449e-01
-3.802901699021325743e-02
1.141414665989508581e-01
5.963424672550724642e-02
-1.396048679120890645e-01
-4.371512172448789590e-02
-4.281897687138383479e-02
-3.979359727395247182e-02
-2.731311750140311481e-02
-5.013561824029832970e-02
-3.921708907728484877e-02
1.580474182070932404e-02
-2.148980610358582066e-02
7.143656439469632524e-03
7.954657731986272684e-02
8.942612722634557185e-03
-1.853891358802239875e-02
-1.332606402552036044e-02
-1.218082200159509160e-01
-8.398275352871326094e-02
-2.216790650074931812e-01
-4.184667748971668266e-02
-4.428991974809396576e-02
-2.051427245267056429e-02
9.657689537658883938e-02
2.192174792874071743e-01
2.891090763388617368e-01
1.535016778642362412e-01
7.238137479161134424e-02
-9.802125429189918748e-02
-1.897439688282119563e-02
1.092652314840640154e-01
-1.489062268929424449e-01
-1.501120751317950620e-02
-1.129976749303036737e-01
5.191605374973722736e-02
1.055255275187370716e-02
4.650089729223150226e-02
-1.385559014403726086e-01
1.395778220966476246e-01
-1.073675071333825143e-01
1.477280699534539443e-01
-1.075626386550868896e-01
1.323735602477188189e-01
-1.056590769625175147e-01
-2.251809609505149856e-01
-4.912807574646284314e-02
1.187325105059509195e-01
-1.450556639931379344e-01
-1.697463090967255561e-01
1.152067736848682300e-01
2.235655764544850765e-01
2.604961199323390514e-02
3.360576018400012188e-01
-1.364350410227659349e-01
1.181278813611931072e-01
1.675202512890969497e-01
-3.457646999850614300e-01
-1.753514866294111907e-01
7.917179240639103666e-02
6.778660756991410075e-02
-8.117381530833693570e-02
5.277502245629515920e-02
-1.401782679536298371e-01
1.890881379264451045e-01
-7.501368884340227361e-02
8.779916914032685760e-02
-4.375607664917990913e-02
3.868908317048757456e-02
7.040388525565351163e-02
-2.677714873389248629e-01
-3.588398440508601406e-02
-2.467363913782721213e-02
-4.818200240976609761e-02
-1.866353840475947767e-01
1.865382506529152662e-01
-1.046347401890117094e-02
8.691696620409676555e-02
-1.422953969368521698e-01
8.018357882994411878e-02
-1.067218056369176465e-01
-1.870211052639120519e-01
9.090936997991162782e-02
-9.753514579436067811e-02
-7.346865926577997308e-02
1.020221059883553300e-01
2.862742184343335383e-01
-3.444788408816482767e-02
-3.982236357869319010e-02
1.492797500878597083e-01
-1.044985141451055394e-01
1.429540945883981951e-01
4.532897913392688188e-02
-6.698752183653769454e-02
-1.828430557831333125e-01
-7.441801864467209246e-03
-6.436965790376035501e-02
-2.668493423546616089e-02
3.545418545808095567e-01
-7.041084643365858042e-02
1.245698135507463250e-01
-8.076632879909767526e-02
6.023573762819046939e-02
-4.358035520231905852e-02
7.979311053213367089e-02
7.279905577985611165e-02
2.942497289132036190e-02
-1.884038198123862695e-01
8.123742888322618705e-02
-2.976742841679845195e-02
-2.996730905195050393e-02
-6.065994017004298043e-03
2.084899478377451668e-02
-1.023119581296575153e-01
4.263429791169773969e-02
-5.650321813491771678e-02
-1.088257591245523626e-01
9.637262428364404276e-02
-8.916605580983597013e-02
3.718978919477423928e-02
-1.407235225875866141e-03
2.492716277532155689e-01
2.296607413600191827e-01
2.274997827906160772e-02
-1.670656968721110636e-01
1.025000570022682467e-01
-2.293560525204808853e-02
7.609811897708640416e-02
4.161578187874896001e-02
2.020005008895449095e-01
-3.609923208625755164e-02
1.126981724225924186e-01
-1.468734773437115337e-01
-1.855186824870074577e-03
1.851388139545978306e-01
1.112352297827278597e-01
-3.431409491763105502e-01
-9.787125233831482640e-03
-3.026083937455622749e-02
-3.142915103338337901e-01
-3.806963422867902513e-02
8.489196616561583975e-02
-3.698857233095245722e-02
-1.611736929973300522e-02
2.547379260650777799e-01
-1.353319799720793248e-01
-1.172999509921647254e-01
2.375702692691011031e-01
3.420821272372729371e-01
2.173984434391280640e-01
1.133713063502145568e-01
8.621997349838364522e-02
1.635184935685093655e-01
-1.541382292994570857e-01
1.176768073700037442e-01
-8.052379275625416721e-02
-4.041185614639282442e-02
-2.560785514770848037e-01
-1.597961974522085771e-01
1.654834626820638199e-01
-1.646267402191614604e-01
-1.026371134898966808e-01
2.760846903686362541e-01
1.182654369059939342e-01
-4.736448320544126012e-02
2.582672378321564932e-01
4.432898699861560765e-02
-1.943984341094842638e-02
5.300377213449908309e-02
-1.274649559556874645e-01
1.342011873610828576e-01
1.302213128690051513e-01
5.945808642976279507e-02
5.304136604887928902e-02
1.137838742196592839e-01
3.010682272935990000e-01
4.511075518729593808e-02
2.038283721295552631e-01
8.283680801785148207e-02
5.288215476525347236e-02
-2.826638863653530009e-01
1.909586767123814255e-01
6.599847041890125054e-02
1.095496577363162805e-01
-9.502884012365868382e-03
-1.664295158726437074e-01
8.436538298921336665e-02
-1.617930097186747740e-01
-1.773001643305253672e-01
-1.612577811688173102e-01
1.304155782426777432e-01
-1.115731755512960888e-01
-7.266667158742953769e-02
1.759765372351393409e-02
-5.328175469719555191e-02
1.644259070118540556e-01
-1.755436123010666039e-01
-1.114401457953817232e-01
3.239277274036939658e-01
-3.327687356742610458e-02
1.197353247427911938e-01
-1.429806414906664158e-01
-4.549470509126663648e-02
-2.718428877065349192e-01
-7.467555275073798661e-03
7.684009026780620755e-02
6.565606101066444322e-02
1.408579660171379450e-02
8.042528329055842473e-02
-1.500551538471590063e-01
1.111052763302198404e-01
-3.554856920270259013e-01
-1.823728622833824253e-01
1.012470368381507141e-01
-1.052339521695309088e-01
-3.739271525501927651e-02
2.707511269690260347e-01
-1.080421019666524818e-02
1.068756163142400850e-01
1.568138260467155098e-01
-2.625775216805884549e-01
-2.247138661103940949e-01
-7.764898672248644884e-02
9.150395442401700052e-02
-8.616976669475467920e-02
2.338780082123353629e-02
-1.588417384508099273e-02
7.316730036396991432e-02
-2.980481366335872573e-01
3.015186476282406131e-02
-6.442336807440143809e-02
-1.281695326711597971e-01
-2.252648870990594521e-01
1.453235382325902825e-01
-4.495658503557149049e-02
1.211228331322737051e-01
9.736437537675755871e-02
4.482290486860150171e-03
-4.279275540801438099e-02
1.520273741693576319e-01
-6.350413513969284385e-02
-1.537441551030229447e-01
-6.602489421987287055e-02
1.830174247262186249e-01
-8.056321086898735051e-02
-1.940478961399944302e-01
-2.615637896748294888e-02
-1.212274500105938874e-01
-9.649351966046415541e-02
-1.490655508796428774e-01
2.413161349667397315e-01
-8.344596922260130376e-03
-1.664106452213411080e-01
6.641178279364817749e-02
-3.416828590790162851e-02
-4.253320538277708535e-02
1.856922010475237084e-01
1.000979442525251062e-01
2.568255731625880209e-02
-2.310223308378037479e-02
7.430684964072369059e-02
-1.445921699379041359e-01
4.514770819577026278e-02
4.343321568935503557e-02
1.177610253807636828e-02
9.921924331365949978e-02
-4.365708861254357087e-01
-3.292905122138767987e-02
-2.437015703250163257e-01
-1.210223865540575594e-01
-7.927441652874687994e-02
-2.138578644129742190e-01
-2.494773377556431040e-02
7.862399249093691977e-02
9.951375691833760917e-02
2.312260950431160519e-02
3.581134048526826708e-02
2.533567700877588195e-03
1.156580596911293418e-01
1.431957844777934086e-01
-1.385354939811777319e-01
1.080068620960436959e-01
1.003376567155070953e-01
-4.753174068203833147e-02
3.112390535678217704e-02
3.296776106796796627e-03
1.468370297412986969e-01
5.557674622817009719e-02
-7.659557666044258806e-02
9.890646780050249554e-02
5.295456937043679924e-02
1.451629958655592523e-01
1.297516642599687853e-01
-7.610227218968627916e-02
3.482358339717816359e-02
-4.708408213000313258e-02
-2.619821717491136459e-01
-4.323405435991872076e-02
-4.153597306875047440e-02
1.037279180656926376e-02
6.254598458168204866e-02
-3.540184338453169349e-02
1.124741080093741297e-01
2.477459911408108895e-01
-3.157287893778233656e-02
-1.330582160154810956e-01
1.079095485228993428e-01
9.176052868750086966e-02
1.156578021881830426e-01
-1.190632141243205128e-01
1.707540044829914117e-01
2.290081776913745482e-01
-2.306866764865115604e-01
-1.530682960513810864e-01
2.839376185916254736e-01
-2.274184500910501894e-01
-4.579912651671263352e-02
-1.558278425271771572e-01
5.950479320414082257e-02
-1.272066112485354394e-01
-5.345766382256331162e-02
5.214164872916764171e-02
-6.760728611851339609e-02
1.165648643151531542e-02
7.130187682148217410e-02
-2.094282285424740042e-01
7.428092762200415311e-02
1.892835220299664833e-01
1.145560038765935928e-01
1.647073696058048431e-01
-7.964922046765053609e-02
-6.615390656379388501e-02
1.097686090795532560e-01
-1.146687797189835378e-03
1.393553708854927686e-01
3.652111069751590861e-02
1.257652500375774363e-01
-2.748400713090154990e-01
5.037597241279755111e-02
1.947096501362447774e-01
-1.833431127334960234e-02
-2.203748442354936110e-01
-2.434472647995324784e-02
3.667483385869618751e-02
1.248473007039771210e-01
-1.263835071635153739e-01
1.187865836283662768e-01
-6.984921251141484877e-02
-2.462864275415021231e-01
-2.225000492041740233e-02
-8.605396650830740568e-02
-2.467561491125883077e-02
-1.156485272481643789e-01
3.677676462751588993e-01
-6.298411232549814762e-03
-1.762947822694337641e-01
4.607228219052317275e-02
1.272373662007505492e-03
-5.648273440730547379e-02
-2.074005172403375341e-01
4.455464248497859048e-02
-1.972561481752495016e-01
-9.334770179573062543e-02
1.162943691057856666e-01
2.257923625307561161e-02
9.312306377096792043e-02
4.979667347742586930e-02
1.012142716572063811e-01
1.512581306031672845e-01
5.614397666620109251e-02
3.314829395048373567e-02
2.170485359665086378e-01
1.382151981776484628e-01
-8.793177618507018456e-02
1.038858588589869208e-01
-8.219590965509639136e-02
-8.005041416298459833e-02
-1.728767163518072913e-01
-1.668056876392168819e-01
4.012161457971261114e-02
1.176225322561016626e-02
-2.067952853854485018e-01
1.097677807777846654e-01
2.058342344292793946e-01
-1.070225395835627535e-01
-2.096721815784884091e-01
-1.468845298840369129e-01
1.691531249908925227e-01
8.348894327995454168e-02
-7.721338544528445758e-02
-8.439955086751610436e-02
-2.929988000078867505e-01
5.614146274742795595e-02
1.127061444793765188e-01
5.315603748727887323e-03
-1.554960667037489364e-01
1.029149685511416418e-01
-9.243646362601327937e-02
-2.165392668404869936e-01
-8.421282684173421462e-02
-5.555476834234757133e-02
9.698391129253833287e-02
1.589428942641890330e-01
-9.542074461680011277e-02
7.380437817792263877e-02
-5.636246257038170226e-02
-3.561730150340057521e-02
-1.234334139209884995e-01
-8.836956492299909149e-02
3.879699179301589196e-02
-1.895699540071930367e-01
2.978925316756866892e-01
-6.440765238924517355e-02
-6.166677628607390715e-02
-1.067185502908019612e-01
-7.495543381813495054e-02
5.040486782084661888e-02
-8.637484471516364282e-02
1.410502884331587825e-01
1.089537712806760705e-01
-3.249067738916975451e-02
7.014133634021252339e-02
-3.506502130898145331e-02
8.495524892015764162e-02
4.068335008785933099e-03
1.446646356757174401e-01
5.782075119859383938e-02
1.948401596224114407e-01
1.854140172613341075e-01
2.040282686127420919e-01
5.825313050490499300e-02
3.188550697479404505e-02
9.650373095827242953e-02
1.927765659163413192e-01
7.955835023528143313e-02
-1.308556766405058469e-01
1.358949438957270661e-01
1.906836947305914354e-01
-2.657807455225478371e-02
1.383445817468556549e-01
1.048066558480199167e-02
1.184591031420284546e-02
-1.439166746411787712e-01
1.803437691107209473e-01
-1.362684519346117444e-02
1.739170128541850935e-01
-4.130677580983582731e-02
-2.526299418318175491e-02
5.792414361681769847e-02
1.467199335240136626e-01
1.504404553417167459e-02
6.175995798950756344e-03
6.116469971908731346e-02
3.130753360224691750e-02
3.369477604056846792e-02
1.730333042348619621e-01
-7.157914504594421745e-02
-9.133178848462179811e-02
2.361877245049679580e-02
2.421414888668859539e-02
-4.917250573892979759e-02
-1.230392598237385615e-01
1.368158598687086447e-01
-1.730779544229611375e-02
1.047678563305866756e-01
7.409422007983187952e-02
-7.918282517156047251e-02
1.541157174800726892e-01
5.870072912759360766e-03
2.625368892721928818e-02
2.125448401412389776e-01
2.298992663997187491e-02
1.038519157069690696e-01
2.709468608847948046e-01
9.230049257847540434e-02
4.888993489532510867e-02
4.176251234957868014e-02
4.364374506415644173e-02
-2.467340586197763752e-02
1.147260840276260047e-01
-1.523289271837868497e-01
-9.681420729099253497e-02
3.370057107632157822e-01
-5.669089768234319288e-02
-3.239936605637454281e-02
1.025332458517175249e-01
-4.844259643513496721e-02
2.607798547824175528e-01
1.708885717185543718e-01
9.843280404683353926e-03
1.307821959633258813e-01
9.074649232089820883e-02
-8.375617413343405815e-02
3.664794317787244734e-03
5.568732648389350393e-02
1.414826703696362153e-01
2.136729180829570474e-01
2.419657478960384189e-01
1.093071099375545474e-01
1.489609214225349199e-01
-2.805848379623321343e-01
-6.210182980913060702e-02
3.043693592922511182e-01
2.231957646923332650e-01
-8.393869172232590325e-02
7.041815755949140665e-02
1.158498525993663097e-01
-7.436485381581989240e-02
-3.429410334910283908e-01
6.426709180818744593e-02
1.199047919439876903e-01
7.305741978363325395e-02
-1.240162678454621442e-01
2.111461103100530645e-01
-1.615104059128280312e-01
-7.988670958446281167e-02
1.369795650713113433e-01
-2.139064539385233596e-02
9.174725171698623616e-02
1.029681859424029945e-03
-1.020193312852134687e-01
-1.492438163962266258e-02
-2.099204977261876770e-01
1.348264025473515093e-01
2.030195186750429204e-01
3.260593235768741854e-02
1.319597751891689597e-01
2.824914007347201564e-02
1.650355466317177805e-02
1.533561074721887518e-01
-1.423758632573104421e-01
1.997057791932461690e-01
9.619605786694633565e-02
2.143019763275264833e-01
3.075675992230124112e-01
-5.188452476974548394e-02
-6.143034940829494167e-02
6.227077716675073760e-02
-1.086445775093724392e-01
-5.434186083075930734e-02
1.658462098045156430e-01
-5.491045733292303221e-02
-6.892456841951570545e-02
1.617374315069549096e-01
-3.027078546733378422e-02
-1.264847076179754781e-01
2.569214926271489730e-01
-9.790960757656488878e-02
3.899145868184722419e-02
-3.118860697621445577e-01
8.060841875458922556e-02
-1.069662837353372193e-04
1.535137027018493028e-01
-7.015207699690760579e-02
-1.097055487461558176e-01
-6.021471503209026299e-02
-1.647624505300932518e-01
7.272858165331647085e-02
-2.425880830256343101e-01
-1.656447126761394772e-01
8.303446882481707592e-02
8.559931191729751310e-02
-1.963252064859781487e-01
1.523862269036693751e-01
1.301606270909401730e-01
2.190489813658018370e-02
-2.632642228779616400e-02
1.643270256457456113e-01
3.903557249310149121e-03
2.343181874140622956e-01
-4.457747361219294678e-03
1.213713327022116067e-01
1.413325656604708935e-01
-2.629053146272052055e-02
-1.447260960779593042e-01
-8.397083948567693468e-02
-3.729343301031234903e-02
-5.929057963991930282e-04
9.839448844187657917e-02
-7.673861978603220557e-02
4.331772799938106433e-02
4.894792084147977368e-02
8.226391483792550030e-02
-2.568370469712161208e-01
-6.725857529157963643e-02
-1.078186514022484027e-01
-8.105621394766904242e-02
-3.807791748816920230e-02
-7.839083966584409202e-02
-5.166423192926356683e-02
1.252981550804558308e-01
-5.602114210919514892e-02
1.239275715472075989e-01
-6.545205741809165256e-02
-1.139483854346604597e-01
1.007950385024256046e-01
9.883191152948198749e-03
3.191857559355483487e-02
-7.496056861816513539e-02
-6.589100513564678796e-02
1.260133213640035332e-01
3.653239781364859412e-02
-1.998024474774103554e-01
-1.257387386099695636e-01
-5.468730337703226613e-02
1.581258321721008553e-01
4.821140810729487684e-03
1.910313165627103849e-01
-1.052773326875537790e-01
-1.281203385114091098e-01
-8.122246518308798291e-03
-2.290549199362542504e-02
1.061717836693460565e-01
1.007952761204690684e-01
5.660221557177035068e-02
-2.715237231273072149e-01
-5.859373054087660751e-03
-5.522972234429905300e-03
-7.745853463112016557e-02
-3.993951538702795317e-02
-1.313182145039225035e-01
1.089838843448648342e-01
-8.227794424906842430e-02
-5.024953234277442470e-03
5.996308726278318235e-02
-5.809487938514437677e-02
2.783066374465408832e-01
-1.991870726634378530e-01
2.863931556338332463e-02
-1.233671352591810119e-03
-2.519781966793304684e-01
-7.612508806259661587e-02
7.618930631691166189e-02
-2.562959906405802846e-01
-1.787721649242138555e-01
1.894371408064993989e-01
5.015966871063319565e-02
3.798087916089645105e-02
1.343364203199021445e-01
2.214011337236309329e-01
8.539057148719245149e-02
3.848927858657903711e-02
1.981165743289751979e-01
2.431248753050967992e-01
3.934404450486878035e-02
-1.574587516169994872e-01
-8.929505311595664629e-02
9.316052461980139920e-02
1.270443134379154460e-01
-6.735712029636992115e-02
-1.171597021169564629e-01
4.065490294659624554e-02
-8.802536640866526207e-02
-8.347777756206901933e-02
-1.746987142921455904e-01
-1.008955130824553958e-01
1.684383391794511409e-01
-6.944139130787330139e-02
3.387526109026624960e-02
1.563339137252808264e-01
-1.125507816462736378e-02
-8.749813760666838927e-03
8.851193051704867032e-02
5.458292296133146482e-02
1.568244382523063807e-01
-2.812590844124809235e-04
1.381469009192542174e-01
1.414140172121981232e-01
-1.242161757054238876e-02
2.448665174955068011e-02
-3.932557468714392712e-02
1.766934249407745849e-01
1.868009887604342445e-01
1.303026773801782903e-02
-2.602190734050883331e-03
-1.129265769761422372e-01
1.841541320769689571e-01
2.084400038581062375e-01
2.884145219481578648e-01
8.163188509237381818e-02
-9.122897645560247570e-02
9.971312586032840541e-02
6.405046297740978056e-02
-6.045495165969139162e-02
4.475578610078638497e-02
1.313600800422370582e-02
-1.038068233310685817e-01
1.537655223395154036e-01
9.426342112447226584e-02
1.364536149876525439e-01
-4.525489131234875992e-03
-1.177868284971819862e-01
1.173379444940403915e-01
1.223738237154909508e-01
1.955710209351211107e-02
9.337568560300447962e-02
3.900254719145684976e-03
1.674393988598694982e-01
-1.588838342737050602e-01
5.746310694652247836e-02
-1.459440779129960175e-01
-1.202120472973289694e-01
5.824197581973410837e-02
1.753916987825424045e-01
4.032393061956277003e-02
-1.579223203248111551e-01
-6.399485214299518998e-02
6.120471980541103418e-02
-4.633623414281156511e-02
-1.306317643828754371e-01
4.264210641401091489e-02
-1.188796356609510413e-01
-1.007555970104529741e-01
5.137798539631383693e-02
7.288804460905670690e-02
-6.220646874435119267e-02
9.807528468190082616e-02
7.379622957015298523e-02
1.514048950959663298e-01
-7.442972282940585327e-02
1.973693292960654599e-01
1.632812041407462611e-01
-5.858331745974783983e-02
1.093272653472548012e-01
1.109816069016060641e-01
1.370987626809862803e-01
-5.839044688619276363e-02
-2.539640354499439825e-02
7.221375436037888451e-02
-7.894184753747246486e-02
1.106020272152983541e-01
4.947828906567730556e-02
-2.711326649529309796e-01
9.035622254111080887e-02
2.673282397765994189e-02
1.125874682213489214e-01
8.545441206870083017e-02
2.654150129603287112e-01
1.978668648826554244e-01
-9.842950344531482820e-02
-1.624192517256547452e-01
-1.727285894883874851e-01
9.772576704363880595e-02
-1.222785992498099661e-01
-3.969113461121929337e-02
-2.266394682456484289e-01
5.262188098120175461e-02
-4.094524872758953382e-02
2.722134847977994987e-01
-1.396167622788616614e-01
-1.118289505150372315e-01
-1.908250863208064418e-01
4.378397749336366412e-03
-4.897251089748001600e-03
1.094483989951152147e-01
7.949900301544561565e-02
3.676540829638782343e-02
1.893933192804540255e-01
-1.888920717129009136e-02
-9.928400219557217965e-02
8.440202268515103329e-03
7.975929519620775232e-02
8.767836608111448382e-02
-2.893599205122420956e-02
-1.259799236592110683e-01
8.706291842449098706e-02
1.251812142627674596e-01
-1.522150932265875223e-01
6.288845009457955104e-02
-1.691606126300902388e-02
3.953431313632184418e-02
-1.433464831205887371e-02
-4.196621490660745052e-02
1.204143480361141716e-01
3.162212018159072519e-02
-1.198603545049761188e-01
-2.331245953694887074e-01
-2.181279483564044566e-02
-1.010515632007961129e-01
7.321681911864350023e-02
1.803219939658961823e-01
3.773521361929787488e-01
-1.701213949226470235e-01
2.415829542977216120e-03
2.611565333165168923e-01
1.555237624652568429e-01
6.868809932309415112e-02
7.286315759210633403e-03
3.319636357333621834e-02
1.074261536526197047e-01
4.245184152616774537e-02
6.694443897518678743e-02
-2.566146036693283446e-03
7.573400603887431304e-02
5.144566185916134293e-02
9.753612738435098184e-02
-1.006883387502769817e-01
1.380239392848874869e-01
-5.820198230231887759e-02
1.449072350323843683e-01
-1.689359272646474286e-01
-9.168971743298776067e-02
-5.223777151816834038e-03
-2.121175930581950808e-01
-7.187127820740547846e-02
-2.161335859313282537e-01
1.552584567614564981e-01
-9.197627759276053028e-02
1.091195473477727176e-02
-9.253709151024087920e-02
1.210560867125889950e-01
1.176159865299744173e-01
-1.115773633662719283e-01
-9.031570201456207148e-02
-6.190159262755334790e-02
2.515514998284513748e-01
-1.870486863044054926e-01
-1.983330197945378515e-01
-8.655180302043993801e-02
-1.357993871766051963e-01
-1.478042175831695837e-01
-1.703903148832841552e-01
5.882583385101199103e-02
-2.978606198767067351e-02
1.822350016558837438e-01
-1.817053930651653382e-02
2.265916848537742612e-01
-2.957139381998342628e-02
5.594594436808558550e-03
-1.291610991324935731e-01
1.832080409433850809e-01
6.245049981517413265e-03
1.312386593119861111e-01
4.606636061610776961e-02
-1.005668849866686310e-01
-1.385174746150309028e-02
2.502294637926629206e-01
5.198335950243657307e-03
-1.743913463141256170e-01
-1.377765137990714372e-01
3.530599386161851760e-01
-1.164328673542321807e-01
-3.057832783462184345e-01
-5.371001732821645974e-02
-3.251617990218318849e-02
-4.688286138795678959e-02
2.695657596197197914e-01
-9.250917457428459167e-02
7.485496806864927466e-02
1.480477098378399359e-01
2.421460369859654849e-01
2.060384686795765086e-01
9.042031936350820864e-02
-1.112829713922858232e-01
2.277735381850086449e-01
3.571382586334406750e-02
1.265319102158438402e-01
1.089567285516691714e-01
-2.210061810198413711e-03
1.165341976943255753e-02
-3.323689225351474097e-02
1.976183178623036607e-01
-5.396017997486261125e-02
-4.011729816041022245e-02
4.220739791397666585e-02
9.208431161246092428e-03
2.754342443267768920e-02
7.149683058708147278e-03
1.027114098105580582e-02
5.455868016950387450e-02
1.170728080707895968e-02
-1.148250406304783394e-01
-1.687150800397304862e-01
3.090222237463254862e-01
-1.087885876408328512e-01
3.737256714458270929e-02
-2.051384254612250834e-03
2.695396922567219050e-02
-1.267500064374710170e-03
-3.480253220383115048e-02
-3.293793579276007438e-02
9.074402570865101880e-02
5.869187841349301354e-02
-2.205349726860827420e-01
1.790060326114271613e-02
-3.207965369295907865e-02
4.796744655790667611e-02
3.909717570293819860e-02
1.403408972656865726e-02
8.239897189401199085e-02
1.642506509953911842e-01
-1.627232749044090487e-01
2.619997014728590590e-01
-6.010525271213178894e-02
3.002770734270861913e-02
-2.285085962165669948e-01
1.318991907657568116e-02
-9.161939557562628900e-02
-1.938039294429136639e-01
-1.083574928584152275e-01
-2.705469435911575862e-02
-1.128702326871065115e-02
4.294825816412936592e-02
3.218448877348694531e-02
2.212483814366413004e-02
1.459421109437871178e-01
-1.750098942052132327e-03
3.223441515119640499e-02
7.529798536858178792e-02
-5.333670620572950050e-02
8.731633974302151907e-03
-1.146098749994311911e-01
-2.383645517757325971e-01
-1.597580683105898069e-01
-1.292524288352125128e-01
2.347185332096096977e-01
-3.817918812087485458e-02
-3.074195862089655965e-02
-7.054539828973091509e-02
4.032522975231647711e-02
1.604968749197349387e-01
2.127311209657162805e-01
-6.975386031002656084e-02
-9.760797067261275939e-02
6.602391816529482038e-02
6.538056617545180693e-02
-3.084122100581615511e-01
-4.503139670527477739e-02
8.626107221822944260e-02
1.480272808382020189e-01
-2.590564008364947823e-01
-1.166249065561986327e-02
-1.467924472110826439e-01
9.434261717049870211e-02
1.850313824670121454e-01
-9.956556264069282153e-03
7.433282801901723580e-02
2.719116842197555339e-02
4.961581329617761535e-03
3.038076906565247426e-01
-3.466729577190698353e-02
-1.063933145754435289e-01
8.155980265512165206e-02
2.126966504339906638e-01
-1.122472673854569142e-01
1.286286603291167396e-01
1.596161054664108070e-01
1.866818395321432900e-01
-1.232106686098269760e-01
-3.316205005815710261e-02
-2.639277371777563885e-02
1.913884997635394158e-01
-1.719130014379048055e-01
-8.376789401745066144e-02
-7.919918749358868804e-02
4.679433896167679158e-02
-1.269053695789711944e-01
-1.102484154374579611e-01
-4.280173026133631681e-02
-1.122437738807504359e-01
-1.804043382069087931e-01
7.623047186801886442e-03
-1.079650891643480076e-01
7.320236591718088520e-03
-2.635221649166997193e-01
-1.337564107902589894e-01
-1.643224782074038937e-01
-1.730692961205295300e-03
-1.912355978870274031e-02
-1.737240130166584073e-02
-3.989245987505989910e-01
-1.209244645443347116e-01
1.558423434074834857e-01
-2.523843372205810121e-01
-1.185449441646050095e-01
-8.407926638901036531e-02
1.441177175790400444e-01
-8.533557773882139569e-03
-2.657970661976707949e-01
1.734657384570004873e-02
8.918683798147584649e-03
2.019693147009181053e-02
6.829622136548214872e-02
-3.814163692434892339e-02
-2.748291368960081513e-02
3.688466984512433489e-01
-2.214100139766863595e-01
-1.341604030415219917e-01
-2.593622482219249958e-01
1.376476615130574344e-02
-1.525026314814875716e-01
-2.582628201422258046e-02
3.882099415219290861e-02
1.365903462973619975e-01
9.415464200428809438e-02
-2.275534866914952215e-01
-9.620811684316452062e-02
-1.631059135625625989e-02
-7.351395584161753149e-02
6.316591602182446141e-02
-1.133795082192173981e-01
1.264627994908292495e-02
-2.224985319510665582e-01
9.129922596333467366e-02
-1.999142131040589077e-01
-7.546529531573381577e-02
-9.884110216462990706e-02
-1.178830536537960744e-01
-8.139328403360936159e-02
1.818173089966899914e-01
-1.043316403366315592e-01
1.963829406816766376e-01
-1.113532469896515303e-01
-2.291917666279695565e-02
1.005617976769914053e-02
-9.540558583817929095e-02
-1.507943022535399580e-01
-4.552513574141408420e-02
3.028146647482037393e-03
1.724514165933184184e-01
8.352957206088654218e-02
2.879292148010581531e-01
1.192092910211793033e-01
3.625523295168942006e-02
4.225597897065729025e-02
-3.890742695520285621e-01
-1.074549002774679435e-01
8.962813862176172153e-02
9.183236832264221605e-02
-5.454587283600605824e-02
-2.299390573060871856e-01
9.904077334598394844e-03
-2.148116009454999198e-01
-1.599998155176003134e-01
-7.758474576469424899e-02
1.125646455118447659e-01
-1.771778265363724569e-01
-6.101674012902611605e-02
8.022067495460451225e-02
-2.441654086451633954e-01
3.833806087387843509e-02
1.084956082176180697e-01
9.746004675477416834e-02
3.949333606076412817e-01
-1.895146455246441916e-02
1.826555195306928114e-01
1.708094128606934756e-02
-4.247183137935582609e-02
9.215901556734084482e-03
-1.576482714612300329e-01
-4.235569452252386374e-02
-1.166226995894547314e-01
-1.296734740654091056e-01
-3.760198092565680827e-02
1.780516954217594983e-01
2.750846682191887549e-01
-7.310254148769379512e-02
-1.214423719716635139e-02
3.814246127095693439e-01
-6.511190129840678520e-02
4.335539887369856127e-02
-3.047166424065584911e-01
-2.011078233743605545e-02
-8.040150870399152827e-02
1.499239162363998623e-01
-5.160104157213142584e-02
-5.755863985721125509e-02
-4.193239189558571611e-02
-2.052676270453702434e-01
-1.435161965643369231e-01
2.590119161885614529e-01
1.036322821454150334e-01
3.659090483044689646e-01
1.416149613795600060e-01
4.599112263902332964e-02
1.032778516425289367e-01
3.263683194323693249e-01
1.120312458858994074e-02
-3.379320121321762599e-02
9.709460017286003844e-03
-1.328998012470007650e-01
-2.361158634028791836e-01
-1.792876828391588018e-01
-8.582307172655335992e-02
-3.507665968565747139e-02
-3.589174325956479006e-01
1.297071547326231478e-01
1.948039912257946427e-01
1.060702930305663927e-01
9.998730494064139718e-02
2.752693063425558015e-02
-7.365280867737503123e-02
-5.363422938477480778e-02
-4.930685786590806308e-02
6.647561454846934170e-03
2.195517519191496625e-01
-7.647531986644770519e-02
-5.397509412993629907e-02
-2.023822489179390172e-01
-1.091346733484200582e-01
8.477296925962410357e-02
4.436571863177111996e-02
-4.350387863453936133e-02
-1.131866698811342664e-01
1.107404050135905038e-01
7.607644121724591035e-02
2.559734076063947469e-02
-2.149948210961920014e-01
-1.062772785567708406e-01
3.420268201112024176e-02
-8.376397785168539223e-02
7.678795666763141292e-02
-4.740528598558044898e-02
1.435901019335819422e-02
3.581899319756854522e-02
2.237242625578388100e-01
-2.019179066625185204e-01
6.061956779190867672e-02
1.833441408022387087e-01
-4.346983793469640089e-02
-9.629950037601565926e-02
8.935334722569143739e-02
-1.345437154098393651e-01
-3.039849637590706921e-01
-1.452261429829530132e-02
-4.063006539595862693e-02
8.275233471807573460e-02
1.708853523969825969e-02
-2.908148347399059155e-02
1.572709977735118891e-01
-1.361165835350763575e-01
4.419919907210087540e-02
1.595214299243723904e-02
8.715477930281436206e-03
-2.736191976035205406e-02
1.739894160058747807e-01
6.009342014553234468e-03
-1.060515722259313814e-01
-3.028125918124512095e-02
7.151718457818627417e-02
1.160475938151369485e-01
-3.176123115670274610e-01
-1.038267461658413660e-01
-1.897392877089505367e-02
3.963533033639943942e-02
1.851641486599711964e-02
-2.436615888705381261e-01
3.611661309276845144e-02
8.876425940580871810e-02
8.051777647035504581e-02
2.622684495455768899e-02
-5.626748470179429584e-02
-1.462340433210016222e-01
3.733666895565134272e-03
1.239753562637425054e-02
-2.074209978298647422e-02
-1.149246533456425023e-01
1.434155629803977594e-01
2.297458091245312972e-01
-1.096765209696222293e-01
-9.138101044620054736e-02
2.046657767724880672e-01
1.058769424254217967e-01
6.647119845727769705e-02
1.187759156608334948e-01
1.180596714464029473e-01
1.135212105734758059e-01
-5.036903127488703835e-02
3.477235127016374550e-02
-3.034391909798017303e-02
2.385397283323579393e-02
3.056498587194486638e-02
1.958788972446826732e-02
-2.329481667211712181e-01
8.035500751208055070e-03
1.380846623833808795e-01
-1.511989017536699911e-02
1.439991819778330302e-02
-1.495778232010767927e-01
1.239232172090305312e-01
3.043576481680927426e-01
9.606391286724791367e-02
7.112608797448756459e-02
1.551448929828418699e-01
1.639850336205591341e-01
2.015765473037262404e-02
-1.048081802939907631e-01
1.032447717702144885e-01
1.086286883248783752e-01
2.182562592584511851e-01
-4.082163809233937957e-01
1.828317351225724682e-02
4.053222060236418706e-02
2.306509234090212690e-01
-6.586206404418769311e-02
2.137567668644005381e-01
5.484632226379704961e-02
1.352631813256366389e-01
1.204275667116531251e-01
1.389578142231756575e-01
4.153751128630712997e-02
-7.114993220920370898e-02
-8.963746990558435056e-04
-3.728446422870260873e-02
-1.519372819641001508e-02
-9.466881382860838079e-02
-4.354095699081439105e-03
-1.027376077355828393e-01
2.643115847746001223e-02
-1.752524528942039084e-01
-2.060822785114113376e-01
-1.265930644646519158e-02
-1.209440057246648605e-03
1.074808728254274121e-01
-1.085546232335844324e-01
-1.292500514029639724e-01
1.926888483094489901e-01
7.578996970026577679e-04
-1.703011051868115189e-01
-5.059040399495320917e-02
2.408702146816428524e-02
-1.227605588877818225e-02
1.268560840882949903e-01
5.531195350508874564e-03
-2.208903230681804886e-01
-1.272431297477828911e-02
8.983052789551143613e-02
-9.941034788146205226e-02
-5.162561653060537131e-02
-1.075957346657284291e-01
5.602426202062006644e-02
8.366383115971516571e-02
7.796555347626848986e-02
-1.368423853073269525e-01
-7.225505029979645277e-02
1.221006272965904221e-01
-4.858445919467733326e-02
3.160302869417531690e-01
2.316349758999972086e-02
1.465971011853115132e-02
1.065200158064590757e-01
-6.153722464094812418e-03
1.625695871386134694e-01
-2.403786082212368280e-01
-9.297452634799692472e-02
3.104812435545104346e-02
-1.476978178049393187e-01
-3.534372241198744519e-02
7.707181434226406669e-02
-1.613869576225206159e-01
1.288142326260408033e-01
-2.571393983861498533e-01
7.817035118358760248e-03
-2.189180939635516077e-01
4.045176009827675806e-02
-1.806571898418232692e-03
-9.287595775084360461e-03
-9.770218029994929068e-03
7.285436883298114508e-02
-1.733396910874120955e-01
8.358492722855859203e-02
7.716384326340470015e-03
5.995229703701910468e-02
-3.020632926483839964e-01
1.253755461250737890e-01
6.128462757963298868e-02
2.491997725965851632e-02
6.260283955832698921e-02
-4.676259304035966513e-02
1.571325946560541142e-01
8.934285121714168054e-02
-3.298501572162602924e-02
-7.057948576400067953e-02
-3.726317666866606204e-02
-5.674769190882499037e-02
1.739871400696527681e-01
-9.448946921749443173e-02
-2.424444504407217635e-02
-1.770491742332903819e-03
-3.928586635018477963e-02
-6.962014438714880793e-02
3.460536216301380863e-01
1.636940468144306923e-02
-7.465795561154532634e-02
1.240863154897694776e-01
1.313464436855283357e-01
-3.527680477660657260e-02
2.998435001248957454e-01
2.492773880753166096e-02
5.201518572545984348e-02
-2.067600573324484547e-01
5.418838179652002429e-02
-7.314330857689406440e-02
-1.078400935795156695e-01
1.092651513974281785e-01
6.184069383596246805e-02
-1.896336847532769376e-01
5.919310505428961727e-02
-4.711704412028449272e-03
1.641954688137896856e-01
3.126983764333915450e-01
-1.383848436509052260e-01
1.777602609813593720e-02
-1.560172924001418104e-01
-1.192998546737076559e-01
-1.334761242302998363e-01
5.066686032963592379e-02
-5.200072204486361899e-02
-1.342326666259327228e-01
-4.502812931574450839e-01
7.004219162267134868e-02
-3.513455901259124881e-01
-7.055165423493445220e-02
-2.501408902174328541e-01
2.309803048118576896e-01
-1.288488708283040962e-01
1.355256281152603937e-01
-1.359699587647385591e-02
2.437727247811950770e-01
-5.832636199727696952e-02
-5.759590199568771773e-02
-2.118146834050000649e-01
-1.736611247354001297e-01
4.315804402385001876e-02
-2.064566755671787546e-01
-2.565063287984803986e-01
-4.353835448727570202e-03
1.210391389699922993e-01
7.147735383259988529e-02
7.364921204459047750e-03
8.633125103910165021e-02
2.168761948933103489e-03
1.124440997589720714e-01
1.658457203417499151e-02
-1.677261476201724888e-01
1.730957085981954247e-01
-1.649715631481326050e-01
-2.610149647675148454e-01
-1.424389153069196556e-01
-1.162618792517304683e-01
-1.747826178956425058e-01
-1.872543414498474557e-02
-5.240982089583207798e-02
7.140740395376160565e-02
-1.620166855540288442e-01
-9.877610506323260264e-02
9.628822794890694314e-02
-1.055280787597872721e-01
4.924361929712483404e-02
-1.019966775225632089e-01
-1.639820926314744520e-01
1.526934651297313095e-01
-1.181420555364964993e-02
2.085283778774053853e-01
1.554119305038340615e-01
2.992469744316655564e-02
-1.178683355041116460e-01
-1.897630792088806917e-01
-7.719455732212754384e-02
-1.297075732502732393e-01
-1.047130353003278280e-01
-3.090836495989781607e-01
-7.240753384274153936e-02
1.576515672785823718e-01
-3.058087921932179376e-01
-1.036880463740874336e-01
-1.440036211047682202e-01
-1.129291980509710830e-01
-1.148896598588211859e-01
2.875165511713612121e-01
1.309129994425276278e-01
3.919967897243926969e-02
-1.766823986731234572e-02
-8.777153592206880794e-02
1.543670211174938689e-01
-1.821037641057743073e-01
-1.702872687337180502e-01
-3.338009508479967968e-02
4.670032420120324990e-02
9.839111409935810681e-02
-1.131497112404766248e-01
6.136059400930950897e-02
1.859301723167307852e-01
-1.255343243374812054e-02
-1.269050367665653656e-01
-1.860072378213452615e-01
-1.235883744682145929e-01
1.701645011634954352e-01
-1.708154045564048984e-02
-1.138719863606010574e-01
-6.943935906676997061e-02
-4.326828322905008212e-02
-1.979639245520402879e-01
2.749695399241502969e-01
9.195823141114187194e-02
-8.722654897270749885e-02
3.045668037566864536e-02
1.485173136667721806e-02
2.499500691041031120e-01
3.863905850242400908e-02
3.119512040729523206e-02
1.794778275863885553e-01
2.833973381753276399e-01
4.764345875557828708e-02
-1.664563654738318021e-01
-4.143610276602493481e-01
-5.158281703825901010e-02
-9.193087718268028175e-02
1.182219911367571596e-01
-2.734197416559721455e-02
-1.423212615579157701e-02
2.112437666372966039e-01
-1.031057273088285542e-01
-3.802169415007992936e-02
-3.218337190499780814e-02
-2.211891303185014590e-01
-7.766402864015700680e-02
1.427043736262396945e-01
9.040134358394595615e-02
-5.212779963291231528e-02
-1.107880952768044436e-01
2.030013207453290336e-01
1.805966605475201325e-01
-7.961133509276666423e-03
-3.774851974541044985e-02
-1.215162415265126500e-01
-1.227858102762261067e-01
-6.626684101507093402e-03
-1.488378599977963901e-01
-7.925904639785051609e-02
1.696921651874630788e-01
1.599823496181924931e-02
1.257908550139388293e-01
1.582380546167221416e-02
-3.799081675281382187e-01
-8.269629958755349286e-02
-1.713630240156387707e-01
2.769352530565414097e-02
1.019202508738739459e-02
-7.397978802325243242e-02
6.436255219710606580e-03
-1.114811028779728735e-01
-1.828938211914793999e-01
-1.452392157982109744e-01
-2.216845589239003697e-02
-9.847339027841016390e-02
9.577867102023714108e-02
1.808004530070330962e-01
4.338192912449453237e-02
-8.592038523621230162e-02
-7.363511976298536821e-02
-5.587276037138148160e-02
2.518704061905791339e-02
-1.342578286214101135e-01
1.759099187827876942e-01
8.663345920695059155e-02
-1.376083526696297299e-01
-1.023883090850726818e-01
-2.507205565989301457e-02
-2.551369115554713574e-01
-1.097072308309503391e-01
1.161797745671385163e-01
-3.290056105490358346e-02
-4.063225988659168592e-02
-1.683517713827061835e-01
9.110905066411294217e-02
-5.792095971418679580e-03
-5.643020515817209065e-02
-7.715628419993020293e-02
2.373266897372763307e-01
-9.555903118817528352e-02
-5.286465997276595247e-02
8.116388551631129045e-02
-4.909993409378488743e-02
-1.641639069474438994e-01
2.082502912690244526e-03
-2.901524290694801334e-01
-3.894875793674901221e-02
2.720078206667094767e-01
3.125493629707472298e-02
-7.489534484740988096e-02
-2.285447041837161686e-02
5.051937350841002178e-02
2.333571399103700345e-02
1.973107817777156048e-01
2.429013690972997019e-01
2.844317030104273614e-02
-1.680210758441577912e-01
-3.158931294139620538e-02
2.914340814015418599e-02
7.407431279065025687e-02
2.208849913838265566e-01
-2.501333788461221688e-02
2.972155326644676174e-02
-2.162974963944624962e-01
1.738430720893172909e-01
-1.385850334878244439e-01
-1.824082150412430214e-01
5.580079902345205789e-02
-1.723708910475109379e-01
1.606377659800502511e-01
1.446052090912537391e-01
1.106463795257125876e-01
8.489040766513381020e-02
1.356525139255055357e-01
1.374362307424925878e-01
4.468656149536607419e-02
5.698795742948414844e-02
-5.895399758902901410e-02
-1.137293717219886591e-01
-3.254443797174443737e-02
-3.680484259889177379e-02
2.308235469268513085e-01
-1.852689533048217929e-01
-1.290502293182402005e-01
2.074759934448614784e-01
-2.227519169917991926e-01
-1.900403202330509245e-01
-1.136193410794776940e-02
-1.336991303071990989e-01
1.100744668839448714e-01
-3.121190843683156399e-02
1.856142959673724680e-03
-1.868977206068037633e-01
4.469756549718079119e-02
9.121814155058010493e-03
1.927170682261847567e-01
8.785051395557665066e-02
-3.570376595538617415e-01
-2.762545715691488435e-01
-3.121975136997941561e-02
1.879575259419544453e-01
3.793686894698896674e-03
-3.876718742087860436e-02
-5.836155060693466040e-02
-5.585106502363400977e-02
7.894275409767370633e-02
2.089380927847999947e-01
1.640768660483666874e-01
1.001379363275715917e-01
1.165133743320751142e-03
9.150669539841921329e-02
7.837562589762543663e-03
-1.249084462141683838e-01
2.145785376001729805e-02
2.829224581460850763e-01
-2.313773302860888115e-01
-9.162001542451266023e-02
-5.886605386775917159e-02
-1.073106066882024007e-01
1.634762855424128913e-01
-2.472633474490700811e-01
2.978086051177685767e-01
-2.064817370221586623e-01
-1.425814177131974614e-01
2.226532062046915617e-01
-3.006748686051028963e-01
1.142686856422494845e-01
-1.520514156421079177e-01
-1.376548461387948619e-01
-1.093496486138782475e-01
6.320546232339147030e-02
-2.840256624476214867e-02
-1.933900038507749830e-01
8.678188363142344194e-03
1.340062392469473229e-01
5.796335190190889108e-02
-1.360850042797944782e-02
1.603173371059809782e-01
2.273220616707257169e-01
-1.237180221211164055e-01
-3.703424793792741039e-03
3.436623449107963080e-02
3.441268976119352813e-02
6.261577055210587606e-02
1.575410761585060385e-03
1.508243880888645097e-02
-2.093979001824824160e-01
-1.427850840196790150e-01
3.841557456114830932e-02
-8.876085286909490835e-02
-9.284620229278843506e-02
4.441589261940991074e-02
1.121912570653048336e-01
-1.110077633934871688e-01
9.906463957239250440e-02
-7.289750943808742667e-02
-6.696508774028281374e-02
-5.588022547179258281e-02
4.057066180216523793e-02
-5.609276890006346938e-02
5.239570509087147082e-02
-1.018454085244973467e-01
-3.975475665328759983e-02
-1.776387334462572326e-02
8.877550950822749032e-02
-3.817319718155492980e-02
-1.660304469868753019e-01
1.071756519673194158e-01
2.492002451419281506e-01
-9.618979169107161331e-02
-1.080918998158432037e-01
-8.786887941453355721e-02
-1.996598736085462150e-02
6.237614155135737942e-02
1.540818164761325049e-01
2.586425625863540412e-01
1.026637606972425620e-01
7.529255345324206705e-02
-1.277084459149777362e-01
-1.018960811237089314e-01
-4.532086110190954725e-02
-3.069145617820619523e-02
-2.826995205064599115e-01
3.920437229287819236e-01
-3.340436431925665750e-01
2.134265435882037876e-01
-4.110633756644638259e-02
-1.043104908337232350e-01
-4.625646613898068416e-02
3.288928276221268487e-01
9.140931869600922577e-02
1.324792127526842889e-01
-3.103075247166442105e-02
-3.729786206614470190e-02
-2.812660588144297868e-01
-4.429740163304509565e-02
-1.117456908960454964e-01
-4.381568256458681643e-02
-1.345036503532303085e-01
-1.261305007203432083e-01
-1.593803067917770044e-01
-4.851537931378276797e-02
-1.522009630232149802e-01
9.225843399908624509e-03
1.357383813566514358e-02
-7.162623422401968865e-02
8.209592370082752222e-02
-1.413341961996843893e-02
-3.265611373358499187e-02
1.495765327210195339e-01
1.627239407371298408e-01
9.316846737152177649e-02
2.241581949369229332e-01
4.288376341434584765e-02
1.748147486498512759e-01
-7.549511022652162506e-02
-1.843997775281013343e-02
-8.641652575748473564e-02
2.095361607369365664e-01
-1.535381131806692057e-01
1.562670030997455328e-01
1.253776275938881524e-01
-1.221992743293052151e-02
2.403420927736335533e-01
3.937809593434090510e-02
6.560299317316638235e-02
-1.578128292804964750e-01
-1.753981222268221063e-01
2.922687157856239670e-01
-6.128435507823615930e-02
-4.771971543471070776e-02
2.801824385496814659e-02
1.450570023932987174e-01
6.968400494599495676e-02
1.659547787020453358e-01
-1.081609611758264783e-01
2.897209311401925391e-01
1.788786663640422325e-02
-1.495964082581852650e-01
-1.048867619471807733e-01
1.246913225538655440e-01
-1.084502236419973981e-01
-2.279359967761476410e-02
-6.744461811673264917e-02
1.003942000040444066e-01
-1.512475868945519775e-01
9.109769053372261671e-02
-8.243420239513733760e-02
-9.411380825963854002e-02
9.527920456823969764e-03
-1.872895633679963132e-02
1.282804464457740212e-01
-1.344800053941076941e-02
-5.530679047772142642e-02
-2.758281139281163474e-01
-1.675079760402741202e-01
1.634681310422470002e-02
-8.581791142602683553e-02
2.245399760528061367e-02
-2.550533843042646076e-01
-1.183672140487005559e-01
-9.270412696434474076e-02
-7.791707419187474115e-02
-2.211492109555684149e-01
-1.150927965271595355e-01
-3.466166300939078904e-02
-6.389118627234852132e-02
-3.382704416694631150e-02
-3.490354443123174222e-01
1.780441003579608106e-01
-3.070991438064762935e-02
4.497739702604822837e-02
1.325572869227900352e-01
-8.418385791036310517e-02
-1.462645567592450735e-01
-2.793698124288342410e-01
-1.221909052178079685e-01
-2.339811125535062597e-01
5.182240981441274021e-03
1.254867754564276648e-02
-1.956862854871704027e-01
1.022679203174464702e-01
8.636486739071953800e-02
-1.485606598658063271e-01
-2.120717153200353811e-01
7.184692068131846854e-02
2.454438246056437137e-02
-7.670231012196646048e-02
1.426029047312402098e-01
-5.969339888200356908e-02
2.682486049497865288e-01
-1.436609559286249060e-01
-1.480920590750876538e-03
-1.965067412345410103e-01
5.407195524213900817e-02
-1.091697520423098311e-01
-3.913140903707050533e-02
-8.066296533371700161e-02
-2.308349199550261965e-01
-2.003020970581362997e-02
7.501203169777942437e-02
-1.804854998760146156e-01
-7.249760960504397778e-02
1.692204810591501143e-02
-1.763667850089819800e-01
-4.509483644788935680e-02
1.809479686258435617e-03
-1.100718643726241452e-01
1.921743927914670164e-02
3.372675460375678669e-01
1.398514057750105954e-01
2.588912914380605557e-01
3.119532847192421632e-02
-3.624850860650373763e-01
2.041835981294787272e-01
5.215981999063624280e-02
-8.071658876473791766e-02
9.221143881250876140e-02
-3.737912682725467728e-01
-6.466647958718325928e-02
2.658426760690880686e-01
6.643442407827031271e-02
2.226022676183716520e-01
1.684274077997701680e-01
1.839913794331047014e-01
-3.479100395271186169e-02
2.184086815312095975e-01
5.591181703456163388e-02
2.673377787815860163e-02
1.892020674318785622e-01
-1.108935410955897427e-01
-8.248308260763630162e-02
-3.682382600455576249e-02
-2.684237276522608018e-01
5.856935857758015923e-02
8.174969015782222737e-02
1.140160294877537728e-01
-9.314610655263630412e-02
2.243496355567907996e-01
3.648586864916582989e-02
9.124293028528562832e-02
2.353809828007615013e-02
-1.091568899806978216e-01
8.985237067409521106e-02
-1.648322351946144085e-02
1.627490441700410184e-01
1.050350684076686164e-01
1.367944757909068595e-02
5.719031784711077655e-03
-5.961479488862169579e-02
8.298129409388460206e-03
-2.646890457632316770e-02
-5.225816181612973760e-02
6.477404786386189994e-02
-2.387782407653080974e-01
6.023923934673481445e-02
1.189446293803734372e-01
-1.647343264910351157e-01
6.051749388781490352e-02
-8.943534942153701095e-02
4.543210635286865431e-03
4.499227959598541687e-02
-5.810308225721941278e-03
-2.466215278427263402e-01
9.797266808123837600e-02
2.683755162241656667e-01
2.415178801358132676e-01
1.592225454881599500e-01
1.023526720278820912e-02
-1.387567653441166005e-01
1.085371896063165864e-01
-2.547762225271885672e-01
2.847769738967750319e-01
-9.061109481398654797e-02
1.527091806585600675e-01
2.956198662016449458e-02
8.181776501315872474e-02
-6.025965738387448201e-02
1.085909357772643774e-01
2.353459828439248280e-01
-2.481190840595009772e-01
6.736462729462207311e-02
-1.371401746890870132e-01
-1.190355491505036140e-01
-5.314646762663065988e-02
7.919695451401567721e-02
8.321908721261093989e-02
2.348258528892968044e-01
2.407424573127072420e-01
-4.373538207274145495e-02
9.573781364264608018e-02
7.772597412365085667e-03
5.263137669456791068e-02
5.350531806625556663e-02
-1.847090098319800477e-01
-1.412053447354179037e-01
-2.962808805523721722e-01
6.958371095463990186e-02
1.795295237705802627e-01
1.617674518247373960e-01
6.802591228057376649e-02
-2.956931603209287523e-02
-8.179063066348360445e-02
-1.240743035162954755e-01
-4.077357661199759037e-02
1.791647722640694884e-01
1.386027298618321968e-01
-3.843037670775253933e-02
-1.270306972287495451e-01
8.367970054870277341e-03
-1.532000789495590876e-01
-6.747294633807322806e-02
8.995375053659758480e-02
-9.725359464012507671e-02
5.161150114655318338e-02
-2.739105216392834774e-01
-1.878781574813036537e-01
-2.803158999153330666e-01
-1.401355712969747369e-01
-5.200671077348144843e-03
1.476021469077505865e-01
5.883529996656023525e-02
-3.028425920666879059e-02
-2.120544828768496093e-01
1.367504958710190066e-01
1.028044995455624777e-01
6.922486619946519038e-02
-9.553912520703836120e-02
2.339603002983088598e-01
-5.505077227189958400e-02
1.563009256385534951e-01
-1.188332482057512240e-01
-9.673565572883015620e-03
7.730581638095755659e-02
-6.274655681695917586e-02
-2.045589456874050138e-01
1.309435708426247118e-02
-2.121782296040865962e-02
-7.695829008272760119e-02
1.686783951718315300e-01
-1.244005611055724325e-01
5.366876862833686035e-02
-2.176279418119833331e-01
2.280554126114945623e-01
-6.816548369734946877e-02
1.415903285337049566e-01
-1.082304305492910040e-01
-7.865966294361215194e-02
1.658548119287145683e-01
-2.089329063755198876e-02
5.560077542277013646e-02
2.075833448210776810e-01
-2.539473847002139684e-02
6.183129686176834505e-02
9.126580589122297582e-02
-2.655234369115676632e-02
1.595427625844330899e-01
1.066419318085001788e-01
2.532200886863594791e-02
-2.246513086368281606e-02
-6.115877015018841845e-02
-2.324443521330395515e-02
-3.955022006215285109e-03
1.915437066695072632e-01
6.698462127051557635e-02
-5.754417348953930200e-02
-3.362848794162477672e-02
-4.374370239407570499e-02
-1.073130337457615796e-01
9.960907323171357131e-02
-5.867818628983519080e-02
6.713415631733120163e-03
-2.577589067503164300e-01
4.154605267567319099e-02
1.046070722217834828e-02
-1.657607603310209121e-01
3.497666793540898933e-02
1.007808060979754894e-02
-2.367424760142222695e-01
6.687768030839096045e-02
1.057480127962173444e-01
-4.755998760423135047e-02
-1.966801832171352904e-01
8.534207321158264470e-02
-1.292933547050496290e-01
-6.102736084020059931e-02
-1.646065833390282507e-01
-3.467282336386823260e-02
8.240723364195691458e-02
-1.665820043486815338e-01
3.829306143406866619e-02
-2.166174647077288330e-03
2.246521867907208536e-01
1.731516401405366889e-01
-3.020338767395141510e-01
2.993086723408757144e-01
3.176711353063656901e-02
1.995177126743470364e-01
-2.189675110025798010e-01
9.293241817778802316e-02
8.761906609007215352e-02
5.375568026298009616e-02
-1.074456505265997952e-01
-1.492950839862818568e-01
-6.190993298718138610e-02
1.173605520050614998e-01
-4.888001286193074946e-02
-1.197236108621574785e-01
7.337636370633277005e-02
7.086574510195048360e-02
-7.191725860378210544e-02
-1.665455901817600171e-01
8.289519328761855987e-02
-1.760079175423850256e-02
1.136848359089665389e-01
-2.297645801117020881e-02
-1.529021060951649413e-01
-8.074531502599385790e-02
6.936616993850880375e-02
1.670994170117600097e-01
-4.242931012847023925e-02
6.813172436378975294e-02
-1.702236278743967102e-01
1.179108341167055124e-01
2.739824357313775868e-02
5.824881352579964339e-02
1.395583782698356923e-01
7.633410331939925741e-02
1.105327726413170841e-01
1.308133285314432570e-01
-3.832673887370119641e-03
1.817532840750025677e-02
6.850651407102170687e-02
-1.492030995957109307e-01
-1.154195435832438416e-01
1.646655970286158843e-01
-2.304594987268439865e-01
2.043105322579859273e-01
4.662951546715477825e-03
1.590554713214764049e-01
-4.874960654752278667e-03
1.414328237377317221e-01
-3.772134694889967086e-03
3.980941713754210798e-01
6.883018123241418929e-02
2.587576098385134180e-02
-1.965636652600988646e-02
-6.245253850026777354e-02
-6.054102148850802612e-02
-2.528927707162054728e-01
-1.101569254582467489e-01
1.210301614090700598e-02
4.364257426321509897e-02
6.824518161623875645e-03
7.202142184187572405e-02
1.450647145160619683e-02
-1.811085146601136286e-01
6.399888796819731829e-02
-1.017256255912218771e-01
1.520399223350995532e-01
-1.286160312856571841e-01
3.875737906438434660e-02
2.946089156559600908e-01
-2.116688544993815535e-01
2.849256908688973383e-02
8.131338054674015769e-02
4.134356258326003786e-02
2.084595100374701804e-02
-2.209937276128981498e-02
8.346460116675623320e-02
-2.238246555467102161e-01
1.985938064054370289e-01
-1.592627477546158798e-01
1.440545946506507358e-01
1.631236033759019266e-01
1.174700121396135138e-01
-1.387849669934447250e-01
1.236989863648869925e-02
1.978284021258238934e-01
6.477776710992627640e-02
2.548607797067108383e-01
1.020409471523862077e-01
-5.827326496618365215e-02
4.048912888856577574e-02
-3.381293076317680446e-02
3.132974526081893502e-02
1.462896319374223375e-01
-1.250267597338430292e-01
-5.237121438798331141e-02
-1.503747263448643179e-01
1.139306298997498079e-01
7.312342667440679955e-02
7.689865946102673877e-02
1.286237287355619652e-01
1.821173597217469742e-01
-2.255776178050744249e-02
5.242072899910006634e-02
-5.253494665588549772e-02
-1.961490117942209788e-01
-1.293501682304527617e-03
4.178430453173633680e-02
-2.549293214093525939e-02
-1.340757991177331798e-01
8.993291729997091033e-02
7.866831836804396086e-03
5.296157327566537037e-02
-2.924675317725544121e-01
2.323192909341118689e-02
-1.079104328401572499e-01
-2.928470903382032059e-02
7.786325989847686646e-02
-1.072142233572649372e-01
-1.216365861338306181e-01
-3.733027624060160365e-02
1.937399715488289098e-01
-5.483353913492459292e-02
-6.833922689434972220e-02
3.055580640522826408e-01
-1.367987307281984255e-01
-2.398003831823713322e-03
1.195106276854192018e-01
-1.913769951040189821e-01
2.481450708665955407e-02
9.285410726167209194e-02
-1.398568930553089062e-01
9.732901795427136016e-02
1.701515698164663970e-01
1.557917810882760989e-01
-2.138747691985891097e-01
-2.493070138013344858e-02
3.739461100591315312e-02
1.598465148230159005e-01
1.795423579260802260e-01
-1.333313959482423927e-01
-1.912974779239256240e-01
1.547870465194136069e-01
1.236197721228587398e-01
-8.949847258332133126e-02
-1.432348154242333582e-01
-2.739108195365000734e-02
1.327437179920278043e-01
3.509868367808566259e-02
1.131524969689331889e-01
-1.535796869646977314e-01
-9.581956654620535710e-03
1.343621321426166915e-01
-2.285371105391340862e-01
-1.151150450023181171e-01
-1.916440956694343833e-01
-5.606922025990711267e-02
-4.394073490437520879e-02
-4.467119455425428570e-02
-1.693596221812579961e-01
-8.436208806685939476e-02
-8.879445406541533470e-02
-1.745813196655658928e-01
-4.660335713103509053e-02
7.568184138968794307e-03
-2.939813438914341479e-02
7.845847248891683889e-02
1.811358042506276689e-01
2.855458447489352472e-02
1.349356475358194085e-01
-1.231497052745091358e-01
-8.066692716109159778e-02
-1.906927172907862122e-01
8.115754726191434787e-02
-4.388212680095548990e-02
-8.065161744387949749e-02
1.306217175712122702e-01
-1.411000091623485636e-02
-5.902444622533294105e-02
1.397054227968302365e-01
-1.192202609329748586e-01
3.935895152799739199e-02
-1.667225764301915603e-01
-6.367349195045339527e-02
1.439129531241239157e-01
-1.861132761973284810e-01
5.446919882370445526e-02
-5.897295777968225312e-04
-1.013829699535090806e-01
-2.690956551890134191e-02
-2.201328963339933831e-01
-2.255114806578902356e-02
1.108218568547617855e-01
-9.978261235742424962e-02
-7.230010885083081040e-02
1.062647256658652561e-01
-1.306734763791504994e-01
-3.737247986537051841e-02
6.885152297933211374e-02
-1.487406683579173550e-01
-1.329836863189928775e-01
-8.632170998883913204e-02
2.544794594002853811e-03
7.067364800751096965e-02
-4.257030806327567057e-02
-6.357177561475023386e-02
2.321688932700807437e-02
9.234293088579284547e-02
1.059785043310151192e-01
8.052013017821499710e-03
-2.533509761287948692e-01
-5.583992722544998261e-02
-1.163107382340438506e-01
-3.032127733944141590e-01
1.007070167544166228e-01
1.093384147641464493e-01
-2.278152399320272289e-02
3.928464351503199031e-02
-2.829087270491788958e-02
2.217857442339799933e-03
6.003292066979496605e-02
2.387582324445758006e-02
7.308066355457151775e-02
1.527294111370021586e-02
1.886495433583154357e-01
-6.349639934780997030e-02
1.898332223803640695e-01
1.320040689368728315e-01
2.752237447202953158e-01
-8.568109226175603388e-02
-1.813573273674332353e-01
-1.039253825227735156e-02
-7.094709771186648306e-02
1.061520988069434568e-01
-4.966256243798623793e-02
-3.975065915949537419e-03
2.012474204216149476e-01
5.246258996489894244e-02
5.709839768298478196e-02
-2.083653738630073526e-01
-8.392229558152754232e-02
-2.721546395542382216e-02
1.088038466831784513e-04
2.330165315769524015e-01
4.397978230348464218e-02
-2.340586638223011717e-01
-3.367163050168557326e-01
7.844470707984453617e-02
1.747775671189762403e-01
-2.500522782517191830e-02
9.252449479262968290e-02
-1.302677557087133231e-01
-3.453059315058313317e-01
-7.366524262516650767e-02
8.097450105471201698e-02
2.410199723151710410e-02
-2.895007533063217453e-01
-1.040343905047217375e-02
-1.045199483554360848e-01
-1.181002794926803295e-01
-1.568126540734668048e-02
-1.803791569271769313e-01
-9.359335469305169256e-03
-1.077721021042819805e-01
-1.474754163925460874e-03
6.846716095897388554e-02
1.766130077945441967e-01
-7.575921605297285255e-02
-3.325490603773136045e-02
-1.010944471096771879e-01
9.942943157725998848e-02
1.653121081699580330e-01
-4.425156570521050770e-02
1.513920793520423802e-01
1.241194695778107121e-01
-7.628704346950254678e-02
2.468869630966688822e-01
-1.431131029009562461e-01
2.558597240875057910e-01
1.444591292644439029e-01
2.221963142260912349e-01
1.488074548202484026e-01
-9.584261168474415837e-02
2.830432869397110987e-02
7.950547754318706972e-02
-2.383205028858431315e-02
-2.194176206189277223e-01
-2.762740466833504271e-01
-1.994149027947640651e-02
1.126256979960640892e-01
-5.296188355474959475e-02
-6.681234055041895825e-02
-9.230397791862679502e-02
-2.058242196356321885e-01
1.039195490993654464e-01
-5.811466174996716277e-02
2.409785197773345322e-02
1.879478488712281181e-01
-2.072096728749568337e-02
-1.002715025617686440e-01
1.245516411001014317e-01
-8.389948715566634962e-02
1.014451688603637200e-02
1.351333432764851017e-01
1.087988009214218288e-01
-1.767547267621787654e-01
1.045469502352625452e-01
3.309892685299540421e-02
-1.375156479938845558e-02
7.231416729660120057e-02
-1.006608968200647658e-01
1.256810009980171283e-01
1.351564553770357169e-01
2.186587786697552493e-01
-4.084804319504214964e-02
2.983093892934665647e-02
-2.342841300271442107e-01
3.136743714736692917e-02
-1.100418363996106819e-01
2.151094163426006955e-01
5.881267885994344996e-02
-2.542922034286211885e-01
8.233414437169944700e-02
1.476980486605439583e-02
6.130673175971936006e-02
8.742634753753500410e-02
4.067976931391606432e-01
-1.009952063004497386e-01
-2.576489304689572601e-01
-5.992998944476311124e-02
-1.406446859050822576e-02
-3.854977338593117836e-02
1.257038356967175308e-01
-4.172705809552101908e-02
1.489612878622642300e-01
2.267501062317002769e-01
7.796246971750457611e-02
-2.037094893348987967e-01
-1.853282554197850374e-01
-2.026497981278975111e-02
8.999297280167685431e-02
8.670396590999234062e-04
-1.352837956634625194e-01
4.107509291771193477e-02
2.027617752758225367e-01
2.352598039562215082e-01
1.751826900689351374e-01
1.016774609540322255e-01
-9.388631560080270069e-03
2.881483262541867027e-02
-6.569188886874134659e-02
1.145397953384749701e-01
-7.318617352764159034e-02
1.871592528608578276e-01
1.410341020820894409e-01
-6.324278627339918746e-02
1.639502707428005801e-01
-1.702080484852913633e-02
1.311342255112861455e-01
7.144769004852555283e-02
1.460967990582058562e-01
1.470007290421946056e-01
7.822404634577191651e-02
-3.018784205895539210e-02
2.207065621818140866e-01
1.548385318728055515e-01
-1.918423607392842276e-02
-7.304783928132439416e-03
1.113787859972799610e-01
-2.577086939994329903e-03
1.763657355124527149e-01
2.047445707104235749e-02
2.601997865474337326e-02
-1.375739589106629579e-01
-1.953659593404909467e-01
1.805876302519018872e-01
-9.910075450909169859e-02
1.907185384332747702e-01
7.666395172643378220e-02
-3.521430471135728046e-02
-1.163366452246184374e-01
1.848467267206989895e-01
1.199811408682713298e-01
-1.419360188961641678e-01
1.693725498456788436e-01
-8.422980973041607755e-02
-9.380219549636184193e-03
2.367397639897389494e-02
-1.698369472942460462e-02
-2.048305558231418577e-01
-5.444457185648941128e-02
5.693249961701961348e-02
1.017255453305992846e-01
-1.355514548581351897e-02
8.534106249110229303e-02
1.802665817097603707e-01
-8.054856571703782053e-02
5.173036774848686209e-02
-1.334503678475530974e-01
-1.317521624999996588e-01
-1.799526256459319795e-01
6.316440257201524910e-02
2.369813965721879676e-02
-5.011480914209148069e-02
2.670845710425110223e-02
-5.659138530065516842e-02
3.855001489000863674e-02
6.987961654728209147e-03
-8.206240868028222279e-02
-1.165324927490396928e-01
2.250854400687235524e-01
-2.063946294720516317e-03
-1.990088540288365293e-01
-1.330403777421401146e-01
1.749971482245299415e-01
8.639417274334425245e-02
-9.205556517296148433e-02
-1.022133816410364243e-01
1.857323167710486500e-01
1.191431559691050329e-01
1.241914155523396041e-01
1.010907261685929232e-01
6.891410220396697317e-02
-6.782337596868492913e-02
-1.842130822374443144e-01
-2.827335917506356572e-02
-1.540996342884594361e-01
-1.482356983794142491e-01
5.684183274005426278e-02
-1.256933979756658104e-02
1.460093267209002475e-02
9.658287628712344808e-02
1.813125509049125228e-01
5.180046436266299431e-02
-9.010319566349908604e-02
-8.663248655952524024e-02
1.080712664500903808e-01
1.514092625291593719e-01
3.934879531329834451e-02
-5.344345943946778726e-02
7.303898140670456174e-02
4.519298294518044740e-02
1.092678853406180289e-01
1.761470698059293405e-01
6.363370370500699702e-02
2.300078169442540676e-01
1.394411069800391423e-01
2.699926143187562910e-02
-8.915770553303427326e-03
-2.206389752039523543e-03
3.277130770644269553e-02
-1.005063737675291891e-01
2.304664814639483250e-01
-3.191959361267215911e-02
-1.074710447741685504e-01
-4.429674830284918013e-02
8.119014953171156679e-02
1.607155827867956799e-01
-1.782362462755158472e-01
2.116132776989111952e-01
-7.318386521608380435e-02
-1.134055002605912771e-01
-4.042502757417749670e-01
5.324740847326081550e-02
-1.441427551147880619e-02
-4.318299669411283098e-02
5.177874201437351193e-02
1.064202128018870708e-02
-5.181322568165881715e-02
4.182702658396086348e-01
1.547491240938902168e-01
-9.040256525384232633e-03
-3.450731631757221474e-02
-8.785491458696226275e-02
6.561801000807117312e-02
-4.183997689256814881e-03
-2.189172901585783038e-01
-9.254025798896906019e-02
2.059304104173766484e-02
-1.054569227948269489e-01
-5.484495885958572126e-02
5.055900599665748285e-02
-1.115395006415689089e-01
-1.696594505460798930e-01
-3.793251456286815537e-02
-1.170299176494322829e-01
1.194129743902913043e-01
1.961027464336712045e-01
-1.286609187284993849e-01
1.898476394004349199e-01
8.268358443191910212e-02
-9.784727527261430358e-02
-3.524415323330392334e-03
1.787249270616358132e-01
7.020392015990248313e-02
2.432978738215508391e-02
4.829220577426285299e-02
6.317226519726375222e-02
1.879314078944078481e-01
1.537622636979556756e-01
1.173848222588111667e-01
2.571461036083096726e-03
2.514379148098703620e-03
4.717255051765746610e-02
7.794704540225255718e-02
-1.925089941381510628e-01
7.840666685712513462e-02
-3.797855905294797441e-02
3.982277929144553696e-01
9.020193732008222054e-02
-1.741538114989159974e-02
2.004382678633982728e-01
-9.316090603940757608e-02
-8.619517468054752052e-02
3.747553248480885169e-02
-1.577500380327226948e-01
-5.029362268663913060e-03
1.783631283299067227e-01
1.002294692962218091e-02
-1.250315588599211492e-01
-1.078591121473314179e-01
4.938145511870716681e-02
6.077998329642121667e-02
-1.730721635514233248e-01
1.136119850539257098e-01
1.342315830989983527e-01
-9.787822044057174764e-02
-4.376953155425584996e-02
-1.204511147472244748e-01
1.975789555359276362e-01
-1.805917028315685569e-01
8.831994847434973539e-02
3.358400186229751339e-02
4.087434023603044725e-02
2.043037067831898757e-01
-1.336826221601533637e-01
-5.452753778334381435e-02
1.057621640769633442e-01
-3.391397900838662161e-02
-4.711344607138240846e-03
7.043254026777416577e-02
1.459067882846510900e-01
-6.073076027696804047e-02
8.670421657935926951e-02
-1.419704864210804829e-01
-2.350082071885563617e-01
5.959259570874863438e-02
-1.239537823053930149e-01
-1.148863740056998428e-01
-1.410338932186100402e-01
1.294979691506392694e-01
5.059670474271692198e-02
1.447079771700432727e-01
-1.164109807767856608e-01
9.944560316305910141e-02
5.756160984369359385e-02
-1.437084973482463390e-01
-3.018006307543511998e-02
-1.801498096632417611e-01
-2.683426113047211459e-01
1.480653962706320048e-02
4.186072875428329537e-02
1.791981103329290670e-01
1.860091214968314505e-02
1.999657178699810467e-01
2.102878001959427590e-01
1.507113564697465380e-01
-1.185564214503054548e-01
3.286341602180238297e-01
-1.117221204284503666e-01
8.468968073988769607e-02
-2.017464988746426463e-02
-3.543442920234164684e-02
-8.866956903900125031e-02
-2.657806467888491064e-01
1.001253523268434142e-01
-8.607661705981929645e-02
-9.308039993459325812e-03
1.672665136597285274e-01
1.031866951482348638e-01
-1.089559910726571462e-01
-9.411613742913846337e-02
9.192988610710661757e-03
-1.658904172199243965e-01
2.637355978262408418e-01
2.373219952801265686e-02
1.130942636779895538e-01
1.322159003998208959e-01
-1.382862470905830699e-01
-1.363896452192778740e-02
-7.418705670834199219e-03
1.025900495103796717e-01
1.228006470987114268e-01
-6.395735560928224317e-02
2.325220446647977002e-02
-9.543867704256812912e-02
2.561680594390598475e-01
2.218181243394109214e-01
1.463819037011377007e-02
-5.943237947894845080e-02
-1.077324732903457150e-01
-2.146648957300013871e-01
4.177453293739219475e-02
2.856932715310385729e-01
1.042674738846828125e-01
-1.303583395705259218e-01
-7.112096693832903327e-02
1.558636001591423292e-01
1.679532781028247532e-02
1.078067789719753533e-01
-2.067248299194557326e-01
1.049724445311109033e-01
-2.356913148211947640e-02
-8.061220864446982937e-02
-7.789088755387846286e-02
-3.280334207044598854e-02
1.574341902959140727e-01
1.283434698125149598e-01
-1.025985898655108752e-02
9.817387123760577816e-02
7.871260477405180034e-02
1.049891699912506443e-01
-9.039003570070817950e-02
1.518772690013809323e-01
-1.208331255711301983e-01
-1.171602665774099383e-01
1.597005284787727519e-01
1.257046428531257976e-01
-2.242346731811274696e-01
2.419823617898418378e-01
2.564113174355014957e-01
-5.061460554365326131e-02
2.543162972235698538e-01
-1.050371079221183584e-01
4.634691020265713918e-02
1.646084186631246171e-01
2.966794803477334694e-02
2.119808961869383279e-01
2.024670815234607957e-01
4.773231833510747230e-02
-4.420250041022018989e-02
-1.886070704036660328e-01
-5.968570499306365823e-02
-1.363278239136025138e-01
-9.802985602436183055e-02
1.777637766093225977e-02
1.566252917823256763e-01
-1.400953235219052073e-01
-1.479641231616214414e-01
-1.025397023767515015e-01
3.713426071101175868e-02
-1.074623640811837449e-01
-1.947829735770534310e-02
1.019242351689809978e-01
-2.498816079244040381e-02
3.256636135049983949e-01
-8.673039340867744196e-02
2.694122187290748371e-01
1.033042118129632453e-01
3.349637196720718635e-02
-3.062545544947347514e-02
3.001090197677373783e-02
2.805586638963795260e-02
1.040854222750979205e-02
-4.294552177938964349e-02
2.790162487027270100e-01
-2.092639621297260888e-01
-1.949350070294722514e-02
-6.546635318069990439e-02
4.202656279348036816e-02
4.014887188362839532e-02
-2.503189336781635466e-01
-1.478234466546955173e-01
-1.672877737270291043e-01
-9.605494765060257345e-02
-2.486518023593208351e-02
1.948854954830933975e-02
-4.262751053001287427e-02
-2.341724925887289470e-03
-2.982970051090672969e-05
1.652025039230659575e-01
4.813449147618886759e-02
1.258752624430599376e-01
1.324636992162978033e-01
-1.461813630910284434e-01
-8.391893248803135308e-02
3.958398713384557455e-02
-1.797798254694789322e-02
-1.214879449343267276e-01
-1.436416190652691459e-02
-7.780880346579661933e-02
-2.616896689123976699e-03
7.191029520406551356e-02
-1.620267593765803704e-01
3.296066929943253787e-01
-6.377732401430059872e-02
2.529692869628437715e-02
8.964254154352242093e-05
2.728633596691211194e-01
1.174086934615346384e-01
4.797844146054884573e-02
-4.834758388649165045e-02
-2.348337414563750614e-01
6.323253095598194151e-02
5.849942292795206472e-02
-7.657174179726390639e-02
-1.940444667668894396e-01
4.244559022191161241e-02
-1.063019484215900201e-01
1.176335490493590485e-01
-6.520256533967837276e-02
1.081301615759049650e-01
1.588552184269433620e-01
1.415867716160603973e-01
3.632207303955998102e-03
-2.745789683897182365e-01
-9.869737758797428318e-02
-9.864487008587652372e-02
1.741508427818646426e-02
1.129119373317400837e-01
-3.300025404460994738e-02
1.114290852154074980e-02
-4.155615302775900362e-03
-8.343049258693274739e-02
2.373606724888547084e-03
4.746218283662752106e-03
2.526988590763248194e-02
-7.843858249040118469e-02
-1.128825186897539634e-01
1.700944633417366403e-01
7.761921536391468146e-02
-1.336500701462471630e-01
9.093846293966462158e-02
8.117940234132109412e-02
4.403137294228560289e-02
-6.893737193909897643e-02
1.496015144535197683e-01
2.733008404647244705e-01
-1.515884650146622770e-01
1.162039063113298049e-01
-2.986615225572367398e-03
-1.410412734742987340e-01
2.305550853747070916e-01
-9.922624816357498989e-02
6.001250010004588464e-02
1.131159906163270862e-01
1.097757189783351989e-01
-1.211354944201466083e-01
2.563036498576944378e-01
5.807177507195702276e-02
2.234207681321126460e-01
-1.519947116214290517e-01
-2.653847006150267598e-02
-1.148126405316886589e-01
1.950065290523106953e-01
8.975069158479064002e-02
-3.797499462553466376e-02
-1.228657326529868504e-01
-4.321916587630372092e-02
-2.972769648499979378e-01
3.131520957623164930e-02
-1.294239354182760704e-01
1.216926965384188541e-01
-2.034590212035570778e-01
-1.741663128598686938e-01
-1.304461099540314521e-02
-1.909010382829455788e-01
1.134878593770309307e-01
-9.366068182856127078e-02
7.960543534142769384e-02
-2.062010994034974010e-02
-4.202565302327114505e-02
-1.355023941583560487e-01
5.951327182483799605e-02
-3.830901250211127262e-02
-3.318301334729652219e-02
2.984802932572271431e-02
2.203384498506995026e-01
3.205592275777413569e-02
-7.368341086143306851e-02
1.633189008100458528e-01
1.198427122029619048e-02
-3.075095350414458646e-03
-1.079955176842361253e-01
1.298114342058379334e-01
-1.839464888696899503e-01
7.398686946936433584e-02
-1.095533184511247593e-01
1.480617822998242517e-01
8.580682955259355538e-02
1.339532046947780330e-01
-1.701089704297663041e-01
1.841893544245918127e-02
4.506200157154380270e-02
7.789839075356867759e-02
6.006853308276321069e-04
-3.389372919084709251e-02
3.194702413531397278e-02
1.391333529119239687e-01
-9.415987475669959639e-02
-4.188352977947628480e-02
-2.528939817550106550e-01
1.622497384971395007e-01
2.949018686652080667e-01
1.918342606652143068e-01
1.151455920148951595e-01
-2.048341804442507796e-01
2.120586834972046364e-01
8.033253525899708425e-02
-1.088737916291056540e-01
1.750684462872247049e-01
1.074974873808234033e-01
-2.644038605012837689e-02
-5.169279612398534202e-02
2.306261302717132200e-01
1.146505535266144626e-01
1.981329171602848327e-02
2.050596172309231968e-01
-8.665845534690512497e-02
-1.591728996512822014e-01
9.514887294618395996e-02
2.264042584861480356e-01
-2.557113691550735313e-01
-1.835930220377701358e-02
-3.982207449226979334e-02
2.250045707015103369e-01
1.270672354352423983e-01
2.207251422456039669e-01
-2.952643455985603516e-01
-8.105030938425132614e-02
4.645896348021977262e-02
1.021579210346381245e-01
1.279830508413112855e-01
-2.704545531585811347e-01
4.630692227769041963e-02
-5.719179902806120763e-02
-1.088198001189971814e-01
-7.822514344516501295e-02
3.690884174716069915e-02
2.084314704879056401e-01
5.175330930887969694e-02
2.404390600075840406e-02
6.821512549890415555e-02
-2.180097561669116016e-02
-7.640551171232983938e-04
-7.759699390686325415e-02
5.275642234789843649e-02
1.642765719267833824e-01
1.559131329840860725e-01
7.352176639494106825e-02
6.201992700282367432e-02
-1.637569508123345452e-01
6.303023040901005458e-02
-8.218161213692186384e-02
-3.550137286952460142e-02
1.156976172656563051e-01
-9.111922616079512482e-02
-2.046205445054746774e-02
-5.539600099883491835e-02
4.965189132046318732e-02
8.222778880915007638e-02
-8.569389259832330130e-02
-7.410360443817899656e-02
1.569155535079647390e-01
6.341450798238390529e-03
-1.305680113711809587e-01
2.074800436163628733e-02
-1.603034547650410424e-01
-1.498022763224679012e-02
-1.056487849591216804e-01
-5.992375923706306368e-02
-2.429301290680421777e-02
-2.200808431649287633e-01
4.403016908729184831e-01
-1.105096490861490026e-02
-6.665812750804685216e-02
-1.148688333977434944e-01
2.532344379617726959e-01
1.993065800825195577e-01
2.666371623759010157e-01
8.603139204609469570e-02
-1.885382564794941540e-01
-3.192054606087753321e-02
2.010962952415188687e-01
-6.879432070977192781e-02
-3.344544539682264145e-02
6.297232280936164439e-02
-2.053557050228415615e-01
-1.041949894390675410e-02
1.003203583251151138e-01
2.943783642269415801e-01
-3.090636367418649888e-01
1.495130848080336756e-02
1.398072147366410944e-01
1.526129739029391530e-01
9.148791951968310299e-02
2.606896204056777244e-01
1.346784437324401694e-02
-1.690067804874370930e-02
-9.405332873729323195e-02
-2.152696855643623230e-01
2.558059071164123927e-02
-1.454073553054913703e-01
-1.868871763972456135e-01
8.100901362521566174e-02
2.250653190304082937e-02
4.759908326423120672e-02
1.649701625504265967e-01
2.401296713863183274e-01
1.423092682301642931e-01
-1.752398541006717492e-01
1.165175347459047051e-01
9.667884967425495468e-02
6.802389093035468570e-02
-3.622799568079289045e-01
2.479464056214139844e-01
2.051589209611160147e-01
7.251177965030845829e-02
1.690286444716847802e-01
2.027792239508069694e-01
-1.483004235324713316e-01
-3.174556514052812722e-02
-6.233104253159086477e-02
-1.958739259199406002e-01
-4.892675199490127691e-02
-1.431128968215355790e-01
6.669601227984669166e-03
-2.389236852567230285e-01
-5.081827865099795838e-02
8.098656982640795032e-02
5.770126109684092786e-02
8.119255109029006878e-03
-3.500174580238230582e-01
1.332415586421301090e-01
2.657900709349442225e-01
5.673758589721679792e-04
-1.659314913150349013e-01
-2.772426141566980418e-01
-4.390117266613827868e-02
-1.409271977426678757e-01
2.007512091480446181e-01
1.085127856160876952e-01
-2.137968934844741153e-01
7.823978499248131213e-02
-3.506555243151802947e-02
-3.702095008247561353e-02
-2.653077819984721655e-02
1.494865143644903416e-01
-1.537833446881916276e-02
-1.249738057448610690e-02
-1.572711262668356064e-02
1.090852880024077987e-01
-1.118131348844868950e-02
9.430080553940682619e-02
1.854784613356761920e-04
1.375753011251246161e-02
-5.256334993764151531e-02
-4.118614639314190778e-02
-1.306271245689814287e-01
6.134353690429995148e-02
2.382426302433332879e-02
-1.089566236628229101e-01
4.095477526724566192e-02
3.029614735142782331e-02
-1.670878691378771888e-02
-6.588443651796599410e-02
2.472332941939892059e-02
1.251960198127824789e-02
1.152102379052801981e-02
-5.419881823309510502e-03
-3.284058294194477923e-02
8.777892863512536462e-03
-7.600942856094586308e-02
-1.014815109996185412e-02
4.997376635636563424e-02
-7.016458463723397598e-02
-2.055891194547374706e-02
-1.193088312846934812e-01
2.921454100527732037e-02
-3.970750956778995588e-02
-6.389868417677357915e-02
-3.171417485025286587e-02
-9.972239013545576569e-02
3.500385933872179195e-02
-6.286201367518379213e-02
-9.047567608319435906e-03
3.619102530480455913e-03
-9.082039741856870463e-02
2.868779617421176806e-02
-2.324815483464201527e-02
-1.430652153402359739e-01
4.916384971952953223e-03
-6.210307101539390418e-02
5.327725697089764206e-02
-5.358065576329205243e-02
-1.433610270625273186e-01
1.071345549719138722e-03
-7.801890774002233353e-02
-7.262522374083493770e-02
1.065198222302193992e-01
-1.826182427285167609e-01
-2.420229318120868389e-01
-1.029581443938826918e-01
-9.993485161587697951e-02
-1.858169964183902234e-01
-1.227954796580427582e-01
3.039519592399266834e-01
-1.345229005221257497e-02
-1.666683818223562707e-01
5.295250380642559096e-02
-9.893311011823650858e-02
9.551906158964929006e-02
-3.644562679918020853e-01
5.742190973507838025e-02
-1.240107961355483013e-01
5.038656407947179894e-02
-9.213137191457822228e-02
-1.382449694838402410e-01
-3.084702228250351189e-02
-3.464431753299322958e-01
-2.285353623031005366e-01
9.453811452624708012e-02
6.252546657501792393e-02
-1.282280127401624614e-01
-7.275814360398492886e-02
1.800873678490447771e-01
-2.506368991039204311e-02
-1.241381778108278794e-01
1.900939716875648111e-01
-2.936745749525921517e-02
2.699463521103998009e-01
8.449779444838793896e-02
-1.710977048814002477e-01
-1.254670096948569957e-01
-1.956575507874582787e-01
-1.083418004638961318e-01
-1.223427519487612671e-03
-1.697420177541058284e-01
-2.281565574852889577e-01
6.586619976367068252e-02
8.523350605087093301e-02
-5.797239234030514277e-02
-1.198225053028114800e-01
1.656107071811325354e-02
-1.490819863020758917e-01
-1.904108367076567877e-04
5.380831592370157596e-02
4.763785582555711551e-02
1.971067482011898964e-01
1.927763624394529529e-02
1.097056495594555536e-01
-1.023329102010541725e-01
-2.338861244042355833e-02
2.508407796816303562e-02
-1.788297179292354655e-01
-1.195610526793096651e-01
-3.233014053047288811e-02
1.495963662704032082e-01
8.908440470112456711e-02
-1.623441982355419144e-01
-3.032369662729526502e-02
1.023303466236717696e-01
-1.484945249382727261e-01
5.203528336179648155e-03
1.863869816686294367e-01
-2.256762568164207700e-02
-2.116125649777659268e-01
-9.446547776445454389e-03
-3.436103821996995267e-01
-6.624340891908266082e-02
-1.444488969947666512e-01
2.173388270854295090e-01
3.037343808477065976e-01
-7.995854522489308225e-02
-5.026638609955622061e-02
2.974716879444566295e-02
-4.899386512483993456e-02
-2.330984528794198540e-01
-6.246349632501723564e-02
1.634381606277065038e-02
2.287692651963827151e-01
1.271358156908089510e-01
2.329616518986854512e-02
2.085195566935621470e-01
-1.063217556908088862e-01
2.593378077715067231e-01
1.260188295774080092e-01
1.245718078582991190e-01
-5.936244133896942388e-02
-2.865984866745716411e-02
5.602173880112891469e-02
1.094176511124081985e-01
-7.252689910831561226e-02
-5.084391052920367304e-02
-1.384922438736245209e-01
-9.938449744250434092e-02
8.005562395729881597e-02
-1.795122846691800944e-01
-1.574903005531490263e-01
4.523171403810075097e-03
-1.683731772997202891e-01
9.172162015289156423e-02
6.201898653504397257e-02
-1.233626882150101189e-01
-2.975120580387425329e-01
-2.749129468255081532e-01
7.321368119781582195e-02
-3.021197108939847192e-02
8.624407901304280422e-02
-1.142805121023589832e-01
-8.395334700873070821e-02
1.596540382401495095e-01
2.063120072646767722e-01
-2.313390386615611638e-02
-3.337083206947363823e-02
2.896208947375100151e-01
-5.355557246598018767e-02
4.479149538969467992e-02
5.327898708068538186e-02
1.226572654594071110e-01
6.611864824223687154e-02
-7.092768878595785698e-02
-2.004252855415621648e-01
1.562417144036165328e-01
-1.538957284634566713e-01
7.456137396203660339e-02
5.626320955343281499e-02
-9.419154832188660065e-02
6.569077657437927265e-02
2.475901582525524003e-01
-7.269899742404119757e-03
1.202395388491921402e-01
-1.080427774928754553e-01
-4.791407192591410832e-03
-2.254434785814585576e-02
1.557528734695652894e-01
-1.384260096699560343e-02
-3.891212315115447629e-01
-2.639416813653226723e-03
9.298637820929026021e-02
-1.218979932221556511e-01
-2.418928954092139094e-01
3.008414132411821318e-01
6.879450034316775611e-03
-3.501708379307867380e-01
-2.020658358076320507e-02
1.767588762334209029e-01
-1.521603086012377481e-01
-2.317814237884535111e-01
1.371464602389150036e-02
2.449287437622046926e-02
-6.802876318999051541e-02
-1.437802055266129420e-01
-8.503804279003567002e-02
-1.294780196187549914e-01
2.295081499635086009e-01
3.849126770057282321e-01
-3.003417837093410800e-02
-1.546771462451969163e-02
-3.549030035726334631e-02
-1.543462411628206965e-01
2.049869202374013932e-01
-2.876269705318608150e-01
-2.544446519057859055e-02
-1.543610997104710170e-01
1.633764210167932829e-01
-2.942362897696100821e-01
-5.348430295032316484e-02
8.768263026745018451e-02
1.523724364192238778e-01
8.440999646210359253e-02
3.046483435328058431e-01
-8.466170972218939328e-02
-2.970825135810300013e-02
1.535012516567463015e-01
3.795695630748842364e-02
1.098543671133051375e-01
-7.815562235100508015e-02
7.445857359864237190e-02
-3.368577792834966111e-02
2.493726070581625542e-01
-1.248050182044395801e-01
4.968498847063418378e-02
-1.747218862394031014e-01
-1.374753149170514221e-01
-1.727973043492430361e-01
9.639169551457439644e-02
1.092140304993376720e-01
1.277141362028532956e-01
-1.173249932990295813e-01
1.213136993908164180e-01
-1.320204525125419637e-01
2.876942263134836808e-01
2.622849568688981892e-01
1.144788046797548184e-02
2.625713382965123022e-01
2.175471168865479241e-02
1.224550030298183489e-01
-2.014110007900316024e-02
9.357094325637023424e-02
1.922266337222011956e-01
-1.281336420691547295e-01
1.846209105277840934e-01
1.675376635157579674e-01
9.796296615414755438e-02
1.079502801806427742e-01
-1.534949832237777756e-01
1.912926797813409019e-01
5.043909402393978447e-03
-7.497717844525354780e-02
1.455591756994617514e-01
-2.748451800314241078e-01
-1.725889000779005922e-01
5.491790360907228968e-02
-4.333771948220883040e-03
-1.038514791523653946e-01
1.334924036394138647e-01
2.762946055729415540e-01
6.545426631782191862e-02
-1.634899769751345378e-01
5.923422872108147219e-02
-2.627882934308843899e-01
-1.301188671358498306e-01
-2.636945080595060054e-02
2.319694329254800777e-02
-6.701408690161301217e-03
5.857055806664229758e-02
3.109945815406723116e-02
-1.871498888587997955e-01
-8.632317291310000196e-02
-7.250114363572332521e-02
2.011684285349699397e-01
1.739503640349481239e-01
-2.222682392501257667e-02
2.818196588992296636e-01
1.032702477869051894e-01
-7.090792459618744381e-02
1.378330063744400424e-01
-3.048742353555846663e-01
4.613559219501311287e-02
2.004991658817174005e-01
1.425976581878926897e-01
-1.484559588332359965e-02
-7.058128857223332220e-02
-2.050421461714838078e-01
-2.395347826659939561e-02
-1.312155063589921233e-01
3.927268169482858035e-02
-1.780130117807769349e-02
-6.453111230230225426e-02
1.148708054468102445e-02
-5.795895607645080994e-02
-8.020536802827851752e-02
-9.813892320959162474e-02
-5.049932484186357706e-02
-4.342872954778208977e-02
-9.619727519602856713e-02
3.046652922834406918e-01
2.159721844807760693e-01
-5.306026740650247875e-03
3.658758424675894183e-01
-1.806900104821166642e-01
6.687108384914459969e-02
5.924933250482369851e-02
-7.442555848075096958e-02
-1.935258023673754879e-01
-8.031432573916297279e-02
5.235261418565387986e-02
2.286515189328167802e-02
2.322210853994702562e-01
1.998620032911430366e-01
-5.725353804932636209e-02
4.616083619913152747e-02
1.701363261641673785e-01
7.292121854786980106e-02
9.753511722291600960e-02
1.168383401895999457e-01
-1.575391697378601963e-01
-2.039398043286265103e-02
1.048261041976394081e-01
3.638752988052726400e-01
-1.419469871304478992e-01
3.974753459525033616e-03
3.196059741664332432e-02
-2.918037079616701140e-02
4.861848343863270361e-02
-2.885216465552509768e-01
-1.835505327074494764e-01
2.722158630961084985e-02
9.788327862822535086e-02
2.094041082780076779e-01
1.562339737651842198e-01
6.025954549138196753e-03
-4.582856498695039860e-02
2.051907212961475713e-01
1.889013939222375718e-02
-6.229607506483106349e-02
1.367634413534614679e-01
1.111980699077282225e-01
7.192558557669692654e-02
1.055553504647188251e-01
1.171554022914545468e-01
1.257728243311737604e-01
2.187596672311588331e-01
7.880314946782299157e-02
1.336825081556626549e-01
5.851528866698203594e-03
-2.054889845400881612e-02
-2.368598861866187677e-02
-1.197600946154420143e-02
-9.563149601502436703e-02
-2.680653136129373948e-01
1.046023658261927697e-01
1.711762023617898754e-01
1.980692125571250628e-01
2.032681024641386225e-02
3.158988222067238977e-02
-2.273489318787330904e-01
9.287337189202189702e-02
2.095369475940827286e-01
6.488765618884270725e-02
-7.491304854471824738e-03
-2.444657362324468564e-01
-5.766251021678087119e-02
9.956450070803295194e-02
-7.789551761816429498e-02
2.040766869815243412e-01
2.354367656539981812e-01
1.148306416999499702e-01
-6.104689360980372625e-02
-6.904352344352344961e-02
-3.387231695749974569e-02
7.641902518961561641e-02
6.236658075523731498e-02
6.187936723937419864e-02
1.957465086182034741e-01
-9.580006930319340253e-02
-2.597900750324348002e-02
-2.381912405234372018e-02
-1.309656480478736847e-03
2.857329468867622971e-02
1.887900384666947873e-01
-1.553413767006274482e-01
-1.104366530751163117e-01
-5.281174942699919800e-02
7.297681924595647573e-02
1.305171381161120969e-01
-8.711431793373963783e-02
2.531696269727281012e-01
-4.343496058262514420e-02
4.408651775231407499e-01
2.498539188480204953e-01
5.946847913859151097e-02
2.001546264147321397e-01
-1.688907288409293439e-01
-6.415043139287628093e-02
1.101174602763657778e-01
1.556771456794323050e-01
6.392858318265502715e-02
-1.906217946771530947e-01
-2.769895232085563264e-02
3.129968328546174350e-01
6.491631397834543571e-02
2.730178173364911087e-02
-3.086051281452837913e-01
6.995441181561335223e-03
2.818813772538095175e-01
1.406759499770600559e-02
-1.376908616760127158e-01
-1.453231332612235360e-01
-5.515383981136258440e-02
-7.586391204066747496e-02
-1.480353752079409174e-03
-2.906911613696632757e-01
3.392495123927399738e-03
2.162366663748541973e-01
2.454739949872956559e-02
-5.503302361755211397e-02
-3.425745854707508142e-01
-1.950834023395553174e-01
1.358415777975989502e-02
-1.755584300322821653e-03
-2.514000806779551414e-02
-1.614634804075202323e-01
-1.143883167821204833e-01
7.460210664851621432e-02
1.856212138540099810e-01
-1.784585360840195700e-01
1.441977587131529348e-01
-2.346435328436329848e-01
-9.954507265340156730e-02
-1.208447863638142245e-01
-4.053231823603160033e-01
-3.407791139316486140e-01
3.278463827841144318e-01
-2.411586531139650047e-01
4.503913039686881226e-02
1.864749768070338432e-01
-7.221645458938628914e-02
1.272976709677833551e-01
2.970652578501734725e-02
7.243401067209989663e-02
2.597628440526461580e-01
2.382883636666882632e-01
-2.764957382561334387e-01
-3.037651710162376784e-01
-1.029825213921649746e-01
1.151318189723660092e-03
4.677377427675392940e-02
-1.877319673566577862e-01
-2.893195924542413949e-02
-3.199302935611333856e-03
-1.048168452261505068e-01
1.411603624976817128e-01
-9.669261501384224244e-02
1.249205967249542859e-01
5.509508823551537496e-03
3.447664536488675990e-02
-1.519769879422048497e-01
-6.188150582381393705e-02
8.837732465618064470e-02
-2.890968934721049530e-02
3.043911450589836115e-02
1.351849710047186293e-01
-2.471268835997515456e-01
2.205890785071695503e-01
-1.017557911923826636e-01
1.678981411338650864e-01
1.818294748952403173e-01
7.503671183171839454e-02
-2.778449790825863741e-01
1.693952723003862848e-01
-7.031124201652941275e-02
-3.148718762187024955e-02
1.467875011562909740e-02
1.092420219835664591e-01
9.144857327999161845e-03
-9.290215668835029306e-02
4.244597929118502921e-02
3.950389340291390189e-02
-1.214742248955066189e-01
2.012611798289487119e-03
-1.302187460346515280e-01
-8.351437030206286527e-02
-2.100557663031019928e-01
3.463444728842334647e-02
-5.547701983013302723e-02
-3.735344520818916769e-01
-7.811264240375892509e-02
5.185106215346722142e-02
-4.024898548666855369e-02
1.108047373435838562e-01
-1.422248004386642839e-01
8.757532842071294454e-02
1.978482488316172724e-02
5.912356552268915877e-02
6.758509177033696080e-02
-1.226779888699450942e-03
1.821293923824119088e-01
-1.652889308129363438e-02
3.840133908289938280e-01
-2.053979830312209764e-01
1.525206233880908868e-01
1.320109794178132845e-01
6.498969077287529081e-03
-2.348340766225283371e-01
-2.023052958597574835e-01
-1.452799734405335608e-01
8.865670756157553734e-02
-1.045947129484346150e-01
2.162325646847715888e-01
8.811077615223662785e-02
6.825124888477562823e-02
2.175869182430557047e-01
1.578585922309166112e-01
-3.100117572459323845e-01
2.985032587846995766e-01
-1.346119176059774880e-01
-4.394827457879311311e-02
2.414176981945846956e-01
-2.436774183782559194e-02
-8.159920811077729652e-02
9.622564610642861394e-02
1.856856329309764242e-01
3.960971404643200827e-02
3.541723401788748199e-02
2.238511619983338807e-01
1.908452305273579744e-02
-2.863610041921854817e-03
3.698530114933818586e-02
-5.430981877893471810e-02
-1.175126267273764735e-01
1.340127258040517064e-02
2.060322743471497131e-01
2.082400112915727963e-01
-1.966298697795652861e-01
6.575348205750534969e-02
-5.733302803159909256e-02
2.250022418929407408e-01
3.414739701253667603e-02
1.504991367624604615e-01
1.856558695716682087e-03
1.706032917939633298e-01
4.420682431697684628e-02
9.839856179300758565e-02
1.536723610674027296e-01
-9.365445499865317214e-02
-4.257053558936958575e-03
9.947331034601672450e-02
3.924197397972779555e-01
1.141909381755850800e-01
-1.189680578476948235e-03
1.632569160722437823e-02
-1.010603840054783015e-01
1.370825058033566801e-01
-1.980768173313017088e-03
-1.088276873926162652e-01
1.545406735320268010e-01
-5.492543315890043715e-02
2.824674838509890762e-01
-5.388804733739621655e-03
4.437971228117488197e-03
1.456399119775820816e-01
1.435337607755411346e-02
-1.786571325435384605e-01
1.234302256574172502e-01
-1.738357240518585423e-01
4.634815987718687857e-02
-3.761181317049439032e-02
3.117346117562072583e-01
7.363775308139375309e-02
-2.847618051377496240e-01
-7.480546374620575256e-02
-2.080667453009730217e-01
-1.345191141214547859e-01
-1.365582132819172234e-01
-1.108250271000209841e-01
1.861465644640305783e-01
-2.551717593892566596e-02
-9.662738186297839538e-02
5.790642152168994777e-02
5.789371833800082551e-02
-5.337114198173537050e-02
-1.636282272863154030e-01
8.710836328113243099e-02
2.640431890589137881e-02
-2.355435977340127052e-02
-3.217242832446078060e-02
9.662642867147468173e-02
1.670860384081775951e-01
-3.624616181804766329e-02
-6.520545269951243117e-02
1.992652212191456662e-01
1.905258352370869379e-01
-2.098762329965744577e-01
3.055023387677454141e-02
3.698966379976229707e-02
-1.415724769189616039e-01
-5.722204613611830970e-02
-3.154492809419778832e-01
-8.368666454982494340e-02
2.951947920883313814e-01
-1.227278879590389463e-02
1.059396716927636824e-02
-2.886975446825399208e-02
-2.260569205930680892e-01
9.887335572012458107e-02
-1.626654201249997100e-01
-4.537713396621792517e-02
1.779298470984576053e-01
-1.450360547701277925e-01
-7.655947236826224356e-02
-8.328400393050881811e-02
2.657204150156129985e-01
1.611015867201778251e-01
-2.400139922560596550e-01
-2.254012394157240695e-01
-1.101999396656622512e-02
4.996203376355255743e-02
-5.559441819542431523e-02
-1.925056382914970554e-01
6.610885929034147901e-02
-4.300098517347227672e-02
-1.184296415222912818e-01
1.018787432286708400e-01
-5.731438608244691230e-02
3.674861919860934745e-02
2.704992297356079711e-01
1.880718640360114213e-01
-1.702103176243275479e-02
1.562732924377284449e-01
-9.646092878305226326e-02
-3.042677577663783703e-02
-9.760067788623452700e-02
3.046306662339259286e-01
1.378291146924330857e-01
-1.073891638726216791e-02
1.890969681005459091e-01
1.727364024857946656e-01
6.041393358956911180e-02
1.096717617642044701e-01
3.788076636873779351e-02
-1.492609864093934480e-01
4.154616663249138808e-01
-1.156793321351081011e-01
1.340711225177475263e-01
1.189499744577454492e-02
1.558140883431658186e-01
1.134262562608546743e-01
7.049769875400391239e-02
-1.808861486217417380e-01
-3.064719283854231563e-02
-3.469382641588273919e-01
3.645902182769197863e-02
-6.052393508656680327e-02
3.472618932352048438e-01
-1.112877046113492641e-01
1.264901026442462884e-01
-1.568380872036410911e-01
8.819015121501151688e-02
-1.363592342497059740e-01
-1.185779286106972419e-01
1.293728968629397902e-01
-6.904282428049629550e-02
1.307842580495027773e-01
-1.470859230525184136e-01
2.660473401052329892e-02
-1.872344487652137235e-01
7.161378425064138242e-02
-2.046227881252296044e-01
2.888202051294486150e-01
2.626384141772059588e-01
-2.501749696694364755e-01
1.959301001604756010e-01
-2.148962014671824683e-01
-2.022077423259922013e-01
4.274237831722777631e-02
2.084639951358109589e-01
-1.565731974901173398e-02
1.096529534414487084e-01
2.565937115526364387e-01
-3.527862272464415277e-02
7.318094788818418905e-02
-2.884061213156342562e-01
-1.868781907596273328e-01
9.541695073746075950e-02
7.342605782823069527e-02
-1.289735395833913889e-01
-4.968629713203594721e-04
-2.614635983041746839e-02
-2.301543103986827543e-01
1.555428780323134252e-01
1.610191623925799065e-01
3.678393051080470350e-02
-7.322711051055134923e-02
-1.076550840832686401e-01
2.289150203709689191e-01
-3.374877542325588897e-01
1.692762320952303501e-01
-6.091924055177859974e-03
-1.648750967083763008e-01
-1.189851956208413802e-01
2.089110190639407397e-03
1.090778007648920411e-01
-2.333587894580564648e-02
-7.723241884937447066e-02
1.423946453310643845e-01
5.413810700395970538e-02
-6.908619349503941631e-02
-2.830744930061233067e-01
7.436269701428993573e-02
1.422814952331372118e-01
-2.781553615719748948e-02
8.484364969256738553e-02
-4.825153504238314725e-03
-2.077010954819732136e-01
1.016853113656897289e-01
-1.960601610330762745e-01
-4.844941052772663848e-02
9.288472382239404412e-02
-9.030706944896116362e-02
1.670029591347788334e-01
-3.021311224478454363e-02
-6.778762379268560290e-02
-6.268344766097463938e-02
-2.350460840185149836e-01
