8.593802458701295388e-02
6.275156009379719846e-01
1.107448205854843160e+00
1.530933226542026793e+00
-1.371370569484643698e-01
1.242567259855371226e-01
-6.367648141631057079e-01
4.031701281514722401e-01
-5.491513150382427710e-01
-4.727714696880997436e-01
3.024812419051146062e-01
1.183283283606850894e-01
-4.586428896536156596e-01
-4.874391071095731665e-01
-7.788482012275358413e-01
-9.992123800733433425e-01
-1.352965071601396119e+00
3.621151895505918521e-03
9.958602119966354360e-01
2.814731464740065636e-01
-9.327045145599338616e-02
-5.740092690124748431e-01
2.267063154492289234e-01
6.658503180402119970e-01
-6.885659780253065021e-01
-2.149056435629409512e-01
5.647984386781259580e-01
1.778387382915551651e-01
9.125449735465239465e-02
1.383060008823534248e-01
6.209626866664464950e-01
-2.023063510006148369e-01
-1.159143275930665518e-01
-1.602058335242331488e-01
8.713534738980219241e-02
7.681496763556494578e-02
-3.124231853298524708e-01
8.861459239063989024e-01
7.629767764079141423e-02
-1.404518592985102510e+00
-2.631068592824266639e-01
-8.802570889518737118e-01
-3.998090297212589794e-01
-4.442828901783530404e-01
-9.273623886299047214e-01
1.980956342555211525e-01
7.451832387821147874e-01
-3.593167127896375601e-01
3.164836250125567796e-01
1.451147301485309904e-01
1.705035951970483299e-01
-3.253486307198180105e-01
-1.696801648911863691e-02
2.881400663966865450e-01
5.017850602000483162e-01
1.800924354499040814e-02
-1.483252635420897747e-01
-9.316173909843521173e-02
5.336234501310338496e-01
-9.476496436427723769e-01
1.724595730615220424e-01
-2.363968279898789188e-02
2.908811616078177953e-01
-8.934619380354974494e-02
1.553450627234284100e-02
2.168596290415746308e-01
6.292434875413756637e-03
3.359031105323161820e-02
9.271513318141572091e-02
-1.878168741195335723e-01
-3.166839652164815666e-01
1.371042758727189677e-02
-1.815943812210661645e-01
-2.856909636603287561e-01
-3.418226929675614867e-02
-1.089856183290864727e-01
-3.652745593174248212e-02
6.513009342618964175e-04
-6.279056544342270785e-02
-1.076906510448684753e-02
2.630577586468089146e-01
-4.015222028062396392e-02
-3.977200737413957854e-01
-4.257285032410141334e-01
1.652668041275553446e-01
9.564789465998652096e-02
5.151818102587761850e-01
1.379951243776602332e-01
-6.538337305978865477e-02
4.451319038568435915e-01
-1.449436573865788835e-01
1.257044301054642821e-01
-7.387182760898304557e-02
-6.494445613394861545e-03
4.957281430734545302e-01
5.967329735620476860e-01
9.002423374923021471e-02
2.601796329270136821e-01
4.754065101413755823e-01
3.910171950788752238e-01
-2.169140759462977186e-01
1.266034050994586657e-01
7.060861666468457587e-01
3.544680810574366708e-02
-1.337888498547251392e-01
1.845075629173484055e-01
2.882851150748935165e-01
2.441431245086980173e-01
3.469948983987243829e-01
7.534416119537808154e-02
4.879758113665551289e-02
1.310071380549275577e-01
2.575841185834317759e-01
2.398437612337499802e-01
8.716004004553761231e-01
1.441809310877450317e-02
5.395513001885182680e-01
-1.871757056306747047e-01
-2.128822949893093355e-02
9.312503872105025449e-02
-3.036244939435195911e-01
-2.348590792879468037e-01
2.311125976519068093e-01
-3.209223588219143330e-01
-2.640198655822550422e-01
1.431249226066202973e-01
3.644999603888145479e-01
3.755490770129141787e-01
-1.681612595656203635e-01
-2.503978217379662641e-01
-3.911318416390769520e-02
-1.518694160054822051e-01
2.694498728104779972e-01
-2.392588557781610836e-01
1.322983261513082320e+00
1.634562532690974658e-03
7.396565921636130136e-01
9.166476292766041756e-02
3.521475610717326732e-01
-1.934280059649078343e-01
-3.125644244638050573e-01
3.695301693371376150e-01
5.049905815626488659e-01
-6.769642617207679569e-01
1.939942505477196544e-01
-4.221427483980665085e-02
-2.283712481351450052e-01
6.851758568398542693e-01
-3.852031342280459181e-01
6.398523755508643829e-01
-2.198979414755714012e-02
2.484855610996560271e-01
4.301378063440573496e-01
-8.847171221309263478e-02
-1.429734442826380569e-01
2.306463903425975681e-01
9.954654850278583933e-03
8.329073752868486336e-02
3.343387641342029371e-01
-4.335086293063604157e-01
1.487178938385191607e-01
-2.883910366576000195e-01
-1.290268191100735762e-01
-1.430080812333791029e-01
4.975540895278326436e-01
-4.070272895232343591e-01
2.457555363490792483e-02
5.745366303421907406e-03
5.670657039237746166e-02
9.240081064628073715e-02
-9.855572654975311431e-02
7.032514080917703914e-02
8.235651791150948309e-02
4.107017649389761715e-02
6.397947189571952242e-02
1.755162475657768284e-01
-4.319388077776513402e-02
-2.303482260769948164e-01
-1.381833856662364468e-01
-3.820312176671578075e-01
-1.294835051884762715e-02
-3.156281196230488750e-01
1.778445154752911483e-01
2.986985195199738929e-01
-1.238389461794992541e-01
-2.128685794131867648e-01
-1.911198224347741559e-01
-1.243804162651664380e-01
3.751430755687250596e-01
-1.530542812216636739e-01
1.071685885423592950e-02
-2.720028115678217451e-01
1.397994198046181580e-01
-1.600194925573303617e-01
-6.145311173157820273e-01
9.291582069665449417e-02
1.489705900586194287e-01
-2.030851848835850959e-01
-9.333695646829770487e-02
-7.204545360988735825e-02
3.022323744869390150e-01
-1.390294653226662180e-01
-5.098767561387831243e-02
3.839006654671350272e-01
-2.824997665828921090e-01
1.616315001849788491e-01
2.061690335344071867e-01
2.877082629391293223e-01
-1.895640784690458824e-01
-6.047451584510480510e-02
1.431971601561544405e-01
1.550572577616700365e-01
-3.498941609112171669e-02
-1.669747591181384716e-01
-1.651237851693264924e-01
2.581665503231172498e-01
-2.576297856443877654e-01
2.642298321296118746e-01
-1.304270089682889322e-01
1.478757600304811681e-01
7.356646151120334320e-02
-7.156867441231766491e-02
3.135320686978802507e-01
1.096389953089611236e-01
-7.979383344131640854e-02
4.421805906334697056e-02
-2.286969579646170037e-01
1.731658541369197890e-01
2.906625250811995659e-02
2.913279291075376864e-01
2.910186618238702061e-01
-2.648293874452042895e-01
1.601193752786468638e-01
-2.325297007378255600e-03
-2.716139413498782074e-01
-2.850194901811612946e-01
2.363164679453636993e-02
-3.857272403355284651e-01
-3.424782874422519496e-01
6.583611864361224031e-01
-2.803118112198751399e-01
3.760464456231688707e-02
3.041206000897693773e-01
1.655738875242117047e-01
-3.847302337185607574e-02
2.216509318623807456e-01
-2.653771913131136584e-01
7.126473492940386782e-03
2.006766481594301765e-01
-2.342286034764631264e-01
-2.063821717260552746e-01
-2.378507796558939659e-03
-5.929737975198422911e-02
-8.316908951016208085e-02
-1.825239052255581487e-02
-1.767223400971654756e-01
-3.799903907918995849e-02
-4.758711262438959644e-02
-3.832510047191472341e-02
2.249046217440915096e-01
6.635007404464760006e-02
-2.060239742964232734e-01
9.672421721633595038e-02
4.363701414869006756e-01
-1.858420307571749183e-02
3.744181863318006287e-01
9.669815072677916123e-02
-1.821740027238277770e-01
1.361393115718060598e-01
-4.606549392905997520e-01
-1.415907529680597056e-02
-4.056629099669382676e-01
-3.494865247693279293e-03
-1.384349842459515756e-01
1.810515730680498647e-01
2.617039543814681513e-01
3.374600547798081718e-01
-9.644142664442497195e-03
-9.440855799884392829e-02
1.144798589285481727e-01
2.177202881570329887e-02
-1.359898774839635449e-01
2.439483364805705712e-02
1.607689117320425243e-01
-6.756846820011766508e-02
4.880067804217877447e-02
2.763560094252874300e-01
1.474006162126879349e-01
-1.727294240037946516e-01
1.535237744036493379e-01
2.399849616661409724e-01
8.931600652849050470e-02
-4.071666311322070797e-01
1.661904829621640711e-01
1.981040409317179896e-01
-1.981175815578237187e-02
2.231188810704779757e-01
-1.780820537808650572e-01
-3.346365637713202834e-02
-2.951959980121456883e-01
3.420712508309337995e-03
-8.870432322347952814e-02
-3.792808381620982805e-04
-1.886815441393864812e-01
2.638849583685867195e-01
3.374146157361226361e-01
-3.476274436876169438e-01
1.761681662482635358e-01
-1.832618867661480041e-03
-2.165273321888906144e-01
-1.764001305157236188e-01
-9.453230994581457436e-02
-1.894092869947287261e-01
3.718944728986758874e-02
-2.058193048498785371e-01
5.091392390237860222e-02
-8.711801505174709970e-02
-5.640625332396570490e-02
1.803884905114186976e-01
3.190749836878134515e-01
2.717119265078479229e-01
-3.256416111244293532e-01
5.290208341245001243e-03
3.776689640023054295e-01
2.315130640119204483e-03
2.664780997848739119e-01
4.372549435506156712e-02
-7.850444189236376047e-02
-1.124693388279250916e-01
-1.363023652473579761e-01
2.720812730362782705e-01
1.647359005816056154e-01
-8.268820227159467962e-03
-9.470385141585008215e-02
-4.553961747881736244e-01
-5.361334386017505699e-02
-1.040684404124625484e-02
-1.562162404398437787e-01
-1.030900223051960107e-01
-2.976247336937921581e-02
-1.047782679346194873e-01
-1.310559392931385791e-01
-2.020174566910035163e-01
2.467744380978783014e-01
2.555615438803205408e-01
-1.886712964446266849e-01
-4.698999654066277065e-01
-2.849390004001127186e-01
1.221262262334047305e-01
-2.968631811685238930e-01
-9.303519646643917951e-02
-2.283056219646182605e-01
-1.032374611391716351e-01
1.331257318697029403e-04
-3.815329708613631188e-01
-1.382402032430287142e-01
8.468432796764929771e-02
2.446348718580212689e-01
-6.244238072110985804e-01
3.263827021947954821e-01
4.894708802920333390e-01
-3.033787482104242650e-01
-1.720141514347405323e-02
2.599680235920347471e-01
-3.035911769840332064e-01
2.257603331205267627e-01
-1.072522852431743584e-01
-5.712504535806299799e-01
-6.055042997276122857e-02
1.593264932704111791e-01
-9.507519038880590800e-02
-2.730764867333623780e-01
-2.399549737967903162e-01
6.180348377496464041e-01
-4.242568422461480138e-01
1.712377920845443990e-01
-1.832672336153093606e-01
4.995229425758366398e-02
-1.455843459196532741e-01
3.571444422338745373e-01
-8.228893521908788034e-02
-1.015528100511204623e-01
-7.412476071534310762e-01
7.275565071097658265e-01
9.191887918963481674e-02
3.128283243369791577e-01
-6.403086870686407195e-02
-1.537394495608763734e-01
1.492222688984798373e-01
-5.849236174126267070e-03
-3.028965361088523656e-01
1.493749411395336735e-01
-7.137153725328149179e-02
4.798328345277433349e-01
-6.227069333383296046e-01
1.603598413500613162e-01
-1.478993352477614154e-01
1.350482099551279271e-02
-1.140189978737689638e-03
-4.404259221365602883e-01
2.386460022344885634e-01
-3.211389932314189788e-01
-4.171627864891736537e-01
2.932576967526950296e-01
-3.982380324841228725e-01
3.011983922694971838e-01
-2.048556589873750389e-01
-1.034743554905920571e-01
2.299023150941580385e-01
-4.362910637412984460e-01
7.258055093753737474e-02
-3.654529346773301990e-01
9.407083955362183225e-02
8.983180753163276522e-02
-2.304433065489182308e-01
4.637452673686086602e-01
4.632581280276360514e-01
3.051924334958156515e-01
-5.579684400230172647e-01
-6.470109082484157281e-02
3.453911032279775029e-01
1.576192761444006607e-01
5.629377550923907458e-01
1.058095203575171034e-01
2.762848670149147257e-01
-2.503983822250772096e-01
-2.644855684388394135e-01
5.417726670012265044e-01
-3.810607317733123722e-02
1.346175183667879527e-01
1.289372616766269741e-01
3.032155004656641450e-01
-1.819401892661417774e-01
1.277164985459429414e-01
2.598110541210659763e-01
-5.860525463516750300e-01
1.912506633189852423e-01
-9.927521138554958047e-02
2.748775745175636304e-02
3.215699145061357012e-01
-9.979626187373207002e-02
3.937027664047627051e-01
2.133232430629332932e-01
-6.869850572886301299e-01
5.203455642180416785e-01
2.874579971579748205e-01
3.842960877847410028e-01
-3.820936232074499395e-01
-4.555117828368404065e-01
-7.118677540824545902e-02
1.955261328083706396e-01
3.450760552526321301e-01
-2.382845731655849619e-01
1.112733346717272864e-01
4.420204038357177789e-01
4.825400959650689159e-01
-2.226580977415327511e-01
4.114187264649162290e-01
4.378288172217521534e-01
-6.218398300187164551e-01
-1.182068582537906393e-01
-2.111797522755031742e-01
-1.029635270064673952e-01
2.200754731935819219e-01
1.795821165224268379e-01
-3.407798939142753225e-01
-3.167916415989031065e-01
-2.422089629628146612e-01
3.784225464563549801e-01
-5.829232094188551150e-01
2.223627811432277168e-01
-4.264906014492847453e-01
3.455579807779292634e-01
1.301385027182246912e-01
-7.624740973257773113e-01
-4.910509818944108762e-01
3.539317385037166891e-02
-4.151160351390765779e-01
-7.334715734277932886e-02
1.952544822250570633e-01
-8.930437014106512583e-02
-2.082945816910267700e-01
2.021051027672589595e-01
2.108544338761509374e-01
-7.331857602345530356e-02
-8.160437983006565976e-02
-9.205586043522362427e-02
-1.101238893182811263e-01
-3.416692850736534059e-01
-4.229178769652354175e-01
1.710131767834826427e-02
7.849593258785179939e-02
7.097683607200796496e-01
-1.546328673490058314e-01
-9.646220793900830981e-02
2.847293471772868734e-01
-1.920201594744624096e-01
-4.520960987800232839e-02
5.677742825592623291e-03
-3.967787574680565685e-03
-2.941943785341928352e-01
1.339705429521432234e-01
-3.464987905054693895e-01
-4.827449010571474020e-01
5.706808632239534357e-02
4.096042898584508277e-03
1.035275084712017346e-01
-2.445975022440450772e-02
-2.031175756140780886e-01
2.692433032432580142e-01
1.590031163110357526e-01
8.694143733694377485e-02
-2.633875565129286667e-01
-9.782666652852715916e-02
-6.321304209983673317e-02
-5.049619700513510168e-01
-3.132822092919681362e-02
1.097843681082439141e-02
5.517910592657688795e-01
3.880318072776354210e-01
-1.827929811969629947e-01
-7.814830471579438387e-02
3.239600581911537547e-01
1.814649567679086917e-01
2.006232836954643384e-01
-3.844474579415683713e-01
-2.720065385635286326e-01
-3.616396062363459469e-03
-7.646516950651260913e-02
1.783603794085692751e-01
2.196917282726129628e-01
3.179403061389846075e-01
2.144253301247553423e-01
2.165095370459462210e-01
-3.084617160639384625e-01
-1.015338836263418310e-01
-3.161503815167238107e-01
1.851808834058600237e-02
7.541413358424772784e-02
7.591750066727253055e-01
-4.579942366087995653e-01
-7.453467415997571538e-03
2.919292781682978899e-01
3.412274808758664069e-01
1.434886021181274451e-01
1.138812920498723236e-01
4.415326803228044050e-01
-1.990722707335011721e-01
-3.466177763683947477e-01
3.029966359992268196e-02
-2.352408495834682478e-01
-3.013677195577164625e-01
2.405837174558913827e-01
1.412321882039086485e-01
-2.979310816685112537e-02
-3.131369704759182082e-02
-3.299992797670779909e-01
2.075919059157248781e-01
-3.569570233740509413e-01
-9.668238439644299964e-01
2.989129164263312211e-01
2.364230266184356999e-01
6.772302054516688985e-01
-2.598990028045753964e-01
-3.382374832398304387e-01
-1.904433783132645497e-01
1.666316729330386270e-01
-2.206167195330187847e-01
2.545017121547603622e-01
9.765945962661243263e-02
-3.214544979918236289e-01
-1.455220364416474899e-01
-1.600404931914346796e-01
2.655476389902666767e-01
1.199351642465653206e-01
2.539109796038833688e-01
-1.132026317500858664e-01
3.043130768024566724e-01
3.802854219540806047e-01
7.352308101587842204e-01
1.001697960074228178e-01
-8.535056741834519400e-02
5.166266071148143540e-02
1.175917610512933337e-01
3.488332548415211398e-02
1.836180805688262252e-01
-2.452447621797899935e-01
-3.611985441847785916e-01
-6.321972306888597182e-02
2.925806573634637253e-01
-1.823816990609276878e-01
-1.054844451160037028e-01
2.754529560254516674e-01
1.499191106618471547e-01
7.055367105556932250e-01
-4.068260234758573901e-01
4.299756697830586782e-01
-5.822855671383838499e-02
-1.532731488614283433e-01
-1.284279950360618650e-01
1.684835465785833319e-02
3.007413242022259348e-01
-1.893098760608818709e-01
3.446168523450610643e-01
-4.127672285318565448e-01
7.098573348180232945e-02
-3.792381267097028746e-02
-1.846008655471933768e-01
4.694774493605591847e-01
-9.320711021661326479e-02
-3.374088061400462024e-01
-2.948628124877426468e-02
1.596383648739924110e-01
-2.830453678673021667e-01
-2.500157690078353909e-02
-1.708776792557644419e-01
3.143085659201951820e-01
-6.112992250732924432e-02
-2.794969589312820690e-01
1.939420231158693608e-01
-2.274298078553667057e-01
6.800430298075692548e-01
-1.619106503296148525e-02
2.143200455292782469e-01
2.437848994175953743e-01
-2.574567943659771263e-01
2.413465536308535830e-02
5.918559551822197284e-02
1.636021202855557355e-01
1.168043464884749028e-01
-2.569306098667503147e-01
1.414249695413012653e-01
3.114805355644991725e-01
-3.305941899197576556e-02
1.380932992760607603e-01
-4.683356069938864052e-02
5.680839437941667680e-02
-3.301915369132010780e-01
3.914231472082560503e-02
2.768835960206170177e-01
-3.551632080651743184e-01
8.147900422376623542e-02
-1.200254108261376157e-01
1.155832040531243610e-01
4.587407990367231014e-01
-6.992725223970283621e-02
3.691243069954097678e-01
3.965161151199330658e-01
-4.874235382172708020e-01
1.666889763711290606e-01
-9.676914814590092950e-02
-1.370941399380277426e-01
2.780660343355899067e-01
-1.723278108487274196e-01
8.412401650005157938e-02
-2.105151417032960492e-01
1.594262228978027274e-01
-1.250197224094994342e-01
3.192664318793869693e-01
-4.279873595835317901e-01
2.336258256583168269e-01
3.179424869003101561e-02
-3.489703386938681762e-01
6.546388290655462579e-03
2.983963460925183053e-01
-2.471886582465481208e-01
4.504722198087877938e-02
-2.279593778151480787e-01
1.665288565836099965e-01
-3.207995763580782089e-01
7.366085851707737664e-01
-1.758445219661015635e-01
9.539350905372083467e-02
-1.892747271208804760e-01
2.265462188687847322e-01
-1.763498741703671824e-01
-1.928496253457165077e-01
-2.893730392452740774e-01
3.727944626493771563e-01
4.262932335967331565e-01
-2.007342719201121173e-01
-1.056490584460973020e-01
8.898122385516994692e-02
-3.445344266839241443e-01
-2.815829449158236408e-01
-5.375183235168778939e-01
-1.124062783454628754e-02
-1.267440067758167088e-01
8.904162129297717165e-02
-2.511065706076178738e-01
-3.933941626635966693e-01
6.112410664907081542e-02
-6.860525283892147941e-02
2.160169553269890574e-01
-8.429346780747287715e-02
1.638738680187182828e-01
-1.380076121679767731e-01
2.389946616560880699e-01
-1.509869694780189286e-01
3.567329018108717498e-01
3.270769301968101117e-01
-1.914709587004508606e-01
2.910676960797948382e-02
-4.009899239080517153e-01
-4.359073147568779533e-02
6.583032210504906612e-01
-6.318622459796706392e-02
5.029570355596359177e-02
2.697602145563004483e-01
2.009132242233439836e-01
2.318764479206761597e-01
-6.041206153286219349e-01
-1.714129707473927011e-01
9.420433101632920414e-02
1.996870161032431867e-01
1.002624347991643884e-03
3.127983676567168136e-01
1.858789618411529343e-01
2.543033875242259878e-01
1.485029266679034066e-01
3.411768939558688651e-01
-3.880545595173329199e-01
1.954793492216622963e-01
8.192355595148741176e-02
-1.664329745300181448e-02
-2.389382093848028965e-01
3.732748695915955039e-01
6.395258172493616632e-03
2.379394703891169194e-01
-2.029410796354998991e-01
-1.401192316096198653e-01
3.581331208939669275e-01
7.276243274292334418e-01
7.075878904399440783e-02
-2.390374784669427599e-01
2.959472395862341454e-01
1.157940110842217360e-02
-1.602037333863433055e-01
-3.256134978762936782e-01
-3.496073307654328222e-01
-1.606321204710074446e-01
4.140392855711240438e-02
1.255074623002904767e-02
-1.903975806323257580e-01
-3.073896002299940644e-01
1.703099371185591571e-01
3.180436525913012957e-01
-1.828191577176891958e-01
-3.357615126365069425e-01
2.765647022401333810e-02
1.365677294496127625e-01
-9.771599807608018218e-02
-2.644776328430858969e-02
-3.223866832875980637e-01
1.171329026655893168e-01
7.252552195651869316e-02
-2.364061679687285561e-02
2.914234923126994836e-01
2.506679110409865685e-01
-5.920402756177037956e-02
9.148091567162392043e-04
8.232802286308024686e-02
-3.444426693957660657e-01
-3.300909943408313341e-01
4.873273000723518100e-01
2.319331958175765984e-02
-3.676883020523852297e-02
-4.527264655350344835e-01
-7.594298613086569727e-02
1.149323093678630558e-01
-5.116409750445100740e-02
-4.163390827331685529e-01
-1.422916337432171829e-01
4.155113171455982468e-01
-1.677004417380083268e-01
-2.290754876611071356e-01
5.034819550603942817e-01
-4.440974057729568103e-01
-5.291290614093761835e-02
1.364142713485675840e+00
9.146537015478292676e-02
3.390423009470038274e-01
-4.556038369142556554e-01
-1.019157475770533922e-01
4.879384284498618496e-01
-2.459585024045583268e-01
-2.017696102570573635e-01
3.498906682991088091e-01
-9.757100276313632886e-03
-9.427671680688769207e-02
-7.279127418726229724e-03
-2.159534081213736190e-01
-5.153725023039613662e-01
-2.252669996730901070e-01
8.998036482314780704e-02
9.976136043982966606e-03
3.541509104412090495e-03
1.148870487771747051e-01
-6.732596918564408284e-02
3.292186464790589767e-02
-3.250493382589600966e-01
-5.259218600711577929e-02
-9.299175251435531919e-02
2.764297686136186760e-01
-4.157705901998069720e-02
5.910735528671527683e-02
1.986831961908757105e-01
-2.682509603656494934e-01
-1.416486759304878273e-01
2.197289098013879838e-01
-8.603367223949398568e-02
5.439991759256573162e-02
9.510365948232744893e-02
-3.186476173503250547e-02
9.737191464846581268e-02
-1.303224354544393337e-01
-7.801804638807147141e-02
-1.312015264236734979e-01
-1.131752977988186998e-01
1.249480860708452046e-01
-8.559136006469643398e-02
3.493827336954124507e-01
-3.933989130324117012e-01
3.886939924702684235e-02
1.939648322966247562e-01
-7.067976642086537531e-02
1.185094473467675491e-01
-5.847919341460755538e-01
3.114651871941441774e-01
9.784856927508692181e-02
-3.466736941283353746e-01
-3.182162286937276763e-01
-1.896518974695383664e-01
-5.184555023216623482e-02
2.997021940923975600e-02
-3.931718794084507890e-02
2.352552963935219121e-01
-1.816616810259524262e-01
2.177240422718793728e-02
-7.765693286142762858e-03
2.047474301605765601e-01
7.759291753751922094e-02
-1.788088612735477534e-01
-3.995641703328903921e-02
-2.166008517781867759e-01
6.530641241119809759e-02
-8.101037518340484245e-02
-1.899759443537150649e-01
3.341093747501563960e-01
1.775634274649080524e-01
1.089644849118294873e-01
4.440654542508834339e-03
-2.857452390082873550e-01
-5.378001337854917407e-01
-1.326486812785908631e-01
-2.086711984177020210e-02
2.844691939881417442e-01
5.426599237321146907e-01
3.012033617592277945e-01
7.124818094360448884e-01
6.966530299215721589e-02
-4.708622363552383838e-02
1.457977070550052143e-02
-9.890487421250254707e-02
4.656981931687314419e-02
1.338459411991460291e-01
1.886544850797464840e-02
3.257162625410019441e-01
-4.400720680391539963e-02
3.162118431694284637e-01
1.509803792866784566e-01
2.665962162684821779e-01
9.908343789252274658e-02
-4.397070974571133661e-02
1.582633704540601094e-01
-1.443382553858567341e-01
-4.206570984172006700e-01
-1.470463080884356899e-01
2.866337852669924025e-01
-2.725409207128812739e-01
1.663825285898696063e-02
-2.491894011037879830e-01
1.624092127547360764e-01
-8.037622516316730858e-02
-2.241409888394800265e-01
-3.679347130259132126e-02
3.941284632293401979e-01
3.515394717174581962e-01
-1.860095654195157155e-01
-9.865118560310637275e-02
-5.325810849969273009e-02
3.629517213927312413e-01
-3.454762244077281830e-01
2.352385500472506559e-03
3.294660373831425487e-02
2.560494711300964621e-01
3.498636528873262375e-01
2.967010217612238709e-01
-1.217054446865579453e-01
-3.045746998539881623e-01
1.576204345462133283e-01
1.445172364513023222e-01
-1.210305944391011357e-01
-1.070537863754661943e-02
8.463336155851652887e-02
-5.638358841173350677e-02
2.820177083173377452e-01
-4.112615788777893577e-01
2.535862812494055207e-01
2.890462058194488426e-01
3.875673929933100004e-01
4.498175265785929189e-01
-5.807909160752134925e-01
9.310139961031267675e-02
6.735358689694777301e-02
-6.790146187565040264e-03
5.544842016863677642e-02
-2.081260424498037331e-01
-8.413066637895920408e-02
-4.858794842218622789e-01
2.681514810231537538e-03
-3.500581527792819836e-01
9.619362088682908984e-02
-9.122769265410579989e-03
-1.652604263887006986e-01
-1.177404478010545957e-01
-3.310606748235126462e-01
-3.429574632655425087e-02
2.966779482857588301e-01
-3.297667171208067127e-02
4.701306732020020529e-02
5.284974233987643072e-02
-5.753174971915552272e-01
-1.960211265134632341e-01
1.828669883833449750e-01
-4.388961195386237302e-01
6.558882915216461551e-02
-4.080896575755468825e-01
-2.032190355636109835e-01
6.518256697539803746e-02
1.712758681243720452e-02
-4.272580698909362318e-01
-2.478886761124711180e-01
1.230883889478154997e-01
-1.349597235678138829e-01
-1.195835470063619094e-01
-1.799112306022328245e-01
-4.255135925865281832e-02
-4.235234843883248779e-01
-1.977059006592124801e-01
1.867300474480986516e-01
-9.700219854885753709e-03
1.440049787171118201e-01
-3.698457305739598633e-01
5.341745096138430376e-02
-2.830169427649636971e-01
3.480450175549856806e-01
-2.330031209551154947e-01
4.484036080877945585e-01
2.616109293089899715e-02
8.394055603045330605e-02
8.719666827927480268e-02
-2.904054411050063442e-02
1.837740966870871073e-02
1.923394840089242275e-01
-1.748767023739896953e-01
-1.167980842865868896e-01
-1.895611768320726864e-01
2.904251976032981020e-01
-4.385894936635005570e-02
1.016656030141162986e-01
-3.349781827363675357e-01
3.569046739370099752e-01
-2.754479808496861359e-01
8.514541315354161310e-02
9.139856232632992405e-02
-1.619254169462768234e-01
-8.509183481125701110e-02
-3.291454826268512823e-01
6.355731765462915850e-02
4.881778717819845043e-02
-3.269079265187431471e-02
-1.298456669155104437e-01
-1.291784863115586213e-01
-1.244365590682791102e-02
5.083416617149632000e-01
-2.685389252503385116e-01
3.014152745724947291e-01
2.974549388038472131e-01
8.059900773030186372e-01
-3.024480678725955940e-01
1.791981510996947316e-02
-1.908185477382592088e-01
2.752213089424880299e-01
1.782674820399118287e-01
3.065408008714053945e-01
-1.324522593098493781e-02
-1.698894213658637964e-01
-2.291603050921493245e-01
2.937827959181785742e-01
-6.709015777669321764e-03
2.496660845942396956e-01
3.566722720887491871e-01
2.421780349002750077e-01
-1.778012936908055786e-01
3.389442110328030333e-01
9.747852944812340770e-03
-2.222671528354781822e-01
-1.719780239335711933e-02
-5.951629317283304577e-01
-1.536112040874735296e-01
1.238756030686960080e-01
-6.307122141000615079e-02
2.408943399441055844e-01
1.512643081621180274e-01
-3.186113339785898169e-01
-1.449209004883857954e-01
1.023376609415430211e-01
-9.557705373155625517e-02
-6.498844828167084087e-01
2.242902259726068936e-01
-1.680812714735001878e-01
9.694873930336052326e-02
-3.954098289467743166e-02
1.625538796635521699e-01
-3.833700189751522713e-01
-4.150472023351461925e-01
-6.591763206141321163e-02
-8.758768122716037441e-02
3.507833852082589687e-01
1.007446483111499279e-02
1.382343456467502452e-01
-1.087138239305025927e-01
2.614667049212116567e-01
3.336046550226243190e-01
-3.819964826238481798e-02
-1.659380820575697968e-01
-4.166393564377111058e-01
-1.262979179511329042e-01
5.650560721382455465e-02
6.533569957775181569e-02
3.243850918731902566e-02
2.998297434929520500e-01
-1.626012831857898688e-01
1.002337512305945255e-02
-3.527471512775876561e-01
1.154770211782969562e-02
3.584321465729685408e-02
-5.618081273419081589e-02
4.122148820784430900e-01
5.020775895114584775e-02
1.387895027984483165e-01
3.135681026974797003e-01
-5.830321401621216815e-01
9.662538846361710954e-02
-2.503454195398553961e-01
-3.142672183949972164e-01
-1.577812256394867385e-01
1.354564947197350044e-01
-5.249142709138954199e-02
-1.808374147181247282e-01
-4.082105309580761343e-01
-1.634256401009104298e-01
2.953618902075992869e-01
3.001893710676629690e-01
3.255920734447483866e-01
-3.742603232222407872e-02
-3.312817406216919669e-02
1.331746637219188567e-01
-2.067269128002995615e-01
5.493746116631802456e-01
1.568952088669416656e-01
-1.085262683829921748e-01
1.084413368616185119e-01
7.890299731582874065e-03
-3.000051016030783751e-02
1.559539484407519161e-01
9.015485819824073377e-02
-2.749095322225937332e-01
-2.151027122428295912e-01
3.466488228961484008e-02
4.543998870683224785e-03
2.539783332683270833e-01
2.239004314198423107e-01
-2.297246193336163200e-01
3.304964928288122716e-01
6.061231629832802142e-02
8.045855097042534654e-01
-2.511075084705022831e-01
-2.396420216297757699e-01
-1.596815023252531052e-01
-1.444540512792918396e-01
-7.108063207490515623e-02
1.460856259805980717e-01
1.100047405670322304e-01
1.467759465307750255e-01
-3.697528865520559316e-02
-2.312921971611207050e-01
4.015849981422094928e-01
2.513011054477555795e-01
3.310921737869097492e-01
1.015277995196215977e-01
-1.904774109866412268e-01
4.844097240486795047e-02
7.781599569053894438e-02
2.883040288184421929e-01
1.083955719210821095e-01
-1.631495094039557558e-01
-1.006875919767150906e-01
-5.302076561543181965e-01
7.578022470053091819e-02
-7.392928295877278233e-02
-2.644119140165365200e-01
-3.570169324514056719e-02
1.589002109644277738e-01
-6.253633590641454187e-01
1.087072613405652977e-01
-2.282448854636111579e-01
2.177513826672371477e-01
-1.449317609822506348e-01
1.256321272159983404e-01
9.844076923650681155e-02
-9.316513615218073585e-02
5.850082536372100406e-02
-1.328672949549570548e-01
-8.186536702203253690e-02
1.516890683416409757e-01
-6.968243410996788345e-01
-1.018373996342346877e-01
2.128854761107167731e-02
-2.087377877763170186e-01
3.089034529537647566e-01
1.294868584394833211e-01
2.047457054964037237e-01
2.570054765428511079e-01
-9.281485073295672392e-03
-3.729215662133812947e-01
-3.325294323452113957e-03
1.612581354524259339e-02
-2.709160988165200123e-01
3.351414778727150878e-01
2.489200968537394754e-01
1.654863203316848386e-01
-3.991585180139787248e-01
2.427634887430671073e-01
1.429992506225610527e-01
-2.656899539842200175e-01
-3.481532537428468077e-02
-6.728953598769708000e-01
1.630964755785813125e-01
4.143210308612057524e-01
8.458423988944509253e-02
1.973130150242067074e-03
-7.475949284662118666e-02
-9.376916413033704878e-02
-5.868531889285165670e-01
3.449989632478639989e-01
-1.198870445767509368e-01
-5.855228855483558120e-02
-5.236347353978863285e-03
-2.260439569888708922e-01
1.518267717644547210e-01
3.431917580549682656e-01
-9.496447401843766123e-02
8.453154308613795853e-02
9.930997194317532639e-02
1.781039413844159591e-01
6.853793286131973361e-02
-2.294612853506106109e-01
-4.854098383760910851e-01
9.969700715018214865e-02
-1.719481494036751990e-01
7.135057425469185088e-02
6.515647856187843645e-02
-1.024151409652625661e-01
3.937839321028848566e-02
1.739310751653182219e-01
1.240120676399684985e-01
7.147424144012060054e-02
3.379190963271976322e-01
3.867230996793822873e-01
-2.155633265618275562e-01
3.460475572210152534e-02
-1.963196948163231648e-01
1.620812740760084122e-02
1.283041370987783591e-01
4.370587208524639826e-03
-6.545614469262080182e-02
-1.124148013208741276e-01
-5.561532219168182495e-02
-1.693601910348968009e-01
-1.062466038442360788e-01
1.570525156896211416e-01
2.149751382214317164e-01
-4.049844853595576527e-02
1.777891773073453016e-02
5.169894028839131517e-01
-2.245692169684990469e-01
-2.848058216589770264e-02
-1.567779456486251000e-01
8.834410470578021868e-02
-1.865488015605918370e-01
-7.703677418176573151e-04
2.265224541909388045e-01
-5.394529105196308461e-01
-3.272031865694557395e-01
-4.023858838979266217e-02
4.355365656413647674e-02
-1.492471975419403796e-01
1.905317970244275738e-01
-2.441309001686967628e-01
-7.488063561931360135e-02
3.555052151077880973e-02
3.637009602902703809e-01
-6.506926751220831751e-02
-2.434184022595404021e-02
1.723907936464093849e-01
2.058465935105882605e-01
3.408196727355843753e-02
-3.680864952002724927e-02
-3.782149313276614300e-01
-1.650640201861251766e-01
-2.348081275626271586e-02
3.403858504809976204e-01
3.074152897937981188e-01
-4.673963098111125758e-01
3.686945956616644593e-01
1.764633997535493548e-01
1.782607182533818280e-01
7.489219134551914347e-01
-1.197091940898016987e-01
1.199827780170284325e-01
-3.013642137266403856e-02
4.228408229417319752e-01
-1.001331244039801865e-01
1.336799582418446153e-01
-2.689228823238278832e-01
1.647037413724361174e-02
1.728377761565819959e-01
1.454688414962181375e-01
-1.990943411102547023e-01
-2.390739699947630748e-01
-1.862052362272245687e-01
4.722797194348899996e-01
3.996409385506595469e-02
-3.446040837643942756e-01
-1.344836226301948379e-01
-1.926212898702880094e-01
-1.012873632656906137e-01
1.081144476777853719e-01
-6.583761630625789563e-02
-3.136263786692227162e-01
-1.027295186958389478e-01
2.042666240917274251e-02
4.553161777686519085e-01
-1.535554652666241970e-01
-1.800690166831536709e-01
-2.595576604986847280e-01
1.370103300085826203e-01
-4.354958112926325398e-01
-2.685497990907038113e-01
9.995318994888903463e-02
1.873009225222389551e-01
7.233278711483870360e-02
-4.959415568460628920e-02
-8.046015852441021354e-02
1.556440181338704376e-01
1.285216331697451864e-01
-1.174421620207372341e-01
-1.349888548207040795e-01
2.378565226609616057e-01
-2.713048612023839512e-01
1.083600158334817876e-01
-3.351838484337728574e-01
-4.697716883063599892e-03
2.895852972541448217e-02
-2.119341498269561030e-01
6.681987759975276109e-02
4.333212926324229476e-03
-1.563657126910387163e-01
-1.534073820293193995e-02
5.466235625265306597e-01
2.280144440326565269e-01
1.886083528943904297e-01
3.350287530844003187e-02
-4.371430739254208997e-01
2.756010911024538990e-01
5.671295434164959071e-01
3.740495557800657678e-02
-6.051264565794736011e-02
2.034273566884067241e-01
4.137540738333150142e-02
-1.838101336098660887e-01
-5.217360991444220525e-02
2.019043570352579420e-01
1.859468794781275192e-01
-3.486581060923487629e-01
1.589831277508108598e-01
2.611136386060093351e-01
8.536638196914532184e-01
1.345573128001461075e-02
5.832475991715280889e-02
3.921402150600405978e-02
-5.952636094510108805e-03
-4.562169465669037999e-02
-8.212739721700303974e-01
-9.816920900883145673e-02
-3.485209194744490202e-02
-1.395635924260458516e-01
3.190706583853169520e-01
-1.603810255951006528e-02
-3.663198123029696301e-02
4.450970377556896090e-02
2.263402100560886199e-01
1.414871252544619082e-02
-2.061661482073582352e-01
-1.127194679760656071e-01
1.088614238801168151e-02
1.746139181669267015e-01
-5.902519850705040261e-01
1.819736312413165469e-01
-1.377153548842658948e-01
2.636990346448479794e-02
-2.233179160278607189e-01
5.513023222793569378e-01
5.140786179023414393e-01
-1.092443284985523400e-01
2.007886263425830986e-01
-4.479364405942286576e-01
-6.866749543398807942e-01
4.803327742273832968e-01
5.998652499516895359e-02
3.039632831816200254e-01
-3.582730328262025421e-01
-2.734088545496204947e-01
-5.203193408405311082e-01
2.752648565949834536e-01
5.618072985700937189e-02
-1.357496725015108069e-02
2.944531210066325122e-01
1.068667913065865921e-01
