-7.460560378817424620e-01
4.470416018112858270e-01
-8.154998491713567610e-01
-1.968799479577857392e+00
6.698339185931003747e+00
-2.364316981515970362e+00
2.204672181698666966e-01
-9.188676863395092154e-01
-9.624116587846373028e-01
-9.751024429389596460e-01
9.777612966551092466e-01
-7.990529117387451530e-01
1.017933369099739638e+00
-1.308887408725508683e+00
-5.513719046231768672e-02
7.219772876371253201e-01
-1.257709208659201217e+00
6.151768828285359980e-01
6.146334877656729756e-02
-1.242618819114674755e+00
4.011795352478138010e-01
-7.584282506047915207e-02
-6.864759877845015221e-03
-1.306467035709061586e-01
1.667764921197486816e-01
-1.773691371815696791e-02
4.030448828186373733e-01
-6.583794998767212858e-01
-3.893622736469440904e-01
-3.276264749645133034e-01
1.577970318197500221e-01
-2.547723043940754994e-01
-5.694543385341405139e-01
-1.630611211977017749e-01
6.053401987544786145e-02
-1.399970453870066078e-01
9.874572244837241664e-02
-1.773428862518331428e-01
5.872381023581507709e-01
2.329738700015690223e-01
-3.173622377288360941e-01
1.373293371123115225e+00
-4.907637734602764423e-01
-4.206525018684175166e-01
-2.568651560774303011e+00
-6.771939225595245693e-02
3.698110314498277429e-01
4.635287925276279641e-01
-3.787636228628330493e-01
1.420470177439689952e-01
1.064352409339488492e+00
4.348658579884711051e-01
1.989686702974844540e-02
-2.069861640438990791e-01
-3.910400953082593944e-01
-2.220118508805669633e-01
-1.391639623445161678e-01
1.572717319872098118e-01
1.006713724751453487e-01
-1.944443084711877379e-01
-2.886552756587866253e-01
-1.553486781620760093e-01
-1.520615039940412250e-01
-2.363203082012322320e-01
1.279214408453071272e-01
-5.102432752695073015e-01
-1.058574136748388295e+00
1.437151640858854940e+00
4.968116523214155533e-01
1.190055261774333184e-01
-5.432742500665421748e-01
-8.709214976919864570e-01
-1.885222199637554275e-01
-4.429494614687082832e-01
9.259734497748333126e-01
-1.272309741173339726e+00
-1.866796283667806255e+00
1.441137883882087856e+00
1.450657183277269668e+00
6.734684615506895122e-01
-5.301713567790361514e-01
6.753717193684324882e-02
8.418157039593947288e-02
-1.776315867321565656e-01
1.615975124527521123e-01
4.617761848545837156e-02
-1.265919428436432514e-01
6.179960380567279810e-01
6.361922250861709038e-01
8.273954526484890437e-03
3.739238799435208871e-01
-1.559078325807988497e-01
8.520929791241051987e-01
-1.755611510281109011e-01
-8.001345775962983575e-01
-5.727025148660235682e-02
1.410877689257138412e+00
-7.394415086935250958e-01
-1.463830951018645077e-01
-2.209482858951280493e-01
-8.873036226768357126e-01
-1.652553934246171918e+00
1.105906734675094150e+00
9.593570087940138658e-01
-1.083917365577595326e+00
9.315430778699451686e-02
3.639619273258054011e-01
-3.169255233815384404e-02
-1.633046302412661355e+00
-3.517812498595834225e-01
-4.003693414431768183e-01
1.969168777215411781e-01
-4.228418800673474642e-01
5.693225013280626134e-01
-3.319544112875615904e-01
3.509099914472600945e-01
7.812922939938521383e-01
6.075539654052207750e-01
-1.413995754149650619e-01
3.929609750703739329e-02
-5.270387271302168219e-02
1.313322347854802563e-01
1.664710037585187541e-01
-2.080528248314084672e-01
5.305372859043570033e-01
-2.214438058094873596e-01
-8.013761134076503589e-01
5.598866252015852751e-01
1.715736994721651643e-01
-3.145294942802757676e-01
1.348741469998618880e-01
-5.747012691313158061e-01
1.579173798799394790e-01
-2.329048092277377080e-01
-1.990923718152071489e-02
-3.824640092437706085e-01
6.676766461263344832e-02
3.916262504111144294e-01
4.394506822850732797e-01
-3.475330635496263754e-01
-1.863308189589318042e-01
-2.512441952164038428e-01
-3.920466655219436714e-01
4.945916900592296772e-02
-2.175446757280672938e-01
1.153238850613238220e-01
2.673261053929168463e-02
3.132103735085416812e-02
-3.727665722798264442e-02
6.253342363348708410e-01
2.145430905515025022e-01
4.152925430982547517e-01
9.647966214382430739e-02
-1.825214073079992061e-02
-1.618212408985566370e-02
-9.033466213843052706e-02
2.391556094716829339e-01
-5.189638581912321413e-01
-8.766072344981771236e-01
-1.959587109920667494e-02
4.091405773830962267e-01
7.944427135363976156e-01
-1.282645402244329547e-01
-4.499043656794686763e-01
1.414841644158324752e-01
-3.054195203338545550e-01
2.666970796321773696e-01
-5.598882212609035403e-01
-9.375822558505529647e-02
-1.026921586505228634e-01
2.314313110213198077e-01
2.444696584506592107e-01
-1.689247570758871039e-02
2.671605265588367639e-01
-5.941249001212324243e-01
2.742213275033448805e-01
6.369300398663465534e-01
-2.858607213196255881e-01
-9.596461300725747101e-01
-2.182843094676119589e-01
2.835537001073050734e-01
3.945962945785485010e-01
2.025287836848427836e-01
4.154119713736486447e-02
-6.307944381436866310e-01
-5.014772491471365390e-01
3.308589635195918199e-01
-1.070613864169643881e-01
-5.395660887284153828e-01
-8.168981251747528538e-02
-2.411449345584037451e-01
-8.958328707811513691e-01
9.382804955680784653e-02
2.231878734838155243e-01
3.027069207572745738e-02
-3.333522405231967300e-01
-9.535655606277783358e-02
9.627792959811084517e-01
9.169464387571149566e-02
-1.646869331128032188e-01
5.758358353404240126e-02
1.449494565867698870e-01
2.326046856025192622e-01
4.220520810503634035e-01
3.283190029419045253e-01
-1.766801024474675130e-01
-9.219847963754266296e-01
6.819639818641712870e-01
-1.076478598496978245e-01
-3.071347358063115651e-01
-5.942851045444042662e-02
-4.998351100607831277e-02
9.532039781562509084e-01
-3.398277691760659414e-01
3.659144413390873485e-01
-4.646967778034444274e-01
7.020771612341709655e-01
-2.317395604425112887e-01
-2.002027667050783888e-01
-5.856546437376305980e-03
-1.707338604823764039e-01
-8.961622110218395720e-01
1.288064501455171151e-01
1.701632544016393189e-01
-5.736756162699330544e-03
5.086740982223745267e-01
-1.397382427424178064e-01
2.327938984976017645e-01
5.957005266119946157e-02
1.191650312716077686e-01
-2.847087608979232964e-01
-8.057874543127756528e-01
-3.942309416365193386e-01
1.776566554303963263e-01
5.840371829169574980e-01
-4.802982095198796153e-01
-7.799409200211274706e-01
4.037194108596899311e-01
7.052262013084573677e-01
3.952941863202659167e-01
1.729698676246682887e-01
1.131211359542467348e-01
1.745832061954915304e-01
-1.604525351138849365e-01
-3.303834694896604640e-01
2.935793526232336609e-02
-1.307619104833740442e-01
-1.217059833268324676e-01
1.689720845304587271e-01
-3.304880332780325836e-02
-1.865096750777885393e-01
-5.152759966546600623e-01
-1.433679032496095081e-02
-8.162061251285336327e-01
7.192244753555020187e-02
-1.806949528553757622e-01
2.015969763759777045e-01
-1.600526967963694300e-02
5.195433515983883810e-01
-5.113087515902410285e-01
6.159155627149072165e-01
1.778885935902427162e+00
1.294367128447781456e-01
-9.301536130205584341e-02
2.772328731470433683e-01
-1.446338113810297643e-01
-1.172125270097253313e+00
-3.388716589206280938e-01
5.147365480572064778e-01
-9.823459513878991523e-01
6.369741965553163965e-01
1.932430167164867596e+00
-3.693344646817833810e-01
5.340216970251548956e-01
-3.441911750653369739e-01
-6.989014570165082985e-01
1.454754276772014077e+00
1.079490031073371270e+00
-2.125602502909345493e+00
4.281177723446179251e-02
5.580344974898858723e-01
