7.107984039725455672e-01
7.094041432352077292e-01
1.616487424818500607e+00
3.175559342483696756e+00
-5.461802027410148641e-01
1.228590715888519647e+00
1.407458902953554192e-01
4.943104812617411525e-01
1.064878608155339287e-02
2.909472401648239837e-01
8.183192887542399541e-02
9.091383131259481720e-01
1.185404740554346290e-02
1.196437803375623554e+00
7.053210239746975363e-01
1.463258642000483667e-01
-5.559790173250256373e-01
1.897689260176322668e+00
-5.408805301896966178e-01
5.922383889910656785e-02
1.254293486487293163e-01
1.953884521414477604e-01
6.362203403786227847e-03
-8.881700152612895596e-03
2.069536919094609739e-01
-5.880176926452554409e-03
8.192697157976915057e-02
-1.708017178326008689e-02
1.729115775163433399e-01
-2.064172597512377028e-01
-1.626769897702913248e-01
3.305319746101463563e-02
9.385432247308084230e-02
-2.384138998344716154e-02
1.701236264725819458e-01
2.232165982350859390e-01
1.374467894881543084e-01
-3.814746018546848888e-02
1.475050922075789861e-01
-1.945054437782387236e-01
-2.451776433624265061e-01
4.537299294827700780e-01
-6.360514193217683410e-01
-1.136030270570469458e+00
2.227055197061773156e-02
-2.832018297993479927e-01
-3.024340641095183899e-02
-1.243550472845677407e-01
2.779048303046859347e-01
-3.557309242884722500e-01
-4.019856326345950803e-01
-3.387919782389006707e-01
1.739462678197210843e-01
-4.991053205538880655e-01
-3.902725949560921781e-01
-8.054063421793981881e-03
-1.877651954613627494e-01
4.171978521117457039e-01
-8.942432360437344019e-02
2.077957568313116843e-01
4.013621411946811102e-01
-6.780532930605831510e-01
2.926988608664790048e-01
1.421377372607618150e-01
2.198898317324613216e-01
2.274027752969704219e-01
1.043839995350946293e+00
-4.242471080352919199e-01
3.525221851536042839e-01
1.302797890804514025e-01
7.195427307626532931e-01
-3.080184698225695850e-01
-4.170527155396296926e-01
-3.557938643632293368e-02
1.308083052288219472e-01
2.591811210953991473e-01
-1.939142788303770959e-01
3.028974989499541581e-01
-3.416972485784821462e-02
1.594471099726686991e-01
-1.210055042560242849e-01
-9.942769948056050244e-02
-2.274639797460860369e-01
1.137798327802314741e-01
-1.437166914510875360e-01
1.181141976866293547e-01
-2.108473382291570219e-01
-2.286793081604009126e-01
-7.138218007763419458e-04
5.655093727715752028e-01
3.763198050302711799e-03
-2.118422994776722745e-01
2.864722845502269410e-01
-2.699325523572634888e-02
2.703840955821175673e-01
2.914611135937066888e-01
-2.194630788360690116e-02
-3.106817033324082433e-01
-5.187235345693930189e-01
-1.269405159167479036e-01
3.466747697735856337e-01
-1.029033231658426084e+00
5.696073126809686471e-01
-5.800662880578526942e-02
-3.358258668800796765e-02
1.322587603110546572e-01
1.330513784680706690e+00
-1.747931366405842402e-01
1.861388764799544737e-01
3.468732595835853361e-01
6.656141965463008292e-01
5.299215763093055864e-01
1.865444418188872376e-03
-2.697093690515749986e-01
-2.689366824279547652e-01
-4.734831484658421630e-01
3.337661753804703202e-01
5.153828507483834143e-01
5.719248905866224364e-01
8.123313807493705296e-02
1.268977409968970183e-01
-1.422250432471963144e+00
3.804762138601296972e-01
-5.569269826483652652e-01
1.384788413236034410e-01
-2.557796779236463577e-02
1.691488536356323680e+00
-9.185860737483576496e-03
4.189657592206281200e-01
7.315384315277656535e-02
5.729890929938475930e-01
2.129497401898427372e-02
2.016337687961219372e-01
-5.005171387413366313e-01
-1.819264102943471129e-01
-6.182668912794406779e-01
4.913604431375884207e-01
7.816734024987325238e-03
1.881852263910071266e-01
1.615060222485710517e-01
-6.736853146526720557e-03
-2.351449291435776801e-01
1.026099568042312254e-01
4.948207360047862657e-01
-3.835603373691578444e-01
-8.777996641692741020e-02
-1.120441538694219863e-01
5.284049057205815192e-01
2.878676607764555362e-01
3.757346544192519677e-01
3.794211512695079280e-01
-8.373419744043575363e-02
-2.176174391180822898e-01
-1.602492159512023395e-01
2.804852582454899212e-01
-2.449626849929697203e-01
-1.895436222363837964e-01
1.304078337691891576e-01
1.220662953882846319e-01
-4.656250978123638862e-01
3.396435972396764646e-01
-3.100976958278726103e-01
-1.530091711823716380e-02
3.360002271423371822e-01
-2.762257433532865347e-01
6.697586614171167907e-02
8.739757032480790500e-01
2.056037062704914042e-01
1.144609391932223863e-03
1.041409493967037775e-01
4.660878273016784701e-01
3.197187236187331028e-01
-2.712241589800932773e-01
1.015586262895114000e-01
5.182564027206328083e-02
-5.347178974502330567e-02
2.075562455626048797e-01
-1.661238298340352304e-01
-3.910877243459099512e-02
2.855382203736338970e-02
9.330738379103281632e-02
1.228090468304372657e-01
1.398984395396464797e-01
-4.564079325135403375e-01
-7.210675764741809879e-02
-2.320005026617789623e-01
-4.451969569829156148e-01
-2.760559718338559745e-03
-2.268927807046855205e-01
3.993605960647859665e-01
-1.673622644348059518e-01
2.915408982679550814e-02
1.848777810076947525e-01
1.510912512155961895e-01
-2.846003860401053465e-01
1.761193805412787916e-01
-3.364465995018127709e-01
-1.153793041450539153e-01
1.644997128178905532e-01
-1.326579582123827150e-01
-3.203366755333624805e-01
-2.800697324094729782e-02
2.315593661984037543e-01
1.024359420483357264e-01
-7.870033756537206382e-02
3.316949754940561323e-01
5.054252622622861235e-01
1.389493528104231157e-02
2.553156574682390878e-01
-7.823427197709018066e-02
4.228890267970802919e-01
-4.553639648745659574e-02
-1.118074492336050135e-01
-1.198185234988259212e-01
2.835988636498943949e-01
1.920939913236349994e-01
1.032278692397224362e-01
7.469896351963102067e-03
-9.508516076573175768e-02
-5.605436242878038960e-03
1.865044973041156962e-01
-4.929221942632080328e-02
2.555935187295479971e-01
2.817689739116332470e-01
2.283935093638003733e-01
-1.481749980985793691e-01
3.882614388825784968e-02
-3.611230368775750765e-01
-3.036934024686433475e-01
-1.418006671430734333e-01
3.194351395906681046e-01
1.212715547064728006e-01
3.124517609784143168e-01
2.785988311813035745e-01
-1.960373922004974012e-01
7.551756062921112234e-01
-3.907594982037462805e-01
2.139154463385163976e-02
-6.737784787167301614e-02
1.702606832201676024e-01
3.162774797946502070e-01
-1.784857642656759169e-01
3.217314879509604597e-01
-1.350323141712920540e-02
2.584699177013841664e-01
7.951782693950845693e-02
2.204496204452268404e-01
8.452351390069709480e-03
1.114843308666275123e-01
1.472332836080217366e-01
-1.300341607166422275e-01
5.901704765922147766e-01
-9.387137367786758946e-02
4.409585256630954020e-01
-3.006423341186293396e-01
-6.989706439755693709e-03
-3.030670303057725889e-01
1.899929517851841887e-01
2.718752712773395142e-01
2.138532675417698092e-01
-8.696727702010104144e-02
-8.015233177572049783e-01
1.172924467895681763e-02
-2.759986086545518358e-01
1.986340498585121572e-01
-3.815567705311693203e-01
5.005716549073434551e-01
-2.350332679374405598e-01
-1.133344357947250851e-02
1.484693574978719675e-04
4.606187205791872352e-01
-6.113178671476660227e-03
2.731155249403936433e-02
-1.252043577560365845e-03
-3.290500878408655905e-01
-6.465637024135921507e-02
1.756419544334996211e-02
2.573800738759725593e-01
3.474398720304357480e-01
-3.918535831869380398e-02
-1.338183014249316044e-02
-3.552642412466740507e-01
3.141751500913202155e-02
4.765327109066784528e-02
2.049188158054255082e-01
4.357105218442306471e-01
4.070569082427427099e-01
-1.668827902288262388e-01
-1.448196021683063883e-01
-1.581612901866899235e-01
9.805369288167861686e-02
-1.212299199209324330e-01
3.569176570131389892e-01
-2.045641797712899335e-02
-3.202482671637800760e-01
-1.654982211913237355e-01
4.783051062517754692e-01
-1.631766642109571674e-01
1.569000685223116975e-01
2.220933387753200317e-01
-5.612112827514679214e-01
1.483264944195356316e-01
3.683691495806146882e-02
9.135730836569486146e-02
1.965563682975190463e-01
3.009187043008941242e-01
-1.558431667602520609e-01
2.901467496945121446e-02
2.541746715915185056e-02
7.486043492386025566e-02
-4.261111088714095857e-02
-8.411690195422923122e-02
-1.410895040553795665e-01
-1.559498668227558282e-01
-1.502858702474449137e-01
2.475074075035031684e-01
9.565006823607098696e-02
-1.086835772444631060e-01
2.279584025877154918e-01
5.846564321182239760e-02
3.425839886595773431e-01
-1.619915980031453873e-01
2.239660082206084979e-01
-2.055323195189151242e-01
2.762574151693067415e-01
4.251737704980336485e-03
5.176696538040920226e-01
1.937342823757095267e-01
7.424989390469753647e-02
-1.267326262879812371e-01
1.914496436547048763e-01
-1.115010685198187385e-02
4.068106087106578700e-02
2.970179097207460428e-01
-1.220001511648396431e-01
-1.078319918356170082e-03
1.722243497278712066e-01
2.253179429758262742e-01
2.409485300996083990e-01
4.809709179662094991e-01
2.744346918379523825e-01
-5.725118536254081292e-01
5.216473955661278250e-01
9.304418161681519972e-02
2.628126793037285219e-02
4.728442299683663363e-02
5.047371712835173607e-01
-8.331237096707935774e-02
3.880266337406379495e-02
1.313311742941870586e-01
1.563462519930752803e-01
-1.910894256734846086e-01
9.635006423132091991e-02
-6.022111419026523471e-01
-1.773551292118960565e-01
-1.136129160880530592e-01
-1.563633787349141546e-01
3.705530803000701145e-01
-2.020355060120676838e-01
6.956287848453190925e-02
1.728580813552349771e-01
-4.237190708125589955e-01
7.211972519649767488e-01
1.690830366837564880e-01
2.209188655480062435e-01
1.109481311443713397e-01
4.715589759427030875e-02
7.802205493465769193e-02
-4.468162323562948068e-01
-3.043837904245175197e-01
1.880564585790896193e-01
-2.499642961911172911e-01
-1.616502178817357804e-01
1.253811817800137840e-01
7.959637466902844127e-02
-4.040097354976186078e-02
-2.511124879095463780e-01
-1.915313059358594583e-01
-1.530011662353540081e-01
1.243515672840847797e-01
1.885979704354008926e-02
-2.008501660084289486e-01
-1.359184309620446174e-01
-1.159540462034547026e-01
1.573703234440692045e-01
1.332797718139223653e-01
2.213853863274402034e-01
-2.339818937484220568e-02
-7.301747518524508151e-02
7.504265769093293459e-01
2.505313099253465570e-01
-2.738979168427653210e-01
-1.113178280723947366e-01
-1.065003554250747997e-01
-5.239991272508057879e-02
-1.318838204381168888e-01
5.359159033274709868e-03
2.140332740991303939e-01
3.535865855388343748e-01
1.381153948936403308e-02
-2.183955529041569504e-02
3.743211578393089156e-01
-1.633596205055316553e-01
-4.701770519456038300e-01
1.907836812435231844e-01
-3.503968722787308421e-01
-1.091951227079835107e-01
4.262587363278853153e-02
7.868471595784438943e-02
-1.854117964127596496e-01
1.364059878628670619e-01
-3.907714156028028324e-02
-3.162829412374089377e-02
2.554210124572226515e-01
4.417171753687604285e-01
4.302842817876162962e-01
-3.485609535982417406e-02
2.924255759315452785e-01
-8.276781424354361094e-02
-1.645807350941205227e-01
1.752266942998872978e-01
2.562222739346324829e-01
2.277330893521384847e-01
-1.217663542051701658e-01
-1.692838958801508864e-01
-1.031774217259838339e-01
-9.249098835173522049e-02
1.513322706611503476e-01
1.006373764799453341e-01
6.638144410471608081e-02
-2.279483367078951328e-01
-3.681940071595950492e-01
1.721345733526172261e-01
-1.968026079346257284e-01
2.351822859833808677e-01
-3.013750333604709453e-01
-1.428643963609111528e-02
4.677233294228204108e-01
-9.823115407936250376e-02
1.008569367439466485e-01
-4.670488486367656567e-01
1.322366647416155228e-02
-1.706778678653428361e-02
7.098998016638627950e-01
3.988383119305864977e-01
9.054072971571722195e-02
-3.628380087738104498e-01
-1.297303589766814202e-01
2.491523913032513138e-01
-3.496689252243712076e-02
-1.613304043831651491e-01
-1.609816045428975051e-01
2.910661919013612930e-01
1.800103215508855881e-01
-2.576586839219179303e-01
1.686399787403264072e-01
2.682170997988814753e-01
-1.075184934771381134e-01
-1.203306071960523055e-01
5.872617374018968689e-02
-4.022528108286216320e-01
6.349164232398932795e-01
-1.389664034074151178e-01
2.743555304119725813e-01
-3.299349477722889890e-01
-2.448769164683194111e-02
-1.213798662601339062e+00
-2.459154934999415454e-01
-4.718951698082481383e-01
-3.275910533311293116e-01
5.563340897013091535e-01
-1.369652463181245394e-01
-1.440267364758844870e-01
-2.737629283873852515e-01
-2.351363702477990980e-01
1.338270065966224165e-01
-5.585260531894553626e-01
-2.754275589490002840e-01
-3.567080549596812755e-01
1.328801806977145290e-02
2.072038762431202830e-01
-3.381836026732473188e-01
-2.193926185973476828e-01
4.566960448196218103e-02
1.491180193752856820e-01
-6.509280568158267721e-01
1.672757731868034226e-01
-2.570645284389975679e-02
2.813984052034644301e-01
-7.103787541812216048e-03
1.277903233105664171e-01
-4.460319383299581886e-01
3.085196001648443098e-01
1.524767874893746267e-01
1.369571507792831655e-01
-9.645411068367477914e-02
3.097230164961348176e-01
-9.771240433067558684e-02
2.581000078919526083e-02
-2.181708158075919279e-01
-4.392283773406963077e-01
-4.145204626104411760e-01
1.411674217523579966e-01
-1.100823096432084869e+00
-1.728132463224996973e-01
2.259924482889826836e-01
2.634123092831747726e-01
2.002585809478566459e-01
-1.133330930158536365e+00
-4.977419485132607291e-02
6.587004017835861036e-02
-2.663534659937610294e-01
2.733677306529173623e-01
2.271783057763036850e-01
1.148322021956743773e-02
-1.454800309038773998e-01
-3.114354867005550975e-01
-6.017114267549331791e-02
-1.071569847289037120e-01
3.553733213246843547e-01
7.831729098250965471e-02
-1.279165711518603366e-01
-6.704525137812274160e-02
-3.341268601145587214e-01
-2.558169117966402339e-01
-2.598859031525281305e-01
-1.304103628635883139e-01
-2.011035530131793370e-01
-1.355220325640321966e-01
1.358368984718503203e-01
2.419024274036049860e-01
-2.535403461423083593e-01
2.076065648493787275e-01
-1.965461651593508954e-02
-4.656035478138692563e-02
-6.816380130308130961e-03
-1.787627062228162519e-02
8.612270927443084478e-02
-3.410110032285834647e-01
-1.522611560014622556e-01
-3.133223418903446911e-01
6.359596513293830355e-02
5.674184590937597639e-01
-2.495969455580409335e-01
1.610286369618061167e-02
3.714643193274433375e-02
1.139646536535503518e-01
-3.302373892688019175e-01
2.076909195483471471e-01
-1.458567517338085484e-01
1.021960089720015119e-01
-1.340525967317525435e-01
-7.430081070878070959e-02
-1.588947335500793534e-01
5.942551107975942992e-01
5.629594290440886190e-02
1.493403403885224245e-01
-8.169181301957320618e-02
-9.877451924580753218e-02
5.054346535455493949e-01
6.756574286304760368e-02
-1.550316485549936563e-01
5.663037867109127488e-02
4.604199199688993049e-01
-1.826517979941328085e-01
4.159801156156662794e-01
-1.382946491845545856e-01
2.239754271904633165e-01
2.170701075284763026e-02
2.107442513497002068e-01
3.368999839648288974e-01
-2.308732376204356007e-01
2.792478803553021249e-01
-1.209663735244579513e-01
2.294732517917031506e-02
8.461006604698242950e-02
1.218093301566657433e-01
-1.607553330206346054e-01
5.798639756088284081e-01
3.347520972685241736e-01
2.127732974458738241e-02
-5.193384380210880336e-02
7.232223608885907096e-02
7.276726570506920899e-02
2.444247673172680324e-01
5.883903026127713931e-02
-5.065439910436770471e-02
1.164852756154496766e-01
4.086437086868880408e-01
5.005120626703157827e-02
-7.931304936845624820e-02
-1.721550349034039751e-01
1.181685286125423034e-01
-6.674009145739796811e-02
-1.440549835377822052e-01
2.355415211335044057e-01
-2.559986835158958862e-01
-1.955031195942179556e-01
3.514527090941563237e-01
8.563607884193216724e-02
-5.211224389796001999e-01
-2.522605364300369302e-01
-3.684558296405622269e-01
-1.252797176106356769e+00
4.452736156740951246e-01
3.293873316275015561e-01
-9.645424854030000550e-02
4.414385067263565214e-03
-9.506053495112899016e-03
2.149674550568690667e-02
-1.452678290826799612e-01
6.100866458107683243e-01
-2.574564118125565182e-01
1.994328720424916601e-01
-1.538192335108176656e-01
-6.784459273292768877e-01
8.293345339558853002e-01
2.588206089449149871e-01
-1.179014073884101232e-01
-4.128567832604562171e-01
3.211061135270014133e-01
3.875636147408592080e-01
-5.493583037279495818e-01
-1.485772131713453681e-01
-3.498037294848707623e-02
-1.373724035990538661e-01
5.041244135361012957e-02
-1.008170454094054758e-01
5.080446090556722805e-02
9.874078350470502641e-02
1.669732450956368242e-02
-2.258450526878139075e-01
-1.590534775483412322e-01
-2.509663715425798983e-02
-3.365075494389467292e-01
1.451394595055791326e-01
-1.110806352196321706e-02
-2.132832338436479319e-02
-1.763328518072564410e-01
4.273837682115235181e-01
6.349900196228560612e-01
-2.390137179505959775e-01
-1.405033469003475199e-01
4.487802747975830342e-01
3.992889126304565162e-01
2.473268220354521152e-01
8.685306712954816988e-02
-1.944215972325382402e-01
9.057646575408119516e-02
3.687945401296748027e-02
-1.446457362430526306e-01
-1.049816868880392717e-01
3.168279149801177946e-02
1.246604003799948596e-01
1.453977345297979007e-01
-1.368588542881872538e-01
-1.741516243304269407e-01
3.376045960101206611e-01
-9.164683370900855719e-02
2.647589752356853676e-01
3.470413888295411503e-02
-6.769385091901300444e-02
-4.177300880482767154e-01
6.642111304371811631e-02
3.150917897721695893e-02
-1.969796773111658350e-01
-1.071904553877879168e-01
9.016099355087710265e-02
-3.113219773385227929e-01
-5.787626650261012973e-01
-3.440976499290882007e-02
1.376255382362710500e-01
-8.689085681801803421e-03
-2.539219041276457034e-01
2.142303191484575542e-01
6.102375521609311460e-02
-3.989699817689585509e-02
1.746638177213975449e-02
1.357418861205807181e-01
6.361172669912286415e-02
-3.752714793384381853e-01
1.241851946285875419e-01
-6.488205960476511880e-01
-1.096480184474998953e+00
3.284347745754711001e-01
5.483373654869253544e-01
-2.205416571954264549e-01
-2.546326764974289336e-01
3.162035585903746893e-01
-1.821888304639996681e-01
1.795636610613590978e-01
-1.005154014312011068e-01
3.660908179348324465e-01
-1.186358124007495934e-01
-4.111876173016194846e-02
2.174629663703329663e-01
2.346486197677560837e-01
-8.332216667966466095e-02
7.911649499706112365e-02
-6.565089931132850332e-01
-1.178496245609335219e-01
2.071600084152467602e-01
2.710209865155730480e-01
3.830359844123144564e-01
-7.373746198458572265e-02
-6.500338384606678399e-02
1.233948905753401853e-01
-1.106068260849243402e-02
6.775543161823054106e-02
-2.078703869061907517e-01
-4.809763540411450544e-02
7.565369597696712523e-02
-8.473982020957361583e-02
-1.472835087569150103e-01
2.066501348399684412e-01
-1.284417975184122540e-01
1.364574866304029410e-01
1.864484074500489252e-01
3.609590388919452497e-01
-4.134420823910124332e-01
1.363594060947950250e-02
-3.832404493165763593e-01
1.016795225558954179e-02
8.451922110724223447e-02
-5.952398346059260825e-02
-1.674375068625562346e-01
-3.970529471803015964e-01
4.058880875133438759e-02
9.518930162744227916e-03
1.418195350809536570e-01
4.476714253382700903e-01
-1.358079438798239225e-01
2.223586069971740242e-01
-1.238712399013180004e-01
-5.467540304793792189e-02
1.239228193150114163e-02
5.896592845551926199e-02
-3.742745807935629609e-02
5.429077555100293717e-02
-1.604526661816167432e-01
2.204985555612190562e-01
3.741812393961087002e-01
5.691804764802778360e-02
2.898084455463477774e-02
8.024097099876582873e-02
-4.707861134216362320e-02
3.569192680356176872e-01
2.350511818660002972e-01
8.353019974466047159e-02
5.642515739739075720e-01
-1.444778658320581000e-01
1.807382462018876368e-01
-1.007918038164041658e-01
-3.798368244354458634e-01
3.576785447278427732e-01
2.720846164329014383e-01
-4.344216864484667928e-02
-2.150407116472638769e-01
-6.019869349317328311e-01
5.902651270498856378e-02
1.789473928014637116e-02
-3.890549498810092488e-01
-4.221302760556436828e-01
-4.925760935125342299e-02
-3.256628639561444105e-01
2.693709373930597284e-01
1.784042939645315642e-02
2.281768966846874913e-01
-4.291056998517646659e-01
2.647190044289914751e-02
-5.171795291750990176e-01
-1.848416514006914479e-01
1.799904515167689012e-01
-4.173768634328253735e-02
-2.039125202039027487e-02
-2.723167357831428603e-01
-2.389518246161930204e-01
3.775742834557457295e-01
-1.219907184411054557e-01
-2.082937608264598950e-01
-1.235008613267579575e-01
-5.599713170446436461e-01
1.990917389907816692e-01
-2.224473308650074810e-01
-2.840435741177275708e-01
-2.441308014442484207e-03
3.388289077111156233e-01
-1.421675877488481066e-01
-2.225703997469753170e-01
2.271283891129957100e-01
1.373197532325630410e-01
-1.389192382315636853e-01
1.110912798685740194e-01
-2.919058999503387763e-01
7.683862032181665302e-02
2.996229418399368183e-01
-2.391977395338737988e-01
3.116497435663939108e-01
-2.851168093491516786e-01
2.264901511875161422e-01
6.053647058181799157e-01
-2.657781138257010456e-01
-1.160128174431697967e-01
4.356682845530651660e-01
-5.478198546590372642e-01
1.426977708886983387e-01
2.389654331064690607e-01
2.206653553170918047e-01
1.064400120321568471e-01
5.610103345461336932e-02
4.318510309493500676e-02
-6.043613075261685674e-01
3.386409524312404273e-01
2.379370713904921109e-01
2.064657958907611945e-01
-8.023707611225982736e-03
-1.866596021051556975e-01
1.150447424822527293e-01
1.277321812654575173e-01
-9.405285777754519849e-03
2.318708412176569700e-01
1.323174661763140136e-01
-4.607546911727894434e-01
2.008180781803137471e-01
-4.716621580889850118e-02
-2.472638389019386485e-01
-2.131401164602778064e-01
-2.275879710742231277e-01
-8.361052533522669514e-03
1.500803866067058900e-02
2.065848442122690809e-01
4.746123639519300719e-01
1.074173570838954372e-01
3.605896635318234789e-01
1.458760397657948016e-01
-4.028490142352308956e-01
-2.114450361265613268e-02
3.100732645556948386e-01
-2.132486574631536069e-01
-1.743045497981656478e-01
5.756369520686683422e-02
3.386568168369629150e-01
-3.937624207749366306e-02
-4.848264462012735754e-02
2.323131004144187994e-01
3.315349213253000055e-02
-4.178935924337519314e-02
-7.135016645472468111e-02
1.148117962646467566e-01
-1.662508979953331301e-01
-4.777729901686082747e-02
1.580576592183242368e-01
6.212679868660012095e-02
8.324666247539219688e-02
-7.238509848505181310e-01
-5.704570250453284801e-03
-1.605519660833437390e-01
2.943887530906609262e-01
3.218564427000050049e-02
-2.061580540467548503e-02
4.452745744595539290e-01
2.067838701046537386e-01
1.948074738480744944e-02
1.959413117399071147e-02
9.118163291494865708e-02
1.910462429586607391e-01
-1.488602272992359081e-02
-5.820390482037438029e-02
3.646828873705748597e-01
1.024421317203725451e-02
-1.229842041698551158e-01
-7.522423718603893361e-02
-7.768785422944866903e-02
6.205781253097398392e-02
3.255093968004880156e-01
-7.941726666156710690e-02
2.130386391729596207e-01
5.382362463128294305e-02
4.494917590284380204e-01
-2.138301253285783965e-01
6.049261721654465573e-02
-3.063849947125694140e-01
3.416744089317267363e-01
-5.576364375863900325e-01
-6.908555100756025302e-02
5.093155476964569273e-01
4.796792075522737786e-02
-2.309928798047076737e-01
7.699215570516595997e-02
-2.928590274561189144e-01
9.716524313517322167e-03
1.197637045162121827e-01
7.128097752875395612e-03
-1.721008282862274419e-01
1.515191800443777270e-01
-1.019710378201240941e-01
-2.663291224612245878e-01
-3.307482707309956638e-01
-1.351394073776805149e-01
-6.953758203712623320e-02
2.265879731230669436e-01
8.439235877008466336e-02
4.382886555488885692e-03
-1.806350042360142516e-01
-3.393072235423769123e-01
5.460814306795382933e-01
4.590778655741501596e-02
-2.871862459754190300e-02
2.245321092691685838e-01
-5.933067044761497488e-02
1.044718264261936119e-01
2.615488119003673683e-03
4.066858052469791152e-01
2.160664257279649170e-01
2.324711040315321775e-01
1.945033957305611905e-01
-3.041693816276831441e-01
4.359735780478687234e-02
4.554125504909650179e-01
-1.272919586563157068e-01
-2.285999708855365464e-01
4.185859181323229872e-01
-6.321859821390810041e-02
2.096192588014077207e-01
-1.973093997561873036e-01
4.201040720506371562e-02
4.043890925171021444e-01
2.947196265210881294e-01
-2.691035181516141517e-01
2.306414410787356040e-01
2.559634465381713797e-01
-1.962330911734843919e-01
9.577498011035675239e-04
3.829082289891256874e-01
-1.813066423505084457e-01
1.805050809521617228e-01
1.560949293190359299e-01
3.345580464745220306e-01
2.530044607305619378e-02
-1.532239531961969610e-02
-4.848521286046904577e-01
1.182462389613437095e-02
2.264098166126035094e-01
1.942933798106441859e-02
-5.364340731974228532e-02
2.584829165923718808e-02
-1.712609401192297098e-01
1.724517362927096772e-02
1.055737308143733788e-01
-2.478795219616004852e-02
-3.847791521211381127e-01
4.131081895587911390e-01
3.773086876116085037e-02
-5.232417474858696016e-01
-3.957905976847224117e-01
-1.847669281687513709e-01
3.307175681663167000e-01
-2.223453543948118449e-01
-4.600745887226773689e-01
8.415177876146767710e-02
2.081475867036435556e-01
2.125150780779059001e-01
-3.330086656995535910e-02
-7.886946808566838163e-01
2.907056976394724046e-01
-4.718915704886882945e-01
-2.215619516195384275e-01
-1.609449985143306117e-01
-1.596839017005283468e-01
-5.046198763054089015e-02
2.874984005408560694e-01
-2.111886201742517177e-01
-2.201258222655555485e-01
3.807829457361799341e-01
1.200492420617875894e-01
7.593691127997821699e-02
-4.565153936680687030e-01
-3.258496812960026690e-01
-1.841145511029577964e-01
-4.185780942843003727e-01
1.577620494963913600e-01
2.125191875870849623e-01
5.767822358688771966e-02
-1.757966590745685120e-01
1.593984549891129254e-01
2.693350297935751536e-01
-3.330568568361043646e-01
-8.332815676403287908e-02
-6.424540324642626088e-02
1.293011468318688295e-01
-1.511227631834123342e-01
-1.495100650203500525e-01
2.407887475679530986e-01
1.084351174414231733e-02
-4.268277310899730170e-01
1.287025266019331260e-01
7.152589420154993605e-02
-1.447915857781213178e-01
-8.956881338243474766e-02
-3.272553974199357563e-01
1.609922677020154957e-01
4.851258416877957114e-02
-6.563800826734036108e-03
-9.230038383519666156e-02
-2.461290511773910061e-01
-4.474775687067238383e-01
-5.294674961025038623e-02
-2.957146666302873372e-02
3.642099512217848445e-01
-6.247354762315809537e-03
-3.624791160928671485e-01
8.079030539665851135e-03
3.724866380775682106e-01
1.996203948190794775e-01
-1.636093985794725425e-01
-1.736600847112200197e-01
3.252072970153344622e-01
-6.549858245069755114e-01
-4.751628844438037791e-01
3.183451933415486490e-01
-2.012756178015227548e-01
-8.803110802417558889e-02
-2.320275718527501068e-03
-2.909625276262837734e-01
-3.010458356409745906e-01
-1.497142140593753223e-02
-4.334919785116018720e-01
-2.715218934746601032e-01
-1.780113098341717659e-01
-8.305274117772595832e-02
-2.321135194630195575e-01
1.079253960063981249e-01
-4.917477064297144373e-01
9.595616714822563509e-02
1.089857642759698292e-01
-4.186301512401805480e-01
-1.250969089943941015e-01
1.197658426289327505e-01
-7.250533357904222209e-02
2.112886677054259255e-01
2.148305929026695857e-02
-1.488138385386352236e-01
-2.077796549657068004e-01
-1.052667609917124214e-01
-1.407563895680248034e-01
-1.712936387899683874e-02
1.579455169741905696e-02
3.507222185033814776e-01
-4.866311755169341891e-02
-3.308386980515423681e-02
2.921753897282126089e-01
-8.396691652500165581e-02
-3.270236832409069705e-01
1.868770604631574961e-01
1.269933706917957261e-01
-1.137756375790473090e-01
1.860544137602759829e-01
-2.900256493282852288e-01
6.235458652983761479e-02
5.441088742910927811e-01
3.251835517378450224e-01
1.916562381758391831e-01
3.313304609219841490e-01
-4.981066069334780244e-01
1.449730117524944926e-02
1.595065998775165861e-01
2.207040795956706214e-01
-4.484465532183878195e-02
-8.573192455810622892e-02
-1.654855270882521212e-01
-9.238878343084998279e-02
-1.231403679801765794e-01
3.278575394875640203e-01
-2.482060830848342725e-01
-1.366206366673621830e-01
6.270938937008423142e-02
8.767533732125273871e-02
-5.251557891167370901e-02
-5.436167341837618849e-01
2.329455177742097149e-01
1.071502917999029858e-01
2.390502075301850771e-01
7.762202720852066917e-02
-3.681427639342462754e-01
-3.323516432004518517e-01
-1.952589744781146608e-01
3.053734468493211063e-01
-7.151974720689011251e-03
4.352681223772485453e-01
-1.584987902760374989e-02
1.844417844739038581e-01
4.891103615917741787e-01
-2.017968367830232923e-01
2.828991253819217455e-01
-1.270840513440763264e-01
-5.888884524277439303e-02
1.224943316028503319e-03
2.294261253028052339e-01
2.371009191081313305e-01
3.503920364947346426e-03
6.298780835251542587e-02
-5.813875315271403027e-02
-2.528746271183149874e-01
-1.735176155861184177e-01
5.409498986099051110e-02
2.927208556628518310e-01
-1.113870933045152736e-02
1.906445398878353278e-02
2.324452162525967314e-01
3.532939132391356152e-01
1.502005039378741247e-02
2.944852199744818488e-01
1.245090724337355459e-01
-5.937315073329683252e-02
-2.503197112371009503e-01
1.174883526856979749e-01
-1.699072926608245493e-01
-7.268276909518686657e-02
-1.143823219174799066e-01
-8.114747173641731481e-02
2.850848474538715815e-01
-5.341615166462752168e-02
2.974388859677937202e-01
3.044863359438525485e-01
-4.538910420951385860e-01
1.033869960266294852e-01
5.446658613269389493e-01
-7.109360276464136985e-02
-3.623076815992339883e-01
2.828247098557150618e-01
4.366718151473543696e-01
2.894668231052188734e-01
-1.239033942543807821e-03
-2.941374311388339491e-01
2.535611587590592686e-01
-2.705770928903216549e-02
-2.187802523520610831e-01
1.148638455570418354e-01
-3.798572454888847760e-01
1.602948797536073444e-01
-2.123202759307787624e-01
-3.257998760749886147e-01
5.495937154753099962e-01
-3.875842720771183192e-01
-5.146737962108141051e-01
3.696428466728199913e-01
1.372136537392200095e-01
8.610035606482968618e-02
1.244790323646340069e-02
-1.076114844812465880e-02
-2.654157258247558451e-02
-4.761641349496330278e-02
7.327227815971101843e-02
-3.002010359808899437e-02
-5.679974620358522186e-01
-1.460023604653527540e-01
4.506878043873125406e-01
1.913986400752562544e-01
6.788239244541580120e-02
-2.856861635553458179e-01
-2.830956684124271566e-02
5.371492241446874233e-02
9.679266976694075875e-02
-5.094347798390976012e-02
8.197930846206084865e-02
3.481506428949907028e-01
4.720049468844447066e-02
1.323444349581107127e-01
-2.825423018982921586e-01
2.381886429556741569e-01
1.147078174740375767e-01
1.465260508124859896e-02
-2.745263454987850044e-02
-1.303608373572420487e-01
2.568482551497994204e-02
-5.056140168320753803e-02
-7.717544149793731378e-02
-4.728308392638713026e-02
1.173805111126789980e-01
-7.230586772278103924e-02
1.740726667618099632e-01
-1.517463340604846278e-01
-1.364575283945342055e-02
-1.149393499736877516e-01
-5.255387890140031937e-01
1.706116630113149388e-02
8.123823226663927366e-02
2.354482892888124512e-01
1.011466173857266393e-01
-2.436998328495934563e-01
2.642122964367109583e-01
4.569797958046724062e-01
6.396495220267073289e-01
-1.865689759018639982e-01
2.363801842106151296e-01
-1.784948806899764040e-01
9.267542011815699254e-02
-5.547755818746131357e-02
-3.106024401121914025e-01
8.359877096085643888e-02
-2.117833714770499531e-01
1.115125770437750546e-01
-1.848265883671088017e-01
-2.435402127237566716e-01
-2.130023802581886838e-01
-6.395744672489139804e-02
-1.041783819130387978e-01
-5.573235866161976512e-03
-2.022633391508227574e-01
3.815957301703492011e-01
2.103260281645556729e-01
-2.772982242978248024e-01
6.269624019851202656e-02
-2.004032755523548967e-02
-1.542607363193080894e-01
1.708200599708883938e-01
1.840799820192522418e-01
-7.892318519437878654e-01
-4.693760273771901276e-02
4.488332828875076647e-02
-3.056689647911847163e-01
2.373875107350127689e-01
3.593507940649620647e-02
1.126708615719355655e-01
-8.224612924417026849e-02
-1.001767320138629153e-01
3.112648105222004524e-01
-2.602730571108829438e-01
1.779773464952364714e-01
2.046287052156123831e-01
-3.730448674890806116e-01
-9.179206603748894799e-02
1.960191355459996732e-01
4.190592341665382858e-01
-5.244394319587614844e-02
9.074922555537261182e-02
8.272595536457193199e-02
-2.512177071935082356e-02
1.116702119992295933e-01
3.052167678078500646e-01
3.030302746659446420e-02
-1.564031973017818156e-02
3.338737428863370466e-02
6.920874366191037685e-02
2.650229126222729548e-01
-2.123245846267604944e-02
-1.173689330867136865e-01
-1.193898314731827170e-01
1.549318235225584373e-01
-1.889350999978575002e-02
3.163502987820916434e-01
-2.115050105887054388e-01
1.513187518947723131e-01
3.173843518982224499e-01
-7.155938416807486324e-02
-4.319385118310616750e-02
-1.156431057214878516e-01
-2.430740401332696921e-02
7.156433059517831874e-02
-7.169412077824736940e-02
-4.928839729363785477e-03
4.975646760941085933e-01
4.075393916775898323e-02
3.493117610688949853e-02
-8.486342866621672532e-02
1.456474959317140550e-01
-3.516180649433871541e-01
-4.715698567063577457e-02
3.614632286118471538e-01
-2.395445046866900574e-01
2.455707456475488271e-01
1.028228472284134082e-01
1.539401842684048616e-01
-1.286051974522744168e-01
-6.048206625535367670e-02
6.339803353241171315e-04
-1.766327056968061415e-01
-1.960053279374095736e-01
3.092276737006011689e-01
2.798514465067509227e-01
1.271215625402903893e-01
-3.159845964472538828e-03
-1.144623051311086936e-01
-4.669025353641722553e-01
-1.576105326132995477e-01
3.208951199049562275e-01
1.278923091140124479e-01
-5.679011447986211797e-02
-3.334088810934187075e-01
-7.775155116905412001e-02
-1.840673933364130321e-01
-2.102011993670689638e-01
-5.067650543350209480e-01
-3.391533047401369405e-01
-2.237986582912072087e-01
-1.353436496169238556e-01
-9.680935252849018346e-02
-1.205786214563056291e-01
1.359769219197676238e-01
-8.323172770701901813e-02
1.513438186918970307e-01
-1.423997124769327549e-01
-8.603950200366936030e-02
-5.440856642237839047e-01
-3.478685001004783728e-01
2.254967125331071992e-02
-2.568250255380641681e-02
-5.853484679649293559e-02
1.024995172074085609e-01
-3.271684883490462159e-01
-3.881303145056841930e-01
-6.993558068397925931e-02
7.562487318536166570e-02
-3.691817676268757675e-01
-1.787453041741399462e-01
-1.629220490189014214e-01
1.660328787738858669e-01
-3.229930817042595548e-01
-2.417206922887008835e-01
1.669341160248498102e-01
4.849073665549406831e-02
-2.430697877257088080e-01
2.976933648162347623e-01
1.437409604349738634e-01
4.753762484994839693e-02
5.269540068966106772e-03
1.959737396891370401e-02
-7.611106747361330582e-02
-1.044167368789474387e-01
1.842393573275408758e-01
1.709706520149482933e-02
1.477240519438561411e-02
4.924967443607397577e-02
-2.725463007824672212e-01
2.003495473941310223e-01
-5.748327685451963542e-02
2.441496467524617922e-02
1.996103298994374720e-01
-1.027976558288350578e-01
3.031149533220401857e-02
1.508656728026815802e-02
