1.589060498947218736e-01
-4.188743368996641347e-01
-7.775036314081804623e-01
7.095238236904494178e-01
-1.253386965238642681e+00
2.103756101438906345e+00
2.420382060983745087e-01
5.850035471288282940e-01
1.824876122886311514e+00
-5.272200711950006946e-01
-9.304157956333308777e-01
2.643117715775737397e-01
-9.138804456273320609e-01
2.985196547886476148e-01
-9.558355179057045903e-02
-9.889823197761436757e-02
8.312262944852354396e-01
-9.391653535766706362e-01
-3.571415294197518575e-01
-9.684124797184071598e-01
1.236746459987021485e-01
2.018810471447354121e-02
5.176749563966688561e-02
1.220809445281993560e-01
-2.467415873164578166e-01
-6.944201135999565622e-02
-8.940429307298156103e-02
-4.476007497786323175e-02
-2.362180857845258899e-02
-9.221392569756295399e-02
1.398823979279330276e-01
1.678083342990025484e-01
-4.243232338586003793e-01
1.011360725883586192e-01
-1.806972469412030935e-01
-1.356949321936112840e-01
1.484029281290231983e-01
-5.034166631144968429e-01
-4.431821609147869045e-01
-1.405640931362401314e-01
-9.825290679943950167e-02
6.116006426206835878e-01
6.558640673064359827e-01
2.760537418010545752e-01
-1.926698193333590825e-01
-1.605849976425368864e+00
1.833663857984491607e-01
-6.008038995233222490e-01
-1.124301390763018826e+00
6.357591937707592900e-01
9.374287183870818607e-01
6.601606930513378990e-02
2.209172315815618320e-02
4.067433203553765253e-01
3.819164914104783981e-01
2.749949519597123526e-01
-7.069745705873697883e-01
1.746170953845415652e-01
-8.492036042941605301e-01
-8.695899264912176907e-02
3.999874520157521984e-01
2.710230324289619741e-02
1.762228503475501140e-01
-7.966736626832977841e-02
7.678514820321305501e-02
-9.790959417444761170e-02
-2.682603123811818091e-01
1.555352425525240723e-01
2.112127546508444087e-01
1.759348478040921940e-02
1.937208762872897616e-01
-1.590177015184368603e-01
-2.137495760677146917e-01
-4.015361452121590791e-01
1.802125094450702104e-04
3.687943102024587305e-01
-1.467743317525075641e-01
8.084630395222029697e-02
1.496996927169404190e-01
1.277717515361900535e-01
-2.060704919322117190e-01
-2.231057862886832444e-01
-3.512537630760634300e-01
-1.626595076572925902e-01
-2.892969903146149213e-01
4.092920421102996115e-02
-1.035512810930745708e-01
2.113664901238669624e-02
-6.255355605035440858e-01
-1.607774944740217871e-01
6.669235806741874439e-02
-7.676730347968740986e-02
2.205664486460565121e-01
-4.627823472449386633e-01
-3.730880447739353678e-01
-8.225854129781192195e-03
-5.912454459730440703e-01
-2.690732033640867993e-01
-8.130382905147230665e-02
1.604833425629854926e-01
-7.427481267962339484e-02
-1.604570770565620294e-02
-2.340073575199801414e-01
7.793653641471232248e-03
-2.161917259328509644e-01
2.741652381484224188e-01
-9.063405170025788660e-03
4.104713346148479158e-01
9.249609223007364961e-03
-7.481842945332345222e-03
3.616717343421557707e-01
1.035004239552507616e-01
1.675703452183082143e-01
1.693652121886315975e-01
4.554087665736727408e-01
1.256731466711547840e-01
-2.957691571564738386e-01
8.878394393661497019e-03
5.140212207844263581e-02
2.059813917579382536e-01
2.583533294006022385e-01
-4.686791669657989767e-01
-1.349484305555241626e-01
4.250843692413764918e-01
1.536966257910521438e-01
1.237828656075369155e-01
7.099381084374781214e-02
-4.761114418915649571e-01
1.980808621772741918e-01
2.256240414476579637e-01
-4.717413600540789065e-01
5.212082353269591184e-02
-3.520943665147249768e-01
-1.426763990768923629e-01
3.199275189406599468e-02
-2.677021052416658775e-01
6.153613827299818650e-01
1.845805493064984204e-01
-1.314703034186608943e-01
1.081097548806533304e-01
2.711772560246741848e-01
-2.245741458887980380e-01
-1.903199341766904640e-01
-3.863608571234099509e-01
-6.651074986765120878e-02
1.317860717227259393e-01
1.831736441267672322e-01
1.226252268107349275e-01
-1.783743665388272115e-01
4.859302001652731490e-02
-1.236287160620287706e-01
-1.596092086098559459e-01
-4.915436823030546742e-01
-7.235395568822710066e-01
-8.662141341222749924e-01
-4.555385614781858328e-01
-4.165423089109685506e-01
-4.880068562601204418e-02
-2.331975593515009104e-01
1.102335704562005664e-01
1.256720156907359907e-02
1.111125551440606263e-01
2.627306941360936787e-01
6.325249239242425325e-01
8.245453953569535643e-02
-8.732483239558205823e-02
-1.751441052689950983e-01
-5.919189164820471971e-01
5.068803036627470560e-01
-2.384346176242216342e-01
1.766945547907591285e-01
-3.117909388352217981e-01
4.332274375027100888e-02
-1.926711437691703069e-02
1.559239288788559774e+00
4.480522425931463548e-01
9.111511845314438363e-01
3.584675875080410301e-01
6.785745925483988028e-01
-3.597419574051942126e-01
-5.455151504066616669e-02
-2.249727748148622752e-01
9.626047197174242287e-02
2.053206306392872105e-01
-4.526198889057465868e-02
-8.881723347346284769e-02
-1.262866377606648161e-01
-4.157280110126544415e-01
8.313667349012728025e-02
3.007688742456779418e-01
2.427510980514197003e-01
-2.334316849854483622e-01
-1.211753431885128490e-01
2.847705627640733650e-01
2.293589673954624930e-01
2.154857499438252513e-02
1.996634163812632257e-01
-2.405204045050119213e-02
1.706630938886497251e-01
-1.061297249768633488e-01
3.554141891888838029e-02
-3.591967180410303162e-01
8.220478093710333056e-02
-1.380750871932954205e-01
-5.883445021201635372e-01
4.315074794964065541e-01
-7.837840680654145631e-02
-2.040821989453732097e-02
4.979324601925273763e-02
2.804658477343650036e-01
7.671156860089668739e-02
3.734595048625852787e-01
3.765154287060991645e-01
-8.737381615590483763e-02
-1.633178697463422147e-01
-5.371003531447378077e-01
1.510528622986589964e-01
5.702699000588033751e-02
-2.226434797786200070e-01
-3.201847114110567549e-01
-2.096080279039468433e-02
-7.818659609632745700e-02
1.821046254407182874e-01
2.917404401777893841e-01
7.843004787298599179e-02
-3.258976654860430422e-01
-1.069585759629864373e-02
-2.122275321130217274e-01
-3.252270967960498305e-01
1.707137133753654501e-01
-8.040401705416443390e-01
-4.641217079684292063e-02
1.216789976882019092e-01
2.857860093938843771e-01
-2.249503067946863333e-01
2.049419420627802135e-01
-5.574103238641178043e-02
5.085415635653628419e-01
3.136233307574133877e-01
2.855206437488668203e-01
5.660083677142175446e-02
4.006805300455433816e-01
-4.583512793573184529e-01
-2.323602952811536226e-01
3.022403070468067110e-01
-1.138989847618694928e-01
5.231735683008681415e-01
5.467199556007229511e-01
1.748025857796559404e-02
-1.604689752875845532e-01
2.308917324228061951e-01
-3.477900560001877944e-02
-3.117116106768996198e-01
-9.876626284302493508e-02
1.668897725145520039e-01
2.926607166057039744e-01
-4.214781705235113862e-01
9.430015612634634614e-02
-1.627869351285660682e-01
-7.783939454737673347e-02
-5.170466159715922383e-02
-1.315219988905056425e-01
-5.801865968202553070e-01
3.558045446426572056e-01
-2.526167162810390443e-01
1.660560807651309811e-01
1.839108816810202940e-01
2.642197843291724801e-01
-2.522626859635335728e-01
-4.511424733266619289e-03
-1.610284760580278363e-01
2.199884092486277254e-01
-3.350415039925636052e-02
1.387611413885915801e-01
-3.035198003268615441e-01
-1.186189863195117739e-01
-7.607873095632929905e-01
-1.193968474461554359e-02
-3.070277522759338740e-01
-1.524057283973123123e-01
7.561728224541205967e-02
4.816420880342688754e-02
8.370374803798202867e-01
2.236507610344746003e-02
-5.175012220887591496e-01
4.186194244892552097e-01
1.607726571232315216e-01
2.334029125800983206e-01
-7.319372851474149899e-02
-1.477662416887930430e-01
3.629756652526353600e-01
-1.741266984744499480e-01
7.323278627620960490e-01
-1.852095525681433930e-01
-2.590367548258039766e-03
-6.438089245445615116e-01
4.471430463530234184e-02
-1.727888803112100358e-01
-1.832046975575989806e-02
-2.958298185292666110e-02
1.426208507317504592e-01
-2.772771335565010209e-01
1.258235301121975735e-01
2.108111516039239686e-01
-2.680641728834053383e-01
1.696445675631202410e-01
2.486953009881946175e-01
3.527245554421839513e-01
-3.797615079134255001e-01
2.935661886451046421e-01
3.744059571039269896e-01
-4.264709438279074005e-01
-1.327349100176191676e-01
-5.055440693632975435e-01
-1.205578863330484529e-01
4.910538143681171808e-01
1.631062783091700606e-03
-5.074940199785372280e-02
-9.191686953872924351e-03
3.314547956902083592e-01
4.105373474137414408e-02
2.258633084651096024e-01
-1.164258813013081990e-02
3.286277916963769585e-01
-3.969596267480961505e-01
7.654523282022348933e-03
-2.793247600366577932e-01
-5.909935854392564525e-02
1.230582997166815989e-02
2.013745744240308944e-01
6.701278726937771602e-01
-7.952572834982858663e-02
2.300010154604913704e-01
-4.881959251933860044e-01
-3.063357918751460351e-01
-1.543088019516934972e-01
3.648128770781470798e-01
1.721039253360600041e-01
-5.219172240351788172e-02
5.493545044111215470e-01
1.629069747993940886e-01
-3.040757709032939626e-01
-3.721298435280138289e-02
-1.409553141871505433e-01
-4.012216886875195065e-01
-4.735182418528726539e-02
-2.681941243375353112e-01
2.205184217294938187e-01
-4.426772166334515535e-01
-1.616726591548589276e-01
-3.665453481163339494e-02
4.163862639000110444e-01
-3.684439546404516541e-01
-1.614818996606675050e-01
-4.971492668541473425e-01
-1.782907184996602168e-01
-4.118867674427114101e-01
-1.900081419746812439e-01
-3.144171047942669328e-01
-1.641699189044749929e-01
-1.094385047327166155e-01
2.628990868988746454e-01
9.851105567432585919e-02
7.548006919250148383e-02
8.788827807468287123e-02
3.125066054674476845e-01
-1.462705294465999235e-02
4.132383492192437391e-01
-5.481146820818508930e-02
1.481076607488480967e-01
-3.208368820806223320e-01
9.192527499722212558e-02
-4.712507026733189774e-02
-2.007583117393594851e-01
-1.757364841779878450e-01
-4.252342804870591630e-02
2.797314364954980523e-02
1.473441239751610288e-01
3.211104704524064130e-02
1.015661717045058254e-01
9.719047146614338828e-02
-1.365156094736606485e-01
-3.476090805029499742e-01
-2.191718143474125913e-01
3.999898544278116530e-01
8.388325643335449444e-02
4.206326017321199151e-01
1.976681544027270310e-01
-1.451463409775360647e-01
2.117105881028943926e-01
4.721320923067515163e-01
3.000361831738035390e-01
-3.000245800674846697e-01
1.345156839876641142e-01
4.317556595556802934e-01
1.922965149527920137e-01
4.625573966107084968e-03
-9.436524740788848620e-02
-5.475150636040659879e-01
3.238657362547666535e-02
3.459508784520003155e-02
1.029957166392227452e-01
2.626498223689378020e-01
-1.525691922228238073e-01
1.814888322590196001e-01
1.547204502029614348e-01
-8.691031257674826371e-02
-4.227676719177762832e-02
1.278741809838317423e-01
-3.200957140748624807e-01
-1.235702857830184298e-01
1.143213497486096214e-01
1.056700209193593282e-01
5.065666853495849609e-02
2.278445705469180071e-01
4.414143883583513533e-02
1.658073417475062344e-02
-2.185544088794709461e-01
-1.144137964368911325e-01
-2.130254669443555349e-01
5.107372847723454928e-02
-1.155521564843565580e-01
-5.207943893738767316e-02
-3.229730518239688486e-01
-3.930704679737949125e-01
-3.409236067768044443e-01
1.925477762248848645e-01
-1.357839977571294043e-01
-3.442619298412044615e-01
-3.681516187565360143e-01
2.570982406977865842e-01
1.809351979586656112e-01
-6.371050139277883995e-01
2.735275402500373376e-01
-3.177421766208228249e-01
-2.263517439700818423e-01
-1.599919511519435344e-01
2.854982355574801622e-01
-3.127946791127335646e-01
-1.858573937559438727e-01
9.029815943706397119e-02
3.394414305628787321e-01
3.907420260397426182e-02
-4.040157750697526695e-01
-1.770391015249003219e-01
-1.340887017690787220e-01
-1.928194492922039871e-01
2.157007143648905223e-01
-3.062284482460347346e-01
2.540405248740787991e-01
-3.825011067368996875e-02
3.438286458714479021e-01
-2.355084641903230358e-01
-2.331377147521997151e-01
1.159152921139460363e-01
1.137859441872157013e-01
5.898709795755383706e-02
-3.566627776053573479e-02
-1.544507088728725719e-01
2.467934806732820507e-01
-4.369457379763831001e-02
-3.933632489957548661e-01
-2.524486997045963799e-01
9.874296242839735172e-01
-1.506850887047712084e-01
5.231409211765534195e-01
-7.684029682037637476e-01
2.125844240172964639e-01
1.584078801440464424e-01
4.930010556215270179e-01
-8.163228858406590405e-01
3.846485999625232771e-02
5.294354348688934397e-01
5.664436079847164907e-01
1.345824447791655887e-01
-3.393845140368760283e-01
-5.742603128770742416e-01
-2.936657981158057873e-01
1.191206567523934307e-01
-2.667434011274309735e-02
-1.306484425919830772e-01
9.325192709855935347e-02
1.835426303370768508e-01
-3.131971062197198008e-01
1.109895126281032901e-01
2.365702461571750626e-01
-2.868930851618713487e-02
-1.372016299172732767e-01
-2.771717631087848299e-01
2.960132021620401899e-01
1.047808613923473381e-01
9.467351741634953688e-02
-1.487579389977381761e-01
9.640682005927082854e-02
1.986001127325471294e-01
-1.326729128260946133e-01
7.066200299949107477e-02
8.786345057266888026e-02
-1.733837598108669276e-01
5.135413425480800376e-02
-3.290321841846818307e-01
1.149217566138439617e-01
2.458910900576316005e-01
2.518290135955012499e-01
1.392570840411713473e-01
-5.644340447681646111e-01
2.022028137361840394e-01
-3.461163330362105250e-04
-8.542191250523135937e-02
-3.063039066488144058e-01
4.566826340286737201e-02
-1.335511992420004290e-01
1.260355874797621234e-01
2.671875778287239322e-01
2.312600558356685543e-01
1.862582553751469527e-01
6.504102347703062392e-01
5.466108778761499254e-01
3.429758534173060203e-01
-9.422314131057732411e-02
1.532805876732080685e-01
-1.381756652094200677e-01
-3.052781209906057364e-02
-1.130802364879738703e-01
2.674465039722228599e-01
-1.731696177040898121e-01
4.601369323484669205e-01
-3.487295496749428375e-02
1.730143218026040375e-01
5.565787112686056137e-02
5.959609355152664101e-01
-2.468854950393574166e-01
4.341017636723422113e-01
-2.380918769361926313e-01
-1.797827648294552660e-01
-3.848012010768514513e-01
-2.707526801265901506e-01
3.951541044267658370e-02
-3.970472431577296013e-01
-1.943917923961442085e-01
-3.882193493923758454e-01
2.034817204607907715e-01
2.935172504045396313e-01
-1.466868083841464110e-01
1.250398238563954767e-01
1.173667109062609265e-01
7.884278720838097665e-02
-4.172731343139089999e-01
1.387873146593019136e-01
2.358195476881030928e-01
3.448328168876992339e-01
-2.296138127718510835e-01
-1.664317168153729154e-01
-6.988190997071971333e-01
-1.647690367175291548e-01
5.035444593058877039e-02
1.343859188788703585e-01
-1.790476958673494490e-01
3.951914891002157315e-01
-5.737782020654683679e-01
2.190505390297335098e-01
-9.813659716065938066e-02
-8.156965732591515972e-02
-1.310423410947393966e-02
4.386545396472507075e-01
-4.772242662373203381e-01
-9.862359898695396976e-02
1.632709195118718370e-01
-7.931640596946204491e-02
-2.243511593423954883e-02
2.700828933478515159e-01
-1.597929381963803797e-01
4.332183344474632020e-02
-1.334773276554955534e-01
9.286182805870017709e-02
-2.118087791244808449e-01
2.813806861006767357e-01
2.141914472146435877e-01
3.111878522567410599e-01
-1.991511463632122947e-01
-1.633310133021786126e-01
-3.124844459885484649e-01
3.445738676832145186e-01
-5.883161490218985490e-01
-7.871647626062952541e-02
1.698938383254071649e-01
2.243880362470846990e-01
-7.305335984649154180e-02
-1.794724660309650888e-01
2.089687380345808809e-02
-2.260772137705749918e-01
-3.456301674361299259e-02
-4.631401191990588972e-02
2.813224362797438483e-01
1.720933406557282330e-01
6.604262154150873990e-03
1.892953467385400657e-01
-3.200294112991936002e-02
1.879553858271097166e-01
-1.263328865304180065e-02
9.874601443346675556e-02
4.686673572685589595e-01
3.385822897745054821e-02
-1.350064689332082790e-01
6.665016934376226734e-03
-4.826152447912428478e-01
2.132844190219986003e-01
-2.572766835110135153e-02
-1.128293954136443816e-01
4.543151259463667352e-02
-1.067469978494194061e-01
-4.965312549469732412e-02
1.313106382298569463e-01
1.361162470042643624e-01
-6.387859358733428972e-02
-1.362817420451878647e-01
1.009284659509696869e-01
-1.769568035086325763e-01
-7.670998455440959651e-02
-5.983968520033600136e-02
5.265408812867301558e-01
-9.628573261558689977e-02
6.737090182722996201e-02
-4.921523932695157644e-01
-5.637822111352330801e-02
-1.235141508944991445e-01
-2.044092195715577487e-01
3.330739331868675102e-01
1.034855725568511048e-01
-3.465157369854721670e-01
-4.219024152656557503e-01
1.002742411868917383e-01
-2.129737251800906117e-01
6.181455060310482308e-01
-9.710201008698807201e-02
-5.231983022802779576e-02
-8.477159769619742324e-02
-1.997585650758342268e-01
7.519064143837609349e-01
-1.500475589906599128e-01
2.796516121614593398e-01
-4.295460939986216475e-01
-5.729366294863959957e-02
6.504423109482765364e-02
4.446776965014206245e-02
2.312755572203207058e-02
5.152554376676852371e-02
-8.397122064382089857e-02
2.007944759902427490e-01
1.663790547566777397e-02
5.311183217174983984e-01
-1.407822777519468493e-01
1.906789601445822713e-01
-7.162774430584753493e-02
4.823780640275801557e-01
-4.318114424123841583e-02
-1.809451316288121503e-01
-2.763324208001963211e-01
-3.478809310717144720e-01
-1.511774390351353359e-01
-5.014212570345214504e-01
6.934161121616477796e-01
1.242656625900496192e-01
2.606310021873030867e-03
1.854484678371144321e-02
3.558049757867049467e-01
7.245221185005422393e-02
-1.882791521399312940e-01
-3.672202891593314145e-01
-1.734679817449955308e-01
-1.903297957920189187e-01
-2.557216082989200445e-01
-9.571526508394140320e-02
4.531566796953109127e-02
-3.535529640345948937e-03
1.660535729109480774e-01
9.669833930630712324e-03
4.472297425014213484e-02
1.606709194523917583e-01
-1.177912611031404697e-02
2.088880979514630420e-01
-8.947834280228236792e-02
-3.225318144830067735e-01
2.619916095059772743e-01
3.748011544398540673e-01
-1.225995125788724299e-01
-3.792357822521093547e-01
2.507011714231363597e-01
9.842077513842167891e-02
9.890838422304287780e-02
3.170080896953157423e-01
1.240530885311431075e-01
-3.249437052436819351e-01
2.253693277591981015e-02
3.699733982844069513e-01
2.606828201637948622e-02
-2.004493467551721197e-01
-1.828789198267808946e-01
2.360713020435036835e-01
3.030994452326636335e-01
-1.981122869649551976e-01
3.504814908500302195e-01
-1.957355663976444726e-01
-6.900201181175003029e-02
-4.096045023818346564e-01
-5.898528765204209129e-02
4.187161890578242063e-02
-4.640599387421492916e-01
6.495400531711427450e-02
-3.210515149072927510e-02
-3.886617518752522038e-01
1.227382929367697439e-01
-4.148192936025520972e-01
2.452551990864386411e-01
1.153836203264378968e-01
2.134221939153085612e-01
4.212689061953417413e-01
-5.220054157497088232e-01
-3.559748356091912980e-01
-1.249796139832820979e-01
1.378096511531815560e-01
-5.094241433713954104e-01
-4.326101006809435212e-01
-1.359311876422901189e-01
-3.155067245818134469e-01
3.862428622443502824e-01
5.145274274350439825e-01
-7.569797068681208829e-01
1.821144561554424446e-01
-1.061980654836771759e-01
4.625349375432736831e-01
-2.058019866238251783e-01
-3.801971658589389791e-02
-7.596476239902466565e-01
-4.203585416792633006e-02
-2.801881432512707756e-02
-2.794595258131389315e-01
-8.232731216185078249e-02
1.589579940717090745e-01
2.517945137894250229e-01
-2.137734300701699397e-01
-2.179531772481336366e-02
4.588290768133629349e-01
-2.950041194745624540e-01
-9.244029338367892867e-02
4.696250402678794345e-01
-1.030119229304771733e-01
3.440572582733487234e-02
-5.523658390255999917e-01
8.135427800956193667e-02
8.336194975968505561e-02
3.869626164698712900e-01
-7.970451881895311563e-02
6.002629664892562555e-01
-6.751399877918044801e-02
2.458166315609677244e-01
7.899544769188610038e-02
3.029580741777313513e-01
2.299660559693934847e-01
-2.880863733189536480e-01
-7.121519812430908702e-01
7.818050775921854545e-02
1.107124771633058100e-02
-1.849902270103689628e-01
-7.230645680131349007e-01
6.198933617710479238e-01
1.048614334357479833e-01
-1.361347720095496851e-02
4.663610497613664418e-01
4.447769571389456056e-01
-2.442809587782680536e-01
3.296607121200318402e-01
-1.781108269420141610e-01
4.595961756211986438e-01
-5.814981576990960743e-01
6.585975991661766615e-01
-2.557621858880926302e-01
5.450003198729282960e-01
5.174710303266538691e-01
-3.489734752537781426e-01
-1.951342658433067312e-01
2.245120367098607794e-01
-4.047425914013900311e-02
6.996959901150387462e-02
4.773160738042507290e-01
-1.152890889679693276e-02
4.309177637032040598e-01
2.149653134537360955e-01
4.990625027825913718e-03
3.311290226723317964e-01
1.650317712813661186e-01
2.160311278254653522e-01
-2.501288811639971188e-01
1.647836836010071193e-01
5.761656709135727639e-02
4.339687819405916858e-01
2.281032429066304767e-01
3.906935516460640634e-01
-1.786116617724627653e-01
9.332616372384886991e-03
3.208729433513824447e-01
-2.280957933541714056e-01
-4.102328161756975122e-01
-2.708172826558550295e-01
2.393731948692093547e-01
-4.707678019046310780e-01
1.172887840073567195e-01
-2.762501480902471163e-01
-4.276906323967998858e-01
3.118227442049114062e-01
7.729199399665381831e-01
1.278205104597231190e-01
4.433394031993238005e-01
-5.876681864931632138e-01
6.372636791497950093e-02
-3.630042612286069614e-01
2.401344509199511701e-01
1.108054518874201505e-01
-1.558522439738388721e-01
-7.947123474544065536e-02
-3.566325571179052578e-01
2.203595689427712834e-01
1.776745063943967473e-01
-3.115763660929810400e-02
1.809785844376870234e-01
-8.246051036936735690e-02
2.869490212467936119e-01
-2.895097574721415823e-01
2.222846712887587006e-01
-1.411123610025654673e-01
1.399608713812794669e-01
5.889995695312366664e-02
6.473139007319805849e-02
1.091632307354168385e-01
-1.019386910880090286e-01
2.234398241039222965e-01
-6.423493095451082713e-02
4.283040212505407340e-01
-1.041819187144225056e-01
-1.591410093204707332e-01
1.730227135008739203e-01
4.631007117678703766e-02
-3.219601628986256681e-01
2.052002181228782252e-01
-1.500699043643422687e-02
-2.466579623347223138e-01
-1.081869418550474304e-01
3.561578277659648017e-02
1.767903250934329262e-01
2.711775409871637621e-02
8.931149724920711686e-02
-2.512513896434509855e-02
3.017680143060651465e-01
-5.484425640151817660e-01
-9.986788801802359838e-02
-1.279792995910740971e-01
5.956799637455136714e-02
5.545592222561740448e-01
-5.532785500492731073e-02
-3.292239812503475194e-01
-3.776318313985268377e-02
2.384943469231166069e-01
4.392838034469149361e-03
-1.613156552679431421e-01
-3.385868418476147834e-01
-9.910912591534232208e-02
2.374848004349708053e-01
-3.229632448009785439e-01
-3.451753482266235740e-02
-3.207919945426628699e-02
-1.255118941744794714e-01
-1.637088274949582700e-01
-1.649146912336300341e-01
-1.744484354828144124e-01
1.786959820227480289e-01
-7.046884083133114762e-02
-9.244222463292861569e-02
8.437982614801681214e-02
-2.406243625111506301e-01
1.813009106985115360e-01
-6.317898498946441510e-01
-4.675349238319363443e-01
6.407231247591103074e-01
8.427183912434350888e-02
-5.859396632300601926e-01
5.308795509952601854e-01
-5.568591671941180987e-02
-2.223265779743320292e-01
6.141966142019519154e-02
7.033538445035574238e-01
3.984115314297335259e-02
-2.667277736122833920e-01
2.054202018754598680e-01
-8.470404433616154360e-01
-5.236212240513482552e-01
1.837385405915886727e-01
-4.897917319140020730e-03
-1.402643769780852478e-01
1.974599399951207646e-01
-3.991634666768912876e-01
-5.952077980450493078e-01
-4.969150558294722630e-01
8.809215287195738819e-02
-4.564630135185304693e-01
7.282277431743409135e-01
-6.154616749382101765e-02
2.072224672630313957e-01
-2.185118152691785665e-01
2.310424803320902110e-01
-1.881671730377172946e-01
6.444560888389534725e-02
9.112857428410347377e-03
-4.633552672497356917e-01
-2.151699118748358064e-01
-1.716086224137948757e-01
4.022058883741734814e-01
1.065021566257213642e-01
4.274470647899598630e-01
-8.495145592389710676e-02
-2.194690457274001485e-02
6.124729909765576075e-01
-2.111445717414354162e-01
6.973011843786966479e-02
2.650584513639530626e-01
2.475451490344713137e-02
-3.549461901540338915e-01
2.184209684323123735e-01
-9.641695929939507470e-02
-5.679415519780045551e-01
2.146624082052392135e-01
4.713079926362203631e-01
1.367798878289551712e-01
-7.652235198091596191e-02
1.480504623964803979e-01
3.261070469190541221e-01
-3.955320996797939137e-01
-7.582643132839947397e-02
-4.331786263574340934e-01
-2.183249810105867550e-01
-1.081814979365423000e-02
9.617008557309307537e-02
3.357214510809723995e-01
1.893414296003587405e-01
4.666534029755733254e-02
-3.558831781907526581e-01
3.922953719130554129e-01
-3.388753609071024631e-01
1.195948253066048406e-01
-8.294959427846415601e-02
1.237511051107364514e-02
-3.845025422511560986e-02
9.645944536098047251e-02
1.088393694803286571e-01
-2.823469231238474597e-01
3.374087288912169247e-01
-4.056687725747429862e-01
1.350552134972366758e-01
1.042791387053704361e-01
-1.982981252385730697e-01
2.915140664029356940e-02
-1.340093090514021534e-01
-4.214951410198617410e-01
3.385475660870085335e-01
8.178156757785641495e-02
4.385283140287626336e-01
-5.843729565106222656e-01
9.486170543596965377e-02
-2.784029044466428474e-02
7.785922816035067973e-02
-3.428259818849296869e-01
-3.518848108832023369e-01
-8.276892241809295780e-02
5.503768415314918006e-01
-3.372940128164054197e-01
4.901892200202087602e-02
-3.663621143491047061e-02
2.635712365797580614e-01
1.215680886079304780e-03
2.392529681336030001e-01
-1.134141938087877832e-01
4.021103041354825991e-01
6.971164569552203150e-02
-1.179722316705141341e-02
2.514438932487337852e-01
3.786115291034721220e-01
-4.350673661398891667e-01
-1.310070010267291585e-01
-2.055685678809353878e-01
3.666798592228435322e-02
-1.626861634263120360e-01
1.781860806565145061e-01
-5.368510369428775020e-01
-2.846968911168518690e-01
-8.451453406457781758e-02
-3.189470680757483523e-01
1.351944274273899627e-01
2.078112280763918795e-01
6.629188516228763373e-01
2.838199169696447588e-01
3.307630786835796255e-01
-3.664699203548982820e-01
-6.629951740798914472e-02
1.349416197698632691e-01
-1.969761472301098382e-01
-1.494616096869250399e-01
-1.258407999857147352e-01
-1.061444263154159989e-01
-3.089392669194190172e-02
-2.754937591812332554e-01
-1.784579626020735624e-02
5.984161917502714423e-02
-1.498865434626898974e-01
-3.539632184327479725e-01
1.510444607776205705e-01
9.376671158225761971e-02
-2.781590608159723033e-01
-2.032433548304392601e-01
1.386567062273799666e-01
1.620570076560310518e-02
9.346731326530971495e-02
-1.394836640027524999e-01
-1.535830371745056100e-01
-2.145369360376784551e-01
-1.837592395297883360e-02
7.374913189308529571e-02
1.044892058799939127e-01
3.788868760583406770e-02
1.235696339194013310e-01
2.967591647614015171e-01
2.236316193455403223e-01
3.207257557292935712e-01
1.781014641931326081e-01
-2.575689338117583271e-01
1.466471468577860426e-01
4.052348417703834915e-01
-1.569828508031345660e-01
-4.409983751372879013e-01
-1.001458056517748885e-01
2.783916895877123210e-01
2.379961032473094373e-01
4.647765096600139229e-02
3.487551727070082319e-01
-2.698461632990873382e-01
-5.825582889417998261e-02
2.082882322770330807e-01
-9.803402441325331784e-02
4.977408270158141523e-02
-1.511768742290305612e-01
-1.116065065921150734e-01
-1.438241804970436244e-01
3.841843993351353737e-01
-6.788542994594957969e-02
-1.619735849946744299e-01
1.870809421753553137e-01
-1.795867160525889406e-02
2.449880161139628143e-01
2.309255342773532949e-01
4.279140896768232616e-02
-1.632223540858828703e-01
-2.496192576861971102e-01
2.035262436127804053e-01
2.431859420501077812e-02
-2.090875966062348268e-01
1.155597178517112217e-01
4.420094039035588618e-01
1.321646991261993254e-01
-2.106551009822222598e-01
-2.712957218594406195e-01
1.581962645339266005e-01
2.131418632395737367e-01
1.698187659327261012e-01
-1.485075878104694658e-01
7.339859809826523862e-02
7.156065886909879215e-02
1.174446601314649563e-01
1.959243572865818350e-01
-1.050535455520768408e-01
-4.627194307247064348e-02
-1.996898773272611782e-01
-7.356163846191830780e-03
-9.632627448860421604e-02
-3.323689072986406312e-02
-6.204412322013545464e-03
-1.048683755393758077e-01
-2.515248544985087750e-02
6.301142301999236583e-02
-3.169333057122553088e-02
9.475728243620865077e-02
4.635525177145732867e-01
-3.517557812252096738e-01
9.094611712809338305e-03
-2.888162029766735417e-01
5.097827514525736514e-02
-1.987697564415292772e-01
1.928725401501545783e-02
3.130245910929215780e-01
-1.557600467860242310e-01
-3.242687103358931067e-01
1.303048456953861955e-02
-2.582067367762653776e-01
-3.225661627859311431e-01
1.175056601868497766e-02
-9.600393816398658520e-02
6.359119350802984461e-02
5.996086137102871749e-01
-2.648819966961121208e-01
-7.694291266822483877e-02
2.042622243062068854e-01
6.051941087065934033e-01
-3.689759350060485832e-01
-1.091162213109274706e-02
5.395642024518519930e-01
9.187564027044853310e-02
2.086656291924249285e-01
1.457089117721140359e-01
2.163953311869679930e-01
-3.534621900646554848e-02
2.262964528215991866e-01
-1.560768949705905462e-02
5.966235639865297147e-02
3.550514933593012373e-02
1.145902282019221376e-02
-3.463620331996226653e-01
-2.442930965031351598e-01
-3.675730718618990811e-01
-1.810620503648851520e-01
-4.779986257206889771e-02
-3.449918198480668163e-01
-4.992645016538225199e-03
2.193002326373320321e-01
-7.523776710152937572e-03
1.631500772588732537e-02
6.810504112338088001e-02
1.842563200906660870e-01
-3.959310644217407457e-03
-2.094293268089712223e-01
-2.228135078028574932e-03
-4.079936388587539903e-02
9.841943757608009880e-02
3.131593509501394146e-01
-1.982253232832232037e-01
2.550901770765440224e-01
1.035669748180158417e-01
-2.530042489917729842e-01
2.057189670337638276e-01
1.993100077754029475e-01
-1.366595898670301956e-01
1.023076443429755261e-01
1.198205307842914041e-01
-3.363626583923511326e-01
-8.280666736200495426e-02
2.690299070083371213e-01
6.007949596532163178e-02
-2.637752012006552502e-02
-8.271551274906807638e-02
-4.859830311820088206e-02
-2.035470549889992486e-01
2.463420312999070605e-01
1.556519402183834111e-01
-2.351048718075662847e-01
3.238020214782003081e-01
-1.519839224964236180e-01
6.845505560232313658e-02
9.095390212863106727e-02
-7.171180239474633789e-01
-3.145966725526220809e-01
5.968438807196431162e-01
-1.319619817540871320e-01
-3.266954595705811593e-01
4.886304931237622218e-01
4.501601608150668232e-01
1.595391753911617194e-01
1.928062150923642512e-02
3.651167984866691141e-01
-4.737420299848474903e-01
-8.248495655652867721e-04
3.639690669340786555e-01
-2.518273877940963024e-01
1.214506500467207317e-01
-3.272458159992256560e-02
1.159466011102599642e-01
-3.907947989899454577e-01
-1.528462725316127313e-01
1.622393678801526198e-02
3.674847587979363506e-01
-5.633317486619537906e-01
3.518049398867003491e-02
1.416968395703291639e-01
2.949297516267640473e-01
-2.639077443251222274e-02
7.955363028467318798e-02
-3.215632831729934304e-01
2.671056261681666322e-01
-1.597231097084827467e-01
-2.147799542407835827e-01
4.407245078467239563e-01
3.866873369915871383e-01
6.175992364970979420e-02
2.824561490537613184e-01
2.371593212516402704e-01
6.694156206157451106e-01
-5.219353442724541242e-02
-4.742236599881484715e-01
-2.672387057113330133e-01
-1.008641780267108601e+00
4.933591719124162667e-02
-5.247772863831700052e-01
2.116656222478326133e-02
-9.388455612784105120e-02
5.971335801143948796e-01
3.920093832601772577e-01
5.008728383410700202e-02
1.051881021831198582e-01
3.552798170129188304e-01
3.156794704559137132e-01
-1.753301060505653708e-01
-1.319959273407415035e-01
-6.609753659379848933e-01
-3.502092558015783980e-02
-3.341363032099090580e-01
2.204482720719384004e-01
2.062518225053513177e-01
-2.828882524720338631e-02
-1.117792659157788443e-01
4.538241655356436977e-01
-7.669290960613045494e-02
7.029945311346033621e-02
2.203532124563512828e-01
-6.103949586390681192e-01
-3.373464792194004191e-01
8.317637306045758128e-02
-3.165941433285678064e-02
-1.529466422001164172e-01
-2.833489986150118378e-01
3.691565868959070795e-01
-1.917718437891097749e-01
-8.871595578331184506e-02
-1.441062682598186206e-01
4.823415994947556906e-01
-1.090773465386078167e-01
7.304117010854536962e-02
1.670209539965527568e-01
-1.571834433004772880e-01
-2.575389774734208603e-01
-2.488550329682361062e-01
-3.300657006826409057e-01
-1.701106280259540027e-01
-2.531092776510966424e-01
1.777625628964074334e-01
2.216278251340599303e-01
1.658435522693580133e-01
-1.637123754291259226e-01
-2.992133626039703564e-01
2.328494394569149417e-01
2.088179833872339797e-01
-1.303663908947016170e-01
4.454709945449061848e-02
-2.347876378768691541e-01
2.540806513522059218e-01
9.430660990610688355e-02
6.868865706941174043e-01
-4.017677629928354532e-01
6.226174296819823872e-02
1.199425920298851089e-01
-5.643741575077391159e-01
5.281780542511506082e-01
-3.358105723123879227e-01
2.102860006885095001e-01
-2.549329816766983670e-01
4.367343151033888926e-01
1.526192867666739152e-02
1.056690349378951004e-02
-1.147942756121138608e-01
3.214888732667069426e-01
3.099891019791395363e-01
-3.796176734630931082e-01
2.002487352978202240e-01
-2.260537597623992201e-01
-1.828564228350331444e-01
-2.277141964549514730e-01
6.623699796799090156e-02
-1.186702692429770223e-01
4.173013337703283809e-02
8.536210970862398439e-02
2.894394689029863299e-01
-9.736785504977837902e-02
-1.085493553914098908e-01
-2.804182458783327503e-01
-1.240216707778250410e-01
4.480036552116357096e-01
-1.110253352405263516e-01
-8.495026532627057703e-02
-3.520667054908298566e-01
1.737708056123740130e-01
3.254410070109548664e-02
-3.879836625374868397e-01
9.476335223957434162e-02
1.304522781496717521e-01
3.764919461708596260e-01
-1.633350618087722195e-01
2.079049323225188803e-02
5.048046891351790633e-01
2.170119996125200595e-02
1.729056986440521138e-01
-1.677711959655215634e-01
4.808252110073759078e-01
-3.629563390542563384e-01
2.660226478738846878e-01
2.094937140199855941e-01
-3.207141553426402780e-02
-2.514342802724746084e-01
3.563305761705873875e-01
6.297023371841626860e-01
-4.378300036017321872e-01
6.502400158799549468e-01
-7.698724934950401666e-01
5.409057203996935764e-02
-2.794584322829755663e-01
-3.327164292545328195e-01
-3.723661643593951798e-01
3.321615078167252100e-01
-5.041416486830192500e-01
-5.710516437763465264e-02
2.902269934818040853e-01
-9.496505607081009437e-01
-5.162856169500774639e-01
7.875430298945497454e-02
4.061432190955381882e-01
-3.564859041723010824e-01
-6.425298421173001318e-01
3.083507675558377903e-02
1.755393557937028060e-02
-1.925152390086426191e-01
-4.572162389769253155e-01
-3.786832655371759060e-01
-1.567089951235328404e-01
4.744230562607381629e-01
3.734623784426024384e-01
-1.927004977510246297e-01
-5.488418533231740476e-02
-3.370449423557742713e-02
-2.606216299017695137e-01
-1.977753948593185401e-03
3.488526228719590616e-01
-1.080163018733398261e-01
3.581027876769576346e-01
-1.021967809260398569e-01
-3.935792873853133922e-01
-6.283148060948198776e-02
1.217453172108498155e-01
9.476191861131318117e-02
-2.072683898085347226e-02
-2.645495967769107559e-01
-6.891346815682231064e-02
2.166534077158337457e-01
-1.020505011324636044e-02
-3.453687851434926182e-01
2.862046573855083764e-01
2.978403572915018852e-02
8.030528514273441165e-02
6.000516235699817486e-02
4.892996802367877707e-01
1.678006393051557563e-02
-8.044265254077628824e-02
-2.028857723362048615e-02
1.394416722969590849e-01
-2.612748070660352306e-01
-5.929538798999728355e-01
8.319486890407401525e-02
-1.157152681489559964e-01
3.663941076984537637e-01
-5.429429215466669012e-01
-1.073427194701729731e-01
5.810488546138019295e-02
-1.908396411622437228e-01
2.320852912405707569e-01
-5.196769725060194078e-01
-2.558156628717772052e-01
-4.161296866471821954e-01
3.703909109387960030e-01
5.253271632465118801e-02
-1.856297064449401457e-01
2.988767135675391429e-01
9.272827382656127770e-02
1.414888448373761987e-01
-1.208794504158471478e-01
3.431031179985080670e-01
-2.630438885155345075e-01
-1.136752055467372610e-02
2.872873200871743984e-02
-3.965080460693454212e-01
-1.735704313658239517e-01
-2.214833311947813077e-01
-2.745522018579143464e-01
1.211626413420484882e-01
1.940205816381279993e-02
-4.326228585941593319e-01
1.301678390788335304e-01
-8.871085360397576707e-04
-1.992201143913291672e-01
-2.683909229163298771e-01
-1.557861955162761214e-01
3.435369677818946865e-01
1.163568154894439183e-01
2.208849760608028456e-01
-7.867054611637600003e-02
-3.570681596068819297e-01
-1.588432616184314028e-01
3.563821769665989625e-01
5.368695858394123555e-02
-1.365021729044743441e-02
-2.074492225145626867e-01
6.813141477634871990e-01
4.637666995166004891e-01
-1.899606396352434834e-01
3.000134418642913525e-01
-1.476346250747034017e-01
-1.675132700703412802e-01
-1.576114441324868443e-01
2.427172992257708717e-01
-5.611375353317689108e-01
-2.858148666633718027e-01
-1.629198256723569660e-01
3.451834037690366674e-01
-3.683354642139352597e-02
1.311994562247210117e-01
1.449929249857627722e-01
-1.079877559829279937e-01
-5.223469444508551662e-01
4.075921358730916766e-01
4.387088733622510756e-02
2.291550297882827270e-01
1.331079385902835810e-01
-2.604034079177087735e-01
-4.204270454231976983e-01
-2.085481319069899808e-01
5.007524409869733573e-01
-2.516804300282002860e-01
2.334995137118802966e-01
-1.483926721343400146e-01
-5.603803521414445210e-02
-1.942491643491461584e-01
3.344770255355952182e-01
-1.598271926708308699e-01
1.033167833171850375e-01
-3.519838955614963960e-01
2.380441717118347289e-01
-6.568626250266065281e-01
5.035754999571954160e-01
2.575699539725604184e-02
-1.609298388390285328e-01
-1.068374031959262171e-01
2.073503210668441524e-02
-2.825531038401526418e-01
-3.717400476779541552e-01
3.386057662523623835e-01
-2.140371723307704366e-01
-1.406920234976384021e-01
8.325079144604831394e-02
2.029048460213874472e-01
-2.742429840009487640e-01
2.314115568477129736e-01
-1.125430015855425486e-01
2.652693458297514240e-01
-4.192920465069641667e-01
2.213599505264942160e-02
2.092839732400099406e-01
1.727042240128970618e-01
-7.692163846646839220e-02
-2.340841821299546044e-01
1.353475146693351727e-01
6.221632829246492857e-02
3.091406635907185674e-01
1.772493794983112381e-01
3.016654249904925367e-01
1.603582552365296898e-01
1.701328091593895808e-01
8.417454683351111022e-02
-1.201790522610679118e-01
-6.466588766245766340e-02
8.004048096337541829e-02
-2.059293821143487191e-01
-5.603160720976127496e-02
3.680565361684466630e-02
4.857446603174646049e-01
-1.194887468899585165e-01
-6.434171642967717597e-01
-2.167728518722048803e-01
2.731782472742385615e-01
-1.333571461032953265e-01
8.053151215751783165e-02
2.654174835672190036e-01
1.199106069849210920e-01
5.265847882839289618e-01
-6.099523236865166814e-02
-1.458515652761187831e-01
-1.302286377479473234e-01
3.614307407755171231e-01
3.074075768995996882e-01
1.034342400628538855e-01
-2.072616126108396961e-01
-1.010623146890402141e-01
1.015331065956379814e-01
-1.785475661286421711e-01
-4.695014963012849041e-01
-2.524777210072781108e-01
-1.922567991584850366e-01
5.755612356328444479e-01
-4.346546962881397969e-01
1.299076941306933353e-01
-7.372531969669081364e-02
3.815572546286924993e-01
-1.468399259325181838e-01
-6.452602836344900616e-01
5.802582418519895008e-02
-7.573153220794549834e-02
5.309792587939010655e-01
1.662874704022541117e-01
-9.568859633131945874e-02
4.126363712825175112e-01
3.196401127234726330e-02
1.117952004088811763e-01
2.647984439140665391e-01
-3.224442545105549174e-01
1.995633078394892512e-01
8.713134429358354582e-02
-1.746929447796826962e-01
2.730750034299819218e-01
2.458298193855004976e-01
-3.861090272422016412e-01
6.418926333945740303e-02
2.888246902192140655e-02
-1.778341326107582554e-01
-3.616307938719149351e-01
-6.669683827743841387e-03
1.284075511225990680e-02
2.855054037111768306e-01
-9.806371248065433310e-02
-2.099747121847105047e-01
2.063143105058318494e-01
-2.868850017707064715e-01
9.712315842313472281e-02
-4.322324969595656152e-02
7.222512196905210569e-02
-5.005989448932174346e-01
4.469730074105575657e-01
2.496509953556659556e-01
1.537324272924505408e-01
1.202862006108833259e-01
4.043228534512224304e-01
5.899783106348118616e-02
3.558829466150924964e-02
7.358570676062695104e-02
1.999307779174547550e-01
-2.259193650539573217e-01
-2.898459491897405482e-01
-1.835904073187579755e-01
-4.159642751452830578e-01
-2.688860296909138525e-01
-5.355118484567791270e-01
-1.394870909919175284e-01
-5.932257077919425581e-02
3.284225619303812044e-02
2.625042115846595858e-01
-1.163014774171135662e-01
1.346630802863177656e-01
3.378917206670938034e-02
-7.863805670900082812e-02
-1.494384707654985711e-01
2.208446696901040507e-01
-6.186329300366684436e-02
-3.136165376656184778e-01
-6.638257391728753787e-02
3.124259932933169392e-01
6.155549551432050182e-01
1.889582515927774597e-01
-2.601094898009383427e-01
-1.228934473370816849e-01
4.623244684926279199e-03
1.081298630846369846e-01
4.269857822103576006e-01
-6.889414310375610584e-02
9.153429858034152489e-02
-2.329369729122351407e-01
5.294711615248123143e-02
-1.730388089606560709e-01
1.715431307649261383e-01
7.150921343169393263e-02
-2.056069757880649076e-03
2.279652939396870637e-01
-1.609112022841214795e-01
2.579927759054664316e-01
2.853245568138274013e-01
-1.380028734077990982e-01
-2.392657034604975530e-01
-1.647289630383504400e-01
4.120557942504438631e-01
1.394092650768192221e-01
-5.596684247820358192e-03
7.095456346540103543e-02
-1.406283403210917271e-01
-2.114339243141838687e-01
-3.594883515239839511e-01
5.828419652684928565e-01
-5.094963102167580082e-01
8.186732351678158159e-02
1.350933145708058114e-01
1.832120506247698899e-02
1.693694092247294558e-01
-1.485708682676716297e-01
-1.516472392017645943e-01
-4.138543477650983432e-02
7.492053039282749183e-02
-7.330930262726682682e-03
1.512533450119433465e-01
-2.536657606461483264e-02
1.183142734027007280e-02
2.797011737769012907e-01
-1.819881918483822192e-01
2.307583820728983381e-01
8.885324218503740101e-02
-4.182515271143546487e-01
1.710215167996876617e-01
-2.987531180047031110e-01
4.960385892563749510e-01
8.858753259719628209e-03
-5.306575375196429661e-02
6.127857682802472124e-03
3.527708566551828184e-01
-3.501994481200255693e-01
-7.900323834463048034e-02
1.363185597355035805e-01
3.295994831605136843e-02
2.056110644073283478e-01
-8.221102115300007451e-01
9.083599223737055806e-02
7.782996229265549959e-02
1.768243563871134127e-01
1.578790076323842440e-01
6.180811015503676065e-02
6.204679444486970591e-02
3.209183197040200997e-02
-3.730817516578888715e-01
3.694845117826014436e-01
2.679464158260021489e-01
3.727339754519828907e-01
-7.504853493080289040e-01
-5.384180290862924378e-01
-1.015205600932943680e-01
-4.096155486388807221e-01
4.814867976711521558e-01
-3.877808082267353296e-01
4.679170959486381731e-01
1.901964643982961833e-01
-1.349064422343801417e-01
1.071404798381542511e-01
-4.640843090722797104e-01
-5.460176341718313980e-02
-2.629463206681362797e-01
1.308980894520352101e-01
-3.576041189494139072e-01
-2.098724385209617127e-01
3.192071360651970169e-01
-1.278995427881259306e-01
3.394983257252783271e-01
3.760973110451668600e-01
-3.505893838300832011e-01
-1.398467621571847404e-03
2.695008187070589978e-01
2.387804623256467237e-02
1.544716314855980044e-01
1.044742363072594382e-01
1.997250871813534279e-01
-1.193784052115894334e-01
-3.393303890300848336e-01
-1.026966446535593769e-01
8.557660742769454543e-02
-4.254836527092796250e-01
-5.341766097058858525e-04
-2.782890893829258194e-02
3.655793380261698755e-01
2.095129158874516895e-01
-1.120776971146798112e-01
2.751787224224591655e-02
1.956477170612346550e-01
1.622188954932737293e-01
5.015261403344075664e-01
-2.593743945406866147e-01
3.885934736571427517e-01
8.317530473279774461e-02
1.119981708731675740e-01
7.798529655123180582e-02
1.007078832927685991e-01
-8.891319621767750092e-02
1.814891142717153238e-01
2.781021865635348034e-01
-6.797803551364660357e-02
2.678597790906979137e-01
1.722752569279692170e-01
4.237993968970867886e-01
1.499652926829944111e-01
-1.502210727139810520e-01
2.147338326868121761e-01
2.535847926862446755e-01
2.098999655585932766e-01
-2.223582937121398317e-01
1.400321396389818673e-01
-4.791947351323078141e-01
1.552815866853474724e-01
1.301575756229179648e-01
1.188834399072493941e-01
3.063684748897185228e-01
-7.166064470152976040e-02
-2.044328195375972601e-01
-2.825197175352785195e-02
4.061701725050955586e-02
2.759648050512721329e-01
-3.761079860006829034e-01
-1.547229722123422968e-01
5.863385927649616275e-02
-5.566361332895258807e-01
-1.522665257108419268e-01
-3.847344673444950264e-02
1.939814078149954824e-01
-6.315133964028222247e-01
1.262322729678003741e-01
-1.943911195552544824e-01
-9.999775266478216906e-02
-3.497985305501759568e-01
1.951527400055295680e-01
1.327341278484323595e-01
-2.009407662218282709e-01
-6.430387040661363074e-02
4.536775056525466088e-02
5.313748936141561297e-01
-1.445027232592962507e-01
-1.726804591984582027e-01
1.254175119414655259e-01
-3.186679420841716931e-02
-2.066206087432672645e-01
4.891665773924371852e-01
-1.545124440951657456e-02
-2.101382402251756043e-01
-5.946859002351661400e-02
1.843249063494702411e-01
4.167314273048558677e-03
-9.856707216617584255e-02
-4.647582404172555526e-01
1.979423280551342035e-01
-3.082259965655537726e-01
-4.237667934406132431e-01
-4.973600604346885973e-02
1.200727233329534072e-01
-2.475166135777132348e-01
-2.881003084158705735e-02
6.871448882825230420e-02
1.429050300215199965e-01
1.837162775269601811e-01
-2.414883175425165118e-01
2.245948965842358980e-01
-2.760937992670892127e-01
3.507735617171620773e-02
-1.725263557870243825e-01
9.400624216636897790e-02
-2.352181149416708028e-01
-7.273211740415432003e-02
-2.735964525004708214e-01
-4.602721703455762703e-01
1.382036366230558755e-01
-1.815802010918998455e-01
3.931166500292210264e-01
4.166153498420335083e-02
-5.453104080128923226e-01
-5.462848504357759039e-02
-2.588983679410737371e-01
4.140414998916984168e-01
-4.757147462660099579e-02
-3.203990369335231736e-01
6.072433795081543656e-02
4.548413099630713163e-02
-1.560506697286751232e-01
2.275590289714256031e-01
6.862298235616669240e-02
1.093785544588442848e-01
-7.135796888877238286e-02
-2.289764270379972266e-01
2.857029957320662006e-01
-2.522740896876349281e-01
9.905505941165307360e-03
-4.771692436704425000e-02
2.103823164646297372e-01
-1.833790806951256791e-01
-6.613121112668939039e-02
-1.168176936592681542e-01
-5.666536756147475540e-01
-3.938139604952559103e-01
2.959216546012538931e-02
-1.190125409437534920e-01
-3.485061476243622031e-02
5.549334255432071539e-02
2.453313500239773515e-01
-2.926491349285227361e-01
1.986638040055184740e-01
-3.997242514758820309e-01
-4.319021404858094382e-01
-8.070379357877602300e-02
-1.497620515862493895e-01
-1.276626665795147220e-01
6.506863233824686232e-02
1.166420054436910665e-02
-7.731338774992647239e-03
2.315368959113053016e-01
-3.030267404771845863e-01
4.890311136877475429e-01
-1.670388842759275294e-01
-2.090930844301478950e-02
-1.034998456728219163e-01
1.534493116436776716e-01
-1.336231057717041926e-01
1.766627631364751372e-01
-3.115143483506498945e-01
7.893273656080689316e-01
5.257671501240004236e-02
-1.539503982555691375e-01
-1.937194788434491999e-01
5.252878234393777018e-02
2.725595572095963481e-01
-1.611350471486761027e-01
1.995110739664590904e-01
-2.276312736601560915e-01
2.891005374541162909e-01
-4.635925398129155939e-01
2.189761785341874378e-01
-6.516155327666495189e-01
-6.181551210983795563e-01
-2.210903109615598716e-01
-3.924976633484236754e-02
2.852647159823565662e-03
1.853261266344851388e-01
-2.258947026480096487e-01
1.218932484141846823e-01
-5.649190592420456625e-01
1.149469907035342436e-01
8.796114626018909644e-02
-5.342033591294394895e-03
-7.091906610655150656e-02
-4.680649194869588615e-03
-2.835110522242535458e-01
-2.515629729124020386e-01
-2.079792583917096649e-01
2.610145178713327851e-01
2.269832279173208400e-01
-8.050398502244529575e-02
-2.792075138386448940e-01
3.954885477833323670e-01
7.316295882387473248e-02
2.830596127304851883e-01
1.404656888509417390e-01
3.113471270631401056e-01
1.700592762936609451e-02
3.714504387695610199e-01
6.595528834889528846e-02
7.074855909933276399e-01
7.641517553236142068e-02
-2.624552928577696953e-01
-6.538861307988261817e-01
4.524129334217807073e-03
1.615301384333490964e-01
1.708406065050659950e-01
7.569429222786827616e-02
-5.074447947751538068e-01
-5.318908290402046823e-01
-5.074675568129020931e-02
1.416893902844230946e-01
-3.539515514743336033e-01
-3.595643555726447671e-01
-1.203451745255089411e-02
1.521841932198922942e-01
-1.753254418599108078e-01
-2.424278062727077687e-01
4.567904073283566846e-01
2.478876604406060336e-01
-1.871481827303815293e-01
2.193792950744175019e-01
2.761397860408025817e-01
3.733047437852075601e-01
-5.502251806824548508e-02
2.893112098528112797e-01
2.424503530579451838e-01
1.940157203121609109e-01
-4.454332156764353456e-01
2.003850137111400087e-01
8.608330601516651567e-03
1.208147668656778667e-01
-4.476121584937373110e-01
-5.581042151247173067e-01
-1.767778847234633965e-01
1.005226276504548877e-01
-1.377373385698102762e-02
-1.456161035820816574e-01
8.408028686996728285e-02
5.446890426775672367e-01
1.387064262607411724e-01
-9.216742971355169900e-02
-5.114690259722034504e-01
-6.933828800360122835e-02
-2.198451616674052256e-01
5.798491364911688428e-02
-2.007380696222121619e-01
2.185082594467396833e-02
-4.081467449996540320e-01
-2.900922423092286428e-01
-3.126283086293194478e-03
-4.864659845104410407e-01
2.123546997041190487e-01
-3.935384651579654780e-01
-5.138885876782169904e-01
-9.438777746488270781e-02
4.091958383995954185e-02
1.934060021811940810e-01
1.906473409220581228e-01
9.354676803169992283e-02
-1.571744119072113754e-01
3.456974106963881521e-01
3.271643211970132192e-01
-7.236160521010344404e-02
-1.216682721735858896e-01
3.987526286906162842e-01
2.861509768458028180e-01
2.770924005564140979e-01
-2.871477203692148206e-01
3.098883457099536609e-01
1.869344736138965624e-01
2.842267675704986465e-02
-1.269908499728993057e-01
-1.291361850938996525e-01
1.058066815138570954e-01
-2.142598117641623112e-01
1.408043338750628315e-01
8.707145516124278894e-02
-9.451852848572470100e-02
1.477588623177474303e-01
1.077488869269843802e-01
-1.497963169136169856e-03
-1.319759304510772224e-01
3.291363026525870872e-01
-7.844650240514219539e-03
-8.098662760795224957e-03
2.880978894024203377e-03
3.783115423299296953e-01
1.449095931532454890e-02
3.182021816812865556e-01
-3.944560484602957495e-02
2.357209745188175998e-01
1.565188648449216124e-01
3.529170526936850072e-01
8.606790426501467750e-02
-3.488235934443552066e-01
-2.253223628814432222e-01
2.799000950560721623e-01
-4.144716076743230615e-01
1.937512467889217216e-01
-1.135842049769475968e-02
-2.423499160186362023e-01
-4.353542177004354058e-02
-8.477626634365234212e-03
-1.911309227549156387e-01
8.592223915726503181e-02
-1.896403162525040764e-01
-3.267982092837782848e-01
-5.791679042680634160e-01
-1.940178136956374755e-02
-2.077610696108275479e-01
9.348201622232037156e-02
5.050512083720227335e-02
-5.117809662459678055e-01
-5.332655702565765043e-01
-1.484432197001650522e-01
-2.652348944126772246e-01
-3.420412376865465953e-01
-1.083887593126989651e-01
1.332125553950384844e-01
-3.084053520864191156e-01
-1.107150568459747547e-01
-2.704704118555807391e-01
-5.285107982143328470e-02
2.392912472117309786e-01
1.290345469066141518e-02
2.712140693853486856e-02
-1.957624082652040520e-01
-2.198526855441923222e-01
2.896603514634114168e-02
-3.925141078901661640e-01
-2.171553867275860528e-01
5.687265454846479606e-02
1.291754799243489613e-02
-2.167204394265671158e-02
-1.537269449825852674e-01
-3.874210726210962075e-01
3.961561399265944861e-01
6.143702097696462916e-02
3.509804939947694380e-02
-1.757114583339405844e-01
-3.511631121076492779e-01
-1.830761383255222474e-01
-1.281704268314692308e-01
-2.194451121790939041e-01
-1.187050951839916241e-01
-1.756695072878684538e-01
-3.313779236899635355e-02
3.766822030790772935e-01
-1.801475772192962302e-02
-1.945287682756869155e-02
-4.003076980951848496e-01
2.180266075713606089e-01
-8.716448899927838750e-03
3.347417753754123315e-01
-2.898129772841787632e-01
2.142265115413481413e-01
-3.066248506408739694e-01
4.117932895415226113e-01
-5.167490496744414630e-01
-8.695436318611074467e-02
-5.201990861744613254e-02
4.440554521590305836e-01
3.419790121871044836e-02
-7.727235761687004318e-04
1.213047258242561793e-01
1.412869810877045440e-01
5.326576879440783618e-02
2.330375112538180526e-01
-9.439598364692289301e-02
2.925835921452913865e-02
1.546853012385155379e-01
-9.562175866492841902e-02
5.700596226665997079e-01
-6.900925174191831213e-02
5.323035349188821180e-02
-1.996993901329041365e-01
5.798203448080969241e-02
-9.882856951588413208e-02
1.528744111450809073e-01
-5.671314980264362260e-02
2.099440407680727705e-01
5.927673291476183159e-01
-1.573469421778163901e-01
1.395905839749164712e-01
-4.862343261475525480e-02
1.374768184355219525e-01
4.031855916597382739e-01
-2.302676899201537564e-01
-1.677019563275788661e-01
-3.254424203191945142e-01
-6.499900134938144114e-02
1.537691553748857798e-01
8.634696057893925802e-02
2.236405852198440625e-01
-1.397333503511496711e-01
-1.048797177956511430e-02
2.919719815097521209e-01
-4.500562846085160995e-01
3.525216187947930457e-01
-2.485630195956515520e-01
-1.492981216474858347e-02
-1.314586691295438758e-01
4.466376812861277273e-02
2.288027957470398777e-01
5.382144544829765564e-01
4.006702739017612425e-01
2.096691961054850395e-01
-4.365023893795503818e-01
2.990847018322268513e-01
2.677763395636639787e-01
4.514191762949020803e-01
-1.628441017891787690e-01
-3.475188606683856096e-01
-4.785164693181900852e-01
4.172277852916232016e-02
-1.483701391830130611e-01
1.392186587139878640e-01
2.635191187510992419e-02
-1.409496455223613331e-01
-1.155115233815547926e-01
2.355316089224694133e-03
1.596927948560599164e-01
7.973099783857955092e-02
-1.880877348400335214e-01
3.815045524914142949e-01
4.133668792867313813e-01
2.471802866283419886e-01
-1.906907942440327075e-01
-1.061309299302028303e-01
2.999407852256212315e-01
6.799862368599211837e-02
-2.500611556364190635e-01
-9.351076899483683202e-02
2.199218454427349090e-01
-1.146631287731528503e-01
-1.512336841584168978e-01
-1.113630915808127980e-01
-5.157603247099393912e-02
-2.833389784051994556e-02
8.179599791323963198e-02
-2.711863124671899938e-01
-2.392045244938729165e-01
2.419256558105861432e-01
-2.822001036430341059e-02
3.394581123143337598e-01
1.867530495667502899e-01
-2.654407193832398204e-01
-6.883596881887474872e-01
3.014672517054496279e-02
2.168087038480852324e-01
2.507286054600690872e-01
-1.025392178464004933e-01
-3.853885161163457806e-01
-1.075110994743746634e-01
-1.430147650922962421e-01
-8.285256904433498104e-02
-6.509996679153949584e-02
1.556713700798222355e-01
-7.181739314797996876e-02
-3.655210731997654561e-01
1.015548681278618109e-01
1.867872768113781889e-01
2.947276988342049583e-02
-1.327897600323419136e-01
-1.894705495456775468e-01
1.978453178991899930e-01
-4.265899449681779393e-02
2.774168176986602230e-01
-3.888829950482426412e-01
1.112219113778836893e-01
-1.099584870657465546e-01
1.730819268581121340e-01
7.361211431612549316e-02
1.296190185308917497e-01
-2.121617755377677716e-01
2.005958432283861947e-01
-3.463134882372725376e-01
5.090458680472021574e-02
-3.461957121678060911e-01
9.498478266042226226e-02
1.138859312553335557e-01
-9.768650892914530759e-02
3.098495694581943419e-02
-5.724431515840142093e-02
2.000118707103015481e-01
-7.283996696837827245e-02
1.061672439123214212e-01
5.190125447720979335e-02
-1.154746889147255373e-02
-1.331711320902103923e-01
5.002190268182264976e-01
9.875239948617449415e-02
3.631315128112222457e-01
1.296462642945232224e-01
9.711616949754377226e-02
-2.175370507202098180e-01
8.783917858214189411e-03
-2.856688033814798466e-02
-1.691432738036538208e-01
-4.236067210860842286e-02
-2.003574766760130299e-01
-3.075854484451034931e-01
4.527803639074860081e-02
6.872445228397551509e-02
-1.559474436944487119e-01
1.448297135914452805e-01
-2.545048000574366420e-01
-4.544036333934428629e-02
-3.044365786133516050e-01
-1.237619862877699373e-02
3.189779800463157788e-02
-4.268260830157306063e-01
5.521886686719466170e-02
4.989967470311468811e-01
-3.099358572318575145e-01
5.059847082162608478e-01
3.296665943624583345e-02
4.953296434419515726e-01
2.303500093316488972e-01
2.387635113550904201e-02
-1.194942515240917241e-01
-2.920578528670548790e-01
4.914140564649975840e-01
4.894678191847861015e-01
2.712172221579105535e-01
-3.941584738779148611e-01
3.799113862748214054e-01
4.327978378037454776e-01
4.755353424258237927e-01
3.234684646165143784e-02
-1.839588198140716391e-01
6.298444106727446590e-01
-2.004993917315926744e-02
-7.090578520161682219e-01
5.454890919930592552e-02
-2.381446794518032595e-01
3.077332683549978132e-01
-1.571737737971143911e-01
-1.752785134318533000e-01
-1.807924754097869069e-01
1.012707895637991462e-01
1.302987314858062295e-01
-8.233670273889930058e-03
-3.931388840174185328e-02
-1.542695549677199351e-01
-5.946952727977911080e-02
3.491312730315230817e-01
-5.350445739399377343e-02
-1.402058897614630317e-01
-7.785451110029358024e-02
-2.643623332943986215e-01
-8.817073517569827198e-03
-1.423011111345348356e-01
-1.312390295269147758e-02
-3.363551321598780008e-01
-3.210373838517838752e-01
8.703507819187385197e-02
1.302076790340985502e-01
1.110129782539899940e-01
-3.740273516293313866e-02
-3.484682836324280997e-01
1.544837042305881314e-01
-2.339181559525511586e-02
-1.629795949589404602e-01
-1.948346140500449020e-01
-8.946560455849211779e-02
3.189320709199579551e-01
-2.431756123631018465e-02
2.056971877304471230e-01
2.117769214368498409e-01
2.407391824901269628e-01
-2.149602974211012596e-01
-1.792394101375827387e-01
-2.931758704601729604e-01
-3.790338741597109040e-01
1.951087702705717186e-02
-3.990855792384640499e-01
3.930605209182425619e-01
5.747709288675581854e-03
-6.960755359099064510e-01
3.241355543876228706e-01
-1.092088984795748091e-01
-2.627156983217144304e-01
1.604932173624827874e-01
-2.568069625187374694e-01
2.987623434452967713e-02
4.536499697351827759e-02
-1.881901017273745480e-01
-6.414593139989921422e-01
-7.042015734793567738e-02
1.869209366819182538e-01
-9.753106676939539421e-02
-2.642265623083508985e-01
-9.841874986820155213e-02
-1.312997307651229406e-01
-3.958591130751789450e-02
8.541125023482418199e-02
3.863390926807626358e-02
-4.277695486585281759e-01
-1.938868898206775326e-01
1.683624125005628025e-01
-3.770749716521920036e-01
-2.208359054163608615e-01
6.626799325702742612e-03
5.689050279287768408e-01
3.639571613557111007e-01
4.435294583178421568e-02
-3.656974134321428482e-01
-2.423934537925294674e-01
6.618157196197094194e-02
3.242118840693517523e-01
1.166834294514690340e-01
4.357961671758448646e-02
-1.482703643014700035e-01
-3.054782272898547424e-01
2.120955267619623053e-01
-3.282711429587683583e-01
4.230134986830461769e-02
8.131566011746765854e-02
-8.329964719648032256e-02
-4.080088482691656693e-01
1.105076271830538609e-01
2.252952791427437484e-01
1.628965745964961187e-01
-2.456539666911476960e-01
-3.337534637379756947e-02
-1.257256756552982691e-01
2.365620027574699413e-01
-4.067160095771494288e-01
-2.067241520518086906e-01
-2.283577149265014761e-01
2.286200208062888831e-02
2.432992758156129476e-01
-7.229253576470963394e-02
-2.129801905861727351e-01
7.688798723046140482e-02
3.283344753280957318e-01
-3.939057642750888877e-01
3.229057174774806471e-01
5.086131654555764436e-01
-1.241888098358425452e-01
1.638164851363330399e-01
1.240852818776003452e-01
-4.691668747484608049e-01
-1.414523131218507236e-02
9.747708170188143506e-02
-3.866688466601247293e-02
-1.261871283052776183e-01
-9.341164397527219887e-02
-4.355221176722193221e-02
-2.876624155011780481e-01
5.157960983402846145e-01
6.682309000366033758e-02
3.937472329128067355e-02
4.070183206468385162e-01
-4.377023544295832735e-02
2.250651834637858728e-01
1.135125807722685148e-01
-1.304603462377938172e-01
1.564723357906932675e-03
-2.483543957242382305e-01
-1.895472992507745980e-01
-3.440649819668709086e-01
-2.389731136070301007e-02
9.685272993698951227e-02
-5.133257536873591514e-02
4.802608839462208512e-01
-1.573694846974134105e-03
-1.180996074710865401e-01
8.660340931903311168e-02
1.255466287971985194e-02
1.641702575059831304e-01
-2.760960146372246071e-01
3.550754607810843733e-01
4.033894163629593854e-01
1.197514381497796487e-01
2.549952267071247114e-01
6.739829854594046876e-02
6.192868623284253360e-01
3.169225037636064779e-01
3.096178502851957767e-02
-2.788069319243216548e-02
2.933505771850433708e-01
-1.361103421229081512e-01
-1.258844996802665206e-01
-1.350002245512370025e-01
3.980801018468309027e-01
-3.502876787763883337e-01
2.485030961671556848e-01
-9.494117523575743012e-02
2.536984774478275306e-01
3.411651086752354178e-01
1.284755282705607182e-01
2.476921725730842072e-01
1.066182038821659878e-01
-9.236834742818218758e-02
-2.024988501266309082e-01
2.887345949476879947e-01
-1.272549895231024353e-01
3.338870268805257252e-02
4.814899414595755212e-01
-1.528187038463293124e-01
-4.029145958580034881e-01
3.036477642478728756e-01
2.065211945526069515e-01
8.613630901401077289e-02
6.826993418120315404e-02
3.752494333247201608e-01
-2.744282575053945128e-01
-1.077803176241440702e-01
7.562138744814032865e-02
-5.147501394421011289e-02
-2.099867829675132747e-01
-8.747253719790361315e-02
1.720474616681827440e-01
-2.281068650386395558e-01
-3.777482734412564436e-01
-1.864290271695733248e-01
-1.800414258613378671e-01
3.765187733905838718e-01
2.166953640657835467e-01
-9.022777622394845265e-02
-2.269881265287440053e-01
1.003768413079155764e-01
-6.312046087734335398e-02
-2.808689672567238338e-01
-1.675499494507909359e-01
-2.134352514560540759e-01
-3.127089433454066474e-03
1.496784130619440989e-01
4.468925836669268570e-01
1.917833129227266842e-01
1.879068554709928673e-01
-1.326011754234783790e-01
-1.037798679725486090e-01
-1.910596728123113430e-01
-1.587470268512461147e-01
2.205362877250221232e-01
-4.591381732907899305e-01
-3.276876584731528430e-01
1.036542760861216689e-01
1.983918267493123277e-01
-1.921114123064150137e-01
1.326586641482890017e-01
-3.985477954568664716e-01
-3.018976796769310411e-01
-2.320089268692487189e-02
1.945178650308355128e-01
-8.795602884170378166e-02
2.917042725926943247e-01
-9.799630412688929704e-02
4.754434141006354531e-01
-8.273301168206353973e-02
-2.031897120751731955e-01
1.605989912147383070e-01
1.476027827799876180e-01
3.712295872282472819e-01
-1.273195072361161251e-01
-2.402099362465315580e-01
4.154357016615184972e-01
-4.485836393771880370e-01
3.903588083425040267e-01
2.225040810418290882e-01
4.854264128191579375e-02
9.422007890111680495e-02
1.314426409833853726e-01
4.475444721367494716e-01
6.613835614405780359e-04
8.185515923746629341e-02
1.417256633210720318e-01
2.244916805440065888e-01
-1.588110954501711566e-02
1.774957546526475527e-01
1.852125242556131590e-01
-1.724670938733514347e-01
1.058047638555578290e-01
3.318421991384413738e-01
3.906021033806851284e-01
-1.572091211933640889e-02
2.570820037854829598e-01
1.770664535349329438e-01
1.506554034180045687e-01
-1.006526208119502969e-01
9.215505425121411909e-02
1.219078406139822018e-01
5.827755890932481003e-02
-1.569964964015747033e-01
-1.894189206001362646e-01
-7.026971884636989962e-01
1.572938722805523881e-01
2.133095415105265291e-01
-4.283549773782587000e-02
1.602497771759159584e-01
-2.166573896893977114e-01
-2.992854238267143030e-01
-3.371163383907694322e-01
5.481923608662497144e-02
3.253791493289718423e-02
2.019503818000925599e-01
-4.081920163106423916e-01
2.833215671842038152e-01
1.791731164099193974e-01
-1.573980889517141435e-01
1.078696869566881378e-01
-1.463325345910109626e-02
9.070778078279024825e-01
-3.445619038334161166e-01
-7.267423776001842584e-02
-1.589719481545737167e-01
-7.822794913547499729e-02
1.608579480434670361e-01
-2.995436814026574690e-01
2.225774290777081388e-02
3.771567271391955689e-01
-1.901134486012674985e-01
3.454947342570157676e-01
-4.757307022874326941e-01
-3.174211763363779526e-02
-2.687210241526519217e-01
3.750451711606444388e-02
5.271878563890819436e-01
2.600364501393679362e-01
2.198760122518869306e-02
1.911020989957877836e-01
-1.962046419685675169e-01
5.468195333020812177e-01
1.268692184824678493e-01
1.047612891434587974e-02
-3.799445439031288174e-01
7.188210044438779478e-02
3.347374089124264818e-01
2.649808994672122053e-01
-7.971675574377559692e-02
4.156323468044345049e-01
-8.181509530688306497e-02
-4.478642335539563257e-01
-1.910847341983696601e-01
-8.962340842677640404e-03
1.314295443121695980e-02
-2.836631213428846832e-01
3.246646830952918394e-01
-4.713626659619220283e-02
1.549935845304427628e-01
3.972746300901602162e-02
-9.655378676732993826e-02
2.605063871113199037e-01
2.962215827152353542e-01
-2.556780966413220169e-01
-2.127878564257743577e-01
2.181951345807678008e-02
-4.488253739488952121e-01
1.692011655501733935e-01
2.557898220145052304e-01
-5.419035776810291610e-02
1.192343696199668623e-01
-2.250733560233114106e-01
-2.814681892088573001e-01
-1.499040172744033617e-01
-9.296180723827836279e-02
-3.442534759598768757e-01
4.777542143432367272e-01
-2.127454338101910924e-01
9.529052125572369525e-02
1.982103564816557473e-01
8.166297790936644097e-02
1.711856868159407352e-01
-8.382510995035588608e-02
-3.791858955824493060e-01
3.293506146956804437e-01
-3.869126540813297432e-01
2.991945651427067171e-02
1.728056938986103075e-01
2.769729680287046081e-02
-2.717131462088581695e-01
-2.221030354039682693e-03
-1.944417638109578461e-01
2.294233545783399067e-02
1.205788981508862856e-03
-1.126136372440630501e-01
4.465610507044386890e-01
-4.706446065976473137e-02
1.037448782271721825e-01
-2.861340695010551327e-01
-1.361670690384243071e-02
-1.147637315188784896e-01
-5.572168139583895397e-02
2.280500339927945749e-02
1.331895391314596444e-01
-1.038049701538091285e-01
1.852489320417886609e-01
8.704914587022312411e-02
-5.472686352513307650e-02
-3.364201963034854637e-01
-1.799805042271492295e-01
3.142370502399426807e-02
-9.010309048381380526e-02
9.645155246974046470e-02
1.136658665659512762e-01
7.765540015109796690e-02
5.769406912818233479e-01
-5.438843185332933178e-02
2.307443048196612945e-01
-5.125059125359580220e-02
-4.991071751475519708e-02
-2.536105626838311769e-02
2.015513205592243777e-03
2.455689098607454213e-01
3.071167882623023274e-02
-6.358002800630026263e-02
-6.900457250154358457e-02
-8.494877892619251414e-02
3.729618134250520800e-01
1.354852189733719847e-01
1.275058428598388749e-01
-1.747777213722058742e-01
2.947396048440663677e-02
-8.100178344309499900e-02
2.234261579215035889e-02
3.517620008628738471e-01
-9.898931313468417592e-02
4.241400330790675022e-01
-1.818986501706579273e-02
3.508070850480538572e-01
-1.413222933116775049e-01
-2.835342059260395620e-01
-1.011340564976282694e-05
-5.723455133108822368e-01
-2.093145532012109788e-01
2.493839289091659417e-01
1.022021310695215845e-01
-2.971906381185205337e-01
2.525699791300878294e-01
1.135833330127264222e-02
1.559656071669833499e-01
-1.369970096112291813e-01
4.555012486537367566e-01
1.243676783980865799e-02
7.437614224296441867e-02
5.143457699560002871e-02
3.259582892407980603e-01
-1.198989170372774110e-01
-3.580380515637893255e-03
-4.555764107042039462e-02
-2.535134472034352229e-02
8.378836463603056561e-02
-4.507205165142479375e-01
-5.508411280793493181e-02
-4.027074751938224395e-01
3.377915614572956637e-01
-1.607753207722255329e-01
-1.549241251727382918e-01
-2.898335877168367603e-01
2.810101543528450985e-01
2.235045590261741377e-01
-1.841600323808028072e-01
1.647981484991841994e-01
-1.036120020008664613e-02
8.521522638760048451e-03
-1.028704715793132690e-01
3.277859825348524159e-01
5.201674938295260120e-02
4.109094546994273428e-02
-1.037226477024703331e-01
-6.881971743141193643e-02
-1.698938477824091520e-01
-5.190439521243499499e-01
-5.555219796184208692e-01
-4.343338916376018877e-01
-1.775483194717226987e-01
-4.275250407651637885e-01
3.820190922287105550e-01
1.009487470412711307e-01
-1.725203249148397067e-01
-2.108184743390353541e-03
6.582034590305339827e-02
-3.759171671620667454e-01
6.282342986309433219e-02
2.538135306642989586e-01
-3.240406523502258745e-02
4.074073521894837346e-02
-3.358360502000526937e-01
2.107170968191016125e-02
-1.955125972507808230e-01
-3.979040800852201056e-03
1.291476337367105376e-01
2.558608235284773325e-01
4.990873632265466209e-01
-4.405546183732030052e-02
-8.120710803595412863e-02
-1.639920718449706938e-01
8.549465703754653700e-02
1.311613507915378868e-02
1.877772278464486522e-01
1.355662876085510574e-02
-1.457340940074508540e-01
1.328832393134045664e-01
-1.198421807281195295e-01
2.600507189143332898e-01
1.383413224265873376e-01
-3.764036791969292695e-02
1.539456799048119322e-02
6.692980967117626578e-01
7.005194415545785980e-02
1.156032968932930727e-01
3.494240924680709903e-01
-9.091028242444611218e-02
1.567920929052749324e-01
-4.306253791051352642e-01
-2.945732996139495130e-01
1.191493610261970260e-01
-1.299874570765356119e-01
-7.681634921097908741e-02
-1.096086735796318878e-01
-3.524853880670399398e-01
-1.873310402419917434e-02
1.293585601967519871e-01
-5.595180426233792303e-02
1.745442570586963060e-01
-2.021929804830401856e-01
-1.609370171029746166e-01
-6.758886240276576474e-02
-1.009774394730158543e-02
1.796312646839882676e-01
-4.157233000696767405e-02
-5.856618949733750044e-03
-5.981232079519571698e-02
-3.481140693487274618e-01
3.356922494699760007e-01
3.051113532716586141e-01
-1.013945358304148697e-01
-3.694438402834030466e-01
5.601096427323474375e-02
-9.402576124183627260e-02
3.478138644530955337e-01
-4.320551108261196788e-02
-9.001866878795282412e-02
1.027413686592463203e-02
-1.662708095339374692e-01
-9.426772742304720398e-02
1.759462165009809398e-01
-1.791319698415604067e-01
1.394101712083996580e-01
4.833446802734887859e-02
7.304779387573394345e-02
-5.314742531084489657e-02
-2.000581417111613747e-01
-3.341856980507030422e-04
-4.361899608296715969e-01
2.861609325704340123e-01
-2.654126522346343386e-01
-1.345252922806474960e-01
5.284205236070310674e-01
3.897380574504547002e-02
2.300009384237402046e-02
1.257526080535741608e-01
-2.096169335825328328e-01
-2.523794715345538120e-01
8.269432740514395808e-02
-1.186658289735738336e-01
-1.419133940778876668e-01
1.908018791110269174e-02
1.376594561091890601e-01
2.581748297549380303e-02
2.418859378928956139e-01
-1.159262689946114477e-01
-2.645231429552724611e-01
-5.884359425729362991e-02
5.609645265990321258e-04
1.512604341608280722e-01
-1.190275319538986326e-01
3.551110550219964135e-01
2.287457748612446717e-01
-3.219926443023114759e-02
-4.045720265724686016e-01
-2.412117029819049463e-01
-1.801028153064894721e-01
4.151966399415696340e-02
-3.462840579790836815e-01
1.250531043834006428e-01
-2.115372022008132347e-01
-1.811836096028546783e-01
4.310714981593534167e-01
-9.032033259148787574e-02
-1.261615550329925062e-01
2.127000787506987817e-02
2.294033544177322692e-01
5.796400637198939609e-01
8.758442272169035536e-02
-3.954355563333185608e-01
1.520589964100472757e-01
-1.119230902128889593e-01
-1.683407428609749179e-01
1.890352982109248792e-01
-1.367087243196081769e-01
5.085066874965890604e-02
4.321644479639432102e-01
7.279469863202954472e-02
-2.822392357763583992e-01
2.733647792396068366e-01
-5.110678281923031196e-02
-4.471442941755949252e-01
-1.587763057330954797e-01
1.238530598656963494e-01
2.186570359949709108e-01
-9.729197123347234355e-02
-1.487346962582624665e-01
-6.155187614644327398e-01
-1.027326807155593269e-01
2.190338873246338580e-01
2.658011317784348369e-03
9.431835403101022919e-02
2.102558451306670573e-01
-1.958484155201343502e-01
-4.230490943788795533e-01
1.857221028082950420e-01
7.378255526526259454e-03
-2.856920755435218284e-01
-3.126471975200902920e-01
-5.594238059923633405e-02
-4.682381323662728745e-01
1.169125577239319980e-01
-5.882231466670214542e-02
3.772734616310329664e-02
-5.589743229498408961e-02
1.579237440135895093e-02
-2.704862039893238812e-01
-5.812242676863003249e-02
-2.640297693369540455e-01
5.662568183780573028e-01
1.234658705650936439e-01
2.769437100983597744e-01
-3.650756407715316509e-02
-1.227786740262222231e-01
6.169485104524679020e-01
-2.347895210264875354e-01
-6.206635501127939492e-01
3.582720469160090015e-01
4.147933312740705869e-01
-3.805722030862894734e-01
-1.547179842498202715e-02
-1.819986656780898382e-01
2.524515408355179624e-01
2.490649664705440192e-01
-9.856721989936476080e-02
7.281655258297982380e-02
1.314732906117613009e-01
-1.841931267116967419e-01
-1.081803736274579569e-01
5.004382039720901565e-01
2.176217720429320379e-01
2.213642755374677917e-01
4.086746363083053057e-01
2.178851553327110224e-01
3.102688049866044739e-01
2.278112373959001735e-01
-4.550527994452939207e-01
-2.531568790291964799e-01
1.703869115995581274e-01
3.562103473595981673e-01
3.411248791152673987e-02
2.261194315781363956e-02
-3.947217637881672569e-01
4.142297380468303730e-02
2.258080717004190829e-01
-4.981987503983476701e-02
-1.373816153215696167e-01
6.092744582923283192e-02
2.347394634778836586e-01
3.374556915888195507e-01
1.490587845938979965e-02
1.943809056939454355e-02
-1.092774126732754120e-01
-1.637026784094844367e-01
2.494213918143563247e-01
3.884688942901875358e-02
-1.433916610112341283e-01
1.272327650882325578e-01
-3.397893922251028070e-02
-1.069423142998169318e-01
5.954420902681464289e-01
1.781490668120489507e-01
1.474212367216254649e-01
8.302658337063910376e-02
5.274910469898895782e-01
-2.918049898782547613e-01
-7.554847205085848949e-02
-2.761861683063805417e-01
-2.658314380549836042e-01
-3.653752644486643608e-01
-1.112137554360063812e-01
-1.654432333704876912e-01
-2.514162110315170534e-02
-4.961328696470282407e-02
4.805689697864382048e-02
3.691685041316122851e-02
2.054077780627400207e-01
-2.811196222162328784e-01
1.329233656038930345e-01
2.708528714787609148e-01
3.731604677277772925e-02
5.161935037964777706e-01
-1.041614442074826757e-01
-2.959151186680482049e-01
-1.522683601508569573e-01
-3.474449488200163916e-02
2.127481903824349208e-01
-3.298815852670994309e-01
-6.205545750457928250e-02
-2.562332683319723525e-01
-1.376737120795012981e-01
-1.106094674160766206e-01
-4.411591986297262735e-02
-1.773620161514236349e-01
1.565759974423471534e-01
9.271210084046538347e-02
1.633688697436752879e-01
1.651630189471877119e-01
4.815613681273261948e-02
-2.872514438489082722e-01
-9.609586133209245540e-02
-6.703060622353146369e-02
-1.262239481816150588e-01
-1.468874180229104986e-01
-1.479982965081537982e-01
8.452720412340599537e-03
-2.817274267832442503e-01
8.710322028485936730e-02
-4.009092376109732458e-01
-2.845587591609000655e-01
-6.511565472783481523e-02
9.752645901053841326e-02
1.198752524971746433e-02
4.291837745555100031e-02
1.094154028874129610e-02
2.879931244946021263e-01
-6.695100109873163008e-02
1.607722221535503038e-01
1.084705781867833646e-01
3.928968834104297203e-01
2.091993914554290124e-01
-1.904405147452939706e-01
-8.062533101534061220e-02
1.811980743868386867e-01
-5.314227890222376210e-02
1.498574212095605401e-02
2.584823979499058511e-01
4.878709225123274706e-02
1.689306232930559400e-03
-6.847063296406338262e-01
-5.563726190466284499e-02
-1.270516899691495338e-01
-3.023969845311121896e-01
-4.363806336603644476e-01
1.793515844175384011e-01
-1.115260815104160141e-01
-1.143374354918501729e-01
-3.311743343136860362e-01
2.131277507927544779e-01
-3.033784324032185245e-02
2.180990035698185114e-01
1.278339974340354235e-01
1.347777726004892596e-01
2.057529576330857646e-01
-5.823003085361436182e-02
8.617138472028838814e-02
2.722439921228098428e-02
-4.267159987505892427e-01
1.132140875311048872e-01
4.464179107700506632e-01
-2.461727141996000456e-01
1.611271435190657908e-01
-3.835047417411620030e-01
2.141547889470195032e-01
-1.421285541064583324e-01
-2.920919178562316754e-01
-2.935745895526327143e-01
-2.669158907647055101e-01
1.149125956299566903e-01
2.270340925943866717e-01
-6.662250312403795727e-01
9.616800315105025754e-02
-3.765768794610178105e-01
-1.739397917614275424e-01
-1.658993304143678849e-01
-6.228634326419360545e-02
-1.672549256817894292e-01
2.940516809452750624e-01
-3.815753588299224119e-02
-3.685355319269164043e-01
-1.122058421384904137e-02
-1.214330207859401073e-01
1.459229690219666364e-01
9.482338091740890804e-03
-1.463907366102747652e-02
2.261654389593520387e-01
4.190679793072701366e-03
-1.991756341048262768e-01
-8.244801476325089307e-02
-4.887302534020313560e-01
-3.306076426746550334e-01
-2.722506054318570845e-01
-2.700230230356758243e-01
-9.633138431145226582e-03
3.278225672225489051e-02
-1.349266474570455232e-01
-1.139110312318476204e-01
-3.551988822320625849e-02
7.255839958052830163e-02
-5.990372567908698598e-02
4.216119548347954660e-01
1.582677112207353798e-01
-3.138715906451167159e-01
1.964969914165939635e-01
-4.841351039455452643e-01
1.934547831323883138e-01
4.856228435141608096e-02
-3.474735007089697625e-01
6.629006886221172623e-02
2.405651307333920574e-01
2.304979594688328359e-01
3.139990887946089715e-02
-7.684577087576664745e-02
4.354546392365549884e-02
-5.744779994856328426e-02
-4.321132362038718200e-02
1.866868215221732102e-02
-5.648004722676608358e-01
-3.992209205363057012e-01
2.637499575761102499e-01
-1.545561551984193926e-01
3.492054435670746693e-01
-2.184665123438689349e-02
6.807973427284577661e-02
5.022155880857821497e-01
1.061896792963901714e-01
-1.724804337150622480e-01
-2.690832300063168009e-02
-8.750643407129704565e-02
-3.422003434812081468e-01
-5.257990444787985496e-01
-3.245740180882417669e-01
-3.983578729755513081e-02
-3.098111072351999451e-01
-9.007386193427219245e-02
1.958971109050098303e-01
1.016811664700815604e-01
5.314190953295364617e-01
8.236440472530119628e-02
-7.767124180038209591e-01
3.947074992677830907e-01
-1.234716555983968525e-02
1.819718111844250419e-01
4.980283416221363557e-02
-5.487272883190640327e-01
4.269369166996107579e-01
4.834292277709884011e-01
-1.167953759161374228e-01
-9.541195058734914802e-01
