-2.407676969109664306e-02
-1.828033915237520790e-01
-8.300957601935045338e-02
1.010161462825240747e-01
1.307570458412653069e+00
6.238189771746734946e-01
2.748444000930746478e-01
2.552561365838880714e-01
4.959086012784976599e-02
7.721532269298417850e-01
1.080038711460728183e-02
2.997331177969114191e-01
1.868016281376108367e-01
-1.658176612508379111e-01
1.803478315283813194e+00
9.333690145012107919e-02
-4.705778380667177685e-01
-3.338524142368982234e-02
2.119471107503355378e-01
-3.575060166920820959e-02
4.441510398582773078e-01
-6.660992897170049387e-01
-2.376145297275276125e-01
-1.009652568850417931e-01
6.318624600306810279e-01
2.262962993815161583e-01
3.684290040673720013e-01
3.236268855201705485e-01
-1.412149133699363013e+00
-4.194127625943342985e-01
-5.241990746125591016e-01
-1.695018156658273656e-01
4.968056210340135448e-01
-5.267609507900837817e-01
2.476189664716249295e-01
-2.708082319712694641e-01
2.079758600443420702e-01
4.432734057344020484e-02
-1.830995624925898235e-01
4.784995875969210583e-02
5.962111751700678308e-01
2.551054191708965191e-01
8.007004782188650860e-02
3.644113803083631198e-01
6.880525194558907431e-01
-4.970941161050123069e-01
-8.197179052731626836e-01
-3.397802409605077956e-01
2.864030611801787751e-01
4.974835979204763475e-02
-1.834344551919700819e-02
-3.928635857090937572e-02
-1.667452135876054953e-01
1.577154917720535454e-01
2.191118148935062293e-01
5.313916558140688307e-02
-1.013929236071583750e-01
1.683563647163933030e+00
3.653870620982203610e-01
2.191642598185652158e-01
-7.028535376193475459e-01
5.084645705713383146e-01
4.918644022508970037e-01
-1.207000943312562108e-01
-1.097835532078727416e+00
9.415871385256064929e-01
7.432916633469371925e-02
-1.891534620129043942e-01
-3.561328487487434025e-01
-6.690632075437132897e-01
1.076035259405470734e+00
-3.549932020056474347e-01
6.974917834426618279e-01
-7.710787418760752798e-01
-3.368919517086503834e-01
-1.873331229827669864e+00
-2.186025579042186473e-01
5.121624027083344632e-01
-8.959518335869130767e-02
7.727468858696546761e-01
1.025787160443825813e-01
4.107728353322988996e-02
-1.903815907086461312e-01
-7.826845538640612998e-02
-6.394954568829047670e-01
2.078486844646751375e-02
2.483044067358974039e-01
-1.124887365759608127e-01
1.305405838468058688e+00
3.433618225300175131e-01
1.223639830789821359e-01
9.231137221508058932e-01
6.829517049798088622e-03
4.681708325706095825e-02
-8.560839587221953997e-03
-1.370672135588091138e-02
-1.220039479670630006e-01
-1.551582043265393659e-02
-2.652186070194021972e-01
1.336602625046462878e+00
4.569190298549057894e-01
-1.086166606713573124e+00
-3.765134905829512629e-02
5.868960860738761109e-01
-6.128681357698652354e-02
2.951811452120775003e-01
6.107787099384240914e-01
5.425147925078853683e-01
-3.142407074560775726e-01
-1.340988018079607991e-01
4.321303516491633578e-01
-2.288914480562599163e+00
-6.082379807960480028e-02
9.904805130040764682e-01
-2.256608577087408085e-01
1.185066378309368174e-01
2.186141537118234390e-01
-2.601512114946784651e-02
6.603913454869199118e-01
7.902325663238241038e-01
1.876268912530833499e-01
4.900119266384021094e-02
6.053755347540785287e-02
-4.556856448549584382e-01
-2.450617430268478836e-01
9.180304043505790879e-02
-4.392427333568111464e-02
-1.959449930648292371e-01
1.311883575496043397e-01
-1.412016565336273177e-01
-3.813992672406069095e-01
1.923833896888421657e-02
-8.917222815199142560e-02
-1.555586219363413736e-01
-5.890247931093364198e-01
-1.754440927113387963e-02
6.961956205711750112e-02
-1.192076288226134040e-01
1.749940514390638593e-02
-1.709018291577433235e-01
1.334625470087578147e-01
2.252141795319717865e-01
1.705956019317684536e-01
-1.864134167913708839e-01
1.494530831993526668e-02
-2.503939169754443861e-01
-2.442977352895281742e-02
-8.723699802991310981e-02
1.425101196850921403e-01
1.743678355156106918e-01
3.670585252506677332e-01
-2.215859737922508399e-01
6.580279607520850109e-03
1.830546133662293018e-01
-1.198069440724933571e-01
2.585026645325561381e-02
3.820464827284349857e-02
-1.057692757259791755e-01
1.502255727823963716e-01
-9.954785961422936147e-01
7.553399367347801707e-02
1.427217841709722546e-01
-9.317928524413430710e-03
-1.296444244611649477e-01
-3.278671490069231531e-01
3.656081862985086778e-02
6.499166546100544339e-01
8.680631487338220931e-02
-5.584268030434927366e-02
-3.162999283510812415e-02
-1.648446445917147174e-01
1.524767190405034445e-01
1.732283349264608641e-01
6.413971343189537322e-01
1.538065443102958896e-01
4.246948807281927460e-03
-1.830644917138500860e-01
-3.341286806645842322e-01
-3.277997899407928545e-02
-1.360132495232318217e-01
-2.525496214117795568e-01
-1.367599409054851556e-01
-2.178234025192087031e-01
-1.425611324439032546e-01
-2.810757502402326247e-01
8.035022006057605803e-02
-2.142871740862048180e-01
2.685734945127358012e-02
5.128190282285535057e-02
3.167820313478255656e-01
-1.492588227429227088e-01
-1.696970480418000249e-01
1.346571529289109503e-01
2.062315249333079858e-01
-2.413618247029481745e-01
-5.423163944682812820e-02
-3.002422111919458847e-01
-3.220217775271586036e-01
6.424285845776135651e-02
-2.242755127498709256e-02
-6.631867527323957734e-02
1.374879509623972706e-01
-6.000837450017984520e-02
-8.736841102448182628e-02
1.586534759233513558e-01
-9.270170470777118477e-02
4.154335501137708386e-02
-1.850659886532055598e-01
-1.587554430032539488e-01
3.616993475888868881e-02
7.555605772408284515e-02
-2.200983360280888146e-01
3.192752364211672023e-02
-3.845496769553193861e-01
6.573350131461894175e-02
-1.485698730158651129e-03
-7.771244474219314580e-02
-1.583264426021123439e-01
-1.442062525677141882e-01
-2.662020348989487806e-01
7.483098634280722916e-02
-2.501228587063668574e-01
1.704514005286758838e-01
1.280875677998372097e-01
-1.561201581316657705e-01
-1.786107122015061222e-01
-3.552990906783780600e-01
-1.387428072666256063e-01
-7.798745611934376765e-02
-1.666016865627476806e-01
-1.580621166813152567e-01
1.131451062775511024e-01
4.414124566673250927e-01
1.277708823585178011e-01
1.250005132969904745e-02
9.241361119791334511e-02
-7.369159049883101942e-02
-2.213273403561007435e-01
-2.941580504635669946e-02
3.594006338809921930e-01
4.683007667191237122e-02
1.793944412768864183e-01
-8.905506449359930354e-02
-1.655241706958056336e-01
-3.502691241546871531e-02
-1.271411490081180706e-01
1.844636138277505055e-01
2.446733419031961732e-01
9.738106885941023860e-02
2.016934357791589361e-01
1.665195595759940139e-01
-2.556501944256034387e-01
4.237606949547582103e-01
-1.890368813431358708e-01
1.559358232310550652e-01
3.883007979433904938e-02
-5.340095757521921838e-02
8.415659890472601545e-02
1.346518046376715405e-01
1.441365214364501712e-01
9.987204117581229001e-02
2.448747216394189241e-01
4.079670238224804985e-02
-4.466768868998177017e-02
1.666072175343943362e-01
1.915183212813381664e-01
1.715941654804135630e-01
5.666719958085564973e-02
2.230859334966706076e-01
1.740773498439017186e-01
-7.127329497531616610e-06
2.263625525471908359e-02
1.888624754760480084e-01
8.597235578997532157e-02
1.377913484020411583e-01
-3.591920642110391776e-02
4.366552520072541216e-02
-6.353837721902615143e-02
1.019487726840802994e-01
-4.652076570996505622e-01
1.234954500065232330e-01
-1.708132844761528490e-01
3.008627547037393546e-01
2.494750005883553945e-01
2.612589757338064089e-01
-9.906430940039107069e-02
-1.961516378603755245e-02
-2.197994680900491327e-01
-1.402820307147190776e-02
-9.842385256954742923e-02
1.078731646999270127e-01
-2.852185317299949299e-02
2.571256945824252349e-01
-9.330350130545807252e-02
1.015941378089678937e-01
1.853735247821948484e-01
-8.029397779740156393e-02
1.740865046286772522e-01
5.028175119547753646e-02
3.605634363044703250e-02
-4.185934968857971811e-03
-1.852067750829548137e-02
2.177064299272268855e-01
-1.068388731921126183e-01
-7.289917634243310574e-02
-8.066148844922710337e-02
7.476119781316918622e-02
-1.076223157868068936e-01
6.469274158216424542e-02
-6.338842845191067221e-02
-9.692131284182438355e-02
-8.124733324984128452e-03
6.089226692397096963e-02
-1.922923154619193553e-01
-1.111726733219472879e-01
-2.621969590872770539e-02
2.692750169207538402e-01
-1.109129750186050867e-01
5.956486885403555753e-02
8.516367912323387357e-02
-2.400353301003533002e-01
-1.947119071003101665e-01
-6.588134592864484940e-02
3.066606165933223327e-01
5.536304812358192051e-02
1.094938386601976010e-01
-1.131248434000055730e-01
2.247138558600694502e-01
1.518637473804452243e-01
-1.332869529072569226e-01
-6.632469844841228923e-01
-6.390832849338918577e-03
-5.351213665432801303e-01
-1.202864683465467849e-01
-2.983436650041683680e-01
-2.547402849997632349e-02
-3.969241107324221474e-02
3.630490590177690713e-01
-2.023338976351620466e-01
6.067058582795090693e-01
-1.696921172179272908e-01
-2.772498586431482726e-01
5.274556075545225146e-03
2.782863438014678836e-01
-9.046869318595632259e-02
5.051225738251882702e-02
-9.991357490680982667e-02
-1.540430369978985636e-01
3.729206280975642107e-01
-4.229160464867456892e-01
2.063345221050047751e-01
-2.478946345694395537e-01
-6.229360564688197766e-01
1.107707197358571288e-01
2.325696515934551345e-01
-2.479887759518629997e-01
1.532102160052297712e-01
2.468884494253782980e-01
-1.141967614223266952e-01
-8.437047399735754516e-02
4.227823422403361731e-01
-1.541707842053474942e-01
4.293499506529621090e-01
-5.018581265820074577e-01
-2.851840677567363258e-01
7.678891906069097717e-02
-3.778746966095199444e-01
7.311244854240575575e-02
-2.161027420302467084e-01
-2.295540066398840950e-01
2.696512645265617958e-01
-1.358352319080764758e-01
-3.301292831996567589e-02
4.788468903932696641e-01
1.128888316897666971e-01
-2.821084206314992127e-01
-3.017700834747760741e-01
-6.291552624879593880e-01
3.838059604375669565e-02
-4.737304885482888084e-01
2.646026845073197187e-01
8.563457252769970940e-02
2.369535896747816672e-01
1.414411083788301715e-01
-2.682685529740908709e-02
8.665744848942075196e-02
-6.440118670707023485e-02
3.408152636588098749e-01
-2.433315704977457861e-01
2.613471743400947456e-01
1.640112979820152611e-02
1.302127602743580748e-01
2.032107227334099125e-02
4.807395161837491049e-01
-2.483088364363992828e-01
-8.646471595606164406e-02
-2.689345091451064151e-01
5.850095914376667733e-02
4.223285132508592388e-01
2.460450237413697727e-01
2.298289165522849620e-01
1.397843384514801390e-01
8.007613462908698410e-02
2.989759251596722789e-02
-1.182456038346257343e-01
-1.935398218948913285e-01
3.696670342645036467e-02
2.098210485650402746e-01
-8.556033824111959618e-02
1.401329469068811895e-01
-3.282499034588293630e-04
5.745324269771563408e-01
3.133332144165077993e-01
4.734981672174454759e-01
-1.987910442791877563e-01
-2.118451722169022999e-01
1.397213143412766034e-01
-1.893353232026096997e-02
1.966737109022425878e-01
3.630198903248286341e-02
1.340538220190161112e-01
2.412028988640124993e-01
-2.335538018370771074e-01
-1.006110305507616903e-01
2.093111037889321957e-01
3.819287850978414500e-02
1.939511328035644355e-01
5.742879066841587166e-02
-1.380324870607281262e-01
-1.634406014764550052e-01
2.943153572490542769e-01
-3.792037511735561750e-02
2.028984798878004092e-01
6.169922140970957036e-02
-7.091916044985113743e-02
-1.454611753310628419e-01
1.937078956837252341e-01
8.740272348679341274e-02
2.668622858881977353e-02
1.369689773770622343e-01
9.651612182331813228e-03
3.613415048327825452e-01
1.493756267465201071e-01
-3.451794622345091129e-02
2.033012843389287727e-01
1.610207139811070387e-01
1.358205776468103254e-01
1.169866067606615129e-01
-1.101037565233291271e-01
-7.179405528592258667e-02
2.112084704341451319e-02
6.008932129229386382e-02
4.154587606044088388e-01
1.542387911992307292e-01
-6.327508144336430052e-02
-1.427153662905059628e-01
-1.253912853560004148e-01
9.896504413750382978e-02
-1.912380311877508177e-01
1.478352845293310833e-02
-3.380012706293078484e-02
-7.975434345094084554e-02
-1.988983119127105820e-02
-1.918348840216154705e-01
-5.706856276937576078e-02
-9.313740872012121752e-02
-9.095132751447312491e-04
-1.074453906613387216e-01
-1.149635446370932956e-01
1.277925466448091574e-01
-1.218686350062950369e-01
1.218278166649494482e-01
-7.770303606018924558e-02
-5.308153056758377342e-02
1.384921030644083173e-01
-4.876616514593151708e-02
-1.876369321636718879e-01
1.174496686621836899e-01
-1.994308638101761344e-01
-2.418264346430807621e-01
1.582526176124731399e-01
-6.482585589253300751e-02
3.055376193646280880e-02
-6.698235072189206996e-02
2.625864443028040358e-03
-1.223790761889471668e-01
1.771662217192894809e-02
1.646735872734974848e-01
-6.969014141922906524e-02
4.266123687830687961e-01
3.504613711323557868e-02
1.016958594164548424e-01
-1.637035644243763910e-01
2.234519777911904426e-01
-8.597685940989693854e-02
4.762810517448908725e-04
1.062377885952063734e-02
-8.886865471020433116e-02
-2.044236375591967914e-01
-7.273597095572836846e-02
1.846909577748440112e-01
-1.509015552214461042e-01
-7.753901631965898211e-02
-1.145160915588416643e-02
-2.073564906887236381e-01
1.291620458086227552e-01
-1.329167859780178429e-01
8.460322747447888980e-02
9.463119052694744793e-02
1.236379061435083498e-01
2.385370882730983577e-01
-9.097590356352099061e-02
4.726259679919776052e-02
6.027223274132346986e-02
7.323808904267954667e-02
2.087685984735945799e-02
-5.630398236614135576e-02
8.876508510021444143e-02
-3.227869390155314877e-02
1.610529914060731538e-01
-1.215214339458682014e-01
-1.726021448232719357e-01
6.585308258765161515e-02
8.020103238629353037e-02
-3.048227742740181045e-01
-2.029645535947947887e-01
1.054663294903227660e-03
1.680931016235006140e-02
4.172580083907974358e-02
-2.851509091706479482e-01
2.926486649856634426e-01
9.276252229113673975e-02
1.067796418145526838e-01
4.427810041164433746e-02
3.645269728595101899e-01
-1.604373641322814556e-02
-1.477031279558317645e-01
-6.759148464113994004e-02
1.593950383941223140e-02
-5.477240317355099725e-02
-1.953585317112251085e-01
7.731481754341362755e-02
-5.731548381115759289e-02
-1.179228042612291416e-01
4.221881116043559035e-02
-7.239149422273469248e-02
1.471312239895731511e-01
-4.929136055252591325e-02
2.648921332315414268e-01
-6.686275349155864148e-03
-1.347432860045813807e-01
2.413669300014908148e-01
1.873650397205874618e-01
8.727868980133512977e-02
1.414295717851780931e-01
-3.663897290165062798e-02
-1.133726387866646340e-01
1.817234583112257162e-01
6.870512133894401963e-02
-7.035412820255394425e-03
7.515031443431316460e-02
3.798592479138083733e-01
2.055000864566652874e-02
8.491827240653962439e-02
-9.902095133733207488e-02
-2.001007080314707587e-01
-5.207277466992916298e-02
3.741074107647172908e-02
-1.874224296735912398e-01
1.478609418179532321e-02
-2.375799765176699746e-02
-1.103147506473824702e-01
-2.780056968890211033e-01
1.597504766723341074e-01
-1.220328587588736524e-01
2.960247260218675305e-02
3.268299523706325038e-01
8.259162377742887418e-02
-7.657889428668289422e-02
-8.853367176547728701e-03
1.792941930223063141e-01
7.857845485326057922e-02
3.249237578208107879e-01
-5.120309337808123112e-02
-1.952453598996399531e-02
9.773028490529475643e-02
1.220701538174758377e-01
2.402899730896193020e-01
3.183958388709007270e-01
2.039885608881925327e-01
-4.045277138527211824e-02
-3.733785627995260537e-02
-4.137743136855966120e-02
9.474372864286907669e-02
7.756481553152556885e-02
-1.135387327193326940e-01
5.908429344194968819e-02
2.596011892776911578e-02
1.116674822145691665e-01
-2.120197917305643442e-01
1.837102972722324395e-02
1.172960786959036106e-01
1.936653323819358397e-01
1.164882069727901370e-01
1.117647264528415924e-01
-5.131467973300527646e-02
2.926574830117311676e-01
-2.481485124995509717e-01
1.401601659665546173e-01
7.370563788869329003e-02
-1.944455892140807551e-01
1.125685573778737458e-01
1.476807059728643123e-01
2.170770399805511119e-01
1.558598821783038491e-01
-2.407349037380478451e-01
2.039246481725314475e-01
7.156269311212733186e-02
3.163684586814248523e-02
3.218723348805915818e-02
-6.305625922012038365e-02
7.475865284814941537e-03
2.864091828870119275e-02
-7.383479856601993241e-02
-5.598892868558080771e-02
7.069374053562328675e-02
-2.151153634682490823e-01
8.918888217390512352e-02
-2.397473578805530969e-01
-2.830022651924967228e-02
1.258412828727553390e-01
1.158909835555607670e-01
2.964323906967740174e-01
2.834751640274835727e-01
1.726999131371417529e-01
-2.290448221423037056e-01
-1.097994764688928898e-02
1.030903175110665232e-01
9.954878886864065857e-02
3.873488126242409790e-01
-3.602969376936809298e-01
-5.547812003584192547e-02
-2.902578226856313351e-02
1.537295667288781920e-01
3.370312075955061992e-01
1.924276929681932868e-01
5.533095650321854381e-02
2.966144578286698530e-01
1.292368758312058101e-02
2.254387241474387626e-01
-1.233909097570308061e-01
1.022557330557847394e-01
3.520136163187821410e-01
8.248841610503651611e-02
-3.504663376917252493e-02
9.157195388475951325e-02
2.470456045933202005e-01
3.283500436271590828e-01
3.143721271795582584e-01
9.574698953961949255e-02
2.045136355166050357e-01
3.080114836314609694e-01
6.902708352377068257e-02
-8.581403672774381985e-02
-5.336162790988483590e-02
-3.685745132751234998e-02
1.578498970941881463e-02
1.160722038318085791e-01
2.332675347894286044e-01
7.126866754232349943e-02
-2.976353288603454314e-02
2.209597076683244843e-01
1.415696565808951257e-01
3.150053335243012675e-01
5.869767406680273525e-02
-2.812999494130968281e-01
-2.100030550339353208e-01
-2.160466875164701317e-01
3.475515676086032152e-02
-3.812494820730791822e-01
-2.459762372561007104e-02
2.079306403619017585e-01
-1.775986727336880677e-01
-1.473617459986368006e-01
4.051606466685510333e-02
-1.984780432204754502e-02
-2.094695065906602427e-01
4.259555450456565390e-02
4.891255370927057033e-02
1.631189197057467902e-03
-2.705314310363069602e-02
6.090056942954068936e-02
6.998153472753422533e-02
1.077478068250107696e-01
-5.804855527029648826e-02
4.933114720490163613e-02
-2.127659147323840982e-01
-1.458138353812384880e-01
2.743039868508990176e-01
-3.165789204407010865e-02
1.149946784331586785e-01
1.998392206227764256e-02
-2.703749781912755390e-01
5.930028564858066259e-02
5.474889110972401551e-02
-2.250482196269207869e-01
-2.388003155036598213e-01
-1.714368607541411071e-01
-1.292290395089888411e-01
-3.340275178074336021e-02
8.515304698516412696e-02
1.932782227831919553e-01
1.019313462722248043e-01
-1.099204206609478013e-01
-1.551109088457984508e-01
-2.483875342103418760e-01
-2.004618618737481206e-01
-5.165770843313817473e-02
-1.587870990579980102e-01
-2.135117671054967969e-01
2.192354383609975144e-01
4.253994640421259604e-02
9.500892184541469276e-02
2.194523751021047187e-01
1.246636949126894156e-01
-9.305218479223004158e-02
-1.556162221141039331e-02
-1.049321968863293625e-01
1.626703737727062116e-01
-4.355469642029477506e-02
2.075953918248745478e-01
1.421831166333126228e-01
-2.031088035660775365e-02
-3.816206766716395693e-02
2.801906184021281387e-02
-7.758115714152807874e-02
3.899831972146121373e-02
1.256213741077938650e-01
9.383726874846216870e-02
4.231310193003121750e-02
-1.098013808654323964e-01
-1.211834375556117005e-01
-1.007429922336051109e-01
-1.381754275632575933e-02
2.928721285992366696e-01
-2.782341287877373448e-01
-2.884408004770849798e-02
4.865834171179536649e-02
9.782071776681353081e-02
-6.882582285931426735e-02
2.594810048068181552e-02
5.706725189610498128e-02
8.008627983868873979e-02
6.656309887021161220e-02
8.452211024166185471e-02
1.271002013651807150e-01
2.489206778456642677e-01
1.407090691692358675e-01
3.506683272968656034e-02
-6.922840030189590654e-02
-1.622648204543002126e-01
9.727013511326208436e-03
-9.919376146301389641e-02
-6.120696780297633921e-02
9.508592441582373878e-02
3.648248821155931909e-02
-4.437461389729322608e-02
4.538492773861460550e-02
9.094658707096830996e-02
-2.552696171227506472e-01
2.171450859060839456e-01
-2.672357401617675432e-01
8.578402911660920616e-02
1.086363857680867767e-01
9.856191967428180878e-02
-4.877057592981470235e-01
1.811870736844992669e-01
-1.147665710392310190e-01
-3.071524065338188808e-02
1.257369363437069870e-03
1.899062706455171279e-01
-1.987075001767409435e-02
-6.060492553209865726e-03
-1.326317540655199030e-03
1.795292707877974014e-01
1.010340864454923188e-01
1.803990708636240281e-01
2.009634906232453042e-02
5.283822512834942392e-02
-9.870385880202638129e-02
-2.537681616839940757e-01
-9.478327055442908877e-02
1.455697860648277608e-01
-1.359783528868194757e-01
1.464142757491106728e-01
1.800274855560599629e-01
9.507744999964433397e-02
-6.812362307038473397e-02
-9.377415468084672467e-02
-5.791404295591017631e-02
-3.852154089045622398e-01
-1.169511422096614073e-01
7.310580096150955109e-02
8.652888942114793369e-02
-1.803258441128367251e-01
7.818010305971719032e-02
-2.081707147823661785e-01
-5.719819260604044886e-02
1.985357947913435339e-02
-1.455942125328187065e-01
9.259719805138531823e-02
-8.288007246147893747e-02
2.508522634782140437e-01
-5.389513247105776061e-02
-8.423045950806476445e-02
-1.777296924091280039e-01
2.858683296253498873e-02
-1.704600523213755103e-01
1.378256387787270276e-01
-5.919894947959453320e-03
-1.361068185581312540e-01
3.216204857546044182e-02
-9.875162584727495418e-03
9.154739796933832052e-02
-1.060378973276432657e-01
-1.406439430956657188e-01
5.335818582242240343e-02
4.346114698483520555e-02
-1.544776648177285383e-01
-2.523367797126059298e-01
-6.491512286454346192e-01
-1.161755655412391453e-01
8.978580916669458983e-03
-2.115925587479320913e-01
4.064183434417091567e-02
1.688943298432323548e-01
-1.475959404157100030e-01
6.638442857346897596e-02
-6.315759642801459239e-02
3.918609667612131531e-02
3.452516060602554560e-01
-8.186402639745647691e-02
-7.945404816488278732e-02
-3.918436946840726104e-02
-5.644362283177534884e-02
-8.016927323672920491e-02
5.546025650146008817e-02
-2.607188302431386329e-01
-3.674849253439976121e-02
-8.054442699019870311e-02
1.589204247255854296e-01
-2.670104866930999021e-01
-4.405963128140951146e-01
1.590380054065781423e-01
3.428808012093507163e-01
-1.052261199667898911e-01
-1.103181663557729897e-01
-1.488020520289087545e-01
-7.841536063035704773e-02
2.426742109943097747e-01
4.216842182254200710e-01
-2.751037350543683591e-01
4.507928370893181380e-02
-3.520526671808660857e-01
-3.105414506108973294e-01
1.408781192000165688e-02
-5.302023336514073426e-01
7.049879784371675118e-02
-1.113941331919441474e-01
-2.236406872603719509e-01
2.029079787876146845e-01
2.383718116369696050e-01
5.437745884033745591e-02
5.483345209425911221e-02
1.013192248282382829e-01
-3.331540296918319433e-01
-3.700684325938833341e-01
-1.972982359616627934e-01
-2.405632905131819266e-01
-1.582040264954457168e-02
1.023473803710058139e+00
-3.417553119508816295e-02
-7.270954070298114857e-02
-3.825283776995080931e-02
2.808551804709661925e-01
-5.878447435203990046e-02
-9.234653197925567214e-03
-6.749852836158427849e-02
2.664898471084712894e-01
7.217988841833315738e-02
-3.335831156375856366e-01
-1.229645310596343480e-02
-2.508029075359600735e-01
5.120747921607176067e-01
1.682152252105026946e-01
2.400029614370295010e-04
-4.370143357414434937e-01
-5.807163215309542326e-02
2.666199223860891143e-01
-5.289467263653372525e-02
3.024274768174885566e-02
4.040760255146145369e-02
8.384232555334696080e-02
3.320027761767242735e-02
-3.137583486924931386e-01
5.940314313368113414e-02
6.891400899646912825e-02
1.448213586644936657e-01
1.245427413917043341e-02
2.955558269184159204e-01
-7.401151718776188826e-02
8.067338293462775756e-01
8.502256454831449983e-02
6.015744117849657346e-01
1.551915813660082431e-02
-1.221353535529481893e-01
1.797745830517138710e-01
-5.270542847920410556e-02
1.931467679665423431e-01
-4.704600720113312484e-02
-2.946286950330611609e-01
1.052622610194423741e-01
-1.237786027657197530e-01
3.139265762344026212e-01
9.959614469904590206e-02
-1.855924268261230081e-01
5.041645171588455820e-01
1.804013877648153741e-01
5.602827594810324413e-02
-4.938661627870361698e-02
-5.198341473973512317e-01
2.920211763749406275e-01
-5.148496257568524470e-01
-3.727873326364504192e-01
-4.760303939188585964e-01
-5.339054494829310882e-02
-1.430111465045050441e-02
2.635661519440403167e-01
-1.581706604988089848e-01
6.988012489707942088e-01
-2.656699975476126685e-01
-1.317316764221868330e-01
-4.648648779397771165e-03
1.802246783122063434e-01
-3.088989436495225838e-01
-8.059312800583835756e-02
2.877864111740719988e-01
-3.705411522268377555e-01
3.698732421749424959e-01
-4.638323238266430781e-01
-1.511461526919083975e-01
2.432937295816676657e-02
-5.167860040960694512e-01
2.172728097228804056e-01
2.705490096576213532e-01
-6.181253572155825937e-02
1.831123922348325828e-01
-1.084630516430253599e-01
2.067330556577151035e-01
2.202764944740428221e-01
3.946967667385145040e-01
-9.160890452286422903e-02
2.635442937386524576e-01
-4.850782819014978209e-01
-2.466815241568870998e-01
-1.797276856541670242e-01
-2.839892760381356740e-01
3.051194943255993719e-01
-4.064711781092776310e-01
-9.283973087216700060e-02
1.948457632932459049e-01
5.370582438803255497e-03
-2.235120815521186854e-01
2.562283265885483274e-01
3.272951937056030325e-02
-2.571115316022691277e-01
-3.079478935590224120e-01
-1.217031770945085772e-01
-3.638813043775799283e-01
-3.179338561178069456e-01
2.510163003136133275e-01
-1.404247962046287213e-01
3.613931173675665742e-01
8.006316905335264522e-02
4.994002456091804765e-02
-1.298692027995002052e-01
-6.998785192629347618e-02
2.285312988768150970e-03
-7.579158019749740460e-02
-1.629323448456835299e-01
4.997671829212367578e-02
-3.241930000080520125e-02
1.041286758680239344e-01
4.632197181617088433e-02
1.272839127134023085e-01
-5.216784646217052790e-02
1.748926745122670878e-01
-1.084697401549263029e-02
-3.514793083741489244e-01
6.983246832799522297e-02
6.070913580097672679e-02
1.758622951842483961e-01
4.116211505384748670e-01
-2.096073747305558510e-01
-1.865121026147389116e-01
3.790507366193498519e-03
-1.033825336038420722e-01
2.073162712206226277e-01
5.854968834214883955e-02
1.496062629883352368e-01
-6.736093600554599048e-02
2.314001179288788929e-02
-3.390786420755415032e-01
1.677425884672967445e-03
-1.202264073354809620e-03
5.137140678457494808e-02
2.231689099096766382e-01
-2.217529010622169283e-01
2.191892260396703929e-01
1.006869753584714589e-01
3.820251552026044523e-02
-1.016257422820289053e-01
-8.918062294772896581e-02
-2.222120515170786514e-01
2.283611680952362111e-01
1.547610477101762638e-01
3.638051919489196373e-02
1.130644620713615045e-01
4.725065479167565169e-02
-8.054103546337153252e-02
2.855755146383973653e-01
2.735846013796789378e-01
3.338220064403402687e-01
4.149446615670673161e-02
2.626984634853821721e-01
1.490941038931881957e-01
2.169577785626897876e-02
-1.658821724258051911e-01
7.881529019889714494e-02
-2.884479630111508319e-01
-8.618347058959610618e-02
-3.745287652757852553e-02
-7.696164834807737998e-02
-5.196263674988729070e-02
1.447084902107069471e-01
-1.881010533558907516e-01
-1.776915631989897659e-02
3.831369318344459568e-02
-2.399346377089728310e-01
-3.955119603842482262e-02
1.770400256257332883e-01
-3.347738219317670794e-01
-1.816125835797537391e-01
2.538084625588013857e-02
-1.994472622305031029e-01
8.826019161806881314e-03
7.414933400550496878e-02
-4.384065493896935339e-02
7.585504538410775890e-03
1.563010974693004596e-01
6.765320480475580994e-04
3.748250751897980182e-02
1.792695416623754645e-01
2.119628448394736686e-01
-5.672429737092232055e-02
-2.353993016869915800e-01
-6.066831146145186537e-02
6.928886274553366920e-02
-5.543202010283748010e-02
1.069698595374174582e-01
-6.666993959675876491e-02
1.209430040852470939e-02
-7.112247966082066442e-02
-1.334011811391065117e-01
-3.092058811974693821e-04
2.367428614740775539e-02
7.217350231585478726e-02
6.971448206104367828e-02
7.650795666944767981e-02
1.615659519288426826e-01
-6.011440439615857445e-02
1.347826484852518436e-01
9.435888292985966999e-03
2.830616924373599921e-02
-1.849518573733604510e-01
-1.696452524175710297e-01
-2.116243736365604478e-01
2.384489257940325749e-02
9.973921218555589774e-02
4.047740788335804640e-02
-2.030225109506284820e-01
2.186844310443875616e-01
1.089790241456454895e-01
1.880909510403139528e-01
1.681921520530671177e-01
3.862965997765420711e-01
2.120194250556944188e-02
-2.126157069277661779e-02
-7.721970246751293232e-02
1.166977213702091870e-01
-2.060849504785751685e-01
-9.389187768440138138e-03
1.205378149595665721e-01
1.074086923427489820e-01
-2.555835780082466036e-01
-3.183275213814311388e-02
7.052835368636356517e-02
-1.611449333438950623e-02
2.737090252711829944e-02
9.648023561271024118e-02
-2.289395853535286171e-02
-1.557056270951031468e-02
-5.177973719517409840e-02
-5.641991033540223396e-03
1.197732174193068405e-01
-2.957877199535716706e-01
1.072524168177317744e-01
-1.186390538398021388e-01
-8.958858769286405510e-02
3.599959321903026255e-02
-6.383351060392936094e-03
-2.081019123461820275e-01
8.131306235711431574e-02
2.652538162262887619e-02
-1.642779367337026189e-02
-2.265887217036460788e-01
5.328765572904824860e-02
7.715156842204314025e-02
8.291661340257470980e-02
-5.567948163078851459e-02
-1.459610384527859073e-01
-1.716273115883278633e-01
-3.103731780321809519e-01
-3.626693898081542744e-02
-5.728339902171995096e-02
-2.090356208057843682e-02
1.264612491987321952e-01
1.253626723786493424e-01
-5.243998164473814838e-02
9.703251757417465095e-02
2.294018430069810072e-02
-3.427164745940621815e-01
-6.442441382514860204e-02
-5.255227286410601301e-02
-1.236029493427906051e-01
-1.093164321051091348e-01
5.006290604059444177e-02
-2.568712066374693181e-01
-2.152104289607294496e-01
-4.876775238976655685e-02
-1.094688980600046352e-01
-2.071891978018400582e-01
-2.794731873821262313e-01
-1.137988470402625900e-02
-4.241752584756344063e-02
-1.815251220340532434e-01
-7.258823221257144909e-02
1.329304512160503771e-01
-1.702640387051751747e-01
-1.627318981731485370e-01
1.563009724151078195e-01
-5.627382641329696511e-02
3.946256129121660794e-01
2.929322151807848672e-03
-2.215174425479014830e-01
-2.051602669133150703e-01
-1.509219009375720177e-01
-2.846085295782542490e-02
-1.036093169448056989e-01
-2.123176612003938868e-01
-6.097524774842297268e-02
4.624402672259197641e-03
-1.742847956016546074e-01
1.386351378900643402e-02
9.713513530868041201e-02
-2.019243355357790426e-01
-1.045432671546632220e-01
-5.101638105435307019e-02
-7.521185748568889884e-02
-2.638973743620878776e-01
2.874145183039713003e-01
-5.379432432846660561e-02
3.654171165627420059e-01
1.872434352925092804e-01
1.177284035179596428e-01
4.277823285467061143e-01
1.663138113217552116e-01
1.488289389215124991e-01
6.462147351549693552e-02
2.456846619947357646e-01
-2.585268931943740522e-01
3.698552619884816206e-01
2.086086040347160664e-01
-5.605720673676703458e-02
-7.550590783004383633e-02
-3.132798683647587401e-01
-7.878230859664878127e-02
1.306159199680810741e-02
-1.579016982782491529e-01
-7.909964179312052590e-02
-3.156528434358195079e-01
-3.953587557647033485e-02
7.289704998916525513e-02
6.808199711113926966e-02
-6.947061122487098450e-02
-1.066180462040350746e-01
-1.839304489486308630e-03
8.421564814160349688e-03
3.959336031260171640e-02
-1.912525131678306234e-01
2.799583231992656129e-01
3.720480226786788136e-01
-3.653703024170570912e-02
6.829915863186007685e-02
-1.858644780706820154e-01
3.088096605358844893e-01
1.387826619946893325e-01
6.911568808965837252e-02
1.383107750698272520e-01
-4.529185827031922788e-03
6.036588337665869941e-02
-2.449550787488864456e-01
2.811638886573775697e-01
-3.129166943276854435e-02
-9.084696997385770245e-02
6.910242418399233089e-02
9.151298353120224105e-02
1.081454827703232507e-01
1.203052743308191258e-01
-9.023290166739016127e-02
-1.812538890647821532e-01
-7.791406753508508913e-03
-2.041949011194375829e-01
-8.304842170639636922e-02
-1.074899571816047700e-01
2.503752613210071809e-01
2.156247279471572020e-01
-3.502620250083204323e-01
6.022429784080751691e-02
-3.088498570096411266e-01
3.431028602355288837e-01
-1.099040677168965502e-01
5.423483237534203194e-02
-4.060053335870271729e-01
2.231837821947485825e-02
-5.684745237119055716e-02
2.454323265574443746e-01
1.308027943019484524e-02
-1.514152602391521663e-01
4.065215626633310597e-01
-4.564751749168574624e-02
7.134746270877746765e-02
-6.626171865918413506e-02
-1.592577937777229780e-01
-1.748993552911909943e-01
-4.950929617801834437e-02
2.725379107091397968e-01
-2.362684674894529602e-01
7.576498606978718242e-02
-3.879897880490582596e-01
-1.720516426896630813e-01
-1.178049610043589712e-01
6.904569699275149575e-02
-4.632249389090607045e-02
-1.104412534533756041e-01
2.201095714416335253e-02
-2.466415781574817501e-01
-2.904694305687288147e-01
-2.316772775762365733e-01
5.057691663226702994e-02
3.803206819788830517e-03
1.217007647048255065e-01
-4.028189891450460053e-02
-2.422660095562833571e-01
1.242965645685933374e-01
2.542334070075170094e-01
1.119935245560745168e-01
-4.270238921771402768e-02
1.563264517048870150e-01
1.790040383619760089e-01
5.860707886704101532e-02
-1.031306471006205316e-01
6.208755907543924563e-02
-1.872338385086172452e-01
-3.269428546123054335e-01
9.607018305266747105e-02
5.171664232528025429e-02
8.490791801969972685e-02
-4.640217195817146478e-02
-4.317374809386622520e-02
-1.229101666700519596e-01
2.749708773507573110e-03
-2.985230415721165133e-03
-1.828462083606180455e-01
-1.758081839589975548e-01
-1.226217499691433302e-02
2.958348228478590025e-01
1.672368850301474974e-01
-2.345386885019070944e-01
4.487791138457965928e-02
-1.057673230351320742e-01
-4.577755945118003322e-02
-1.986049498417140069e-01
9.198557238091023547e-02
6.017470307146152719e-02
-5.778547315682559284e-03
9.347390507931768733e-02
-7.836072827470008662e-02
-1.083068094286087635e-01
-1.533207461437038899e-01
4.679647689562755480e-02
-1.775499441041374429e-02
-1.493846584476951622e-01
-1.370548662659188954e-01
2.313052819550402150e-01
-3.154035946269959645e-01
2.451107124377378821e-02
6.319159804551957582e-02
9.220196628687868379e-02
1.455132473148050554e-01
3.273940892887618193e-02
2.136327367734628391e-01
5.550117508553203960e-02
-4.983607866836479300e-02
-2.992734292079496372e-01
-3.218925164440383097e-02
-5.481995491198329851e-02
-4.699022652096700864e-02
6.997705220056132935e-02
3.943655337458781274e-01
1.520417480819078251e-02
1.360112281090022357e-01
-3.109463127088625267e-01
-3.187954116553932127e-01
-4.360461722574827947e-02
-7.539692567243214127e-02
-2.044668314952578780e-01
-4.846674809811931522e-02
-1.612566770842059072e-01
-1.950163319106696380e-01
1.366830069923819502e-01
-2.284929827901756860e-01
2.079885848634971668e-01
-8.081496022666696810e-02
-5.863718432174121892e-02
-2.798456384930265300e-02
9.457161901387781122e-02
-7.431312768794777479e-02
1.079711757806333661e-01
-1.719948309093176364e-01
3.066192978981407968e-01
2.708430065766737060e-01
-2.403754648302360297e-01
-7.092312179479540526e-03
-5.557447989642445157e-02
-1.591043474849052064e-02
-3.616480822404318646e-02
-1.100786005120216599e-01
-2.227746586150693153e-01
2.653144396373941644e-02
9.111088391116692678e-03
-4.250971846479648791e-02
-1.285771078588666128e-01
4.547707560234217489e-02
1.492167610887564499e-01
2.295821395725481107e-01
1.321447226433389854e-01
-3.314288715871394758e-02
-5.626115778838870762e-02
-6.532164137894305722e-02
1.523673378023123748e-01
7.912561078772983869e-02
-6.083323611566271438e-02
-1.453064394474692933e-01
-2.529236456912136721e-01
1.715700237424542807e-01
4.653760566030436252e-02
-3.913466891068577147e-01
9.486076542308519155e-02
-1.888425292893482765e-01
-2.053456729329966035e-01
-2.043426164025435865e-01
1.464831647931242875e-01
1.868441353598645494e-01
-9.824334290698122363e-02
-1.825460157629207603e-01
-9.171335061950096346e-02
1.008391068956175363e-01
-2.200395335114334050e-01
-2.639421622068638396e-02
1.055206860354074433e-01
-1.106319313165268076e-01
5.816735405867853870e-02
1.651329431453777974e-01
-2.382233736625866682e-01
-1.322680423411057016e-01
-2.061435812931440847e-01
-6.905470633844970618e-02
1.563383677457700072e-01
-6.725258346095198958e-02
-1.847608554798601810e-01
4.420745761532355461e-02
-6.354299620848215258e-02
1.183468428255437035e-02
4.846513735877250317e-02
-1.700262757868777064e-01
-1.122427816467786721e-01
8.275309892587499883e-02
9.650226401016340216e-02
1.226055392796524535e-01
1.782940007308880803e-01
-1.539701028280565376e-01
-7.396207007005464740e-02
-6.447697378949424074e-02
-1.328728977681798429e-01
2.851596898461414287e-02
-2.995523871830509804e-02
8.318113712034821972e-02
1.432301819059541570e-01
6.194570303336714712e-02
2.694018982144788521e-01
1.009230253198252492e-01
-2.363882739164118729e-01
4.449205842385116627e-01
-2.692534101464958973e-01
-6.744192718998097587e-03
1.139579427994453775e-01
6.547055493258872871e-02
-2.221957558842639902e-01
-4.074688022943865895e-01
-1.057757699948121827e-02
-3.955349428612995460e-02
-1.492255228736238393e-01
-1.360153438534251469e-01
-1.170726800455341998e-01
1.943050239830812209e-01
-9.781145132171312206e-02
3.364069271629436253e-01
-4.122330331492588679e-02
2.049261580292061069e-01
-5.929093228217984651e-02
-1.644209301690813807e-01
-7.115664373453760294e-02
3.104584696074534911e-01
-1.534349409207860608e-02
-1.605541068077314115e-01
2.990359811247878669e-02
-3.745779569563242872e-02
9.769816588201180041e-02
-3.064475260344263208e-01
1.584250615544959273e-01
-1.217330229388606244e-01
-9.988371263363955699e-02
1.391531794219112717e-01
-1.303407822108833269e-01
8.655535334530244096e-02
1.139517815992436567e-01
5.561306186649046801e-02
4.082373119018992830e-02
1.822131304607698676e-01
-2.872771835483958203e-01
2.624432706200299781e-01
3.188108816243115928e-01
3.885632497542110264e-02
-1.588090769905753652e-01
-1.590628733406708739e-01
-9.099459949093380295e-02
1.614379624617991726e-01
2.124326667147544839e-02
6.683089164599148591e-02
2.274458001536016141e-02
5.235879961059052359e-03
-1.665163544215903790e-01
1.233016153615835858e-01
8.664304317186155568e-02
-9.634446567827922858e-02
-1.755329875785222593e-01
2.636634639479566999e-01
6.512546475205049923e-02
-7.681386227667666433e-02
2.422424237861020846e-01
1.078884716587594217e-01
2.369690245240654303e-01
-1.187860882099161944e-03
-4.762157649006111548e-02
2.522263331425105837e-01
-3.677460987864343278e-01
2.004997586687322017e-02
1.086817124193949213e-01
1.385107871441368932e-01
-1.046295553347813406e-01
1.164041477437644384e-01
-1.581814721456162032e-01
1.884874298289955785e-01
-2.981349569079576756e-03
-2.286741774864826937e-02
4.937551522837797802e-02
-2.908156962461477119e-02
-1.359957587451528782e-01
1.147091834879739175e-01
-2.552346976875390361e-01
-1.727170679826569022e-01
1.023570809335240250e-01
5.647210613901538362e-02
4.047490375434042303e-03
-1.758786324151375216e-02
1.371201110162482140e-01
8.132226078985493878e-02
1.913929564865990696e-01
-7.869503365769697778e-02
5.804397060718363005e-02
1.615007222921453212e-01
1.741087678983114506e-01
6.239532576842438116e-02
-1.635650688385573981e-01
2.777127746842380507e-01
-6.351765817834995054e-02
-2.046946822061156968e-01
-1.625667101052192046e-02
4.642403881880258903e-02
2.130692864287466459e-01
-1.211565669669650430e-01
-2.325503765789515842e-01
-1.135607993922657655e-01
1.206146255379682425e-01
-1.910815626572009984e-01
-5.111123450980133848e-02
4.313014427141796323e-03
1.120115962577301061e-01
1.179929232336972000e-01
-2.296757425521504525e-01
-5.885948026865893412e-02
8.299681480160896185e-02
-4.787963938063509450e-02
1.061404182262281337e-01
-1.034775404617092609e-01
-4.483443070935640325e-03
8.844159185400319104e-03
-3.240961508496387200e-01
3.528418915280586571e-02
-2.622047954476254272e-01
5.121772112039385538e-02
3.338881432885092062e-03
-7.588647143984270094e-02
-2.049691936032021211e-01
6.420659038447242006e-02
1.838611364189245978e-01
-1.291312956643382581e-01
-1.720915477260138438e-01
-4.271616765569256208e-02
-1.819814712007252963e-02
1.324375527812136077e-01
1.640214378672671669e-01
-2.216079803501862233e-02
6.773719799748453840e-02
-1.656401058703918239e-01
-1.994962218839237411e-01
1.111961803541085120e-01
-1.682720535164962117e-01
-7.191128803425864136e-02
6.498123988675143237e-02
2.110579577039222582e-02
-1.169230880455148641e-01
-5.085292065249326365e-02
1.676382773504151574e-02
5.865493656135186556e-02
-2.282785056382583277e-01
1.458625248897843507e-01
1.565183494700315703e-01
-1.469587135434060332e-01
5.493186420030366640e-02
-5.641650218594333049e-02
3.199278287504394025e-01
2.844683274498071568e-01
-8.241169681225578303e-02
-3.250730752469768031e-02
-1.915437526279169245e-02
-7.776793137408795353e-02
-1.537126365943523310e-01
-1.243489746893986503e-01
4.833986821690122171e-01
4.008149515172590438e-02
-5.309856878353069742e-01
-5.364033183866877552e-01
4.151182255986406860e-02
4.202506014514175714e-01
2.390413664150142781e-02
-2.172519059436722466e-01
-1.138918466066384111e-01
-6.061929423512936177e-01
1.135874633050848320e-01
-2.429358294034671475e-02
-1.352843215567908486e-01
-1.240396437983856820e-01
-9.029636604161453417e-02
2.592455494016417950e-01
1.163322276650423787e-01
-1.335652767127259478e-02
-2.728787577543410059e-01
3.077956990054805386e-01
-2.895924917295465348e-02
2.380911636253125671e-02
-1.128617458349687880e-01
3.920278633772108362e-02
-4.289341172060490148e-01
1.348858312506311385e-01
7.685847798716669010e-02
-1.234018505883950623e-01
3.244348984580941453e-01
-2.570732508372230302e-02
-1.515056637383946359e-01
1.928332074560900611e-01
-8.874243883944732403e-02
2.984404368485142345e-01
9.581920862880349832e-02
6.296954978047281104e-02
1.079501435357680950e-01
-1.471971976080608813e-01
1.610223826728414409e-01
2.532212583300509356e-01
2.399099943449121281e-02
-9.679861527538120847e-02
1.491888943464384637e-02
-2.812707688066751754e-01
-1.932193395608761133e-01
4.768466638404247199e-02
-4.654600313913653808e-02
2.530746283919335093e-01
-1.317524036072164617e-01
-7.626132738834598412e-02
9.384418620198478611e-02
6.122509999092889260e-02
-8.433315229463052287e-02
2.350565326433452784e-01
2.578987076740047457e-01
-1.713953755482641450e-01
-3.710707829449726852e-02
2.003888270427073293e-02
6.141026966052081509e-02
-1.538422755377027162e-01
3.064414688111135043e-01
-6.046883244377488503e-02
-8.059684870900944709e-02
-1.263325499684771480e-01
4.440088103316046364e-02
-1.160083718435211964e-01
-7.637878867232673896e-02
1.153603765182282109e-01
-3.373976532732472083e-02
1.499008127161018111e-01
7.987281214156215225e-02
-6.027017171591761424e-02
2.442153703908461482e-01
-5.817439923873016228e-02
-1.535895091371966281e-01
-1.530603201845929795e-01
-3.368413239236679041e-02
-8.000582406294740045e-02
1.038684526133014235e-01
-9.210372736006990080e-02
-2.218594821858964339e-01
-6.214725604803669062e-02
-2.515539949800654415e-02
-4.778683359388232431e-03
1.580179065587584974e-01
7.245428646463882016e-02
4.624542159056451579e-02
-2.544248577788451038e-01
6.447496885733969285e-02
1.749283800411662593e-01
-3.096227962878924655e-01
-2.784397330341246285e-02
2.378611223902113991e-01
-3.473189917371299895e-02
2.762935444926062911e-01
1.984519117578716629e-01
4.664186821266604055e-03
1.261004703921319303e-01
-2.748743270572946984e-01
-6.242714752315118090e-03
-3.681998898880492477e-02
-1.794160963463712066e-01
3.119701304524155061e-01
1.678731582658546731e-02
-6.663698301783577138e-02
-2.164817410465729591e-02
3.806329199166595678e-02
-2.575973812829802645e-01
1.812177973204479875e-01
-3.426977697811842138e-01
2.543744780808888661e-01
2.422090260430716513e-01
-1.574788506337322647e-01
-3.854537922306703335e-01
-1.378937332329340515e-01
8.543739125151719738e-02
2.981794977204723085e-01
-1.057734728086034554e-01
-1.329500235552454335e-01
2.518762181230653763e-01
3.633948122188027097e-01
1.160694669338610367e-02
2.827376390774092862e-01
-1.079540320585491570e-01
-2.604936600005124947e-01
1.113823473236497941e-01
-8.495871757278020131e-03
-2.250794164828687771e-01
-1.162741158499744770e-01
-7.167234833707296360e-02
-3.664380290648217575e-01
-8.052760906290501453e-02
-3.431103717029471145e-01
1.742866890842251493e-01
1.844144076087250728e-01
3.511606573885112104e-02
3.163389713599975561e-01
2.816724498809201199e-02
1.231048325177266506e-01
1.853587076486439833e-01
-3.446738935214290200e-01
-1.034159449252655683e-01
-2.511601265727260793e-02
-3.059742399337582741e-01
4.600895059447386581e-02
-2.193096202953406099e-02
-9.107186434966289823e-02
1.253590168931767446e-01
2.594973609674791071e-01
4.928792792509132520e-02
-6.071761520931098083e-02
-1.630995936858523065e-01
3.501609284684052692e-02
6.222815510271935413e-02
1.314778850767949758e-01
7.365095205067119510e-02
-1.688057651457830488e-02
1.827121117894174862e-01
-2.713004491043511379e-01
3.840595520443249034e-01
-1.984355321106432979e-01
1.013402888294607229e-01
-4.776813599064189814e-02
-6.239669496672026888e-02
-2.264056860760231549e-02
-2.017729892744431763e-01
-1.373263462555037728e-01
-9.284394411214759446e-02
-1.252606845918400047e-01
-1.780985945504956480e-01
-5.074672128512345420e-03
-1.245653277812156096e-01
-1.311076487404916335e-02
-1.155821024376431361e-01
-7.314899915993704205e-02
1.447790911604204533e-01
-1.966607216737046096e-02
-1.373271798563321933e-01
-1.320597918842795482e-01
1.885933972621568755e-01
2.257239101705438566e-01
1.932863179104144236e-01
3.121783974387018837e-02
-9.120318719490091985e-02
-1.235442523583577951e-01
-5.872792989540322889e-03
-1.450096210633464722e-01
1.950879892113855374e-01
-4.848950093934183657e-03
-1.485794961662263991e-01
2.185889674478648237e-01
4.876881398643702348e-02
4.430839559225074886e-02
1.327093075687400293e-02
-2.123731146242973378e-01
-1.893343874573805707e-01
-1.994882171288336614e-01
-4.304639618601713291e-02
-1.174490933994122854e-01
-2.927055238160446993e-01
1.821813946069551216e-01
-5.223798634829874415e-02
3.394107565214879996e-01
-1.243837719009325757e-02
1.735765950205748476e-01
-5.246519263426898533e-02
-1.651547371728265268e-01
8.495572080476584964e-02
5.198855259814302854e-02
4.519137926151221146e-02
-1.370333556892258386e-01
-2.050878779629467519e-01
-8.480755974119094653e-02
1.546792791113321686e-01
-1.473192872340318982e-01
-1.560881043432601478e-01
-7.618941160832495840e-02
1.224252205019897566e-01
-3.532196209602205851e-03
1.143490827384101710e-01
-9.184024465357203126e-02
-4.400041801709253519e-02
1.992421981403394993e-01
1.652888930840985815e-01
1.550895657922203852e-01
-1.118874415253806182e-01
-2.093650313890867420e-01
2.846422938823225945e-02
8.799770966296222019e-02
2.882498194512471759e-02
2.126603295994592968e-01
1.031271172428119415e-01
-3.884705405983352854e-03
9.968980780479083648e-02
-2.651667612367414675e-02
1.253428373891432024e-01
2.026409019632541275e-01
3.010961724192848590e-02
2.704938948232651907e-01
-4.222429724205321866e-02
-1.986237530466626947e-02
5.971298303698957533e-02
-1.732036367810283750e-01
1.638300341852544362e-01
1.253529589246652753e-01
3.116179965088891959e-02
2.052811201321434187e-01
1.207079118840688609e-01
2.151226734736604307e-01
-2.239945791219216664e-01
-2.843096274905905219e-01
-8.056482754917887457e-02
-2.920263668563407022e-01
-1.721574245220140464e-01
-3.113188676514512254e-01
8.558727062070717317e-02
1.497550456455457313e-01
-1.123541339884205348e-01
-1.551690103066251658e-01
2.615743683579210832e-01
1.687272396179442108e-02
3.277469702697106968e-02
-7.051962467267159154e-03
-2.273042841444196105e-01
-1.492170111601323623e-01
-5.281301557596299739e-02
-1.751825314683104484e-01
3.619050806652120492e-03
-1.399910081713131582e-01
-7.322122226015166657e-02
-5.764260157413957780e-02
-1.369308318284485626e-01
-1.768034072905314696e-02
-8.346138220235665983e-02
3.431762728213056529e-02
-9.497443946638525758e-02
-1.315631520319717473e-01
-1.634084249136147360e-01
-6.830509732675750512e-02
-2.506211333409801845e-01
-2.106190602566897774e-01
-1.958573836388471379e-01
1.000578589124249407e-01
-2.863474278641879867e-01
-6.055633524100666881e-03
2.159668761455780794e-01
-1.792017433403192417e-01
8.435328124468538524e-02
-1.140879872886476631e-01
-1.190124960312051589e-01
8.490955165990700382e-02
-1.612229788813649145e-01
-9.557741077957157549e-02
-6.384197044802969456e-02
1.506738506667741340e-01
6.681647691654118287e-03
-1.600616766833177496e-01
-7.292674206739736820e-02
2.115946708801375031e-01
3.919235617153167539e-02
-2.391117680905733775e-02
-1.372991524824492271e-01
-3.243473057753153976e-01
1.229749978416020684e-01
-4.584039154942558952e-02
-2.234936976981604859e-03
-3.928447549731332866e-02
2.717631106943938502e-01
4.101644076509890907e-02
-1.108740197413226290e-02
-2.010269537567393322e-02
1.087613684383182365e-03
-4.113165916133328798e-02
2.645655074816918861e-01
-8.273160961153475101e-02
2.087371002005119214e-01
-1.953628871696831693e-01
2.317771543241483045e-01
2.104696678136966717e-02
-1.539239862709470275e-01
-7.283235439235304087e-02
-4.197070321336438675e-02
1.182345749684441949e-01
1.064126088357761485e-01
1.299979964147772449e-01
1.165935371513182051e-01
-3.592801851401725144e-02
-6.503567434428721150e-02
1.936682893539441175e-01
-7.863716977951742959e-02
-1.439974738559083034e-01
1.047585125815187618e-01
-1.072765866012195674e-01
-7.790505571120834305e-02
-2.334853664623178504e-01
3.466210453860114199e-02
1.237168332369435741e-01
1.290010918137590168e-01
1.602753524335638960e-02
9.546539079831850572e-02
1.939555957269978315e-02
4.895287708197793713e-02
2.290467970794702809e-02
-3.578018033337253545e-01
1.885091195008147327e-02
-1.232644772519040227e-01
1.585887329056858419e-01
-2.975136322436076203e-02
1.420182794763290290e-01
-1.830025606967222995e-01
8.031657652177071061e-02
1.180851607858878632e-01
-7.818467205129805975e-02
-9.807169037909542822e-03
1.424850178036335957e-01
-5.674193218254381527e-02
6.919628080124856639e-02
-5.300669689970633619e-02
4.780123311281201520e-02
-8.559385285521955988e-02
-2.854663304497646881e-02
-7.883805170235076709e-03
1.203535393647446328e-01
-1.944397677667560331e-01
1.707926176957919040e-01
-1.100760247118529739e-01
3.477412456871590285e-01
3.052347323413366620e-02
1.979057272970770331e-01
-5.753991950448366505e-02
3.994960431959670294e-02
-2.293793484954562978e-01
1.291733156254782355e-01
9.561133197679344553e-02
-1.175422867762812053e-02
-4.590122725986494484e-02
1.604685540768668872e-01
-7.648370739126116036e-02
5.609081357408977203e-02
-7.877076222048094711e-02
2.409592245629128132e-02
-6.295882531996134512e-02
-9.403616102284283185e-02
1.433780235282433591e-01
-5.245888171017139973e-02
-1.052166032756142039e-01
-2.376102013571559368e-01
1.786254399113768043e-01
2.951938111896677125e-02
5.289999193286037960e-02
-8.874870530198544771e-03
-1.426220418799545309e-01
-1.031840139948042301e-01
-9.382281859431031157e-02
1.030850831704810816e-01
2.451414289041184968e-01
-1.954415193690709623e-02
5.011206988740844227e-03
-6.411090517812707140e-03
3.260315114012237170e-01
5.760347489303276752e-02
6.763306456742554373e-02
-1.869348631578204301e-01
2.695942319370223453e-02
2.393647707769698540e-02
3.750611746863761423e-03
-1.921878952787799688e-01
9.272332353676789041e-02
1.634948788655669061e-01
1.798563170701412972e-02
-1.347754689584602095e-01
-2.371255065093852699e-01
1.396794067380625892e-01
8.968439499340906396e-02
-2.099275271671896814e-01
-1.666050708650543277e-02
9.403321145547922921e-02
1.347092507666985683e-01
5.631712217765915546e-02
-3.176254968532743472e-02
5.279896872521752660e-02
5.682949387138759578e-02
2.665936351859079512e-01
-1.617536310823912415e-01
-1.634459310263397802e-01
2.543463869420821075e-02
-7.414902269095639820e-02
1.124510050113248227e-01
2.873223317417916006e-02
5.280828761777252994e-02
-1.668227565639379961e-01
-8.207853244750761001e-02
-1.209895574489127101e-01
-7.450911603720795917e-02
-6.929020888980930160e-02
1.995809738435970204e-01
8.441654867775229276e-02
2.034506647415041114e-01
1.995199500680674976e-02
-5.395929255094650961e-03
-4.872130217170630995e-02
2.798213855853901588e-01
2.089872701329839877e-01
-8.964596156902202018e-02
-2.331599287045382773e-01
2.134261598008395378e-01
-1.647951270981097838e-01
1.235626622801999919e-01
8.719489776705584283e-02
-1.121342127426627200e-01
5.335116556593871157e-02
3.363852686735024911e-02
-2.223462154808522329e-01
1.957726797001285712e-01
-2.886640668890896322e-01
1.985967306592688053e-01
4.715279668063845908e-01
-1.152773198098334118e-01
1.891433035727611844e-01
4.913163448748710666e-02
-3.976230231119341069e-02
-1.774328516052012528e-01
1.458434003905847709e-01
-5.496494615772869186e-02
-1.765162822032225257e-02
3.075641257406805038e-02
-3.001328676329654329e-03
-1.433722596341733546e-01
8.229316883542937139e-03
1.332711789269843961e-01
2.209927001744342867e-01
9.651289452388492340e-02
-1.155877757503261938e-01
-1.901177530018355044e-01
-5.381481690866116857e-02
4.331929420289679783e-02
1.144608604758197978e-01
5.612388530864983321e-02
5.324178430286732183e-02
-4.402999405206625694e-02
-1.534949683505543727e-01
2.458028881462466786e-01
1.745750863119411578e-01
-6.722241526982795923e-02
1.965241554988488570e-01
-8.179755994340555392e-02
8.498949895940963173e-02
1.149304415119756367e-01
1.371639312702652436e-01
-1.848591311111883739e-01
-1.846844719310920258e-01
-7.867965426725112565e-02
-2.628104306542644597e-02
-1.047208925114791189e-01
-7.791799317844909367e-02
1.195778082987794533e-01
-8.583542776912959915e-02
-7.536510939985575225e-03
3.264004720545498478e-02
-1.242272810065867261e-01
-1.476970863373612830e-01
1.268248500838903281e-02
7.038217142792468906e-02
-1.703382387673385845e-01
1.186272495708844132e-01
2.136965835359525279e-01
1.162273571358662383e-01
1.180616392723898012e-01
3.043243217884416749e-02
1.223963832122705771e-02
-1.622743266639768353e-02
-2.618240320819132938e-01
8.212470426450620142e-02
-1.012366583722224128e-01
-2.291336020997302159e-01
4.889470654335602295e-02
1.901150464785321959e-01
-1.355881222094772187e-01
9.577077643116360672e-02
7.318175724232536469e-03
1.139609909031800705e-01
1.669174303896140896e-02
3.278043703522805913e-02
-1.024785604611763018e-01
-3.078705135872050191e-01
-3.424114869327385402e-02
-8.412950897079388146e-02
1.714109891113227424e-01
4.717888507968623357e-02
-8.522352488120883696e-02
-2.504788803513501860e-01
-1.812174105648203526e-01
1.136940334902056260e-01
8.550819568648602986e-02
3.388890930370130894e-01
4.575906400869782231e-02
1.715778157092098105e-02
-1.671896669736985253e-01
8.305077258771668275e-03
-2.478213808075122818e-03
-3.081772417484362481e-01
9.740941788553021674e-02
1.845355359354671973e-02
-4.754723725781602739e-01
9.166192214692397977e-02
-1.019896532097078756e-01
-2.007707362425882047e-01
2.087449392952852034e-01
4.185094492006624992e-03
1.684170421083439340e-01
-2.489091555692980462e-01
-1.070814975218775805e-01
6.839838939880839019e-01
-2.703630025251750613e-02
-4.390401465610410670e-02
-4.409228879970919328e-03
-1.335325322408233706e-01
4.900119181346436481e-02
9.514053479565826033e-02
5.403817471980747467e-01
-3.561564270155652134e-01
1.936673593936086568e-01
-7.114886560210394173e-02
2.595967476284535280e-01
-3.937175072018920564e-03
7.020173087749502494e-02
-5.154892149948714364e-03
7.974826007214720625e-02
-2.367345277276178828e-01
1.525546373895739910e-02
3.217569551212742796e-01
1.269359490926130485e-01
4.657604266592439424e-01
4.383374944422961383e-01
7.472596703162730225e-02
-7.767942595804103179e-02
-1.140524946830172442e-01
1.289696470305972953e-01
-1.454473545614494955e-03
2.058858519889667504e-01
4.019933530424473211e-01
-5.528677830253365261e-02
2.889401131588407168e-01
-6.130990326648519950e-01
-7.286906386248485912e-02
4.707767377032983508e-02
5.767966856047183899e-02
-6.312995874179498645e-02
1.191594884222887812e-01
-9.594882404876539303e-03
-1.152921046796206994e-01
2.066871708443208250e-03
-1.204533282540413280e-01
4.736146730480864098e-01
2.090910371108490595e-01
-2.886027604313309847e-01
-3.366480937330529888e-01
-4.056478025229104389e-01
-2.337331988320947573e-01
-6.068521094202200539e-01
2.175882709710812712e-01
1.353069871249255318e-01
3.800285966394573167e-01
4.567151442785425952e-01
3.120665979871817819e-01
-1.264817313437355817e-01
-2.184771792092312370e-01
6.362296137305542554e-02
7.356159780408266791e-02
1.582281323295509357e-01
5.678675017181236684e-03
1.271714075003519406e-01
8.451135188233079021e-02
-7.473657074211877138e-02
-3.914684983495994586e-02
9.376305649159050182e-02
-1.676705014698487428e-02
8.764851564746066470e-02
1.195356381862963946e-01
2.330472578529555749e-01
1.950172174193864072e-01
-1.499802590210450870e-01
3.322062615562684229e-01
2.084582224415118187e-02
1.396046343911201693e-01
8.666504458937321353e-02
8.021700871274703437e-02
-1.415376024603450800e-01
1.746150175990307529e-02
1.197069219131885881e-01
2.976256040511410933e-02
1.145558281398789263e-01
7.146782771791185263e-02
5.679672006805846357e-02
6.614673002820591063e-02
-1.844698667589397129e-02
-1.175353219489392968e-02
-8.552085015016415437e-02
8.976814776207604762e-02
2.131018442891546016e-01
9.782053851748452600e-02
2.305505751325863106e-01
8.396137094575210208e-03
6.446802940050587460e-02
8.360908614585370324e-02
-1.321057853009724170e-01
1.547914770940331817e-03
6.385515397633470536e-02
-2.578835572462156445e-01
-3.791112509897443528e-01
-5.944719445249309064e-01
-2.988184641980248801e-02
-2.760781501069559107e-01
8.187995181653603960e-02
-3.008875078709102313e-01
-1.111314495181381229e-01
2.074955745551243513e-01
2.133510831362758764e-01
-1.844588655974429003e-01
3.483866033923438410e-02
1.843793367507648717e-01
-1.871536207273573338e-01
4.186731054161834525e-02
1.170576109985347751e-01
-1.686573441193577744e-02
8.509497244596471444e-02
-1.910363558362808689e-01
1.189345572668776274e-01
-4.611249944996357875e-01
6.698594680414590719e-02
-5.501933762037319875e-02
7.808707605967569326e-03
-4.044557258771123709e-01
5.059629157816770278e-02
-1.296311190730444762e-01
-3.394473032339527241e-01
-3.297612118157675770e-02
-1.795687728227987889e-01
-2.082894802403719436e-01
7.804114126731502565e-02
-3.983096067145892177e-02
-4.051109549191186376e-01
6.653396696923621900e-02
-2.879728286473461352e-01
-3.291503498803960426e-01
-9.462810414201143494e-02
1.020744356749345161e-01
1.637718789542404740e-01
-4.339050637414449962e-01
-3.344776565326114393e-02
1.981103459545515422e-01
-1.907964272838788555e-01
-1.601041575549057988e-02
1.189030506573211521e-01
1.088125508580795320e-01
-7.269691736917466285e-03
-2.906842368861152492e-02
-1.086130987929526531e-01
9.240897706558397207e-02
-1.615648711405040169e-02
-1.480059967414391331e-01
-2.513312143892026604e-02
6.634762009276142132e-03
1.448636564137486815e-01
5.482621215367292078e-02
-2.365787706326603554e-02
3.415890672382711213e-02
-1.802139103531675002e-01
1.359642452664951151e-01
-1.428913161435838020e-01
-4.232995133730430709e-02
1.966429528634472748e-02
9.746400677917290561e-03
-1.627563604355190818e-01
-1.287573164669834069e-01
-5.432325738809031662e-02
-1.005962533630526401e-01
1.055110257564770976e-01
-4.124751862764401006e-02
1.325471959186305393e-01
6.631643319565751205e-02
1.090948080325287034e-01
1.748161783289840787e-01
-2.106705815848533281e-01
-7.527126328115568699e-02
1.061187603368738824e-01
-3.033823897270062075e-01
-2.313513598623919143e-01
-1.048377407271254974e-01
-3.372565395787528730e-02
-7.094106201345609652e-02
3.505690005473461324e-01
1.875565242384877040e-01
-5.973847466869405820e-02
2.523043443891603288e-01
5.209566802956788062e-02
-8.399616433870912835e-02
1.054145398407547590e-01
1.467500401182234189e-02
-2.556531645812707906e-02
6.212255495834566842e-03
1.567458693236776779e-01
1.244700574897857070e-01
4.631473137416394076e-02
7.801303380976115642e-02
2.849719711502839981e-01
-8.567835998249735685e-02
7.831747886848883233e-02
1.677217048192463089e-01
5.080957856797951172e-02
1.766118325032128844e-01
-9.397091890874550990e-02
5.906697587292417811e-02
2.753734415050800716e-02
-3.163748776648306078e-03
-2.782152571684228248e-01
2.720152105849711344e-01
1.544649959707110054e-01
3.953727358550224863e-02
4.388589870174444685e-02
3.172388579628490635e-02
6.507319701228773956e-02
8.655651246781778663e-02
1.943874236506226705e-01
2.017740209707607479e-01
1.797488543829017446e-02
-7.397955542221815173e-02
-1.248940752917635302e-02
1.456644652425037600e-01
1.361322220382146231e-01
8.038445205713377895e-02
9.366533127711240692e-02
3.965751909154689447e-01
8.922566516751501142e-02
-5.054834298384287827e-02
-1.605715047216245139e-01
1.186819627743481570e-01
-4.937312370270870165e-02
-2.107947197595963218e-01
4.793474604977154135e-03
-8.452825555065840435e-02
2.370434946311108515e-01
-1.317968664083358221e-01
3.765207070312736604e-01
5.397611469186413408e-02
1.062225044335893542e-01
-2.787614459085733382e-02
-8.644649486401867478e-02
3.061646850436416933e-01
-8.005438624494085054e-02
9.969928688701774899e-02
-1.148231959803036467e-01
-1.436891897001603968e-01
-8.169587443133872334e-03
6.148793982227624549e-02
-7.764937621864007045e-02
8.342074670929944258e-02
9.500785595694323515e-02
-1.904569504106552735e-01
-2.556114326320575447e-01
3.801531761765977180e-01
8.462900106836847292e-02
7.555690226440181512e-02
-1.259020719589073467e-01
2.173027334927795373e-01
-4.044232993745806165e-02
-1.099912881612933740e-01
-1.026186590976364277e-01
6.814319521854923789e-02
-4.469780539012483539e-02
-8.726258699041988809e-02
3.521398592536440636e-02
4.784070579554978997e-02
4.362988219594026718e-01
-1.081158508201123941e-01
-7.302820960281712452e-03
-3.593309293531778137e-02
-1.485716019424935530e-01
2.829564647093292182e-02
-1.542358649729620029e-02
-9.776027590868387185e-02
-9.840064862954472913e-02
-8.920202065029189664e-02
-3.465502322612994124e-03
-3.838289306559263675e-02
2.556765740465023473e-01
1.335624051529825385e-01
1.467995982687336776e-02
2.530970256780176175e-01
6.839685846858012397e-03
8.754434957519484362e-02
3.526717382183818805e-01
3.357553242748100852e-01
2.491248503111574697e-01
-6.460358057996856695e-03
-2.594369239568710128e-01
-1.018553468174063226e-02
1.161259258714611026e-01
-9.431432120160129773e-02
1.338387904458999411e-01
-2.094118794522148441e-02
-1.974644352072299491e-01
9.866788622487104865e-02
1.557444053404933304e-01
2.049418641200950741e-01
1.186852872734257547e-01
3.625515202109928503e-01
9.750202180826794685e-02
-1.063961940992794696e-02
-2.402107962112073059e-01
2.588607411560381877e-01
2.063431121441241523e-01
1.096482700055853715e-01
-3.945872306573783989e-02
1.849278415594839686e-01
2.871173341840235760e-02
5.368588337951870487e-02
-1.100296571231223763e-01
-4.279394124203016181e-02
-2.353268985438437544e-01
2.289152583300708699e-01
6.115716624459582862e-02
5.563735602163932641e-03
-2.047243054454146727e-01
-8.139392212968074580e-02
2.586343831179504713e-02
2.386878418330440343e-01
3.462265995683362907e-01
1.199506633637819897e-01
1.746766887805153989e-02
-1.358160459897354011e-01
8.465726229072895181e-02
7.899851015717182512e-02
8.997416726803639242e-03
-2.215718966263491851e-01
5.498877383959098475e-02
1.271727940346125685e-01
-3.467042262297911903e-01
5.712927208814380653e-02
-1.981819596494914515e-01
-2.305291093581854356e-01
8.242244382273006265e-02
-8.291547506289255465e-02
-2.577490586199088565e-02
-1.798906381915073988e-02
4.575603125220348982e-02
-8.716573048790267342e-02
-1.824249912031190857e-01
2.163837170855313352e-01
1.202752134869571332e-01
-1.497061502216156526e-01
-7.046474225265796087e-02
-3.389704461280650810e-02
4.067855722469120722e-02
1.122714311100927315e-01
2.909799090011629397e-01
-6.926231448730191254e-02
2.437482435351981946e-01
8.446212485951673510e-02
-1.713877878527261464e-02
4.245840618678496936e-01
2.899229116055709182e-02
-6.638448867407169447e-03
-1.278264465776451642e-01
5.671838697675437441e-02
1.187620499272893926e-01
4.797264741046378816e-02
-5.436367578209819751e-01
2.718487355262417804e-01
-7.135920158856162709e-01
9.932407935252735021e-02
-5.677915075323534261e-02
1.045346233746016207e-01
-4.023600410718103371e-01
3.421714786808605774e-02
2.734080540971400852e-01
2.662177867820551547e-01
5.524326154190641047e-02
-2.124127074850228059e-01
7.494265139974116974e-02
1.898589387250104732e-01
-1.862238365533664675e-01
2.311651798257257640e-01
4.642604079904078668e-02
-2.213923400320827184e-01
1.841240867425447403e-01
-2.070113841454600256e-02
-3.695031018134293244e-01
-7.168295956104232987e-03
-1.638371743145101700e-01
-2.383072593675042983e-01
2.535024796967589866e-01
-4.076085548453734497e-01
2.211335933522013963e-01
2.658475356540782042e-01
3.877170542223847688e-02
2.572429778754899837e-02
-2.657013676161338323e-01
2.062383259559839865e-02
1.500946833525530211e-01
-2.146016287323122274e-01
-3.041803387729082389e-02
1.228493358632120336e-01
-5.301913288827987403e-01
1.431386290002490402e-01
2.158187623496274909e-01
1.272336346923232109e-01
4.723609327645577061e-01
3.018810534981064553e-01
2.174428109331620618e-01
1.717280238395065273e-01
1.198022040780025513e-02
5.319510006302220068e-02
-5.299854041681446859e-02
-1.243313395390578252e-01
1.876441449653181714e-01
1.798295865927477394e-02
-2.131449955449338796e-01
1.325217862997169482e-01
-8.391868789710300869e-02
-1.288497440636233171e-01
9.734230225669115305e-03
1.628263927597364477e-02
-2.195913318061320507e-01
-2.635575302231055184e-02
-2.353217588602699029e-01
-4.041394883947267702e-02
1.570861183990556742e-01
-1.615076858422998529e-01
2.250446231670994446e-01
2.799187375115453139e-02
-4.035054929963234616e-02
1.919951599024007083e-01
-7.604462655554197759e-02
6.442236831778067052e-02
2.580094791599144566e-01
-1.057703005041668864e-01
-2.880418577023904914e-01
2.524264033964347953e-01
-1.160889687067270803e-01
-2.939379233654971224e-01
6.581594668313646423e-02
1.130753576020674112e-01
7.267117685211507694e-02
4.564000183698244811e-02
9.891052516073334244e-02
-6.040880174288915799e-02
2.592875384527035809e-01
1.795846769772843632e-01
-2.435465759735127179e-03
-9.612345567601707219e-02
-7.657975077336080794e-02
8.047483003893977915e-02
-1.899395857532251430e-01
9.455161024632895150e-02
2.332571752092127138e-01
1.289721960952621262e-03
1.588783746713564038e-01
1.853575832826654668e-01
-2.539860653641863239e-02
-5.316230966347877673e-02
5.634724754701741362e-02
-1.196628596508668083e-02
-1.253515148682018965e-01
-4.552105590337676699e-02
1.537368854413632968e-01
-2.360806048974359306e-01
-1.640859765811366611e-01
1.157676347336294292e-02
2.055279949317116803e-03
-2.507288254764616919e-01
-1.882827945848045970e-01
-1.829799206459971003e-02
3.142379022883826645e-01
-1.024894589294127467e-01
-1.529343309331384904e-01
-5.051991464797126602e-03
-1.462770043496865180e-01
-2.446399164075599604e-03
5.090350405737149170e-02
8.009629398438526671e-02
-4.761102322725142832e-02
-9.204534125446341142e-03
-8.748322244461133324e-02
-2.695048876161824092e-01
2.159488867405164048e-01
1.732843195882001475e-01
5.482517160229424813e-02
2.233698491269036496e-02
-3.701063719850539863e-02
6.464092492559242453e-02
-1.236237044516415168e-01
-1.616758867868954563e-01
8.859347998406896796e-02
1.151463556127763910e-01
2.089193144276951519e-01
-8.600152073083362769e-02
-9.857873462160814115e-02
1.359903663030839760e-01
-7.664188624386319981e-02
1.338986762899831429e-01
-6.076730745405528600e-02
-2.312891240092477541e-01
-1.646528422353326845e-02
1.119402192120853429e-01
-1.153157756871318607e-01
-1.503601209420195317e-01
-8.311747308709817317e-02
-1.546982285015498504e-01
2.111017298340853166e-01
-1.663496466496171833e-01
1.379208036644180291e-01
2.590769061200161594e-01
9.786349326565460527e-02
-8.475959229593828248e-02
8.841486578490187487e-02
4.961594287203485026e-02
-1.623442610448219414e-01
-3.913026971877141269e-02
-1.721828657387309836e-01
-7.787631709964437654e-02
7.712473422922895561e-03
3.203998129367933989e-02
-1.814566666253600996e-02
-9.370767497543029678e-02
1.582657819126680188e-01
-1.224689286560415140e-02
1.294515439250755462e-01
-1.840431785095543449e-02
1.721131589207558488e-01
-1.609825809618411208e-01
3.139302592526568847e-02
-2.928597861630010540e-02
1.186928926247889093e-01
3.699268996118265911e-03
1.518717575500597994e-01
-1.274732056960355686e-01
2.582589326203716951e-01
-5.832904270150612164e-02
7.759279703323820887e-02
-2.523467844945442295e-01
-6.704914966372205187e-02
1.924125212705552757e-01
5.548772847444283923e-02
1.135973750663754750e-01
3.341881835766780801e-02
5.945455377242610945e-02
1.587584879752511682e-02
-2.128556006078064500e-01
4.295929549497781025e-02
-2.050596861435416418e-02
1.429174622655491056e-01
6.832500471728173916e-03
1.591512455162435169e-01
2.487709087015042564e-01
9.240025231252395332e-02
-6.475097479205788042e-02
-2.184668591212201028e-01
5.593513304707393996e-02
2.074690328505031378e-01
-3.538431762656837204e-02
3.061141510921043182e-02
-1.135144412160042499e-01
6.179031905747332104e-02
1.727050494543487524e-01
-1.311973929496858537e-01
1.846575483404196416e-01
5.986115414273271429e-02
-1.365173775734750128e-01
-1.211804541384413764e-01
-1.653982872943796367e-01
9.197034724563334096e-02
1.210897161343667122e-01
7.354917800769318614e-02
1.509174501625973885e-01
1.716190179066930666e-01
2.479791613231972433e-02
2.832568376904907592e-01
1.589483636824408908e-01
-9.501817267063018824e-02
1.097329740729185293e-01
4.435589309538544994e-02
-1.388306937165140718e-02
-7.146542123465060570e-02
-1.287998609999281563e-01
-8.667267532030942939e-03
5.566979164481185294e-02
5.667389108054735058e-02
-1.047984915440023507e-01
-4.983779744526740246e-02
-1.792288876868718432e-03
-1.902935909281575771e-02
1.272348079845308025e-02
-3.849201596426627542e-02
7.732791684676472432e-02
-1.792111195200699614e-01
-2.834692631358400328e-01
1.941498272004575087e-01
1.432770487796651282e-01
-1.345146976001577663e-02
2.412858759131993602e-01
4.924977063693069396e-02
-1.002695310067133194e-01
-1.328519181550865680e-01
2.710346051831784564e-01
-2.806014828175242481e-04
5.539218999229543125e-03
6.031890131002223820e-02
7.806167077386147457e-02
-2.579384615413083531e-02
-4.908856994942685792e-01
7.823295882724547179e-02
-1.359173898667334623e-01
1.557775082523931917e-02
-2.191951357369439357e-01
-6.579969359209239532e-02
-1.380765736513020758e-01
4.049108082348628623e-01
-4.813314046878546804e-01
2.935787832774922612e-01
2.437865546655219526e-02
1.135964220778076100e-01
2.082629690273238021e-01
7.086461350453243657e-02
-9.033729205379545379e-02
2.615044131387591134e-02
-2.836657566311520662e-01
-8.090612037602741557e-02
2.746184346437239299e-01
-2.143965392435609740e-01
-1.060387408597075892e-01
-2.519006598058082594e-02
-2.906518188527116853e-01
-3.461037145747176275e-02
-7.710126548038552519e-02
-1.266339966328514088e-02
-5.193708907192039897e-02
1.464574413618109916e-01
-2.896305418355368810e-01
1.888947254609119608e-01
1.637553733345069873e-01
-6.345920268504187112e-01
1.849928123885011544e-01
-5.976365321287316901e-01
-2.860519022084559992e-01
-2.770701216429291222e-02
-4.211071660571005237e-01
1.115058820577650572e-01
-6.194730227220953712e-03
-1.341126955509746865e-01
4.340286568106293402e-02
1.442406089183505095e-02
-2.760997758548057457e-02
4.297775849416636262e-01
-5.246645556541965072e-02
-1.777005899344604178e-01
-3.732169427781623083e-01
-3.409289318449189587e-01
7.725377093986990351e-02
1.123275851342581261e-01
-1.206289972888549278e-01
1.130445899600012877e-01
1.207320224167411638e-02
5.065466515119420449e-03
-1.603603879281745997e-02
-3.549020083193793473e-02
-1.810770738490850296e-01
-5.401435059027324265e-02
7.737612286536683925e-02
-4.239480785953770314e-01
9.368246641507364803e-02
1.824471482709066061e-01
6.319097377852461728e-02
-1.978863355325737872e-01
-1.583884016452898336e-01
-7.572866960778554257e-02
3.198963921112139147e-02
-1.419467394147627681e-02
-9.494780834394991875e-02
2.043702234456135636e-01
-1.233431936351897101e-01
-1.240202978882826296e-01
6.421038692108946289e-02
-4.211656239756711374e-04
2.095710880776810794e-02
1.199898078483586233e-01
3.013717782689893238e-02
-7.359637304364603783e-02
-8.991549745837652818e-02
-2.100132879280385556e-01
-1.789668519305589733e-01
-1.326307001736116153e-01
-1.560640619524588102e-01
-1.286858374457867937e-01
8.462773038459106556e-02
2.692011465998370850e-02
-1.364850808172420396e-02
-2.693539086944071181e-01
-2.613461805561948514e-01
4.756692219036388197e-02
1.635245668890462079e-01
1.740138120373098674e-01
-1.264122411056311894e-02
-2.524194015116185130e-01
-2.292075194812697239e-02
2.217141107208681072e-01
3.116591724753905307e-02
-4.973793812693450000e-02
1.123588725514482745e-01
1.630598817145894608e-01
4.593541260704632756e-01
-5.947370169019598057e-02
4.458540835870545421e-02
1.931607476236291698e-01
-2.849185855799855546e-02
2.192100129834007316e-01
-5.208444650255310282e-02
-1.013823135384580437e-01
2.375375858335720680e-01
-1.814460240567424831e-01
-1.923104684932099850e-01
1.878747586857452134e-01
-2.166477596396746558e-02
-4.552327719257261429e-01
9.703752692461700691e-02
-6.632014171794442525e-02
7.382038643726807070e-02
9.473964320291999863e-02
-5.292218684674658835e-01
1.650374258849403031e-01
3.880470290302747149e-01
1.822034367287567180e-01
2.396120866476804112e-01
2.610376208021812916e-01
-1.579198983534503553e-02
1.570971626990694953e-02
-2.034534758518582453e-01
-1.298838277356657855e-01
-9.601316130787132530e-02
-1.056093418977401138e-01
-2.059155594413047963e-01
5.219869321859834516e-02
-3.304834396702772126e-01
-1.175780138186799106e-01
2.106188639889336467e-01
1.900814486776018220e-01
2.178492968710618316e-01
-2.111972440809302964e-01
-2.007287903267770401e-01
1.245819827750487274e-01
-2.568991026956797194e-02
-2.637104204488435744e-01
-1.232600197074137094e-01
-2.843681385140368612e-01
3.344588706621584029e-01
-2.601462379584126294e-01
-1.999990112472092851e-01
2.702508169400369767e-02
-5.844667735189221919e-02
-5.267876555633341784e-01
2.816625271955426613e-02
1.652495022906447508e-01
-1.868038122275248944e-02
-1.507188164240297612e-01
6.113079019092675093e-02
-1.901124510504296206e-01
-2.780855784630706373e-02
-1.511489401651645859e-01
5.776744361328946253e-02
-3.301622104378209577e-01
2.727361925222261396e-01
-3.681369204623852892e-02
4.152853381382357739e-02
-6.156907022561425302e-01
9.553389331937420931e-03
1.913651596778316311e-01
1.277221262151466419e-01
1.021573762893223380e-01
-2.207536590201312696e-02
4.433780328338391558e-02
-7.438981885325222920e-02
1.046681436518756975e-01
7.101007692911665004e-02
-1.162168102371367862e-02
-7.262850714423320364e-02
1.263394119174602037e-01
-1.262387423167560252e-01
-4.411155462927848769e-01
7.739177311495913647e-02
1.086040439939252450e-01
-3.907152554581304060e-01
-7.259419741743826544e-03
-1.751226770217957085e-01
-1.243434953276251337e-01
2.472789167557868165e-02
1.412229691558457567e-01
-4.075252266356553521e-02
-1.333608087736525838e-01
-1.308346252864985571e-01
2.929112389299064478e-01
-1.967866852365433850e-01
1.137847494888804406e-01
-5.815792504085696979e-02
-1.426921477712425612e-01
1.250552429384801933e-01
2.851164599670837352e-01
5.396410175704087486e-02
2.145539853360136362e-01
2.261459584373677889e-01
6.358350782859634176e-01
2.733817228341334782e-01
-1.110285075844192754e-01
-6.525008348465238806e-02
-4.244586740618620097e-02
2.567378099676621145e-02
-1.356086626448097139e-02
1.505708394667994721e-01
-7.642202422719736321e-02
1.499257299149619471e-01
-1.547871461736546050e-01
2.163098550027524325e-01
2.773262841511169308e-01
-1.534607997864307904e-01
8.328723293154649543e-02
-5.249973291572850032e-02
-5.754444805227616755e-02
2.279995816493984306e-01
-8.454834395119174839e-02
-1.026492413585439190e-01
-8.499634868750768207e-03
-1.729772907070245003e-01
1.190492390422271882e-02
4.361092012981350741e-01
1.760689279773110516e-01
-2.292612117725502108e-01
-3.767909981672835223e-02
1.240497792734684412e-01
-8.927835810102471500e-04
-1.205599745669271861e-01
1.674278128207951771e-02
-1.560980492187845348e-01
7.536497739512940108e-02
3.696535414744355763e-01
2.531760801291655164e-02
-8.319606779658832510e-03
9.565177549852998951e-02
1.065407233605724681e-02
2.944530876326289376e-02
1.417403988159295913e-01
-8.763457471538575738e-02
-9.343116106007831601e-02
7.990060151904908314e-02
1.322807055915957986e-01
3.185367998699970560e-01
1.301884751424595699e-01
-4.663033468202097687e-02
8.782876643237411129e-02
2.347726143489358985e-01
2.216879383230752412e-02
4.118902136745333786e-02
8.291698407298299378e-02
-1.244328532156236261e-01
-2.722754794118342758e-01
3.434356641735996502e-02
1.232622694406404207e-01
9.828812677146282761e-02
1.228466723077706602e-01
-2.986625997182279849e-02
2.105294141048870415e-01
-6.499198193738114915e-02
3.982717687492312413e-03
-1.072914291630785166e-01
3.874740468750225916e-03
-1.164769814908179490e-01
2.851935153510625764e-01
9.097470000214841895e-03
2.010469633973380466e-01
2.665103121996413929e-02
1.597795992085498384e-01
1.196163522976753657e-01
2.002824924185786226e-01
2.891019176158083348e-01
-1.000711442641003153e-02
-2.676452004772560955e-01
-2.470828588228038691e-01
-1.428558337303530712e-01
-1.191241027477567133e-01
-5.736720691950573936e-03
3.470706590073099895e-02
-3.685064691720797980e-01
-2.359526234942659062e-01
3.174195026309210577e-01
-2.177962210950710187e-01
7.503103183398641962e-02
1.062511606375367151e-01
-2.759010703847804558e-01
2.048868620253251338e-01
-4.599312294360200642e-02
2.254553752481535528e-02
-2.788698452407279219e-02
-2.264292092278928359e-01
-4.774638033321795122e-02
-1.818237824991785212e-01
-1.003932426555736168e-01
3.119542426283564707e-01
9.286489247993087726e-02
-9.506199823713884500e-02
2.361871807039724325e-01
1.178832430352977634e-01
3.473924651218682214e-02
1.313173965890610750e+00
1.406060632325854542e-01
1.086713724894989297e-01
-1.479559406770406815e-01
6.171900875709681600e-01
-2.455725326601360947e-01
-1.619540490227398266e-01
2.803310827665038141e-01
3.076173740570214421e-01
4.255443387678684020e-02
-1.313895410405777897e-01
1.481613614357051023e-01
6.470943205703026668e-02
5.309051834201141684e-01
-4.838777733606689641e-02
1.978952748221003005e-02
-2.781423738698662884e-01
6.949811130364350574e-03
5.451173675863793533e-02
1.486021634782222489e-01
-5.808803646557152145e-02
1.121334454793107838e-01
1.195141402510367309e-02
1.997374114658724553e-01
-5.923171417516482490e-02
3.360648537911890554e-01
-3.199359501772366943e-02
6.110212802027547435e-02
3.453443141069091338e-01
-5.941233015253768318e-02
2.567435796201052445e-01
1.022791719213704820e+00
2.235307489728925456e-01
9.801731278664265190e-01
-1.553888607216418749e-01
-6.608527195201553683e-02
1.247201033798281955e-01
-1.808325850756702449e-02
5.421469086647806579e-01
3.447020858843949376e-02
-2.074436010589368884e-01
-2.035139508165016362e-02
-2.228189336456343206e-02
1.110568889486431288e-01
-3.964032462993070938e-02
7.119779559891670218e-02
6.717641220241212796e-01
3.706258805212106489e-01
-2.109465338632198206e-01
5.269058443498938343e-02
2.364755830790543079e-01
1.121598132972757011e-01
4.659087842123763035e-01
3.415338824764891923e-01
8.659684581568127815e-03
9.914573721092383163e-02
1.659856026717577634e-02
-2.928470859077563770e-01
-1.707483925884614728e-02
4.756814461619141704e-02
1.250298107126271985e-01
2.463277154225519960e-01
9.898585596724142344e-02
8.161827917534197029e-04
4.741227668193613576e-02
5.232149704523485906e-02
3.453328422511863782e-01
1.147027954537236044e-03
-7.489182969908868281e-02
-1.179991921938745442e-01
-3.585622390430931450e-02
7.440845936922801940e-02
2.966660597684537271e-01
1.044441831022838441e-01
-2.916559382577523230e-01
9.540111786423939588e-02
-4.146181288070829862e-02
1.703578813871444494e-03
1.184458083073795936e-01
-1.610178402244934193e-01
-1.464990273289827893e-01
8.969860709115048958e-02
4.186408404722463672e-01
-1.323155961582638263e-01
-3.021999248243703237e-02
1.450296123810300708e-01
1.550640382676145845e-01
1.282874343995002095e-02
1.114849727924527717e-01
2.018638691437749655e-01
-8.048673297126242299e-02
-2.717409018111056063e-01
1.098406847178961393e-01
1.469138374544478320e-01
2.794800387293013277e-01
-2.030985661808278886e-01
1.067944097312290147e-01
7.812093702424442732e-02
-1.149717447698102718e-01
-7.207687795351473692e-02
2.111405160756101018e-02
-3.640395204343591096e-01
-9.949878097298028856e-02
-2.234834749117932950e-01
-5.374788569661047982e-02
-1.957041115708830215e-01
-1.217756278932962191e-02
-3.053910219207196519e-01
-2.531039016125370966e-01
-2.926040080821077360e-01
-2.791148027354857231e-01
2.524360810991226334e-01
-1.992255107134826564e-01
-8.558093772859262649e-02
-1.087565885377273639e-01
-1.923098337740986041e-01
1.988769505667399851e-01
-1.717124896308863391e-01
1.988623556780534096e-01
5.828138129010191487e-02
2.271151988339226713e-01
-1.254485682176631478e-01
-2.207573327491069437e-01
-4.048115850340576471e-02
-7.761659016726022223e-03
-1.781746349011807369e-03
3.787734768941054819e-02
2.381471401947347910e-01
-2.854200196697802561e-01
-7.414450233100031151e-02
-9.879662155486802766e-02
-3.813149604697478601e-02
-1.934273961512389117e-01
1.535644460272056200e-01
6.187960917309012071e-02
-7.373679141309456495e-03
-3.495199821396837714e-01
2.248336016237972024e-01
-1.265150305527096564e-01
-1.839975231639238429e-01
-2.179646891214102183e-02
9.910795595492008503e-02
-1.219847096195694341e-01
-8.347754613699222281e-02
4.643163709986773864e-03
-1.665840334194663430e-01
-1.497699096553109510e-01
1.227781916291124098e-01
-1.228399423140587032e-01
-6.786197716578250272e-02
-2.824764339251126799e-01
4.243178128834459995e-02
-2.570361649362241652e-01
4.153610219679157445e-02
-1.759453224265276894e-01
6.108706338643020428e-02
-2.071759383050344669e-02
4.889014196224838321e-02
-1.585011192139135772e-01
3.608923008442808111e-01
2.453327180093738472e-02
-9.009315035353260281e-02
-9.076821675704793702e-02
-2.288173202067407541e-01
-1.860161239136286226e-01
-2.871437385565965283e-01
-3.499816452094541286e-01
-6.458608409684554741e-02
-3.800124358710992717e-02
-2.379249035084476660e-01
-4.092602361015961199e-01
-1.723955193742016667e-01
2.515026033159842300e-01
-3.688626579346424572e-01
3.480596249400593201e-01
-3.132835496551543142e-01
2.316918998407775931e-01
-2.377503663351115352e-03
-1.287777484862138166e-01
9.878339832951558985e-02
1.440776087756101553e-01
-7.204863266283475509e-01
-5.588830689460173168e-02
-2.090615329660140131e-01
1.959598370069797757e-01
-3.001509026616008269e-01
1.744273827064102556e-01
-1.246607992119631858e-01
-9.371010374658193809e-02
-2.315340082157669732e-01
4.831153380933712882e-02
-3.263354191227121198e-02
3.149477089330958712e-01
-2.392497215690806145e-01
-6.524557815583603704e-02
4.988096366245595853e-02
-3.283966805052778715e-01
1.593822890275696791e-01
-5.080516132854362259e-03
3.705669221049271433e-01
-2.344992227680365859e-01
-1.963128117381196525e-01
3.696826731397314086e-03
-3.255969814170456833e-01
-1.241444576973403380e-01
6.971170565633848515e-01
3.613226695843835268e-01
-1.016367833713261865e-01
1.975846048481862405e-01
3.865870368704742988e-01
-1.883724566747042514e-02
-1.280645664588710431e-01
1.037443630420151530e+00
-1.214961891443898934e-01
6.288694367532766949e-02
-2.288862473849337942e-01
5.547116697489229073e-03
9.254671668693427444e-02
1.660178910804030461e-01
-1.041911710705385047e-01
1.504136029979393852e-03
7.320378695671160563e-02
6.810582784940118206e-02
-9.862312817824026023e-02
-3.618888865577430947e-01
1.814252328445863927e-01
-2.703291278565361083e-02
-1.222226278530553073e-01
1.904804452741684639e-02
-2.910731228660056180e-01
-1.033159511125748137e-01
-2.386995544215535781e-01
2.635003814121530605e-02
-4.662700041156998126e-02
-2.067246208736800983e-01
2.110441698850331130e-02
-1.253244385961722052e-01
-4.263530707062649361e-01
-1.165689298012155817e-01
6.675406293897290233e-02
-2.432668973167754489e-01
-4.234720974636022039e-02
-1.036774380105556087e-01
1.155084121358973953e-01
3.040987103745019238e-01
1.587846626382143078e-01
4.369479475138343672e-02
-1.860650033357230948e-01
4.238967679713617071e-02
-6.831328514170810495e-02
-1.233116195514857710e-01
-5.314418482106150060e-02
2.272864704815119874e-01
-1.741099937768576522e-01
7.187822444460649496e-02
8.413514808127535438e-02
-9.870930226047694434e-02
-7.426947274120786202e-02
7.625790816592833976e-02
8.783900431938666820e-02
7.863007135723099061e-02
-3.203189549587065477e-01
4.393182911983747191e-02
-9.166112116946793786e-02
1.081565630330735966e-01
-1.894163240855601532e-02
-8.594671745993369416e-02
-1.646291380727955833e-01
-2.021372495993899523e-02
1.131333634049913606e-01
-2.481787533525242895e-01
-1.412554092696264585e-01
-8.135593026945917711e-03
1.446310821594186669e-01
-7.164363905186003911e-02
2.186480347993941808e-01
-6.963170361171014400e-02
-2.380018156726408651e-01
-7.075942234658426366e-02
4.356060421716675957e-02
-7.912385479943674638e-02
1.040620249573032535e-01
1.909590363200871013e-02
3.491004671123553726e-01
-1.038132583310927004e-01
-6.421976627273630334e-02
-1.596254999410232911e-01
-3.898128192216896576e-02
3.066464210709154425e-01
-2.026486111553217062e-01
5.687936844256819002e-02
-3.634125144077569036e-01
1.694546435442550736e-01
-1.478261289772720977e-01
1.520595962883817057e-02
-9.121730683216128233e-02
-1.479985374776337792e-01
-1.041364857105351177e-01
-1.279335543832305078e-01
-2.119290722538212657e-01
-1.080430548441122379e-01
-1.623177166481773806e-02
-5.276142445657672209e-02
-1.032174264387555468e-01
-1.559765082422422643e-02
-6.142517490203627112e-02
4.254679295841741760e-01
2.401002209587025163e-02
7.291165038056293679e-02
-2.971505381164802340e-01
4.162316719565315598e-02
-1.556471666103757534e-01
6.414355201847926624e-02
-2.551959581305865421e-01
2.227524428240496360e-02
-1.721099096084468538e-01
-9.520136670097023579e-02
2.978828643482955840e-01
2.525899139326443499e-01
-1.529309383444870107e-01
-1.102862567252259618e-01
1.538074789991063229e-01
-2.050487609034800096e-01
-2.011835731018506712e-01
-3.951990774628508923e-02
1.017824282178970280e-01
1.870725512786606537e-01
1.329734466186346638e-03
1.640046599921012593e-01
-3.414958386778439992e-01
-1.298881341243947884e-01
-3.383197899854041568e-02
2.991086514573316202e-01
3.085187773327756067e-01
-8.975577169072528061e-02
1.664530577181017879e-01
5.146417661029850654e-02
5.498751114791883277e-01
1.794258151233079635e-01
4.734784161516857742e-02
-4.480599988474846529e-01
2.113841939693338612e-01
7.261134643872159400e-02
-4.437180808307682467e-01
-3.465522338283719139e-02
-4.143330240862514585e-03
-2.030257382874788852e-01
-1.639647308100743994e-01
-1.835575857030414537e-01
1.039623954348229823e-01
-1.345067653881888703e-01
-1.323913613137063516e-01
2.660537388912982970e-01
1.921257515887178080e-01
-3.684506885332349685e-02
2.355475377110720359e-02
5.098974858223010581e-02
-2.148636780571175353e-01
-1.269370143027900022e-01
-6.120125122710676213e-02
-2.302243283877881963e-01
-3.507778122277199068e-02
1.765164456364314571e-01
-1.593599317947353433e-01
2.804345137161390333e-01
-5.116577465551696430e-02
2.690660609659189517e-01
1.316929296480308376e-02
-2.333758294268897526e-01
2.897435975875283787e-01
3.589272876709732711e-03
-1.347344232339065806e-01
6.337785190280668945e-02
1.973727214394573881e-01
7.406957196894449480e-02
-1.023431469335730863e-02
-1.287901338303275300e-02
-2.995416864687963643e-01
2.789502655051349089e-01
7.903524804257436309e-02
-8.289698604228473711e-02
-9.597264713395882441e-02
-5.919439686363447972e-02
2.405967768487011008e-02
7.375548575847941379e-02
3.009790938211995975e-02
-2.394615662610001250e-01
-1.597955178961272538e-01
-4.046194034785530191e-02
-4.115555842297164424e-01
-6.777736131840651768e-02
1.452360746903088307e-01
-3.186071024321525391e-02
-3.068605014359019334e-01
-4.620217829253823322e-02
-6.672194522138596984e-02
-1.757033852965554643e-01
6.928080309322669217e-02
3.811605000948660726e-01
-2.987650286446167161e-02
1.201101682564868628e-01
8.454175079653492020e-02
-1.862600238030775734e-01
-2.274223687233470348e-02
-5.165388005994457632e-02
2.692945444718461978e-01
-2.967614062639001120e-03
4.945426864812240558e-02
-1.467864617210084544e-01
-9.036414902896798551e-03
-4.228882167248238649e-02
-1.181724406818807499e-01
1.234794527612789183e-01
1.626152040245882058e-01
1.233169334570156372e-01
-1.819569994216846745e-02
-1.185626887836245119e-01
3.003696691061151780e-01
-1.287005964520415435e-01
6.916383749234909784e-02
-8.097537706023789916e-02
-1.059849768622669469e-01
-1.197223400656036718e-01
-1.902322120195247823e-01
5.256498439942550172e-02
-6.092153510238590419e-02
4.754361532054352663e-02
-6.530472897529401854e-02
1.420303210354051382e-01
-1.320503934034259197e-01
5.944719693263029320e-02
-3.249862969895488118e-02
-1.901501170191498835e-01
4.925772423382849402e-02
1.613950103920290813e-01
-2.020761163594797169e-02
6.052428958559460254e-02
1.043859160342000547e-01
1.767175510613218327e-03
-1.127076352988933827e-01
-8.167937029670822857e-02
-8.892233508399159658e-02
5.030261596528440293e-02
-1.433126972491486073e-01
3.059180172394789787e-01
-5.702692623908153235e-01
-4.183758837292426147e-01
7.401977985026801654e-02
5.449486718582661170e-03
4.138235074164487576e-03
-8.243124198533695324e-02
-1.193082026713953997e-01
-2.583154503785456413e-01
-4.650942256367071592e-02
1.101154952614668697e-01
5.724635357389026846e-02
2.270300146129114287e-03
-1.758900121559544560e-01
4.401720991717152087e-02
1.192452898683045714e-01
1.572226207525234121e-01
7.844257689668152067e-02
7.164073575078305778e-02
7.403924722078322751e-02
1.982166977349609782e-01
-3.377262788160926427e-02
1.198183471773977826e-01
1.814811443341756148e-01
-6.460473286247861435e-02
-8.986410526304047797e-02
-2.172699676035493022e-01
1.185879680846120415e-01
-3.166922871764277225e-02
-2.268716075846118410e-02
-4.323927463425347034e-02
-3.353276880382577985e-01
1.845841023639514522e-01
-5.634725218058467267e-03
2.988410415713907420e-02
2.189662788958545575e-02
1.220595183460333605e-01
-1.723642206049172121e-01
4.868071420361650969e-01
-2.978194522280535814e-02
2.209823392852698354e-01
-3.110501199489161817e-01
7.069607878630490561e-02
1.322147412024564372e-01
-1.424835678494907054e-01
5.611239761580519847e-01
-3.289867044305953836e-02
-1.066955558962995043e-01
-1.098124072761296477e-01
-3.298550905816474699e-02
1.566198624503556402e-01
-2.464850603625961395e-02
1.019018065375347226e-01
-1.298902892427873934e-01
7.920178586083343256e-03
1.618301658231253715e-01
-2.570878951369120601e-03
-1.763918777509211333e-01
2.373869992766070025e-02
2.803812297146748844e-01
2.703948506153094899e-01
-8.482941644413140303e-02
-2.233525611927187349e-01
8.347706350859829261e-02
2.824576365038233283e-01
-3.013411233205359752e-01
-8.979279066848962210e-02
1.625991621824707245e-01
-5.882343312857658824e-02
-3.032224406767724534e-01
2.186661034817505012e-01
1.284502065753304056e-01
2.465625602971707742e-02
-4.458513186729012173e-02
5.793948443222902978e-02
1.412461828441669565e-01
2.288179648506387040e-02
1.335732283793231168e-01
1.530301765012263560e-01
9.934211233511301697e-02
-1.530320162610986912e-01
6.107591503709655645e-02
7.458054280455123303e-05
1.038007535797133285e-01
3.408996058109575733e-02
-1.011220554281490186e-01
-7.410692341566246788e-02
-1.003325163933060753e-02
4.159613125267243028e-01
-9.035763827733460374e-03
6.981453136557591588e-02
1.293911864636873577e-01
3.027013523582995358e-01
-9.863572265777727222e-02
-4.391084338166081208e-02
6.688254755286869579e-02
5.111873390345275658e-02
2.183630778923069393e-01
-1.905624454698167380e-01
-2.199016748560982670e-01
-8.693818692134966386e-02
-2.346338918523318065e-02
-8.937790197184199148e-02
2.816858517158685182e-01
-2.281094856116348268e-01
-7.187014199527654024e-02
-1.014441713120475402e-01
-9.639060097682886075e-02
-2.558137920434984044e-02
1.024895208062374247e-01
2.159799190311680328e-01
-2.162510270816827285e-01
-1.056984281623819105e-01
-7.624260462324274068e-02
1.914475094147040646e-01
-4.386027547991010883e-02
1.228099334146685456e-01
-9.267685118317546544e-02
8.926970726288656344e-02
-1.160102609461350631e-01
3.441430720026247836e-01
-2.641881852072340831e-01
-8.430001036930796776e-02
-8.341026482572254375e-03
1.308180388663786609e-01
4.033172469777056984e-02
-2.040639182706505128e-01
4.968986493010357081e-02
-3.502247524320028504e-01
3.526652783103412236e-01
-1.644487133603125817e-01
-2.079063949937614286e-01
9.896652043714150582e-02
-3.047454243506528271e-01
1.175706324015124427e-01
7.174959371682586295e-02
6.470798254692176898e-02
7.150666528418624102e-02
-3.628661099981662086e-01
2.568019498112014687e-01
-4.487117107518326375e-03
2.058022529255756350e-01
1.444231678140334152e-01
2.001604261334471446e-01
1.826688581343190176e-01
-1.256723530465458927e-01
-1.677328429518877007e-01
1.326074442911986950e-01
6.323223967714818039e-02
-8.170671444058777433e-02
1.615333959262139907e-01
-1.390497335016409042e-01
4.244234090116953961e-01
8.485290040370888076e-02
1.328321527972485538e-01
2.531761902153726873e-01
-1.889059003562711947e-01
1.104489995600975993e-01
7.021171786378643809e-02
1.381523304930377949e-01
-2.681880586985233017e-01
-5.685969694722406431e-02
-1.044093799204601491e-01
-1.237555018385491507e-01
-2.597188107187199946e-01
-1.656233551973208262e-01
1.214779243334309332e-02
3.788923603348826052e-01
5.869609093290680674e-02
-1.785745494680014145e-01
-9.105630874554716814e-02
-4.887215887714610463e-02
1.304998093433278050e-01
1.063779407271424060e-01
3.269088587729703649e-02
-7.359377825753563897e-03
-8.779367746768518277e-02
7.269200700984612684e-02
1.152701126504737938e-01
-2.023907347136520707e-01
8.172186147342526408e-02
-2.388462290180003167e-01
2.170333462544830061e-01
1.480957504435229666e-01
2.384509163348648986e-01
3.128547588801853796e-01
-1.175779163479231532e-01
-7.945915132429699768e-02
3.164358667784576695e-02
-3.350913433666817542e-02
5.963212779561167382e-02
4.706061901495399435e-02
3.745189987200243237e-02
1.412729249694696281e-03
-1.194222164585442836e-01
-3.177141642466276839e-01
-9.603441387012294495e-02
6.250882810275831813e-02
-1.482881627982137462e-01
-2.343763171742247950e-02
-1.919510264621391016e-01
2.912938215949021914e-01
5.671430097546502347e-02
1.278519159266854610e-01
1.241229648678039699e-01
-1.498748315898338068e-01
-1.060844520001085478e-01
-1.333310452477424191e-01
2.234461592214768422e-01
-4.869641615462598494e-02
2.121977818935115723e-01
-1.862067921015658767e-01
5.281731816362668364e-02
-1.997859516385827039e-01
3.354198138248659644e-02
-1.572530506169970976e-01
1.320991455337947873e-01
5.746428639928168741e-02
-6.878191616510097306e-02
-2.127859566223896104e-01
-1.566968070442858185e-01
-1.241003804105818009e-01
2.297357917273567252e-01
2.493821478068437500e-02
3.326907534907865699e-02
1.803223843390885928e-02
2.973468019935777279e-02
-4.718750645538025146e-02
2.048912357982095311e-01
1.669757556913864238e-01
-6.907389515644504416e-03
7.367649483489602073e-03
-1.791344106682511150e-01
-7.764997185273947444e-02
1.236832766347892021e-01
-1.127064187632130510e-01
-4.634326021414295060e-02
-1.873200634671360609e-01
2.535809302613840632e-01
-2.520751474067949305e-01
2.086225285187003897e-01
1.213530991376401448e-02
-2.931737939550527750e-01
-9.233072987594784231e-02
-7.432618255643766436e-02
2.682260139320686854e-01
-1.070404560376761183e-01
-5.598034319629997596e-04
-2.107002852715320618e-01
-7.397182098964716346e-02
-7.659738898338591673e-02
-5.951695881519538517e-02
-1.953652794671107210e-02
-2.142036940302974035e-01
-2.672251891875311869e-01
-7.298882908383942658e-02
3.283351583305028909e-02
2.617937098561697873e-01
-3.174296152663260706e-01
8.431782067291121105e-03
4.119875510121338014e-01
-4.680012324271450030e-02
3.435017816662071233e-02
-3.497092868770516894e-02
-8.931869545404164112e-02
4.341500146221346362e-02
-8.933313804264958469e-02
-5.226795431617094895e-02
1.898685070485939264e-01
-2.604500903718686144e-01
8.753998387763783917e-02
-1.910584769615125411e-01
5.731660298220642852e-02
3.023118727764496222e-02
9.050083269861701474e-02
-1.050111375370399169e-01
-8.892835075244477638e-02
-1.474635639351395411e-01
4.973370777093747558e-02
6.434063733197345480e-02
4.215764646290596218e-01
-2.445347224540607156e-01
4.875494195159642274e-02
-1.164518117047940587e-01
-2.614154953759498246e-01
7.775928080565567280e-01
-2.847015819861737351e-01
-2.849861954894492566e-01
-8.807684385780413516e-02
1.928016700685243057e-01
-2.273079952060694589e-02
-2.462962717721117467e-01
-5.064307216444608427e-03
-3.802583282227763872e-01
-2.184174353979078873e-02
-9.690265756083826787e-02
3.483876106261117878e-01
-5.401988081575734985e-02
2.185541719474025091e-01
2.489619232103615909e-01
9.753881949375350913e-02
-9.893304775384506589e-02
1.070181674397767055e-02
1.403260242146248671e-01
1.852426925333936492e-01
-1.038433733705140388e-01
-1.423197775439055124e-01
2.244139489480814487e-01
-1.805518990995533535e-01
-3.306356129921398379e-01
-4.511280956932338382e-02
1.637887707192192122e-01
1.640368458164127574e-01
-1.271800318778874839e-02
-2.683384153775966383e-02
4.944089727450982075e-01
1.951432517731659932e-01
-8.919216113519658207e-02
2.696263533731365625e-01
-5.912085494183476342e-02
2.098050351720476547e-01
-4.444719630276117162e-01
2.101084759482340497e-02
-1.318492081757032149e-02
2.101674502318097992e-01
2.718476870560390113e-01
2.939834671657650111e-01
-1.507822925177951801e-01
8.178041503440325322e-02
-8.284237746332495655e-02
5.916602906711235232e-02
-8.814497653951837430e-02
-9.241376120870908872e-02
2.338774711474506385e-01
7.560452750294349711e-02
2.324772060709086319e-02
1.280732249275432777e-01
1.614932531885688305e-01
-4.890838757270662973e-02
2.346609195899426181e-01
1.443135728676072649e-01
-2.638875183487152110e-01
4.698308448647650626e-02
-7.410103541868832966e-02
1.119232001699684842e-01
-2.644715717756685458e-01
1.236992415373732446e-01
3.122190279865796891e-01
-1.760615043181633921e-01
-1.077461835435991749e-01
1.270908047669127572e-01
-4.262159788830882645e-02
3.358362108697798831e-02
-1.247393020057589452e-01
2.692639279386286333e-01
1.568377997709717309e-01
1.735067148595806075e-01
5.525936938372469354e-02
1.469661350801423905e-01
7.690981656296751179e-02
1.362550949704864900e-01
-2.270370852242478144e-01
-1.245274410510895970e-02
-1.714896606157657877e-01
-1.778597809646895178e-01
-1.595010217699921184e-01
-3.047270768454480305e-01
2.034253329075179917e-01
1.910294036387839567e-01
-1.170813756238498621e-01
-3.972956879661704854e-01
-4.735929196274217268e-01
-8.438217833830380377e-02
1.365536385060512996e-02
7.738179519188514988e-02
-5.239818975063775634e-03
-2.583861732984061854e-01
2.601249701118454882e-01
4.412855316071266631e-02
-1.001230103637824193e-01
1.720520257485349744e-02
9.422626148937883472e-02
-2.132101972300105841e-01
1.068829408266271236e-01
8.485549936708200458e-02
-1.347620533087903472e-01
5.289158567870485411e-02
3.775618848200526512e-02
-2.017182651512094138e-01
1.721972628954348827e-01
1.589450083436929088e-03
-4.330815114593595389e-02
1.057756658557925111e-01
-5.776581454376835539e-02
1.597044521353684632e-01
-1.524218242495357367e-01
1.575364508196268332e-01
-3.083809395984087875e-01
1.001948374708836881e-01
-2.291056922568646403e-01
-1.510421117455616746e-02
-4.046592645291152701e-01
-1.269351269732263143e-01
-2.720962067977971202e-02
-4.174431844356127352e-01
3.433098012162788884e-03
-3.716812984087901062e-01
4.418051250292516219e-01
-3.244468175396628823e-02
-2.685707922410896509e-01
-1.803691182329635045e-01
-9.306531721828081860e-02
1.241131705747941655e-01
-1.027051551205039048e-01
-9.026363056560836318e-02
-1.448095199963175261e-01
2.491219596877933956e-02
-2.169457074730958834e-01
1.795856132176257836e-01
-5.135095344222274233e-02
-7.227287206413761378e-02
1.782311689469916671e-03
-5.025332259664425788e-02
2.579161346113876263e-01
-2.709797838162299466e-01
-1.179756670973740595e-01
-1.596415397353131704e-01
3.166565866053355771e-01
-1.374688262069456712e-01
1.820211055631173894e-03
-5.649128364290679355e-02
-7.471424052888653300e-02
5.732526746116330119e-02
4.654333907868484221e-01
1.661259256394112260e-01
-8.727945649209498113e-02
6.626244236819878175e-02
3.103472448082326696e-01
-7.128189829019819512e-02
-2.657601184257403146e-02
-5.364966147222087478e-03
-2.479095289754826570e-01
-9.947835385063975855e-02
-2.903107258682618430e-01
-2.271196411843118823e-01
-2.056101904501408950e-01
-6.697997682056322510e-02
