-3.054973694318114941e+00
-1.581171073848715025e+00
1.337833277173312352e+00
3.310285518758219192e-01
1.415232752637928471e+00
-1.111900146193799177e+00
-1.253014858347663241e+00
-3.253988871749903922e+00
-4.216733232661880049e-01
-9.136695916649171245e-01
1.557843674187387784e+00
-1.005393570255345370e+00
-2.665083737211182413e-01
-1.136013628864449787e+00
5.470308058621040637e-01
4.842222651128707533e-01
-1.518981009037310148e-01
-2.658885732024908854e+00
2.222968720096999640e+00
1.248478414889203636e+00
1.727672174241478675e+00
1.201258078108107669e-01
4.328983488303258520e-01
1.704449581402360359e+00
-7.531408972454866069e-01
-1.016166118469459256e-01
-8.369584356597826735e-01
6.656257923346662331e-01
1.111689701955080656e+00
-9.577839041756878169e-01
-2.056172606805471426e-01
-1.679270891141893540e-01
5.674645682846530814e-01
1.302394231154871740e+00
9.890819318619842315e-01
-5.118600144825046216e-01
-1.072077626191484168e+00
-9.686993909918375500e-01
2.407921686376090165e+00
-1.579813533020501870e+00
3.077910824430322823e+00
-2.416458415841434004e-02
2.283413064728058439e-01
6.369782261602709994e-01
8.791043272773225725e-01
-1.141433526078564187e+00
-1.418134661857566592e-01
2.450936795511186261e+00
1.345737534564244609e+00
4.980300062927993654e-01
-1.106726970063170112e+00
-1.968209575716903248e-01
-4.699993360611224302e-01
2.135860431411673588e+00
1.988119566486179046e+00
-4.303387542472373317e-01
-2.009568522124026924e+00
4.557275187447751841e-01
2.727343600949049485e+00
5.419134205817132122e-01
3.515237611552988750e-01
-5.363753416198033808e-01
1.061270241010039861e+00
4.013319737530001707e-01
-2.683603504337188084e-01
7.558398614974561891e-01
-9.873919969917265282e-01
-4.824689198848450822e-01
6.931410212790120040e-01
-1.874713812268711921e+00
2.023055548997355346e-01
-4.970980209214390100e-01
-8.267515696222021981e-01
1.823372582618580096e-01
6.375818128031095489e-01
-1.719900156552076398e+00
-1.428322256389845002e+00
5.095896928235019718e-01
-8.879200435946869030e-01
1.075401144254114483e+00
1.126531699388251019e-02
1.330389367446696731e-03
-8.221450829686081929e-02
3.960546250029894355e-01
-3.810624473406643009e-01
5.866708960368960390e-01
1.840182912901780488e-01
-1.476867674812274989e-01
1.211256852670947071e+00
-5.206942165782324494e-01
4.762799767093181535e-01
-1.221309380301808467e+00
-9.835024801178643417e-02
-5.628486299392403830e-02
-3.546270100297416183e-01
-3.501768544331945177e-01
6.862389389819064656e-01
-8.934478547341934140e-02
-3.159140738899964829e-01
8.636583971610316546e-01
-5.944054004188149137e-02
-2.368899741447274276e-01
-3.165178300708355041e-01
-1.387453746880009386e-01
-1.230612325586705469e-01
-2.454878626561945443e-01
8.562625737802539438e-01
2.750779060984427926e-01
-3.947883412267080838e-01
7.228675518986740212e-01
-1.062305793501699402e-01
4.825898643172009672e-01
6.769543873827768565e-02
3.222929639556779691e-01
-3.997659712030255386e-01
4.980265232014679522e-01
2.140505428227798546e-01
4.439856400017214155e-01
5.270390358120060625e-01
1.038622940564418590e-01
-2.799257197120992857e-01
-4.306487930010944876e-01
3.897252288947668508e-01
-8.242027415420136727e-01
5.340509207983722417e-01
-4.215431514840597416e-01
-8.675020703298773617e-01
9.119652929697974475e-01
-1.732651069404641975e+00
-3.340475143769175981e-01
-1.541087909950566714e-01
1.428533978997384546e+00
-5.200950662946106640e-01
7.027787412814257006e-02
-1.362409203051117845e-01
3.812674303006742260e-01
-1.569489075032672876e+00
7.755614714620588934e-01
2.608809409614975539e-01
-1.106860065161827000e+00
-1.187497217336556554e+00
8.127072107089548803e-02
-5.701712964544989326e-01
-7.765162266829268578e-01
-5.672773470402892732e-02
-6.863112888750370066e-01
3.248996275460049321e-01
6.012981570100524031e-01
-8.626890529558551846e-01
1.925514409043087127e+00
-4.990149798220902544e-01
1.431947997660782956e+00
1.380378876386151032e-01
-2.064804184531621734e-01
4.977595318701796834e-02
1.023407896769345626e+00
5.772752546046849842e-02
-6.357122954376279722e-01
4.823853496159638543e-01
1.017091399827031173e-01
1.475375223814103520e-01
7.199843313149005830e-01
-8.184344694910217211e-01
-5.119454354123825768e-01
-1.254812063009213829e-01
-6.825898849217343356e-01
7.728752093701477532e-01
2.355756002418233352e-01
-1.634453857281811251e-01
1.426156731244527576e+00
-9.217911578066903533e-02
8.238922605807391664e-02
4.059894078202625489e-01
1.388243392425931866e-01
-6.435972358889017197e-01
1.233418386060356253e+00
4.529883018242530923e-01
-6.665590366634424058e-01
5.320074654513425871e-01
-1.264991730625704691e-01
1.659307946953057222e-01
2.584600942390518144e-02
2.436665013319753159e-01
-4.363264466124026908e-02
-5.866846222074331152e-01
-6.469211712287034621e-02
-2.264697261384616273e-02
4.172760229049092551e-02
-2.989133021425411929e-01
-3.246474743863751039e-02
-2.830477813641093521e-01
-2.519667080138537352e-01
-4.255272389935332855e-01
6.961248243278042591e-02
1.833556353024701491e-01
-9.523219266320932797e-02
1.945759314902690412e-02
4.077273538519307627e-01
-5.684052825648295421e-02
-2.097601946610203882e-01
4.292280281351595339e-01
-8.866417770406535837e-02
5.483491000068685395e-01
7.832108737372784901e-01
-3.612942000580056101e-01
6.419558062872084969e-01
7.600420993906197888e-03
-6.033933901619774609e-01
5.474873859602483739e-01
-5.771041834762078437e-01
2.504383343704227882e-01
-6.790758714297265852e-01
3.007303259672648443e-01
-3.009606458324709521e-01
3.661482817270970691e-01
-1.005664174618970952e+00
5.723051640399827722e-01
-1.699687715037304647e-01
-3.017219881398900960e-01
8.392632806796482825e-01
-1.829922208877802353e-02
1.657663143165702055e-02
-3.498616073997672937e-01
9.249382746264900312e-02
-2.370508164650459229e-02
3.009545063395391851e-01
5.245775903584890543e-01
-2.463445399375583933e-01
5.338809603637005852e-01
8.091015199307065586e-01
2.114014633583264080e-01
-4.005091433889895747e-01
1.395882193376705716e-01
4.201722171526173222e-02
2.062405196359528084e-02
-2.248118302963979520e-01
9.079754605104534138e-01
-4.742264897442137195e-01
1.887926340395696401e-01
3.305362176872721491e-01
-4.244012729455948763e-01
-4.118310702509844767e-01
4.743874522991692877e-01
-5.242180325406792241e-01
7.559816188881754440e-02
-3.718494157324598870e-01
-3.934667789863059428e-01
4.222639577130109512e-01
-4.982796734860487353e-01
-2.840514104927328032e-01
-4.650384872927136870e-01
1.248768287037448771e-01
-2.879368931147224253e-01
-3.786556595886081955e-01
-1.915206144066209648e-01
3.397735181065488774e-01
-8.234405178746527776e-01
2.600467107589689575e-01
1.020229970008831033e-01
-8.362559215721915296e-01
1.729494315317792880e-02
2.514488908578519852e-02
1.529422550523183155e-01
9.121071610581145406e-02
3.302763872128911538e-01
3.298957339015327200e-02
-3.130905438833866961e-02
3.689795823496772043e-01
-3.762582723473479329e-01
1.708534054146943759e-01
-5.710414242184362610e-02
9.371051421520706359e-01
-4.822636027320833380e-02
9.846505841601896347e-02
9.847241648032762501e-03
1.454383231507785368e-01
-6.768721901552069431e-01
5.808578413291649589e-01
1.675641934023930635e-01
-2.507337672278376339e-01
-1.965893938488862125e-01
-1.577900286154302056e-01
-3.346581311280137361e-01
-7.814216841441264105e-02
-4.800025378582108981e-01
-4.264863916447605985e-01
5.041864170577421422e-01
1.289278787663057368e-01
-6.045412766147866684e-02
6.138196557022440603e-01
-3.625073750259462102e-01
-8.638200753300230572e-02
4.831318659090902967e-01
5.004767711559315879e-01
-6.238111634283921569e-01
1.018299788364484204e+00
2.113560041563327108e-01
-4.990752380844163949e-01
3.692328545935911754e-01
-8.101007821194299019e-02
6.610194959946553706e-01
-3.108799644372041149e-01
2.357168827330403393e-01
1.919812575533383359e-01
2.118529306595219319e-01
-2.210861679696100313e-01
3.838767977344886284e-01
1.249487486756778315e-01
-6.208111270979754792e-01
1.003194866036031252e-01
1.234448351156389456e-01
1.013491959529431580e-01
-3.325670518482536364e-01
-7.365266327512792754e-02
-3.221093349357984637e-01
4.428669407955416748e-01
-4.626896136190737363e-01
-8.058012385958165935e-02
7.028229185316080263e-02
-3.890240448229407288e-01
5.436682429762621505e-01
-7.686756274124456612e-01
1.068854223559769334e+00
8.075820523475458756e-01
3.612275643377595435e-01
1.059359700074921751e+00
-9.044531518014577998e-01
-4.322056576452591448e-01
3.589622716581441497e-01
-2.564360522592512570e+00
3.256778265749793455e-01
-5.189103063545397188e-01
-7.514332258386350327e-01
1.872806100113239280e-01
5.816680467005764799e-01
-1.820140454350524184e+00
-1.328330039706168364e+00
9.419372997491938238e-01
-1.524846669755053119e+00
6.236773953983384411e-01
-4.713697122494325265e-01
-3.346254216966332296e-02
1.260942359538671509e+00
-1.871019027556375391e-01
2.411187137550434290e-01
8.464142771069468330e-01
-5.304100713130325273e-01
2.403488448289123891e-01
-1.470505772976520853e-01
-4.345405482911993689e-01
-3.065740651114283732e-01
1.847503870116946334e-01
-4.921243987587409774e-01
-6.806575402703793354e-02
3.932408740063694785e-01
-4.707533116974293441e-01
-6.495816030631175186e-01
5.384667868926417134e-01
5.029025815780426706e-02
-4.175533940528103338e-01
-7.531318928293753157e-01
-1.495402941734323421e-01
-3.196793940557565716e-01
-4.243916971907006896e-01
1.921816305675367598e-01
-7.481105326428538760e-01
4.595870412551626427e-01
7.025597867291090148e-01
-9.743655314360968323e-01
5.514487593857787529e-01
-3.493241631087444232e-01
8.078003913355101817e-01
2.936195392509455271e-02
3.073865313473169159e-01
-2.971369023463836245e-01
1.159916072202674897e+00
-7.234356325923774200e-01
-2.015245440059483806e-01
4.510360775000796796e-01
1.702204761878971240e-01
2.924363979458654006e-01
1.784176092590520346e-01
9.794706272996651919e-02
8.732688878552613554e-02
2.761312324005675278e-01
4.296100422327588375e-01
-2.260752887538868550e-01
9.784773501107785557e-03
8.979140731212212900e-01
-7.927952480397233437e-01
2.288462121148444536e-02
-3.741741021605409778e-01
-4.299106454019531454e-02
1.911863338003400303e-01
3.052867423093097998e-01
-4.951089603229074099e-01
9.974418435987006393e-02
1.087163425351037743e-01
-2.147602485015486784e-01
1.093236875113952206e-01
6.019086545950523837e-01
5.401405211621210928e-02
2.577304768213951602e-01
6.513308644356747834e-01
-3.692900894640665510e-01
5.504874923387370611e-01
1.044373774908679137e-01
-5.736441960849479882e-01
1.368353124176451052e+00
-2.444138601463587968e-01
2.829514865626150955e-01
-1.399003668482392104e+00
1.833229632253149666e-01
1.586472233763048523e-01
9.983458235604082687e-02
-1.012381311834875008e+00
9.687364430812870353e-01
7.446380919463700676e-02
-1.776248586785417471e-01
5.667111456448929996e-01
-4.836377295207878180e-01
-3.844180734736749039e-01
9.325598315315646314e-01
-4.801919481076181301e-02
2.785028586542646067e-01
7.493529124295456034e-02
-1.031346639785235553e+00
1.931245824136617606e-01
-7.112334398524832180e-01
-2.399590660134807985e-01
1.374077228613045654e-01
8.336971553398286883e-01
-5.192266141387923417e-01
-2.846182463140985996e-01
1.999040558809211388e-01
-1.869004628161583803e-01
-8.101370384111240552e-01
6.515837782533701050e-01
-6.709942890817051087e-01
-2.419753946574105530e-01
-9.538871156051783595e-01
9.325759294261733168e-02
-3.521623873155227402e-01
-4.485842689890718882e-01
-4.220576761872384813e-02
-2.561066334104478148e-01
6.489437816498815348e-01
-1.992450572752668958e-01
-4.026319173693303916e-02
1.283549084331025769e+00
-9.368529654789198302e-02
-1.824882457136200176e-01
3.341506693004962503e-01
-1.607451956975035345e-01
-4.285591183007954608e-01
2.495435487057717783e-01
9.495650541680508150e-01
-3.823318589335650275e-01
4.324473994918831034e-03
8.739973634582131057e-01
-1.390596154986503796e+00
-3.420145296255467371e-01
1.999026156801273046e+00
-1.010652494528946760e-01
-2.605686374248345968e-02
1.075021489192594437e+00
-1.405179929006141304e+00
1.111422702057873468e-01
-2.589211312934575737e+00
6.920908080022522557e-02
-1.588990001279454667e+00
-1.294956354425880862e+00
-3.956972279546760451e-01
-5.689080912169685450e-02
1.010610686380884582e+00
4.385179098318379154e-01
-1.688322802998570848e+00
-9.017250776262440981e-01
-9.707845740574814197e-01
2.200954225584633439e-01
-4.828818704865515121e-01
-1.675546823103667426e-01
-8.701658609988267845e-02
-1.598922072005519099e-02
-5.415521131358314033e-02
2.853311154324251753e-01
-5.248485135598204288e-01
1.955662700794412179e-01
-2.846740019645734310e-01
5.679934526518666260e-01
2.948249416885072027e-01
-1.794444524654354445e-01
-9.121978631662671644e-01
4.889453778496454794e-01
-5.284295037443786924e-02
7.314797958640421038e-01
7.224558094982198586e-01
3.768328656305501567e-02
7.577779715706847719e-02
7.828306395651073446e-01
-5.445327992079058710e-01
-5.225070711732453244e-02
-2.272851640834763487e-01
1.926246694155593353e-01
4.322188330315784310e-01
-1.206549395099015265e-01
-6.204573581398368232e-01
-5.753834766298956405e-01
-3.904732960771720163e-01
-7.711099497396339819e-02
6.598301170012409456e-01
-8.076264726019488638e-02
-2.511497130528313193e-02
-4.752665206046249868e-01
5.232277048595571772e-02
8.714946449240554838e-01
1.113048125780020797e-01
4.397618016864617840e-01
8.468982077581608259e-01
5.664956829452180154e-01
1.602761782612718289e-01
-2.915406954035466014e-01
7.186252439418945592e-02
-2.738937143630697513e-01
1.029056596924958988e+00
-5.577180067709105460e-01
2.845591773497783694e-01
7.473939235731107134e-02
3.011355270569474607e-01
1.371298142438056589e-01
3.288845377349205318e-02
5.037848342884376773e-01
-3.369212552222176221e-02
1.517552892724306213e-01
2.995283206529854025e-01
3.268694877347748662e-01
-5.096103317029738317e-02
2.438864898212435572e-01
4.472594929801295693e-01
-2.192563950899393543e-01
-2.236554026437991005e-02
-4.390123477497365201e-02
-6.556284136418927266e-02
-5.518282735320559906e-01
1.893638138669678783e-02
-9.112819071370896473e-03
-5.076744492919816470e-02
-1.767611764283261166e-01
-3.947649581605271463e-01
-5.708562840699764607e-01
1.026025364762254283e-01
-4.213191280709401854e-01
-2.662338893931109896e-03
-5.755094705778102809e-02
-2.794014928395791714e-02
4.891625628990585728e-01
3.126968368912465268e-02
-1.351849317808026807e-01
-9.334560411011037784e-02
2.788960782559521956e-01
1.177780360181309993e-01
-1.589969987167285520e-02
3.806254647664527591e-01
8.642850351476244475e-01
1.896289104697123085e-01
-6.050371363562704469e-02
7.686036966513480895e-01
3.953959434479593915e-02
2.050713633571744354e-01
3.570431989984808596e-01
-5.017129437214661730e-02
-4.936362686688102186e-01
7.852321265662498551e-02
1.072189848725135786e+00
4.605543288815670128e-02
-5.339838129932922284e-01
3.324933569198333383e-01
-2.383053054266593695e-01
-3.965340540434090788e-01
-2.394504303604963746e-01
-3.372996279753839866e-01
4.771161904202348980e-01
2.791275991036172299e-01
-1.417441510281588490e+00
1.532166197947187003e+00
-4.457464030999460092e-01
-8.867762385933862790e-01
-1.050773245926773347e+00
-1.634163744973927024e+00
-8.679711125767273217e-01
4.515988260631631501e-01
8.164755865494062181e-01
2.762060744198871487e-01
-4.980157874608712176e-01
-9.408888252248776007e-01
9.149783850359322068e-01
-7.652387261865045698e-02
2.724149792371299839e-01
5.129898676174751149e-01
1.171151188300771251e+00
-1.432663810215153155e-01
1.319858799826378049e-01
2.821607283306546976e-01
-1.483884301308360520e-01
-5.552223185336080391e-02
1.180455262231743657e-01
-3.491605353663220224e-01
-1.165213909459928976e-01
-4.276135204448085481e-01
-7.080549143322256711e-01
3.697024428282548736e-01
-2.795653026612562320e-01
-4.058676099887719158e-01
-4.859437184688575329e-01
-4.532555275039958365e-01
-1.281039288871629878e-01
5.339711243162559122e-03
-1.055104571617145187e-01
-1.897944984154805448e-01
8.463565663361402591e-02
2.292942325133129622e-01
1.184961412782529512e-02
5.507214095274779453e-01
-3.009845917140802681e-03
1.932352049131361993e-01
1.250951300436669023e-01
2.199733491087255133e-01
-5.098257771357684875e-01
1.060424638283247040e-01
-8.597105805996922701e-02
3.721351770455260666e-01
2.146197518662658066e-01
7.666702395718533181e-01
6.469265894693033980e-02
3.370909885745025647e-02
4.758961663520793750e-01
8.719897667183544587e-02
6.125905332570642514e-01
6.926818829847222192e-01
4.464213110696900744e-01
-2.768596595542680561e-01
5.030252941743353912e-01
-8.171281065384778941e-01
9.270319946162350888e-01
-1.047968641145162971e+00
-3.462712543030555534e-01
2.095359628837539234e-01
6.413411344067003750e-01
4.207754927238603893e-01
-1.984107710916749312e-02
-6.123978294247324206e-01
-6.628207696664371040e-01
-9.823284708786831354e-01
-2.022771780213136195e-01
9.039998467471471733e-01
-8.137430474004349046e-01
-4.435564980470080854e-01
-7.700312963187611048e-01
-6.988001424774848980e-01
-8.849161526553970258e-01
-3.823497433941615564e-01
3.659193656510471571e-01
-6.308071453899843917e-01
5.006217686704040881e-01
-7.378568701201879687e-01
-2.523070094162295773e-01
9.781267685872329087e-01
6.643154249016103297e-01
1.099808811144322718e+00
4.837362994378336944e-01
-3.482254906622668789e-01
-4.478805709136912117e-01
-2.917276371815651359e-01
4.188958142832887588e-01
4.499696834332884698e-01
-9.109903898254638754e-01
-1.391210256271507295e-01
-6.711645688015913658e-01
-7.576379259461393234e-01
-6.732450814337294087e-01
-2.272651979600526229e-01
1.750811674083917191e-01
1.697657622627004037e-01
6.100559478481291237e-02
-3.254460137975543343e-01
2.002454396247572987e-01
4.144715413154538286e-01
3.950127743158123872e-01
-3.835405314115302167e-01
-2.496925591111482656e-01
4.003320835947200840e-02
-7.211041749904311023e-03
-6.903985366133982282e-01
1.348851189091215264e-01
-1.364601708770666333e-01
-3.914571404163585400e-01
-2.080548236022048969e-01
-9.562206965363988231e-02
-2.721355272376278500e-01
-1.071988669721853915e-01
5.768606914011316089e-01
1.045059724419835495e-01
4.248494401332908454e-01
8.648115328554730752e-01
4.708238655682484008e-02
-2.229960942507388522e-01
3.950685479833913050e-01
4.880564475079463699e-02
6.276469598036545083e-02
-2.103922250195623678e-01
-1.095785361671839098e-01
4.153428357647426794e-01
1.553280701933773544e+00
2.083803407712351563e-01
2.325972544271045217e-01
5.607850301585632496e-02
-2.202115688446270592e-01
5.176015775970910227e-01
2.715569842977954007e-01
2.120495621632181027e-01
-9.825222815580583746e-02
-1.359538746147377075e-01
1.403461689282270441e-01
-8.154480567072790453e-01
5.918989309264971466e-01
-1.665497263984112852e-01
-7.133737056345489380e-01
-4.119730677336901348e-01
-4.980334661875567837e-01
-2.816119867706860097e-02
5.804408972663223087e-01
2.047851111051245676e-01
5.021715416829312106e-01
-9.091889541069316794e-01
-2.240083398001009307e-01
4.968400865980573400e-01
-1.850247185577208187e-01
4.151577678618484368e-02
5.820573885886420884e-01
9.257231607781181149e-01
-3.408101941454818457e-02
2.018878853205782753e-01
-6.270320747058447663e-01
7.240713641967273795e-02
-7.969138489430930283e-01
-2.354035960416410445e-01
1.646248267815507427e-01
5.029211386598239075e-01
-3.256042792787961493e-01
-1.508575122109823974e-01
-4.678927977485204392e-01
-7.568923660343114257e-01
-3.316180686508823361e-01
5.490208544726705997e-02
-1.829653213705211279e-01
-2.395001348619040515e-01
1.121248795221398142e-02
-5.854852655772885273e-01
-5.224289494733722616e-01
-1.289300317090765202e-01
-5.084300015980202092e-01
-2.897190340926130703e-01
-4.618990590170603955e-02
-2.919515899354718780e-01
9.122125530861002751e-01
-5.049129996846288965e-02
-3.436006577175368393e-01
-7.234186153496238170e-01
-6.061027787311527026e-01
-4.043819552179506172e-01
4.488639722523450337e-01
-4.624916874954601576e-02
-1.929381583488101737e-02
-6.950616659313016976e-01
-4.463429184128228089e-01
-2.006702766259132464e-01
-1.673254110892150315e-01
4.236825434804126767e-01
1.031135667297038871e+00
5.817600573404364123e-02
1.174536402431689171e-02
-1.652510353803952337e-01
-3.302587356026149834e-01
9.034795385890661557e-01
-6.428879919164237622e-01
2.260991549491998542e-01
4.142754715239500007e-01
3.523231878996949673e-01
7.631105903240368304e-01
4.969846389140658571e-01
-9.551439529890762836e-01
-6.024972028995824180e-01
-2.159132240453894569e-01
6.422581475130647588e-01
6.382772058573444873e-01
-9.989816188968065891e-01
5.109632405261567423e-02
-3.698779223304428654e-01
-7.335118916620780860e-01
-9.781313717456402435e-01
-3.452303222866126564e-01
8.829853653786849943e-01
-1.063450775554218852e+00
1.828358569426020708e-01
-8.266733280630081393e-02
-2.679493213018132453e-02
6.538719656607917541e-01
5.019290018171919110e-01
5.394258704222109069e-01
-3.696489804757041031e-01
-2.757270964009385095e-01
-1.736847127206147534e-01
-5.631670335648856218e-01
-9.254280352862569448e-01
7.331124074354198328e-01
-5.205575361273788726e-01
-2.323179829036136068e-01
-1.326718315859004571e+00
-4.748714512409370481e-01
-6.660277585676608325e-01
3.257213109318085609e-01
-9.445050935697925365e-02
7.405517283869402778e-01
6.269527178109911558e-01
1.829619138624425656e-01
4.909402181694453859e-01
7.658582072104024030e-02
-3.495698609419254921e-01
-4.124843712263874806e-01
1.811506745259549855e-01
3.591868601295675756e-01
3.274012800730619621e-01
3.227644093664369662e-01
3.360883692730058381e-01
-2.807378940894275643e-01
2.480219857679903106e-01
9.589215287880620275e-02
4.678051353660599432e-01
3.499592679437256715e-01
1.320194770320318733e-01
1.051368156638315676e-01
3.508083919390931477e-02
9.444355912237609729e-01
-1.474332945514367221e-01
5.342844718414611060e-01
-1.439172793235314052e-01
-5.991620237172976537e-01
-1.155438807291124803e+00
-7.182075204534712487e-01
-2.333841526923366994e-01
3.335836058858195341e-01
2.075446782636071463e-01
1.043652027901121659e+00
-2.042023571712177632e-01
2.413697085883418914e-01
5.298948931228052439e-01
1.132330010183232871e-01
8.606360540604076625e-01
7.841849604510404692e-01
7.224365543969090142e-01
-1.756322018121843354e-01
9.766658819024282012e-01
-5.581906986062054044e-01
-1.775201734417797550e-01
3.966965906150112242e-01
1.435087292211174870e-01
-1.162056398106529498e+00
-1.792017367326507737e-01
1.291074501907795713e-01
-1.111192258371845432e+00
-4.954244573203343827e-02
-4.028532466240586363e-01
-7.490548806628545275e-01
-1.990754793181490179e+00
8.036007494563196518e-02
3.131668531585681259e-01
-8.345530569732623194e-01
-7.526425418554987257e-01
-2.232086650646450954e-01
-5.844504292120112909e-01
-1.461908304692927318e+00
-5.419487295051866882e-01
-1.560483199552336275e+00
-8.867607861085694543e-01
2.505287226426962111e-01
-1.072858452191384870e+00
-2.346382826577848302e-01
-1.380624765812605625e+00
1.394649178781964816e+00
1.184789941972484995e+00
-1.106220811330525189e+00
4.792562535953043268e-01
-7.137394136632815300e-01
-1.381452481154375134e+00
1.682127336594994860e-01
-4.999486446482422353e-01
2.403918834175650665e-01
2.153711093010503008e-01
5.542545119183357460e-01
-1.549382587735482764e+00
-4.161289869982527367e-01
-2.225617406317440677e-03
2.174506691910426115e-01
1.280297516986909634e-01
-2.872598510387089354e-01
1.497634138451988395e-01
-7.491746240046348593e-01
-6.844345814817977269e-02
1.226582821620927910e-01
3.823276030857064578e-01
-1.883299630250085399e-01
-6.426329636423698810e-01
2.321851369207883209e-01
3.225077602309052716e-01
-2.373277964907904714e-01
-1.488263662896171236e-01
-4.125429860989214270e-01
1.768325881464592464e-01
1.358077626588617970e-01
-9.765978373386058342e-02
-3.171893494227936428e-01
-3.221671846770566283e-01
2.074361538911823066e-01
-2.415334825763345294e-01
-2.079654714942276439e-01
-4.420582614625521156e-01
3.758279512756643875e-02
-5.057615338560984553e-01
-3.180062044682924194e-01
1.517187585026970320e-01
-8.434249008222612920e-01
1.406652544179766984e-01
3.699177393235869027e-01
-6.980447309400190647e-01
1.482595765395800791e-01
3.628908535132873703e-01
1.712821353766617871e-01
-1.305597080634470497e-01
-6.081601861035763612e-01
-5.102651611761263029e-01
3.098325189893482712e-01
-3.923726980180228807e-01
-1.003843951965335962e-01
3.473621895764243406e-01
4.748055628067410772e-01
-2.295446171606615737e-01
-3.149340255698609425e-01
6.981202124161208777e-01
9.099147317655196243e-01
4.474973739930467320e-01
2.372108697414849754e-01
-8.332225378092436019e-01
-1.354385117543884798e-01
8.601811141444214437e-01
-3.997228011819478621e-01
-8.938674301104443387e-01
-5.333855049206422949e-01
-2.844618330373127613e-01
3.944159770365182616e-01
7.561584922626694016e-01
-8.756659817675178648e-01
-9.241754675246479644e-01
6.316245407796011735e-01
1.934320982397458588e-01
-6.449319686689684028e-01
2.107023833631040399e-01
-1.806289147989573740e-01
3.053778345277168849e-01
-4.810310901880539003e-01
-4.275544774936346909e-02
3.530032993765938598e-01
7.655824167706442029e-01
2.240511617985164461e-01
-7.585055196604091610e-02
-8.000987124102151848e-02
-1.846607520775778999e-01
-2.682561001384972665e-01
-1.295011214996327209e-01
7.028005645296730997e-02
-9.619688875062087918e-02
1.690577537626532234e-01
5.558594065495289088e-02
-8.471518781053018199e-02
1.012752942444448689e-01
-5.806852593005131791e-01
-4.295494004033023061e-01
3.023469169723468908e-01
3.024371393841535430e-02
-8.035348769163359606e-01
-2.703944036313833954e-01
-7.426719280320890348e-01
1.403338687942567331e+00
4.587739063336466749e-01
-3.924954580638154722e-01
-3.020330443446568314e-01
2.905350521519596274e-01
5.329198624838674681e-01
-9.376930253775205282e-01
7.578866578853342417e-02
-7.752501166281805522e-01
-1.421844231782289913e-01
-2.327099536468845431e-01
2.211285374183704910e-01
-6.779323120556460802e-01
6.331660323150854752e-02
3.769752716775090495e-02
1.038801808463791221e-01
3.707646320587675293e-01
-4.661717890724314528e-01
-2.038588461193868440e-01
3.110059129182167759e-01
-9.977119422190837694e-01
1.994018900562615770e-01
-1.544009463623588485e-01
1.583965392166444552e-01
8.775017920373359148e-01
2.021584517554907978e-01
1.030450782339521032e+00
-4.517493828162010838e-01
8.294215299732438096e-02
-1.346105433306877541e-01
1.717853205272935613e-01
4.931792473943613642e-02
1.067825737169541267e-01
3.396579592238607170e-01
8.640007486462394914e-02
-1.183517887875686347e-01
2.786932542960633974e-01
2.535732608386979114e-01
2.015903806277042076e-01
6.977295286131861562e-01
-9.049109948828606420e-01
1.202099055339228284e-01
6.793433660359147197e-01
-1.201857729204675908e-02
-3.474469946663991116e-01
-1.197853499357454998e+00
4.169127868305909090e-01
-4.531811637395071757e-01
1.342457067307177621e+00
2.217629019009802749e-01
7.475811615535186971e-02
3.499780479380925485e-02
-3.124932623079457183e-01
5.594415026578601902e-01
-9.720810806904076062e-02
-1.682455538862556721e-01
-1.823500191120562552e-01
-6.207779459314025083e-02
-1.185999924596798788e-01
5.841154940396776629e-01
-1.514294312198966264e+00
9.727486166668641160e-03
4.839784836439219862e-01
3.989844508248173161e-01
9.293803659238625281e-02
-8.830161645021087358e-01
1.634507573472451236e-01
2.965433594857935229e-01
7.638732265783300113e-01
7.452525058588613249e-02
6.565703262226108006e-01
-4.916894392158631666e-01
-4.103492948361703307e-01
-3.086900301103056021e-01
1.010854319299957282e+00
7.306972039332292335e-01
7.260378516799553816e-01
3.460738710908769500e-01
-1.513112236074308226e-01
1.528943987818245143e+00
-5.350303875318256353e-01
9.017685794448888903e-02
4.252037839572387901e-01
8.411928589912578413e-01
1.098149695559417882e+00
-1.131075602874469732e+00
1.274234025052098263e+00
-1.519518169649597683e-01
1.759033336568446293e+00
6.457768625765605286e-01
7.966713236223500472e-01
3.008464347841476316e-01
2.525444205233972617e-01
6.801398554001328867e-01
5.772994913971473130e-01
8.399436922318775922e-02
1.520794012976006138e-01
-1.338194361373512553e-01
-1.380931898458309659e-01
1.347012097967405175e+00
-3.131012794403106314e-01
-3.670662713793492737e-01
1.076554722188569624e+00
7.285619699517507930e-02
1.534830687568000118e-01
-1.002850771882431102e+00
7.454421405718100191e-01
9.062022808634079274e-02
1.523462294945301831e+00
-1.200872583212112821e-01
-7.376084039585517615e-01
-1.402117677117929728e-01
8.984478170636417405e-01
5.569295922929158316e-01
1.300599691603148977e-01
1.708122769362972193e-01
2.264863677386639851e-01
6.463261834319209420e-01
3.477793810082504544e-01
-3.698159579319343360e-01
-6.899012467224081846e-02
4.418372716140027134e-01
4.916940454503294644e-01
-4.389972431902569028e-01
-9.249486157724475799e-01
-1.655005137883950317e-01
-9.957572410005082197e-01
2.944264214386754785e-01
-5.908020869987433699e-01
1.221927025656760479e-01
1.846562809851066134e-01
-1.928756350619824922e-01
5.000948205386031020e-01
-5.512473022034097836e-01
-8.112151816012459493e-01
3.892321894620396905e-01
-3.457364817643677757e-01
-4.590696573207805331e-01
-3.598558787928805014e-01
-7.140386405285950033e-01
1.703954740089523856e+00
-5.609583961241787486e-02
-2.138650848022014550e-01
-3.835604336989317242e-01
-1.986991982391333178e-01
4.729194754764722286e-01
-5.384803206130102105e-01
5.333433685575569676e-03
-1.167889955196524276e+00
-2.025968281476243082e-01
-4.761679443027976855e-01
3.184558376536743562e-01
6.618512810746687292e-01
2.013599131228134553e-01
-7.714073260258029474e-02
-9.939573401353313242e-01
1.882602250441507696e-01
1.253346839765528964e-01
5.429603520936774341e-01
-7.401098364048966372e-03
-1.828017369071483211e-01
3.771902035905124184e-01
1.165111494149220883e+00
1.745001096987673639e-01
-1.058984659157736541e+00
-6.545802446121470886e-02
-3.866918005056921293e-01
4.244034411332149870e-01
5.221352984420272181e-01
-1.007413730260605100e-01
1.416703261840318029e-01
-1.603369821171162779e-01
5.386472316258743981e-02
8.453974197953163516e-01
1.806530644485884740e-01
5.834291825033754986e-02
3.916934844072066380e-01
4.893923982877406154e-01
1.192937025123496086e-01
-1.798597792375824234e-01
-7.764745339649661293e-01
-3.169182366736216783e-01
7.776271450129519369e-01
-1.568550719325625675e-01
-8.222844243436363554e-01
-8.787646355249153496e-01
-3.634701234403641124e-01
-1.012189392549212863e-01
5.918201110693007694e-01
-2.286204616084841768e-01
-5.023723219535537465e-01
4.314436691066267926e-01
2.868744329726373166e-01
-3.814762876769080546e-01
-3.620025853874924704e-01
6.206037145682221645e-01
-2.023703033855605571e-01
-4.786661084462793259e-01
2.017486635382777505e-01
-3.693281936345411687e-01
1.444954416380862972e+00
-2.028463678406459136e-01
-5.155870928308572410e-01
-3.217662331265099263e-01
1.266843818811386191e-01
1.923088113846992686e-01
-6.196428344740225747e-01
1.703138952060436195e-01
-4.014267734881565297e-01
-2.939810515659244117e-01
5.748542614503437953e-01
-5.311690583175673885e-02
-4.615068232322229180e-01
5.008478198224052269e-01
5.709779605934905966e-01
-2.709405749672639252e-01
2.154099526028671885e-01
2.000375154674698397e-01
1.618474227038614599e-01
1.388807819068924310e-01
-8.169239713837053163e-01
3.228446546660492245e-01
7.854389983902038130e-02
-1.124736202127851331e-01
8.627666040339294629e-01
-3.457932917600013978e-01
7.080416216986166189e-01
-1.043189927167488713e-02
4.510578388586799353e-02
5.563412164183376696e-01
-6.829204268243471709e-01
-9.453308757298341247e-02
3.543136009729770386e-01
7.864817397994189330e-01
-2.400458406326554939e-01
4.811859823306707806e-01
2.925250030938341683e-01
-8.069387501419361675e-02
-6.508178915432520639e-02
-1.524333869418370846e-01
4.855141497655665606e-01
-7.441238929633263444e-02
1.545526319837402518e-01
-1.918134824015331496e-04
-7.136702865034874055e-01
1.033629560131812813e-01
-8.428837015731377447e-01
1.579207674491353020e-01
-8.215363927193622962e-01
-2.838190874918080503e-02
1.020415492771829524e-01
1.876600742675628430e-01
4.194313067544787055e-01
1.592280803402442990e-01
2.720674229065024319e-01
-9.330742239343706168e-02
7.814256087257985817e-01
2.871914457577692259e-01
-4.029687242805086167e-01
1.827297260759427888e-01
5.204093283161249639e-01
5.399542751855699457e-02
3.557504263509824183e-01
-1.055708695924276325e-01
-4.409118222446792856e-01
-6.282510292149592890e-02
-2.840889341686054226e-01
5.053949669742046069e-01
2.110950162684750164e-01
-6.179249298598483292e-02
3.725561698778250830e-01
-2.080751000565983777e-01
-9.077660964351769168e-02
-7.036747484883230930e-02
9.045220508935054582e-01
-8.739869158737106902e-02
4.752665734300198230e-01
3.756858944417668100e-01
-2.823782969125121500e-01
5.671649977066284265e-01
-3.776763435066850527e-01
2.663791596462924960e-01
8.277959899736851979e-01
7.313949595801910340e-04
5.294158493913556640e-01
-6.913296694087412986e-01
4.547863535206392860e-01
-1.761507143729355018e-01
9.405821256868438507e-01
-2.028698291732558001e-01
-4.755742560682501424e-02
-2.903593560927970191e-02
1.972108254387343051e-01
8.147678102196255212e-01
2.795511550976262360e-01
-2.182755561179694492e-01
3.467008017160043143e-01
1.371105829760927708e-01
6.427003151420961347e-01
1.519896571780347816e-01
-1.363556711768403540e+00
4.486954429225973873e-01
4.634645070341655848e-01
-9.433832002809638961e-02
-3.114653303371462956e-01
7.149904292723309462e-03
1.548572424465134711e-01
2.501998072440619197e-02
9.330345911723259000e-01
6.204730560228038927e-01
1.645337956652580758e+00
-1.289783538915207028e+00
-4.700003676233867334e-02
-5.367338512764981973e-01
8.686251324753029301e-01
4.321918952952556459e-01
-3.445850650347370148e-01
7.411315485900944466e-01
1.656882978253823857e-01
1.211734615102348700e+00
1.557406038260277903e+00
-3.909409881401739173e-01
-5.258216617916952607e-02
4.511104378095164291e-01
1.346375946761336317e+00
-2.180343644974349349e-01
7.312992054494669991e-02
5.238412989282513754e-01
2.638858398001391881e-01
2.805067403987457353e-01
-7.219885720255793393e-02
-9.929451279435508315e-02
1.639072864282895559e-01
-6.571877304756191807e-01
4.537729107285284717e-03
-8.241116269888614232e-01
8.568316286347885669e-01
5.796042997120426365e-01
9.957699547658328820e-02
-1.423834159284804279e+00
1.351495424924492594e-01
-8.247294796575353748e-02
3.268778123796314827e-01
-3.255034906476139134e-01
-3.016948126777930783e-01
-9.484047603125500547e-02
1.435564118108945963e-01
1.053359973692198581e+00
-7.102218607554745822e-02
6.581718473953830362e-01
-1.814884491865341731e-01
9.448476845490465237e-02
-7.729321684112121504e-01
-4.242956012861702209e-01
-9.932599108064167348e-01
8.084790838468984830e-01
-4.139287905741956819e-01
-8.138735950606779124e-01
1.363834210325961804e-01
9.793921132208858182e-01
-8.305383123069218776e-01
-5.304743859150543583e-01
-9.852002378454244313e-01
9.589474228506476017e-01
-2.813114509288240916e-01
-1.234981213756512208e-01
3.372649984548459767e-01
-1.149858603295095483e+00
-5.276695316669213938e-03
8.529533146819749945e-01
-6.409514168615205731e-01
-4.683545051976187312e-01
-1.154702859650397428e+00
5.088223158653432110e-02
-3.485961061255978266e-01
1.333836828772153149e+00
-8.368484007295525773e-01
2.050864046448652167e-01
-1.946193466269290073e-01
8.758691858519818130e-01
-1.060470304501193839e+00
-2.287622457363195638e-01
-5.250072045520557396e-01
-3.216889697820485838e-01
-5.897227807020122281e-01
1.590844531526805494e-01
7.008540903303769887e-02
-6.561941429351705324e-01
-1.628430906344770779e-01
-7.584986200544974189e-01
-3.361155852808204170e-01
6.801033658090548106e-02
6.988078898334295630e-01
3.224413545616593990e-01
2.007557803360509319e-01
-7.917368569747792462e-01
5.571110033055724775e-02
1.203937193633892733e+00
4.061048031229928801e-02
-7.510516165299075952e-01
3.789164511645310429e-01
1.214078612931443063e-01
5.670092850552831409e-01
-1.099240912429033434e+00
-2.016375226561604173e-01
1.904618869518555913e-01
-1.858679997700602993e-01
8.635786437766274082e-01
4.731838538911569136e-01
-6.493870225740924207e-01
-2.707906200940868868e-01
-5.656658165485877188e-01
1.696128538357541127e-01
6.241705113309681252e-01
5.909636712770806044e-01
-7.983658094073259326e-01
6.667142180482880098e-01
7.208140561316875861e-01
-6.749326581196291031e-01
-1.165838176892004308e+00
5.256072497611477545e-02
5.549825029994449599e-01
7.804411471888571539e-01
-1.399918385913383023e+00
-1.767966990369631564e-01
-3.256033883220059155e-01
3.063805787107669598e-01
8.982471159692672069e-01
1.190001799441068736e-01
4.499292389882084131e-01
2.624863077369289921e-01
-8.425913471901615159e-02
-2.862707748734485413e-01
-1.874311804919532032e-01
4.237442222640884215e-01
-7.400587905082608997e-02
-2.309137741537984345e-01
-3.714146344553896639e-02
-4.248579032633876401e-02
6.719314591665521696e-01
-1.100108617829213681e-01
2.852555107011757810e-02
-4.437340290900366191e-01
-4.888589131174160274e-01
-4.007582194857550184e-01
-2.596153028193443624e-01
-7.439480527283661715e-01
-4.126037742066605007e-01
2.780179489516940716e-01
-3.980792908091862481e-01
3.237904812909803143e-01
2.055072849805327784e-01
6.322104677418283192e-01
-1.960293418181967562e-01
6.667726499552374848e-03
-5.485064697894012076e-01
8.525891658629267678e-01
-4.424789299121480342e-03
-3.179646002310886899e-01
2.169756138153896285e-01
3.794240466602747386e-01
2.008087026854845358e-01
2.237696538434979718e-02
-4.554794994504928196e-01
1.376091803770101152e-01
-7.413047875714462442e-02
-4.846794552302389342e-02
-1.141571335761483313e-01
3.347906720552680238e-01
-9.133589683978972362e-02
5.426014572252838009e-02
-1.200583116671071343e-01
3.711808563125181260e-01
4.898594722720903683e-01
7.031530778066946707e-01
-1.175486278177712895e+00
1.458356804713785426e-01
7.124750696134788397e-01
-4.110358744020473076e-01
-4.726091815735288248e-01
4.568651600264572177e-01
1.551965230165849030e-01
-2.925646201935854784e-01
-8.203009314165632393e-01
1.695100709196248889e-01
-2.628928272415960096e-02
-1.291248769510380812e-01
1.125694966346790504e-01
-7.966132473752024490e-02
2.546580840492663200e-01
-1.192000396857901268e-01
-4.868844609529214829e-01
-4.345985338595630965e-01
2.153808855705501568e-01
-3.957503582201628012e-01
3.875284695361345677e-01
-6.159087893274939329e-01
-4.577298051653293925e-02
-2.012263620962155830e-01
4.673750384213599118e-01
-5.644013510231814523e-01
-1.468654555489973951e-02
-8.521389781419050902e-01
-3.515564288280120797e-01
-1.293892965436360121e-01
1.391503874484342936e-02
-2.923468123118319051e-01
-5.944475249053883248e-01
7.511461962182937324e-02
1.534818183135988265e-02
-4.047381052138369073e-01
-1.909587182237945657e-01
-6.234031826572460355e-01
3.230963482127051090e-01
-1.633228581953798109e-01
9.639351911975581055e-01
-6.131325707764128108e-01
1.455509807153341217e-01
-3.001036599680026451e-01
7.817051271683724822e-01
-7.631299467051203544e-01
6.199104000721638447e-02
-4.328168578407263767e-01
3.632637123647945027e-02
3.430730508290479475e-03
2.428550418133570143e-01
-1.806350158593333088e-01
-3.550040328760561414e-01
1.866800578342472233e-02
-1.042836729572841070e-01
3.475642696996076308e-01
5.265483642507502449e-01
8.863966515288976833e-01
-9.863192196716964733e-02
1.569871937157168995e+00
-9.263480653333097115e-01
1.390670946802280428e+00
-3.453633542123450001e-02
4.600798652773214759e-01
-7.002603682196943957e-01
1.665926250564792044e+00
-4.040486323372731170e-01
-6.507701249259226217e-02
1.021022557249114671e-01
9.415592983274053696e-01
7.651217050480710880e-01
3.280735462130306979e-01
-4.644282512771535365e-01
2.398886132789505299e-01
-2.229954753954604407e-01
3.095787026972958156e-01
-1.155958330352120124e-02
7.354152782273265521e-02
-1.596537612988363219e-01
4.479360494083247102e-01
-5.180336850845792540e-01
5.568509911443941807e-01
1.583130390413079458e-01
9.690535573121737689e-02
3.209016186890910061e-01
2.999267230119176397e-01
2.032728475911035615e-01
-5.394493728171940727e-01
-2.004837245720236805e-01
4.259603624976718295e-01
-3.094296709808935092e-02
-3.534118136977613123e-01
-8.583899716821090653e-01
3.536877610068762112e-01
3.789491704528670235e-01
2.532893385916404339e-02
-3.302490632034507656e-01
-6.561098802786624606e-02
3.880529431908857907e-01
-1.890635258405851116e-01
2.397160372131394157e-01
-4.098709610931924874e-01
8.517172094623024631e-03
-1.960647340505599079e-01
7.726290697693970477e-01
-3.930605334636218529e-01
3.910108906867565404e-01
-5.893639900390323233e-02
1.765493078025019980e-01
-1.219745929251634248e-01
-2.276508811056427439e-01
6.173811217479364261e-02
1.333210497614419933e-02
-1.299318630838452449e-01
-2.113892314720711985e-01
1.141162569832950935e-05
2.578612875590396425e-01
5.473204825543067642e-01
8.830713518832215836e-02
5.054424676896689395e-01
-6.552811449963747981e-01
1.565528029304962820e-01
1.229260728751028875e+00
-7.276560745419984044e-02
-3.024047260315444463e-01
4.738401628271947108e-01
-2.940455933548017931e-01
-1.211838660068466078e-01
-1.064921735523709501e+00
1.530361004397592928e-01
3.185144960561128724e-02
-1.078128562387381945e-01
3.866572515773986085e-01
2.219524684674784309e-01
-2.262701957608829750e-01
6.665314041615136298e-02
2.110776041552842874e-01
3.452602570738979582e-01
1.181881351979316569e-01
-1.419177754061127505e-01
4.276633004577022890e-01
9.069081059331445677e-03
-3.261157163317338625e-01
1.036330170707757403e-01
-1.515374604737940722e-01
1.105270743816530454e-01
-3.680004027083905171e-01
5.786809068101067544e-01
1.490008524207717677e-01
-4.108268851316037445e-02
3.947937066991748928e-02
6.712225479635856862e-02
5.997372966791706395e-01
1.161941126929513651e-01
1.477774740479138593e-01
4.475078785813625393e-01
-6.774118927192558648e-02
-4.119176570818114946e-01
-3.400691275178827078e-01
3.150602105506385836e-02
9.720435678505372490e-01
1.556344862492811953e-01
-1.250364088715568478e+00
4.161900827739770103e-01
1.178314233475235229e+00
-3.031771768274756917e-01
-8.612037562043353134e-01
-1.123142876253464262e-01
1.090176209157401876e+00
8.122468268725649421e-02
-1.036967933400070041e-01
4.890058716424440233e-01
-9.455423288865134612e-01
1.724182438847399468e-01
8.060901597712243072e-02
2.351425934322210476e-01
1.081732757839635739e-01
-4.711264406988949771e-01
-4.639240498112472966e-01
-5.903538508964836229e-01
3.567089427455952810e-01
-5.886395720656849573e-01
-4.138163301287420826e-01
-1.665857841564499509e-01
5.407434921337078704e-01
-6.170315045443794943e-01
3.268849678882865817e-01
3.817617456106636165e-01
5.795003703835441833e-01
-6.443928649408423026e-02
-2.979379958193436040e-01
1.423471749920322549e-01
1.503181246410091598e-01
-3.712510404169976769e-02
2.348697257072492051e-01
2.918333261191268790e-01
4.127210846115176857e-01
5.807776633952274059e-01
-1.537415401372681789e-01
4.210244341365658172e-01
-5.527289495972517175e-01
9.387426399749275729e-01
-2.807009185762624481e-01
-3.214684093817267718e-01
-2.392765170381064288e-01
1.380025295473442382e-01
2.445556608183566960e-01
8.515253164904820204e-01
5.814225692518195654e-01
2.845934846461410372e-01
6.321716495142678527e-01
5.226535524232337471e-01
6.007069176931703058e-01
-2.426177883301325611e-01
2.670278386673397009e-01
-3.164762144281185186e-01
-2.438270941796107094e-01
-2.825243464139520211e-01
-1.506204879162062749e-01
-2.024815266983971962e-01
1.714581655967187257e-01
-6.523223331821136409e-03
-5.176517088557960194e-02
-1.843936673803610315e-02
9.189312473246649127e-01
-2.039214908511419455e-01
-3.406670474225367284e-01
-8.040024098430251231e-02
2.270712751968866495e-04
-1.256381749004490955e-01
6.386386601152593823e-03
-4.467923444994122972e-01
-4.833753210377449427e-01
-3.300411835007638905e-01
-1.337340059001967119e-01
-2.756677664325717925e-01
4.499148369787098201e-01
1.119770872712240600e-01
9.214424881143798429e-02
8.157883484660892748e-01
1.954212544757661374e-01
-2.943283827198819869e-01
7.275434260080598792e-01
1.440167800251207497e-01
7.189302599946680028e-02
1.158102119263690055e-01
-2.233057426026937020e-01
-1.258461254463361101e-01
-4.177105469750042044e-01
2.100648317294000755e-01
3.025184626048821324e-01
7.167027623541020326e-03
-4.900592852659291232e-01
1.657545593031605757e-01
-2.137149980195771626e-01
-4.969330913415884177e-02
-1.101611492139023679e-01
3.205347950796587631e-01
-1.176653845247929153e+00
3.078299188122050056e-01
-7.628994498382836442e-02
8.854786258983765590e-01
-2.696435752152824272e-01
5.071847124649275784e-01
-4.279448857018058883e-01
8.366320054017224728e-02
9.053985726031593684e-02
-9.872799017050755410e-02
-3.428662401667129100e-01
9.232927628822762411e-01
-2.104292614509264414e-01
-3.459143501931248865e-01
-2.964363655474210879e-01
5.512910122320122674e-01
-8.067352361206897582e-02
-4.546331502274388869e-01
6.043331057945398183e-02
5.136630554809678423e-02
-6.317740489255587732e-01
1.701528507412284896e-01
-2.088707706739020287e-01
-2.475584510355811896e-01
-1.420484099690982188e-02
-1.149190501448701940e-01
-4.583517667551917363e-02
-5.314309209544180318e-02
-3.374967478758327671e-02
-1.938398604044234141e-01
-1.286617331018337362e-01
-1.533815461554009218e-01
4.566862455590743886e-01
9.026628940054466643e-02
-5.369480069153624927e-03
-3.054842872063037729e-01
-6.123698777084781719e-01
-2.152901609229983526e-01
1.231854052766294394e-01
-5.691068396708289789e-01
2.511480515520445045e-01
-1.424277910029129179e-01
-1.391841581152354068e-01
-3.700339065637940628e-02
-1.732938991414180452e-01
5.763314980539360755e-02
-1.835789239224134006e-01
7.913098550064688597e-02
1.424885587505759499e-01
-4.307826823005307393e-01
-5.381715947165556513e-02
3.819145058900939166e-02
-3.468435811009774605e-01
-2.254635540584297715e-01
2.338265091212007873e-01
1.563651514154703048e-01
-2.812817178551100250e-01
-2.545770680705327083e-01
7.670858374142491311e-03
-9.776219353087149677e-02
-2.216954469498840785e-01
-4.158541115385336884e-01
-4.112325238819256601e-01
1.256038188962263213e-01
1.368574047561792878e-02
1.779175896573871596e-01
-1.983816672709182716e-01
-2.526594134301172190e-01
2.088880138047734536e-01
-1.783552702841413595e-01
1.187364468733025508e-01
-1.283452243451935204e-01
2.578883596221454022e-01
-2.924684431866453882e-01
-2.669867904065286734e-01
9.336335331586922970e-02
-2.015545914515136719e-02
-4.213161635521918136e-01
3.195198666959891964e-01
-4.589188178795589046e-01
1.659661992956905641e-01
-2.896041897425983835e-01
-1.458706791402581415e-01
5.285466683854382897e-01
-2.963457129278777580e-01
5.061660218518906212e-02
-2.994230668673849016e-01
1.117940424375653691e-01
-1.112523875564951914e-01
-3.698350773642124500e-01
1.407176168885095890e-01
-4.572877232006120618e-01
4.131556798209114478e-01
-4.759720240321464457e-01
3.549113144553448507e-01
6.359794308946848940e-01
8.069791158192698433e-01
-3.427227762090770402e-01
-2.034389193932220341e-01
7.393776796609381752e-02
1.879441697355325736e-01
-3.492956454718396109e-01
4.664982696410485685e-01
6.186398529330631169e-01
-6.611180367423090676e-01
5.856021881509831939e-01
-6.768879761702776277e-01
1.351125140862778108e-02
3.908465303168083271e-01
-9.251869099176347477e-01
5.217313229973861155e-01
-7.758265680258360497e-01
-5.646345820540915605e-02
-4.444156554243318680e-01
1.041149223764821219e-01
1.281444507656509302e+00
7.438426015850773121e-01
-6.614951590202633458e-01
3.588060445527123110e-01
1.095333033236251669e-01
1.523235071678187558e-01
-6.430766825131911668e-01
-3.737688726333232014e-01
3.696721160982466281e-01
-1.191791669036469825e+00
1.642388787203539480e-01
-1.899475663408363157e-01
-7.160276754378289699e-01
4.728533911342641671e-01
-7.298548110931804001e-01
-7.996726031906491172e-02
-5.744331355905748504e-01
5.863874358590509539e-01
-8.779727080425712982e-02
4.266502897139524131e-01
4.927923122312797277e-01
-3.530505299716554801e-01
5.722809991660763318e-01
-6.280228845500452906e-01
2.266252571176585462e-01
5.589076151642500753e-03
5.747032357813708359e-01
-2.311283692932966927e-01
-3.577726540208996941e-01
1.769017925894906806e-01
3.396421268046507791e-01
-1.450346077013170420e-01
5.211653326243180784e-01
-6.384181715311044725e-01
7.671879385871701595e-01
-6.267642858167313813e-01
6.511246934164813815e-01
-3.405782861740824230e-01
-9.001343920263350784e-02
5.200447136858277197e-02
-8.872854463689555660e-01
-4.230312852494486631e-01
-3.731680972579881628e-01
1.057460947793859685e+00
1.159087857689131140e-01
4.972359712670449960e-01
-1.178735049834322535e+00
8.873990646557535777e-01
1.109940368437257074e+00
-7.754568304601410222e-01
7.016886484747686392e-01
-3.478937696575993832e-01
-2.170626699236031243e-01
3.614297003308138412e-01
-1.366748849258431431e+00
6.741072991530751013e-01
-8.557588113678303576e-02
-1.400587146007346850e-01
-6.734546606190846552e-01
-5.803289346732910525e-01
1.219845645457308780e+00
1.421678706211197518e+00
-6.817352788163900668e-01
-1.820062477437971726e-01
-3.403298733430987905e-02
-9.983731299489909672e-01
2.819919664476779331e-01
-7.806093721176792233e-01
-1.705955795835195354e-01
-7.697306398097093494e-01
2.971382706112757899e-01
4.983738724033890954e-01
-1.603005650798309534e-01
1.377390003492470205e-01
-2.395739443984576944e-01
6.695228776962267592e-01
-1.484945008783042475e+00
1.181056779738709261e+00
5.489636498374812767e-02
6.798685582372950842e-01
5.675220130857315803e-01
-9.124696568765606752e-01
4.513887445108353269e-01
-4.349306073395132755e-01
-1.250837773269036224e-01
9.258401055116902145e-02
7.654634319859576763e-02
8.511399033828552507e-02
9.592779821710209487e-02
5.004204287671997209e-01
-2.618521019841454911e-01
-4.101295954990065162e-01
-1.115549043093031767e-01
-1.268025405460633248e-01
6.607310201783525017e-01
-2.689399013333932942e-01
1.365139615744493273e+00
-3.938992962798492647e-01
1.516424845915402275e-01
-3.199614954197338990e-01
-3.956340062125722201e-01
-4.056813125645241103e-01
-6.111894841530642053e-02
-7.417919973120391530e-01
4.156461613360599994e-02
3.124400112179282485e-01
1.784971872101807633e-01
1.221521366494259520e-01
-3.513705031663290623e-01
-1.673352683430235077e-01
-9.906928779407543628e-02
-7.415379172245100126e-01
-1.283589655404996088e-01
-6.012868584246228859e-02
2.196698315277077762e-01
-1.130471970796305126e-01
5.006061074022152280e-01
-3.286381733073716616e-01
4.660613120478129257e-01
1.663253571775420159e-01
8.179258188908734850e-02
-1.914050133072065507e-01
9.502652805717727580e-02
-4.360317043313789998e-01
-3.211613491936704534e-01
1.188846334994561604e-01
8.376053176965075897e-02
-2.471980016343584136e-02
2.160934387125688916e-02
8.103334585022058389e-01
-3.344274747967614786e-02
-4.197090919410091381e-01
1.752533583427826752e-02
-4.752940234412306175e-01
6.139328658920814030e-01
-6.771335701910070892e-02
4.555016546653937737e-01
-4.272205222470352171e-01
-1.459861022122177499e-01
1.966171353774606168e-01
-6.449745904820022302e-01
2.248704337241253515e-01
-1.545277298257917709e-01
-5.231670048457583155e-02
-1.448923641462568357e-01
2.910463286542255279e-01
4.008066535760003157e-01
6.138988189781020566e-01
-3.052305720007207901e-01
3.632709455808506571e-01
-3.640494494696819294e-02
-2.269507338423121801e-01
1.461244834895711504e-02
2.885805330624912068e-01
1.223210542642160364e-01
6.698082451183473562e-02
-5.202871386312187818e-01
-3.940019292029297571e-01
-4.814362506261102986e-02
1.731675328008062259e-02
-1.783737069528207597e-01
2.539032573887103350e-01
-9.643993204955320087e-03
3.099714588820984829e-01
-1.249746216824964284e-01
-3.070266843327542627e-01
1.699504364060806516e-01
-5.584906409786465353e-01
-8.317040379413299933e-02
2.247660702288213630e-02
3.613972105370260035e-01
4.818334913059729718e-01
1.814335039000819216e-01
-3.446207789864532689e-01
-1.197751434905477141e-01
-9.228259363198562659e-02
1.507039622792462341e-01
2.819851542792767285e-01
-2.326727848315197633e-01
-2.485931301550200201e-01
1.798879704984441552e-01
-1.424754373582632239e+00
5.529086478168772079e-01
5.605852377568684153e-01
1.195342562959644944e-01
2.291806772949899762e-01
-2.293928081641215689e-03
2.954476902718357612e-01
3.782127930735435482e-03
3.709737584294400259e-01
2.228672459164285080e-01
-1.935829578536081563e-02
3.163787833377575409e-01
-3.817167879588420631e-01
-1.512057001433107228e-01
-4.911163007192408947e-01
3.445079613594829726e-01
-3.670926954750386439e-01
-1.448076857039233556e-01
-5.087414222845209055e-01
-5.848945606075396375e-01
-2.819261724236768463e-01
-1.276398819588746292e-01
2.173825636807077688e-01
4.939930167081559020e-02
1.234582624774885617e-01
-7.465110419989194612e-02
2.139661671999182058e-01
5.218328688353210953e-01
-6.130051097200067689e-01
6.112393108183483692e-02
-5.496881616800713966e-01
2.120950066720917737e-01
3.453221724034967743e-01
-1.741104353584780884e-01
3.486167126365187219e-01
2.475344498485981537e-01
2.747686349555706342e-01
1.478725777691329013e-01
-4.987585686799645562e-02
-3.481394172754314481e-02
2.742353414666977574e-01
-6.049833332013153653e-01
1.300286125768480294e-01
1.724410237570411508e-01
-3.989490325413559968e-01
-5.645047640022815560e-02
-5.175609865425471190e-01
1.486058040625266030e-01
-4.856622901543453108e-01
2.785768844862097082e-01
2.427712695438175028e-01
-2.898541115102620802e-01
-1.259278935890775220e-01
-4.153867980572506502e-01
-8.727813140325411945e-02
-1.380339474148634393e-01
6.146611288520088534e-01
3.740496382385732344e-01
2.579612560455778469e-01
-1.221397022790807751e-01
-5.476446728005168046e-02
1.685067857979165584e-01
-2.115379981908312168e-01
-3.131308466053095430e-02
-6.672055818659179682e-02
1.012088645899506117e-01
-5.788229220491241112e-01
3.286274469725979919e-01
1.448578566092824371e-01
3.205085170642377884e-02
3.539550409647178042e-01
1.212552941647627308e-01
-1.745525370510288832e-01
-8.573487581523955847e-02
-4.874358896430069366e-01
4.805774294147488468e-01
-5.185826616770386477e-02
4.171907948470640615e-01
-2.692731502425705914e-01
-6.599619815564230496e-01
-1.057939947231568145e-01
2.572533621720991537e-01
1.460004769923072543e-01
1.682645315786659157e-01
-1.147282299560744255e-02
2.390662546971815960e-01
-4.810177158225490412e-01
-3.284923714672189354e-01
5.779543221316568724e-01
-1.880386843605123537e-01
6.888818293319290964e-01
7.836035549036757253e-02
1.798491160597774363e-01
2.202475621639646275e-01
9.084796537179433418e-02
1.333061594575071229e-01
1.556021020201976968e-01
1.015203256813891897e-01
-1.299854619165778380e-01
-5.024361316820790124e-01
7.210926607267061916e-01
-2.967890740981307673e-01
1.773297859517357355e-01
-1.213661149626972524e-01
1.487261113483892561e-01
-3.363437884539479672e-01
1.531616269055560975e-01
-3.764312522875884470e-02
-8.975746215033662823e-02
-2.138436292385867410e-01
-5.671645326454835545e-02
1.633764645843574503e-01
1.046446102459162170e-01
-3.562601052280733316e-01
4.770276541780934521e-01
-6.081940456682625173e-01
7.414673385643394399e-01
6.072203318188063026e-02
2.506809170283863519e-01
1.613647805440922012e-01
1.776206481723703878e-01
-2.707140098406865883e-02
2.831466559683180062e-01
1.390501697170895279e-01
-2.370007996052738222e-02
-5.636912251536071450e-01
6.367896030545626418e-02
3.130179119066515692e-01
-1.072217923559732299e-02
-3.238140026793512871e-01
-6.683268566962182744e-01
8.039131996527063562e-01
4.157128534551924326e-01
-1.221884643115005581e-01
2.432350919178188353e-01
-6.758978209099336665e-01
3.270196579486894239e-01
2.175874212092842597e-01
-2.116013216203117830e-01
3.253475830693992599e-01
-3.456422940186924531e-01
-4.752589523143671557e-01
-1.555865065418995941e-01
-1.107261274442056909e+00
-4.269649175194011881e-01
6.475941074340052506e-01
-1.451769456347836718e-01
-1.564767084335667580e-01
-2.178221628289425116e-01
-1.514845436376394405e-01
-1.112242095319663671e+00
2.877325831579340409e-01
4.005277052690648376e-01
-9.554945065546660565e-02
4.355814106251069268e-02
5.314724774745873681e-01
6.145561289060823794e-03
-3.241461986111440763e-01
2.646454296218988533e-01
4.464871940125862970e-01
3.895809488426651424e-01
6.798146168680672119e-01
-8.669085330031647829e-02
6.600560933802496200e-01
4.102697284826489765e-01
-6.054405217919829330e-01
8.462600428568710365e-02
1.726480898204841852e-01
3.640388080578790264e-01
-1.778123009956798506e-01
5.862002660801631793e-01
-2.008275302428919884e-01
-4.159051088987253952e-01
2.522747966864141711e-01
3.616080475141065786e-01
-5.404087505491107501e-01
6.263108946979940861e-02
4.662479893698106420e-02
-1.808934670613281115e-01
2.094965426977967171e-01
3.520148854968139368e-02
-1.435864550008409957e-01
-5.821567531544157709e-02
1.144234061947013575e-01
2.490116166114466068e-01
-2.617295698262965195e-02
9.110153103221231563e-02
-1.622215884251673734e-01
1.506466281262096862e-01
6.795664721475593861e-01
4.188599949210908280e-02
-1.134911599930585741e-01
2.814190772943222021e-02
-2.052017336011814283e-02
1.915344100994319509e-01
5.318963190953877873e-02
7.350802567560233980e-01
-4.241525413395995647e-01
5.821810852624591942e-02
1.833703004706253581e-01
3.079028823345685284e-01
2.538853051091325419e-01
-3.554252556795403639e-01
9.530813006900051669e-04
-1.310621273242842388e-01
-2.636027892059084055e-01
-2.552917534356185514e-01
-1.245315816301751921e-01
-9.599801528685940333e-02
-3.784010949603829332e-01
2.119443047573600913e-01
1.417045862576915283e-01
3.499338035794926083e-01
1.101387601637443675e-01
-4.057205478638630236e-01
-2.447974204495297068e-02
-1.906880608455704951e-01
5.201139508585413962e-01
-1.140909813114852622e-01
2.520458882657589973e-03
-1.135897225085374801e-01
8.762588794120841629e-02
2.123953349695175893e-02
-7.407804660484434978e-01
-1.062182306847566926e-01
-2.476252329895170801e-01
-6.245895639936133864e-02
-8.633536203908870332e-02
-1.271515824098257696e-01
5.223321931047325561e-02
-7.732141437107703519e-02
2.327580774039136324e-01
-2.572556703506098108e-01
3.898785623659544175e-01
5.702790641145216721e-01
-3.368398069100299042e-01
3.473812384897310701e-01
-2.423768334292205062e-01
2.347733670521615357e-01
-3.718797836446813831e-01
3.694970763359784610e-02
3.702874029493061769e-01
-4.639679633027911643e-01
9.675350646522988818e-01
8.219402474928849678e-02
1.941790847489129335e-01
-3.820953168807432743e-01
9.297689317693466626e-02
3.998027504361745949e-02
-6.209010356219055726e-01
-1.130368954571322332e-02
3.218144580718614312e-01
5.167959733545563622e-02
-2.343876544384642935e-01
-2.967702147842961602e-01
-2.165156632983449292e-01
-6.295008733466647133e-01
6.694385891036038760e-01
-5.252480594036087469e-01
-4.562243918226098482e-02
1.570899167812189051e-02
1.833214561034592349e-01
3.981833448140912890e-01
-8.249383811432983160e-01
2.729249384958647440e-01
-3.075145367103414018e-01
5.885431833996715989e-01
6.401641154719234228e-02
-2.511548394438034015e-01
5.625412283647350797e-01
-3.958969552862362518e-02
-4.287812197613823789e-02
-3.336747197221173189e-01
-6.302974166952823865e-02
2.729755733111016158e-01
-2.984623242270231791e-01
6.367264423245087013e-01
2.524139707505202446e-01
1.454430670411445969e-01
3.471087899913354868e-01
-1.805343863639562174e-01
8.625988173306418927e-02
5.689761450785325581e-01
-5.108162094363810635e-01
5.854012302650376393e-02
-1.164701518281494874e-01
-5.243554667653023242e-03
-3.894557907834199362e-02
1.470235459902284325e-01
3.300026144615134660e-01
4.323368397875344549e-01
9.340394132184470094e-03
-1.004537458670678035e-01
4.481272607870145364e-01
3.379272146940199284e-01
-9.345366604589094850e-02
2.797405876769670230e-01
-9.217434006190886597e-01
4.042201385040553596e-01
2.083659918946847434e-01
3.740935301481193576e-01
4.469113811482483545e-01
-1.202347584547160675e-01
-5.529388018609052852e-02
4.878475166556248133e-01
-4.039330737961654982e-01
3.960661712474110585e-01
4.225146058875110522e-01
2.929176870648682596e-01
5.693346441571679566e-03
4.639742460286564452e-01
-2.383025931849256651e-01
-8.674954871702620363e-01
4.251345669668358390e-02
9.016863725920508388e-02
-4.707204906003416012e-01
5.600602682129085519e-01
-5.800042830717954123e-01
3.881773596977621255e-01
7.058597269195436563e-02
-1.065867993185363183e-01
2.404963177041089251e-01
4.385064867673638123e-01
-1.356398081766970964e+00
-2.932275926880784644e-01
1.820463116594771003e-01
-1.660493557838466916e-01
-1.814032164254167356e-01
-1.314575001988751816e-02
6.831082132425637943e-02
-1.326593741484984046e-01
-1.442850106337337512e-01
-1.440916416006653433e-01
3.946552756910733373e-01
3.667152150211326345e-01
6.017147372773034020e-01
6.870088400173175458e-01
-1.289394819115179947e-01
2.242605984183289325e-01
-2.197931614302012573e-02
-8.383879431291270390e-02
5.961360943921992228e-02
-1.152774033808050103e+00
5.569272242408163098e-01
-3.433575533661224477e-01
1.460539290479690167e-01
-2.599718166156492205e-01
3.377192202148516231e-01
2.204850592789908692e-02
-2.488435626851476790e-01
-2.394167908881866536e-01
2.003699910314466481e-01
2.683901590817409644e-01
-2.972387301456030917e-01
-2.569352045931864170e-01
1.375225220610858945e-01
-1.685084302173774431e-02
5.824149302271161011e-01
-4.353764366761025961e-01
3.054726377793331449e-01
4.896087334972216154e-01
3.466541719259064736e-01
-5.415557020392900434e-01
-8.491598606626172829e-01
3.980430445039858656e-01
-1.240185440277457030e-01
3.051401905596414776e-01
-3.438746458635336123e-01
-1.089568983132600463e-02
2.431364243198639308e-01
-6.110903634934682083e-02
1.464053357139579181e-01
-1.598961763540020231e-01
1.069750823582641258e-01
3.098768134180037714e-01
-3.303980426526713088e-01
4.660172296104700962e-01
-4.809113988369850268e-01
5.315168418579323539e-01
4.997667307367027745e-02
-3.970551856214500352e-01
-1.028027777570357237e-01
2.459520949360177733e-02
-9.608120756139104657e-01
1.754057283287405733e-01
4.488979260731421062e-01
-2.508806916338573445e-01
-3.747177940169667265e-02
1.101956106987375672e-01
3.942508976241254071e-01
-1.063134182925325605e-01
9.656010181354125754e-02
-2.993363864192497004e-01
3.392636743932921362e-01
4.007889715356879184e-02
1.359029938286301364e-01
6.216343090667645344e-01
-4.596700174650117932e-01
5.191302502775102523e-01
-8.561661185117358519e-02
1.371204117161835823e-01
1.485487592408806512e-01
-3.032832972293632579e-01
2.660996484077361446e-01
5.126496099763501180e-01
-2.228544013157878201e-01
9.939272728898630727e-02
6.484968649043204580e-01
1.153517187338715111e-01
-1.372270476136814299e-01
2.199585948153776616e-01
4.415297596077812359e-01
-3.123746844822902768e-01
1.672138674072558562e-01
-1.925187544538572437e-01
-2.580994774899796340e-01
2.017277011737328984e-01
1.793098594263312362e-01
-3.334727054844779937e-01
-3.768688006608826579e-02
-5.398788037346632374e-01
2.930259190791243973e-01
5.470990217212945428e-02
-3.918888449444818400e-01
1.556401229120690233e-01
-7.232309399309486131e-02
6.942221562978312388e-02
8.226298190811599798e-02
4.604901024958973910e-01
5.314957838434927195e-01
-5.414849893269171321e-01
-4.981291188407618170e-02
-2.008183994778117154e-01
5.639247297769296452e-01
4.163567262643764755e-01
-6.327281607290954901e-02
7.289924819828342839e-01
-7.485371947845597118e-01
4.842293610501542389e-01
-2.896278958740468590e-01
2.990542545688139597e-01
2.774255097870873543e-01
-1.214107763375841947e-01
7.773128982229640105e-01
9.569419897858254254e-02
-1.946129907040614060e-01
5.774443396791658634e-01
1.360351167929394756e-01
-2.197460994423328651e-01
-6.294572188480597463e-02
9.669505618035846295e-01
-4.936218956012129733e-02
-1.130772908202793831e-01
5.488194645883848893e-02
-2.342468700356604150e-01
-1.948876602011052617e-01
-5.163733983254268356e-01
3.352901520190175177e-01
-2.167250031835077917e-01
1.631307255146734470e-01
-3.627814374939665187e-01
-1.324269346468148478e-01
3.502710588438935346e-01
4.808591208443563914e-01
1.532830862278279638e-01
2.547908343708746859e-01
-1.417735421600607448e-01
-3.893045155563538279e-02
-1.678115586494747791e-01
-1.382622584436759283e-01
-4.145753562571298234e-01
1.135966150342509855e-02
2.465526720305175890e-01
-3.773017090761982550e-01
-5.331423460664856673e-02
3.542763035361283785e-01
-2.494682182298465223e-01
-7.192392536722155144e-03
-1.823371894650270206e-02
-9.334380569659492255e-02
-2.241894129733356389e-01
-3.433591917642381253e-01
-2.202313320833806931e-01
1.515717892977830050e-01
-1.277005047220506340e-01
6.750652050393134151e-02
-1.779497235135640287e-01
-8.811868759720159483e-02
7.849094322621971709e-02
-6.617119350140306944e-01
2.554921639205316453e-01
-3.007768861396191151e-01
6.788439605161745716e-01
-2.308090963505237125e-01
-1.403317375725233740e-01
-1.631855020325883032e-01
-4.857633513848116924e-01
3.485668482252431422e-01
2.637859246307547312e-02
4.217812505609974671e-01
-5.128740477660364006e-01
-1.855228569318333465e-01
2.653928936641649083e-01
-1.280620688701432863e+00
-1.698025762226754443e-01
4.317233065023636240e-01
1.453875441771657340e-01
4.912096019745177539e-02
2.269832325085943681e-02
-3.639307299880583657e-01
-6.422482239283443528e-01
8.594977782745125833e-03
7.300730297829162163e-01
1.113195288412710399e-01
3.650919631188283554e-01
7.297162252818696626e-02
1.052711363564811653e-01
-7.977064179874077121e-02
2.612979098045579152e-01
1.133004399006847518e-01
-4.471087445030497709e-01
-5.423014347501574628e-01
1.816012665420352612e-01
-1.101773253671711750e+00
-2.940651146394139270e-01
2.238170300099978360e-01
2.564035728479808762e-01
-3.321670879687578237e-01
2.450135819298087381e-01
7.955806590656530064e-01
-7.570224391938653596e-01
7.905765705580873604e-02
-5.222088823557308190e-02
3.405104843028063932e-01
3.149997339453978196e-01
4.380733816931168811e-01
5.520802857561755150e-01
-2.464907478506778160e-01
6.773774148885068902e-01
2.334527791884213610e-01
1.382640269355387974e-01
-5.737874988113967900e-01
-6.439551517797628688e-02
-1.077417393598885331e+00
5.315843526637562544e-01
2.267008005520610714e-01
-2.656649687617332889e-01
-1.751539445265217487e-01
-3.734329978772547576e-01
2.366088001853786787e-02
-2.417588652894200607e-01
2.146142519370395074e-01
4.080241969666095758e-01
-1.683506345999102594e-01
-1.676536862720924836e-01
3.248104053525033841e-01
-3.753304092301597006e-01
4.039422703206613230e-02
1.811475045429630781e-01
5.264428294205140135e-01
3.802357091871407802e-01
2.993144251578505055e-01
6.396759284576404303e-01
1.741808483717569855e-01
5.704399506002453407e-02
-3.758241295364910806e-01
-1.436630087705087211e-01
-1.346150679873713285e-01
-4.693793756567932185e-01
-4.799767650341057457e-01
1.058114966277786534e-01
-1.089744404148870333e-01
-9.444651455346254887e-02
-4.526153551718584689e-01
-3.991908433058313777e-01
3.022896943669621805e-01
1.580671355636422692e-01
3.754543583356692027e-01
2.280013656311856152e-01
-7.291141641123143335e-01
-3.388907430083599320e-02
-2.430725607347115902e-01
1.448108941578109266e-01
-8.069595221338243807e-02
3.242814539779949601e-01
-3.164446565903938913e-02
2.646297286814102909e-02
3.049524041049777451e-02
-2.022341409050602001e-01
-2.089751540641332506e-01
4.104667240609887746e-01
-1.498326036503292991e-01
-1.522471611352020360e-01
-1.766455701545897594e-01
-1.996383033151386543e-01
1.446502014556833582e-01
1.766384718696480394e-01
2.966261346014851252e-01
-2.663503842552777945e-01
-6.496957047034016552e-01
-6.731591300852084181e-02
-2.092117104463041832e-01
-5.298405609523302306e-01
-3.790020191790509640e-01
-2.261297474193478887e-02
1.108337100826956995e-01
-1.903604474347902753e-01
1.856673270204323156e-01
3.520774763740322499e-01
-7.440051443669938591e-02
-6.029349397076354533e-01
-8.680280025963374446e-02
7.217330515599504337e-02
2.294032562200287728e-01
2.300621280278011827e-01
4.378048071780110684e-02
2.040738973762074582e-01
-8.060833693474529493e-01
3.588838201729824262e-02
4.550625069267671963e-01
-6.973266353149583097e-01
-7.374929203304444458e-01
-8.364649007476564480e-01
-2.005192743188423665e-01
-5.363177542608607018e-01
2.347897705218915387e-01
9.722365984316299059e-01
9.755850807706090144e-02
2.104791739953835450e-01
7.391761442408075755e-01
-7.399287395366259679e-01
-2.440253088282701821e+00
-6.437153188027949779e-01
-4.851352976083687651e-01
-4.196858314647376222e-03
-1.158699586881221100e+00
2.000887358384041637e+00
-1.572761011082110805e-01
9.259529026514390360e-01
6.745265984543781235e-01
4.237496954805276550e-01
2.967203991071186153e-01
2.205631978328107812e-01
3.729962711156543653e-01
3.460740851566577181e-01
-5.016769448866989500e-02
-2.556564403826105947e-01
-1.010225618078961773e-01
2.777079150203587421e-01
-8.380142589696492061e-01
2.452172828791683024e-01
-2.518282657565928603e-02
-2.128611787608394035e-01
2.622426344607063989e-02
-4.211881878060034778e-01
5.567885214019381301e-01
8.219420658800810631e-02
8.049616548946322836e-02
-3.427728058884261797e-01
-2.439210488770199303e-01
-1.826764983442014934e-01
-7.408883326176553263e-02
-4.847114992088163432e-01
-2.386860764006317470e-01
1.843918341885242007e-01
1.727685877059435826e-02
2.132767141114546294e-01
-4.377688545209858229e-02
-4.475879263546155284e-01
3.710083154806060879e-01
-2.798356747482263485e-01
-5.887383131402234016e-01
1.139671053810768914e-01
2.171767679194101519e-01
3.316053673060243012e-01
-7.312696029514057505e-01
-1.985558304893443315e-01
-2.344037804815103376e-01
2.166252189671803718e-01
2.925552748438627337e-01
9.038624464532292457e-02
2.444165516421905049e-01
6.025956807267492110e-02
4.416092468885755851e-02
-2.461954030183605702e-01
-1.641557324589985943e-04
-9.587058499802585121e-02
-5.254725598404939857e-02
2.189049617846735574e-01
-3.033196461773198793e-01
-2.472222537678978316e-01
5.945981063932796046e-02
-4.954808553181347733e-03
6.814137706598545619e-02
1.332791993154961163e-01
-2.235190683357279884e-01
2.154269627923705854e-01
1.874550939636570601e-01
4.362535655835967502e-02
2.843038472570366126e-01
-3.728045792451426671e-02
1.608925245244017255e-01
4.848308237811564669e-02
5.204803367754763654e-02
-9.222637782915521498e-02
-2.250295342627412487e-01
-2.834507229146965290e-01
2.370779259994548055e-02
-7.945490925618887892e-04
-4.717996854636546389e-01
3.847390272201566264e-01
6.133986557915551696e-01
-9.868767595463981412e-02
4.784188753284244755e-01
-1.444688828799890468e-01
1.200590342713841602e-01
-6.159669065099642182e-01
-1.248491428807762815e-01
-1.238066260424972864e-01
-4.563430990322479008e-01
-1.200134045417399625e-02
3.756205415727198460e-01
-4.123286538555965275e-01
-1.708109875396519317e-01
5.955606908153721762e-02
-4.795128969097554594e-01
-5.542797841315201882e-03
2.357559971361924619e-02
-1.098004290628015571e-02
-7.116349407982992537e-01
1.927916381536899371e-01
2.408343737798606943e-01
-1.039824305985639075e-01
-1.756060430512061676e-01
1.831636956107381697e-01
-1.282939642388625512e-01
-5.870056569034265426e-01
5.588443979278394369e-02
5.857616811407895252e-02
-9.747119879289872779e-02
-3.510200115891821682e-01
-1.003401373166216970e-01
-1.769923404015385018e-02
2.281955460840285471e-02
2.760623448095549937e-01
1.052838604992073074e-01
1.479397811480135938e-01
-1.815158926193563560e-01
-7.785100943169606658e-02
6.386186472919404278e-02
2.010171413882376815e-02
2.209685244075181298e-01
-1.207761869093261359e-01
3.265339496112709128e-01
-1.138554476740101934e-01
2.008686243697921717e-02
-4.262284114511211697e-01
5.360386747373604432e-01
-3.575022429044116823e-01
-1.942038666522554469e-01
2.379226576688632522e-01
5.395834173745323037e-02
2.731200151446671054e-01
3.546201786993181670e-01
-7.635699026673196943e-02
-1.670380035816062259e-01
3.231275464065694325e-01
-3.735733262114168673e-01
-1.145852069066360772e-02
-7.029841861679676507e-01
1.045361944386617559e+00
3.756506115957916614e-01
-1.758111755125190551e-02
5.748633961933261732e-02
-1.730616940422819716e-01
1.228342618205310766e+00
-2.158872110581017689e-01
6.561206290389385298e-01
1.790567384980817911e-01
-3.870283070591098440e-01
-2.721117792655536882e-01
5.419574494880313731e-01
8.538655278444805263e-02
-2.366227290913511805e-01
-3.258870541133514487e-01
2.564124346014130112e-02
1.859173308600419183e-01
2.178170341144399988e-02
-7.281214409313579994e-02
1.216578605348604819e-01
-2.955367511777957645e-01
-6.839197690663347817e-01
-1.390848250702331028e-02
-1.461942423095186905e-01
1.400660316920810944e-01
-4.087284467387807818e-01
2.890192609554588787e-01
-8.423529372061105969e-02
-5.086972496418766532e-02
2.675879554545469372e-02
-6.637987956333913919e-01
5.012463147789775891e-02
-5.177008149568909090e-01
1.810096674687970142e-01
-5.819386934180059007e-02
-2.345815425881615790e-01
1.370735038911740089e-01
-1.171475352331386929e-02
2.959576012072991924e-01
5.759843015245867948e-01
1.913881484323099944e-02
-5.439988299622998680e-01
-5.438354751944890486e-01
4.930689903272118119e-02
3.953690835756102362e-01
-2.648266735936826710e-01
6.230062013518995467e-01
6.732399697609048328e-02
-1.758941892169580135e-01
4.366242882032908001e-01
5.275337986720145950e-02
3.340998045165817776e-01
-2.259199762779383613e-01
-1.079471666873913771e-01
2.013707426415960455e-01
1.263134149204528899e-03
-2.102353785604766656e-01
-3.921156010171301942e-02
5.220321572448174963e-02
-8.697590970535705457e-02
-3.430476454371034212e-01
8.990840506831700163e-02
-2.036746008462917146e-01
-7.869100096106571018e-02
-4.351327550371198449e-01
-4.247728920507956030e-01
1.071374823367160917e-01
2.172290648678602276e-01
5.061668689920743175e-02
-4.341224952309127687e-03
-2.742870248621144813e-01
2.572896359933973462e-02
-2.857196783252365369e-01
3.825287523252617894e-01
-3.271542276289453599e-01
-1.798136441336805058e-01
-8.596283733808217364e-02
1.987302434620082381e-01
-1.352940856069679565e-01
-2.956518682731428815e-01
1.430670542724186631e-02
-2.759962619101875569e-01
4.281972574479885746e-02
2.226699874745959318e-01
5.012985393878378604e-01
-3.845785847660889711e-01
-2.267670530945668228e-01
-2.646135340948821968e-01
-7.047672251025264428e-03
1.835998182858245564e-01
3.344842310787703998e-01
1.445366486358040103e-01
3.344022734899484428e-01
3.591926942568681724e-01
2.148478445519477475e-01
3.145949925756275772e-02
-1.789509187510774924e-01
1.124085452168522084e-02
2.769435062665749903e-01
6.811473159564913615e-01
-1.110775761356634223e-01
5.217891268278987971e-01
-1.384200597511855979e-02
5.933095944570167951e-03
1.598298233763043863e-01
-3.087433149213476002e-01
-7.212551517121578160e-01
7.644825211781962337e-02
-1.992778272570082665e-01
5.689315419516269290e-02
-1.238791005592154992e-01
2.323771664341136856e-01
-2.097225231213889485e-01
-5.094876047697306960e-03
5.038646714994705622e-01
-1.068785948673398462e-01
-2.779179946893796035e-02
1.049637779937468152e-01
-3.329116797247402143e-02
1.515762774332495844e-01
1.515091178097187075e-01
3.273207392794006965e-01
5.574533974915553136e-01
2.702073980589130842e-01
-1.474999259309670852e-01
-4.177279155015675149e-01
-6.085980843436620269e-01
3.892318011714120396e-01
7.538511727006985685e-02
1.206358377867869092e-01
-2.537429421064738705e-02
-1.949371576072707890e-01
-2.492648959463545644e-01
-8.988392300428725556e-02
-8.288715419552865338e-02
2.074492921084570007e-01
4.364987258155915151e-01
-5.976445315285418974e-02
1.245709379980345505e-01
2.859628941865826057e-01
-1.647809166195400576e-01
-1.187416725465266998e+00
-5.618400362852811192e-01
-2.386807737764151394e-01
9.417165979733523040e-02
-1.002986363219938171e-01
8.332332726504642073e-01
4.536390261501321852e-02
4.800307755501825313e-01
2.481726155531595590e-01
-5.726809280275158703e-02
-6.402336419709493687e-02
-5.488469876029867800e-01
1.813434666213626367e-01
2.380015716032428119e-01
1.063951221157162091e-01
3.559033014388817140e-01
-8.304764382325151295e-02
1.190211542190923316e-01
1.695084917793175106e-01
-1.743289872659598699e-02
2.908895374972228498e-01
-1.524724662520934582e-01
1.138305793315732978e-01
1.912617295167726716e-01
-4.022931502687196459e-01
-6.103880874208472695e-01
-4.258460543955565614e-01
-2.220730314364652846e-01
1.972100363608269846e-01
8.492338725087333895e-02
-8.008449368000113144e-02
4.651724220362440376e-01
1.809893792857278083e-01
2.835163779268413120e-01
-8.701622860792691469e-03
-6.365256333218048679e-02
8.668932089758267512e-02
9.792742069345292122e-02
3.818121807949232394e-01
8.244344183736618259e-02
2.433230825533889696e-01
-2.935775660316685132e-01
-3.175770209478075978e-01
-9.990170359365879715e-02
2.603446794987588908e-01
-3.486995494366822157e-02
3.419903643018080697e-01
-2.164883963486921303e-01
7.088382208290318343e-02
-1.206752680403317540e-01
-1.254702621869035681e-02
2.403904144262868914e-01
3.564064641345150719e-02
1.286291220512473382e-02
-8.267969334078616173e-02
-4.904752149724862786e-02
-1.404140838080252807e-01
-5.544429574088397678e-02
6.486118422812290341e-01
-2.415827063494231097e-01
9.852588627060594739e-02
-2.080527732906822802e-01
1.051746849707153042e-01
-2.389143285436433686e-02
-5.579837779648751939e-01
7.564626767238254168e-02
4.954670225256396082e-02
6.265031696845528228e-03
4.463001828360584899e-01
-2.335567254718687313e-01
1.840445661397870358e-01
1.083879601497011347e+00
2.993349005640103533e-01
3.332392817500773874e-01
-2.698360837841733140e-02
3.965436949386023646e-01
-5.644598151907710415e-01
-7.387800838968250350e-01
-1.659888804526068240e+00
4.539561965048654613e-01
3.187640703221594318e+00
4.334274904318198285e-01
5.710099115385611768e-01
-6.299962982505302733e-01
1.467050112638541126e+00
-3.062006200178848836e+00
1.511095910001997389e+00
-6.524374573471295458e-01
-8.654661003325782032e-01
-3.611285520153496853e-02
