3.417309633655466472e-01
1.133652227661354345e-01
-3.345918740786670287e-01
-1.461545640299137805e-01
-2.365505505673057285e-01
2.615399830896885103e+00
-6.424787686888253253e-03
7.068697931331672235e-01
-3.266908050805776287e-01
6.505517398830619469e-02
4.703039262964303080e-01
3.656655573458136299e-01
1.899323107218585105e-01
-2.810264317118353894e-01
1.962541646900210768e-01
-8.914349046779137531e-01
-3.563356391543296420e-01
-5.632677181191168003e-01
-4.087012760202769490e-01
1.514157938810646753e+00
-6.230155179260934428e-01
-7.802816360479240820e-02
6.407508429062517274e-01
-7.799242396001563327e-01
5.317380106851081756e-01
3.859407898545272886e-01
1.257960559224154395e-01
1.839643431153250019e-01
3.260679408062504003e-01
1.951069945178296461e-01
7.467276715529616582e-02
-4.860106906279439143e-02
5.992731242200072250e-02
-1.311281359841216243e-01
-3.393677910375791473e+00
-2.860112059240294546e-01
8.537110398557871960e-02
-6.228164961805768840e-01
-9.323851026360707728e-02
1.474158864902185839e-01
1.326353302107906584e-01
-3.242710696638378964e-01
4.661205619300499980e-02
-1.174276966813583671e-02
7.354641204337374338e-01
-1.252341174798431211e+00
-1.217217342123674828e-01
-1.205518433301826058e-02
4.227751382239625655e-01
4.473760886123429592e-01
-1.003710668797801242e+00
-1.579130076641849512e-01
-2.795935665868483078e-01
-1.761618460254609775e-01
2.842330544182425922e-01
2.147966733108151727e-02
-3.522816661351092504e-01
4.735992172011357360e-01
2.521668007281892554e-01
-3.360081151592454463e-01
3.969735377781949404e-01
-3.168541522640019314e-01
-2.415242856416848216e-01
-3.226374035061970180e-01
3.308190865785208268e-01
4.528315144602681162e-03
2.368914234069587413e-02
4.236616937379001913e-01
2.674188784038600830e-01
-3.476488706296217146e-02
-3.213585681719622889e-01
2.307513512198200167e-01
-4.832869734357783838e-03
-2.726070963839046790e-01
3.522686756774151551e-01
-2.092354498937998852e-01
-1.005240237214705123e-01
-2.348657220049676086e-01
-1.079797563847804398e-01
-3.943664058599520850e-01
-9.744534650771209672e-02
9.104434228507130022e-02
2.326489364602436771e-01
-1.881523475406048432e-02
1.410387284926211682e-01
-4.200526703025672659e-02
1.737701677598028072e-01
-1.706896004180044890e-01
-8.395718310739848367e-02
1.253596541029162181e-01
8.170263337558054950e-02
2.064059073895049001e-01
4.775455350976315905e-01
-1.476868642460891778e-01
-1.849793218843066578e-01
4.810364489394351462e-01
-4.303111823833698502e-01
3.290024328425535105e-02
-3.277624166309410225e-01
1.657460914890560022e-02
-1.900892886199087306e-01
5.393722949160743019e-01
-4.405981715841812418e-01
-3.709935682668964452e-01
-6.236546184145270733e-01
5.091697328160856018e-02
1.633293459731129105e-01
6.071803082152233549e-02
1.253879365388969880e-01
-3.509898048322002140e-02
-5.514053066026207706e-01
-5.581106578136334484e-01
-3.367370993598031714e-01
1.463787266254836239e-01
-1.707397493362308449e-01
-2.388935618195921762e-01
-6.565279136906213564e-01
3.969402531127164124e-02
-2.333191618269707668e-01
3.734802312638912936e-01
2.828454520072026246e-01
6.743885081368358736e-02
1.288942808751229463e-01
5.040532436852234177e-01
2.326933211474404573e-01
2.318769064625097187e-01
5.087392469147866692e-01
-9.591238655210682085e-02
2.490625988593493101e-01
-9.165434854982421053e-02
2.231794195683169668e-01
-9.375853746011042489e-02
-3.275992978971995484e-01
1.399627108429004896e-01
1.013595601886121550e-01
2.774802482520907221e-01
1.741477668475079343e-01
1.073350555009203178e-01
4.491661686622159810e-01
-5.716350960517505575e-01
-1.324894059680332276e-02
1.935469303598254809e-01
-3.998083425212302644e-01
-9.794204082486276941e-02
-7.582354180902135532e-01
-3.630241490608736576e-01
-2.332650425468351385e-01
2.619133098732577269e-01
2.955852099636686048e-01
-4.028440742173390321e-01
-4.004483086671321683e-03
-1.012603741060925211e+00
-3.085602189060246969e-01
2.760738428355662966e-01
-7.952049281716817575e-01
-3.886047891376677166e-01
-8.239023378195795000e-02
2.073200937741100924e-01
-2.446097624788138858e-01
1.176223894136045445e+00
-5.172220636401129168e-01
-3.992878411115687864e-01
2.116885202334255756e-01
3.480376431817934213e-01
-3.127092053134709615e-01
5.150026779877382443e-01
8.771600454988078832e-01
-4.445521509115441527e-01
1.904788292017322443e-02
1.881872355509748573e-01
-3.597356094615730693e-01
1.601381194844462841e-01
8.608415275507802500e-02
-2.460977597723798538e-01
-4.125131684084292205e-01
-6.963277078864374414e-02
-8.068717258346221888e-01
3.451707734111861825e-01
7.262026787700807950e-02
2.482831092355291869e+00
7.421778640493367774e-02
1.452762418414706436e-01
-1.075724720321221684e-01
4.772302491923582218e-02
-1.966013922603007946e-01
8.457054005546420228e-02
6.019225787751802254e-02
-2.778257382666456388e-01
-3.891379395151107340e-02
-9.547302170859278680e-02
-5.436803842915850435e-03
7.658451387897270701e-02
5.860603549423937242e-02
3.905498027055499533e-01
3.267261538843034829e-01
-1.082111340269414773e-01
4.371699957718273161e-02
8.048103421865987483e-02
5.156903978361253998e-03
1.983639284667262914e-01
-1.887535447503363994e-01
-6.297100104819153277e-03
2.311944097513088936e-01
9.917188985066875684e-02
2.682938505568731036e-01
3.884045260502598795e-01
4.445987919742928063e-01
-6.288288078806017478e-02
-2.145476175952497344e-01
3.733381454264885768e-01
-6.387070574417519353e-01
5.689412207337275762e-02
2.225733745315703060e-01
-6.517550021414098005e-02
2.650325964447177163e-01
-2.069011426363847328e-01
-1.819933901104181795e-01
-1.646845029920940284e-01
3.372403444058734157e-01
1.796429044395386199e-01
-1.533072437514942585e-02
9.849926275949166810e-02
-4.346925086411044248e-01
4.674164936486561728e-01
-5.952108212299840329e-01
-1.442020484976224981e-01
-8.328437723042372842e-02
9.827038932944781591e-02
-1.201822095776519383e-01
-4.032156219805547170e-01
1.911870798989102060e-01
-6.598439223942080822e-01
-8.653787629603311438e-02
4.139330251163497176e-01
-6.370046349904331384e-01
-1.993837793053377661e-01
3.412305188204255435e-01
-3.035281421302671312e-01
3.480354607971258840e-01
6.521428693916050401e-01
1.180554762074032121e-01
-7.494209567543297368e-01
-7.364459219322730399e-02
4.359109567992692225e-01
-1.329752100312767971e-01
-4.046249116919350096e-03
-3.819881374289978426e-01
-8.216689372348512377e-02
-2.879105692891628654e-02
-1.980987612197988579e-01
-3.306543837471833669e-01
-5.741082465514761868e-01
-3.355282428024642938e-01
5.219256157707833355e-01
-4.815059887220383694e-01
1.342303857502463726e-01
-1.172473059614446561e-01
5.612079158596220418e-01
3.257264995179449674e-01
4.159674241054209243e-01
2.464026388044847082e-01
2.212169497544187735e-02
3.274256239086197062e-02
-7.117752813978846238e-02
6.233265884775691656e-01
1.210496502970087873e-01
5.381822136820598734e-01
-2.851463493629411983e-01
-9.464219755186335792e-02
6.559585235783739476e-02
1.218302860590398939e-01
2.753765358190644608e-01
3.118319638559127194e-01
3.364121248682402365e-01
-2.854562727164473568e-01
6.433468438922297639e-02
-1.225454934031238730e-01
-1.879174941725664794e-01
2.103990073060059973e-01
6.155615389148969552e-01
1.110395239746534285e-01
-1.591856593961441524e-01
4.994181435973484851e-01
1.423034634266644172e-01
5.122241204875555703e-02
-2.231280356131358500e-01
3.083100943766543534e-01
-2.684570002610552342e-01
-7.283050693740360237e-02
-3.116924209252928003e-03
-6.738750397533084524e-02
3.140818566233036235e-01
1.097870099947116096e-01
1.691777501988906696e-01
6.277722245346580021e-02
-3.175851307148402358e-01
-2.651916682874910780e-01
-5.790969867478361691e-03
-1.624797120230559444e-01
1.007037244768146794e-01
1.928312576763398234e-01
-2.249512785272850812e-01
-1.192608114147985926e-01
-4.329921349520179930e-01
7.598177217910245806e-01
1.813488789072321972e-01
-6.010267576675238921e-01
-2.750833373171443497e-01
1.697979351117562541e-01
3.287841349676431935e-01
-1.450118113239007300e-01
2.356737380619877142e-01
1.205790499200827676e-01
-1.682360812428309871e-01
-2.516621556699495665e-02
2.915763444456189735e-01
-9.301661986587095310e-02
-1.876803180697520501e-01
-2.610746367672808765e-01
3.525918151477152040e-01
8.302159222137128064e-03
-1.367656211323332038e-01
3.258497691680853348e-01
-3.316892517327686973e-01
2.030643161059019208e-01
-4.060980425880227895e-01
5.325068332532623822e-02
-2.677438228803927789e-01
-4.459045179721102814e-01
-1.648677527599101966e-01
7.839602822989243103e-02
-3.158897636557001509e-01
-2.273077174742823003e-01
3.219445281375606094e-02
-3.973273110620126891e-01
8.887136197361182599e-02
3.735266213613019359e-01
-3.856560674758191531e-02
-2.072239674589846370e-01
2.715006935790570050e-02
1.807815829558135669e-03
-1.118265807888317170e-01
6.838624252465886899e-01
1.153802297387526293e-01
1.554730497834287517e+00
4.220229517466670549e-02
1.153016970341949193e-01
-1.829146330752414451e-01
6.280552369881903241e-02
6.432319032728093244e-01
5.798403320899426783e-01
1.082988080946152287e+00
1.951561097676092205e-01
-4.128745832413252548e-01
8.701084607845456231e-01
-4.696820642483415797e-01
-1.011785586816150162e-01
-8.876278984998035027e-01
1.949646358054716033e-01
-1.189866681590754816e+00
-3.307321671701837218e-01
6.320799553672321047e-02
3.582781802916564229e-01
1.046748503699102828e-01
3.368443307659175212e-01
5.091805642209727006e-02
-6.520651301851031201e-02
4.505914885677623771e-01
-7.175294997679870779e-02
7.215164354382733181e-02
-2.066718176472162882e-01
-1.782629306387209511e-01
-2.612566000819315226e-01
2.796825139067192212e-01
-5.593751260230334782e-02
-2.334261065068940211e-01
8.742263538448186155e-02
-6.485378884198997329e-02
1.878250572521464323e-01
-3.375280457600322026e-01
-1.555817552436984663e-01
3.913690477876846652e-01
-1.233529947682305561e-01
9.373728021472893523e-02
1.745144920115246079e-01
3.762172353331727503e-01
-2.085654553409063972e-01
3.630540011653188986e-02
1.061939535004689794e-01
9.371429022551364119e-02
2.478428712079032981e-01
5.408723029451906888e-02
-1.060194787350664386e-01
-2.497942253813138225e-01
3.511205946250530174e-01
1.938310368622691848e-01
1.566875092441010475e-01
8.319550070489260818e-02
3.434090986060343575e-01
1.310870056243782500e-01
-1.774528559416079510e-01
2.989659963287365912e-02
-2.098022132849828789e-02
5.532582793627240092e-02
1.688233346750175334e-01
-5.394026219920730059e-01
1.451300725460749619e-02
5.045378856781937982e-01
2.765646448540883331e-02
-6.891704068528677896e-01
-1.052340657730976708e-01
-1.696121795143076261e-01
-2.666583693117923204e-01
-1.874195728620943746e-01
8.336749227433795650e-02
2.038931601836932728e-01
3.157286322625537101e-01
-4.470320417371966698e-02
3.093274748818397590e-01
-5.155904744985796428e-01
5.058527168881241792e-02
-1.207931293354373992e-01
-4.022267682571309955e-01
1.531277387145426883e-01
-4.952758210640491598e-01
-2.715741934181648554e-01
-3.442329312536547836e-01
1.581070421197381670e-01
-4.114306150601096390e-02
2.168923927097713908e-02
6.927469821609258394e-02
-1.634249801154586124e-01
1.084839532097100767e-01
-2.658811344087729234e-01
-3.739155533008354237e-01
3.531707519504307946e-01
1.452314858591776392e-01
7.566205801574449330e-02
-1.885282071667685952e-02
-2.012590581314309124e-01
-3.120260887816110329e-01
-2.647225401444915360e-01
1.710157118209351124e-01
-1.576518744493013158e-01
-3.282566655651713433e-02
5.624633494451761195e-02
2.424302264537367968e-01
2.832265307214616376e-02
-3.957215258166609795e-01
-1.788658003132259089e-01
3.924311105434506730e-02
9.544396278526962041e-01
-3.414240837673900297e-01
-3.014780489106628214e-01
3.977404090418687477e-01
5.688211283145142710e-02
-7.748455385223953495e-01
3.252272621717328116e-01
1.306900577256019103e-01
8.302992733387095647e-01
-2.109089261626710676e-01
-2.383704167347302227e-01
-1.490352267345695231e-02
9.186429565247417051e-02
7.919295674136174468e-02
6.260065087118629745e-02
-8.023351044052427772e-02
-8.354308744789165631e-03
3.391494234600903601e-01
-2.876923032112558287e-01
-6.579470025031799452e-01
2.208544802175469168e-01
-2.228168780115367398e-01
-1.856490430803433012e-01
-1.823485932782842323e-01
-2.660609426769895980e-01
5.632485563044840049e-01
4.765111351332456530e-02
7.487860582330355119e-02
-8.522468290813726144e-01
3.471522721788924404e-01
-4.350531686082054206e-01
-3.794652696884708853e-01
1.573298402586592315e-01
-3.276011668141879940e-01
5.454846189225878023e-02
-5.819944650204764702e-01
5.477356018655295949e-02
3.333954159293576192e-01
-7.232988027912247431e-02
1.443852160146849029e-01
6.828183752705097032e-02
-1.452333918726958495e-01
2.623539580902711429e-02
6.112036775633520463e-02
1.242572996613747205e-01
-1.703326629987357010e-01
8.647894836963775089e-02
1.505265018566930013e-01
2.708163600733114462e-01
3.433550856847702223e-03
1.667114109538974098e-01
6.420804601027949032e-02
4.333523131931311251e-02
-3.670078010521387046e-01
-8.284208988318129963e-02
-2.884848871067042242e-01
1.444459673041089687e-01
-4.080149711206890739e-01
-7.316588721909751333e-03
-5.085364858557293172e-02
-4.060189111069245627e-02
-3.963225108476809561e-02
5.918527140070122851e-03
-2.053876931628989544e-01
6.324118551806916233e-02
2.267619935393269670e-01
-1.307640435941775188e-03
-1.253173527187345093e-01
6.151509120830707111e-01
-4.511282869889807201e-01
-1.841405332189672561e-01
1.444918838342820755e-01
-5.934671529474832424e-02
1.786005168970169199e-01
1.332123874139818920e-01
-1.086948751774704514e-01
-3.796581627176556090e-02
2.251027622493335656e-01
4.535151231927178617e-01
9.677030831586465320e-02
-1.032562953069112999e-01
1.440172467203229036e-02
8.487540027775143311e-03
3.121945016292448222e-02
1.292144363181563504e-01
-3.995483924314667257e-01
5.085056376511975368e-02
2.043271176269295941e-01
-4.974251170193946456e-03
-1.704899286294538630e-01
2.468580838536190147e-01
9.756877798686849901e-02
2.168084115017617636e-02
-1.991859964349607659e-01
5.927451965198589356e-02
5.179430681829659822e-01
1.357226305033338298e-01
4.902885035351291915e-02
8.822655509083321412e-02
-1.488224062188577002e-01
-1.083495365798669979e-01
-1.057705571040120918e-01
-1.757495134983090013e-01
-2.930280203941540429e-01
3.947085757993048366e-02
-3.235537087546669355e-01
-8.604451791166556340e-02
6.715735770720487885e-01
-5.864504995293499945e-02
2.963524783708865740e-01
-2.672437966052476632e-01
3.106732639328026180e-02
-2.440220554827350896e-01
-5.652400262526799946e-01
4.763228964968522772e-01
-4.238183313421819975e-01
-1.657526305284473256e-01
-2.559748169364951531e-01
2.696078244895267484e-01
8.794411812122597538e-02
-3.794282221541129263e-01
3.996733080434458629e-01
3.482579908510539113e-01
1.035242603420983842e-01
4.573558047221886746e-01
2.783200295753146883e-02
-3.385242483642395550e-01
7.864108071628144181e-01
-6.158443494335028023e-02
-1.675660494538396550e-01
2.520020931135208420e-01
-1.001528150076778090e-01
1.361883412622318448e-02
2.665034116532521424e-01
1.667450136082930523e-01
-9.680593534707265801e-02
-2.550166594902335548e-01
-2.278296432277020223e-01
4.031953361138552183e-01
2.826957088596896220e-02
-3.541502170257082027e-01
-3.739953728185864135e-01
2.080241626439210123e-01
2.527133172159387042e-01
-9.706057598294076660e-02
-3.066433873173594060e-01
-3.114845311805939931e-01
1.197264740898086738e-01
-3.272712834247708258e-02
-7.925065395745636843e-02
4.027538342264128102e-02
2.222528261923500253e-02
-1.439584614571186479e-02
-6.394436530298701522e-03
5.554537778112405011e-01
-8.786205817640971305e-02
7.309964586869173442e-02
4.800858419974336072e-02
-4.165596869646344125e-01
-1.011320751062316642e-01
6.195962696330763464e-01
-1.159998340765627384e-01
4.098798451862677439e-01
1.100697560069148068e-01
1.510697391423538316e-01
-1.347081868955982975e-01
2.612284688852640757e-01
7.477578482527461601e-01
-1.705153659250681353e-01
-2.106216074704550800e-01
-4.927925007194232099e-01
-1.808056778866549696e-01
3.003086168496545139e-02
-1.921841656215266259e-01
-1.143250071125177653e-01
-9.060167150398647229e-02
4.710270537334545343e-02
-3.547840434543327870e-01
-2.120976831274936081e-01
-1.776944229910940309e-01
-2.712335849317245029e-01
-2.440930613854532527e-01
-3.566233259886767981e-01
-2.866350266387427403e-01
-2.412630883187197040e-01
-1.320621673612638047e-01
-1.816480985515829816e-01
2.854071631202249049e-01
5.699105854485823075e-01
2.858817148517614481e-01
-1.539403434593965003e-01
3.505644035755492438e-01
-3.194253166749329992e-02
1.492004818742450889e-01
-7.777216945886393784e-01
1.801202712654907390e-01
-1.949816282680143509e-01
8.734937563069779948e-03
9.762513628394871301e-02
-1.205118636312331043e-01
-4.835558682626014404e-01
2.302834694089050116e-01
-1.580653923100267533e-01
-6.079566591955014587e-01
2.388277011390448346e-01
-6.462012683034932259e-01
1.112986151288391512e-01
-4.701603710921720136e-02
-1.130166647134833446e-01
4.035084596433963916e-02
2.127129133938477148e-02
-4.731701186505185008e-01
-5.227822893449114439e-01
-3.293341073202605829e-01
6.746724528232310447e-02
6.751348908500555412e-02
-2.980144774388993056e-01
-4.317550785541193759e-02
8.873591302686205384e-02
-1.567250681938464341e-01
-1.085670918911701699e-01
2.209039280793986468e-02
-1.532857390327091729e-01
-4.989353070282921687e-02
2.149256002173681179e-01
-2.033208614439212525e-01
2.502358160679260535e-01
3.181240867258008920e-01
-2.726653940096295803e-01
-1.630721414364340871e-01
-6.481748894629099089e-01
2.099025753269648242e-02
-3.202009356152127895e-01
1.934307664531854654e-01
-8.641255940416271708e-02
-2.634369677987110636e-01
-2.321323051367607179e-02
-2.543291537902497290e-01
-3.052136092858856453e-02
-2.593747294811920082e-02
4.879755101035957582e-02
-3.480448495349666022e-02
3.673674788251918288e-02
3.805322197943664109e-01
-5.228856107690047633e-02
-1.081050238586302448e-01
-1.994625401084551830e-01
1.831424855682781822e-02
-3.547874660433602001e-01
-6.113765291710455685e-01
-4.210870419334757919e-01
-9.387388424792521280e-02
5.261697546972387007e-01
-9.922407286459496156e-02
9.260870922984950626e-01
-3.242868055508285607e-01
2.691842583818697121e-01
-2.636299661367196012e-02
3.470620010877956130e-01
1.891662694271617484e-01
6.856514944758073105e-01
5.596057903810917888e-02
3.909152394834101707e-01
4.068676757303767988e-01
1.939636569879657491e-01
6.345679087974932520e-01
2.812608147242643963e-01
7.622615182438924331e-01
-4.582808271203109990e-02
8.434293572533262118e-02
-3.047201716991814191e-01
3.881434417668151449e-01
-2.276226855793956061e-01
8.831860505175399834e-02
-2.529481420896947386e-01
1.957038115048347904e-01
9.431097229965532125e-02
1.677307211187145097e-01
2.348382465132682340e-01
1.309652560621599737e-01
-1.559078059598723309e-01
6.256335955933500781e-02
-6.071710885026815330e-01
5.412512300614602534e-02
2.140237060924315982e-01
-2.549110638612939184e-01
1.323733000814504013e-01
9.599060363158315456e-02
8.758559789456028810e-02
2.421952420334104461e-01
3.067028060007648271e-01
2.921751866295067002e-01
6.755209842614190094e-03
2.744611714402280245e-01
2.730117600838140313e-02
4.067391572486158124e-01
-1.531332361137666687e-01
2.264265657346010430e-01
-2.719147619497858659e-01
1.131869103899912493e-01
-3.407912605868997358e-01
-2.722904296968898796e-01
-3.021619692134804858e-01
-3.408353914224409031e-01
-1.118520154885121187e-01
-5.677213556646546477e-01
3.285288401092010258e-01
2.679269006451578949e-01
1.320526584237432521e-01
-2.462645357887113806e-01
-5.284485734395266698e-02
-2.640884708228130595e-01
1.685671263442255763e-01
-4.077042440543088841e-01
1.035965955161626040e+00
-5.555862954741419557e-01
2.087424144960989825e-01
-4.987860250415868668e-01
-2.580207571244643172e-01
-2.010788295905801548e-01
9.039677476025731462e-01
-4.399231645724054340e-01
3.768181501408012224e-01
4.480984206636074579e-02
4.052491784314555257e-01
8.885547095050927435e-01
-8.690307206879356594e-02
5.393071623548748583e-01
4.173566837711629174e-01
-2.421840097272846548e-01
5.292657897560941738e-01
3.572000675786964341e-01
9.906772307076845696e-02
-3.713661093836412852e-01
1.991323562237998571e-02
-3.801366577390312418e-02
3.651765435668191673e-01
-3.458728213665885898e-01
1.166200323182858406e-01
1.694466747426311426e-01
3.287611371195524046e-01
3.433448151841624330e-01
2.973381507421930525e-01
3.217005913705190401e-01
-1.460819673236793403e-02
1.686333266441839562e-01
4.725786284553641359e-01
2.131286471826209644e-02
-1.715613230003326939e-01
-1.086325323607822413e-01
1.396412402568726896e-01
3.144402035125528627e-01
-1.487270934297946490e-01
-5.220211397690858179e-01
-5.868759561312308914e-01
-2.589753969504391962e-01
1.087911146216766350e-01
-4.434835901495503413e-02
2.510549430071430943e-01
2.737875851537642513e-02
-8.116557722231868555e-01
4.150309146457256126e-01
-7.667642418066764609e-01
-3.805915183692947564e-03
8.129031291844654450e-02
-4.322046045041924578e-01
-1.163740069957872603e-01
-5.609146357873029398e-01
1.935043573400970218e-01
-3.487989524942989618e-03
4.765924016403070840e-01
-6.295219010169980089e-01
-3.252199136490203923e-02
8.363411716926912043e-02
-4.178040805214282560e-01
1.229556627466753954e-02
4.495045320213761353e-02
-4.678892158437001902e-01
1.310514052097931648e-01
2.381091691849235026e-01
-6.008446557524534937e-01
8.372902871480757125e-02
1.483295399740509890e-01
-1.368680711219108503e-01
-2.664586399939663508e-01
-2.882463193794608247e-01
8.242921085784105095e-02
-3.217679631322968303e-01
1.143178404044760677e-01
2.391966640320852822e-02
-1.917093995112144900e-01
5.307059426115222633e-01
-1.455437868952318969e-01
2.235567769842154440e-01
-1.311463236731273407e-01
2.686571797762133396e-01
1.278095425235400429e-01
-2.507132217469366653e-01
1.084538398892169048e-01
5.859866540020648717e-02
-5.556269043079177516e-02
1.738174351681004148e-01
1.225540458585270970e-01
2.086414405160265384e-02
3.411480096529179162e-01
1.820460505725819966e-01
8.403169228241184896e-03
2.357404446974940004e-01
3.397720800303474786e-01
-1.103298876994547734e-01
-2.452026759378859722e-01
-2.544716170540155253e-02
-9.714436702276576518e-01
-9.694600636022839002e-02
-2.755371165870912353e-01
1.425504214414510251e+00
1.421527252307547562e-01
1.844033785821670435e-01
3.175933541387703785e-01
-1.553298484142627833e-01
-1.012496656124364902e+00
1.447806961360203482e-01
-7.506240533216841371e-01
7.099026172569702364e-01
2.928568258265227264e-01
-9.788045373519224102e-01
-2.500109085276875365e-01
-1.609991522649554696e+00
-1.851292116900381979e+00
-4.368360101229937231e-01
-2.894617340979070419e-01
3.995469939457597097e-01
-3.617731740163711018e-01
2.754284918330351939e-01
1.061307706495141084e-01
6.249548369076974863e-01
-1.288616442091279624e-01
1.122257523296090048e-01
2.491813447525391412e-01
4.788273494397226465e-02
3.842055639177669596e-02
1.147621445839320381e-01
2.923094285118172340e-03
-5.063623826966348052e-01
-1.935620979356484361e-01
-6.497549568970944177e-03
-1.416379613732522171e-02
-4.816871652525641506e-02
-8.645456690129129651e-01
-6.729909597006536459e-02
-5.684959495081269854e-01
-7.002559199816471569e-01
-1.303015748889160552e-01
2.573027061353101996e-01
3.522358752874261700e-01
5.847963445697559881e-03
-2.501875287705199180e-01
-1.328318875384509323e-01
-1.991207948363110936e-01
-2.377174326845323676e-02
2.841294375416593930e-03
3.560051026715889133e-01
2.940419248284471543e-01
-1.215363026476722758e-01
1.744795169698864501e-01
-5.055349604040577649e-01
-3.501312549187458045e-01
3.085458675638660941e-01
2.959403750314849035e-01
2.677309993792337250e-01
-3.435859871610125182e-01
-8.783137222113346701e-03
-4.500996184931368438e-01
7.938652614619458314e-02
-6.277782857887874435e-02
-9.046691140151944532e-01
-8.610727816335037033e-02
-1.150411284674884987e-01
1.479336372772890318e-01
-1.044854731380934765e-01
1.523877965313892580e-01
-5.729639995907285233e-01
-4.106261017255189438e-01
1.639086851297437974e-01
7.124986096504595245e-01
-2.374033708242826932e-02
-1.562444065290668760e-01
1.891341065787865705e-01
-5.098243868911825905e-01
5.308837063148686974e-01
5.648884028079617647e-02
1.666482092102214430e-01
3.961169366890454069e-01
-7.652000381549936558e-03
-7.894869717793440156e-02
2.470416764692162370e-01
-2.146557536575860181e-01
-2.180688866512141555e-01
-2.788544789731499107e-01
3.020624118448049233e-01
3.463371531140952975e-01
-2.929602289020821759e-01
1.302661612146601700e-01
-5.086107864292459951e-02
4.053655296235775807e-01
-2.042651986683477749e-01
4.098743221864053488e-01
2.861102272923469747e-01
-4.270326769213330653e-01
-3.743072192423231581e-02
-1.489432994430848201e-01
2.286854266902283717e-01
1.228471234837042736e-01
-1.693014382461051071e-01
-2.732203784628211007e-01
2.425802249568353719e-01
5.980822429348868485e-02
1.920003224153243315e-01
5.033439509921440180e-01
2.379216607246260884e-01
-1.914674737648922320e-01
2.780067675601776700e-01
2.812205812066998975e-02
-2.583029562488994846e-01
-2.372770193137091754e-01
1.445870361834120446e-02
1.149871504680708700e-01
-7.231150117616909345e-02
1.097447608160801169e-01
-5.006718931991708914e-03
-5.752531521518927660e-01
-7.975518334476171534e-01
3.911517426653314533e-02
-5.416767408437499903e-02
1.956022677962094003e-01
-3.458393508549812423e-01
4.213259705069261618e-01
3.537528145265558810e-02
4.450537548409129462e-02
1.281362641900704036e-01
2.552152727307547830e-01
1.999399390056104675e-01
-6.351615410787198046e-02
1.266377091071517191e-01
6.384087793072718009e-02
-2.022091707143997275e-01
-2.805963974315870968e-01
3.638869171826797366e-01
-6.947463619768558599e-03
1.863982683496931692e-01
7.417220077569636194e-01
7.836958318048622973e-02
-2.776081358490986931e-02
-2.011613284326265252e-02
-5.035524357525850495e-03
1.794472530499716945e-01
8.200392776866610722e-02
-8.255893784208702402e-02
7.593930215640041226e-01
-3.241217327983934079e-03
-1.019336758632187756e-01
2.610537536536305381e-01
2.949471610316491410e-01
-6.860037005585001464e-03
1.425070402945005366e-01
6.887430781425528392e-02
5.048899956638092101e-01
-8.290492360104535774e-02
-2.003781326407056973e-01
-1.280276469214813306e-01
2.221710012374035828e-02
3.643413167829991917e-01
2.345730649263771117e-01
3.325722859510184537e-01
4.207865435399692905e-02
-1.199457170390068744e-01
-3.592854149406469744e-01
-5.600874016647968551e-02
4.611727377345247597e-02
4.223556938987364784e-02
3.315930567431568665e-01
-4.367580462317030565e-01
3.690293219365063382e-01
-4.657872845237400750e-01
7.747868891590295286e-03
-9.863278061340848002e-02
-4.122218067077523806e-02
-1.228336956453465467e-01
-7.316048158464463214e-01
-2.036155921276043210e-02
4.308048201259387366e-02
1.293324267944340467e-01
-1.833948030368478532e-01
-2.342297740517175139e-02
-1.159069232368105107e-01
-9.199180589669034291e-02
-2.334444586017224432e-01
-6.917667839449363754e-02
2.440998671183456092e-01
5.169835244127745505e-02
1.538622693596066252e-02
-2.617322213396302555e-01
-5.922634992246264725e-03
7.479427722683471523e-03
-1.110062632135950245e-01
3.493229266059604265e-01
2.608507919331951586e-01
1.008259473032226822e-01
-3.280910735005450052e-01
-7.679954760688142978e-02
-2.462403925065212440e-01
6.277823578512574665e-01
2.922320280365833245e-01
5.654572317288483752e-03
-3.655149589512306230e-02
8.441543323170017793e-03
1.883858141409798514e-01
2.631940783782232285e-01
-1.130608698035273918e-01
-6.800758202385251416e-02
3.986665673748288757e-02
-1.937760481993554551e-01
2.235378260066731709e-02
2.637858644842436262e-01
1.622087343363025902e-01
-4.907380034158120297e-01
3.217243736213080268e-02
-6.457866256258854021e-02
-1.161437268136504136e-01
-5.342334070641945321e-01
-2.325595947829535784e-02
-1.794641714427824136e-02
1.992837371622567244e-01
2.550930094042250240e-01
-2.890612138000878129e-01
2.405512215153343403e-01
1.218786126116146729e-01
5.376865577740224528e-02
-5.913126852569516867e-01
-5.737205527382699573e-03
-9.380918552084781259e-02
-2.079912161381077818e-01
-2.364465761861455628e-01
-4.015252321914604405e-02
1.328376947007460229e-01
-2.311391466973084993e-02
-1.047013725826811820e-01
-2.692852629516490071e-01
-3.345248574354351551e-02
-1.401107612818748016e-01
4.144525058088385783e-02
2.849488190638781171e-02
8.827480172513264833e-02
-3.135309436270429240e-01
-2.249580891267793370e-01
3.331527783641554663e-01
-5.177945290515965915e-02
-2.595146045286947922e-01
1.394462989513750029e-01
-1.596747305213947199e-01
-5.865412563696750792e-02
3.162191423582862981e-01
8.081075820262505205e-02
1.895971505048355543e-01
-2.638150371572828279e-02
9.343969473186006236e-02
-4.732658915387371046e-01
-1.866765249917914371e-01
1.489803095244915908e-02
-3.119205632000183748e-01
-6.904322297690804744e-01
-2.063268581890835215e-02
-1.376759162101539972e-02
-4.171913597092192227e-01
-2.282231833935756127e-01
-8.776958676188303943e-02
1.619896196065332972e-01
-4.471883619199554238e-01
1.550696636384405691e+00
-5.387810552910526907e-01
-3.191263107487015693e-01
2.917551909071006699e-01
1.538488623996279725e-01
2.174004970602903819e-01
-3.599990480881669064e-01
-2.444229400075451364e-01
-3.205259175878037992e-01
-2.811917519551770939e-01
3.764524278248369549e-01
1.520472158783394145e-01
-2.008605239312668267e-01
4.488062039638352485e-01
4.741914729073553984e-03
1.590844078226570368e-01
-2.963107253186312295e-01
2.342922569979013769e-01
-4.468708127843137312e-01
-1.590689997203084960e-01
-4.380497494932713010e-01
-9.290995945702169856e-02
8.184602494773275672e-02
-1.008853298481812016e-01
3.472836305665940038e-01
-4.540881153647208235e-02
1.334055694448887663e-01
-2.769028098381677849e-01
3.158899716776778499e-01
2.623924931977807407e-01
-5.679047998428408128e-01
-1.605783357754306528e-01
-1.044508282059752741e-01
2.736440901983703822e-01
2.412332318965320077e-01
7.737640347601634772e-02
2.780699321065102994e-02
1.654610853018105843e-01
-1.115416470383739089e-01
1.201495080079068994e-01
6.216746292431285514e-01
1.066374093776532583e-01
-3.419753646135256786e-01
6.124707384356862239e-01
-4.116406220225459212e-01
-1.178810716362313216e-01
-2.176161325679076830e-01
1.803391036279772264e-01
-1.546858491383814316e-01
2.986321942305926735e-01
-5.818829081694736061e-02
-1.702981123769660987e-01
-2.231216184959767534e-01
3.746274561610278830e-01
-8.314516186516582308e-02
4.468684423151323415e-01
2.315242339433206190e-02
1.342938514014780857e-02
-3.318861817842119200e-01
-3.094462850623756062e-02
-1.004571900630018277e-01
3.587508896743052955e-01
-3.016408425732700627e-01
-6.119092474582763508e-01
5.180866198030764647e-02
6.247683005737592055e-01
2.991916324984587594e-01
2.752045430336056420e-01
2.822393788045728935e-01
1.453030080056837148e-01
-3.631548033401256204e-01
2.181952850241253294e-01
-3.673765812630254424e-02
-1.237273007227423019e-02
-3.332851187924292247e-01
2.595710304152318293e-01
1.495145665294623193e-02
-3.018056179379768889e-02
1.600473282967680155e-01
-3.236140832914400356e-01
-5.819435571225056725e-01
3.262573572180052506e-01
1.991338926122583342e-01
-7.013369138709647510e-01
-3.021880758198553507e-01
-1.126455620868703489e-01
4.279878856949230759e-01
-3.999448674476257376e-02
2.936628670275092667e-01
-1.191995485331259624e-01
-1.513504315764648278e-01
-5.646001675736229686e-01
-3.119977863887362854e-02
-1.107945137817778897e-01
1.431910695442348280e-01
-2.943964007347216194e-01
-2.709150343268292849e-01
2.714535377819374262e-02
-1.207029086209769342e-01
-4.443267930793431270e-02
1.020402220629027523e+00
-5.811266693424853580e-01
-5.110968515354289421e-01
7.163772833481611979e-01
-4.053933645998445412e-01
3.711886785935644695e-02
-1.276350020990561773e-01
3.869102023649717004e-01
2.649856338045876447e-02
-4.184073473243771768e-01
3.407653020285219547e-01
-2.448782204648522198e-01
1.236830437374846631e-01
-1.795694689181555614e-01
-9.560930723049276825e-02
-2.389491228508992260e-01
-5.298212282456987721e-01
4.450672744398054825e-01
2.051655691243620128e-01
-1.383598091820172626e-01
6.284943118212631408e-01
-1.769691445915321654e-02
9.897180552622537875e-02
4.018084210369560205e-02
2.864826978375176886e-02
-2.950208963286511943e-01
-2.375645880953128064e-01
-2.887501257629146098e-02
1.465688115430907323e-01
-2.227358841382597598e-01
1.799655566108542826e-01
-2.654231062111283013e-01
4.993790419833880612e-01
-9.654639799478662021e-02
-1.823796890646065816e-01
-5.417112920095142753e-02
-1.128315107953404145e-01
5.710097680691758604e-02
2.251717633146077813e-01
3.198594289464710694e-01
1.436884141922202041e+00
-1.000369329999918760e-01
2.098028730572281120e-01
1.796824603099824239e-02
-6.481446487445005067e-01
2.528193751378063903e-01
-1.207317570332566425e-01
6.900886399243272296e-03
3.087921564078410439e-02
1.007643877156589318e-01
1.259509284861060896e-01
5.213320111533213674e-02
-2.945792564694480475e-01
3.489905502157512884e-02
-7.067855680648077454e-03
-1.381556836284244527e-01
1.671678492105147240e-01
-2.466680417941567172e-01
1.304037097804291480e-02
-1.474864015284328422e-01
-5.892692514984565477e-02
1.384208993003038513e-01
1.766053534592910146e-01
-6.875919058305707265e-01
2.909499859178413250e-01
-2.662112532087692607e-01
4.179183983244750822e-01
3.789621977630002955e-03
-8.929672532877364066e-02
2.267966932580921247e-01
-2.394841187751857448e-01
-5.082992613217635763e-02
2.921053724347368874e-01
2.069627539507759573e-01
6.193836736419073841e-01
1.446022025716597881e-01
4.052352674646895192e-01
-4.662576084030096157e-01
-1.712855980509380704e-01
-6.750712220881804893e-01
-4.103723986320798600e-01
2.041798168730500074e-01
4.886216065772507333e-01
-1.282189489168478636e+00
2.159123954911546239e-01
-2.029340922443695072e-01
2.186835718375229332e-01
-6.101437799697893016e-01
1.768923701282067440e-01
-2.643195238694611704e-01
-1.041227236965206471e+00
-2.216170603975754216e-01
1.846269768260460631e-01
7.851319791486079114e-02
-2.812811402519938553e-01
1.655128034066909171e-01
-2.630696444861052585e-01
-1.584091308194731373e-01
-4.004867532764316840e-01
2.666735988291419820e-02
-1.356998308696515665e-01
6.665568839569648019e-02
-6.263010460145393421e-03
-1.222026502314719626e-01
-2.287049738640766772e-01
7.315289860020836310e-02
-1.407564908630390133e-01
1.075900039624821253e-01
-1.522397878783922354e-01
-3.244965228173734423e-02
-6.599225790909733769e-02
-1.372309753204205840e-01
5.606749005626306959e-01
1.981414345100676322e-01
-3.232528048656700959e-01
-5.017669351854338045e-01
8.885528262339187008e-03
-6.995060769398590839e-02
-5.003458694764040260e-02
1.384064939636671654e-01
3.273320300883585943e-01
4.202979316795158460e-01
-2.633579683848900066e-01
-2.643990919366401848e-01
-4.137315634295313238e-02
3.353671643257436497e-01
4.844457040041144635e-01
-8.936940978991313178e-02
5.076980431123667703e-01
3.485104872039080925e-01
-8.412632999488452168e-02
8.703056023164727761e-02
-3.110175097409259917e-02
-2.291907242261802813e-01
3.597700019440979585e-02
-3.026226685940435757e-01
4.678935918399831362e-01
4.676381183197637070e-01
-2.309972101914974374e-01
-2.491857610472101858e-01
-4.477073133396891613e-02
-2.381460616287152665e-01
1.892479998944293085e-01
5.723720221088612198e-02
1.436797373077472184e-01
3.421678420819287969e-01
-2.013733614049038056e-01
-2.089842402847058023e-01
3.497040417837672666e-02
2.884186375497270749e-01
-3.352653169717668136e-01
-4.601703403878439347e-01
-3.873998240139829297e-01
-2.644466232056629298e-02
3.093034527567239400e-01
4.092361899627978694e-01
-8.371695883702658103e-02
4.774897634214494979e-01
-6.279411397797000915e-02
4.001857669128040806e-02
1.072472921828621500e-01
-2.844307835634349302e-01
-2.655293451501890001e-01
-2.708344608595815162e-01
2.746413006354860853e-01
-3.026204816573729861e-01
2.029610155277709327e-01
-3.636892976901281438e-01
1.708371629723008100e-01
1.501686563222222881e-01
-1.755533288329301500e-01
7.949231434080418490e-02
5.544085673497126665e-01
1.159503978043479981e-02
5.787157812700501058e-02
-5.602979101105134419e-01
-2.454264405100331781e-01
-3.728855278998920442e-01
-2.503805381638064542e-01
3.284158053530690791e-01
-2.530416411561349777e-01
-1.144732430848125343e-01
4.377595037517073573e-01
-3.026125743848347982e-01
-1.190033887351260034e-01
5.171744711319245513e-02
8.927834394940083185e-02
-1.299803072611519505e-01
-1.666727833623490584e-01
6.490451840959717000e-02
-4.139298750059959286e-01
2.448596044278562034e-01
1.926855612505846416e-01
2.037109556520559361e-01
7.879510398028619772e-03
-1.288392027980043153e-01
4.060905706558662898e-01
-2.883690976183557741e-01
2.266802967444441971e-02
2.732727455435212185e-02
2.392206510320645310e-02
-7.320804891176592444e-02
-1.749482327482094479e-01
-1.800883725305418848e-02
-5.288812252374771594e-01
-5.031836102373618558e-02
2.543917309541885441e-01
-7.447093136924089196e-02
-1.366712746762122621e-01
-1.600774907052203155e-01
7.182159895995539334e-02
-2.083006714763923628e-01
2.497711343696973896e-01
-5.236166512400244333e-01
4.225299377560952641e-01
-8.158287329076924221e-02
1.634684570045724372e-01
-1.376881797680892250e-01
-2.974365838844327259e-01
2.722179901982441086e-01
3.780777624553507410e-01
8.549435397394841707e-02
4.074588335779788517e-01
4.460349966709161729e-01
-1.927484373161551801e-02
-4.364410911099745327e-01
-2.202246870400450807e-01
2.805153108563729347e-01
3.344836538178452279e-01
1.925332114774110648e-01
-1.691810998918420461e-01
1.151632099715727969e-01
-2.242716162604245778e-01
-2.477718871832276792e-01
3.044492488536541808e-02
2.692156509356745039e-02
-9.385971754996698391e-02
1.928639768737237803e-01
-4.273263211437727110e-02
-1.644112096695792558e-01
9.592295749283101525e-02
2.435411696113655156e-01
3.088438934478752729e-01
2.204986555063352394e-01
3.528191080556223325e-01
3.687969204731746942e-01
-1.601636365751612778e-01
-2.951042641337693340e-01
1.529994279080310327e-01
3.492309821810659076e-01
-2.138402980913137741e-01
-3.709904050789643581e-01
3.768289990236389775e-01
-1.566463408250468037e-01
1.973557549171793546e-01
-1.358594193880235945e-01
-3.238832357957937558e-01
-1.310965666405987662e-01
-4.238012116642910776e-01
-8.610935924237705930e-02
-1.406661102554063354e-02
2.957466035416175254e-01
3.667935170974900294e-01
-2.540359358031653025e-01
-1.920024948113430163e-01
2.418030679003750627e-01
-2.119190003326761607e-01
2.116522729791358859e-01
3.159031312551996984e-01
-7.454321442019050670e-01
-1.527431212480994116e-01
-2.680560812192304132e-01
-6.637161628928069101e-02
4.960418716173619069e-01
9.499212587776992289e-02
1.362026705263075455e+00
4.106411175166495980e-02
1.224295762718184133e-01
2.620632309016073247e-01
-6.566015639333321052e-02
3.152348664394872407e-02
-3.634245732364311809e-01
2.498996756031628130e-02
1.414548926779755356e-01
2.408823085229606920e-02
-2.050916252591405975e-01
-1.598063808998003710e-01
-2.019239119075167399e-01
4.243341336874900671e-01
-2.019812627404227456e-01
-1.182610034886662914e-01
-9.366080001038318281e-02
9.411333684850141249e-04
-2.515624032779682495e-01
-2.231737860354525427e-01
1.025050031101348291e-01
-3.792212940286179834e-01
1.721345831656751757e-01
-2.622706623729104125e-01
-1.572467649049456295e-01
-3.178184492673555850e-01
-1.502856755376762166e-01
2.727986547814329477e-01
-2.446668166782218212e-01
-3.639657310851838745e-01
-2.517219644680509516e-01
-1.721422797023357820e-01
1.677081845909287813e-02
7.283696546471387333e-03
-6.974821484653831449e-02
1.633283204019351890e-03
2.133286015668276470e-01
3.217751612642640313e-01
4.125669002817157743e-04
-4.955245054478820688e-01
-1.102256263584188989e-01
9.428166524231558487e-02
-3.612469654102447997e-02
1.260022991250052682e-01
-3.984273659073228613e-01
-1.770629789034708634e-01
1.467831357272601778e-01
3.361021318118548318e-01
1.920512045411675583e-01
-3.513595181798660760e-02
5.995607595780476362e-02
-1.853617473682157568e-01
2.837141630880077314e-02
-4.110860824677366465e-01
-1.959564269105552314e-01
-4.481134490132798742e-02
-5.815124145355086982e-03
2.915266100950864581e-01
4.882130816893386419e-03
-6.283756714755001083e-01
-2.970060324923241013e-01
-2.577452344071541335e-01
-1.155090924456566165e-01
-6.657948172436436995e-02
4.342280511930554643e-02
-3.085397028708619094e-01
-1.696757453607024846e-01
1.158489877830521375e-01
1.730931798144670630e-01
-6.061138692333742917e-01
2.678368573269139796e-01
1.240289854567228206e-01
1.882605089724624925e-01
9.986146485082727509e-01
-2.132956392557134040e-01
-3.194552560959081910e-01
-4.005421196597032107e-01
4.857040678222081936e-02
-2.317122000476296573e-01
-1.024802230854203605e-01
-1.172572340422142201e-01
1.377910700214202422e-01
2.513155340656952896e-01
1.647701576938699064e-01
-4.677760565698078910e-02
-7.899986882840935587e-02
-3.162974786949040995e-01
8.670293997399550201e-02
-2.137154244951042503e-01
2.158936715402984263e-01
-7.272377915163948103e-02
1.134858805698889112e-01
-1.873860441955988929e-02
3.097732742052145549e-01
-3.514093344879470893e-01
-4.966108530857261671e-01
9.058298168996138655e-02
-1.362087402591986851e-01
1.481554052927146481e-01
2.232614989577971429e-02
-7.690668622509881647e-02
1.545757345079766809e-01
-1.921831278074258575e-01
-6.070863018276321382e-02
1.918598385678763410e-02
-2.178982177684482546e-01
-2.113288847036490226e-01
-5.267157540901651336e-02
-1.274671392268235393e-01
1.028184092787852097e-02
-1.466701760205953997e-01
1.218091073535636365e-01
-3.263990290197953947e-01
2.057537135098418402e-01
3.524656025850306795e-01
2.612424873801360570e-01
2.048681165718210795e-01
5.880070610647715468e-02
8.316899373642470950e-02
-1.425212987552189614e-01
-2.993925664892911342e-01
-1.277721099990025144e-01
4.987911775274795137e-03
-1.434653747166145243e-01
-3.323852667702839048e-01
-4.385041546279371816e-01
-1.976193825851080624e-02
-3.464909242600929667e-02
-1.623091187047272510e-01
1.161530611880995656e-01
-2.645747116610019933e-01
-2.525332475414155398e-01
5.587669588696985157e-01
-2.287892695685648237e-01
-2.661827020783471554e-01
-1.665637883299661004e-01
1.929960635014623671e-01
-4.312466722712190448e-01
-6.028919521856580116e-02
-2.935484270114180894e-01
-5.182610757681195279e-01
-5.950301473029421043e-03
8.482741417508869730e-02
-3.061644045080276835e-03
-2.516828338244658791e-01
1.388456474860259027e-01
1.352023809081045747e-01
3.020455040835091642e-01
-1.512702207420565104e-01
1.894461684950869140e-01
-3.072774088449694019e-01
-3.383511857213260532e-01
-3.722213299286932786e-01
2.827634806658562150e-01
-2.783456601131878427e-01
-3.599790295795396999e-01
-1.866862505159019303e-01
4.679629265065004921e-03
-3.053202491932830998e-01
-3.546796514950850687e-01
-3.836257135829780340e-01
-1.302070038500413307e-01
4.173211752844138700e-01
-2.271725515690484198e-01
-2.640815478767780805e-02
-7.124118781380681109e-02
9.618223867439909536e-02
2.995196989444491864e-01
-1.854734477375888646e-01
-4.656973222807003071e-02
-3.489197945129386413e-01
-4.272311776098831615e-01
-8.933633105379824510e-03
4.481028284491425651e-01
-2.290506424398277008e-01
-1.930035335076022707e-01
2.720780527165339233e-02
4.106895470081137894e-02
3.106331609152326312e-01
-2.781712552649605596e-01
-9.186590201491429131e-02
-1.347331703321051621e-01
-1.763729337264699493e-01
-2.666427602205893033e-01
-1.445362940142080888e-01
4.109671745707646311e-03
2.558057223140844383e-01
2.545647282109698151e-01
2.659784506793241854e-01
-3.765858440603603308e-02
1.058328216479215711e-01
-3.813520514887212831e-02
3.373051377402710993e-01
2.735630533076284787e-01
-1.763724305254227992e-02
1.480876495243701463e-01
-2.007497908271880238e-01
4.454603058855321346e-02
7.328585331056583496e-02
5.239114567184892657e-01
-1.386087320551354488e-04
2.409441902531248569e-01
-4.542868281271724706e-01
2.072893713789609738e-01
1.695446706195330444e-02
-1.127739031816792498e-01
1.023316233020721971e-01
3.956170106188547364e-02
1.833713634163920136e-01
5.814966268119669233e-03
-1.405619582290556779e-01
9.987057274361037240e-02
-2.443398505950936661e-01
-1.125532257086040988e-01
-9.763958773651436329e-02
1.164305617642380358e-01
4.955518741252700199e-01
7.240597312532346397e-01
2.976988730309801934e-01
-9.525932355577985122e-01
-2.892524346431629145e-01
2.383684715504141571e-01
3.445549019057151385e-01
-1.888800203688751900e-01
-4.287046594641671926e-03
-7.268213097789204269e-02
-3.544715407637671900e-01
-7.227849440223517441e-02
-1.468107951015624746e+00
2.715384912733462622e-02
4.579684670899349108e-02
-2.762948450097437170e-01
2.872113700348070120e-01
7.641052482913671673e-01
1.955034973731632486e-01
-7.021083361775726228e-02
-2.231608382001714058e-03
1.301908294797128607e-02
4.500392613735949010e-01
-3.555721984553489867e-01
-2.227794411429111221e-01
2.424547002828460196e-01
5.599968938475517743e-02
2.321867533537108341e-01
1.893922580360405949e-01
-1.301352844756958893e-01
2.289954552719112302e-01
5.160540420455580479e-01
1.904926738710180645e-01
1.349380406145644085e-01
-9.779435592069055105e-02
1.396696343476549335e-02
-3.092155028673615469e-02
-6.376466219277152070e-02
2.764005849150715788e-01
-4.617534775268979930e-01
1.437143053824095074e-01
-3.358353690645850265e-02
-2.962904926212961421e-01
5.822657568643188272e-03
4.034581103411127856e-01
1.489604414421632772e-01
-2.751502328337290249e-01
-6.534801520129270014e-02
-2.148736532868885662e-01
-6.586569353110148795e-01
-2.769093912511856881e-01
6.128123842721441145e-02
-9.646822643690527999e-02
2.268972824466805871e-01
-8.031863358577097378e-02
-8.363051744207658511e-02
3.370072786469803239e-01
-2.907427976068150399e-01
7.979420654677363625e-03
1.044147353056196492e-01
-2.243957306884499237e-01
-1.780574995619474965e-01
-1.133536607582701777e-01
2.600231656557308590e-01
5.009172834932344720e-02
6.871091339210726179e-02
-1.282177986879932396e-01
2.475297939194670560e-01
6.709447593641887364e-02
9.447899674010906690e-02
-6.715267664391358360e-02
-5.229718576187222800e-02
2.001893553032509099e-01
-9.013222015989900970e-02
8.668689799552692365e-02
7.475467789511408556e-02
3.267727679519639161e-01
1.665628837541782703e-01
3.111569742959406290e-02
3.524133876427170686e-01
-5.545233172747939809e-01
-1.991729517449757347e-01
1.113029306782928884e-01
1.449334894805338891e-01
-4.236240743615038995e-01
1.782116472736061386e-01
-1.628765101956303196e-01
3.400741716065042719e-01
-2.606080003208917084e-01
1.312547659786938437e-01
7.026109085494838813e-02
-1.394213630733949216e-01
9.864441998091943997e-02
2.103065343816544475e-01
-1.461572109396286068e-01
3.914877791012677521e-01
2.310036481596589031e-01
-3.175247285578249867e-01
-1.971931537200546369e-01
4.160203934143722471e-01
1.616245137880400751e-01
7.599543414272542929e-02
-1.174372245254544783e-01
2.135684232354002343e-01
-7.179832875965624917e-02
-1.949816736407279372e-01
2.862896890414410311e-01
1.934267733743870732e-01
2.341572838695480663e-01
3.897306252318925024e-01
3.107922541684058487e-02
1.903356772459268709e-01
7.613133107372117847e-02
-2.236919567068779979e-01
-3.216185854907191444e-01
-8.526302971661281482e-02
-3.554263548383146398e-01
2.987516991596282367e-01
2.517034179152569662e-01
5.190347570853385273e-01
-8.563674974076153357e-02
-3.256461319916104796e-02
5.318210655279218546e-01
-2.957439474016047842e-02
-2.380229794588626657e-01
1.189375444401891274e-01
7.627912915613500877e-02
3.549445954757168287e-01
1.909170495263556588e-01
8.154473545114961086e-02
5.638143941602227205e-01
-2.118224386271535739e-02
-2.489640689700245157e-01
1.871851240201510003e-01
-1.618641016477850303e-01
2.614418031392098940e-02
-6.964605591418397343e-03
7.832855561107598952e-02
-1.728717778336519573e-01
1.386232291810148010e-01
-3.555672510247330220e-01
-4.359424095586305614e-01
-9.353961060926098414e-02
1.018955787412542668e-01
-3.047578115026833845e-01
-1.634794662429909506e-01
1.533001981609674880e-01
-1.201354819906250704e-01
-1.372105780581807377e-01
-1.313054322922205530e-01
5.376823566024190731e-02
2.793425077659356451e-02
1.922389911667475026e-01
1.095336808837596154e-01
-1.474091838951092741e-02
1.922129745556746538e-01
9.865235231549347727e-02
-2.467095953566209379e-02
1.437366328877837940e-01
-1.858183631266887847e-01
7.396325810988448046e-02
-8.857310635234505458e-02
2.882443330578084162e-02
-3.119218048301078960e-01
-1.491717481874829387e-01
8.713513299241347487e-02
5.331531407806257283e-02
-6.699009719390755513e-02
1.527507846705084826e-01
-5.522572665131955105e-01
-1.817811357408494755e-01
2.181424123176389507e-01
-1.387390774527623438e-02
-1.248755759143668764e-01
3.010846353793173447e-01
2.760850924381059723e-01
1.945223498610128277e-01
1.026623583362007014e-01
-3.028213577697219105e-01
-2.549780488454398975e-01
-8.745713978220086282e-02
-2.348217773171180356e-01
4.404233193675591296e-02
5.128439026195794059e-02
4.605931009439796081e-02
3.676996669052983585e-02
-1.729982628546193613e-01
2.192024661044533473e-01
3.720384005962851792e-01
-2.005862091072098674e-01
8.127570494909841514e-02
-1.912721645773689250e-02
1.409016086230773790e-01
1.490443380025844866e-01
1.101432427706726530e-01
-4.283884681440859321e-01
2.785599080897859653e-02
1.431208143268395683e-01
1.864203442067160696e-02
1.928189125225647227e-01
4.011890143509665163e-02
2.464708985701918320e-01
2.232798992394258719e-01
1.222503840566758759e-01
7.462015425149984282e-02
3.389229043816376075e-02
-3.648812669197633585e-01
4.537523773058064758e-01
1.012295258937076503e-01
2.652114756025063420e-03
-1.278173988713644793e-01
-1.144692640450009902e-01
-3.996036005329295926e-01
2.194198181114634105e-01
4.346534144764935825e-01
-1.484836110003639187e-01
1.540972853037971269e-01
1.362536186854098608e-01
4.309058026683896397e-02
-2.132102802524545593e-01
4.147040623479461563e-02
-2.381270831800367804e-01
-9.653785421130199607e-02
1.066318435456981434e-01
4.747902834273540762e-01
2.342933494162606212e-01
-3.576391429001969935e-01
-1.120339246727773130e-01
1.899855970189379128e-01
4.522067963404187707e-01
1.632403569587709269e-02
1.061804079639118992e-01
-2.571345182838957188e-01
-3.962853952299818516e-01
-2.282375726115280778e-01
2.879076473878116466e-02
3.246658401477940381e-01
-2.068142664756480453e-01
2.960937798369080443e-01
3.945023030259433017e-01
-2.649408237971649371e-01
-1.178263166410936646e-02
-3.935939200998483933e-01
3.438735822664838737e-02
1.780659331445902382e-01
1.185342809729826447e-01
1.216352563234578688e-01
-3.483269725779610665e-02
6.241470262658359303e-02
8.426136922362208181e-02
7.643924446675073869e-02
-3.404706270956499581e-01
3.642782899303722011e-01
-3.255474274768955789e-01
3.133933143622196216e-01
2.791009997818415522e-01
2.306172678319027280e-01
-2.272017211049977836e-01
7.155219265237472426e-02
-3.952145171490450415e-01
2.889399283463505164e-01
7.181523177508611529e-03
-5.140009303066589430e-01
3.043061394567111999e-01
-3.553080901327888008e-01
1.549952177282877819e-01
-2.094851994167218068e-01
-1.730902565991898345e-01
6.795870581290179568e-02
-1.403918662549181323e-02
-1.847758183111106178e-01
-8.343123670289985527e-02
3.903991435751468647e-02
-3.035592045321644852e-02
-3.441112462801548030e-03
-3.517759400455124363e-01
3.121766526686768906e-01
-1.872902226481935190e-02
-6.092706265495461543e-02
-1.551351350519082073e-01
-3.618204235107686517e-01
-7.696300660456351084e-02
-9.489438778500785751e-03
1.927462466036608812e-01
-2.592852912759019413e-02
4.561240179286019103e-02
1.291328940618331200e-01
3.885227056642676646e-01
-6.329242365376452906e-02
4.126953299114828888e-01
4.492319273683602621e-01
5.808956641582262853e-02
-4.233231806145544285e-01
8.758560157088370046e-02
-1.603779145752565471e-01
4.884036669966789201e-01
-1.225185068829700435e-01
7.718810514243901362e-03
-2.456669926248870872e-01
2.721371186714512391e-01
1.509762142850205047e-01
-9.566500149720695567e-02
-1.517168362624266853e-01
-2.469361556332357044e-01
3.112725827768603737e-01
6.405650245406595555e-01
-8.336411063868530424e-02
-2.044332019798723588e-01
9.011575875222842258e-02
-2.225869959957406663e-01
-2.785107062015669266e-01
-4.346742910463816667e-01
1.473714921319839444e-01
-4.620207073247947771e-02
8.775170194315698446e-02
-2.047188767137211318e-01
-1.283078648160136392e-01
1.136748322604511363e-01
2.597696977658090975e-02
-5.262656664347907798e-01
2.535463749305159054e-01
6.837521136192620252e-02
-3.118419975991506554e-01
-3.560996416430081135e-01
6.501406743062274063e-02
-3.180148110236695747e-01
1.306922313180456374e-01
-3.753790188547421192e-01
2.467150436117795387e-01
-4.246793138068635232e-01
-2.225108889731880202e-01
-9.262791204637682574e-02
3.998382475140214998e-02
8.761278542100275641e-04
-1.346156911859658634e-01
-2.792303785625014911e-01
6.525237379900526713e-02
-1.272884368436427716e-01
-2.302907080339862966e-01
-1.585637591150074466e-01
-9.619227087078814631e-02
-2.633275173344071587e-02
3.696586269720784634e-01
-1.003246336421049767e-01
-5.298147085846053456e-02
5.340878544151100860e-01
1.741553064012675844e-01
-1.498859094515949952e-01
1.194418597431257667e-01
-3.160854474137940184e-01
3.522085857593722918e-02
-9.459390584686656889e-02
1.455462772046373920e-01
-5.701832414377175917e-01
4.310257841789361666e-01
2.054752293669429852e-01
7.776584437300843033e-02
2.383578969723741947e-01
-2.594517105433451487e-01
-7.482097375481336354e-02
1.566960646973431515e-01
2.716582173050176019e-01
-2.885439053782367647e-01
-3.329396270006347858e-01
-4.060389825697452437e-02
-6.238934430107382668e-03
3.325629168526753054e-01
-1.311765760348714283e-01
1.565115624009691120e-01
-6.176828316345875924e-01
8.156504606230888590e-03
-1.979709388454909402e-01
-1.729772948804531030e-01
-2.832129626259110577e-01
1.707016804233127127e-01
-1.678730045991930486e-01
1.123963661753705177e-03
-5.142115970249654111e-02
-7.289289077192816213e-02
-2.772566140224262954e-01
5.581170377158747690e-03
2.433012605956188720e-02
6.059182141159259460e-01
-2.496546272132446898e-01
-5.218581656824305970e-02
4.511454592905323607e-02
1.973017650347709817e-01
3.016417257734123059e-01
-4.146017758689838351e-01
4.127992294741734680e-01
-5.530626729665542862e-02
3.929203691635122508e-01
-1.034375526237286402e-01
5.890914284010758672e-01
-3.404932294553619787e-01
3.628505402347798614e-01
-3.499446924480862503e-02
4.456198054310828854e-02
-1.518655593714391405e-01
6.882545334529470427e-02
-2.273978782698022894e-01
-1.659696739265204349e-02
2.020753408250959282e-01
1.274462844346893609e-01
2.161896158009294147e-02
1.653316648375724451e-02
3.854300615584237838e-02
2.933531655206939592e-01
-1.472339050656818471e-01
4.929189221146371702e-01
1.581975610530277077e-01
-1.869985954325178723e-01
7.029095541206749342e-02
3.443128433935361277e-01
8.852601210426620792e-02
3.574081502750524608e-01
-1.869224734382265996e-01
4.534472338588859536e-02
3.445327443119540201e-01
-3.666791560662707172e-01
2.042355210434051438e-01
-1.224699945510473184e-03
1.502278177963535799e-01
-6.124709438238017389e-01
7.251605505802716234e-01
-6.729388340906179711e-02
5.790590586844310828e-01
7.003959085931867057e-02
2.697438423268909702e-01
-8.944363643610747650e-01
-1.184335513768370596e-01
3.267317304159229052e-01
1.635040414979317680e-01
-1.811170564302699015e-01
1.135679168901780223e+00
-1.282605596450441809e-01
1.225712582407250117e-01
1.518390711535096971e-01
2.318912088079390366e-01
-8.763618579948817544e-02
-6.085985501470296544e-02
5.921048022755621698e-01
-1.697716146955635941e-01
-1.254699849921804555e-01
4.922990485829097096e-02
-4.013950733594277565e-01
-2.614305547711987532e-01
-4.561498102069874716e-01
5.887391086288453756e-01
-4.853883027173538367e-01
2.435373270882592103e-02
-3.317090688389898734e-01
-7.756363410589388330e-02
4.393338393342006154e-01
4.566534704435264991e-01
1.793439060483788816e-01
-1.049616466477441279e-01
4.572323054682915777e-01
-3.984340417304675364e-01
-9.629105184432376063e-01
-2.741354653818225406e-01
